2804 100
kai 0.057091 -0.079153 0.0145 -0.10084 -0.14029 0.45278 -0.064461 0.063681 -0.00313 0.1047 -0.15166 -0.30397 0.14887 -0.089998 -0.15153 -0.042397 -0.0074219 -0.12005 0.2147 -0.090386 0.097574 0.28908 0.20238 -0.22297 -0.1499 -0.023605 0.31595 0.057661 0.043617 0.17224 0.054766 0.27247 -0.016429 -0.092 0.1675 -0.17054 0.33951 -0.1605 0.046065 -0.1899 0.052659 -0.083931 -0.070791 -0.097977 0.22843 -0.070927 0.054535 -0.015179 0.065507 0.10845 0.14272 -0.037186 -0.162 0.30795 -0.29509 0.024376 -0.24293 -0.12949 0.00060081 -0.22143 -0.013782 -0.16167 0.17509 -0.061721 -0.03261 0.023145 0.25419 0.05505 0.23553 0.028263 -0.055067 -0.050967 -0.16485 0.0047958 -0.078979 -0.056569 0.30072 0.046974 0.029369 0.11016 0.12571 -0.15108 0.33604 0.06024 0.066714 0.12106 -0.0026686 -0.12078 0.013371 0.27059 0.078091 -0.06709 0.0503 0.20659 0.21537 -0.080173 0.027226 0.074943 0.3578 -0.048301 
o 0.031511 -0.12164 0.33678 -0.25059 0.19641 0.35171 -0.35842 0.0078595 0.040157 0.011576 -0.19591 -0.23119 -0.15705 -0.054041 -0.22551 0.035905 0.20633 -0.070812 0.012269 -0.054703 -0.11128 0.17422 0.20165 -0.17218 -0.17582 -0.29037 0.14504 0.11172 0.22705 0.17595 -0.0939 -0.02625 -0.10273 -0.041568 0.11313 -0.42049 0.32636 -0.14081 0.0036485 0.10369 -0.083271 0.11363 -0.12572 0.007261 0.27091 -0.22178 0.054511 0.058655 0.063265 -0.11406 0.25489 -0.047624 -0.068213 0.46361 -0.038231 0.10031 -0.24657 0.048096 0.21793 -0.14033 -0.01725 -0.04407 -0.00096827 -0.20417 0.021971 -0.10416 0.1768 0.10752 0.28585 -0.15494 -0.0062152 0.12141 -0.083768 -0.14603 -0.021648 -0.061515 0.14924 0.055737 0.33283 0.12281 0.14484 -0.12603 0.38904 0.22263 -0.0063837 0.078218 0.028855 0.05053 -0.065823 0.39842 -0.059523 0.00049804 0.05928 0.34502 0.42964 0.14444 -0.17714 0.091618 0.20575 -0.075614 
en 0.047375 0.14686 -0.050367 -0.13096 -0.25173 -0.0099772 -0.11969 -0.073699 0.11672 0.19393 -0.21758 -0.24572 0.26599 0.012202 -0.23839 0.20171 0.017081 -0.099752 0.34441 -0.23515 0.094642 -0.083441 -0.044381 -0.061194 -0.24732 0.012906 0.19879 0.14382 -0.26987 0.23424 0.16156 0.26727 -0.47112 -0.23816 0.15806 -0.24884 0.24141 0.17872 0.016593 0.081705 -0.30605 0.060888 0.03216 -0.14757 0.28774 -0.18714 0.1707 -0.059242 0.061319 -0.27889 0.27913 -0.0032275 0.040303 0.59353 -0.14165 0.23209 -0.13393 0.27323 -0.034165 0.015876 0.29855 0.15988 0.082116 0.16837 0.038448 0.38728 0.41486 -0.044576 0.42571 0.070444 0.022705 0.10642 0.048657 0.13113 0.15521 0.24092 0.16353 -0.1432 0.25365 -0.069321 0.35512 -0.089915 0.60234 0.16946 0.39917 0.24292 0.076587 -0.1639 0.10506 0.27804 -0.26282 0.31367 0.10213 0.023271 0.15795 0.11342 -0.025852 -0.056952 0.30834 0.14618 
de 0.13182 -0.032844 -0.12658 -0.21955 -0.072362 0.36351 -0.24426 0.018686 -0.051558 0.079608 -0.090851 -0.37176 0.098758 -0.15227 -0.14707 0.17257 0.082607 -0.083038 0.19523 -0.090714 0.15222 0.025747 0.085094 -0.091984 -0.06715 -0.017714 0.11795 0.19973 0.016431 0.13864 -0.0017925 0.19153 0.049333 -0.16789 0.12643 -0.35417 0.31216 -0.17883 -0.03598 0.13234 0.0031144 0.064043 -0.15291 -0.11616 0.10218 -0.19095 0.057893 0.13416 0.20513 -0.18527 0.19021 -0.066762 0.056871 0.41393 -0.22418 0.040299 -0.31444 0.066699 -0.020963 -0.11241 0.070985 0.075784 0.2566 -0.18731 -0.12019 0.099318 0.26853 0.2083 0.16873 -0.12725 0.006042 -0.041805 -0.37237 -0.10366 0.036987 0.063164 0.27392 0.050539 0.042043 0.0090842 0.096461 -0.010695 0.54307 0.22208 -0.0060985 0.1426 -0.096581 0.089167 -0.072155 0.23606 -0.23032 0.024938 0.057808 0.26252 0.29802 -0.17783 0.036788 0.038098 0.1533 0.16249 
tou -0.20641 0.08748 0.34308 -0.00058273 0.05722 0.82824 -0.044245 -0.27087 0.19654 -0.13807 -0.19075 -0.11298 0.17006 0.18373 -0.30602 0.14935 0.42096 -0.11196 0.26338 0.31383 -0.026828 0.30463 -0.0081813 0.0070179 0.037485 -0.20508 0.41092 -0.11711 0.33643 0.21203 0.17829 0.16373 0.1893 0.28547 0.33854 -0.29189 0.36305 0.44539 0.35515 0.089542 0.22879 0.027328 0.22707 0.18265 0.20248 -0.2678 0.23242 -0.26491 -0.58535 -0.25675 0.28551 0.27442 0.34688 0.57924 0.22224 -0.23957 -0.083777 0.10201 0.39766 -0.43203 0.17212 0.14523 -0.26523 -0.31606 0.085149 -0.034277 -0.21796 0.04169 0.17649 0.0061898 -0.32962 0.14725 -0.0044249 -0.29547 -0.10916 -0.080933 0.34007 -0.24345 0.26936 0.31059 0.040733 -0.11364 0.60135 0.011386 0.2029 0.12813 0.53004 -0.30118 -0.14526 0.11984 0.13274 -0.12358 0.25523 0.42646 0.16824 0.42608 -0.16408 -0.038323 0.21208 -0.14775 
eiv 0.16088 -0.023937 -0.18865 -0.076406 -0.21367 0.26984 -0.17281 0.11136 0.073162 0.26368 -0.10909 -0.4048 0.17889 0.026615 0.035929 -0.021375 -0.29084 -0.1935 0.21726 0.07749 0.036334 0.2632 0.079951 -0.087027 -0.095352 -0.020049 0.42019 0.084623 -0.15053 0.13149 0.043123 0.29341 0.10819 -0.13604 0.2512 -0.12411 0.12347 -0.16762 0.069798 -0.0065679 -0.07304 -0.046407 -0.022405 -0.18967 0.25323 -0.12151 0.074162 0.19306 0.24782 0.0060902 0.081127 0.052907 0.056698 0.44694 -0.26106 0.12824 -0.29847 -0.15615 -0.039104 -0.19116 0.11283 0.092202 0.28685 -0.05163 -0.19955 -0.047405 0.35119 0.1996 0.26317 -0.086707 -0.021794 0.16154 -0.11411 0.17054 0.14578 -0.099053 0.21042 0.0062174 0.051343 -0.006501 0.070671 -0.24027 0.30138 0.18719 0.18103 0.069826 -0.092237 -0.082296 -0.11513 0.34844 -0.029374 -0.13546 0.098506 0.11803 0.13804 -0.070061 0.027776 0.0073695 0.054261 0.057325 
to 0.0021092 0.049738 0.10653 -0.22253 -0.14758 0.48515 -0.16144 -0.012252 0.2227 0.1075 -0.033964 -0.15508 0.11642 -0.029724 -0.18155 0.042028 0.0027024 -0.072105 0.25189 0.011714 -0.011312 0.18931 0.056067 -0.17352 -0.088507 -0.13335 0.32766 0.035562 0.075958 0.21094 0.11877 0.22829 -0.049444 0.10406 0.098042 -0.25407 0.29372 0.044116 0.14442 0.027988 -0.098084 0.091226 -0.0013239 -0.044743 0.36291 -0.094537 0.21351 0.013277 -0.14326 -0.34896 0.32644 -0.0042152 0.016159 0.40143 -0.25899 -0.0031671 -0.11539 -0.12911 0.077207 -0.11767 0.18302 0.090268 0.11486 -0.026166 0.035465 0.062597 0.088594 0.053 0.33127 -0.090596 -0.22208 0.068267 0.022373 -0.18124 0.073374 0.12905 0.18536 -0.11743 0.17835 0.094063 0.085965 -0.077322 0.59591 -0.021743 0.2148 0.012799 0.20681 -0.047955 0.084297 0.17277 0.18692 -0.049597 -0.01782 0.28144 0.15084 0.1344 -0.15748 0.15933 0.021132 0.040908 
ton 0.097547 0.23019 -0.43049 -0.38672 0.12939 0.68671 -0.064874 -0.14987 0.11121 0.0022474 0.12505 -0.42431 -0.35598 0.17932 -0.12141 0.079512 -0.15843 -0.26327 0.0082392 0.101 0.030224 0.26928 -0.33884 -0.80264 -0.13781 0.064124 0.10792 0.47026 0.16457 0.58765 0.20237 0.49085 0.25419 -0.16957 -0.23235 -0.39817 0.23397 -0.55803 -0.030157 -0.040236 0.24935 0.30783 -0.65611 0.020307 0.56166 0.054545 0.34291 0.77599 -0.085779 -0.48993 0.17766 -0.3971 0.50713 0.47218 -0.30982 -0.20458 -0.27903 -0.32535 0.10648 0.181 0.22271 -0.060166 0.11247 0.19761 -0.27377 0.41826 0.32296 0.098026 0.59591 0.22893 -0.094364 -0.13607 -0.27694 -0.14804 0.38736 0.33367 0.41201 -0.074736 0.33816 0.096745 0.14583 0.25778 0.61248 0.017424 -0.034599 0.19144 -0.43029 0.43872 -0.081559 0.34986 0.23483 -0.18981 -0.36982 0.17143 0.31807 -0.3962 0.16606 0.037285 -0.095699 0.8346 
thn 0.28654 0.17556 -0.01747 0.048846 -0.16971 0.46706 -0.23097 0.1955 -0.15318 0.22192 0.20622 -0.28641 0.27734 -0.045528 -0.042862 -0.25579 -0.078701 0.028603 0.16505 -0.077001 0.0087595 0.11964 0.38088 -0.34046 -0.25932 -0.15974 0.20631 -0.41617 -0.22112 -0.0097027 -0.21673 0.51052 -0.15997 -0.037982 0.30142 -0.030752 0.097725 -0.19083 -0.15331 -0.44655 -0.15593 -0.2338 -0.18806 -0.092746 0.23189 -0.11985 0.19723 0.043691 -0.23765 0.13615 0.21927 -0.078003 -0.16378 0.21225 -0.60129 0.25255 -0.0012172 -0.23084 -0.0040679 0.047864 -0.18222 -0.043978 0.60675 -0.13969 -0.10561 0.045926 0.31705 -0.0055493 0.60802 -0.15944 -0.038282 -0.016096 0.12117 0.17499 -0.027145 0.010995 0.13755 0.096203 -0.013395 -0.15183 0.26809 -0.21197 0.34087 -0.060484 0.14368 0.10973 0.00013824 -0.17012 0.15446 0.14889 0.38086 0.11978 0.19501 0.38785 0.21162 -0.18058 -0.1522 0.12752 0.10872 0.095936 
autou -0.019307 0.092028 0.21277 -0.099864 -0.050682 0.56058 -0.21657 -0.09633 0.037239 -0.019227 -0.010432 -0.20638 0.18045 -0.017846 -0.23532 -0.0089622 0.25615 -0.059337 0.20176 0.019922 0.012651 0.14639 0.14793 -0.015762 -0.064745 -0.17103 0.24131 -0.085662 0.082724 0.20868 0.022946 0.1115 0.01095 0.16981 0.26689 -0.25256 0.27672 0.1342 0.11003 0.029883 0.028172 0.053941 -0.0049652 -0.047663 0.23658 -0.1559 0.18448 -0.040474 -0.084572 -0.30939 0.25102 0.12972 0.080047 0.54264 0.014908 0.015822 -0.062682 -0.065765 0.24624 -0.26279 0.062034 0.050477 0.14144 -0.18433 0.037628 -0.033567 0.21277 0.17895 0.22288 -0.20076 -0.14128 0.0625 0.071437 -0.21464 -0.026498 -0.049563 0.2503 -0.10295 0.19445 0.076129 0.10418 -0.11762 0.53408 0.016881 0.085452 0.073114 0.27947 -0.044556 -0.074882 0.12366 0.041955 -0.070636 0.21911 0.42521 0.33373 0.18253 -0.13154 0.15091 -0.025763 -0.049487 
h 0.051238 -0.03224 0.25063 -0.099233 -0.062458 0.35498 -0.028348 0.17598 0.088699 0.12083 -0.18205 -0.21564 0.24543 0.053317 -0.14344 -0.094482 0.053603 -0.20048 0.31475 0.02278 0.066899 0.24645 0.22813 -0.13104 -0.1674 -0.33218 0.41358 -0.099967 0.10277 0.22006 -0.073855 0.17994 -0.29141 0.025192 0.23985 -0.19487 0.3636 0.034884 0.022348 -0.075591 -0.099975 -0.10895 0.015895 0.0026889 0.18277 -0.016395 -0.038591 -0.20813 -0.19784 -0.04942 0.12803 -0.0071043 -0.090652 0.13804 -0.21846 0.13482 -0.18845 0.090664 -0.0047027 -0.10476 0.06506 0.017509 0.037652 -0.12771 -0.037738 0.12526 0.14347 -0.20032 0.36895 0.044235 -0.077113 0.22339 0.23628 0.090486 -0.03645 -0.08848 0.044033 -0.030047 0.10103 0.0021126 0.14015 -0.26031 0.43277 0.079617 0.33392 0.11281 0.14585 -0.32755 0.011704 0.48946 0.059899 0.024172 0.18192 0.1893 0.12069 0.12807 -0.17579 0.03106 0.34345 -0.086076 
thv 0.21177 0.1805 -0.049561 0.071232 -0.26956 0.07319 -0.25317 -0.10285 0.020456 0.29059 -0.40959 -0.43795 0.20495 0.060976 0.12008 -0.0070027 0.024689 -0.15348 0.10693 -0.21067 0.096199 0.34174 -0.14753 -0.17329 -0.36882 0.0088615 0.25978 -0.11731 -0.099789 0.39506 -0.047025 0.35498 -0.30132 -0.17002 0.40408 -0.28991 0.30163 0.016504 0.0046475 -0.46288 -0.050725 0.0095447 -0.12305 -0.08092 0.37343 -0.18577 0.17806 -0.268 -0.019394 0.31137 0.25764 -0.13064 -0.074506 0.57772 -0.099304 0.33395 0.051436 -0.089434 0.17243 -0.16348 0.153 -0.063016 0.11482 0.23182 -0.23102 0.25063 0.17397 -0.069698 0.54147 0.20355 -0.031335 -0.11617 -0.12852 0.091117 0.062999 0.26735 0.29368 -0.30388 0.22705 -0.060438 0.14616 -0.22818 0.36142 0.12097 0.20139 0.25028 0.24218 -0.22593 0.15357 0.22563 -0.09692 0.20962 -0.084768 -0.18305 0.11258 0.20736 -0.015224 -0.26713 0.31376 -0.071595 
oti -0.02656 -0.14781 0.16958 -0.19666 0.022387 0.21092 -0.033731 0.10021 0.22944 0.13546 -0.084416 -0.17902 0.056933 -0.20638 -0.12711 0.0055011 0.080157 -0.13111 0.26116 -0.050659 0.074386 0.0099245 0.22262 -0.043278 -0.082459 -0.27214 0.24675 0.26995 0.039007 -0.065745 0.020476 0.027773 -0.11953 -0.048313 0.20163 -0.45768 0.46946 -0.081125 -0.12078 0.24076 -0.13609 -0.020183 0.066887 -0.089246 0.18057 -0.21715 -0.036621 0.035494 0.24672 -0.19388 0.24657 -0.071659 -0.1972 0.30746 -0.15679 0.1851 -0.26241 0.014422 -0.12086 -0.18319 0.10368 0.073532 0.099186 -0.1323 0.0031472 0.001166 0.19446 0.13777 0.21757 -0.215 -0.157 0.096405 -0.10309 0.031909 0.023528 -0.1666 0.063016 0.0085016 0.079223 -0.073338 0.13222 -0.18417 0.63669 0.023825 0.20193 0.019089 0.11286 -0.12073 -0.021857 0.41296 -0.19964 -0.028756 0.09047 0.31442 0.12861 0.086201 -0.20207 0.025678 0.30294 0.0094762 
tw 0.083147 -0.019464 0.043363 -0.16877 -0.077942 0.20007 -0.24431 -0.0080014 0.061779 0.2186 -0.18983 -0.27 0.096614 -0.035984 -0.12793 0.085696 0.015439 -0.16331 0.25623 -0.17077 0.015786 0.063133 0.12057 -0.045983 -0.11564 -0.12252 0.31847 0.067624 -0.077821 0.30542 0.075382 0.18189 -0.25985 -0.12824 0.10957 -0.16072 0.22402 -0.1391 0.076094 0.013741 -0.20052 0.098605 0.090415 -0.10829 0.33731 -0.15793 0.10669 0.031181 0.075978 -0.1279 0.14439 -0.053445 -0.013651 0.42019 -0.16115 0.15856 -0.24184 0.062771 0.038641 -0.087945 0.17039 -0.042788 0.096334 -0.025477 -0.11089 0.1127 0.26716 -0.0097767 0.31457 -0.021994 -0.0010179 0.18214 0.03239 0.020643 0.098425 0.053808 0.20631 0.069156 0.29336 0.02407 0.20788 -0.13818 0.33304 0.23833 0.15764 0.15148 0.037975 -0.015912 -0.063446 0.34876 -0.13451 0.063289 0.081797 0.16498 0.32201 0.043212 -0.078733 0.075195 0.24454 0.054944 
twn 0.42625 0.12503 -0.031866 -0.23812 0.46462 0.14982 -0.28392 -0.0016049 -0.17625 0.22094 -0.26521 -0.70235 -0.14493 -0.080299 0.0042354 0.41396 -0.079681 0.23633 0.14362 0.089604 -0.10945 0.37661 0.20101 -0.22292 0.044865 0.3022 0.44998 -0.090389 0.26956 0.24592 0.15144 -0.014428 0.76246 -0.3128 0.10734 -0.1397 0.0062179 0.19407 -0.045645 -0.29764 0.25711 -0.22198 0.04357 -0.090413 0.036029 -0.21037 -0.46133 0.067341 -0.11594 0.44475 0.042625 0.20608 -0.28998 0.58562 0.02782 -0.29765 -0.34984 0.050515 0.24448 -0.56942 -0.49642 -0.21628 -0.16643 -0.33128 -0.52446 -0.21995 0.19015 0.33536 0.44636 -0.29415 -0.14653 0.1049 -0.48895 0.29214 -0.02379 -0.33682 0.77697 0.011785 -0.13945 0.27935 0.20534 -0.56532 -0.090171 0.34429 -0.087825 0.16763 -0.086199 -0.4206 -0.46764 0.25418 0.1228 -0.35643 0.40717 -0.064206 0.59352 0.031281 0.12309 0.063443 0.55248 -0.049676 
oi -0.078687 -0.25866 -0.043949 -0.24738 -0.10315 0.77721 0.11831 -0.45312 0.083069 0.018141 0.32455 -0.40427 0.28074 -0.2127 -0.064789 0.36508 0.086003 -0.18065 0.62807 -0.33915 0.17908 0.18452 -0.16878 0.0025411 0.022407 0.16063 0.089877 0.44127 0.023138 -0.18561 0.28304 0.12904 0.4911 -0.3627 0.58783 -0.83507 0.65493 0.093965 -0.19106 0.1304 0.40728 -0.18498 0.14255 -0.034484 0.44213 -0.38128 0.0086569 -0.11496 0.31603 0.25247 0.055623 0.18116 -0.59164 0.31034 0.26371 0.16092 -0.34865 -0.60318 -0.22014 -0.7508 -0.13588 0.34023 0.24434 -0.18698 -0.26604 -0.44406 0.20688 0.45063 -0.49928 -0.2831 -0.2473 -0.27917 -0.37945 -0.055626 -0.052678 -0.37338 0.34976 -0.2339 -0.41961 -0.16528 0.17109 -0.52053 0.63419 -0.065038 0.28634 0.015278 0.1125 -0.37243 -0.045952 -0.06315 -0.40327 -0.38629 0.3623 0.23179 -0.306 0.24889 0.21304 -0.51479 0.41646 -0.048903 
gar 0.1049 -0.01077 0.044205 -0.10549 0.043805 0.30895 0.0081229 0.031388 0.14325 0.22697 -0.013616 -0.28981 0.072799 -0.09931 -0.087551 0.12992 0.038931 -0.11036 0.24156 0.033695 0.092237 0.077042 -0.011613 -0.22738 -0.1952 -0.097366 0.25645 0.14368 0.049761 0.034933 0.11959 0.1361 0.062774 0.01593 0.21965 -0.43638 0.34506 0.037533 -0.12734 0.10938 -0.10393 -0.060647 0.0029283 -0.0024687 0.30089 -0.17922 0.00078447 -0.044359 0.044577 -0.030468 0.098433 -0.065064 -0.093535 0.28671 -0.12508 0.12079 -0.17215 0.01448 -0.09761 -0.15092 0.0043164 0.092551 0.010047 -0.091498 -0.12087 0.077567 0.073161 0.028855 0.39272 -0.050261 -0.23619 0.11449 -0.12469 0.16217 0.13198 -0.076119 0.010623 -0.19477 -0.03117 -0.080275 0.19894 -0.33126 0.66139 0.011877 0.28905 0.03719 0.15918 -0.36417 0.14253 0.45167 -0.10876 -0.013192 0.080908 0.17313 0.095656 0.21736 -0.1251 -0.032893 0.35322 0.22994 
mh 0.15883 0.023175 0.028796 -0.21112 0.0021995 0.42995 0.039725 0.27048 0.019849 0.16453 0.060771 -0.26452 0.21615 -0.11609 -0.17042 0.02041 0.12372 -0.09628 0.21963 0.07326 0.25343 0.018335 0.15679 -0.19955 -0.095831 -0.25972 0.16756 0.028155 0.098982 -0.053563 -0.18532 0.23107 0.016536 0.047026 0.18744 -0.41727 0.39632 -0.1641 -0.22215 0.1364 0.0070451 -0.1568 -0.14287 0.057946 0.14935 -0.14345 0.0051176 0.11347 0.090282 -0.17195 0.17316 -0.17691 -0.085257 0.071208 -0.33182 0.12405 -0.24582 0.0087411 -0.15017 0.052011 -0.043962 0.11011 0.25161 -0.23613 -0.19396 0.17116 0.053865 0.031972 0.42589 -0.16077 -0.21583 0.10734 -0.073314 0.11266 0.041261 -0.049734 -0.0085534 -0.045568 -0.097424 -0.16508 0.15116 -0.15 0.71831 -0.048152 0.22012 -0.022855 0.08526 -0.20317 0.1549 0.39898 -0.0206 0.0092 0.046717 0.36575 0.075646 -0.10655 -0.14395 0.0052206 0.17653 0.36724 
auton 0.082695 0.040931 -0.14177 -0.349 -0.012085 0.4972 -0.17219 0.031001 0.053246 0.033462 0.12588 -0.39448 -0.11642 -0.056414 -0.10798 -0.055277 -0.098547 -0.1995 0.08451 -0.056789 0.0092308 0.19352 0.080809 -0.35023 -0.048579 -0.081579 0.19801 0.29768 0.070999 0.29216 0.075678 0.19491 0.17412 -0.10565 0.01107 -0.34825 0.26997 -0.43436 -0.059778 0.05325 0.12099 0.20357 -0.39549 -0.18522 0.40263 0.0012042 0.16244 0.55575 0.28462 -0.37784 0.19833 -0.1865 0.078518 0.48529 -0.2559 0.003618 -0.28942 -0.37284 0.060225 -0.054995 0.072089 -0.067455 0.31606 0.013547 -0.13485 0.035937 0.51972 0.3526 0.28753 -0.23355 -0.05054 -0.051788 -0.11416 -0.18612 0.14523 0.034537 0.31554 0.04851 0.20766 0.020123 0.084358 0.039005 0.49845 0.058011 -0.06754 0.05829 -0.25654 0.39449 -0.13975 0.21489 0.081076 -0.2446 -0.052167 0.34376 0.42373 -0.22441 -0.0054155 0.21959 -0.15458 0.3318 
estin 0.0057246 -0.12932 0.24784 -0.2071 0.10458 0.24127 -0.039637 0.16362 0.17508 0.11815 -0.073242 -0.26035 -0.088335 -0.076086 -0.20831 0.077649 0.048436 -0.15079 0.17532 -0.029097 -0.025259 0.11346 0.15222 -0.13823 -0.12632 -0.30848 0.26571 0.2361 0.14676 0.092491 0.036702 0.061297 -0.033186 -0.011054 0.17802 -0.46028 0.39261 -0.069576 -0.07049 0.10289 -0.065308 0.062064 -0.0065242 -0.040823 0.32858 -0.12842 -0.0045337 -0.024757 0.087082 -0.028209 0.21075 -0.11653 -0.1892 0.28534 -0.095072 0.14219 -0.21013 0.0098598 -0.04276 -0.12086 -0.060632 -0.025345 -0.047248 -0.12269 0.0096108 -0.056664 0.12375 -0.00090108 0.31058 -0.14249 -0.14501 0.14432 -0.082733 0.034048 0.037269 -0.10429 -0.018236 0.0094221 0.12315 0.018872 0.16979 -0.22312 0.55963 0.062272 0.2292 -0.033717 0.088766 -0.2392 0.1196 0.47698 -0.11297 -0.057973 0.031107 0.22228 0.20607 0.24474 -0.21861 0.015912 0.4066 0.041615 
th 0.21101 0.10101 -0.025931 -0.013435 -0.29378 -0.012759 -0.1989 0.077086 0.090507 0.29486 -0.28749 -0.29808 0.29402 -0.030166 0.18311 -0.12143 -0.056555 -0.16147 0.24756 -0.1908 0.048336 0.19448 0.17084 -0.071921 -0.20789 -0.17935 0.41356 -0.077255 -0.22453 0.19271 0.011012 0.24066 -0.35354 -0.14953 0.28674 -0.088364 0.32387 -0.015263 0.032059 -0.17969 -0.32619 -0.090584 0.046743 -0.11033 0.1817 -0.070798 0.047501 -0.078578 0.03078 4.0226e-05 0.082645 -0.051979 -0.12249 0.39371 -0.36069 0.36348 -0.12488 -0.014693 -0.0057214 -0.051332 0.30972 0.12884 0.29564 0.092511 0.0040622 0.15992 0.40976 -0.052436 0.52098 0.037349 0.028422 0.04781 0.165 0.1466 0.017089 0.14161 0.15684 -0.16502 0.10389 -0.09533 0.23325 -0.32094 0.3708 0.21446 0.29995 0.22861 0.065538 -0.15623 0.041554 0.28425 -0.091154 0.13085 0.1205 -0.0087084 0.13968 0.10508 -0.14735 0.032137 0.22398 -0.047769 
autw 0.048136 -0.12034 0.19633 -0.23494 -0.11834 0.35222 -0.27715 0.2131 0.0037921 0.058598 -0.068948 -0.26148 0.13838 -0.18652 -0.17965 -0.16314 0.072016 -0.11789 0.1765 -0.18087 0.030224 0.12252 0.43861 0.010364 -0.095725 -0.30657 0.26408 0.072221 -0.012713 0.14586 -0.12988 0.077008 -0.19669 -0.030706 0.18492 -0.20971 0.358 -0.32656 0.0027011 0.016918 -0.088138 0.066421 -0.096742 -0.25234 0.21263 -0.069799 0.054464 0.14654 0.32746 -0.20411 0.27475 -0.030462 -0.19162 0.39716 -0.28868 0.20277 -0.26569 -0.14711 -0.0018394 -0.13951 0.062727 -0.11797 0.38887 -0.19221 -0.0091226 -0.088841 0.48414 0.21664 0.12856 -0.37801 0.035359 0.044493 0.013951 -0.15955 -0.094094 -0.14379 0.15758 0.19983 0.18293 1.2766e-05 0.057095 -0.084708 0.38012 0.075296 -0.027115 0.043345 -0.041142 0.1999 -0.11264 0.27186 -0.041531 -0.06475 0.10514 0.46229 0.43386 -0.14685 -0.12049 0.24838 0.017685 -0.16121 
ta -0.031805 0.15997 -0.086531 -0.37404 -0.056001 0.25396 -0.14891 0.34555 -0.11574 0.26428 0.084216 -0.41979 0.73845 -0.25188 -0.41194 0.10546 -0.019938 0.16277 0.43382 0.059704 0.043143 0.16683 0.20545 -0.097383 -0.27543 0.13916 0.26945 -0.013469 0.091992 0.08362 -0.019618 0.10163 0.010987 -0.075321 0.046541 -0.26732 0.25181 0.30151 -0.11119 -0.076361 -0.037407 -0.12593 0.093928 -0.28957 -0.016856 0.023813 -0.13633 -0.1801 0.148 -0.14844 0.1749 0.21322 -0.081194 0.27592 -0.24167 0.017835 -0.14405 0.2314 -0.30256 0.028903 0.0093627 -0.0013955 0.31167 -0.14516 -0.4633 0.28659 0.087088 0.0090005 0.017202 -0.29313 -0.11338 -0.0098275 -0.18556 0.18827 0.18986 -0.40501 0.13449 0.028796 -0.2847 0.0063746 -0.033707 -0.29085 0.63421 -0.073586 0.073286 0.00071921 0.158 -0.54654 -0.23345 0.4376 0.044223 -0.010773 0.14576 0.27799 0.25402 -0.20422 0.028361 0.18961 0.21313 -0.16479 
ou -0.29177 -0.12638 0.44918 -0.15874 0.19663 0.59799 0.14699 0.037091 0.45243 -0.05413 -0.12947 -0.034991 0.077929 -0.016577 -0.43759 0.031988 0.27417 -0.088835 0.39378 0.31879 -0.024514 0.15108 0.13478 0.019514 -0.025237 -0.45008 0.32179 0.12662 0.39198 -0.063447 0.094402 0.027842 0.020188 0.29373 0.24386 -0.51014 0.5752 0.26566 0.070563 0.27999 0.062398 0.057704 0.35191 0.03522 0.30642 -0.20449 0.07597 -0.16733 -0.34276 -0.21483 0.39457 0.056813 0.00090498 0.30453 0.11387 0.0010643 -0.17121 0.0062276 -0.052557 -0.3031 0.14646 0.039318 -0.3122 -0.43566 0.010277 -0.02573 -0.34133 -0.1434 0.073948 -0.16702 -0.50001 0.24883 -0.089251 -0.16979 -0.094132 -0.38388 -0.0698 -0.095855 0.1714 0.11341 0.018131 -0.18846 0.75532 -0.23938 0.32242 -0.12011 0.56946 -0.48472 0.033824 0.41832 -0.040988 -0.165 0.1236 0.44617 0.06114 0.40612 -0.30313 -0.10577 0.41955 -0.15779 
ouk -0.053221 -0.14114 0.12093 -0.23965 0.10618 0.21055 -0.017294 0.12406 0.26168 0.081467 -0.092442 -0.2402 -0.027551 -0.15925 -0.21487 0.043604 0.06358 -0.1102 0.31639 -2.6588e-05 0.06212 -0.0033376 0.1353 -0.063475 -0.097444 -0.26941 0.15951 0.35165 0.11391 0.023842 0.012255 0.057325 -0.090913 -0.031324 0.18927 -0.53382 0.45945 -0.021497 -0.13758 0.19685 -0.046504 0.098888 0.012578 -0.092199 0.30407 -0.14873 0.0031429 0.019595 0.18445 -0.13594 0.31706 -0.11703 -0.16466 0.30423 -0.076473 0.17865 -0.23383 -0.043733 -0.18292 -0.12848 0.071986 0.034673 0.019413 -0.15307 -0.039292 0.071093 0.17355 0.024609 0.2021 -0.1735 -0.27829 0.057309 -0.23034 -0.022144 0.039368 -0.15594 -0.038457 0.031494 0.098725 -0.061848 0.098905 -0.18288 0.65207 -0.038653 0.24252 -0.010127 0.15497 -0.23645 -0.012663 0.47741 -0.24634 -0.0074533 -0.044919 0.26248 0.10994 0.089049 -0.17268 -0.083401 0.34608 0.043502 
touv 0.35215 0.43997 -0.35722 -0.11285 -0.025028 0.96828 -0.40118 -0.37408 -0.36572 0.043002 0.41571 -0.55478 0.64167 -0.12066 -0.23791 0.37812 0.47959 0.15295 0.29317 0.26107 0.45053 0.0065812 0.026398 0.044005 0.0013385 0.4459 0.001255 -0.2632 -0.20174 0.22887 -0.032485 0.39398 0.57568 0.077894 0.35008 -0.35227 -0.075397 0.45125 -0.10821 0.0086922 0.19914 -0.23672 -0.37952 0.14328 -0.27512 -0.42232 0.091382 -0.13371 0.054988 -0.38548 0.018071 0.48551 0.56873 0.58942 0.062322 -0.362 -0.047356 0.24141 0.31206 -0.4427 -0.059643 0.47332 0.57005 -0.21477 -0.25306 0.24863 0.26377 0.67258 0.39721 -0.27592 -0.2556 -0.27347 -0.38699 -0.011105 0.047592 0.18469 0.53408 -0.10948 -0.40534 -0.027229 0.1359 -0.091697 0.74796 0.17695 0.013483 0.33886 0.18548 -0.24017 -0.49008 -0.076997 -0.10705 0.09764 0.29503 0.67136 0.17124 -0.28342 0.31972 -0.0011354 -0.28161 0.54322 
prov 0.15246 -0.14119 0.21989 -0.074559 0.086738 0.29391 -0.50482 -0.10988 0.054855 0.15218 -0.23133 -0.27264 0.022576 -0.14169 0.081645 0.19984 0.16642 -0.085794 -0.035964 -0.0012192 -0.18272 0.1702 0.1624 -0.13354 -0.074757 -0.20199 0.3604 -0.001873 0.12814 0.078219 0.10369 -0.098771 0.19348 0.12113 0.2779 -0.36168 0.17142 -0.10945 0.16902 0.29225 -0.19744 0.03422 0.079216 -0.032392 0.21874 -0.30898 0.148 0.074896 0.17456 0.011955 -0.07138 0.087988 0.053286 0.56166 0.064902 0.15476 -0.31731 0.04838 0.28483 -0.35079 0.21404 0.17924 0.16816 -0.26585 -0.18631 -0.28023 0.089202 0.39426 0.29221 -0.27998 -0.0048859 0.17389 -0.12764 -0.097144 0.098103 -0.023196 0.17489 -0.11711 0.16335 0.050081 0.13592 -0.38908 0.36356 0.43871 -0.069368 0.091703 0.10993 0.20357 -0.15654 0.30984 -0.16291 -0.14881 0.157 0.30654 0.50641 0.20237 -0.17515 0.17607 0.027694 -0.085864 
yeou -0.024863 0.078634 0.18577 -0.031145 0.022816 0.55593 -0.071619 -0.17701 0.16159 0.1211 -0.066758 -0.22273 0.15198 0.12359 -0.22033 0.21637 0.16759 -0.081207 0.22132 0.14629 -0.027917 0.26604 -0.13274 -0.20937 -0.18519 -0.077375 0.33653 -0.043137 0.11956 0.24194 0.20446 0.22858 0.07028 0.12197 0.27014 -0.33646 0.2746 0.25254 0.14755 -0.0033541 -0.014714 -0.024306 0.1521 0.088224 0.35109 -0.20898 0.15387 -0.20074 -0.34361 -0.013324 0.11093 0.13611 0.15172 0.44036 0.087158 -0.015222 -0.11972 0.10721 0.13908 -0.27633 0.070063 0.10743 -0.16033 -0.146 -0.12813 0.029771 -0.13794 -0.10031 0.32511 0.092265 -0.20575 0.18112 -0.022486 0.037493 0.10566 -0.053675 0.13983 -0.25627 0.12466 0.087258 0.21105 -0.31633 0.57317 0.036491 0.28992 0.10406 0.31843 -0.46106 0.067078 0.34818 0.0063129 -0.038374 0.14568 0.17067 0.16216 0.41214 -0.06154 -0.12494 0.3728 0.08209 
ek -0.0035484 0.085276 0.066005 -0.14417 0.020363 0.29764 -0.25898 0.014294 0.037428 0.021999 -0.18401 -0.43375 0.026857 0.057392 -0.20847 0.11773 0.089344 -0.074136 0.24456 -0.023144 -0.063726 0.30714 -0.0033433 -0.16321 -0.18315 0.0032334 0.22773 0.0045103 0.32539 0.37841 0.08939 0.19512 0.0022648 -0.012083 0.14619 -0.30405 0.26747 0.27632 0.13476 -0.27846 0.12809 0.095417 -0.1052 -0.012503 0.32665 -0.03134 0.081669 -0.18697 -0.22304 0.11529 0.3513 0.055073 0.04028 0.46137 -0.02613 -0.019334 -0.081081 -0.043957 0.14757 -0.11371 -0.0086543 -0.11744 -0.051125 0.019645 -0.10185 0.15218 0.15481 -0.072143 0.32334 0.06819 -0.23566 -0.0038199 -0.17869 -0.13321 -0.034947 0.12326 0.23139 -0.064157 0.26867 0.14627 0.049162 -0.15078 0.3321 0.10777 0.17249 0.098397 0.15628 -0.31726 -0.074518 0.32368 0.039892 -0.010975 -0.083096 0.038841 0.22028 0.19733 -0.064652 -0.054797 0.30523 -0.14689 
epi 0.14198 0.16538 -0.10137 -0.18702 -0.25364 0.40775 -0.23735 -0.025077 -0.064234 0.15738 -0.025811 -0.41419 0.4629 0.052813 -0.11213 0.075829 -0.090591 -0.017636 0.3142 -0.10417 0.033784 0.33435 0.096899 -0.1813 -0.18551 0.1248 0.29467 -0.13555 -0.11954 0.34431 0.057258 0.36334 -0.025042 -0.18346 0.22625 -0.11908 0.12631 0.059499 0.089709 -0.36494 0.020738 -0.068856 -0.10024 -0.15745 0.25184 -0.01487 0.12523 -0.096922 -0.021631 0.095536 0.12981 0.13507 -0.042883 0.43335 -0.19667 0.064793 -0.11914 -0.13267 0.045063 -0.17336 0.045392 0.012142 0.34109 0.018723 -0.25573 0.13907 0.32498 0.075767 0.24798 -0.072667 0.012589 -0.076957 -0.0023078 0.03833 0.03485 0.063138 0.37175 -0.020584 -0.012453 0.0067688 0.16043 -0.24508 0.28044 0.11102 0.13111 0.1701 0.044782 -0.18225 -0.10336 0.10359 0.10939 -0.010547 0.11505 0.098253 0.22628 -0.053131 0.14796 0.0090514 0.12861 -0.081979 
ina 0.16882 0.064886 0.014164 -0.12517 -0.018948 0.30111 -0.1145 0.12547 0.055549 0.27414 0.057375 -0.28847 0.14459 -0.14314 -0.077704 0.029667 0.013655 -0.073534 0.18439 0.037215 0.062325 0.0077022 0.076145 -0.26707 -0.18795 -0.1514 0.21818 0.038304 -0.031027 0.071672 -0.0088872 0.19427 -0.046361 -0.0052113 0.14411 -0.28856 0.26946 -0.14363 -0.18662 0.096024 -0.22394 -0.086402 -0.071315 -0.06137 0.2249 -0.14112 0.048142 0.14905 0.068272 -0.18464 0.13505 -0.12581 -0.0012684 0.26963 -0.31011 0.17081 -0.19881 0.04582 -0.064987 0.035615 0.081128 0.056024 0.22 -0.11976 -0.20219 0.1039 0.12788 0.050228 0.48792 -0.12289 -0.14913 0.12232 -0.070933 0.1629 0.19037 -0.048452 -0.0023251 -0.11028 0.017811 -0.12899 0.16696 -0.20735 0.66052 0.022557 0.17463 0.0069593 0.04401 -0.14684 0.078787 0.4342 -0.022396 0.060607 0.045595 0.28765 0.22398 0.024438 -0.13508 0.082354 0.16547 0.32505 
eipen -0.00014957 -0.237 0.30421 -0.31814 0.010435 0.41561 -0.33143 0.12893 0.072755 -0.0087106 -0.20556 -0.22552 0.06197 -0.1875 -0.30539 0.021472 0.1451 -0.087805 0.18756 -0.11783 0.056302 0.030914 0.40844 0.082658 -0.022729 -0.37377 0.1798 0.1665 0.081633 0.065724 -0.17218 0.021936 -0.19805 -0.12461 0.16578 -0.3843 0.42879 -0.3233 0.015798 0.24571 -0.058424 0.082914 -0.039693 -0.15406 0.11761 -0.23559 0.052299 0.1235 0.31505 -0.26045 0.36938 -0.035931 -0.10888 0.4496 -0.19722 0.14345 -0.38882 0.076065 0.075774 -0.16751 0.11239 -0.032421 0.23891 -0.39853 -0.0045542 -0.10435 0.30775 0.25812 0.038903 -0.36049 0.052737 0.15692 -0.18486 -0.19733 -0.13503 -0.14723 0.26231 0.23133 0.26476 0.063318 0.042764 0.031042 0.4551 0.20691 -0.013912 0.064397 -0.040272 0.25283 -0.19151 0.28369 -0.21304 0.014803 0.13776 0.52632 0.39017 -0.16363 -0.081496 0.14016 0.12842 -0.17188 
toiv 0.085336 0.12208 -0.42094 0.017281 -0.5052 0.25522 0.067187 0.14712 0.028496 0.36407 0.14221 -0.40896 0.5094 -0.11752 0.17147 0.12455 -0.20795 -0.14006 0.34971 0.090064 0.18582 0.17277 -0.039982 0.043665 -0.070894 0.15187 0.44636 0.24946 -0.50427 0.050624 0.2715 0.40997 0.31337 -0.20291 0.4024 -0.14696 0.15049 0.11112 0.016261 0.13297 -0.21604 -0.30428 0.21504 -0.30598 0.048448 -0.18941 -0.090321 0.16572 0.45316 -0.16033 -0.035453 0.32735 0.15469 0.48297 -0.265 0.084871 -0.36055 0.069359 -0.32014 -0.31139 0.31349 0.4565 0.46394 0.051956 0.0014461 -0.027174 0.29015 0.24626 0.21907 -0.166 -0.015763 -0.015741 -0.20199 0.26652 0.25065 -0.093135 0.050476 -0.10994 -0.41551 -0.1867 0.26712 -0.48489 0.75354 0.13138 0.38598 0.14261 -0.05031 -0.46771 -0.062486 0.30049 -0.3119 -0.12115 0.20486 0.17605 0.027617 0.0514 0.090238 -0.063132 0.16879 0.39163 
umin 0.090716 -0.10047 0.078665 -0.10787 0.092192 0.23244 0.14283 0.27281 0.20999 0.35868 -0.034135 -0.20015 0.12172 -0.28246 -0.071148 -0.029708 0.041827 -0.10171 0.21586 0.079995 0.15712 -0.006963 0.28487 -0.16113 -0.20531 -0.29901 0.34512 0.25015 -0.095091 -0.16391 0.0022256 0.12577 -0.04607 -0.012593 0.22385 -0.34895 0.49601 -0.22994 -0.27164 0.27181 -0.31591 -0.23493 0.12424 -0.067226 0.074945 -0.20985 -0.24626 0.034713 0.22465 -0.1738 0.073341 -0.1926 -0.16875 0.16488 -0.34958 0.21184 -0.33354 0.17577 -0.29784 -0.13457 0.13828 0.065912 0.14184 -0.23654 -0.14167 0.020757 0.01329 -0.057496 0.45944 -0.12695 -0.17495 0.1597 -0.27186 0.33209 0.11977 -0.30086 -0.12759 -0.014934 -0.16228 -0.13445 0.16953 -0.3317 0.77943 -0.094029 0.31216 0.0066718 0.069248 -0.39603 0.13964 0.74234 -0.20416 0.012275 0.07511 0.35684 0.14015 0.00034015 -0.22706 0.064741 0.49444 0.3001 
ei 0.082476 -0.1522 0.27837 -0.31248 0.13859 0.21006 -0.29275 0.25679 0.11873 0.20778 -0.21432 -0.23622 -0.01318 -0.16532 -0.20886 -0.041155 0.072504 -0.096514 0.17771 -0.057971 0.014687 -0.0025284 0.29228 -0.058175 -0.17293 -0.40978 0.1978 0.18394 0.19591 0.12962 -0.14858 -0.034166 -0.25265 0.09826 0.061237 -0.39867 0.43561 -0.23433 -0.053761 0.11516 -0.21191 0.18014 -0.048182 -0.10556 0.32725 -0.076132 0.088148 0.012856 0.2165 -0.13076 0.28969 -0.19403 -0.11788 0.30224 -0.22082 0.24522 -0.15764 0.030574 -0.0069681 0.028973 0.077638 -0.11761 0.074111 -0.25424 -0.060879 0.065761 0.2251 -0.060328 0.33072 -0.17462 -0.1662 0.20075 -0.054486 -0.0088239 -0.012589 -0.12156 -0.043495 0.053088 0.2335 0.051163 0.014805 -0.088093 0.48928 0.057206 0.07273 -0.069929 0.13092 -0.041473 0.091858 0.535 -0.11299 0.0395 -0.090442 0.40139 0.30443 0.064666 -0.23488 0.18053 0.24167 -0.054026 
autwn 0.27628 0.11443 -0.059677 -0.18327 0.045555 0.31456 -0.13475 0.13971 -0.1185 0.19768 0.01875 -0.538 0.22761 -0.18793 -0.061134 0.11579 -0.060356 0.11502 0.27271 -0.0058751 0.059769 0.25801 0.28012 -0.12478 -0.051605 0.16852 0.37506 -0.074116 0.015885 0.09717 0.073479 0.11247 0.41127 -0.13615 0.21921 -0.10501 0.15426 0.064182 -0.08306 -0.21765 0.14309 -0.24226 -0.023536 -0.21459 0.063884 -0.075365 -0.25779 0.050205 0.12324 0.14343 0.11803 0.16676 -0.28114 0.4055 -0.18392 -0.061674 -0.24118 -0.1373 -0.048798 -0.39014 -0.23925 -0.098332 0.29348 -0.21966 -0.35373 -0.11472 0.34102 0.30431 0.25035 -0.38472 -0.15387 -0.017894 -0.25146 0.17903 -0.040358 -0.298 0.41081 0.013231 -0.24861 0.037524 0.10875 -0.42958 0.23079 -0.0049487 0.042527 0.08425 -0.026588 -0.33306 -0.25541 0.19573 0.090468 -0.23908 0.2778 0.18228 0.38006 -0.10068 0.089626 0.12696 0.2308 -0.036198 
mou 0.027198 0.051908 0.39469 -0.061943 0.14924 0.529 -0.19745 0.0032293 0.17411 0.12171 -0.31534 -0.10213 0.15039 0.012207 -0.31624 0.013166 0.31185 -0.063265 0.1819 0.2482 -0.0071781 0.22702 0.15949 -0.063926 -0.10863 -0.31215 0.46214 -0.22521 0.31275 0.23301 0.027062 0.036968 -0.0094195 0.28671 0.14339 -0.078091 0.39307 0.0096619 0.15504 0.13952 -0.099344 -0.038236 0.22727 0.076075 0.091095 -0.17126 0.029581 -0.012945 -0.46266 -0.30504 0.2865 0.032051 0.18724 0.35242 -0.034494 -0.036563 -0.20172 0.24894 0.25611 -0.22017 0.26687 -0.074021 -0.20113 -0.47092 -0.24724 0.0083892 -0.34407 -0.14669 0.40341 -0.047983 -0.20974 0.32996 -0.065233 -0.094904 -0.041035 -0.23242 0.096292 -0.14444 0.28936 0.15893 0.015419 -0.15715 0.48974 -0.069691 0.096183 0.0031116 0.36122 -0.2286 -0.070524 0.44626 0.086334 -0.10003 0.14853 0.39671 0.36574 0.1206 -0.1411 0.062675 0.18527 -0.017855 
umwn 0.33994 0.058499 -0.018603 -0.092044 0.30726 0.05425 -0.099 0.049877 0.07545 0.41539 -0.21759 -0.40544 -0.049981 -0.21644 0.027122 0.23171 0.057764 -0.0029256 0.11697 0.11666 0.099426 0.054012 0.083879 -0.24148 -0.18578 -0.051674 0.39953 0.11428 0.014065 0.10369 0.1201 -0.027106 0.24332 -0.030577 0.14148 -0.25983 0.28393 -0.10909 -0.21442 0.21254 -0.28289 -0.20854 0.086315 0.00736 0.03508 -0.27335 -0.31721 0.10259 0.1277 -0.023714 -0.06701 -0.11375 -0.04669 0.35431 -0.15825 0.067608 -0.32943 0.25555 0.0044909 -0.23759 0.024586 0.00093169 -0.057154 -0.22631 -0.36462 0.06105 -0.0098273 0.064876 0.65573 -0.048866 -0.12512 0.25219 -0.36617 0.38844 0.23215 -0.20991 0.13159 -0.16945 -0.090642 -0.051313 0.23196 -0.49861 0.52727 0.16065 0.17582 0.10351 0.037645 -0.35649 -0.040921 0.728 -0.23205 -0.078492 0.17848 0.096252 0.38223 0.056083 -0.075975 0.10154 0.48236 0.38162 
autoiv 0.069028 -0.0027596 -0.19946 -0.15688 -0.3518 0.34767 -0.08221 0.18474 0.012997 0.20815 0.20984 -0.36029 0.36984 -0.26005 -0.0037343 -0.00045957 -0.090504 -0.088498 0.28792 -0.026762 0.18276 0.046512 0.20897 0.085945 -0.0074028 -0.032556 0.27975 0.23795 -0.34582 -0.038181 0.080132 0.2147 0.21787 -0.13322 0.32333 -0.24457 0.26312 -0.14096 -0.078271 0.22742 -0.13 -0.15781 0.037942 -0.34823 0.055857 -0.15748 -0.06213 0.28856 0.59827 -0.31162 0.10587 0.17762 -0.036634 0.45363 -0.29513 0.14626 -0.36721 -0.10323 -0.23652 -0.27067 0.17756 0.26764 0.56627 -0.12506 -0.018615 -0.14403 0.46017 0.44369 0.06618 -0.4434 -0.0013394 -0.030489 -0.1782 0.045975 0.093931 -0.19684 0.11243 0.044857 -0.26102 -0.16895 0.13532 -0.27911 0.69378 0.061952 0.14918 0.029604 -0.097909 -0.060356 -0.13105 0.17971 -0.26083 -0.16996 0.2261 0.4208 0.22531 -0.12865 0.024854 0.13175 -0.049278 0.22223 
oun 0.0017991 -0.041805 -0.080531 -0.28284 0.035238 0.31146 -0.11788 -0.049439 0.17628 0.1066 0.02397 -0.27903 -0.043914 -0.098897 -0.091864 0.11549 -0.0091487 -0.14303 0.25437 -0.024161 0.026216 0.018964 0.00039424 -0.18025 -0.03961 -0.14906 0.14902 0.32298 0.021363 0.10884 0.060282 0.15369 0.043023 -0.10662 0.098883 -0.49796 0.33083 -0.1301 -0.091493 0.16449 -0.049579 0.17074 -0.11079 -0.082517 0.35485 -0.19214 0.13778 0.25991 0.21893 -0.25197 0.17848 -0.12015 0.013556 0.4361 -0.15219 0.11014 -0.262 -0.16021 -0.048299 -0.082839 0.11471 0.12196 0.14567 -0.026396 -0.060656 0.11164 0.2801 0.20599 0.24724 -0.13669 -0.18707 -0.0026901 -0.21149 -0.071982 0.18441 0.044636 0.16527 0.0037074 0.13247 -0.065346 0.14653 -0.065806 0.61971 0.13716 0.14919 0.038824 0.0023048 0.072613 -0.089055 0.28611 -0.18254 -0.049921 -0.0015724 0.24194 0.17048 -0.011548 -0.082527 0.015494 0.12789 0.28246 
apo 0.20924 -0.0656 0.02946 0.04617 -0.09999 0.35792 -0.20704 -0.0034922 0.011872 0.14601 -0.25216 -0.41112 0.057226 0.03403 0.19224 0.072277 -0.023921 -0.18374 0.092784 -0.06876 -0.054031 0.3115 0.18799 -0.14281 0.015468 -0.066965 0.47232 -0.072379 0.010948 0.077286 0.13913 0.21542 0.18527 -0.19343 0.35746 -0.15396 0.17797 -0.1316 0.17556 -0.12233 0.014457 -0.043668 0.060445 -0.063395 0.22856 -0.1683 0.05247 0.0096653 -0.073694 0.25001 0.046754 0.025432 -0.11335 0.50183 -0.12925 0.057833 -0.29053 -0.10579 0.13742 -0.34555 0.012771 0.026265 0.16758 -0.14977 -0.12935 -0.21944 0.26968 0.19879 0.26508 -0.087546 -0.02139 0.090953 -0.17112 0.018707 -0.0061011 -0.010741 0.41737 -0.03786 0.073761 0.072239 0.12921 -0.3368 0.15169 0.358 0.056985 0.24302 -0.067847 -0.043809 -0.16094 0.15638 -0.022439 -0.092501 0.25033 0.067635 0.34561 0.087207 -0.11932 -0.017979 0.2598 -0.099635 
ihsouv 0.12273 -0.040221 0.094114 -0.24611 0.084787 0.49689 -0.41637 -0.050931 -0.022308 0.079545 -0.010428 -0.29986 0.10233 -0.17276 -0.12521 0.074964 0.21026 -0.059552 0.083671 0.054105 0.11732 0.031188 0.31932 -0.0040725 -0.0032423 -0.2297 0.19406 0.082767 -0.043056 0.11979 -0.10752 0.079596 0.07759 -0.033885 0.17147 -0.35456 0.23016 -0.29653 -0.026779 0.27721 -0.13636 0.043557 -0.15806 -0.052678 -0.03494 -0.33517 0.038514 0.24818 0.29564 -0.35752 0.12642 0.069396 0.18857 0.52568 -0.14574 0.028401 -0.37362 0.12707 0.20485 -0.24424 0.13453 0.16087 0.32663 -0.32758 -0.10012 -0.021632 0.31667 0.43876 0.24799 -0.33426 0.026941 0.064405 -0.23283 -0.11797 0.028561 -0.035418 0.29926 0.16087 0.15233 0.0033979 0.1087 -0.022032 0.52571 0.32088 -0.098234 0.14708 -0.087577 0.27756 -0.36726 0.2622 -0.21735 -0.018341 0.18692 0.58945 0.44605 -0.21671 -0.018788 0.19901 -0.068379 0.19966 
dia 0.14518 0.096575 -0.083994 -0.012272 -0.23903 0.16931 -0.019527 -0.12498 0.13146 0.32003 -0.073075 -0.36268 0.22371 -0.008678 0.13732 0.19771 -0.088125 -0.11688 0.17073 -0.04857 0.021732 0.17707 -0.23808 -0.29669 -0.25347 0.11611 0.38908 0.076016 -0.14468 0.088712 0.24431 0.27068 0.082913 -0.15275 0.34132 -0.3899 0.33516 0.13487 -0.025952 -0.033914 -0.14947 -0.11575 0.059035 -0.095953 0.41067 -0.20624 0.049001 -0.024701 0.015844 0.084507 0.059954 0.026329 -0.07193 0.48448 -0.13635 0.24197 -0.16752 -0.039618 -0.044639 -0.21219 0.07516 0.17674 0.032161 0.15362 -0.12841 0.052989 0.22144 0.14104 0.41043 -0.0038037 -0.10414 0.029709 -0.02393 0.21992 0.23313 0.014642 0.14953 -0.47321 -0.085118 -0.10122 0.30219 -0.46476 0.60646 0.099343 0.28265 0.14292 0.15611 -0.35858 0.18912 0.18437 -0.074322 0.044334 0.18635 -0.11855 0.073059 0.41031 -0.074838 -0.15674 0.3453 0.22189 
sou -0.046242 -0.089437 0.47552 -0.21651 0.043967 0.6048 -0.22297 0.090001 0.16925 -0.0059598 -0.39507 -0.10259 0.11565 0.099137 -0.33444 -0.11715 0.16084 -0.15674 0.13978 0.22689 -0.072302 0.3699 0.28019 -0.055183 -0.051898 -0.48069 0.51824 -0.16922 0.35519 0.26945 -0.056873 0.092435 -0.18763 0.16034 0.087536 -0.063252 0.40879 -0.24109 0.26111 0.10969 -0.056502 0.12212 0.16414 -0.034253 0.19776 -0.125 0.076244 0.10206 -0.4113 -0.24408 0.31652 -0.033788 0.16897 0.34839 -0.14744 0.017679 -0.33038 0.092511 0.26591 -0.13223 0.28058 -0.13867 -0.1916 -0.439 -0.12808 0.011097 -0.21093 -0.12034 0.22195 -0.082904 -0.054338 0.39366 0.14564 -0.23032 -0.10564 -0.25681 0.18637 0.020339 0.46816 0.27366 -0.029425 -0.014685 0.31051 0.077041 0.028536 0.042869 0.1793 0.04838 -0.15174 0.35812 0.18293 -0.13083 0.17843 0.43829 0.45214 0.008782 -0.19599 0.14213 0.1837 -0.2037 
wv 0.13271 0.057163 -0.029121 -0.14797 -0.11669 0.28126 -0.045328 0.0099734 0.040841 0.1541 0.0027402 -0.40162 0.20672 -0.065842 -0.036107 0.16306 -0.067138 -0.1039 0.31609 -0.072692 0.058463 0.21265 -0.023343 -0.18479 -0.10798 0.064267 0.25495 0.085941 0.0088173 0.068417 0.15542 0.19615 0.147 -0.14603 0.28134 -0.3441 0.30872 0.068856 -0.096801 -0.13747 0.066752 -0.077505 -0.058866 -0.10248 0.28642 -0.14201 0.043944 0.011644 0.062979 0.11184 0.22116 0.0025585 -0.18958 0.3512 -0.14068 0.097399 -0.17623 -0.20603 -0.067866 -0.22121 0.015903 0.039746 0.21708 0.016716 -0.18251 0.044929 0.16482 0.16453 0.25522 -0.12371 -0.22432 -0.047143 -0.15921 0.049121 0.033315 -0.019179 0.19071 -0.17632 -0.053868 -0.079041 0.138 -0.28012 0.50042 -0.034208 0.25758 0.064662 0.083647 -0.27804 0.024392 0.12317 -0.039768 -0.096062 0.088887 0.079144 0.082646 0.10056 -0.016766 -0.10831 0.29088 0.11229 
umav 0.44462 0.19875 -0.13511 0.030455 -0.010995 0.2546 -0.28626 -0.035104 -0.092617 0.46427 -0.043962 -0.37865 0.36722 -0.25438 0.035174 0.15627 0.18702 0.033065 0.1292 0.097824 0.30279 -0.06096 0.074308 -0.15255 -0.3198 0.038814 0.23803 -0.12115 -0.22912 0.085282 -0.0044586 0.1069 0.063106 0.13583 0.2873 -0.21374 0.15606 -0.028326 -0.28428 0.17116 -0.42573 -0.27897 -0.018864 0.015189 -0.042259 -0.32404 -0.1235 -0.072777 0.21246 -0.21222 -0.089274 -0.04589 0.17603 0.37569 -0.23668 0.19692 -0.16973 0.35581 -0.0012105 -0.15338 0.2109 0.19245 0.33396 -0.23305 -0.38776 0.19227 0.023372 0.13299 0.69291 -0.054043 -0.12716 0.16323 -0.30735 0.35639 0.23294 0.018838 0.021416 -0.26208 -0.16509 -0.2433 0.17396 -0.42277 0.74537 0.086124 0.18098 0.12563 0.19482 -0.32646 0.052218 0.61803 -0.30575 0.16447 0.11335 0.2667 0.30278 -5.7621e-05 -0.011764 0.13199 0.13001 0.47215 
ti 0.13004 -0.15279 0.061735 -0.23849 0.025485 0.19255 -0.18935 0.11218 0.1377 0.21852 -0.026753 -0.28969 0.023766 -0.24686 -0.061305 0.082515 0.057962 -0.16747 0.22688 -0.051035 0.11136 -0.13371 0.19902 -0.057345 -0.019843 -0.28004 0.21632 0.26349 -0.022002 -0.045227 -0.03871 0.020576 -0.025754 -0.066701 0.15271 -0.46401 0.38211 -0.34951 -0.12455 0.34349 -0.19491 0.036883 -0.028353 -0.13177 0.20139 -0.27122 0.036199 0.22806 0.40417 -0.22818 0.19075 -0.18529 -0.13541 0.32535 -0.23559 0.20948 -0.3532 -0.025181 -0.07999 -0.07374 0.13934 0.096998 0.31177 -0.21106 -0.14407 -0.0039946 0.24798 0.28924 0.28475 -0.29081 -0.14022 0.16744 -0.1986 0.021268 0.077771 -0.051667 0.091959 0.072205 0.11393 -0.15502 0.091242 -0.079921 0.66388 0.11113 0.11116 0.013597 -0.011918 0.14183 -0.035664 0.35871 -0.29528 -0.021519 0.092861 0.36194 0.25005 -0.069341 -0.18144 0.13486 0.11373 0.22571 
hn 0.17552 0.081826 0.080836 -0.034659 -0.14458 0.48584 -0.28145 0.13659 -0.050552 0.059599 0.10161 -0.24012 0.018363 0.036459 -0.10142 -0.27408 -0.099401 -0.051782 0.16816 -0.13555 -0.090393 0.19336 0.4062 -0.33119 -0.17773 -0.26075 0.19855 -0.25819 -0.13146 0.10835 -0.19628 0.49009 -0.24364 -0.10142 0.21991 -0.054471 0.16766 -0.2643 -0.043271 -0.44664 -0.086802 -0.091436 -0.24287 -0.11204 0.32536 -0.082948 0.25406 0.17665 -0.24967 0.036521 0.35033 -0.093845 -0.14224 0.31065 -0.56515 0.24727 -0.068745 -0.33153 0.081131 0.010903 -0.12261 -0.11012 0.503 -0.11043 0.009204 -0.020938 0.44038 -0.014509 0.54347 -0.15893 0.02254 -0.029849 0.17425 0.0048128 -0.086412 0.045335 0.24706 0.16845 0.21576 -0.044209 0.24964 -0.091762 0.26616 -0.011074 0.10533 0.10166 -0.097256 0.048785 0.060868 0.13973 0.38813 0.036077 0.14098 0.3712 0.28499 -0.18335 -0.15682 0.091998 0.084659 -0.016329 
hmwn 0.39669 0.19214 -0.066221 0.035641 0.21514 0.002875 -0.20617 -0.16778 0.05339 0.4554 -0.38793 -0.47814 -0.017612 -0.014029 0.12586 0.35545 0.011117 -0.025118 0.1081 0.066823 -0.0065006 0.20522 -0.14261 -0.31824 -0.2284 0.061785 0.49754 -0.037731 -0.078227 0.34463 0.26303 0.095845 0.17414 -0.067401 0.23072 -0.17682 0.13064 0.036578 -0.019201 0.022073 -0.32534 -0.19301 0.13598 0.061438 0.21345 -0.30663 -0.1418 -0.015583 -0.073096 0.1455 -0.12808 -0.03936 0.076086 0.58222 -0.024466 0.092561 -0.27643 0.28827 0.19931 -0.29014 0.093534 0.051783 -0.14459 -0.076141 -0.40824 0.11197 0.037472 0.003067 0.78933 0.15407 -0.042508 0.28844 -0.21263 0.43469 0.30887 0.0414 0.28547 -0.31156 0.075428 -0.0070042 0.37196 -0.58642 0.39773 0.31382 0.25503 0.24451 0.09968 -0.40364 -0.046474 0.64297 -0.22628 0.0078341 0.17633 -0.15738 0.41899 0.29441 0.0001913 -0.020583 0.53691 0.35979 
tiv 0.10289 -0.14537 9.1399e-05 -0.044155 -0.17905 -0.044582 -0.12926 0.32004 0.065673 0.22921 -0.19527 -0.36492 0.10395 -0.093691 0.050491 -0.092979 -0.061733 -0.27757 0.1418 0.047115 0.075417 0.10683 0.25495 0.04966 -0.12142 -0.27729 0.43824 0.23776 -0.13016 0.065119 -0.02274 0.086604 -0.07814 -0.065999 0.28931 -0.24556 0.29636 -0.18145 -0.0023292 0.19773 -0.25284 -0.037657 -0.012652 -0.21418 0.1037 -0.14583 -0.061956 0.12 0.42026 -0.031833 0.13394 0.0043894 -0.011007 0.32643 -0.27142 0.23595 -0.34154 0.064538 -0.14483 -0.11848 0.17926 0.10111 0.26055 -0.066048 0.063694 -0.0055698 0.36486 0.11524 0.36626 -0.17403 -0.039657 0.20354 -0.077564 0.14429 0.046771 -0.080379 -0.14293 0.068647 0.058927 -0.087769 0.11404 -0.24941 0.49805 0.2353 0.232 0.085464 -0.085827 -0.14082 -0.024238 0.56311 -0.32255 -0.020506 0.077653 0.2147 0.23418 0.028296 -0.17406 0.083062 0.23172 0.048054 
egw 0.068537 -0.16014 0.25792 -0.16948 0.19403 0.10926 -0.19205 0.12951 0.27261 0.24302 -0.33769 -0.16463 -0.10235 -0.21584 -0.14475 0.022704 0.15033 -0.11851 0.13535 -0.047944 0.043492 -0.083555 0.22542 -0.16795 -0.23756 -0.39134 0.29034 0.25349 0.090825 0.094447 -0.053331 -0.031237 -0.34766 -0.054736 0.085834 -0.40217 0.5082 -0.33797 -0.16256 0.34893 -0.35 0.052636 0.034695 -0.051263 0.1486 -0.24017 -0.13722 0.10253 0.13184 -0.29236 0.23982 -0.29447 -0.089324 0.30978 -0.23573 0.26618 -0.36305 0.29807 -0.041157 -0.029812 0.28369 -0.0691 -0.036001 -0.26249 -0.1466 0.12523 0.040392 -0.10265 0.46676 -0.029546 -0.063562 0.24867 -0.2946 0.079932 0.078758 -0.1165 -0.047029 0.0059433 0.29039 -0.03501 0.12816 -0.13026 0.64918 0.091733 0.14419 0.072565 0.02151 -0.03074 0.0252 0.73326 -0.29191 0.12898 -0.025252 0.27818 0.35017 -0.038612 -0.23077 0.076979 0.38441 0.11321 
autouv 0.26505 0.28808 -0.21901 -0.14447 -0.11063 0.74083 -0.33232 -0.23367 -0.22519 0.059365 0.36078 -0.46637 0.4502 -0.17108 -0.17391 0.20061 0.30983 0.062242 0.24958 0.061752 0.31408 0.0026504 0.06889 0.0084903 -0.026014 0.24108 0.040601 -0.11274 -0.20842 0.17429 -0.010035 0.26484 0.37085 0.051494 0.32465 -0.34028 0.068949 0.19392 -0.11592 0.043753 0.1001 -0.11482 -0.31101 -0.025707 -0.027631 -0.29077 0.11779 0.032466 0.22919 -0.37424 0.083448 0.29179 0.26032 0.55807 -0.023737 -0.11769 -0.072626 -0.012837 0.18973 -0.34604 -0.036353 0.30727 0.56313 -0.1523 -0.15969 0.091909 0.40958 0.59806 0.29057 -0.34767 -0.16531 -0.1963 -0.21973 -0.067041 0.055315 0.094958 0.38555 -0.099396 -0.24428 -0.099825 0.14055 -0.12025 0.68531 0.085485 0.021704 0.19458 0.11253 -0.054676 -0.28418 -0.046361 -0.12434 0.0055267 0.25988 0.55847 0.25171 -0.16302 0.18436 0.088032 -0.2753 0.39433 
tav 0.50195 0.3607 -0.31581 0.0020488 -0.28386 0.48917 -0.47713 -0.18642 -0.4367 0.26585 0.037209 -0.55943 0.80953 -0.1131 -0.099955 0.18653 0.18443 0.19288 0.15582 0.085418 0.40616 0.18197 0.19521 0.0068365 -0.33769 0.47328 0.16182 -0.42946 -0.34704 0.29146 -0.064835 0.28336 0.21329 0.044713 0.36263 0.02331 -0.14504 0.26401 -0.10207 -0.266 -0.1013 -0.3282 -0.18031 -0.088465 -0.21497 -0.20529 -0.03911 -0.26597 0.17836 -0.051291 -0.084712 0.31213 0.34852 0.58468 -0.17388 -0.0042144 -0.037046 0.28776 0.14212 -0.31674 0.04802 0.20586 0.58862 -0.1697 -0.49536 0.25063 0.32837 0.36221 0.44221 -0.16357 0.026527 -0.082701 -0.22767 0.29921 0.043982 0.068331 0.48716 -0.13427 -0.29987 -0.1438 0.083712 -0.36207 0.39118 0.16053 -0.017689 0.31553 0.14141 -0.28802 -0.31541 0.2436 -0.069947 0.15977 0.22281 0.30465 0.37476 -0.22494 0.32166 0.13124 -0.1273 0.14263 
ihsou 0.048232 0.032487 0.2096 -0.01554 0.074832 0.26571 -0.26284 -0.21017 0.21776 0.28716 -0.35914 -0.17609 0.004846 0.097478 0.049758 0.17749 0.059637 -0.14554 0.049447 0.081647 -0.15144 0.23368 -0.074682 -0.26287 -0.17398 -0.26352 0.54571 -0.010875 0.0086315 0.34541 0.24134 0.095263 -0.1166 0.051325 0.16824 -0.16793 0.22344 -0.16834 0.24443 0.20282 -0.37408 0.059213 0.24985 0.033447 0.32282 -0.28651 0.11808 0.10827 -0.21202 -0.13816 -0.027767 -0.0047676 0.23447 0.57884 0.017076 0.13573 -0.30183 0.22872 0.27748 -0.21702 0.36191 0.09799 -0.1779 -0.13169 -0.19529 0.039256 -0.07445 -0.072851 0.45986 0.15795 0.049606 0.3748 0.027148 0.076032 0.27615 0.046442 0.17881 -0.20541 0.40545 0.055853 0.2373 -0.30377 0.42653 0.33114 0.15654 0.17069 0.10165 -0.029078 -0.075462 0.47854 -0.13193 0.0082247 0.15879 0.090972 0.43091 0.32637 -0.12332 0.07579 0.29151 0.17507 
legei -0.085335 -0.31541 0.42326 -0.39493 0.15856 0.29457 -0.36119 0.19662 0.14561 -0.0079165 -0.26441 -0.18084 -0.12452 -0.16117 -0.31677 -0.016154 0.22251 -0.14201 0.11184 -0.056565 -0.032438 0.061839 0.44755 0.064656 -0.073358 -0.48601 0.21268 0.27695 0.22726 0.078536 -0.19036 -0.073456 -0.23873 -0.097707 0.056983 -0.48191 0.52412 -0.38058 0.024705 0.28705 -0.08155 0.17233 -0.06337 -0.11386 0.12768 -0.22338 -0.027008 0.1224 0.26468 -0.21572 0.40748 -0.10106 -0.10769 0.37777 -0.17532 0.13581 -0.44191 0.12492 0.072906 -0.12659 0.10899 -0.12045 0.090559 -0.36942 0.010509 -0.13176 0.23615 0.17953 0.10945 -0.3629 -0.0078836 0.16191 -0.22136 -0.22609 -0.18754 -0.19792 0.13933 0.30095 0.3729 0.16789 0.016094 0.086205 0.46856 0.20852 -0.067818 0.037899 -0.086328 0.2292 -0.21346 0.44939 -0.20093 -0.033651 0.011944 0.5248 0.44317 -0.099651 -0.20238 0.1174 0.2485 -0.21734 
alla 0.15751 0.0329 0.039697 -0.21386 0.067774 0.24905 -0.096005 0.08496 0.14166 0.26459 0.019174 -0.32739 0.034787 -0.12413 -0.12508 0.15671 0.086746 -0.090456 0.24456 0.031357 0.067024 -0.027167 -0.055009 -0.2222 -0.18331 -0.12632 0.18032 0.20167 0.079536 0.10883 0.043149 0.055359 0.0062491 -0.012839 0.1291 -0.46441 0.36715 -0.034458 -0.20826 0.1639 -0.14592 0.017278 -0.058444 -0.043981 0.31043 -0.16696 0.028984 0.087086 0.1055 -0.19276 0.16159 -0.10841 -0.06491 0.2925 -0.13956 0.14293 -0.18471 0.094848 -0.11186 0.0070413 0.02828 0.056094 0.050518 -0.10987 -0.21904 0.13691 0.10234 0.040699 0.47044 -0.13321 -0.23243 0.11365 -0.18521 0.13349 0.20701 -0.040235 -0.040864 -0.17933 0.011284 -0.10958 0.16189 -0.2464 0.73046 -0.028468 0.22141 -0.036224 0.13624 -0.25953 0.089154 0.45241 -0.16991 0.020674 0.017247 0.20519 0.16705 0.15183 -0.13482 -0.010854 0.25265 0.3361 
kata 0.14511 0.25308 -0.1378 -0.22769 -0.047748 0.43676 -0.1657 -0.05421 -0.0026447 0.29156 0.086208 -0.38623 0.36681 -0.03283 -0.20276 0.26155 -0.076366 0.031526 0.2923 0.067582 -0.028117 0.21709 -0.21376 -0.41661 -0.26906 0.21667 0.25006 -0.04184 0.081777 0.28943 0.19464 0.24968 0.19273 0.0049347 0.057607 -0.26023 0.14102 0.17878 -0.035504 -0.17352 -0.040258 0.00035008 -0.031548 -0.057761 0.37435 -0.037761 0.14801 -0.0012901 -0.15807 -0.10292 0.060843 0.057688 0.084257 0.39959 -0.13697 -0.028778 -0.055683 0.030266 -0.012011 -0.020763 0.018884 0.029615 0.11153 0.017779 -0.46158 0.22287 -0.057274 -0.019207 0.37984 0.013708 -0.17954 0.020339 -0.15909 0.13043 0.35815 -0.027893 0.19258 -0.22996 -0.069882 -0.0049822 0.12698 -0.32207 0.62284 -0.031311 0.14359 0.04482 0.17642 -0.40221 0.03367 0.32994 0.17394 -0.047476 0.036282 0.07312 0.20371 0.07645 0.046377 0.06196 0.14258 0.26463 
ean 0.15421 -0.096759 0.20033 -0.073922 0.14257 0.46569 -0.040241 0.20784 0.069614 0.26113 0.22019 -0.16759 0.03459 -0.2789 -0.097566 -0.084617 0.086638 -0.062591 0.17102 0.049748 0.11452 -0.13317 0.31018 -0.25488 -0.15158 -0.43249 0.15655 0.028691 0.014558 -0.23236 -0.11946 0.14363 -0.012918 0.18865 0.26379 -0.43406 0.37639 -0.23871 -0.29536 0.17118 -0.22701 -0.14332 -0.01108 0.041493 0.26231 -0.21408 0.055964 0.069573 0.079066 -0.14986 0.16101 -0.22887 -0.21384 0.094237 -0.34874 0.25194 -0.1607 -0.089776 -0.1371 -0.051322 -0.11906 0.048509 0.29019 -0.30843 -0.074247 -0.10002 0.074924 0.060851 0.50477 -0.29836 -0.24915 0.17344 -0.018685 0.17761 0.10217 -0.20924 -0.16652 -0.028532 -0.03998 -0.22306 0.23337 -0.27634 0.78406 -0.12047 0.21654 -0.12144 0.196 -0.21509 0.25244 0.50284 0.03705 -0.014845 0.1271 0.53376 0.17093 0.079732 -0.33635 0.12301 0.22555 0.34078 
peri 0.16811 -0.022139 -0.036732 -0.061016 -0.19143 0.13247 -0.15516 -0.0048289 0.093317 0.19171 -0.1214 -0.34792 0.078503 -0.1217 0.044548 0.10015 -0.0108 -0.12848 0.19644 -0.12216 0.10402 0.016474 0.012389 -0.075303 -0.15388 -0.025995 0.22954 0.13943 -0.1295 0.029972 0.067943 0.18014 -0.027405 -0.11483 0.28006 -0.33231 0.29712 -0.071393 -0.1342 0.0079427 -0.16803 -0.030188 -0.0079688 -0.14688 0.34336 -0.20943 0.089888 0.073758 0.25445 0.011853 0.19708 -0.042033 -0.10078 0.46254 -0.18444 0.22575 -0.21025 -0.031738 -0.059733 -0.1595 0.13292 0.080827 0.15922 -0.033224 -0.050868 0.032809 0.29679 0.17381 0.35939 -0.10567 -0.14588 0.047908 -0.17832 0.063375 0.094913 0.022939 0.1533 -0.21085 0.078041 -0.15112 0.17128 -0.25516 0.53385 0.11562 0.15367 0.04123 0.084958 -0.10467 0.061022 0.23344 -0.18395 0.043074 0.087047 0.12067 0.17895 0.15314 -0.065978 -0.043063 0.21912 0.15841 
touto 0.06494 0.059438 0.044435 -0.1435 0.10207 0.42505 -0.04426 -0.07564 0.12618 0.16802 0.072604 -0.23915 0.13979 -0.16776 -0.15551 0.16895 0.2416 -0.058511 0.21454 0.13671 0.148 -0.098804 -0.00082475 -0.1072 -0.13127 -0.10873 0.18945 0.18727 0.026182 0.048591 0.075433 0.060942 0.12153 0.10442 0.22417 -0.51438 0.31456 0.075137 -0.16972 0.2932 -0.09255 0.0038111 -0.017528 0.036228 0.18286 -0.27058 0.0060458 -0.017667 0.10674 -0.36545 0.15844 -0.029317 0.076853 0.39783 -0.050421 0.015593 -0.13938 0.11236 0.021681 -0.18361 0.057907 0.1939 0.075084 -0.15944 -0.063896 0.080498 0.036653 0.19191 0.37492 -0.15051 -0.31325 0.077431 -0.24576 0.03231 0.16023 -0.033393 0.025268 -0.14494 -0.049873 -0.061162 0.13538 -0.17623 0.85685 -0.025994 0.21778 0.055387 0.24736 -0.2452 0.0099818 0.3853 -0.18775 0.048948 0.081332 0.39669 0.16608 0.17309 -0.16641 0.062407 0.15658 0.35773 
all 0.12758 0.001695 0.07369 -0.24169 0.098543 0.22901 -0.10461 0.083935 0.16237 0.26551 0.041684 -0.33287 0.0076529 -0.12811 -0.16266 0.17592 0.10306 -0.099992 0.26836 0.015322 0.039566 -0.066223 -0.044398 -0.20645 -0.17829 -0.15167 0.16315 0.23892 0.080534 0.10828 0.048726 0.035591 -0.048103 -0.011985 0.14476 -0.54631 0.37069 -0.023954 -0.22004 0.19985 -0.14875 0.048086 -0.059832 -0.048298 0.35675 -0.18082 0.049812 0.061457 0.14959 -0.18229 0.15583 -0.12533 -0.097872 0.28041 -0.10501 0.16414 -0.18977 0.082088 -0.1319 0.0056671 0.010565 0.056211 0.067027 -0.094151 -0.20901 0.12599 0.11457 0.034722 0.48965 -0.15561 -0.25214 0.13353 -0.1655 0.13899 0.22037 -0.028187 -0.091202 -0.16732 0.032956 -0.11602 0.17397 -0.25723 0.76565 -0.011927 0.25982 -0.048339 0.1538 -0.26543 0.10821 0.47758 -0.20883 0.001934 0.015998 0.1977 0.16088 0.18559 -0.16445 -0.023838 0.28063 0.3317 
yeov 0.11658 0.0067485 0.22499 -0.037492 0.1756 0.18267 -0.46557 -0.19919 0.031366 0.15035 -0.30848 -0.29703 -0.062945 0.054999 -0.054769 0.31065 0.23063 -0.086607 -0.040102 -0.081986 -0.1972 0.19702 -0.1613 -0.31135 -0.3415 -0.11984 0.26016 0.073806 0.14298 0.46612 0.16587 -0.00059689 -0.16437 0.05709 0.20921 -0.48651 0.15915 0.1276 0.11434 0.081436 -0.28138 0.14576 -0.029158 0.10076 0.41296 -0.2956 0.19792 -0.2055 -0.074955 0.059697 0.0065074 0.058628 0.13827 0.60821 0.20435 0.14112 -0.13224 0.29021 0.35374 -0.1707 0.1438 0.093945 -0.13164 0.0054706 -0.056845 0.076274 0.046358 -0.019994 0.51843 0.17824 0.011606 0.1569 -0.086316 -0.01408 0.23315 0.2578 0.048129 -0.2267 0.33355 0.059381 0.3215 -0.37842 0.49374 0.44426 0.13373 0.24182 0.17349 -0.18242 0.044064 0.55369 -0.27078 0.16575 -0.049278 0.0038648 0.44768 0.5048 -0.12875 -0.015159 0.36238 0.035284 
me 0.090978 -0.013892 0.22576 -0.30091 0.28057 0.19432 -0.20545 0.17913 0.12819 0.17666 -0.16786 -0.19118 -0.014894 -0.22617 -0.20615 -0.076587 0.12763 -0.061822 0.1591 0.037178 -0.018637 0.019013 0.31544 -0.22221 -0.1417 -0.36103 0.22484 0.15715 0.18698 0.12986 -0.15455 -0.046033 -0.17121 -0.03004 0.019386 -0.35598 0.43242 -0.34067 -0.20771 0.17325 -0.15424 0.050214 -0.12434 -0.017122 0.0785 -0.13143 -0.10804 0.24281 0.037646 -0.3479 0.33209 -0.26638 -0.10569 0.22515 -0.26615 0.13118 -0.27786 0.072527 0.030778 0.024005 0.16282 -0.14407 0.12934 -0.30939 -0.25964 0.087397 0.057178 0.027267 0.43668 -0.21413 -0.17185 0.088577 -0.24658 -0.023787 0.032296 -0.15114 -0.0065771 0.10668 0.19672 0.014383 0.04431 -0.037388 0.56263 -0.066866 0.018238 -0.021498 0.031003 0.018717 -0.08723 0.60346 -0.036132 -0.059539 -0.072505 0.40708 0.37279 -0.1914 -0.17957 0.14074 0.1482 0.11178 
meta 0.12207 0.13892 -0.051228 -0.15933 -0.068041 0.24946 -0.20634 0.023352 -0.019375 0.19055 -0.14298 -0.371 0.27795 -0.025383 -0.09466 0.060473 -0.060994 -0.024274 0.26515 -0.058252 -0.01386 0.29996 0.1132 -0.19694 -0.13309 0.0473 0.33128 -0.063187 0.0053446 0.26757 0.053108 0.25499 0.00020922 -0.17313 0.13896 -0.13713 0.20771 0.042509 0.072538 -0.25315 -0.0073566 -0.063029 0.018195 -0.099039 0.14113 -0.042264 0.0055414 -0.06204 -0.13404 0.040907 0.16656 0.049252 -0.078676 0.40458 -0.21822 0.05146 -0.14565 -0.011474 0.036531 -0.1476 0.063749 -0.031198 0.19711 -0.054777 -0.25796 0.11137 0.18224 -0.0098452 0.28534 -0.036288 -0.047073 -0.036909 -0.1388 0.065634 0.066614 -0.029583 0.36736 -0.048055 0.025737 0.088442 0.12716 -0.24136 0.33333 0.090501 0.092927 0.14289 0.050034 -0.24753 -0.13593 0.24284 0.098672 -0.057421 0.11653 0.076312 0.25841 -0.056248 0.010778 0.029198 0.24767 -0.080503 
cristou 0.16005 0.12529 -0.0058572 0.048782 0.087203 0.27169 -0.17539 -0.28957 0.20399 0.39579 -0.25897 -0.35237 0.06347 0.068466 0.13384 0.39818 0.07534 -0.15302 0.15035 0.098933 -0.10167 0.1814 -0.35092 -0.36566 -0.26219 -0.052373 0.50093 0.068409 -0.0054661 0.30863 0.38684 0.14484 0.09641 0.042512 0.29492 -0.39662 0.23563 0.10084 0.12092 0.19785 -0.30354 -0.026699 0.21734 0.093621 0.44917 -0.37102 0.13413 0.0035821 -0.18048 -0.0098421 -0.09357 0.02331 0.25621 0.62914 0.12 0.14426 -0.23428 0.24387 0.19215 -0.24177 0.31619 0.24657 -0.1779 -0.046747 -0.28921 0.11655 -0.12581 -0.0052317 0.60523 0.22323 -0.1503 0.28739 -0.16975 0.22803 0.39559 0.14429 0.11746 -0.45989 0.18576 -0.055732 0.32797 -0.51427 0.68708 0.28806 0.32241 0.19161 0.21676 -0.34514 0.039476 0.52265 -0.28615 0.048838 0.11921 -0.061286 0.27596 0.51952 -0.095246 -0.12606 0.41841 0.38871 
panta 0.0866 0.20685 -0.077037 -0.17277 -0.049848 0.26405 -0.1692 0.07888 -0.044112 0.32134 -0.096499 -0.27407 0.5361 -0.1273 -0.15696 0.093053 -0.0051639 0.067253 0.29277 0.046878 0.042809 0.12017 0.1528 -0.16679 -0.22031 0.024649 0.33647 -0.10866 -0.10511 0.20613 0.024166 0.1719 -0.093359 -0.015275 0.10748 -0.19782 0.11377 0.10127 -0.042934 -0.035313 -0.27166 -0.1119 0.094286 -0.13851 0.077004 -0.093093 -0.010918 -0.033994 0.066597 -0.20447 0.0030596 0.098602 0.071378 0.37841 -0.25175 0.068119 -0.18909 0.16831 -0.032163 -0.06895 0.17872 0.094512 0.21202 -0.075099 -0.28399 0.28738 0.12495 0.034546 0.33781 -0.096817 -0.017118 0.090936 0.0020832 0.19777 0.23374 -0.093093 0.18295 -0.092384 -0.10617 -0.056935 0.17372 -0.32181 0.56939 0.13841 0.09935 0.11385 0.1714 -0.26659 -0.15383 0.42465 0.0027889 0.045195 0.18841 0.25341 0.31016 -0.052494 -0.04671 0.20907 0.13397 0.11235 
ex 0.15261 0.076362 0.0065646 -0.14628 -0.077887 0.31817 -0.10019 -0.028503 0.11077 0.20689 0.016671 -0.31223 0.17567 -0.053302 -0.075999 0.11729 -0.0040699 -0.14132 0.22115 0.03054 0.066986 0.12387 -0.051319 -0.19213 -0.18469 -0.048359 0.25547 0.083879 -0.040718 0.15348 0.071668 0.19939 0.021796 -0.036413 0.20554 -0.2947 0.28767 -0.087614 -0.087498 -0.0050992 -0.084383 0.023999 -0.096979 -0.057785 0.26323 -0.13945 0.070602 0.072944 0.051732 -0.12133 0.16731 -0.054539 0.030505 0.35693 -0.198 0.10197 -0.17825 -0.026201 -0.014173 -0.093934 0.091349 0.046742 0.14796 -0.035638 -0.17626 0.11489 0.11974 0.10164 0.37758 -0.095292 -0.15312 0.041732 -0.15539 0.049708 0.14349 0.011279 0.077907 -0.15192 0.023738 -0.063906 0.13118 -0.18771 0.61237 -0.020805 0.20743 0.051835 0.10719 -0.14245 0.055009 0.31528 -0.050772 -0.0067943 0.053713 0.17923 0.17023 0.099221 -0.046295 -0.027462 0.16739 0.26904 
tauta 0.0063279 -0.017668 0.035823 -0.22453 -0.079909 0.17214 -0.10123 0.22201 0.029093 0.20092 -0.033292 -0.31991 0.40217 -0.25203 -0.18986 -0.0027265 0.057933 -0.0030007 0.28882 -0.028517 0.10652 0.090785 0.26543 0.01214 -0.21524 -0.077515 0.26804 0.11354 -0.025935 -0.0023597 -0.046184 0.053404 -0.049384 -0.071005 0.18559 -0.32925 0.36903 -0.0026194 -0.14778 0.070001 -0.11775 -0.10597 0.05562 -0.24259 0.03363 -0.11265 -0.15329 -0.043543 0.32688 -0.10093 0.17117 0.055764 -0.17193 0.30611 -0.23692 0.16076 -0.2383 0.060246 -0.19537 -0.14332 0.079842 0.013476 0.28224 -0.15179 -0.21359 0.067648 0.19472 0.1287 0.11352 -0.30093 -0.09164 0.025704 -0.16947 0.1112 0.040211 -0.32425 0.062594 0.014768 -0.14464 -0.063107 0.034516 -0.26919 0.59887 -0.034252 0.11032 0.019578 0.099475 -0.29356 -0.10252 0.41552 -0.13603 -0.043819 0.15863 0.32231 0.24654 -0.081981 -0.07748 0.11164 0.22377 -0.068905 
kuriou 0.16471 0.19186 0.11272 -0.00063556 -0.0035337 0.39076 -0.29129 -0.25811 0.10019 0.31308 -0.33016 -0.25178 0.24096 0.12917 0.011254 0.24061 0.064593 -0.095725 0.16692 0.041362 -0.1103 0.35342 -0.13267 -0.28406 -0.22785 -0.090796 0.51594 -0.20621 -0.00067082 0.41584 0.26441 0.22199 -0.047761 0.036166 0.22496 -0.10008 0.1999 0.0038358 0.27034 -0.031923 -0.28075 -0.053063 0.23258 0.067821 0.3344 -0.2337 0.16169 -0.042827 -0.39593 0.0061621 -0.046887 0.071205 0.26114 0.55076 0.0045803 0.12967 -0.19686 0.16309 0.30006 -0.24058 0.34634 0.10969 -0.092703 -0.11294 -0.30621 0.089572 -0.1727 -0.13545 0.48699 0.21737 0.061534 0.27255 0.075148 0.11415 0.22069 0.085805 0.2437 -0.32528 0.251 0.066738 0.23919 -0.39836 0.40951 0.25124 0.1794 0.19395 0.21983 -0.2093 0.0073007 0.35569 -0.038266 -0.010342 0.18574 0.031215 0.34921 0.33426 -0.027929 -0.026778 0.30542 0.16768 
umeiv 0.11646 -0.092258 -0.053766 -0.12582 0.068323 0.15285 0.056648 0.1352 0.20576 0.34127 -0.048072 -0.276 0.10668 -0.29585 -0.018761 0.06737 0.034856 -0.15652 0.25547 0.10512 0.19314 -0.087801 0.10387 -0.10123 -0.16751 -0.21405 0.31242 0.38483 -0.11676 -0.1195 0.063874 0.017369 0.077698 -0.025543 0.24267 -0.48719 0.45842 -0.20102 -0.28664 0.46127 -0.30138 -0.13873 0.084514 -0.090836 0.077707 -0.31612 -0.1782 0.16562 0.42646 -0.2709 0.032405 -0.13618 -0.064205 0.28231 -0.22898 0.21362 -0.38421 0.11557 -0.24339 -0.16815 0.22376 0.1728 0.16418 -0.20741 -0.18341 0.047172 0.077024 0.15604 0.39024 -0.1567 -0.19234 0.16773 -0.34621 0.28278 0.22793 -0.25876 -0.1266 -0.097704 -0.13191 -0.20359 0.15467 -0.32529 0.86495 0.0029172 0.29751 0.012114 0.05478 -0.26671 0.038147 0.70724 -0.42652 -0.046707 0.088502 0.2936 0.12367 -0.0024148 -0.13998 0.020092 0.33323 0.4021 
moi 0.0040301 -0.17113 0.19748 -0.27429 0.12852 0.43174 -0.049491 0.0067305 0.13143 0.16418 0.0049239 -0.24288 0.20945 -0.25301 -0.22396 0.13176 0.13756 -0.07049 0.37761 -0.086753 0.096226 0.070394 0.12951 -0.03365 -0.14125 -0.14244 0.24572 0.20602 0.16641 0.0053042 0.03864 -0.043211 0.052373 -0.10253 0.2249 -0.49644 0.51505 -0.12742 -0.21077 0.20311 0.014557 -0.07823 0.091175 -0.078457 0.19421 -0.21514 -0.16127 -0.038105 0.15645 -0.063451 0.14153 -0.039427 -0.35272 0.14771 -0.022754 0.12769 -0.32048 -0.062481 -0.15705 -0.3276 0.0016378 0.034608 0.075861 -0.3117 -0.32601 -0.12587 -0.02196 0.1053 -0.024704 -0.24341 -0.17332 0.044955 -0.25059 0.044597 0.001407 -0.37776 0.03177 -0.014574 -0.14303 -0.054918 0.059217 -0.31632 0.54815 -0.081727 0.16934 -0.019757 0.11781 -0.31185 -0.035732 0.42269 -0.21772 -0.15497 0.1421 0.33725 0.079658 0.032611 -0.0071767 -0.11878 0.33879 -0.020637 
ov 0.10085 -0.1963 0.60501 -0.012678 0.33067 0.10702 -0.8825 0.065967 -0.072589 0.020881 -0.50243 -0.24565 -0.27478 0.035475 0.037123 0.054196 0.315 -0.16031 -0.26119 -0.19726 -0.53829 0.3689 0.30305 -0.29425 -0.28168 -0.58426 0.36084 -0.12108 0.55415 0.42589 -0.0084247 -0.24557 -0.32295 0.39411 0.24349 -0.52363 0.037582 0.10934 0.3556 -0.003236 -0.31605 0.33758 -0.10217 0.17561 0.562 -0.19866 0.42906 -0.30962 -0.11586 0.29266 0.071207 0.032885 0.037571 0.56912 0.27388 0.28136 -0.037915 0.085891 0.61853 -0.15462 0.078376 -0.014261 -0.01609 -0.042872 0.20522 -0.24923 0.11406 0.012863 0.62161 -0.032732 0.025297 0.24561 0.27731 -0.34617 0.010162 0.42459 -0.13638 0.0027732 0.64804 0.19412 0.2796 -0.41604 0.18818 0.72125 -0.060334 0.15769 0.30738 0.14427 0.09002 0.62703 -0.073235 0.046563 -0.22305 0.19657 0.72339 0.74876 -0.56922 0.3136 0.17062 -0.52402 
soi -0.096824 -0.33655 0.33996 -0.27114 0.03559 0.47141 0.11523 0.11804 0.22976 0.134 -0.07019 -0.19793 0.24356 -0.20933 -0.23935 -0.011946 0.069635 -0.13901 0.43242 -0.084816 0.093737 0.16502 0.26142 0.024667 -0.13896 -0.25706 0.34325 0.20141 0.20414 -0.12096 0.0016251 0.0047986 -0.077676 -0.14432 0.2996 -0.48468 0.61479 -0.15252 -0.16524 0.14658 0.059863 -0.11457 0.18708 -0.11444 0.23733 -0.17078 -0.2045 -0.17594 0.12045 0.095922 0.19906 -0.035472 -0.54646 0.048715 -0.0663 0.17205 -0.36069 -0.14598 -0.26929 -0.37824 -0.057364 -0.01151 0.030853 -0.35095 -0.24762 -0.19031 -0.0046227 0.014871 -0.15224 -0.2681 -0.20705 0.10746 -0.14298 0.075262 -0.1271 -0.52476 0.026182 0.031618 -0.1439 -0.0043908 0.025477 -0.33263 0.48752 -0.157 0.25785 -0.053649 0.14135 -0.40763 -0.0077609 0.41873 -0.13699 -0.14471 0.19003 0.35983 -0.031151 0.096493 -0.10297 -0.17487 0.50094 -0.2754 
legw -0.024473 -0.25535 0.41982 -0.24392 0.20136 0.18266 -0.081134 0.26055 0.29771 0.22617 -0.29149 -0.11399 -0.040944 -0.21226 -0.21077 -0.044715 0.15081 -0.1437 0.15642 0.042911 0.015776 0.011531 0.41346 -0.077257 -0.21757 -0.48357 0.36278 0.21879 0.14691 -0.068702 -0.10776 -0.059177 -0.27627 -0.030309 0.13408 -0.4339 0.56392 -0.32174 -0.10131 0.34614 -0.28064 -0.06714 0.079674 -0.046551 0.069245 -0.228 -0.20105 -0.0022188 0.12838 -0.20319 0.23977 -0.23017 -0.19245 0.18893 -0.23689 0.1958 -0.40351 0.24601 -0.095432 -0.14024 0.17398 -0.074522 0.020177 -0.34759 -0.15523 -0.063656 -0.011076 -0.028274 0.36599 -0.20796 -0.088824 0.26341 -0.17636 0.11202 -0.075939 -0.31402 -0.057663 0.15209 0.18722 0.039759 0.090164 -0.14908 0.61022 0.0073686 0.1598 0.039839 0.044013 -0.11736 -0.031666 0.74615 -0.16357 0.0092385 0.022313 0.41311 0.28718 -0.0069316 -0.31871 0.0779 0.43046 -0.070756 
idou -0.066949 -0.097529 0.32993 -0.16887 -0.10981 0.56098 -0.28084 0.060474 0.10986 -0.058797 -0.25615 -0.209 0.17311 0.036518 -0.21518 -0.09326 0.12894 -0.12991 0.21713 0.0014447 -0.086586 0.39578 0.36938 0.028692 0.020168 -0.31663 0.40785 -0.14712 0.20498 0.15007 -0.063263 0.18945 -0.045422 0.00040752 0.24575 -0.15102 0.39275 -0.046665 0.28408 -0.10359 0.089373 -0.012476 0.070541 -0.071102 0.18173 -0.11578 0.15687 0.006185 -0.1927 -0.02684 0.34716 0.13076 -0.015835 0.45169 -0.15765 0.038232 -0.27851 -0.12448 0.20095 -0.28208 0.15663 -0.037846 0.15099 -0.32853 -0.037855 -0.15132 0.14456 0.098452 0.12975 -0.24691 -0.043805 0.10195 0.047265 -0.2712 -0.24063 -0.15307 0.3613 0.088162 0.28912 0.19862 0.02956 -0.10443 0.24591 0.11959 0.017877 0.053256 0.14553 0.058147 -0.21366 0.10513 0.16773 -0.17843 0.18454 0.42557 0.31839 0.0052058 -0.11319 0.077271 0.10653 -0.38146 
outwv 0.017461 -0.020897 0.055905 -0.20537 0.044678 0.23309 0.0032881 0.12601 0.11623 0.12246 -0.048372 -0.29999 0.15233 -0.13025 -0.20409 0.094363 0.064204 -0.066179 0.35486 -0.017883 0.095922 0.033396 0.088583 -0.10347 -0.18901 -0.11645 0.16269 0.20909 0.080383 0.080263 0.025009 0.1101 -0.091786 -0.043121 0.20349 -0.48441 0.35577 0.14116 -0.17601 0.014205 -0.051807 -0.0027421 -0.01826 -0.074681 0.26684 -0.11792 -0.026409 -0.16429 0.10209 -0.046681 0.24714 -0.058522 -0.17557 0.29036 -0.11004 0.12475 -0.13851 0.013248 -0.18514 -0.10161 0.0043826 0.045375 0.069398 -0.075149 -0.056355 0.18752 0.14746 -0.043699 0.26456 -0.082455 -0.30522 0.016972 -0.18131 0.081014 0.04354 -0.074401 -0.0051544 -0.039073 -0.043498 -0.083881 0.1481 -0.23262 0.64267 -0.048743 0.3194 0.05443 0.19357 -0.42657 0.048637 0.46086 -0.18461 0.066712 -0.018544 0.18775 0.07682 0.14529 -0.13359 -0.062821 0.40188 0.066141 
te 0.15607 0.24784 -0.37736 -0.15684 -0.14433 0.5339 -0.037726 -0.024461 -0.090842 0.20353 0.17861 -0.44295 0.60297 -0.28525 -0.052494 0.28886 -0.043967 0.14015 0.49275 0.016419 0.22927 0.13188 0.096076 -0.067525 0.022766 0.2263 0.1543 -0.060318 -0.21882 -0.2154 0.032113 0.39739 0.48542 -0.16214 0.35681 -0.34705 0.19145 0.28735 -0.11168 -0.056056 0.084983 -0.4468 0.059258 -0.07051 -0.052039 -0.31619 0.0055161 -0.027011 0.16235 0.033513 0.050143 0.23726 -0.05695 0.37392 -0.26543 -0.0029768 -0.21446 -0.13678 -0.14719 -0.29299 0.080724 0.36267 0.603 -0.18251 -0.38649 0.042987 0.11194 0.42681 0.13351 -0.27422 -0.21002 -0.23349 -0.36838 0.16867 0.050467 0.011552 0.49968 -0.13444 -0.47239 -0.22469 0.17326 -0.3778 0.61149 0.030694 0.19359 0.075442 0.1911 -0.32201 -0.18654 -0.050833 -0.1141 -0.14847 0.29589 0.21801 -0.053514 -0.19773 0.16143 -0.043601 0.082452 0.22135 
auth 0.092946 0.0042632 0.20906 -0.084092 -0.27933 0.15354 -0.17236 0.32581 0.052826 0.19355 -0.21236 -0.21878 0.32058 -0.077717 -0.12572 -0.32671 0.01275 -0.16718 0.25741 -0.21794 0.084553 0.18126 0.41475 -0.036065 -0.29153 -0.34382 0.37649 -0.12767 -0.053689 0.27098 -0.17412 0.19678 -0.60258 -0.018369 0.2235 -0.046614 0.40693 -0.14112 0.0052067 -0.19623 -0.25455 -0.022169 -0.090927 -0.2271 0.17095 0.087252 -0.015014 -0.14811 0.057091 -0.14232 0.26697 -0.092541 -0.23488 0.20756 -0.39667 0.36161 -0.060794 -0.036316 -0.098646 0.030239 0.1217 -0.12854 0.33681 -0.02463 0.018907 0.17569 0.45815 -0.21127 0.3652 -0.091859 0.058111 0.10401 0.30115 0.04335 -0.074947 -0.036048 -0.021855 0.092203 0.14338 -0.027378 0.085097 -0.18254 0.39086 -0.012244 0.23145 0.15025 0.050877 -0.15265 0.086719 0.45844 0.046299 0.1595 0.057525 0.23395 0.26883 -0.05063 -0.19688 0.15659 0.16574 -0.2364 
taiv 0.070303 0.01484 -0.46096 0.18415 -0.6727 -0.083669 0.22572 0.36439 0.10333 0.35738 -0.087498 -0.65397 0.63041 -0.12271 0.111 -0.056643 -0.24208 -0.14905 0.48967 0.085253 0.30776 0.3414 0.2599 0.26391 -0.16563 0.34627 0.77572 0.15452 -0.47589 -0.054577 0.33794 0.38435 0.23103 -0.20876 0.55794 0.11228 0.24606 0.44955 0.17385 -0.062584 -0.086958 -0.53968 0.29836 -0.43111 -0.028802 0.013766 -0.31689 -0.20458 0.47486 0.27306 0.055927 0.48522 -0.09984 0.47362 -0.40827 0.14382 -0.32445 -0.022926 -0.55427 -0.49079 0.21665 0.24035 0.48486 0.17534 0.011725 -0.0059355 0.62079 0.097823 0.22062 -0.12378 -0.22564 0.079359 -0.16873 0.52926 -0.090898 -0.33603 0.0071136 -0.13474 -0.49222 -0.062445 0.10667 -0.65371 0.42596 0.0086747 0.5997 0.21367 -0.054111 -0.91317 -0.084807 0.48739 -0.26873 -0.1283 0.22856 -0.046097 -0.029779 0.063227 0.14894 -0.060291 0.50866 -0.18788 
egeneto 0.023756 -0.021571 -0.055315 -0.13293 -0.32663 0.27808 -0.28348 -0.046945 0.037973 -0.033393 -0.27697 -0.38972 0.13393 0.020319 -0.09734 0.046177 -0.038 -0.1331 0.30507 -0.30458 0.049065 0.31841 0.18637 -0.050575 -0.081354 0.027061 0.27741 0.088525 -0.085758 0.2902 0.061317 0.36936 -0.21686 -0.3071 0.21868 -0.17614 0.32053 -0.016983 0.17845 -0.27025 0.04858 0.031533 -0.12429 -0.16677 0.26234 -0.067527 0.17663 -0.010116 0.040919 0.068001 0.33928 0.068768 -0.069663 0.59518 -0.26849 0.11567 -0.27214 -0.14328 0.080775 -0.20087 0.16031 -0.040378 0.28217 0.08061 0.10361 0.11446 0.57193 0.079559 0.19617 0.012372 0.061445 -0.14033 -0.1241 -0.17558 -0.171 0.19981 0.49573 0.039971 0.24425 0.12008 0.17249 -0.040566 0.22249 0.24773 0.10165 0.26248 -0.099556 0.07857 -0.14029 0.049658 -0.063403 0.040239 0.061028 0.056038 0.25005 -0.082798 0.084734 -0.02008 0.25357 -0.23559 
se 0.14259 -0.11463 0.20348 -0.22425 0.0065983 0.28129 -0.20908 0.21795 0.037603 0.18108 -0.22883 -0.26833 0.15827 -0.13143 -0.14805 -0.064907 0.043195 -0.12237 0.16277 0.0079918 0.061782 0.13473 0.32385 -0.060455 -0.13847 -0.28335 0.33428 0.039809 0.089117 0.10898 -0.13394 0.038337 -0.12705 -0.085315 0.13796 -0.22393 0.36135 -0.3538 -0.098127 0.13307 -0.14485 0.0012229 -0.024691 -0.16019 0.11362 -0.15956 -0.11012 0.1496 0.17572 -0.11164 0.19784 -0.10178 -0.12338 0.2576 -0.28475 0.15867 -0.37064 0.073523 0.0017205 -0.082246 0.12027 -0.097765 0.12169 -0.33147 -0.23644 0.012306 0.13153 0.095026 0.24638 -0.23054 0.00035339 0.20152 -0.12127 0.022937 0.0090735 -0.24853 0.086015 0.086088 0.12915 0.018055 0.03018 -0.16934 0.38222 0.12089 0.013989 0.043126 -0.026955 -0.016507 -0.12127 0.44943 -0.083049 -0.018018 0.11175 0.36454 0.3619 -0.15939 -0.08167 0.092664 0.20593 -0.013444 
men 0.15755 0.12871 -0.0082275 -0.15408 0.079321 0.0918 -0.17853 -0.21791 0.090062 0.22585 -0.024403 -0.28369 -0.0098311 -0.1482 -0.074085 0.29422 0.12741 -0.090263 0.16389 -0.12561 0.02168 -0.18066 -0.19257 -0.2652 -0.17858 -0.071736 0.0029062 0.29938 -0.14563 0.074686 0.10296 0.056967 -0.083049 -0.18734 0.18902 -0.57344 0.298 -0.066579 -0.19144 0.30182 -0.23937 0.091903 -0.12198 -0.0097928 0.28667 -0.39942 0.16895 0.19887 0.26842 -0.29014 0.15847 -0.1498 0.060013 0.58352 -0.017175 0.20488 -0.15033 0.14519 0.11218 -0.026103 0.19469 0.18834 0.14175 0.021367 -0.15865 0.19251 0.24801 0.31114 0.46933 -0.098358 -0.063551 0.0061144 -0.23147 0.096447 0.3062 0.24537 0.15605 -0.2153 0.19406 -0.17512 0.29502 -0.090285 0.77318 0.14992 0.20954 0.11495 0.059674 0.071545 0.05641 0.28689 -0.38048 0.18568 0.025942 0.14853 0.19555 0.16947 -0.054756 -0.087052 0.15457 0.47437 
outov -0.063944 -0.15678 0.29277 -0.21053 0.14266 0.28418 -0.42571 -0.05089 0.060232 -0.071439 -0.15586 -0.29567 -0.066615 -0.029976 -0.1443 0.14106 0.22053 -0.12458 0.10824 -0.11595 -0.22443 0.16085 0.13274 -0.036189 -0.10232 -0.28988 0.14343 0.18201 0.28395 0.18399 0.026967 -0.10649 -0.05169 0.062048 0.26923 -0.69391 0.22765 0.17264 0.10554 0.11446 0.020408 0.25714 -0.075221 -0.00031359 0.44864 -0.22076 0.26162 -0.16289 0.1311 0.040718 0.24275 0.095283 -0.080266 0.57328 0.20727 0.13744 -0.12759 -0.11371 0.23189 -0.23852 0.0078514 0.11897 0.11152 -0.10813 0.12546 -0.16208 0.24123 0.24892 0.1514 -0.23799 -0.19473 0.019228 -0.06277 -0.31048 -0.057651 0.15208 0.065115 0.029806 0.2804 0.09048 0.1527 -0.213 0.45713 0.31268 0.075999 0.071176 0.23924 0.0003461 -0.085014 0.25548 -0.24842 -0.035385 -0.048573 0.25322 0.34501 0.45148 -0.30211 0.058469 0.14209 -0.28326 
upo 0.19213 0.15027 -0.11395 -0.043448 -0.13579 0.2459 -0.11264 -0.058691 0.022027 0.25104 -0.19635 -0.43574 0.21123 0.017297 0.0016918 0.152 -0.069273 -0.075918 0.20796 0.0013407 0.011553 0.31622 -0.067644 -0.22407 -0.19218 0.14108 0.35404 -0.023765 -0.025835 0.20229 0.19389 0.28853 0.14234 -0.1537 0.25055 -0.2074 0.21794 0.13193 0.022882 -0.20044 -0.029262 -0.11147 0.030532 -0.10058 0.30064 -0.13998 0.042925 -0.026492 -0.1273 0.16326 0.11927 0.05703 -0.0037797 0.46689 -0.13624 0.086326 -0.18419 -0.037115 0.016921 -0.2193 0.098207 0.023608 0.070729 0.015839 -0.26866 0.085026 0.092763 0.035302 0.40068 0.03512 -0.1118 0.0021567 -0.13741 0.15463 0.10367 -0.017277 0.26512 -0.26173 -0.020207 0.015397 0.18335 -0.362 0.37627 0.086372 0.18662 0.16217 0.10364 -0.36287 0.014656 0.27367 0.013722 -0.043776 0.10782 -0.046145 0.19428 0.17853 -0.0024384 -0.13482 0.34605 0.08403 
an 0.19297 -0.13161 0.025006 0.094309 -0.098731 0.57491 -0.080841 0.11502 0.018003 0.11428 0.27756 -0.20597 -0.16164 -0.18533 0.094267 -0.12748 -0.089797 -0.17403 0.14256 -0.143 0.062895 -0.10117 0.30125 -0.34028 -0.018554 -0.42415 0.082924 0.0033411 -0.16176 -0.25909 -0.1299 0.38156 0.055663 0.11742 0.43635 -0.41187 0.2274 -0.27046 -0.19514 -0.15664 -0.12344 -0.11018 -0.15515 0.089791 0.51969 -0.17043 0.40936 0.10213 0.08018 0.057778 0.17874 -0.26066 -0.25556 0.25184 -0.4609 0.32328 -0.094323 -0.44876 -0.031244 -0.050729 -0.2227 0.15004 0.53896 -0.13964 0.19951 -0.26681 0.38751 0.12477 0.55878 -0.23655 -0.19518 0.029817 0.076495 0.085309 0.062048 0.11695 0.06935 0.016242 0.053963 -0.36027 0.35656 -0.2588 0.57386 -0.012042 0.23275 -0.064575 0.091286 0.077703 0.33401 0.23376 0.13772 0.0032924 0.094586 0.44087 0.054854 0.11366 -0.36284 0.094914 0.080655 0.35407 
legwn 0.042273 -0.17441 0.31829 -0.32937 0.18107 0.28638 -0.29977 0.11103 0.090202 0.023554 -0.31206 -0.30998 -0.12286 -0.070087 -0.20678 0.057897 0.072042 -0.075756 0.11168 -0.043489 -0.088078 0.25544 0.40891 -0.040214 -0.028571 -0.25854 0.32598 0.10449 0.23204 0.12656 -0.093762 0.012215 0.043167 -0.20623 0.10922 -0.31475 0.37391 -0.24699 0.065958 0.031123 0.06092 0.01413 -0.058412 -0.089857 0.10924 -0.18386 -0.11001 0.12368 0.061691 0.01823 0.31159 -0.027437 -0.18671 0.44244 -0.13696 -0.0016813 -0.41432 0.021601 0.17567 -0.28399 -0.055783 -0.15987 0.034059 -0.33087 -0.15468 -0.20163 0.24328 0.2232 0.20687 -0.31605 0.017504 0.11426 -0.21637 -0.099877 -0.20775 -0.21882 0.42628 0.23215 0.26166 0.22611 0.086559 -0.093051 0.19842 0.24637 -0.07837 0.10108 -0.097574 0.12213 -0.29141 0.32292 0.0034801 -0.1662 0.15461 0.32638 0.46166 -0.085032 -0.11036 0.085021 0.30013 -0.25172 
kuriov 0.13999 -0.064744 0.27724 -0.10901 0.13372 0.13484 -0.4787 -0.046339 0.027664 0.21818 -0.38428 -0.22267 0.033598 -0.07274 0.019759 0.11262 0.13922 -0.11836 -0.016758 -0.11515 -0.16974 0.22217 0.14803 -0.17179 -0.22245 -0.31149 0.35911 -0.0020819 0.097898 0.28474 0.073134 -0.061967 -0.16057 0.061597 0.17992 -0.28517 0.23663 -0.20287 0.13886 0.13361 -0.35182 0.081504 0.059448 0.0035571 0.26687 -0.23897 0.10622 0.021697 0.072227 0.033411 0.0072861 -0.027534 0.06533 0.49162 0.0099271 0.25864 -0.25461 0.14064 0.30263 -0.18553 0.27819 0.023554 0.03763 -0.14729 -0.12149 -0.061648 0.043127 0.066648 0.38805 -0.032552 0.13118 0.19935 0.0056324 -0.026202 0.094379 0.07221 0.058049 -0.077756 0.31522 0.031742 0.18834 -0.32015 0.33957 0.40377 -0.018091 0.13168 0.10202 0.091502 -0.019569 0.47755 -0.22176 0.0090272 0.02694 0.19176 0.49842 0.25891 -0.17494 0.13525 0.22923 -0.032479 
kaywv 0.15899 0.10052 0.011333 -0.17325 0.061805 0.28261 -0.11093 -0.021482 0.080419 0.27295 -0.0076038 -0.31621 0.13169 -0.12677 -0.12531 0.18338 0.043933 -0.048397 0.21801 0.061091 0.052678 0.07782 -0.087179 -0.26371 -0.22466 0.0019433 0.22158 0.10476 0.052907 0.16611 0.12141 0.11795 0.10339 0.0013507 0.11642 -0.35089 0.29475 -0.033494 -0.17822 0.071069 -0.13695 -0.024494 -0.038992 -0.035944 0.25533 -0.17896 -0.0059833 0.096179 0.051296 -0.14541 0.12792 -0.09511 -0.013374 0.34284 -0.13178 0.096731 -0.17056 0.06105 -0.0051524 -0.092491 0.085891 0.011172 0.045608 -0.058263 -0.28354 0.15226 -0.011338 0.082576 0.45001 -0.053323 -0.20328 0.08161 -0.1942 0.1428 0.21328 -0.058139 0.063845 -0.19904 0.023137 -0.061931 0.17054 -0.25736 0.68068 -0.031679 0.20935 0.024414 0.12913 -0.25812 0.071671 0.42438 -0.077629 -0.027157 0.032966 0.16615 0.22583 0.1063 -0.061555 0.0015591 0.26409 0.34557 
hmin 0.15696 -0.025161 -0.010826 -0.098436 -0.022178 0.28778 -0.038415 0.026524 0.12139 0.27378 0.0068713 -0.28334 0.10167 -0.15469 -0.037138 0.10457 -0.012256 -0.10107 0.1692 0.030734 0.065451 0.063687 0.053904 -0.16445 -0.10806 -0.13334 0.26188 0.15814 -0.13775 -0.011659 0.087459 0.15861 0.083225 -0.084291 0.24377 -0.31646 0.31015 -0.21355 -0.12013 0.15767 -0.16336 -0.10211 0.033186 -0.079804 0.22516 -0.22071 -0.015692 0.11004 0.21821 -0.092142 0.079592 -0.093496 -0.057519 0.35533 -0.20633 0.16993 -0.29344 0.031887 -0.090778 -0.15816 0.093455 0.11084 0.20664 -0.15493 -0.18935 -0.055938 0.12024 0.16431 0.33824 -0.15413 -0.084176 0.098266 -0.2246 0.18053 0.15416 -0.10587 0.089424 -0.071295 -0.039724 -0.090039 0.16025 -0.26106 0.60998 0.028366 0.19329 0.048009 0.019843 -0.15895 0.025004 0.38119 -0.19368 -0.015838 0.091442 0.23353 0.19055 0.064687 -0.06844 -0.010612 0.26373 0.29938 
hmav 0.43576 0.21793 -0.20073 0.06645 -0.10113 0.21182 -0.36345 -0.19699 -0.12028 0.39273 -0.12349 -0.43987 0.31453 -0.10614 0.11186 0.24693 0.080855 -0.00074019 0.071838 0.042667 0.18616 0.045978 -0.10387 -0.17798 -0.28003 0.16061 0.25293 -0.11719 -0.3026 0.23051 0.10107 0.16749 0.11215 0.0045959 0.33448 -0.19163 0.013996 -0.013378 -0.11106 0.052106 -0.33821 -0.15939 -0.04891 -0.025665 0.096357 -0.34694 0.047121 -0.039245 0.22054 -0.052185 -0.11912 0.029454 0.26157 0.59525 -0.11048 0.17075 -0.17433 0.26491 0.14232 -0.21783 0.19336 0.22378 0.30834 -0.097134 -0.37961 0.15849 0.18173 0.25832 0.61284 -0.0097187 -0.0063504 0.11215 -0.26654 0.30448 0.27687 0.17027 0.22353 -0.27619 -0.044397 -0.19028 0.22025 -0.39907 0.56099 0.24935 0.13278 0.23011 0.11959 -0.17253 -0.063279 0.40749 -0.30462 0.16071 0.10699 0.085038 0.33731 0.093124 0.092068 0.032357 0.085748 0.41431 
autov 0.070843 -0.02049 0.26784 -0.12027 0.015421 0.25061 -0.5113 0.011121 -0.0055952 0.075267 -0.14067 -0.27378 0.041385 -0.046015 -0.074723 0.042042 0.16638 -0.094819 0.014964 -0.15493 -0.21964 0.17376 0.14962 -0.10863 -0.17557 -0.26735 0.26191 -0.015934 0.15072 0.28775 0.04085 -0.071104 -0.16549 0.14637 0.22681 -0.4052 0.15724 0.059306 0.1585 0.096876 -0.18464 0.19035 -0.079552 -0.06735 0.40145 -0.14435 0.2566 -0.061373 0.13285 -0.10937 0.15283 0.089145 -0.013008 0.57131 0.072639 0.21768 -0.088623 -0.047663 0.28188 -0.14292 0.10966 0.068202 0.22451 -0.043611 0.06651 -0.12412 0.30876 0.21144 0.30066 -0.20759 -0.013687 0.11769 0.13972 -0.22515 0.051791 0.17844 0.029496 -0.067577 0.30923 0.045435 0.16283 -0.25834 0.4215 0.30587 0.027782 0.084217 0.16497 0.094474 -0.0052048 0.27154 -0.13497 0.011681 0.0094223 0.24366 0.49332 0.38185 -0.27923 0.23104 -0.033308 -0.19852 
su 0.090278 -0.23259 0.17211 -0.25393 0.12876 0.25338 -0.2702 0.06098 0.1257 0.13851 -0.15383 -0.29054 -0.14401 -0.21336 -0.082678 0.071166 0.10531 -0.18578 0.093868 -0.015324 0.043748 -0.012919 0.23898 -0.023162 -0.038027 -0.35019 0.21949 0.33041 0.084574 -0.013284 -0.064527 -0.087882 0.054798 -0.094092 0.15194 -0.49996 0.42801 -0.42246 -0.14377 0.36825 -0.11999 0.1243 -0.037893 -0.097829 0.19515 -0.30884 -0.035849 0.32444 0.40749 -0.21719 0.17489 -0.16106 -0.064636 0.43011 -0.17711 0.16984 -0.44666 -0.018741 0.067603 -0.18176 0.11362 0.020661 0.1321 -0.33703 -0.12527 -0.15612 0.22368 0.32274 0.22925 -0.31871 -0.066665 0.17576 -0.32171 -0.073077 0.038355 -0.16865 0.12146 0.091664 0.21662 -0.025237 0.055868 -0.12624 0.55648 0.19948 -0.029772 -0.023759 -0.062661 0.21712 -0.13284 0.41783 -0.30582 -0.10141 0.10824 0.40759 0.38638 -0.039405 -0.17176 0.10476 0.15268 0.14994 
pantev 0.10344 0.11648 -0.25844 -0.14483 -0.1824 0.47995 0.047494 -0.35151 0.06996 0.24971 0.14598 -0.37778 0.43284 -0.13769 0.12159 0.33316 -0.057504 -0.11994 0.41174 -0.15821 0.076126 0.1741 -0.25369 -0.23597 -0.020656 0.18958 0.28569 0.19744 -0.27475 -0.025308 0.33566 0.21066 0.34003 -0.26855 0.38256 -0.51842 0.34388 -0.011893 -0.072651 0.10007 0.062315 -0.19995 0.11489 -0.074009 0.37048 -0.27612 0.15465 0.18047 0.21112 -0.010053 -0.088998 0.13463 -0.15549 0.44592 -0.034575 0.13092 -0.27374 -0.3614 -0.093975 -0.41303 0.20842 0.33045 0.38873 0.028443 -0.322 -0.069158 0.17189 0.42649 0.038882 -0.16835 -0.10283 -0.15756 -0.17864 0.1003 0.22615 -0.023609 0.30217 -0.3723 -0.34299 -0.23516 0.25387 -0.43042 0.67374 0.035137 0.22599 0.10065 0.072383 -0.11072 -0.047837 -0.072668 -0.22892 -0.22806 0.31758 0.095449 -0.0057161 0.15078 0.11487 -0.1674 0.11508 0.33463 
authv 0.080642 0.076052 0.098964 -0.052984 -0.40588 0.23666 -0.24394 0.17253 -0.0165 0.11529 -0.31018 -0.35758 0.30867 0.05503 -0.11452 -0.2671 -0.01944 -0.2005 0.23857 -0.30496 0.063958 0.39678 0.24832 -0.060087 -0.28838 -0.16644 0.32501 -0.1786 -0.0067449 0.41982 -0.16797 0.36792 -0.51207 -0.12987 0.30326 -0.10478 0.36875 -0.060036 0.11994 -0.52326 0.017812 0.049053 -0.20426 -0.23083 0.3207 0.076801 0.16784 -0.23254 -0.023834 0.11684 0.40743 -0.071747 -0.20608 0.3967 -0.29277 0.31469 0.014375 -0.24352 0.034785 -0.061512 0.07087 -0.20053 0.34004 0.13478 -0.045741 0.18766 0.46515 -0.15081 0.30815 0.0043306 0.062703 -0.1012 0.17329 -0.094464 -0.15043 0.14293 0.25431 0.026765 0.23731 0.045503 0.0517 -0.091273 0.24469 -0.00088276 0.1625 0.20771 0.096482 -0.098388 0.074323 0.20429 0.12114 0.13049 -0.025786 0.064645 0.21387 -0.039349 -0.077775 -0.042257 0.1634 -0.37218 
on 0.094729 0.29872 -0.35659 -0.61455 0.28337 0.88264 -0.13147 -0.13724 0.2222 0.02737 0.26139 -0.35114 -0.41882 0.24545 -0.30952 0.045365 -0.19629 -0.28262 0.030599 0.22839 -0.10273 0.37191 -0.40105 -0.99634 -0.21203 -0.029774 0.085659 0.43441 0.3738 0.74598 0.20057 0.48301 0.25032 -0.035608 -0.45761 -0.46055 0.22894 -0.68499 -0.027141 -0.051977 0.30559 0.47583 -0.84747 0.061389 0.7346 0.19894 0.46561 0.95811 -0.27675 -0.70134 0.19632 -0.53522 0.61065 0.34427 -0.31228 -0.25574 -0.23294 -0.47678 0.13819 0.36618 0.27566 -0.12368 0.085253 0.19174 -0.47821 0.53902 0.099144 -0.015082 0.72969 0.19535 -0.22134 -0.11286 -0.17115 -0.23175 0.48155 0.30041 0.29406 -0.0061416 0.41152 0.18097 0.081016 0.38345 0.68222 -0.15844 -0.03407 0.048753 -0.4276 0.56383 -0.073588 0.43786 0.48008 -0.32876 -0.56385 0.29942 0.36352 -0.4865 0.15633 0.096002 -0.29279 0.97244 
eipon -0.040643 -0.16764 0.071781 -0.49253 0.1713 0.66805 -0.094064 0.095448 0.21415 0.037658 0.17313 -0.26073 -0.1015 -0.23962 -0.26394 0.025851 0.0078825 -0.1634 0.21974 0.079008 0.047253 0.056978 0.16326 -0.26046 0.013615 -0.32455 0.11576 0.44243 0.20221 -0.017997 -0.054764 0.095193 0.21345 -0.089458 0.017516 -0.61922 0.53995 -0.54012 -0.17859 0.351 0.14418 0.12229 -0.24029 -0.12124 0.32767 -0.16432 0.095567 0.55196 0.3319 -0.43388 0.30586 -0.24064 -0.041479 0.27425 -0.27125 0.043404 -0.43227 -0.29843 -0.095587 -0.076882 0.12649 0.017639 0.28197 -0.31688 -0.21659 -0.090142 0.13091 0.35905 0.10231 -0.40705 -0.21293 0.019676 -0.32371 -0.18669 0.082164 -0.23945 0.14836 0.11778 0.080361 -0.029146 -0.022024 0.074924 0.74975 -0.068915 -0.0094337 -0.13163 -0.13923 0.31888 -0.12232 0.32674 -0.057387 -0.29111 -0.035529 0.6032 0.25336 -0.27576 -0.064849 0.08785 -0.013002 0.32273 
eisin 0.072335 -0.033638 -0.11959 -0.12532 -0.20501 0.53748 0.22021 0.065037 0.14061 0.28445 0.26144 -0.39748 0.36772 -0.15078 -0.085912 0.19185 -0.16227 -0.035581 0.46792 0.026432 0.14521 0.18776 0.015966 -0.09325 -0.036994 0.11735 0.31233 0.15497 -0.15539 -0.15075 0.21218 0.34617 0.37709 -0.20722 0.40777 -0.34115 0.33839 0.11448 -0.11169 -0.043335 0.13919 -0.29564 0.19495 -0.13146 0.31679 -0.13368 -0.092429 -0.10193 0.12812 0.17829 0.1068 0.15662 -0.34572 0.24147 -0.15293 0.084586 -0.27216 -0.19922 -0.36576 -0.37195 -0.15225 0.20993 0.25368 -0.16621 -0.23489 -0.23499 0.13515 0.15179 0.028663 -0.24599 -0.27718 -0.03325 -0.27052 0.29035 0.053306 -0.34293 0.17567 -0.11231 -0.45919 -0.087264 0.14053 -0.48167 0.60265 -0.15819 0.35207 -0.023913 0.10978 -0.64978 0.045178 0.17039 -0.05159 -0.17315 0.21316 0.20436 -0.11299 0.15809 0.070887 -0.24522 0.4267 0.12418 
uiov -0.12231 -0.31663 0.59271 -0.18566 0.27315 0.19832 -0.48323 0.057864 0.1317 -0.13458 -0.49533 -0.13333 -0.33404 -0.029753 -0.2279 -0.041449 0.34489 -0.21153 -0.093456 -0.14713 -0.22927 0.22909 0.33912 -0.052553 -0.16434 -0.60183 0.21414 0.24288 0.41415 0.28881 -0.071375 -0.1922 -0.34011 0.16049 0.1836 -0.56894 0.40109 -0.094134 0.18162 0.19772 -0.17547 0.2925 -0.084608 0.085258 0.32473 -0.19169 0.20473 -0.10683 0.10634 -0.032568 0.28661 -0.030221 -0.01083 0.54798 0.16491 0.17761 -0.25608 0.14032 0.41082 -0.18368 0.15676 -0.085205 -0.17206 -0.21361 0.31299 -0.16068 0.20353 0.04495 0.2828 -0.093649 0.03611 0.14932 0.012512 -0.36855 -0.16493 0.060801 0.0062644 0.14139 0.60337 0.21127 0.18248 -0.11811 0.37956 0.4786 -0.061317 0.13122 0.14924 0.18628 -0.039394 0.63568 -0.26859 0.025342 -0.16591 0.40346 0.53239 0.39207 -0.3414 0.16421 0.32791 -0.40042 
yew 0.080211 0.029117 0.11783 -0.1038 0.12626 0.30959 -0.10455 -0.080001 0.17219 0.29895 -0.11454 -0.26197 0.089247 -0.01409 -0.10166 0.24627 0.069057 -0.094424 0.2161 0.037506 -0.028532 0.089017 -0.1254 -0.30339 -0.26485 -0.10228 0.3327 0.08293 0.052464 0.24497 0.14871 0.12509 -0.058112 0.003804 0.1762 -0.39672 0.28865 0.02708 -0.036214 0.11516 -0.20864 -0.019943 0.11689 0.031903 0.37271 -0.24524 0.059499 -0.085615 -0.061703 -0.048816 0.038788 -0.03971 0.0044721 0.39204 0.00025956 0.11174 -0.19338 0.18952 0.034402 -0.14185 0.073134 0.080346 -0.095299 -0.072436 -0.24457 0.12486 -0.021083 -0.091362 0.45912 0.073796 -0.14875 0.23143 -0.092193 0.20482 0.26578 -0.0094222 0.053893 -0.1873 0.10636 -0.050748 0.25747 -0.36188 0.62523 0.10359 0.28346 0.091354 0.20234 -0.34744 0.0676 0.5616 -0.11788 0.069578 0.080191 0.10651 0.20854 0.31837 -0.12474 -0.049179 0.40375 0.24337 
pneuma 0.15655 0.16814 -0.0057805 -0.2021 -0.14991 0.52419 -0.21622 -0.059002 0.16673 0.22035 0.0036697 -0.31932 0.2594 -0.009921 -0.26331 0.24345 0.034654 -0.03141 0.32862 0.04914 0.028639 0.15614 -0.1837 -0.18611 -0.17029 -0.002308 0.28122 0.022684 0.057228 0.33433 0.2277 0.17866 -0.023997 0.086679 0.10675 -0.29813 0.2527 0.14499 0.13533 0.061837 -0.14601 0.073469 0.033519 -0.044957 0.40587 -0.05174 0.22087 -0.084478 -0.15286 -0.27194 0.19143 0.10998 0.12814 0.41512 -0.090406 0.07281 -0.068148 0.059173 -0.043175 -0.041149 0.18662 0.12682 0.15448 -0.035973 -0.20365 0.16627 -0.030898 -0.068556 0.34057 0.032034 -0.20843 0.13311 -0.060623 -0.015151 0.19119 0.14609 0.098304 -0.25905 0.078752 -0.0072901 0.074849 -0.21412 0.69144 -0.044405 0.27618 0.062517 0.20507 -0.33977 0.13188 0.28269 -0.10374 -0.00098589 -0.031797 0.062338 0.18589 0.19604 -0.0024939 0.032658 0.083159 0.15805 
uper 0.29376 0.17006 -0.054534 0.017147 0.033215 0.13485 -0.15711 -0.050648 0.10134 0.42923 -0.21321 -0.37953 0.14033 -0.053291 0.018099 0.18841 -0.00031732 -0.093115 0.1789 0.014805 0.035796 0.10968 -0.17595 -0.36154 -0.38639 0.0093012 0.37817 0.0009066 -0.052289 0.25004 0.20001 0.20907 -0.095966 0.0035903 0.21086 -0.29286 0.21887 0.061589 -0.12334 0.010687 -0.37137 -0.088181 0.041633 0.0048813 0.36407 -0.21515 0.02618 -0.072498 -0.076439 -0.015474 0.02442 -0.11784 0.059936 0.44652 -0.13687 0.22877 -0.12984 0.22877 0.0066905 -0.053381 0.19671 0.080705 -0.036384 0.040947 -0.28228 0.27037 0.02719 -0.11659 0.72744 0.18196 -0.14931 0.2055 -0.09703 0.34284 0.34279 0.080431 0.0042697 -0.37928 0.07319 -0.12339 0.28902 -0.4458 0.65663 0.10202 0.33446 0.16526 0.19271 -0.43908 0.17217 0.63633 -0.14481 0.18606 0.010683 -0.032216 0.2224 0.30593 -0.12522 -0.053098 0.414 0.36817 
tote 0.029591 -0.0026924 0.024822 -0.18543 0.0075281 0.44079 -0.069545 0.12928 0.054566 0.11977 -0.063278 -0.24508 0.25321 -0.2379 -0.16223 0.020765 0.064387 -0.002172 0.30959 0.048977 0.14366 0.076213 0.33297 0.0047531 0.0061393 -0.15029 0.26862 0.042083 -0.021586 -0.10772 -0.030517 0.16664 0.12876 -0.021373 0.23202 -0.29034 0.35252 0.034316 -0.03 0.15084 -0.048678 -0.21452 0.089925 -0.054097 -0.0035905 -0.24444 -0.035654 0.020043 0.13798 -0.16707 0.18295 0.094285 -0.064739 0.33495 -0.2702 0.010942 -0.27256 0.0062065 -0.041686 -0.25861 0.11148 0.14534 0.27159 -0.28394 -0.078448 -0.0079061 0.17964 0.24178 0.19331 -0.26607 -0.16017 0.011103 -0.18253 0.020726 -0.053789 -0.15195 0.27115 0.050019 -0.10086 -0.023715 0.10666 -0.21559 0.52171 0.064948 0.12016 0.051373 0.16595 -0.15606 -0.14649 0.25562 -0.066348 -0.10347 0.16357 0.4148 0.12746 -0.096618 -0.070978 0.10957 0.18781 0.024893 
legontev -0.12659 -0.16971 0.020445 -0.37215 -0.19899 0.60083 0.040394 -0.19758 0.17694 -0.00032249 0.14687 -0.36193 0.30194 -0.13302 -0.082883 0.20706 -0.043203 -0.24894 0.46399 -0.19132 -0.026278 0.27693 0.010117 -0.078764 0.081196 -0.031318 0.28134 0.36273 -0.072322 -0.16043 0.22385 0.16472 0.29716 -0.41745 0.39707 -0.65752 0.58271 -0.17229 0.050792 0.14273 0.33775 -0.093155 0.0066162 -0.1622 0.39049 -0.25642 0.18539 0.21757 0.28216 0.059351 0.21159 0.13358 -0.33307 0.42397 -0.053107 0.09556 -0.42354 -0.53656 -0.12163 -0.47385 0.099678 0.20147 0.48216 -0.076081 -0.20997 -0.3313 0.30409 0.6007 -0.27952 -0.44755 -0.136 -0.24231 -0.21623 -0.18072 -0.12464 -0.18796 0.36405 -0.060599 -0.18762 -0.035982 0.069231 -0.15792 0.5983 -0.018973 0.15524 0.04248 -0.056088 0.1045 -0.18829 -0.20959 -0.15395 -0.36305 0.25339 0.30922 -0.031873 0.06409 0.041968 -0.20578 0.1453 -0.058828 
ai -0.088256 -0.51649 0.20244 0.0089499 -0.12083 0.56799 0.33119 0.2225 0.14783 0.12364 -0.30476 -0.33284 0.12544 -0.10658 -0.21166 -0.14446 -0.048449 -0.18827 0.47045 -0.092871 0.17651 0.46567 0.50555 -0.012144 -0.13437 -0.027311 0.64623 0.17216 0.080537 -0.046417 0.15913 0.27131 -0.081285 -0.23885 0.36138 -0.0791 0.48174 0.062381 0.15047 -0.24006 0.24136 -0.44573 0.26412 -0.054186 0.1766 -0.014035 -0.35576 -0.63275 0.0024673 0.51237 0.074498 0.10696 -0.63571 0.066374 -0.13658 -0.06888 -0.43962 -0.044588 -0.34381 -0.6165 -0.27407 -0.22872 -0.068795 -0.28987 0.055588 -0.30339 0.31484 -0.20575 -0.047716 0.074713 -0.23575 0.11247 -0.25481 0.33426 -0.38217 -0.43875 0.38621 0.26717 -0.26202 0.32555 0.075511 -0.4153 0.073989 -0.047431 0.3333 0.18269 0.0024093 -0.71517 -0.088671 0.63475 -0.015507 -0.081525 0.098646 0.11103 -0.09942 0.11115 0.023813 -0.11186 1.0133 -0.63229 
amhn 0.11729 -0.093983 0.31038 -0.011667 0.23992 0.33504 -0.093458 0.19505 0.14867 0.29188 -0.11434 -0.14086 0.010283 -0.095109 -0.084799 -0.10766 0.061041 -0.024972 0.13058 0.070422 -0.030315 0.081304 0.37963 -0.3181 -0.3278 -0.37842 0.3443 -0.084181 0.054587 0.007464 -0.13511 0.15538 -0.25902 0.055036 0.19672 -0.23745 0.31155 -0.18413 -0.15341 0.0056862 -0.32746 -0.20185 0.070123 0.055631 0.12841 -0.21089 -0.1604 -0.13997 -0.1724 2.4695e-06 0.073316 -0.17727 -0.16917 0.13857 -0.26446 0.18668 -0.19939 0.22892 -0.038216 -0.13624 -0.027019 -0.051419 0.053188 -0.26819 -0.21558 -0.0007572 -0.0010333 -0.23234 0.59568 -0.0086289 -0.080626 0.26371 -0.021639 0.33275 0.069274 -0.26221 -0.0010593 0.0966 0.10349 -0.026133 0.23071 -0.33961 0.47221 0.0077103 0.24038 0.1029 0.10609 -0.35714 0.059217 0.77617 0.11739 0.086507 0.11374 0.32405 0.23652 0.038706 -0.3002 0.048294 0.46554 0.011087 
yeon 0.11876 0.20125 -0.2285 -0.30397 0.082519 0.64166 -0.077664 -0.19851 0.098602 0.10571 0.18944 -0.33741 -0.059632 0.097193 -0.18198 0.18738 -0.024958 -0.15183 0.14206 0.087561 0.041709 0.20327 -0.31258 -0.58722 -0.21055 0.084491 0.095285 0.26774 0.049798 0.42636 0.1692 0.36687 0.18346 -0.094602 -0.040819 -0.44899 0.252 -0.26117 -0.084744 -0.011072 0.12292 0.15267 -0.4217 0.034228 0.47427 -0.068775 0.26304 0.40064 -0.086227 -0.3351 0.0902 -0.19127 0.30372 0.38566 -0.16516 -0.081735 -0.17984 -0.17952 0.059875 0.037009 0.12754 0.065307 0.12456 0.078173 -0.30533 0.31369 0.1365 0.074911 0.48824 0.10338 -0.15407 -0.088666 -0.20583 -0.016774 0.33062 0.17131 0.23073 -0.1691 0.10361 0.0054134 0.17749 0.0015366 0.67628 -0.051618 0.12262 0.11655 -0.14525 0.070915 -0.0052181 0.31856 0.096261 -0.11027 -0.16049 0.18351 0.20281 -0.13004 0.13594 -0.055265 0.025958 0.66515 
adelfoi 0.48403 0.056763 -0.06413 0.069531 -0.086113 0.45887 -0.32632 -0.16481 -0.27483 0.18882 -0.19896 -0.32773 0.16349 -0.053274 0.1445 0.16295 0.30424 -0.17035 0.086483 -0.078393 0.23997 0.12858 -0.081406 -0.22557 -0.11132 -0.11822 0.25268 -0.19638 -0.066385 0.26559 -0.022692 0.18917 0.011126 0.096016 0.23671 -0.10655 0.20938 -0.27093 -0.060381 0.085898 -0.28957 -0.22987 -0.053707 0.058284 0.11534 -0.28161 0.095267 0.092478 -0.11923 -0.15604 -0.11757 -0.067422 0.18982 0.30137 -0.19055 0.18533 -0.28196 0.14663 0.1671 -0.12832 0.27034 0.24253 0.28987 -0.30801 -0.16829 0.035713 0.048787 -0.049092 0.60384 0.13883 0.021655 0.24479 0.0081433 0.089696 0.13729 0.10917 0.11897 -0.35252 -0.030824 -0.22415 0.34103 -0.33961 0.49092 0.29818 0.12613 0.25917 -0.036976 -0.0094304 0.072095 0.43862 -0.29131 0.08226 0.33766 0.18605 0.43685 -0.00070038 0.0246 0.039665 0.087328 0.46401 
w 0.13962 0.0043731 0.10331 -0.11245 0.05855 0.2814 -0.16602 0.022384 0.046186 0.22967 -0.083659 -0.28209 0.070809 -0.06232 -0.096286 0.10088 0.073869 -0.075633 0.16663 -0.01889 0.018243 0.10142 0.022529 -0.21465 -0.21548 -0.13264 0.22456 0.057965 0.038315 0.16039 0.037136 0.1206 -0.037541 -0.009184 0.1736 -0.33232 0.28013 -0.051768 -0.091217 0.04211 -0.15102 -0.030009 -0.031253 -0.0165 0.25432 -0.19179 0.03154 -0.041612 0.033476 -0.041421 0.10325 -0.062423 -0.050725 0.32817 -0.1124 0.12363 -0.16845 0.089237 0.022295 -0.11233 0.026424 0.025127 0.080604 -0.11676 -0.18564 0.076393 0.089106 0.0067698 0.41821 -0.035112 -0.11413 0.11617 -0.097026 0.11782 0.12533 -0.01748 0.075954 -0.078866 0.085231 -0.026099 0.18 -0.25281 0.54039 0.080844 0.17172 0.076155 0.11636 -0.22301 0.054171 0.44696 -0.097017 0.051273 0.039702 0.19199 0.24617 0.13511 -0.098139 0.019658 0.2964 0.17381 
ewv 0.084068 0.013911 0.016622 -0.089846 -0.1656 0.29966 -0.073406 0.031557 0.087186 0.11004 -0.1748 -0.3782 0.15421 -7.3586e-05 0.013132 0.020335 -0.065972 -0.15966 0.27143 -0.10972 0.068634 0.34076 0.13563 -0.070675 -0.06266 -0.012501 0.35319 0.027226 0.027575 0.087553 0.11528 0.27612 0.10174 -0.16067 0.34393 -0.26283 0.36367 0.051754 0.05476 -0.24938 0.13442 -0.089501 -0.02606 -0.061878 0.23931 -0.10982 0.07241 -0.085444 -0.020694 0.19012 0.29354 0.021214 -0.17179 0.41783 -0.17068 0.087615 -0.17328 -0.21846 0.032747 -0.31147 0.070225 -0.013542 0.17475 -0.0027818 -0.1048 -0.0059787 0.24664 0.12784 0.21586 -0.066871 -0.14972 -0.091378 -0.16403 -0.021355 -0.12936 0.0021257 0.37359 -0.090738 0.064953 0.045405 0.086487 -0.23668 0.30162 0.028906 0.17879 0.12602 0.11221 -0.19489 -0.049396 0.069936 0.026183 -0.10477 0.048335 0.059795 0.070106 0.092958 -0.013846 -0.14844 0.32398 -0.14375 
di 0.17553 0.029915 0.059669 -0.017717 -0.02347 0.10988 -0.1115 -0.068308 0.16858 0.33003 -0.16607 -0.31262 0.049967 -0.044889 0.077729 0.15263 -0.012928 -0.1126 0.086599 -0.068347 -0.034291 0.096981 -0.16761 -0.37088 -0.34092 -0.044646 0.32016 0.1219 -0.094339 0.11747 0.14437 0.17478 -0.082736 -0.086061 0.30521 -0.45392 0.31648 -0.011836 -0.09891 0.049525 -0.26775 -0.036568 -0.014155 -0.022054 0.45672 -0.25823 0.085972 -0.015381 0.063447 0.09858 0.10781 -0.088738 -0.10268 0.45569 -0.092612 0.29999 -0.12186 0.061268 0.01871 -0.1254 0.074502 0.075407 -0.021927 0.063836 -0.1416 0.080508 0.14512 0.053766 0.5505 0.038291 -0.12791 0.10809 -0.088268 0.25174 0.24668 0.058416 0.011884 -0.35192 0.088084 -0.12612 0.29818 -0.41156 0.62466 0.13328 0.2476 0.12965 0.13261 -0.28775 0.21789 0.42886 -0.15017 0.16112 0.031587 -0.017849 0.1554 0.41395 -0.12622 -0.15474 0.40656 0.25382 
ep 0.092217 0.07835 0.0026484 -0.20394 -0.14731 0.40284 -0.28246 -0.067623 -0.04132 0.13312 -0.022673 -0.37827 0.34551 0.023443 -0.13943 0.10649 -0.014423 -0.02411 0.23665 -0.078827 -0.011642 0.24916 0.10129 -0.18827 -0.16098 0.070184 0.2645 -0.074172 -0.049806 0.29343 0.058633 0.23529 -0.0078524 -0.1393 0.18382 -0.20041 0.14084 0.035964 0.086771 -0.20211 -0.011884 -0.022238 -0.090376 -0.12618 0.25806 -0.072844 0.12911 -0.031108 0.01364 -0.0088821 0.15506 0.11964 -0.042697 0.47533 -0.11853 0.054154 -0.12486 -0.048609 0.079742 -0.16344 0.028872 0.028394 0.26506 -0.044156 -0.2143 0.074384 0.31298 0.12243 0.22913 -0.13165 -0.01598 -0.0071395 -0.048553 0.012548 0.062882 0.027369 0.32888 -0.019658 0.078008 0.026122 0.14804 -0.22315 0.32523 0.13894 0.10075 0.14153 0.020135 -0.1167 -0.14113 0.1618 0.051914 0.0026298 0.11936 0.16537 0.28047 -0.0041786 0.10142 0.050058 0.086488 -0.064724 
palin 0.061104 -0.062501 0.02214 -0.19231 -0.07459 0.37892 -0.16707 0.099041 0.085081 0.13226 -0.0057534 -0.24768 0.086726 -0.15548 -0.048036 -0.052359 0.017617 -0.11262 0.14316 -0.0054445 0.072604 0.097819 0.31963 -0.059513 0.0018516 -0.24851 0.236 0.13791 -0.10658 -0.024229 -0.081288 0.18494 0.073363 -0.090738 0.18599 -0.2732 0.34162 -0.32205 -0.093323 0.11195 -0.10485 -0.052519 -0.061808 -0.13023 0.096849 -0.18284 0.028452 0.30122 0.24195 -0.25268 0.18338 -0.088064 -0.027623 0.39527 -0.35523 0.12778 -0.37604 -0.074977 -0.017927 -0.1492 0.16023 0.075033 0.33394 -0.25496 -0.069405 -0.089966 0.29631 0.27318 0.24927 -0.31427 -0.029856 0.02998 -0.21218 -0.05658 0.023466 -0.12661 0.24233 0.08788 0.074093 -0.056278 0.1224 -0.087555 0.51825 0.12304 0.016149 0.019667 -0.055441 0.16277 -0.13947 0.26446 -0.06616 -0.11856 0.16557 0.43598 0.30886 -0.1905 -0.10087 0.14535 0.032912 0.16592 
nun 0.11779 0.033554 -0.016169 -0.085916 0.032392 0.26774 -0.057131 -0.0088099 0.13261 0.26627 -0.076968 -0.29464 0.069184 -0.08535 -0.038378 0.12969 0.019894 -0.12302 0.21957 0.039653 0.050477 0.074833 -0.050905 -0.27016 -0.20713 -0.094116 0.29514 0.15282 0.0047629 0.12761 0.12967 0.16149 0.013354 -0.025873 0.17393 -0.36011 0.29577 0.0075024 -0.094713 0.13671 -0.18818 -0.049459 0.011857 0.0048979 0.2812 -0.21594 0.010028 0.036073 0.04802 -0.1191 0.061905 -0.064602 0.016774 0.35149 -0.13593 0.12836 -0.22639 0.11437 -0.046089 -0.10002 0.11901 0.1266 0.026479 -0.046535 -0.16446 0.12527 0.10924 0.03674 0.4589 0.013836 -0.16141 0.121 -0.13916 0.18986 0.23269 -0.017088 0.059849 -0.17352 0.044325 -0.079821 0.21248 -0.30825 0.63362 0.099416 0.25985 0.090913 0.092257 -0.26863 0.045236 0.51347 -0.13272 0.039974 0.036865 0.12597 0.15557 0.16152 -0.090437 -0.02971 0.30874 0.29377 
