365 100
, -0.16342 0.13742 -0.014145 -0.012694 0.00014525 -0.12818 -0.088649 -0.055869 -0.10678 0.10359 0.17032 -0.25518 0.16768 0.067865 -0.12124 0.027387 0.28319 0.1735 0.15051 -0.26447 0.067889 0.02094 0.092198 0.11623 -0.089302 0.059942 0.046323 0.095095 -0.14805 0.12863 -0.14775 -0.0037904 0.069438 -0.079823 0.039068 -0.13804 0.010648 0.066675 0.095343 0.15051 0.10498 -0.11827 0.31832 -0.20244 0.11127 0.043537 -0.062884 -0.041363 -0.16387 0.20425 -0.13288 -0.047685 -0.27794 0.077321 -0.16303 -0.026054 0.10455 0.1044 0.23398 -0.035392 0.12236 0.12319 0.44813 0.0035858 -0.19225 0.02032 -0.12988 0.11205 -0.11968 -0.127 -0.24592 -0.029622 0.13858 -0.0019859 0.14513 0.23168 0.095101 -0.069047 0.18379 -0.1603 0.017495 -0.026337 0.32445 -0.0053758 -0.11308 0.25169 -0.11594 0.097017 -0.14394 -0.32039 0.19757 0.13571 0.066517 -0.098911 -0.10796 -0.093146 -0.4568 -0.17626 -0.24631 -0.28359 
</s> -0.15596 0.13537 -0.012172 -0.01464 -0.0062499 -0.13103 -0.09887 -0.061214 -0.10961 0.0961 0.17485 -0.25587 0.16399 0.067748 -0.11618 0.033901 0.28801 0.17137 0.14902 -0.2603 0.067651 0.016858 0.087192 0.11954 -0.087004 0.064646 0.038856 0.10145 -0.14892 0.12106 -0.14871 -0.00030053 0.077229 -0.083433 0.049793 -0.13751 0.0032331 0.069722 0.096496 0.15423 0.10146 -0.11973 0.31691 -0.20457 0.11521 0.037027 -0.056142 -0.03366 -0.16485 0.20867 -0.13333 -0.04591 -0.27627 0.069392 -0.15561 -0.018795 0.10074 0.099914 0.23831 -0.039253 0.12613 0.12616 0.43743 0.0050219 -0.18552 0.014052 -0.12673 0.10688 -0.1265 -0.12771 -0.23668 -0.024029 0.13882 -0.0015876 0.14424 0.23651 0.085927 -0.067177 0.18866 -0.15984 0.02636 -0.034713 0.31155 -0.0050145 -0.11653 0.25339 -0.11658 0.08854 -0.14837 -0.31323 0.18571 0.13408 0.064289 -0.093135 -0.10746 -0.08849 -0.45767 -0.18258 -0.25021 -0.28198 
. -0.1583 0.13309 -0.016441 -0.01714 -0.0056218 -0.12961 -0.10795 -0.068996 -0.11043 0.10219 0.17745 -0.25821 0.16152 0.065465 -0.11897 0.041397 0.29131 0.17604 0.15188 -0.26234 0.078396 0.014101 0.090044 0.12026 -0.088758 0.061579 0.044213 0.094981 -0.15287 0.12302 -0.14309 0.0048711 0.075441 -0.082558 0.049898 -0.14474 0.0058301 0.077965 0.10767 0.156 0.10434 -0.11882 0.32349 -0.21134 0.11787 0.043588 -0.057137 -0.033831 -0.1568 0.20984 -0.13962 -0.048827 -0.28199 0.067165 -0.1663 -0.017683 0.10219 0.10181 0.24468 -0.040469 0.12997 0.13034 0.45198 0.013456 -0.19525 0.016752 -0.12808 0.10568 -0.13135 -0.1332 -0.23424 -0.0205 0.1388 -0.0062368 0.14074 0.24183 0.097375 -0.075588 0.1902 -0.17462 0.029325 -0.032892 0.32059 -0.0016153 -0.11924 0.25707 -0.12156 0.097988 -0.14141 -0.32385 0.18892 0.13384 0.067953 -0.09293 -0.11421 -0.096545 -0.46437 -0.18652 -0.2574 -0.27938 
et -0.1521 0.13463 -0.015138 -0.016472 -0.0022401 -0.12041 -0.096998 -0.063259 -0.10862 0.093111 0.17276 -0.25143 0.16359 0.069274 -0.10926 0.028091 0.28762 0.16339 0.14772 -0.25391 0.068283 0.018813 0.083974 0.11747 -0.08916 0.066716 0.044639 0.10044 -0.15121 0.12012 -0.14663 0.00018646 0.077941 -0.081137 0.050645 -0.13434 0.0048466 0.071814 0.098151 0.15417 0.1027 -0.11738 0.31083 -0.20658 0.11043 0.034619 -0.057203 -0.035472 -0.16322 0.20756 -0.1356 -0.043238 -0.27517 0.066957 -0.16261 -0.021325 0.097314 0.10199 0.24104 -0.032553 0.12004 0.12338 0.43315 -0.0022647 -0.18469 0.017991 -0.12408 0.10318 -0.13101 -0.12944 -0.23559 -0.026726 0.13911 3.6501e-05 0.14852 0.23704 0.091429 -0.071908 0.18637 -0.15945 0.029276 -0.033016 0.31661 -0.00061142 -0.11213 0.2522 -0.11646 0.093378 -0.14687 -0.31649 0.1885 0.1318 0.060215 -0.094652 -0.11376 -0.086351 -0.4549 -0.18044 -0.2518 -0.28175 
in -0.15578 0.13395 -0.01776 -0.013853 -0.0040946 -0.1236 -0.10053 -0.064808 -0.11105 0.095403 0.17755 -0.25994 0.16491 0.071926 -0.11783 0.034151 0.29119 0.17159 0.14865 -0.26181 0.069816 0.012611 0.087484 0.11946 -0.084966 0.063972 0.044588 0.10452 -0.14942 0.12279 -0.14398 0.0033918 0.077443 -0.086082 0.052521 -0.13633 0.0033326 0.074377 0.095777 0.14949 0.10047 -0.12243 0.32045 -0.20296 0.11896 0.036626 -0.058372 -0.030737 -0.16561 0.20352 -0.13485 -0.045668 -0.28116 0.073003 -0.1509 -0.015426 0.10457 0.097612 0.24261 -0.034606 0.12898 0.12551 0.43851 0.0059907 -0.18783 0.016836 -0.13388 0.10236 -0.12859 -0.12674 -0.23929 -0.023329 0.13811 0.0055593 0.14656 0.23688 0.085153 -0.070423 0.19007 -0.16595 0.022482 -0.031053 0.31156 -0.0029939 -0.11377 0.25539 -0.11806 0.092949 -0.14519 -0.31523 0.19024 0.13494 0.067069 -0.092385 -0.11299 -0.091688 -0.46395 -0.1924 -0.25353 -0.28703 
est -0.15467 0.13622 -0.020491 -0.020345 -0.0048164 -0.12937 -0.098229 -0.066223 -0.11157 0.096732 0.18024 -0.25881 0.16551 0.069989 -0.11914 0.036951 0.29152 0.17454 0.15637 -0.26329 0.068807 0.020109 0.09231 0.11955 -0.088312 0.073384 0.04532 0.10015 -0.15243 0.12481 -0.15169 0.0053405 0.078273 -0.084708 0.054016 -0.13823 0.0025296 0.06732 0.097347 0.15353 0.10405 -0.12261 0.32292 -0.2057 0.12012 0.032916 -0.056588 -0.040936 -0.16697 0.20905 -0.13741 -0.050794 -0.28393 0.073364 -0.16118 -0.019201 0.10698 0.10066 0.24089 -0.038261 0.1265 0.12754 0.45074 0.0044043 -0.18847 0.019629 -0.12828 0.11144 -0.13107 -0.12604 -0.24336 -0.024184 0.1399 -0.0024026 0.14697 0.23981 0.094316 -0.070884 0.18629 -0.16529 0.028676 -0.033141 0.32222 -0.0011023 -0.11487 0.25702 -0.12178 0.093542 -0.14983 -0.3196 0.18998 0.13594 0.066248 -0.093395 -0.11973 -0.087548 -0.47247 -0.18669 -0.25704 -0.28673 
ad -0.15209 0.12851 -0.012423 -0.018474 -0.00027229 -0.12887 -0.099533 -0.065297 -0.11574 0.096521 0.18455 -0.2602 0.15937 0.062075 -0.12195 0.03132 0.29179 0.17174 0.15589 -0.26379 0.071038 0.017463 0.09449 0.11889 -0.087387 0.065429 0.038363 0.10319 -0.1526 0.12081 -0.1501 0.00011777 0.070358 -0.082642 0.050997 -0.13526 0.005227 0.070911 0.10372 0.15719 0.10725 -0.12271 0.32068 -0.20918 0.12252 0.036611 -0.054418 -0.039739 -0.16279 0.20844 -0.13288 -0.042932 -0.28657 0.069679 -0.15995 -0.018622 0.1066 0.099971 0.24597 -0.038068 0.1307 0.12592 0.44149 -0.0025143 -0.19416 0.014823 -0.1385 0.10968 -0.12912 -0.12604 -0.24381 -0.030247 0.1341 0.0032507 0.14686 0.2447 0.088567 -0.075124 0.1866 -0.16379 0.02515 -0.036817 0.32227 0.0015942 -0.11575 0.25497 -0.1178 0.091684 -0.14873 -0.32037 0.1882 0.13422 0.058255 -0.094242 -0.11542 -0.096743 -0.46625 -0.18931 -0.25211 -0.2911 
; -0.16335 0.13239 -0.018261 -0.016333 -0.00010564 -0.13141 -0.10374 -0.064766 -0.11263 0.091773 0.17544 -0.26252 0.16601 0.072762 -0.10653 0.028667 0.29181 0.17522 0.15408 -0.26139 0.067831 0.014857 0.08441 0.11978 -0.087909 0.061838 0.037649 0.10934 -0.14562 0.12478 -0.15057 0.0037274 0.085711 -0.083935 0.04286 -0.13029 0.0067021 0.066026 0.10347 0.15339 0.10497 -0.12101 0.32389 -0.20404 0.11791 0.044754 -0.058627 -0.030246 -0.15764 0.21846 -0.13988 -0.051325 -0.2801 0.075861 -0.15301 -0.018181 0.097186 0.1069 0.23978 -0.044921 0.12574 0.12492 0.45104 -0.0021116 -0.19422 0.011385 -0.12782 0.1052 -0.12935 -0.13108 -0.23996 -0.019607 0.13229 0.0018357 0.15049 0.25204 0.089726 -0.065836 0.18708 -0.17091 0.025045 -0.037667 0.31787 0.0013525 -0.1163 0.26428 -0.11509 0.094901 -0.1506 -0.32323 0.19236 0.13898 0.05787 -0.093122 -0.11986 -0.091187 -0.46568 -0.19227 -0.25215 -0.28287 
ut -0.15834 0.13142 -0.015185 -0.019842 -0.0060829 -0.13077 -0.096658 -0.060794 -0.11176 0.089089 0.17505 -0.25904 0.16486 0.073737 -0.10978 0.033358 0.28061 0.16728 0.15321 -0.25984 0.065467 0.013344 0.088357 0.11406 -0.091536 0.063175 0.039779 0.10321 -0.14177 0.12283 -0.1477 0.0013198 0.074061 -0.085298 0.046921 -0.13747 0.011049 0.068277 0.099836 0.15406 0.099796 -0.12473 0.32171 -0.20228 0.11772 0.03499 -0.05493 -0.041775 -0.16359 0.20798 -0.13475 -0.042321 -0.2756 0.073703 -0.15532 -0.023078 0.098024 0.098681 0.24144 -0.039148 0.12171 0.12202 0.44354 0.0028681 -0.18729 0.010795 -0.12001 0.10401 -0.12857 -0.12771 -0.23685 -0.028646 0.13908 0.0075638 0.14989 0.24355 0.086148 -0.072657 0.18142 -0.15641 0.028743 -0.037057 0.3152 -0.0037554 -0.11007 0.24994 -0.11456 0.09186 -0.1474 -0.31436 0.18469 0.12697 0.065347 -0.090913 -0.10924 -0.089233 -0.46201 -0.18226 -0.25147 -0.28769 
quod -0.15475 0.13246 -0.016534 -0.014112 -0.006398 -0.12611 -0.10046 -0.058471 -0.10851 0.087247 0.17323 -0.25483 0.1632 0.067116 -0.11308 0.035397 0.28764 0.16917 0.14986 -0.25999 0.070064 0.014626 0.082748 0.11832 -0.092393 0.064055 0.041163 0.10039 -0.14333 0.12147 -0.14206 0.0019084 0.075997 -0.08388 0.050381 -0.13373 0.0030584 0.066231 0.096711 0.15554 0.10252 -0.11743 0.31578 -0.20147 0.11457 0.038775 -0.054891 -0.035737 -0.16157 0.20559 -0.12926 -0.048181 -0.2722 0.068288 -0.15683 -0.019561 0.10072 0.10039 0.24045 -0.038414 0.12514 0.12195 0.43554 0.0044638 -0.18433 0.019539 -0.12803 0.10602 -0.12661 -0.12574 -0.23358 -0.023326 0.13468 0.0013397 0.14768 0.23845 0.084998 -0.070563 0.18138 -0.16251 0.027553 -0.034928 0.31457 -0.001244 -0.11292 0.25006 -0.11839 0.09146 -0.14153 -0.31235 0.18584 0.13448 0.063983 -0.095017 -0.11051 -0.088558 -0.45569 -0.18196 -0.24929 -0.28356 
non -0.15969 0.13581 -0.016191 -0.014392 -0.0028834 -0.1304 -0.09734 -0.062456 -0.11173 0.09382 0.18266 -0.2572 0.16768 0.071457 -0.11891 0.029579 0.29296 0.17184 0.15033 -0.26186 0.071272 0.014203 0.090918 0.12131 -0.088599 0.06566 0.042019 0.10528 -0.14658 0.12473 -0.14901 -0.0020766 0.078179 -0.087147 0.046768 -0.13985 0.0055787 0.072859 0.098006 0.14994 0.10168 -0.11813 0.32137 -0.20593 0.12125 0.040627 -0.058696 -0.036404 -0.16411 0.20898 -0.13414 -0.047697 -0.28032 0.070056 -0.16148 -0.024737 0.099762 0.10029 0.24234 -0.039869 0.12891 0.12649 0.447 0.0054301 -0.19114 0.017597 -0.12455 0.10792 -0.1288 -0.12616 -0.24236 -0.027012 0.14254 0.004464 0.14808 0.243 0.086091 -0.068578 0.18596 -0.16688 0.025159 -0.032099 0.32278 0.00095289 -0.11454 0.25238 -0.11947 0.098201 -0.14549 -0.32134 0.19297 0.13625 0.064065 -0.097758 -0.11217 -0.095115 -0.46878 -0.18494 -0.25637 -0.28725 
a -0.1514 0.14562 -0.018671 -0.012339 -0.0097891 -0.13075 -0.094075 -0.065176 -0.12016 0.092707 0.18192 -0.26128 0.17022 0.071705 -0.12078 0.03131 0.30215 0.17714 0.15574 -0.27012 0.077886 0.017465 0.088174 0.13032 -0.091733 0.074575 0.035952 0.10262 -0.16033 0.13191 -0.14584 0.0060318 0.08076 -0.096201 0.055946 -0.14374 0.001466 0.066131 0.099547 0.1625 0.10533 -0.12205 0.33586 -0.2127 0.12744 0.033788 -0.059164 -0.035265 -0.16778 0.21889 -0.14462 -0.043018 -0.29071 0.064602 -0.16046 -0.017397 0.10343 0.097417 0.24893 -0.045413 0.13146 0.13518 0.46255 0.0093958 -0.19492 0.018283 -0.1285 0.10967 -0.13831 -0.13087 -0.2457 -0.030464 0.15318 0.0076107 0.15038 0.25537 0.095765 -0.07954 0.19198 -0.17225 0.031724 -0.036718 0.31809 0.0014849 -0.11268 0.27001 -0.12266 0.095967 -0.15449 -0.33565 0.18848 0.14675 0.06518 -0.088641 -0.11234 -0.090904 -0.48567 -0.19186 -0.27036 -0.29616 
: -0.15466 0.12711 -0.017051 -0.017974 0.001546 -0.13067 -0.10725 -0.068233 -0.11092 0.093594 0.17759 -0.24939 0.17061 0.072246 -0.10957 0.031601 0.2891 0.1717 0.15961 -0.2651 0.070087 0.012474 0.093757 0.11915 -0.087929 0.065632 0.041982 0.10747 -0.14196 0.12133 -0.14845 0.0023055 0.081501 -0.080911 0.040221 -0.13478 0.0085166 0.063592 0.096124 0.14985 0.10818 -0.12515 0.32211 -0.20957 0.12066 0.030058 -0.059304 -0.033922 -0.16503 0.20692 -0.13503 -0.054091 -0.28451 0.069411 -0.15948 -0.025471 0.09472 0.096726 0.23362 -0.038818 0.1247 0.13099 0.45048 0.0040295 -0.19703 0.024906 -0.13109 0.10518 -0.12891 -0.1315 -0.23981 -0.025968 0.14513 -0.001713 0.14283 0.23992 0.085812 -0.069316 0.18867 -0.16359 0.031356 -0.030707 0.32173 -0.0069708 -0.1084 0.25345 -0.12037 0.087975 -0.14362 -0.31482 0.19316 0.13064 0.064629 -0.098341 -0.11629 -0.092409 -0.46479 -0.18749 -0.24986 -0.28675 
qui -0.16124 0.13609 -0.012429 -0.016946 -0.0014988 -0.13331 -0.097247 -0.063336 -0.10931 0.096378 0.18157 -0.26239 0.1676 0.065907 -0.12253 0.037021 0.30024 0.17408 0.15209 -0.26632 0.07028 0.022256 0.091945 0.12007 -0.090868 0.069824 0.042873 0.10467 -0.14861 0.13103 -0.15329 -0.0015167 0.080031 -0.083708 0.05652 -0.14179 0.0018247 0.070286 0.10104 0.15432 0.1084 -0.12173 0.33194 -0.20779 0.1171 0.040877 -0.062881 -0.041763 -0.17098 0.2136 -0.12894 -0.049001 -0.2865 0.071217 -0.16475 -0.022261 0.10208 0.10283 0.24743 -0.041653 0.12552 0.12836 0.45713 0.0084358 -0.19245 0.025489 -0.13538 0.11401 -0.13167 -0.13453 -0.24485 -0.022255 0.14041 -0.0046817 0.15525 0.24341 0.090178 -0.070911 0.18581 -0.16556 0.028415 -0.030681 0.32897 0.003429 -0.11696 0.25919 -0.12158 0.093152 -0.1505 -0.32147 0.19342 0.13909 0.064603 -0.098676 -0.11542 -0.095212 -0.47408 -0.18787 -0.25491 -0.29594 
esse -0.16286 0.13474 -0.014912 -0.015368 -5.6366e-05 -0.1306 -0.10217 -0.063554 -0.11308 0.098377 0.18474 -0.26375 0.16938 0.070294 -0.12478 0.035261 0.2994 0.17405 0.15452 -0.26933 0.066099 0.018304 0.093447 0.12362 -0.094408 0.070259 0.045558 0.10642 -0.14865 0.12556 -0.15332 0.0019932 0.08009 -0.087113 0.050981 -0.14107 0.0065029 0.071529 0.097439 0.15371 0.10784 -0.12815 0.33267 -0.21304 0.11956 0.035492 -0.059866 -0.039222 -0.16954 0.21536 -0.13478 -0.049337 -0.28614 0.068129 -0.16525 -0.023507 0.10503 0.10368 0.24916 -0.038578 0.12591 0.12601 0.45668 0.00846 -0.19331 0.016576 -0.13385 0.10901 -0.13073 -0.13234 -0.24796 -0.027376 0.14268 0.00015316 0.15258 0.24595 0.088317 -0.073652 0.19094 -0.16512 0.027657 -0.032729 0.32928 0.002192 -0.11694 0.26265 -0.12214 0.095281 -0.15024 -0.32584 0.19566 0.13954 0.067794 -0.097517 -0.11747 -0.098267 -0.47853 -0.18837 -0.25967 -0.29684 
autem -0.1502 0.12951 -0.011943 -0.017228 -0.0043226 -0.12167 -0.095085 -0.061415 -0.10728 0.092623 0.17406 -0.25098 0.16044 0.067953 -0.11453 0.034805 0.2842 0.16617 0.14525 -0.25614 0.068166 0.014633 0.085799 0.11808 -0.08459 0.061784 0.036526 0.10375 -0.14414 0.12215 -0.1428 0.0039954 0.076119 -0.081835 0.049404 -0.13499 0.0067022 0.065708 0.094781 0.1476 0.10276 -0.11225 0.31342 -0.19912 0.11491 0.034486 -0.058291 -0.036906 -0.1571 0.19947 -0.1283 -0.04641 -0.2726 0.065901 -0.15609 -0.019897 0.096149 0.094341 0.23409 -0.035441 0.12303 0.12429 0.4324 0.0084488 -0.18225 0.016556 -0.12323 0.1029 -0.12532 -0.12545 -0.2342 -0.023925 0.13415 0.0023698 0.14389 0.23534 0.085311 -0.069769 0.17934 -0.15967 0.025221 -0.032682 0.30831 0.00031744 -0.10799 0.24687 -0.11219 0.091166 -0.14011 -0.3085 0.18421 0.13303 0.063089 -0.093316 -0.10951 -0.090232 -0.45037 -0.18004 -0.24411 -0.27777 
ex -0.15666 0.13229 -0.019859 -0.017413 -0.0023416 -0.13115 -0.10267 -0.062828 -0.11169 0.10095 0.18186 -0.26025 0.17163 0.068043 -0.11545 0.034121 0.29339 0.17697 0.15474 -0.26972 0.067997 0.0135 0.096253 0.12205 -0.09463 0.068945 0.044403 0.1036 -0.15341 0.12448 -0.14743 -0.00013715 0.078649 -0.088944 0.049583 -0.14035 0.0096477 0.069173 0.09938 0.15455 0.10616 -0.11802 0.32913 -0.21116 0.12394 0.037509 -0.065074 -0.03745 -0.16511 0.21161 -0.13133 -0.046218 -0.28354 0.070012 -0.15505 -0.018114 0.10693 0.10462 0.24257 -0.040236 0.13483 0.12521 0.45634 0.0073363 -0.19622 0.013161 -0.12745 0.10731 -0.13015 -0.13193 -0.25011 -0.023857 0.14493 0.0071386 0.14707 0.24516 0.092632 -0.073981 0.19379 -0.16597 0.026431 -0.032228 0.32433 0.0033712 -0.11704 0.25893 -0.12178 0.092367 -0.1434 -0.32362 0.19737 0.1445 0.064545 -0.096484 -0.11483 -0.094231 -0.47326 -0.19061 -0.26054 -0.29076 
cum -0.16363 0.13775 -0.013871 -0.018837 -0.0025701 -0.13636 -0.10576 -0.063976 -0.11402 0.095579 0.18236 -0.26323 0.17222 0.073811 -0.12087 0.035083 0.30198 0.17901 0.15602 -0.27261 0.072685 0.015873 0.094448 0.12383 -0.09009 0.070954 0.03846 0.10871 -0.15296 0.12702 -0.15104 0.004631 0.080641 -0.087086 0.050193 -0.14622 0.0077837 0.072551 0.098944 0.15773 0.11159 -0.12885 0.3337 -0.21441 0.12156 0.037351 -0.06422 -0.03732 -0.1706 0.21353 -0.13897 -0.049689 -0.2906 0.06948 -0.16366 -0.023588 0.1081 0.10644 0.25041 -0.040586 0.12863 0.13152 0.46238 0.010469 -0.19702 0.020169 -0.13023 0.11058 -0.13514 -0.13586 -0.24694 -0.025568 0.14741 -0.0012335 0.15493 0.24718 0.087473 -0.076692 0.19192 -0.16842 0.027606 -0.030915 0.3291 -0.002183 -0.11636 0.26474 -0.12281 0.094399 -0.15046 -0.32739 0.19678 0.14369 0.071338 -0.09844 -0.11288 -0.092137 -0.47922 -0.18941 -0.26312 -0.29274 
quam -0.16713 0.14327 -0.015288 -0.016508 -0.0034496 -0.13801 -0.10269 -0.063937 -0.12007 0.10361 0.19327 -0.28031 0.17964 0.075903 -0.12239 0.038125 0.30934 0.1841 0.16231 -0.28031 0.077255 0.018015 0.093221 0.1267 -0.098303 0.068699 0.045111 0.11233 -0.15683 0.13348 -0.16256 0.0012965 0.082148 -0.092851 0.051669 -0.1478 0.0040256 0.071666 0.10292 0.16881 0.11359 -0.13168 0.34453 -0.21985 0.1277 0.039498 -0.065421 -0.03626 -0.17914 0.22427 -0.1412 -0.052104 -0.3018 0.07064 -0.17325 -0.023285 0.11065 0.10955 0.26071 -0.042754 0.13497 0.13409 0.4806 0.0046197 -0.20606 0.019107 -0.13997 0.11637 -0.13977 -0.1395 -0.26143 -0.025653 0.15037 0.0068497 0.16024 0.26196 0.093484 -0.076083 0.20172 -0.17523 0.029896 -0.036037 0.34525 0.0020835 -0.12635 0.27536 -0.12656 0.10232 -0.1585 -0.34434 0.20409 0.14663 0.06606 -0.10439 -0.12042 -0.10174 -0.5019 -0.20003 -0.27306 -0.30982 
sed -0.15878 0.13802 -0.013989 -0.012741 -0.0063714 -0.13057 -0.096341 -0.066023 -0.11054 0.098573 0.18444 -0.26482 0.17048 0.069508 -0.1197 0.036858 0.29928 0.17561 0.15277 -0.27548 0.070434 0.017898 0.087945 0.12395 -0.092527 0.065985 0.03822 0.10823 -0.15051 0.12698 -0.15102 0.0011565 0.078237 -0.088003 0.048639 -0.14053 0.0072975 0.075709 0.095956 0.15512 0.10769 -0.12402 0.32799 -0.20878 0.11774 0.041324 -0.060032 -0.040778 -0.16816 0.21046 -0.13251 -0.048259 -0.28586 0.076245 -0.16397 -0.020724 0.10659 0.10227 0.25192 -0.038768 0.13096 0.12611 0.45654 0.004923 -0.19307 0.022053 -0.12955 0.10705 -0.13142 -0.13058 -0.24713 -0.026302 0.14353 0.0021411 0.15035 0.24744 0.091459 -0.073479 0.19269 -0.16794 0.030232 -0.030848 0.32844 0.0022024 -0.1161 0.26077 -0.12276 0.092979 -0.14728 -0.32792 0.19731 0.13972 0.069693 -0.10202 -0.11229 -0.092701 -0.47575 -0.18715 -0.25766 -0.29387 
sunt -0.15489 0.13554 -0.015147 -0.015835 -0.0029216 -0.12904 -0.099127 -0.065379 -0.10595 0.096026 0.18236 -0.26044 0.16496 0.070765 -0.11762 0.039096 0.29392 0.17229 0.15116 -0.2647 0.065455 0.014646 0.09259 0.11955 -0.087355 0.070019 0.042123 0.10348 -0.14881 0.12148 -0.15016 0.0025195 0.080004 -0.083404 0.04929 -0.13604 0.0043095 0.06742 0.094669 0.15554 0.10546 -0.12104 0.3233 -0.20902 0.11742 0.037054 -0.058838 -0.035166 -0.16245 0.21329 -0.13158 -0.050742 -0.28448 0.073643 -0.16299 -0.023222 0.10351 0.10003 0.24062 -0.038292 0.12604 0.12606 0.44769 0.003006 -0.19209 0.017316 -0.12967 0.10882 -0.13045 -0.13128 -0.24266 -0.024718 0.1383 0.0029902 0.14665 0.24349 0.090044 -0.067618 0.18612 -0.16614 0.026991 -0.030706 0.31983 -0.0023272 -0.11563 0.2563 -0.12134 0.093859 -0.14918 -0.32198 0.19076 0.13968 0.065464 -0.094211 -0.11138 -0.094127 -0.4623 -0.18796 -0.25616 -0.29033 
annum -0.15665 0.13191 -0.011714 -0.017745 -0.0032919 -0.12622 -0.09738 -0.060056 -0.11041 0.091307 0.17486 -0.25448 0.16337 0.068861 -0.11423 0.031793 0.28783 0.17207 0.14961 -0.25766 0.070613 0.012814 0.087092 0.11379 -0.085597 0.063926 0.042148 0.09933 -0.1442 0.12043 -0.14487 0.0034094 0.074235 -0.083621 0.046863 -0.13419 0.002497 0.070404 0.095089 0.15129 0.10022 -0.11929 0.31624 -0.20259 0.11145 0.033424 -0.058703 -0.032431 -0.15902 0.20233 -0.12805 -0.043723 -0.27417 0.067375 -0.15707 -0.02138 0.10062 0.099539 0.23759 -0.035242 0.12381 0.12166 0.43744 0.0040729 -0.1889 0.014592 -0.12698 0.10148 -0.12729 -0.12809 -0.23639 -0.026722 0.13751 0.00065469 0.14743 0.23827 0.082881 -0.067884 0.18553 -0.15924 0.02469 -0.035577 0.31071 0.001048 -0.11773 0.24986 -0.11847 0.088457 -0.14601 -0.31161 0.18618 0.13478 0.063302 -0.09433 -0.108 -0.090441 -0.45486 -0.1828 -0.2464 -0.27941 
dies -0.16255 0.13849 -0.019731 -0.016613 -0.0067531 -0.1295 -0.10112 -0.067264 -0.11244 0.1006 0.19179 -0.27177 0.17426 0.07092 -0.12395 0.039847 0.30818 0.18526 0.16002 -0.27384 0.076141 0.016213 0.094961 0.1263 -0.094291 0.073001 0.043216 0.10982 -0.15646 0.13053 -0.15071 0.0033677 0.08494 -0.086639 0.055242 -0.1425 0.0068334 0.076069 0.10233 0.16368 0.10791 -0.13182 0.33598 -0.21777 0.12515 0.037357 -0.060966 -0.034619 -0.17371 0.21714 -0.13799 -0.051997 -0.29584 0.073727 -0.16804 -0.022734 0.10674 0.10458 0.25415 -0.039175 0.12901 0.12975 0.46811 0.002478 -0.19798 0.019076 -0.13431 0.10964 -0.13586 -0.13741 -0.2553 -0.027523 0.14572 0.0014026 0.15884 0.25441 0.091534 -0.077507 0.19273 -0.17207 0.028658 -0.034146 0.33107 0.0012412 -0.11881 0.27004 -0.12387 0.094764 -0.15283 -0.33295 0.20248 0.14319 0.068747 -0.10408 -0.11685 -0.093198 -0.48069 -0.192 -0.26534 -0.30369 
quae -0.15625 0.13076 -0.0135 -0.015938 -0.0054926 -0.12551 -0.095035 -0.061515 -0.11006 0.094351 0.17768 -0.26173 0.16648 0.069547 -0.11587 0.034076 0.29106 0.17013 0.15071 -0.26183 0.068111 0.017681 0.088161 0.11984 -0.091738 0.062076 0.042522 0.10825 -0.1447 0.12563 -0.14953 -0.0014925 0.078027 -0.084545 0.05192 -0.13889 0.0049376 0.06784 0.094427 0.15258 0.10374 -0.12271 0.31926 -0.20415 0.12037 0.034071 -0.05882 -0.040917 -0.16545 0.20873 -0.13026 -0.047216 -0.27895 0.064495 -0.15915 -0.018802 0.099662 0.10255 0.24216 -0.037356 0.12252 0.12291 0.44676 0.0045211 -0.19312 0.020634 -0.1313 0.10848 -0.12997 -0.12755 -0.24392 -0.021516 0.14148 0.0048835 0.15012 0.24233 0.084789 -0.071753 0.18382 -0.16473 0.027438 -0.034954 0.3167 0.0011157 -0.11668 0.25467 -0.12021 0.096223 -0.14615 -0.31834 0.19154 0.13622 0.064943 -0.097494 -0.11166 -0.092388 -0.46662 -0.1853 -0.25369 -0.28849 
anno -0.15511 0.131 -0.012897 -0.014329 -0.0040194 -0.13161 -0.10171 -0.060986 -0.10731 0.094344 0.17679 -0.25596 0.1616 0.067987 -0.11528 0.035373 0.28799 0.16908 0.15179 -0.26094 0.068393 0.014873 0.087097 0.11662 -0.086341 0.063561 0.043744 0.10329 -0.14587 0.11876 -0.14841 0.0024366 0.075192 -0.085741 0.050415 -0.13898 0.0036652 0.067883 0.095551 0.15236 0.10392 -0.12189 0.3161 -0.20509 0.11353 0.033177 -0.057706 -0.034567 -0.16322 0.20747 -0.12858 -0.047631 -0.27585 0.069467 -0.1562 -0.020884 0.10168 0.1005 0.24245 -0.037611 0.12351 0.12435 0.43918 0.0037297 -0.18776 0.016693 -0.12507 0.10361 -0.12518 -0.12855 -0.23938 -0.026306 0.13734 0.0054103 0.14792 0.238 0.084977 -0.067436 0.1847 -0.15987 0.024088 -0.033531 0.3139 -0.0032435 -0.11346 0.25368 -0.1181 0.090402 -0.146 -0.31675 0.18905 0.13402 0.062973 -0.096414 -0.10908 -0.09397 -0.45862 -0.18565 -0.25095 -0.28213 
ab -0.15365 0.12924 -0.011172 -0.016315 -0.0059548 -0.12449 -0.099136 -0.06107 -0.10511 0.089113 0.17257 -0.24911 0.157 0.063606 -0.11675 0.039504 0.28478 0.16566 0.14761 -0.25142 0.070654 0.01553 0.090327 0.1165 -0.082839 0.065287 0.03628 0.10275 -0.14735 0.11604 -0.14439 0.0032526 0.076405 -0.08451 0.04189 -0.13756 -0.0015971 0.059685 0.096017 0.15171 0.098594 -0.11556 0.31116 -0.19776 0.11336 0.037646 -0.062641 -0.040724 -0.16443 0.20255 -0.13138 -0.048569 -0.27123 0.072225 -0.15218 -0.017489 0.099496 0.097955 0.2346 -0.036174 0.12764 0.12138 0.42932 0.0027511 -0.18108 0.014207 -0.12428 0.10608 -0.12722 -0.12953 -0.23719 -0.02901 0.1353 0.0060255 0.14816 0.23711 0.090553 -0.066945 0.1745 -0.16105 0.026211 -0.03192 0.31162 -0.0037116 -0.10811 0.24911 -0.11662 0.087161 -0.14464 -0.31719 0.18097 0.12697 0.058571 -0.094087 -0.11021 -0.089247 -0.45165 -0.18534 -0.25048 -0.28181 
id -0.15516 0.13208 -0.012358 -0.011016 -0.0020478 -0.13005 -0.097546 -0.065665 -0.10942 0.091351 0.17843 -0.2538 0.15974 0.063526 -0.11201 0.030761 0.28282 0.17278 0.14867 -0.25258 0.068837 0.013164 0.08343 0.11472 -0.089799 0.063631 0.036445 0.09404 -0.14569 0.12066 -0.15173 0.0023598 0.075703 -0.078418 0.047602 -0.13308 0.0068074 0.070519 0.09479 0.15141 0.1029 -0.11557 0.31579 -0.19539 0.11217 0.029492 -0.051082 -0.032077 -0.15422 0.2079 -0.13417 -0.04253 -0.26999 0.070753 -0.15489 -0.024607 0.096636 0.096223 0.24068 -0.033045 0.12411 0.12122 0.44083 0.0043085 -0.18903 0.01346 -0.12605 0.10704 -0.12834 -0.12605 -0.23599 -0.028803 0.14115 0.0015711 0.1396 0.24086 0.086961 -0.068584 0.18134 -0.15918 0.019289 -0.035065 0.31668 -0.00089625 -0.11239 0.2547 -0.1118 0.091342 -0.14632 -0.31572 0.18158 0.13067 0.06161 -0.09396 -0.1085 -0.090693 -0.45107 -0.17733 -0.25457 -0.27783 
vel -0.15656 0.13702 -0.018962 -0.015818 -0.0014526 -0.13055 -0.097321 -0.062449 -0.111 0.098206 0.18263 -0.26395 0.16962 0.070827 -0.11777 0.037289 0.29693 0.17452 0.1542 -0.26472 0.069397 0.01443 0.089674 0.12182 -0.094495 0.066338 0.043592 0.10227 -0.15255 0.12446 -0.15059 0.0026318 0.078665 -0.088613 0.056962 -0.14007 0.0019622 0.06784 0.098353 0.15818 0.10534 -0.12158 0.32413 -0.20912 0.12222 0.038598 -0.060626 -0.037497 -0.16821 0.2095 -0.13425 -0.047602 -0.28273 0.070663 -0.15882 -0.023596 0.098002 0.099282 0.24549 -0.036824 0.13172 0.12802 0.4501 0.0082812 -0.19153 0.017428 -0.12946 0.10986 -0.13216 -0.12742 -0.2412 -0.026359 0.13975 0.0065434 0.15042 0.24581 0.090721 -0.07183 0.18714 -0.16412 0.027615 -0.032304 0.32175 -0.0043572 -0.11979 0.25843 -0.1171 0.094486 -0.14548 -0.32448 0.1954 0.13371 0.065312 -0.095572 -0.11304 -0.094218 -0.4752 -0.18744 -0.25649 -0.29511 
annos -0.14704 0.12614 -0.010575 -0.013871 -0.006357 -0.12209 -0.09466 -0.056804 -0.10166 0.089226 0.16846 -0.24056 0.1531 0.064609 -0.10774 0.032428 0.27187 0.15993 0.14183 -0.24541 0.067886 0.013665 0.082352 0.10891 -0.082409 0.06215 0.041552 0.097556 -0.13729 0.11484 -0.13942 0.0029 0.072379 -0.0804 0.045422 -0.13032 0.0026161 0.063866 0.091118 0.1421 0.096347 -0.11378 0.29741 -0.19281 0.10844 0.031123 -0.053887 -0.031873 -0.1512 0.19243 -0.12298 -0.045188 -0.25921 0.066634 -0.14841 -0.017359 0.093457 0.092118 0.22761 -0.035748 0.11722 0.11954 0.41296 0.0034055 -0.17585 0.015414 -0.12023 0.099757 -0.12004 -0.11992 -0.22313 -0.025348 0.12533 0.0036344 0.1383 0.22527 0.078355 -0.065118 0.17382 -0.15318 0.023773 -0.032224 0.29466 -0.0032167 -0.10624 0.23923 -0.1111 0.084719 -0.13654 -0.29528 0.17669 0.12617 0.059675 -0.089227 -0.1031 -0.086455 -0.4295 -0.1746 -0.23461 -0.26586 
p -0.15476 0.13168 -0.020886 -0.017663 -0.0064509 -0.12142 -0.097872 -0.06389 -0.10558 0.09749 0.17908 -0.24335 0.15269 0.070443 -0.10533 0.028102 0.27702 0.16417 0.14457 -0.25601 0.062393 0.017195 0.087171 0.11558 -0.087524 0.065349 0.047114 0.10377 -0.14869 0.12333 -0.14817 0.008157 0.075176 -0.084742 0.052641 -0.12994 0.0087172 0.066022 0.097549 0.15008 0.1086 -0.11803 0.31453 -0.19248 0.11699 0.033169 -0.064363 -0.033852 -0.15798 0.20557 -0.12527 -0.045375 -0.27707 0.065668 -0.16238 -0.016007 0.089729 0.095817 0.23057 -0.037816 0.12555 0.11463 0.43552 0.0042957 -0.1932 0.02106 -0.12229 0.095129 -0.1281 -0.12004 -0.23428 -0.025031 0.13441 0.0014416 0.14634 0.23655 0.080653 -0.06562 0.18213 -0.16732 0.022366 -0.028621 0.30714 0.002133 -0.11133 0.24959 -0.11331 0.09317 -0.1361 -0.3126 0.19075 0.1293 0.065544 -0.089947 -0.11159 -0.0892 -0.44951 -0.18067 -0.23921 -0.27423 
hoc -0.16401 0.13396 -0.013037 -0.022376 -0.0049676 -0.13013 -0.10118 -0.063448 -0.1132 0.098817 0.17841 -0.25936 0.16779 0.071877 -0.11731 0.034343 0.291 0.17215 0.15449 -0.26169 0.068286 0.016456 0.091011 0.12231 -0.089189 0.067993 0.04002 0.10233 -0.14606 0.12659 -0.15045 -0.00041426 0.081075 -0.0866 0.054064 -0.13683 0.0082981 0.071799 0.095196 0.15616 0.10785 -0.11972 0.32177 -0.21244 0.11843 0.038065 -0.059431 -0.038469 -0.16456 0.21167 -0.13375 -0.046193 -0.28364 0.069213 -0.1611 -0.02222 0.09974 0.10277 0.24803 -0.033198 0.13003 0.12723 0.44809 0.0038187 -0.1946 0.016145 -0.13152 0.10754 -0.13182 -0.1307 -0.24073 -0.02438 0.14137 0.0062772 0.15083 0.24559 0.091063 -0.069797 0.18701 -0.17004 0.023677 -0.034839 0.32182 0.00011607 -0.11638 0.25544 -0.11789 0.096683 -0.14473 -0.32141 0.18829 0.1343 0.065015 -0.098322 -0.11313 -0.091968 -0.47681 -0.1903 -0.25744 -0.29401 
de -0.16357 0.13129 -0.019653 -0.01647 -0.0076794 -0.13612 -0.10275 -0.063983 -0.10831 0.098097 0.18467 -0.26512 0.16125 0.069363 -0.12189 0.034312 0.29738 0.17796 0.15583 -0.26991 0.066213 0.0066608 0.08714 0.13135 -0.095047 0.069195 0.041545 0.10516 -0.15105 0.13439 -0.14638 0.00075951 0.081279 -0.082167 0.048672 -0.1407 -0.00042534 0.064088 0.10384 0.15825 0.11053 -0.12811 0.33558 -0.2166 0.11783 0.03392 -0.057401 -0.041878 -0.16982 0.20741 -0.12713 -0.048083 -0.28841 0.064656 -0.16177 -0.024136 0.10333 0.10736 0.24494 -0.043542 0.13212 0.12894 0.45233 0.009843 -0.19556 0.018914 -0.13465 0.11212 -0.13275 -0.13451 -0.24418 -0.021663 0.14085 0.0016582 0.15584 0.24696 0.091834 -0.072637 0.19107 -0.16378 0.025902 -0.034235 0.32432 0.0010075 -0.11335 0.26081 -0.12261 0.098042 -0.1519 -0.32907 0.19399 0.13913 0.063789 -0.10113 -0.11105 -0.099169 -0.47838 -0.18541 -0.26102 -0.29369 
vero -0.16245 0.13727 -0.018227 -0.015364 -0.0023437 -0.13414 -0.09981 -0.064723 -0.11197 0.097193 0.18911 -0.26534 0.17192 0.072851 -0.12244 0.038163 0.30092 0.17847 0.16042 -0.26796 0.072027 0.01502 0.091588 0.12489 -0.094559 0.068077 0.046069 0.10861 -0.15236 0.13068 -0.15074 0.00040031 0.080475 -0.088825 0.052007 -0.14297 0.0063592 0.073147 0.10235 0.16112 0.10617 -0.12434 0.33459 -0.21593 0.12168 0.035988 -0.063896 -0.037868 -0.17092 0.21611 -0.13948 -0.050524 -0.29196 0.07059 -0.16424 -0.023715 0.10346 0.10525 0.25132 -0.040219 0.13088 0.12738 0.46147 0.0048917 -0.19573 0.01802 -0.13324 0.10913 -0.13169 -0.13881 -0.24876 -0.028996 0.14938 0.002001 0.15625 0.24713 0.094326 -0.072666 0.19548 -0.17046 0.025819 -0.034727 0.32977 0.0015585 -0.12013 0.26626 -0.12342 0.096724 -0.15016 -0.32903 0.19356 0.13901 0.06311 -0.10002 -0.11606 -0.094614 -0.48007 -0.1931 -0.25883 -0.29611 
etiam -0.15319 0.13063 -0.013559 -0.016371 -0.005924 -0.12756 -0.097878 -0.061132 -0.10696 0.09049 0.17456 -0.25379 0.16042 0.06822 -0.10835 0.034732 0.28529 0.16955 0.14598 -0.25775 0.070128 0.01342 0.08836 0.11562 -0.08659 0.06465 0.038893 0.10027 -0.14253 0.11993 -0.14116 0.0021394 0.076798 -0.082784 0.04876 -0.13293 0.0045854 0.066464 0.092801 0.15043 0.10033 -0.118 0.31392 -0.19887 0.1137 0.034209 -0.057687 -0.036054 -0.16014 0.20342 -0.12874 -0.04544 -0.27426 0.066457 -0.1558 -0.020232 0.095836 0.099567 0.23549 -0.034407 0.12271 0.12155 0.4314 0.0047047 -0.18178 0.016307 -0.12444 0.10209 -0.12318 -0.12523 -0.23481 -0.024939 0.13736 0.0011825 0.14337 0.23388 0.085228 -0.067484 0.18314 -0.15702 0.023616 -0.033358 0.31063 -0.0043874 -0.1124 0.24549 -0.11432 0.088353 -0.14085 -0.31239 0.18682 0.13062 0.062187 -0.090727 -0.10913 -0.088387 -0.45244 -0.1801 -0.246 -0.27877 
enim -0.14988 0.12733 -0.012016 -0.014268 -0.0048048 -0.12457 -0.097085 -0.059316 -0.10805 0.090149 0.17419 -0.24305 0.15755 0.062737 -0.10924 0.033888 0.27925 0.16523 0.14479 -0.24979 0.067742 0.015313 0.083989 0.11371 -0.092201 0.062855 0.04241 0.099662 -0.13997 0.12082 -0.14051 0.00021432 0.075221 -0.077105 0.047164 -0.13304 0.0067092 0.063071 0.091874 0.14793 0.099175 -0.1158 0.30477 -0.19998 0.10714 0.036185 -0.054837 -0.036465 -0.15625 0.19916 -0.12597 -0.046288 -0.26634 0.068314 -0.15147 -0.019793 0.094725 0.097131 0.23153 -0.034832 0.123 0.11879 0.41951 0.0020529 -0.17914 0.01585 -0.12192 0.10178 -0.12484 -0.12661 -0.23258 -0.025454 0.13532 -0.0016021 0.14086 0.23059 0.086007 -0.066365 0.17756 -0.15763 0.026531 -0.031731 0.30125 -0.0041492 -0.10655 0.24396 -0.11287 0.088409 -0.13872 -0.3035 0.18289 0.12655 0.061909 -0.093227 -0.10528 -0.086386 -0.44624 -0.17819 -0.24363 -0.27486 
quo -0.16529 0.13947 -0.014709 -0.017365 -0.0058891 -0.133 -0.10374 -0.065651 -0.11585 0.097662 0.18397 -0.26865 0.17634 0.069055 -0.11955 0.040486 0.30901 0.17672 0.15731 -0.27407 0.073997 0.015019 0.090242 0.12351 -0.094374 0.06719 0.041928 0.10831 -0.14737 0.12998 -0.15133 0.0001576 0.08364 -0.084407 0.051913 -0.14476 0.0036813 0.073626 0.099738 0.16169 0.10862 -0.12766 0.33687 -0.21384 0.12293 0.039925 -0.059176 -0.037139 -0.17242 0.21747 -0.13432 -0.047912 -0.29094 0.074796 -0.16763 -0.020376 0.10495 0.10411 0.25065 -0.040936 0.12954 0.12762 0.46412 0.0050672 -0.19607 0.020857 -0.13684 0.11272 -0.13593 -0.13726 -0.25165 -0.025563 0.14649 -0.0019066 0.16033 0.25786 0.087847 -0.073994 0.19448 -0.16708 0.029385 -0.03417 0.33206 0.0030524 -0.12177 0.26268 -0.12176 0.099924 -0.14745 -0.33024 0.19618 0.14331 0.065757 -0.10108 -0.11515 -0.091015 -0.48445 -0.19119 -0.26655 -0.29994 
se -0.15574 0.13356 -0.016555 -0.01347 -0.0050386 -0.12911 -0.10063 -0.065519 -0.10862 0.10006 0.18475 -0.26803 0.17222 0.065821 -0.12553 0.03744 0.30154 0.16949 0.15285 -0.27041 0.066741 0.019456 0.096894 0.11926 -0.096623 0.066966 0.041657 0.10936 -0.14636 0.13001 -0.1528 0.00089648 0.076911 -0.083234 0.052852 -0.13755 0.0032219 0.068293 0.098391 0.15421 0.1039 -0.12814 0.33207 -0.21701 0.11553 0.040983 -0.057778 -0.043134 -0.16422 0.21188 -0.13058 -0.048726 -0.28216 0.071127 -0.16001 -0.023614 0.1063 0.10161 0.24865 -0.039306 0.1317 0.13178 0.45874 0.0050244 -0.19126 0.016997 -0.13169 0.10819 -0.13038 -0.14018 -0.24336 -0.02418 0.14022 0.0016855 0.14937 0.25049 0.087855 -0.074627 0.19046 -0.16328 0.03222 -0.027895 0.32347 0.00063282 -0.11619 0.25454 -0.11894 0.093891 -0.1466 -0.32715 0.19935 0.13671 0.067085 -0.09443 -0.11257 -0.09506 -0.47148 -0.18671 -0.26392 -0.29369 
inter -0.1761 0.15305 -0.017814 -0.019528 -0.0059851 -0.14421 -0.11219 -0.072413 -0.12945 0.10831 0.20282 -0.29643 0.1903 0.082948 -0.13094 0.040294 0.33484 0.19944 0.17524 -0.29846 0.080536 0.016817 0.099775 0.13663 -0.10256 0.074734 0.048131 0.11828 -0.17153 0.13871 -0.16949 0.00093261 0.087908 -0.097906 0.057859 -0.1575 0.011059 0.079906 0.11258 0.17584 0.12045 -0.13838 0.37073 -0.23666 0.13457 0.04062 -0.070815 -0.041609 -0.19062 0.24253 -0.15189 -0.056107 -0.32018 0.082637 -0.18287 -0.022573 0.11371 0.11384 0.27622 -0.046073 0.14437 0.1443 0.50797 0.0070058 -0.21702 0.020816 -0.14741 0.11923 -0.15065 -0.1501 -0.27609 -0.028946 0.16272 0.0013174 0.17058 0.27732 0.1032 -0.081237 0.21415 -0.18706 0.027569 -0.037184 0.3657 -0.0030549 -0.12888 0.29419 -0.13553 0.10582 -0.16886 -0.36453 0.21645 0.15472 0.072613 -0.10635 -0.12852 -0.10643 -0.53416 -0.21156 -0.29157 -0.32933 
post -0.17084 0.14739 -0.019764 -0.019337 -0.0043805 -0.14228 -0.10625 -0.071455 -0.11922 0.10107 0.19734 -0.28152 0.18136 0.072875 -0.12928 0.042611 0.32144 0.1899 0.1681 -0.28711 0.078321 0.016223 0.099791 0.13236 -0.099037 0.074474 0.04862 0.10919 -0.16055 0.13746 -0.16158 0.0019171 0.083496 -0.095229 0.052099 -0.15257 0.0050886 0.078946 0.11323 0.16859 0.11524 -0.13274 0.35751 -0.2273 0.12819 0.040479 -0.062881 -0.043552 -0.18452 0.22821 -0.1476 -0.052739 -0.30487 0.079117 -0.17572 -0.026398 0.11204 0.11234 0.26686 -0.041277 0.13863 0.14025 0.48858 0.0022163 -0.20959 0.021911 -0.13812 0.11532 -0.14217 -0.14291 -0.26608 -0.029155 0.15439 0.0009639 0.1614 0.2658 0.099825 -0.081909 0.20191 -0.17998 0.029333 -0.035216 0.34802 -0.0024653 -0.12522 0.28199 -0.13304 0.10024 -0.1611 -0.35103 0.21157 0.14982 0.068395 -0.10381 -0.12274 -0.099085 -0.51383 -0.20172 -0.28035 -0.31799 
aut -0.16131 0.13491 -0.013344 -0.021767 -0.0043642 -0.12908 -0.099999 -0.061138 -0.11262 0.095793 0.18198 -0.2608 0.16496 0.06917 -0.11718 0.035235 0.29434 0.17109 0.14877 -0.26933 0.072201 0.015018 0.089956 0.11723 -0.089639 0.066385 0.041186 0.10882 -0.14578 0.12394 -0.15329 0.0045388 0.076227 -0.08293 0.053487 -0.13826 0.0053959 0.070858 0.10086 0.15188 0.10483 -0.11939 0.32185 -0.20821 0.11607 0.034952 -0.056016 -0.038127 -0.16298 0.20483 -0.13318 -0.046331 -0.28175 0.067778 -0.15514 -0.017117 0.097807 0.10036 0.24334 -0.036071 0.12054 0.12679 0.4471 0.010344 -0.18576 0.014251 -0.12637 0.10716 -0.12768 -0.12977 -0.24086 -0.027572 0.1382 0.0017248 0.14385 0.24317 0.092144 -0.069807 0.18667 -0.16496 0.026062 -0.030172 0.31664 0.00024219 -0.11521 0.25233 -0.11181 0.094968 -0.14855 -0.31872 0.18902 0.13415 0.064691 -0.098314 -0.11505 -0.093239 -0.46913 -0.18426 -0.25316 -0.28548 
quoque -0.15435 0.13334 -0.01529 -0.016103 -0.0034269 -0.12747 -0.097406 -0.061501 -0.10801 0.09358 0.17583 -0.25695 0.16434 0.068688 -0.11546 0.034984 0.29007 0.1701 0.15133 -0.2637 0.070477 0.013827 0.085806 0.12012 -0.089574 0.065248 0.039224 0.10157 -0.14381 0.12358 -0.14806 -0.00043546 0.078184 -0.083347 0.05065 -0.13782 0.0043607 0.068966 0.095774 0.15653 0.10431 -0.12207 0.31809 -0.20529 0.1147 0.035778 -0.056388 -0.036612 -0.16405 0.20605 -0.12932 -0.04911 -0.27606 0.067412 -0.16054 -0.020137 0.10301 0.10209 0.23893 -0.040956 0.12717 0.12366 0.43936 0.0032811 -0.1872 0.017198 -0.12817 0.10689 -0.12624 -0.12794 -0.24132 -0.024177 0.1366 0.003341 0.14983 0.24262 0.08924 -0.070504 0.1843 -0.16295 0.026146 -0.031401 0.31643 -0.00036396 -0.11465 0.25255 -0.11692 0.091718 -0.14492 -0.31604 0.18774 0.13409 0.064768 -0.095842 -0.11023 -0.092083 -0.45853 -0.18294 -0.2518 -0.28574 
si -0.15626 0.13256 -0.016146 -0.015596 0.0017873 -0.12551 -0.093895 -0.060946 -0.10934 0.089024 0.1688 -0.25233 0.15865 0.065385 -0.1114 0.029819 0.28474 0.16466 0.14902 -0.25894 0.071529 0.0114 0.08329 0.12176 -0.093505 0.060524 0.046609 0.099092 -0.1482 0.12571 -0.14583 0.00051393 0.078347 -0.082127 0.049176 -0.1395 0.0045782 0.068931 0.094415 0.15799 0.10617 -0.11887 0.31124 -0.20943 0.11724 0.033359 -0.055786 -0.041524 -0.15346 0.20795 -0.13251 -0.045309 -0.27521 0.070599 -0.1601 -0.02319 0.094245 0.10443 0.2354 -0.036842 0.12554 0.12201 0.43715 -0.0025758 -0.18096 0.02158 -0.1267 0.10274 -0.12575 -0.12761 -0.24221 -0.029071 0.13737 -0.00022671 0.14604 0.23423 0.083488 -0.071598 0.17971 -0.16298 0.023858 -0.028422 0.30991 2.64e-06 -0.11812 0.24587 -0.12083 0.090888 -0.14539 -0.30943 0.18401 0.13323 0.061904 -0.094695 -0.11147 -0.086942 -0.45882 -0.18289 -0.24871 -0.28115 
ita -0.15531 0.12942 -0.013631 -0.017965 -0.0055015 -0.12773 -0.092935 -0.061402 -0.10255 0.090698 0.17444 -0.24888 0.16396 0.068649 -0.11566 0.037566 0.28502 0.16578 0.15261 -0.25536 0.065717 0.013475 0.088919 0.11584 -0.090212 0.067454 0.041972 0.10031 -0.14411 0.11876 -0.14514 0.0002147 0.078587 -0.080523 0.050543 -0.13365 0.0086053 0.0661 0.097913 0.15079 0.10283 -0.11608 0.31193 -0.20065 0.11777 0.034206 -0.053063 -0.032385 -0.16239 0.20192 -0.13007 -0.048025 -0.27196 0.067153 -0.15356 -0.018064 0.096637 0.098618 0.23577 -0.036853 0.12374 0.1217 0.43202 0.0060042 -0.1857 0.011722 -0.12441 0.1048 -0.12227 -0.12854 -0.23636 -0.021878 0.13501 0.0039096 0.14415 0.23509 0.086745 -0.071439 0.1798 -0.16079 0.027099 -0.028795 0.31197 -0.0029768 -0.11452 0.2488 -0.11688 0.091914 -0.14151 -0.31004 0.18612 0.13051 0.062972 -0.094349 -0.10627 -0.089478 -0.45098 -0.18084 -0.2454 -0.27699 
nec -0.14907 0.13001 -0.01505 -0.019404 -0.0040957 -0.12518 -0.096648 -0.060222 -0.11132 0.091243 0.17593 -0.25005 0.15957 0.066627 -0.11139 0.0333 0.28186 0.1685 0.148 -0.25606 0.063725 0.0090776 0.093372 0.11582 -0.085792 0.062167 0.037294 0.10129 -0.14191 0.12017 -0.14541 -0.00082322 0.07554 -0.083531 0.045631 -0.1364 0.0077532 0.063729 0.093563 0.14934 0.098567 -0.11924 0.3103 -0.19911 0.1149 0.030457 -0.057503 -0.036653 -0.15672 0.20403 -0.12778 -0.048563 -0.27394 0.067164 -0.15623 -0.020987 0.09644 0.099744 0.23401 -0.043508 0.12049 0.12237 0.42963 0.0019661 -0.18505 0.017353 -0.1221 0.10448 -0.1248 -0.12805 -0.23228 -0.027379 0.13765 -0.0001121 0.14577 0.231 0.086118 -0.066877 0.18234 -0.15897 0.029778 -0.034845 0.31138 -0.002924 -0.11494 0.24668 -0.11483 0.088523 -0.13601 -0.31216 0.1844 0.12881 0.063006 -0.092399 -0.10659 -0.094024 -0.45213 -0.17939 -0.24945 -0.2813 
Sed -0.13926 0.11943 -0.011821 -0.015742 -0.0016154 -0.11424 -0.087246 -0.060064 -0.096951 0.084307 0.15844 -0.22946 0.14906 0.060111 -0.10601 0.031166 0.26009 0.15383 0.13544 -0.2341 0.066697 0.017009 0.07726 0.10697 -0.077699 0.063501 0.033064 0.093244 -0.1331 0.11348 -0.13423 0.00089429 0.072417 -0.075915 0.043189 -0.12591 0.00028886 0.058224 0.084902 0.13722 0.09133 -0.10757 0.28569 -0.18392 0.10238 0.034019 -0.052824 -0.032517 -0.14199 0.18582 -0.11748 -0.042163 -0.24854 0.063268 -0.13903 -0.017471 0.089128 0.087895 0.21539 -0.033367 0.11224 0.11014 0.39349 0.005446 -0.16848 0.014818 -0.10756 0.091774 -0.11299 -0.11688 -0.21654 -0.020702 0.12487 -0.00079916 0.13056 0.21609 0.078868 -0.05843 0.16523 -0.14743 0.022866 -0.025661 0.28195 -0.0018958 -0.099155 0.2282 -0.10567 0.079226 -0.12599 -0.28249 0.1679 0.12235 0.056153 -0.081615 -0.096179 -0.086366 -0.41148 -0.16386 -0.22431 -0.25511 
tamen -0.14686 0.12535 -0.015291 -0.015022 -0.0043273 -0.12005 -0.090935 -0.057181 -0.10221 0.09167 0.16977 -0.24123 0.15596 0.06453 -0.10764 0.028816 0.27505 0.16139 0.14141 -0.24821 0.069033 0.013473 0.084931 0.11245 -0.084374 0.063175 0.037049 0.097032 -0.14153 0.11581 -0.13988 0.0015143 0.072805 -0.078381 0.048378 -0.12967 0.0039857 0.063771 0.094011 0.14813 0.097136 -0.1165 0.30327 -0.19362 0.10505 0.03559 -0.053905 -0.034314 -0.15532 0.19766 -0.12491 -0.044001 -0.26433 0.063496 -0.15045 -0.019782 0.093196 0.09457 0.22856 -0.036676 0.121 0.11695 0.41875 0.0049776 -0.17746 0.019221 -0.11941 0.10193 -0.12051 -0.12241 -0.22849 -0.023818 0.13449 0.002349 0.14104 0.229 0.083649 -0.066657 0.17603 -0.1535 0.022486 -0.030617 0.30518 -0.00015317 -0.10689 0.2403 -0.11324 0.084269 -0.13551 -0.3018 0.17848 0.12882 0.063926 -0.090578 -0.1033 -0.088732 -0.43655 -0.17586 -0.23922 -0.26926 
per -0.16396 0.14296 -0.018976 -0.016162 -0.0059837 -0.13614 -0.10619 -0.067533 -0.11414 0.099387 0.1899 -0.27291 0.17245 0.075739 -0.12568 0.035416 0.30455 0.18337 0.16082 -0.27713 0.074142 0.015325 0.097723 0.12766 -0.094208 0.068381 0.044322 0.10892 -0.15833 0.13175 -0.15668 0.00036778 0.082231 -0.090282 0.057763 -0.1423 0.006591 0.072085 0.10456 0.16682 0.10518 -0.12999 0.34146 -0.21637 0.12509 0.035582 -0.062803 -0.04149 -0.17055 0.22549 -0.14012 -0.050356 -0.29728 0.074637 -0.1689 -0.021335 0.10836 0.10913 0.26024 -0.042898 0.13765 0.1318 0.46773 0.0033264 -0.19719 0.017168 -0.13347 0.1148 -0.13838 -0.13629 -0.25958 -0.027393 0.1426 0.0050641 0.15915 0.25627 0.091254 -0.075272 0.19578 -0.17679 0.026822 -0.032612 0.33673 -0.0021495 -0.12189 0.27522 -0.12777 0.098531 -0.15409 -0.33913 0.20002 0.14395 0.066038 -0.097418 -0.11925 -0.093434 -0.49422 -0.19722 -0.27033 -0.30224 
quidem -0.14997 0.12848 -0.015005 -0.012757 -0.0036224 -0.12554 -0.093277 -0.059389 -0.10666 0.091572 0.17215 -0.24667 0.15909 0.064685 -0.1121 0.03402 0.27994 0.16649 0.14348 -0.25484 0.067305 0.016645 0.08594 0.11197 -0.084408 0.06036 0.037458 0.096093 -0.142 0.12008 -0.14375 9.4967e-05 0.076548 -0.080041 0.047096 -0.13075 0.0045859 0.068275 0.094643 0.1472 0.099544 -0.11493 0.30914 -0.19844 0.10909 0.038054 -0.057265 -0.03348 -0.15722 0.20001 -0.1245 -0.046852 -0.26719 0.064643 -0.15532 -0.018927 0.096529 0.099133 0.23416 -0.037701 0.12223 0.1204 0.42813 0.0027905 -0.17939 0.018607 -0.12628 0.10429 -0.12324 -0.12579 -0.23035 -0.024419 0.13277 -0.00034507 0.14425 0.22997 0.084662 -0.066929 0.17746 -0.15828 0.025365 -0.031252 0.30885 -0.00037621 -0.10804 0.24481 -0.11456 0.086268 -0.13838 -0.30301 0.17896 0.13059 0.062203 -0.090577 -0.10615 -0.086547 -0.44349 -0.17633 -0.24104 -0.27508 
nam -0.16052 0.14147 -0.01767 -0.013867 -0.0039227 -0.13576 -0.10063 -0.061744 -0.11392 0.098738 0.18345 -0.27305 0.17488 0.068695 -0.12012 0.036089 0.30384 0.17895 0.15546 -0.27754 0.067815 0.016876 0.091639 0.12166 -0.094997 0.069202 0.039113 0.11153 -0.15708 0.1317 -0.15447 0.00053548 0.080451 -0.08596 0.051685 -0.14256 0.0086997 0.071279 0.10376 0.16128 0.10906 -0.12792 0.33906 -0.20944 0.12667 0.037645 -0.061547 -0.038355 -0.17205 0.21837 -0.1409 -0.051089 -0.2969 0.069137 -0.1667 -0.019507 0.10367 0.10775 0.2561 -0.038087 0.13214 0.13255 0.46256 0.0044334 -0.19761 0.018296 -0.13492 0.11205 -0.13552 -0.13864 -0.255 -0.029743 0.14882 0.002652 0.15375 0.25073 0.089473 -0.074125 0.1947 -0.17007 0.023072 -0.035807 0.33079 0.0020799 -0.12189 0.26518 -0.11817 0.098115 -0.151 -0.33592 0.1952 0.14267 0.06662 -0.10033 -0.11431 -0.09841 -0.48362 -0.19397 -0.26276 -0.2984 
die -0.15308 0.13 -0.017867 -0.015605 -0.0055248 -0.12293 -0.093596 -0.062755 -0.10912 0.095308 0.18063 -0.25614 0.1613 0.063774 -0.11992 0.036121 0.28774 0.17348 0.14743 -0.25956 0.071544 0.013687 0.089034 0.12202 -0.087411 0.064705 0.03453 0.10651 -0.14368 0.12339 -0.14036 0.0051602 0.076973 -0.077702 0.047075 -0.13242 0.0065589 0.070106 0.10059 0.14919 0.10309 -0.12204 0.31443 -0.20683 0.11462 0.036947 -0.056408 -0.033313 -0.16189 0.20271 -0.13209 -0.047877 -0.28037 0.067566 -0.15668 -0.017636 0.10034 0.10106 0.23841 -0.03958 0.12166 0.12059 0.44159 0.0060677 -0.18565 0.020937 -0.12908 0.10403 -0.12741 -0.12773 -0.23712 -0.023725 0.13621 7.9297e-05 0.14954 0.2388 0.087317 -0.071882 0.18216 -0.16366 0.02725 -0.033099 0.31154 0.0012829 -0.10962 0.25421 -0.11764 0.090432 -0.14402 -0.31116 0.18791 0.13885 0.065864 -0.090658 -0.10946 -0.088464 -0.45471 -0.18315 -0.24772 -0.283 
alii -0.1553 0.13576 -0.015609 -0.015297 -0.0031471 -0.12663 -0.10217 -0.060672 -0.10774 0.089747 0.1804 -0.25637 0.16757 0.065283 -0.11456 0.032099 0.29289 0.17427 0.14732 -0.25992 0.069037 0.01282 0.090204 0.11937 -0.091778 0.065682 0.037752 0.10034 -0.14615 0.12514 -0.14533 -0.0021835 0.076292 -0.083592 0.048772 -0.13409 0.006206 0.067362 0.098146 0.15495 0.10064 -0.11953 0.32014 -0.20534 0.11663 0.035621 -0.057688 -0.037977 -0.16246 0.20737 -0.13326 -0.047979 -0.27775 0.070185 -0.15481 -0.019171 0.099763 0.10244 0.23563 -0.036489 0.12847 0.12372 0.44087 0.0049214 -0.18482 0.014203 -0.12577 0.10569 -0.13032 -0.12848 -0.23659 -0.025146 0.13413 0.0020455 0.14779 0.23937 0.085836 -0.06882 0.1837 -0.16466 0.022697 -0.034266 0.31411 0.0014953 -0.11335 0.25161 -0.11945 0.090303 -0.14323 -0.31412 0.18678 0.13338 0.060336 -0.09332 -0.11055 -0.088787 -0.45984 -0.18651 -0.24854 -0.27976 
his -0.15993 0.13256 -0.013632 -0.018392 -0.0061473 -0.12894 -0.097998 -0.059841 -0.10849 0.093335 0.18429 -0.25185 0.16 0.067837 -0.11105 0.034909 0.28501 0.17217 0.14653 -0.2592 0.06357 0.015837 0.088927 0.11691 -0.087748 0.061439 0.040051 0.1078 -0.13834 0.1192 -0.14733 0.0016795 0.075094 -0.081304 0.050865 -0.13592 0.0055299 0.06631 0.10001 0.15314 0.10222 -0.11642 0.31235 -0.20957 0.11887 0.031446 -0.059083 -0.035059 -0.16492 0.20799 -0.13377 -0.045906 -0.27855 0.067048 -0.15754 -0.021073 0.10064 0.10078 0.24062 -0.037538 0.12888 0.12114 0.44266 0.0030373 -0.19019 0.020371 -0.12468 0.10743 -0.13135 -0.13146 -0.23841 -0.023939 0.13905 -8.1419e-05 0.14489 0.23981 0.082752 -0.070867 0.18228 -0.16024 0.026965 -0.035165 0.31544 -0.00039345 -0.11214 0.25528 -0.11344 0.089134 -0.14488 -0.31232 0.18999 0.13317 0.060522 -0.092636 -0.11269 -0.091096 -0.45874 -0.1786 -0.25077 -0.27938 
menses -0.15261 0.13164 -0.01465 -0.014445 -0.0047501 -0.12454 -0.099521 -0.064451 -0.10779 0.093227 0.1755 -0.24932 0.1642 0.069849 -0.11382 0.036356 0.29148 0.17112 0.14801 -0.26023 0.068665 0.012784 0.089981 0.11934 -0.089396 0.066945 0.038899 0.10657 -0.14628 0.11901 -0.14434 -0.00035726 0.077067 -0.080736 0.053241 -0.13719 0.0048275 0.069485 0.098069 0.15168 0.10044 -0.12194 0.3181 -0.20401 0.11584 0.036714 -0.057728 -0.036452 -0.16501 0.20251 -0.13399 -0.048146 -0.27205 0.068181 -0.15966 -0.020544 0.097343 0.10102 0.23586 -0.037764 0.12614 0.12764 0.43765 0.0034932 -0.18359 0.018052 -0.12642 0.10337 -0.12809 -0.13002 -0.23673 -0.024781 0.13823 0.0010645 0.14763 0.23805 0.086759 -0.070588 0.18481 -0.16339 0.026812 -0.032055 0.31022 -0.0016701 -0.11148 0.25407 -0.11865 0.088066 -0.14257 -0.31411 0.18776 0.13086 0.065076 -0.095081 -0.11134 -0.091814 -0.45892 -0.18519 -0.25205 -0.28047 
eo -0.17139 0.14646 -0.014883 -0.020731 -0.01137 -0.13968 -0.10589 -0.066061 -0.11286 0.098839 0.19426 -0.27737 0.17725 0.072054 -0.12134 0.037897 0.32128 0.19122 0.16087 -0.28724 0.07402 0.015568 0.094565 0.13244 -0.097457 0.067664 0.04709 0.1152 -0.15865 0.1331 -0.16295 0.0046179 0.078755 -0.091297 0.052468 -0.15273 0.0088342 0.077409 0.10642 0.16961 0.11178 -0.12987 0.35029 -0.22543 0.12255 0.045481 -0.059291 -0.039108 -0.18407 0.22222 -0.14699 -0.056855 -0.30397 0.070555 -0.16907 -0.029129 0.11348 0.11168 0.26858 -0.040407 0.14232 0.13844 0.48483 0.0085992 -0.20458 0.018071 -0.13699 0.11986 -0.13383 -0.1423 -0.26043 -0.023062 0.15205 0.0021292 0.16209 0.26609 0.095632 -0.074811 0.2037 -0.18256 0.03022 -0.03348 0.34218 0.0027757 -0.12175 0.27513 -0.12647 0.096002 -0.15736 -0.34071 0.20814 0.15102 0.072273 -0.10427 -0.1241 -0.095875 -0.50176 -0.19826 -0.27474 -0.30474 
quem -0.16078 0.13774 -0.014125 -0.015286 -0.0042484 -0.13241 -0.097946 -0.061758 -0.11178 0.09866 0.18855 -0.26385 0.17001 0.066245 -0.11973 0.034298 0.30021 0.17616 0.15068 -0.26704 0.070923 0.015832 0.087588 0.12224 -0.092375 0.065861 0.042669 0.10467 -0.14933 0.12906 -0.15308 0.0031141 0.082311 -0.087324 0.054248 -0.14169 0.0082009 0.071217 0.098326 0.15977 0.10793 -0.12508 0.32708 -0.21136 0.11692 0.038533 -0.060434 -0.039284 -0.16732 0.21503 -0.13407 -0.050511 -0.28669 0.072793 -0.16474 -0.020421 0.10427 0.10105 0.25117 -0.040665 0.13493 0.1294 0.45333 0.0040782 -0.19456 0.018095 -0.13424 0.10621 -0.13395 -0.13588 -0.24607 -0.026422 0.14391 -0.0025031 0.15659 0.24692 0.088 -0.073339 0.18573 -0.16492 0.027216 -0.035023 0.32664 -0.00021827 -0.11523 0.25874 -0.11968 0.095963 -0.14802 -0.32616 0.19431 0.13864 0.066012 -0.095802 -0.11474 -0.092775 -0.47525 -0.18758 -0.25956 -0.29344 
annorum -0.14371 0.11939 -0.011892 -0.014779 -0.0044344 -0.11859 -0.089053 -0.054502 -0.10081 0.086673 0.16179 -0.23171 0.14743 0.063114 -0.1042 0.030661 0.26217 0.15694 0.13557 -0.23527 0.061736 0.013107 0.08043 0.10839 -0.077184 0.059545 0.037789 0.092885 -0.13182 0.10887 -0.13411 0.0013209 0.067761 -0.077359 0.044655 -0.12478 0.0027809 0.060957 0.087213 0.139 0.094005 -0.11148 0.28818 -0.18705 0.10372 0.033237 -0.052752 -0.031932 -0.14948 0.18639 -0.11808 -0.04424 -0.25053 0.06395 -0.14254 -0.018805 0.091871 0.093539 0.21587 -0.032683 0.11412 0.11417 0.40029 0.004056 -0.17026 0.015955 -0.11392 0.09589 -0.11636 -0.11838 -0.21642 -0.022206 0.12562 0.0015074 0.13628 0.21717 0.079117 -0.064895 0.16751 -0.14761 0.023117 -0.02801 0.28613 -0.0022668 -0.10332 0.23098 -0.1076 0.083219 -0.13126 -0.28712 0.17038 0.12314 0.058436 -0.085211 -0.10134 -0.082875 -0.41473 -0.1669 -0.22681 -0.25639 
dierum -0.15759 0.1345 -0.017439 -0.016574 -0.00634 -0.12627 -0.096169 -0.063103 -0.11269 0.097429 0.18049 -0.25746 0.16535 0.068116 -0.11717 0.032614 0.29353 0.17511 0.1494 -0.26008 0.066481 0.012913 0.089322 0.11949 -0.089237 0.067392 0.038372 0.10529 -0.14965 0.12513 -0.14528 0.0028728 0.077517 -0.084535 0.0483 -0.13619 0.0094737 0.071428 0.098925 0.15379 0.1056 -0.12219 0.3205 -0.20887 0.11898 0.037592 -0.060123 -0.036184 -0.16566 0.20592 -0.13321 -0.049042 -0.28252 0.069902 -0.1641 -0.022454 0.10126 0.10297 0.24019 -0.037966 0.12735 0.12555 0.44639 0.0061913 -0.19057 0.019265 -0.12993 0.10539 -0.1291 -0.13156 -0.23875 -0.025071 0.14 -3.3553e-05 0.15214 0.2396 0.087294 -0.070667 0.18409 -0.16294 0.026196 -0.033335 0.31746 -0.0023953 -0.11658 0.25882 -0.12022 0.092159 -0.14656 -0.31835 0.19013 0.13855 0.066485 -0.096443 -0.11206 -0.087458 -0.46299 -0.18294 -0.25326 -0.28547 
tempus -0.14931 0.12401 -0.014656 -0.014207 -0.0025581 -0.11929 -0.092639 -0.059008 -0.10008 0.090991 0.16971 -0.24107 0.1524 0.065962 -0.10605 0.033486 0.27242 0.16267 0.14114 -0.2446 0.067529 0.013122 0.084898 0.11312 -0.083145 0.0611 0.041171 0.096477 -0.13704 0.11699 -0.13641 0.0016017 0.073888 -0.079265 0.047946 -0.12746 0.0048427 0.062218 0.090034 0.14334 0.099348 -0.11293 0.30066 -0.19609 0.11092 0.036837 -0.054396 -0.034408 -0.15343 0.19481 -0.12516 -0.04539 -0.26442 0.063783 -0.15097 -0.018452 0.096684 0.094766 0.22883 -0.036452 0.11803 0.11639 0.41504 0.0054852 -0.17803 0.015223 -0.11981 0.098163 -0.12294 -0.1235 -0.22621 -0.025209 0.13054 0.00031092 0.14009 0.22691 0.082306 -0.066958 0.17618 -0.15547 0.023454 -0.032775 0.298 -0.0029546 -0.10545 0.23996 -0.11048 0.084111 -0.1357 -0.29924 0.177 0.1261 0.058755 -0.090375 -0.10402 -0.085629 -0.43339 -0.17619 -0.23726 -0.26868 
diem -0.15095 0.12976 -0.017269 -0.016622 -0.0068874 -0.11959 -0.096418 -0.056956 -0.10611 0.092055 0.17718 -0.24582 0.15753 0.063973 -0.11522 0.035357 0.28303 0.1674 0.14356 -0.2515 0.067063 0.014765 0.08668 0.11803 -0.080918 0.065691 0.03461 0.097831 -0.14191 0.12025 -0.13816 0.0016811 0.075641 -0.07806 0.047224 -0.13042 0.0053365 0.068222 0.095226 0.15093 0.102 -0.11627 0.31074 -0.20207 0.11547 0.036852 -0.058239 -0.035225 -0.16056 0.19843 -0.12947 -0.047986 -0.27245 0.068221 -0.15354 -0.017338 0.098117 0.099209 0.23079 -0.040634 0.11949 0.12045 0.42996 0.0057917 -0.18176 0.018233 -0.12882 0.10234 -0.12309 -0.12451 -0.23484 -0.025465 0.13373 -0.0023466 0.14368 0.22992 0.086263 -0.070041 0.17724 -0.15718 0.023659 -0.032002 0.30399 -0.002057 -0.10745 0.2473 -0.11346 0.087719 -0.14081 -0.30844 0.1824 0.1329 0.06346 -0.09278 -0.10505 -0.085983 -0.44669 -0.1793 -0.2447 -0.27308 
anni -0.14447 0.12345 -0.0091684 -0.016399 -0.0063339 -0.12046 -0.092318 -0.060636 -0.10006 0.084602 0.16389 -0.23707 0.15081 0.063776 -0.10754 0.030647 0.26689 0.16046 0.13878 -0.24208 0.063488 0.011189 0.082171 0.10655 -0.078797 0.062819 0.03579 0.09697 -0.13417 0.11291 -0.1399 0.0037958 0.071328 -0.074773 0.045359 -0.1281 0.001532 0.063934 0.090316 0.14318 0.095797 -0.11053 0.29563 -0.19072 0.10709 0.032009 -0.052893 -0.032759 -0.14815 0.19306 -0.12118 -0.042664 -0.25612 0.066809 -0.14426 -0.017473 0.090029 0.094497 0.22275 -0.033792 0.11419 0.11628 0.40704 0.0029625 -0.17326 0.014571 -0.11772 0.097338 -0.11877 -0.1219 -0.21628 -0.027656 0.12695 0.0051607 0.13784 0.22346 0.081459 -0.067323 0.17263 -0.14975 0.020983 -0.032676 0.29465 -0.0015844 -0.10545 0.23535 -0.10966 0.081809 -0.13619 -0.29346 0.17155 0.12771 0.055117 -0.086904 -0.10163 -0.087265 -0.42597 -0.17163 -0.23119 -0.263 
eius -0.16198 0.13397 -0.016803 -0.018759 -0.0074034 -0.12936 -0.10025 -0.067313 -0.11365 0.09606 0.1867 -0.26554 0.16788 0.067395 -0.11835 0.037381 0.29865 0.17604 0.15375 -0.26914 0.068734 0.015699 0.093304 0.12153 -0.087301 0.067954 0.03845 0.1067 -0.15118 0.12468 -0.14785 0.002458 0.080188 -0.084404 0.055314 -0.13755 0.0070845 0.069755 0.10267 0.15647 0.10634 -0.12043 0.32589 -0.21058 0.12128 0.039384 -0.058146 -0.036001 -0.16467 0.21746 -0.13732 -0.049122 -0.28433 0.068261 -0.16374 -0.018312 0.10519 0.10204 0.2467 -0.034172 0.12776 0.1266 0.45415 0.0068401 -0.19336 0.013538 -0.13015 0.10949 -0.13148 -0.13573 -0.24866 -0.025827 0.1448 0.0019531 0.15442 0.25109 0.092271 -0.073764 0.19122 -0.16801 0.026793 -0.037582 0.32212 -0.0001615 -0.11447 0.25875 -0.11885 0.094296 -0.14995 -0.32375 0.19268 0.14104 0.065614 -0.099342 -0.11168 -0.094954 -0.47442 -0.18993 -0.25946 -0.29148 
centum -0.15687 0.13454 -0.01261 -0.015423 -0.0019125 -0.13131 -0.098574 -0.062902 -0.11031 0.093819 0.17826 -0.2536 0.16265 0.070739 -0.11645 0.033597 0.29343 0.17274 0.14988 -0.26149 0.068432 0.016098 0.087124 0.11927 -0.087598 0.068584 0.040561 0.10252 -0.14737 0.12518 -0.14935 -0.00061826 0.077707 -0.083403 0.05054 -0.1391 0.0038738 0.070271 0.097507 0.15235 0.10521 -0.12089 0.32187 -0.208 0.11627 0.037998 -0.060656 -0.036595 -0.16515 0.20627 -0.13384 -0.048322 -0.28003 0.069836 -0.15748 -0.021836 0.099875 0.099696 0.24051 -0.03778 0.12422 0.12269 0.44302 0.0069178 -0.19014 0.015553 -0.12756 0.10457 -0.12878 -0.12944 -0.2393 -0.025454 0.13903 0.0024151 0.1501 0.24094 0.087612 -0.071053 0.1881 -0.16306 0.023882 -0.032757 0.3144 -0.00077417 -0.11532 0.25466 -0.12029 0.091712 -0.14678 -0.3136 0.18946 0.13718 0.067225 -0.096062 -0.11021 -0.091811 -0.46252 -0.18314 -0.25396 -0.28445 
ante -0.15892 0.13402 -0.015955 -0.015845 0.00094941 -0.12794 -0.097433 -0.060796 -0.1091 0.092741 0.1814 -0.25526 0.16237 0.065261 -0.11452 0.035772 0.28799 0.17062 0.15302 -0.25827 0.067142 0.016125 0.086917 0.11983 -0.089629 0.067555 0.041145 0.10274 -0.14572 0.12526 -0.14784 0.0048217 0.076717 -0.085217 0.051923 -0.13469 0.0037419 0.072776 0.096766 0.15516 0.10203 -0.11825 0.31932 -0.20502 0.11281 0.035579 -0.060513 -0.037499 -0.1626 0.20582 -0.13228 -0.045696 -0.27613 0.069468 -0.15613 -0.023703 0.099463 0.099979 0.23756 -0.036164 0.12341 0.12242 0.43617 0.00056758 -0.18668 0.015566 -0.12907 0.10701 -0.12721 -0.12653 -0.24066 -0.025881 0.14078 0.0034406 0.14818 0.23807 0.088504 -0.07108 0.18483 -0.16177 0.023474 -0.031729 0.31527 -0.0010056 -0.11227 0.25237 -0.11785 0.090082 -0.14925 -0.31403 0.18342 0.13404 0.062234 -0.096857 -0.11018 -0.088524 -0.45887 -0.17966 -0.24918 -0.28053 
sit -0.17553 0.14965 -0.016679 -0.019685 -0.0073416 -0.14868 -0.1125 -0.07163 -0.12566 0.10825 0.19825 -0.28589 0.18061 0.078356 -0.13424 0.037968 0.32047 0.19148 0.16779 -0.29185 0.075923 0.01426 0.098448 0.1322 -0.10162 0.075687 0.043528 0.11682 -0.16599 0.13882 -0.1626 -0.0024085 0.085548 -0.093119 0.055048 -0.15207 0.0089082 0.077347 0.10357 0.17283 0.11742 -0.12983 0.35592 -0.22951 0.12923 0.040773 -0.066493 -0.040043 -0.18195 0.23281 -0.14799 -0.052573 -0.31004 0.079705 -0.18011 -0.023453 0.11237 0.11288 0.26659 -0.03788 0.14063 0.13789 0.49017 0.0061214 -0.20986 0.019559 -0.14502 0.12426 -0.14216 -0.14215 -0.2713 -0.030925 0.15417 0.0018636 0.16582 0.26657 0.098397 -0.078174 0.20465 -0.18578 0.021791 -0.036805 0.35109 -0.0029157 -0.12749 0.27937 -0.13315 0.10186 -0.16253 -0.35038 0.20947 0.15312 0.071487 -0.10606 -0.1259 -0.10337 -0.5181 -0.2026 -0.28032 -0.31643 
modo -0.13346 0.1175 -0.011849 -0.015587 -0.0037907 -0.11042 -0.082287 -0.0534 -0.091369 0.079527 0.15383 -0.21935 0.14308 0.058867 -0.10089 0.030876 0.24935 0.15155 0.12972 -0.22402 0.057745 0.010463 0.077349 0.10163 -0.078113 0.055209 0.039123 0.086697 -0.12796 0.10624 -0.12612 0.0015172 0.069174 -0.069669 0.042169 -0.11993 0.00091808 0.060469 0.080998 0.13225 0.091053 -0.1056 0.27557 -0.17799 0.10118 0.03108 -0.048366 -0.03111 -0.14021 0.17962 -0.11509 -0.043119 -0.24121 0.062261 -0.13987 -0.018608 0.088907 0.087287 0.20805 -0.030008 0.10743 0.10711 0.38058 0.0078416 -0.16107 0.015636 -0.10855 0.090482 -0.11484 -0.11176 -0.21112 -0.021472 0.11914 -0.0013977 0.13073 0.20514 0.080458 -0.059552 0.1572 -0.14105 0.022726 -0.029861 0.27355 -0.0020152 -0.097461 0.22064 -0.10184 0.078191 -0.12302 -0.27549 0.16582 0.11509 0.056021 -0.080076 -0.098954 -0.076982 -0.39993 -0.16205 -0.21871 -0.24722 
annis -0.16281 0.13749 -0.015666 -0.018371 -0.0080781 -0.13069 -0.10375 -0.066553 -0.11073 0.096379 0.18469 -0.26247 0.17044 0.071302 -0.11884 0.035848 0.29994 0.17606 0.15644 -0.26979 0.071861 0.01335 0.089814 0.1211 -0.090681 0.069479 0.04069 0.10973 -0.14924 0.12557 -0.15288 0.0018259 0.07806 -0.085548 0.053465 -0.14253 0.0035357 0.069925 0.10138 0.15874 0.10596 -0.12358 0.32804 -0.21146 0.11968 0.034511 -0.059789 -0.036804 -0.16813 0.21833 -0.13648 -0.049276 -0.28732 0.072435 -0.16144 -0.020008 0.10162 0.10545 0.24992 -0.037095 0.12849 0.1279 0.45704 0.0033213 -0.19242 0.017101 -0.13197 0.11053 -0.13468 -0.13512 -0.24467 -0.02673 0.13973 0.0011698 0.15347 0.24852 0.089743 -0.070812 0.19137 -0.16913 0.024725 -0.034559 0.32838 -0.0025682 -0.12052 0.26398 -0.12068 0.093433 -0.1526 -0.32437 0.19263 0.14352 0.062998 -0.096896 -0.1116 -0.094895 -0.47564 -0.19196 -0.25833 -0.29481 
mense -0.15836 0.13589 -0.014758 -0.014129 -0.0047343 -0.12839 -0.10215 -0.066674 -0.11331 0.093771 0.18251 -0.25585 0.16723 0.071546 -0.11539 0.039678 0.29867 0.17381 0.15144 -0.26685 0.070365 0.013312 0.093011 0.12135 -0.091153 0.065958 0.039263 0.10736 -0.14886 0.12385 -0.15017 -0.00059604 0.079719 -0.081758 0.05401 -0.13842 0.0052349 0.071016 0.1005 0.1556 0.10509 -0.12577 0.32531 -0.21 0.11755 0.039161 -0.057207 -0.04037 -0.16857 0.20816 -0.13747 -0.049244 -0.27688 0.069615 -0.16306 -0.021499 0.099111 0.10498 0.24395 -0.038035 0.12896 0.13125 0.44895 0.0032248 -0.19002 0.018182 -0.13138 0.10589 -0.13216 -0.13172 -0.24197 -0.023707 0.14231 0.0022155 0.15377 0.24617 0.090525 -0.070929 0.19123 -0.16718 0.027473 -0.033431 0.32037 -0.0013668 -0.11588 0.26121 -0.12107 0.091195 -0.14569 -0.32218 0.19295 0.13715 0.066416 -0.097416 -0.11557 -0.09377 -0.47183 -0.19134 -0.25996 -0.28861 
fieri -0.16114 0.13386 -0.018156 -0.013053 -0.0044569 -0.12866 -0.097625 -0.062709 -0.10839 0.09349 0.17923 -0.26051 0.16658 0.070411 -0.11277 0.038045 0.29207 0.17476 0.15306 -0.26235 0.070037 0.01207 0.08852 0.12034 -0.090669 0.063646 0.042187 0.1064 -0.14898 0.12277 -0.14819 0.0010109 0.076297 -0.084875 0.052049 -0.14002 0.0059298 0.069565 0.098054 0.155 0.10286 -0.12468 0.31944 -0.20714 0.1199 0.040958 -0.058202 -0.036634 -0.16639 0.21157 -0.13538 -0.04621 -0.28281 0.067469 -0.16211 -0.022011 0.10119 0.10207 0.24032 -0.040389 0.12751 0.12754 0.44755 0.0067814 -0.19167 0.013698 -0.12994 0.10614 -0.13123 -0.13046 -0.24262 -0.026892 0.1398 0.0028048 0.15053 0.24192 0.088694 -0.068738 0.18733 -0.16493 0.028689 -0.032548 0.3168 -0.0045828 -0.11726 0.2574 -0.11913 0.091806 -0.14476 -0.3169 0.18921 0.13397 0.064411 -0.097206 -0.10902 -0.09055 -0.46641 -0.19025 -0.25567 -0.28883 
nunc -0.14312 0.12575 -0.012877 -0.014624 -0.0055322 -0.11663 -0.088413 -0.060978 -0.10577 0.086841 0.16714 -0.23926 0.15158 0.062439 -0.10486 0.03023 0.26894 0.16197 0.14022 -0.24586 0.065826 0.016888 0.081618 0.11233 -0.08419 0.060139 0.036669 0.093956 -0.13629 0.11564 -0.13374 0.0033835 0.073357 -0.075145 0.04843 -0.12859 0.0054646 0.064823 0.090858 0.14308 0.096402 -0.11462 0.2963 -0.18941 0.11246 0.034461 -0.059812 -0.035187 -0.15245 0.19193 -0.12546 -0.041435 -0.25683 0.065791 -0.14924 -0.020551 0.092573 0.09432 0.22437 -0.033778 0.11704 0.11405 0.40988 0.0053628 -0.17565 0.017591 -0.11814 0.099451 -0.12033 -0.12081 -0.22239 -0.024346 0.1278 0.0023372 0.13811 0.22622 0.086333 -0.064385 0.17328 -0.1556 0.024701 -0.029105 0.29219 -0.0041533 -0.10644 0.2344 -0.10882 0.087014 -0.13353 -0.29318 0.17499 0.12292 0.060455 -0.090641 -0.10052 -0.085867 -0.43317 -0.17259 -0.23409 -0.26076 
Nam -0.13959 0.12031 -0.014948 -0.012176 -0.0069721 -0.11324 -0.090128 -0.053116 -0.096137 0.086212 0.16364 -0.2316 0.1488 0.061641 -0.10521 0.028468 0.26353 0.15453 0.13591 -0.2364 0.064772 0.01196 0.081462 0.10813 -0.07976 0.059572 0.036175 0.095708 -0.13227 0.11264 -0.13072 -0.0014306 0.067285 -0.075385 0.044879 -0.12449 0.0037889 0.057443 0.08777 0.13572 0.096795 -0.1109 0.29072 -0.18307 0.10573 0.037459 -0.04911 -0.030316 -0.14463 0.18853 -0.12103 -0.044228 -0.25352 0.063652 -0.14113 -0.020657 0.094343 0.091232 0.21802 -0.034545 0.11545 0.11483 0.39867 0.002582 -0.17444 0.017004 -0.11585 0.097501 -0.11519 -0.11727 -0.21683 -0.024577 0.12343 0.0033339 0.1319 0.21316 0.079446 -0.063401 0.16963 -0.1454 0.018457 -0.030307 0.28303 0.0013092 -0.10072 0.23156 -0.10268 0.082272 -0.12771 -0.29003 0.16894 0.12214 0.051512 -0.086295 -0.09552 -0.084607 -0.41209 -0.16517 -0.22723 -0.25913 
Itaque -0.14312 0.12466 -0.014536 -0.015322 -0.0014682 -0.12125 -0.09025 -0.058194 -0.10033 0.086799 0.16607 -0.23816 0.1508 0.064332 -0.10686 0.032235 0.2722 0.1594 0.14006 -0.24327 0.067089 0.012928 0.081177 0.11076 -0.084474 0.063472 0.038132 0.096935 -0.13597 0.11379 -0.13845 0.00074843 0.072962 -0.08006 0.04747 -0.12847 0.0049346 0.063681 0.0913 0.1436 0.098924 -0.11393 0.29829 -0.18934 0.10801 0.036458 -0.055718 -0.035158 -0.15167 0.19493 -0.12439 -0.042679 -0.25654 0.064828 -0.14782 -0.019965 0.092466 0.093238 0.22283 -0.034142 0.11841 0.11555 0.41108 0.0043636 -0.17414 0.01297 -0.11847 0.096312 -0.12223 -0.11743 -0.22441 -0.021999 0.13025 0.00039597 0.13924 0.22421 0.081665 -0.065715 0.17215 -0.15216 0.024944 -0.031759 0.29404 -0.0037688 -0.10674 0.23566 -0.11105 0.087259 -0.13414 -0.2947 0.17696 0.125 0.060002 -0.089718 -0.10389 -0.084947 -0.43032 -0.17134 -0.23535 -0.26648 
sex -0.15918 0.13297 -0.020082 -0.014795 -0.003822 -0.12682 -0.10012 -0.064003 -0.11157 0.097539 0.17711 -0.2567 0.16695 0.066346 -0.11371 0.036116 0.28583 0.16823 0.1489 -0.26061 0.068239 0.019801 0.087144 0.11875 -0.086671 0.066563 0.040788 0.10313 -0.14766 0.12134 -0.14586 0.0004756 0.072625 -0.086351 0.049289 -0.13639 0.0076729 0.071145 0.094704 0.15495 0.10464 -0.12374 0.32237 -0.20688 0.11324 0.039764 -0.058935 -0.037868 -0.16235 0.20325 -0.12722 -0.049566 -0.27674 0.076566 -0.15651 -0.018857 0.10339 0.10239 0.23911 -0.040075 0.12594 0.12578 0.44268 0.0073169 -0.19419 0.016899 -0.12244 0.11041 -0.12794 -0.13289 -0.23774 -0.025197 0.14357 0.0035626 0.14762 0.24374 0.089106 -0.069472 0.18753 -0.16231 0.027874 -0.03106 0.31402 -0.0011971 -0.11361 0.25639 -0.11882 0.090906 -0.14432 -0.31766 0.1881 0.13881 0.066978 -0.097645 -0.10925 -0.087465 -0.45762 -0.18326 -0.25405 -0.28302 
iam -0.16388 0.13724 -0.016383 -0.012936 -0.0078212 -0.1356 -0.10404 -0.065656 -0.11926 0.098205 0.19031 -0.27565 0.17232 0.0764 -0.1206 0.0387 0.31296 0.18332 0.15996 -0.27828 0.074565 0.016329 0.091415 0.13047 -0.096435 0.070098 0.044453 0.11206 -0.15528 0.13051 -0.15376 0.0019146 0.079852 -0.088587 0.054679 -0.14755 0.0048231 0.070725 0.10279 0.16572 0.11055 -0.12875 0.34139 -0.21787 0.12513 0.037252 -0.05874 -0.038297 -0.17601 0.22647 -0.14507 -0.054299 -0.30208 0.071779 -0.16754 -0.024674 0.103 0.10793 0.2539 -0.039593 0.1353 0.13274 0.46855 0.0040902 -0.19985 0.018641 -0.13682 0.11265 -0.13731 -0.13712 -0.25184 -0.028407 0.14835 0.0039679 0.15656 0.25732 0.094346 -0.072315 0.19645 -0.1721 0.023778 -0.031819 0.33277 -0.0019942 -0.12361 0.26939 -0.12516 0.10082 -0.15378 -0.33793 0.20179 0.14251 0.067089 -0.10344 -0.1176 -0.10062 -0.49132 -0.19632 -0.26306 -0.30034 
solis -0.16432 0.14091 -0.015982 -0.016849 -0.0040668 -0.1353 -0.10363 -0.06572 -0.11791 0.10035 0.18792 -0.26833 0.16947 0.069967 -0.1243 0.038195 0.30555 0.18381 0.15814 -0.27812 0.07393 0.015306 0.09493 0.12432 -0.09462 0.073224 0.042799 0.10997 -0.15299 0.1285 -0.15392 0.0029591 0.081231 -0.091594 0.053636 -0.14716 0.0049448 0.070779 0.10454 0.15924 0.10827 -0.12678 0.33605 -0.21922 0.12122 0.038768 -0.059389 -0.04006 -0.17224 0.21773 -0.14116 -0.050705 -0.29553 0.071108 -0.16521 -0.022096 0.10793 0.10855 0.256 -0.042257 0.13729 0.13171 0.4666 0.0041449 -0.19839 0.019482 -0.13337 0.11409 -0.13808 -0.13903 -0.25357 -0.028063 0.14461 0.0037299 0.15447 0.25299 0.091892 -0.073533 0.19782 -0.16988 0.0294 -0.033735 0.33316 0.00048247 -0.11675 0.26915 -0.12679 0.092716 -0.15334 -0.33562 0.19883 0.14133 0.065512 -0.10028 -0.11701 -0.098634 -0.48398 -0.1931 -0.26411 -0.30364 
dia -0.19604 0.17024 -0.019145 -0.018126 -0.006297 -0.1572 -0.11731 -0.080242 -0.13499 0.11721 0.22022 -0.31531 0.20081 0.08922 -0.14378 0.040997 0.35539 0.21604 0.18577 -0.32019 0.084351 0.017639 0.10897 0.15052 -0.10535 0.082027 0.049497 0.13266 -0.18595 0.1497 -0.18205 0.0048412 0.095519 -0.1023 0.059558 -0.16533 0.0088911 0.092495 0.11781 0.19413 0.13168 -0.15038 0.39396 -0.25279 0.14315 0.047977 -0.073501 -0.043714 -0.20099 0.25849 -0.16676 -0.060746 -0.34718 0.087268 -0.19486 -0.019364 0.12595 0.12001 0.29824 -0.050626 0.15791 0.14965 0.54465 0.0080268 -0.23156 0.021448 -0.15711 0.12775 -0.15832 -0.15377 -0.29764 -0.027931 0.17586 0.00015798 0.18165 0.29644 0.10974 -0.08203 0.23251 -0.20319 0.035833 -0.040339 0.38922 -0.0040471 -0.1394 0.31385 -0.14693 0.11235 -0.18425 -0.38941 0.23664 0.16518 0.0784 -0.12006 -0.13485 -0.1102 -0.5656 -0.22664 -0.31164 -0.35072 
quos -0.146 0.12546 -0.013549 -0.015026 -0.0048915 -0.12227 -0.09233 -0.05499 -0.10236 0.088444 0.16775 -0.24288 0.15561 0.063766 -0.11018 0.033951 0.27675 0.16408 0.14509 -0.24801 0.06914 0.014647 0.081039 0.11273 -0.083155 0.060383 0.038954 0.095555 -0.13566 0.11451 -0.14011 0.0023902 0.075211 -0.076175 0.046875 -0.1311 0.001673 0.064434 0.090863 0.14667 0.099103 -0.11829 0.3012 -0.19408 0.11045 0.036707 -0.050042 -0.034763 -0.15395 0.19617 -0.12448 -0.044522 -0.26106 0.065267 -0.15453 -0.017037 0.094348 0.097351 0.22794 -0.034646 0.1225 0.1193 0.41516 0.0066181 -0.17666 0.018592 -0.12232 0.10368 -0.12335 -0.12278 -0.22712 -0.022119 0.13207 0.0017974 0.14147 0.22565 0.081785 -0.069923 0.1751 -0.15343 0.024928 -0.030518 0.30207 -0.0010036 -0.1089 0.23788 -0.11346 0.087474 -0.1348 -0.30032 0.1791 0.12895 0.05867 -0.093354 -0.1043 -0.082864 -0.43439 -0.17415 -0.23963 -0.27181 
ac -0.14902 0.12782 -0.018105 -0.014754 -0.010556 -0.12558 -0.093521 -0.058688 -0.10894 0.086938 0.17514 -0.2484 0.15866 0.067476 -0.10855 0.031987 0.27968 0.16726 0.14648 -0.25652 0.072156 0.016745 0.081651 0.11315 -0.085039 0.070362 0.041882 0.10546 -0.13826 0.11888 -0.13652 0.00088005 0.0763 -0.074762 0.051405 -0.13031 0.0032259 0.067845 0.094969 0.1474 0.099444 -0.11547 0.30294 -0.19819 0.1088 0.037279 -0.055725 -0.034699 -0.15561 0.20296 -0.12791 -0.041095 -0.26963 0.068098 -0.15115 -0.020695 0.091495 0.094725 0.23249 -0.038225 0.12325 0.12054 0.42796 -0.00024934 -0.18732 0.020416 -0.12425 0.1062 -0.12348 -0.12296 -0.22876 -0.028936 0.13046 0.00072488 0.13674 0.23052 0.080888 -0.065288 0.17515 -0.16313 0.020428 -0.02876 0.30169 -0.0033699 -0.10752 0.24553 -0.11557 0.084662 -0.13593 -0.30643 0.17584 0.12461 0.059138 -0.093527 -0.10467 -0.085847 -0.44032 -0.17509 -0.24578 -0.26776 
fuit -0.14507 0.12537 -0.012995 -0.017186 -0.0050513 -0.11831 -0.0915 -0.057379 -0.10257 0.089544 0.16644 -0.239 0.14804 0.064716 -0.10523 0.033468 0.26966 0.16032 0.13874 -0.24528 0.066787 0.01248 0.083856 0.11176 -0.080098 0.059152 0.033379 0.093604 -0.13744 0.11229 -0.13421 -0.00013421 0.070966 -0.076781 0.043978 -0.1255 0.0031513 0.065705 0.093657 0.14053 0.097298 -0.11123 0.29723 -0.18871 0.10969 0.035402 -0.055838 -0.034267 -0.15291 0.19222 -0.12203 -0.041288 -0.25951 0.066477 -0.14876 -0.019567 0.09269 0.093276 0.22066 -0.032498 0.11827 0.11585 0.40873 0.0063148 -0.17441 0.013156 -0.11855 0.10164 -0.11915 -0.11982 -0.22374 -0.026555 0.12877 0.0032223 0.13597 0.22063 0.083581 -0.063679 0.17026 -0.1486 0.021384 -0.034076 0.29262 -0.003042 -0.10593 0.23767 -0.10873 0.083594 -0.13111 -0.29502 0.17298 0.12045 0.061202 -0.085712 -0.10386 -0.085652 -0.43147 -0.16894 -0.23444 -0.2662 
homines -0.15482 0.1261 -0.013741 -0.01598 -0.0044562 -0.12256 -0.095703 -0.060656 -0.1066 0.091752 0.17078 -0.24833 0.15809 0.066819 -0.1111 0.035352 0.27993 0.16283 0.14752 -0.25256 0.066677 0.014022 0.084771 0.11348 -0.086158 0.064032 0.036706 0.098249 -0.14105 0.11953 -0.14245 0.0010683 0.075542 -0.080716 0.048534 -0.13313 0.0062618 0.064553 0.092077 0.14752 0.099759 -0.11733 0.30827 -0.20048 0.1144 0.035208 -0.056732 -0.035167 -0.15693 0.20174 -0.12814 -0.04793 -0.26955 0.068483 -0.15182 -0.01864 0.095387 0.097745 0.23397 -0.037595 0.12211 0.11868 0.42652 0.004095 -0.18249 0.015646 -0.12107 0.10301 -0.1262 -0.12458 -0.23283 -0.023039 0.13273 0.0011307 0.14182 0.23186 0.083103 -0.065824 0.17753 -0.15968 0.02678 -0.031352 0.30167 0.00066166 -0.10769 0.24558 -0.11298 0.088456 -0.13635 -0.3044 0.1839 0.13028 0.059747 -0.094368 -0.10807 -0.090148 -0.44542 -0.17732 -0.24414 -0.27759 
annus -0.15084 0.12714 -0.014009 -0.013404 -0.0043901 -0.12386 -0.095871 -0.060591 -0.10523 0.090236 0.17197 -0.2479 0.1585 0.066872 -0.11127 0.03305 0.2792 0.16719 0.14698 -0.24926 0.067304 0.012593 0.08499 0.11372 -0.084152 0.061921 0.039263 0.099271 -0.13803 0.11653 -0.14327 0.004685 0.07321 -0.081507 0.047678 -0.13051 0.0037627 0.066675 0.090888 0.14722 0.098927 -0.11581 0.30483 -0.19818 0.10984 0.032623 -0.056341 -0.032373 -0.15547 0.19688 -0.12624 -0.042599 -0.26606 0.066163 -0.15158 -0.018039 0.098321 0.09713 0.2307 -0.034774 0.1216 0.12066 0.42442 0.0036203 -0.18064 0.016193 -0.12075 0.10208 -0.12225 -0.12515 -0.22895 -0.026308 0.13118 -0.00055828 0.14428 0.23215 0.082247 -0.068136 0.17909 -0.15104 0.023281 -0.035405 0.30493 0.00027177 -0.11194 0.24408 -0.11183 0.087453 -0.14132 -0.30596 0.17886 0.13136 0.060508 -0.091604 -0.10568 -0.088691 -0.44233 -0.17684 -0.23948 -0.27207 
quibus -0.14939 0.12866 -0.015937 -0.013472 -0.0029831 -0.12461 -0.09359 -0.059691 -0.10497 0.08949 0.17019 -0.24659 0.16051 0.065368 -0.11135 0.033732 0.27676 0.1657 0.14348 -0.25106 0.068402 0.018091 0.08699 0.11576 -0.085233 0.063153 0.039396 0.098422 -0.13983 0.11773 -0.14377 0.0034926 0.075993 -0.081313 0.048202 -0.13445 0.0030163 0.068006 0.093489 0.14573 0.098293 -0.1169 0.30821 -0.19738 0.10987 0.039657 -0.057183 -0.035499 -0.15913 0.19796 -0.12695 -0.045761 -0.26777 0.064844 -0.15321 -0.021477 0.095994 0.097374 0.23065 -0.037591 0.11997 0.11989 0.42677 0.004912 -0.18139 0.019069 -0.12421 0.10185 -0.12381 -0.12457 -0.22975 -0.022787 0.1344 -0.0012695 0.14582 0.23128 0.082086 -0.066112 0.1768 -0.15519 0.027165 -0.030489 0.30607 0.0019784 -0.10854 0.24395 -0.11311 0.088492 -0.13957 -0.30172 0.18365 0.1308 0.064842 -0.089981 -0.10759 -0.08933 -0.44096 -0.17714 -0.24142 -0.27517 
sic -0.16892 0.13377 -0.020222 -0.01683 -0.0042673 -0.13244 -0.10254 -0.068015 -0.11974 0.096517 0.1858 -0.26952 0.16992 0.070677 -0.12086 0.036983 0.30915 0.18218 0.15949 -0.27442 0.074993 0.013284 0.09047 0.12561 -0.093545 0.071666 0.042717 0.10342 -0.15588 0.13388 -0.15724 0.0021631 0.083935 -0.089033 0.05015 -0.14362 0.0054118 0.07196 0.10412 0.16572 0.11094 -0.12738 0.33507 -0.22035 0.12238 0.037405 -0.062529 -0.042322 -0.16777 0.22099 -0.13852 -0.050868 -0.29173 0.072319 -0.1704 -0.021066 0.10345 0.10513 0.25324 -0.039449 0.13431 0.13327 0.4644 0.0024966 -0.19917 0.024459 -0.13344 0.11552 -0.13354 -0.13488 -0.25415 -0.030162 0.14677 0.0021731 0.15902 0.25045 0.091385 -0.075763 0.19127 -0.16879 0.025588 -0.032951 0.33686 -0.0025175 -0.12092 0.26641 -0.12422 0.093348 -0.15261 -0.3341 0.19834 0.14494 0.062775 -0.097966 -0.11161 -0.098709 -0.48799 -0.1906 -0.2668 -0.29981 
vocatur -0.15802 0.138 -0.014111 -0.014419 -0.004416 -0.12873 -0.099148 -0.06426 -0.11205 0.096053 0.17978 -0.25941 0.16793 0.067144 -0.11683 0.033768 0.29574 0.17481 0.14998 -0.26423 0.069061 0.015982 0.090343 0.12228 -0.089792 0.066667 0.04092 0.10304 -0.1514 0.12373 -0.15151 0.0015782 0.08078 -0.085672 0.052027 -0.13825 0.0044822 0.069829 0.097943 0.15691 0.10397 -0.12246 0.32448 -0.20764 0.12034 0.036707 -0.059155 -0.034954 -0.1646 0.20908 -0.13473 -0.04682 -0.2837 0.06801 -0.16062 -0.019577 0.10121 0.1031 0.24376 -0.039147 0.1285 0.12641 0.44875 0.0051504 -0.19163 0.01402 -0.13162 0.10751 -0.1295 -0.12998 -0.24125 -0.025595 0.14114 0.0016134 0.14891 0.24361 0.089442 -0.070612 0.1872 -0.16659 0.025318 -0.034757 0.32205 -0.0021825 -0.11623 0.25982 -0.12028 0.094152 -0.14939 -0.32034 0.19037 0.1354 0.064585 -0.098224 -0.11113 -0.092888 -0.4684 -0.18846 -0.25471 -0.28974 
primum -0.1776 0.15464 -0.017341 -0.017664 -0.0059973 -0.14456 -0.11428 -0.071768 -0.12726 0.10769 0.20506 -0.29601 0.19124 0.080637 -0.134 0.040731 0.33527 0.19786 0.1744 -0.2985 0.078391 0.017424 0.10276 0.13809 -0.10415 0.076415 0.046368 0.12119 -0.17187 0.14256 -0.16977 0.00059413 0.090545 -0.098936 0.05414 -0.1601 0.0070127 0.080626 0.11113 0.17623 0.11828 -0.14015 0.3677 -0.23609 0.13466 0.042722 -0.067866 -0.040215 -0.1888 0.23843 -0.14948 -0.053179 -0.32211 0.078591 -0.18317 -0.023079 0.11616 0.11496 0.27773 -0.045651 0.14533 0.14342 0.51203 0.006869 -0.2222 0.020095 -0.14576 0.12067 -0.14534 -0.14894 -0.27754 -0.031635 0.16207 0.00041653 0.16977 0.27682 0.10253 -0.084102 0.21758 -0.18525 0.032608 -0.035094 0.3642 -0.00042433 -0.13176 0.29359 -0.13512 0.10821 -0.16844 -0.36303 0.21825 0.15772 0.073356 -0.10889 -0.12914 -0.10536 -0.52939 -0.21306 -0.29315 -0.32704 
partus -0.15766 0.13317 -0.015029 -0.014775 -0.0057446 -0.12842 -0.098013 -0.065215 -0.10857 0.095408 0.17874 -0.2603 0.16159 0.069759 -0.11586 0.037077 0.2927 0.17419 0.15204 -0.26481 0.068425 0.014957 0.091827 0.11975 -0.09047 0.065528 0.041963 0.10409 -0.15384 0.12598 -0.14755 0.0027394 0.076979 -0.082889 0.048856 -0.136 0.0061485 0.0683 0.097063 0.1542 0.10281 -0.12047 0.32259 -0.20789 0.11942 0.037474 -0.056464 -0.036214 -0.16421 0.21006 -0.13351 -0.047591 -0.28028 0.069962 -0.15995 -0.019574 0.10327 0.10334 0.24307 -0.036333 0.12664 0.12727 0.44592 0.0067172 -0.19351 0.017606 -0.1316 0.10575 -0.13205 -0.13009 -0.2446 -0.025777 0.13971 0.0014198 0.15001 0.24381 0.087577 -0.071023 0.1861 -0.16157 0.026321 -0.032842 0.31953 -0.002835 -0.11521 0.25622 -0.12179 0.09244 -0.14782 -0.3215 0.19062 0.1372 0.064135 -0.097873 -0.11018 -0.091339 -0.46645 -0.18843 -0.25371 -0.28666 
minus -0.15931 0.13403 -0.014534 -0.014563 -0.0048045 -0.12929 -0.09946 -0.063573 -0.11184 0.095809 0.18255 -0.26068 0.16628 0.072146 -0.1152 0.035495 0.29606 0.17283 0.15195 -0.26734 0.073337 0.014895 0.08996 0.11898 -0.089546 0.064965 0.040576 0.10194 -0.14759 0.12508 -0.15083 0.002649 0.077876 -0.081315 0.052584 -0.13994 0.0051786 0.069629 0.099137 0.15616 0.10374 -0.12131 0.3232 -0.20693 0.11674 0.039222 -0.058287 -0.035923 -0.16646 0.21217 -0.13715 -0.047902 -0.282 0.070102 -0.16047 -0.021456 0.10133 0.10263 0.244 -0.03519 0.12638 0.12729 0.44831 0.0063856 -0.19071 0.014475 -0.12591 0.10657 -0.12996 -0.13026 -0.24384 -0.025353 0.13905 0.0013885 0.15022 0.24624 0.088391 -0.073826 0.18553 -0.16431 0.02509 -0.033451 0.32067 -0.0027651 -0.11636 0.25838 -0.11746 0.0907 -0.14439 -0.32143 0.19143 0.13877 0.064283 -0.093349 -0.11198 -0.095602 -0.47036 -0.18613 -0.25711 -0.28834 
diebus -0.15919 0.13665 -0.01843 -0.017342 -0.0042947 -0.12813 -0.098185 -0.065379 -0.11471 0.097451 0.1831 -0.26646 0.17218 0.071 -0.12093 0.035702 0.29987 0.17887 0.15626 -0.26831 0.073332 0.01468 0.093829 0.12178 -0.090964 0.071055 0.042063 0.10764 -0.1531 0.12661 -0.15257 0.0038168 0.081169 -0.084927 0.049001 -0.13994 0.0076936 0.072058 0.10334 0.15933 0.10664 -0.12542 0.33064 -0.21272 0.12206 0.038022 -0.060412 -0.0384 -0.17036 0.21385 -0.13831 -0.047422 -0.28842 0.071969 -0.16512 -0.023164 0.10269 0.10339 0.2481 -0.036333 0.12971 0.12839 0.45999 0.002308 -0.19704 0.019425 -0.13268 0.10922 -0.13282 -0.13671 -0.2488 -0.027475 0.1457 -0.00015164 0.15569 0.24843 0.090259 -0.073171 0.19267 -0.16831 0.028012 -0.033971 0.32532 -0.00015768 -0.11687 0.26483 -0.12417 0.093982 -0.15103 -0.32686 0.19587 0.14191 0.06747 -0.099529 -0.1138 -0.091857 -0.47506 -0.19258 -0.2595 -0.29386 
fuisse -0.14686 0.12652 -0.015164 -0.01413 -0.0013346 -0.12019 -0.093444 -0.060655 -0.10209 0.087868 0.16754 -0.24266 0.15362 0.06587 -0.11003 0.033238 0.27682 0.16181 0.14116 -0.24993 0.066208 0.011325 0.083443 0.1124 -0.085094 0.06216 0.037182 0.09612 -0.13764 0.11637 -0.1393 0.00026328 0.072878 -0.077054 0.0486 -0.13173 0.0033583 0.063748 0.093546 0.1464 0.09713 -0.11454 0.30376 -0.1954 0.11015 0.036234 -0.05401 -0.036197 -0.15674 0.19578 -0.1253 -0.043584 -0.2627 0.064442 -0.14911 -0.020171 0.094794 0.09477 0.22597 -0.035352 0.11888 0.11799 0.41941 0.0066101 -0.17676 0.014139 -0.12102 0.099204 -0.12239 -0.12327 -0.2272 -0.023928 0.13088 0.0021323 0.13817 0.22561 0.083884 -0.066093 0.17491 -0.15392 0.023213 -0.031484 0.29644 -0.0006664 -0.11023 0.23809 -0.11153 0.087043 -0.13311 -0.29836 0.17748 0.12633 0.061041 -0.086967 -0.10678 -0.086792 -0.43695 -0.17432 -0.23914 -0.27026 
quia -0.14761 0.12601 -0.014092 -0.014962 -0.0025979 -0.12308 -0.089431 -0.058332 -0.10355 0.090643 0.16379 -0.24419 0.15661 0.061677 -0.10763 0.03089 0.27277 0.15924 0.14081 -0.24547 0.064505 0.016735 0.084581 0.11284 -0.086425 0.061031 0.038083 0.097931 -0.1385 0.11676 -0.13733 0.00032191 0.073884 -0.076707 0.050655 -0.12921 0.00368 0.06538 0.090518 0.14279 0.097624 -0.11645 0.30257 -0.19204 0.10569 0.035771 -0.055719 -0.034191 -0.15722 0.1969 -0.12279 -0.048487 -0.2606 0.062642 -0.1506 -0.01797 0.094601 0.094275 0.22783 -0.039948 0.11575 0.11651 0.41827 0.004184 -0.17698 0.017764 -0.11971 0.09946 -0.12442 -0.12001 -0.2287 -0.0218 0.13313 0.0022824 0.14065 0.22717 0.084878 -0.067079 0.17553 -0.15656 0.025737 -0.03091 0.30038 0.0013698 -0.10367 0.2367 -0.11024 0.085968 -0.13755 -0.2958 0.17815 0.12858 0.059366 -0.089234 -0.1034 -0.086032 -0.43219 -0.17298 -0.24055 -0.26824 
sive -0.15692 0.13256 -0.017646 -0.017861 -0.0066442 -0.12467 -0.10017 -0.065068 -0.10562 0.092423 0.17661 -0.25246 0.15798 0.071113 -0.11326 0.033632 0.28313 0.17139 0.14618 -0.25657 0.066462 0.012512 0.084162 0.11734 -0.087239 0.063552 0.046043 0.098906 -0.14664 0.12456 -0.14216 0.0025276 0.080291 -0.081854 0.050062 -0.13666 0.0074516 0.066536 0.093443 0.15216 0.1018 -0.11538 0.31202 -0.20315 0.11534 0.036386 -0.055285 -0.037516 -0.15516 0.20464 -0.12902 -0.044682 -0.27417 0.070633 -0.15593 -0.022764 0.097265 0.1026 0.23692 -0.037147 0.12121 0.12171 0.43201 0.0021348 -0.18636 0.016623 -0.12463 0.10665 -0.13079 -0.13033 -0.22926 -0.024946 0.13548 -0.0005022 0.14396 0.23647 0.084466 -0.068288 0.18028 -0.15846 0.026617 -0.032085 0.31273 -0.0015638 -0.10783 0.25154 -0.11451 0.092602 -0.14433 -0.30379 0.18585 0.13044 0.062203 -0.093756 -0.11157 -0.091891 -0.45221 -0.17888 -0.2463 -0.27993 
aliis -0.1638 0.14008 -0.016692 -0.018488 -0.003701 -0.13377 -0.10441 -0.066048 -0.11351 0.094499 0.19155 -0.26784 0.17224 0.071961 -0.12037 0.036606 0.30709 0.18096 0.15508 -0.27433 0.072479 0.012613 0.090873 0.1264 -0.095599 0.067208 0.040961 0.10902 -0.1539 0.12899 -0.1551 -0.00015865 0.07889 -0.087266 0.051419 -0.14197 0.0072931 0.072337 0.10099 0.16275 0.10565 -0.12625 0.33452 -0.21595 0.12236 0.036247 -0.060511 -0.039381 -0.17189 0.21896 -0.13914 -0.050578 -0.29358 0.074774 -0.16484 -0.021528 0.1052 0.10896 0.25156 -0.040075 0.13405 0.13211 0.46515 0.0049656 -0.19638 0.014131 -0.13163 0.11132 -0.13888 -0.13383 -0.24873 -0.028377 0.14173 0.0033253 0.15545 0.25349 0.092204 -0.074534 0.19297 -0.17038 0.026629 -0.033677 0.33232 -0.00044991 -0.11796 0.26387 -0.12434 0.094165 -0.15233 -0.33295 0.19589 0.13956 0.065542 -0.097504 -0.11629 -0.094462 -0.48442 -0.19548 -0.25904 -0.29711 
quattuor -0.14851 0.1254 -0.012996 -0.014726 -0.0035271 -0.12183 -0.094237 -0.060198 -0.10337 0.09008 0.17117 -0.24376 0.15768 0.066228 -0.10785 0.0344 0.2763 0.1628 0.14199 -0.2491 0.066938 0.014383 0.083245 0.11389 -0.082664 0.060318 0.040922 0.10028 -0.14045 0.11767 -0.14149 0.0018124 0.073433 -0.080208 0.046246 -0.13072 0.0031111 0.065199 0.093631 0.1458 0.097384 -0.11406 0.30498 -0.19481 0.1119 0.036628 -0.056163 -0.035112 -0.15459 0.19908 -0.1244 -0.044964 -0.26608 0.064233 -0.15159 -0.018628 0.097329 0.098088 0.2291 -0.037127 0.11929 0.11965 0.42198 0.0031021 -0.17985 0.015238 -0.12248 0.10114 -0.12473 -0.12356 -0.22898 -0.023072 0.13388 0.0033952 0.14022 0.23157 0.084907 -0.067018 0.17649 -0.15579 0.02679 -0.032652 0.30068 -0.0017647 -0.10875 0.24154 -0.11463 0.087013 -0.13868 -0.30266 0.1801 0.12856 0.061641 -0.092598 -0.1072 -0.087848 -0.44168 -0.17399 -0.24054 -0.27372 
idem -0.16089 0.13756 -0.014811 -0.011975 -0.0059815 -0.13115 -0.099425 -0.060372 -0.11344 0.094277 0.1807 -0.2589 0.16593 0.066895 -0.11848 0.035358 0.29526 0.17688 0.14959 -0.2675 0.073511 0.018326 0.087888 0.11842 -0.085449 0.06376 0.036889 0.10119 -0.14452 0.12748 -0.15169 0.0012397 0.080387 -0.081672 0.050914 -0.13854 0.008165 0.073008 0.10113 0.15342 0.10952 -0.12299 0.32573 -0.20627 0.11871 0.037686 -0.059499 -0.035848 -0.16559 0.21165 -0.13472 -0.049478 -0.28199 0.069542 -0.16459 -0.020326 0.10006 0.10362 0.24676 -0.037753 0.13065 0.12637 0.44945 0.0019194 -0.18886 0.019682 -0.13053 0.10833 -0.12869 -0.13285 -0.24455 -0.029052 0.14352 1.8103e-05 0.14927 0.24167 0.087038 -0.067238 0.18884 -0.16605 0.024751 -0.03669 0.32094 0.00041129 -0.11489 0.25661 -0.11868 0.09269 -0.14561 -0.32184 0.1908 0.13701 0.066455 -0.09633 -0.11108 -0.090128 -0.4653 -0.18529 -0.25534 -0.28483 
unum -0.15568 0.13526 -0.013376 -0.016327 -0.0040208 -0.12664 -0.098068 -0.060476 -0.11399 0.095483 0.1759 -0.25583 0.16238 0.069496 -0.11506 0.035323 0.29208 0.17529 0.15117 -0.26121 0.068662 0.01671 0.089626 0.11847 -0.086633 0.065728 0.041202 0.10263 -0.14853 0.12256 -0.14391 0.0020932 0.077513 -0.079887 0.051607 -0.14077 0.0051643 0.066821 0.098292 0.15506 0.10736 -0.12202 0.31789 -0.20543 0.11779 0.036213 -0.060104 -0.03311 -0.165 0.20674 -0.1306 -0.046771 -0.28099 0.071456 -0.15757 -0.024116 0.10172 0.098729 0.2429 -0.040975 0.12857 0.12616 0.4439 0.0047727 -0.19095 0.017186 -0.1316 0.10804 -0.12736 -0.12891 -0.23666 -0.024128 0.1414 0.0015842 0.14818 0.23755 0.087348 -0.070826 0.1918 -0.16489 0.025302 -0.032204 0.31577 0.00013158 -0.11646 0.25299 -0.12083 0.092473 -0.14787 -0.31681 0.18577 0.13998 0.067259 -0.096392 -0.11254 -0.089883 -0.46532 -0.18326 -0.25566 -0.28612 
septem -0.15868 0.13673 -0.018629 -0.014014 -0.0063573 -0.13181 -0.099873 -0.06502 -0.11033 0.09544 0.18355 -0.26154 0.17316 0.073218 -0.11936 0.03834 0.30212 0.17758 0.15367 -0.27234 0.070578 0.01569 0.089497 0.12387 -0.092617 0.065452 0.03941 0.1062 -0.15109 0.12902 -0.15293 0.0030563 0.078411 -0.085279 0.052305 -0.14374 0.0065254 0.072907 0.099984 0.15794 0.10592 -0.12468 0.32978 -0.21407 0.12331 0.038787 -0.061167 -0.036796 -0.17202 0.21032 -0.13715 -0.046951 -0.28758 0.071377 -0.16646 -0.020479 0.10419 0.10473 0.2509 -0.037762 0.13244 0.13116 0.45721 0.0041782 -0.1963 0.019583 -0.13089 0.10971 -0.13196 -0.13674 -0.24663 -0.024233 0.14729 -0.00048947 0.1546 0.24763 0.090676 -0.073015 0.19325 -0.16884 0.029333 -0.031736 0.32546 -0.00078952 -0.11645 0.26236 -0.12454 0.095184 -0.14955 -0.32699 0.19951 0.14136 0.067441 -0.099493 -0.11293 -0.095299 -0.4746 -0.18906 -0.26357 -0.29422 
neque -0.14778 0.12839 -0.016952 -0.017765 -0.0027685 -0.12328 -0.09376 -0.058618 -0.10392 0.087537 0.171 -0.24264 0.15452 0.064355 -0.11228 0.032589 0.27997 0.16481 0.14426 -0.24994 0.06797 0.015151 0.085704 0.11484 -0.083223 0.062 0.038403 0.097305 -0.1386 0.11744 -0.14069 0.00063011 0.074529 -0.081731 0.04777 -0.13089 0.0060705 0.067055 0.093373 0.14848 0.10003 -0.11661 0.30485 -0.1958 0.11063 0.036415 -0.055632 -0.036983 -0.1525 0.1994 -0.12591 -0.045137 -0.2658 0.06847 -0.15351 -0.016955 0.096602 0.097327 0.23069 -0.037698 0.12153 0.11739 0.42127 0.0027239 -0.18158 0.015004 -0.1199 0.10046 -0.12437 -0.12237 -0.22986 -0.023365 0.13032 -0.00037954 0.14027 0.22918 0.083006 -0.066102 0.17926 -0.15564 0.02795 -0.03069 0.29999 -0.0017697 -0.1074 0.23931 -0.1108 0.086886 -0.13721 -0.29965 0.1783 0.12958 0.060373 -0.088709 -0.10576 -0.088298 -0.4383 -0.17353 -0.24243 -0.27296 
 -0.16032 0.13961 -0.015153 -0.013515 -0.013135 -0.13195 -0.098059 -0.063733 -0.11549 0.1024 0.17754 -0.26302 0.16469 0.067226 -0.12057 0.038221 0.28606 0.16998 0.15688 -0.25788 0.069191 0.0096341 0.082838 0.11343 -0.098112 0.063198 0.047399 0.09951 -0.15315 0.12414 -0.15244 -0.00064613 0.077566 -0.08237 0.052725 -0.14606 -0.0029637 0.068202 0.09777 0.15614 0.10676 -0.11933 0.31866 -0.21823 0.12235 0.041927 -0.056216 -0.042404 -0.16801 0.20863 -0.13661 -0.046281 -0.28039 0.063317 -0.16217 -0.021518 0.098546 0.10604 0.24573 -0.040635 0.12544 0.13233 0.45343 0.0088977 -0.19916 0.023287 -0.12934 0.10482 -0.13507 -0.12441 -0.24017 -0.024681 0.15115 0.01253 0.14599 0.2575 0.092479 -0.078038 0.19534 -0.17016 0.028175 -0.040272 0.32579 -0.0053984 -0.12294 0.25996 -0.12163 0.092278 -0.15087 -0.32943 0.19295 0.13731 0.066928 -0.092547 -0.1099 -0.096214 -0.48046 -0.19735 -0.25991 -0.29504 
unde -0.15972 0.13773 -0.015873 -0.016412 -0.0045943 -0.13384 -0.099753 -0.062596 -0.10968 0.094692 0.18534 -0.26471 0.1659 0.070433 -0.11984 0.032056 0.29862 0.17994 0.15456 -0.27105 0.069032 0.011532 0.08954 0.12533 -0.089405 0.068483 0.039008 0.1071 -0.15224 0.1273 -0.15038 0.0027904 0.078819 -0.086281 0.054258 -0.13818 0.0062411 0.070864 0.1021 0.16301 0.10777 -0.12175 0.32961 -0.2086 0.12202 0.034788 -0.061578 -0.036531 -0.16485 0.21207 -0.1347 -0.050126 -0.28669 0.070416 -0.16097 -0.023782 0.10323 0.1047 0.24789 -0.039842 0.12695 0.12847 0.44957 0.0039502 -0.19383 0.016458 -0.13088 0.10859 -0.13494 -0.13202 -0.24726 -0.027922 0.14365 -4.3022e-05 0.15163 0.24655 0.087061 -0.073139 0.19134 -0.16829 0.026306 -0.033639 0.32663 0.00086404 -0.11639 0.2643 -0.12137 0.093455 -0.15041 -0.32782 0.19384 0.13816 0.063294 -0.097341 -0.113 -0.092582 -0.47208 -0.18739 -0.25908 -0.29451 
tunc -0.15513 0.13541 -0.014804 -0.013441 -0.0041897 -0.1277 -0.099448 -0.06232 -0.11356 0.097849 0.18131 -0.25867 0.16579 0.072519 -0.11765 0.033518 0.29544 0.17457 0.1536 -0.26748 0.072589 0.015211 0.087815 0.12315 -0.090004 0.066987 0.039762 0.10725 -0.14727 0.12817 -0.14835 0.003178 0.081394 -0.082718 0.0561 -0.13949 0.0063092 0.07205 0.096298 0.15653 0.10421 -0.12455 0.32439 -0.21084 0.12085 0.036901 -0.060661 -0.035545 -0.16407 0.20806 -0.13438 -0.042968 -0.28345 0.067088 -0.16065 -0.020816 0.10272 0.10345 0.24602 -0.039729 0.12641 0.12713 0.44535 0.0079119 -0.18977 0.016551 -0.12974 0.10814 -0.13327 -0.1312 -0.24132 -0.024888 0.14061 0.0036462 0.14736 0.24683 0.092267 -0.071375 0.1876 -0.1675 0.026074 -0.034177 0.31862 -0.0027435 -0.11678 0.25936 -0.12088 0.092294 -0.14787 -0.32369 0.19082 0.13602 0.063906 -0.094603 -0.11368 -0.095628 -0.46606 -0.18702 -0.25917 -0.28681 
posse -0.15349 0.12964 -0.014957 -0.015694 -0.0032348 -0.12579 -0.096326 -0.062722 -0.10678 0.093292 0.17796 -0.25338 0.16255 0.067936 -0.11509 0.035421 0.28947 0.16765 0.15016 -0.26067 0.06575 0.012497 0.089899 0.11771 -0.089865 0.064924 0.038975 0.1018 -0.14272 0.12157 -0.14608 0.00062468 0.071119 -0.082167 0.049012 -0.13684 0.0062025 0.067345 0.098421 0.15249 0.10311 -0.12158 0.31641 -0.20392 0.11474 0.034079 -0.057011 -0.038295 -0.16283 0.20391 -0.13279 -0.04828 -0.27398 0.066383 -0.15733 -0.019985 0.10116 0.099409 0.23938 -0.034369 0.12582 0.12392 0.43823 0.0034957 -0.18568 0.015888 -0.12447 0.10263 -0.12574 -0.1273 -0.23776 -0.027877 0.13855 0.0018681 0.14695 0.24088 0.087734 -0.070861 0.18224 -0.15997 0.026696 -0.031878 0.30883 0.00053428 -0.11145 0.25003 -0.11784 0.089748 -0.14184 -0.3086 0.18887 0.13274 0.065328 -0.091847 -0.10818 -0.0931 -0.45495 -0.1807 -0.24907 -0.282 
idque -0.16671 0.13818 -0.015459 -0.016302 -0.0015748 -0.13975 -0.10498 -0.067161 -0.11438 0.096963 0.19074 -0.27164 0.17385 0.070177 -0.12322 0.03573 0.31049 0.18237 0.16064 -0.27789 0.075459 0.015946 0.091515 0.128 -0.093783 0.069414 0.043983 0.10758 -0.15687 0.13307 -0.15731 0.00052813 0.084842 -0.088356 0.055153 -0.14948 0.0069933 0.073179 0.10593 0.16444 0.11283 -0.1291 0.33758 -0.2194 0.12059 0.038158 -0.063535 -0.039263 -0.17263 0.22203 -0.141 -0.049981 -0.29518 0.073003 -0.16879 -0.021682 0.10589 0.1073 0.25512 -0.041749 0.13452 0.13216 0.4699 0.0040583 -0.20002 0.016641 -0.13599 0.11354 -0.13838 -0.13773 -0.25712 -0.028246 0.149 0.0023326 0.15556 0.25703 0.095759 -0.076668 0.19518 -0.17247 0.024829 -0.03453 0.33879 0.00014222 -0.11939 0.27043 -0.12364 0.097629 -0.15513 -0.33876 0.19828 0.14475 0.065961 -0.099758 -0.11744 -0.096443 -0.49069 -0.19489 -0.26598 -0.3015 
eorum -0.15732 0.1347 -0.012872 -0.016792 -0.0044859 -0.12811 -0.096248 -0.061802 -0.11277 0.096038 0.17946 -0.25654 0.1663 0.06938 -0.11529 0.036627 0.29174 0.17531 0.14931 -0.26185 0.066976 0.015474 0.087802 0.11888 -0.091214 0.063264 0.040344 0.10411 -0.14538 0.12266 -0.14958 -0.0009732 0.075917 -0.085545 0.048724 -0.13902 0.0056383 0.067579 0.099039 0.15465 0.10478 -0.12149 0.32072 -0.20983 0.11858 0.036526 -0.057998 -0.037641 -0.16374 0.20627 -0.13324 -0.050092 -0.27898 0.069078 -0.15968 -0.024533 0.10146 0.10243 0.23793 -0.0366 0.12578 0.12873 0.44398 0.0044262 -0.18778 0.018976 -0.12788 0.10651 -0.13089 -0.12908 -0.24025 -0.02397 0.13991 0.0011298 0.15381 0.24004 0.088336 -0.071936 0.18702 -0.16619 0.024725 -0.03242 0.31579 -0.0028376 -0.1136 0.25649 -0.1181 0.093385 -0.14494 -0.31627 0.18694 0.13803 0.06714 -0.094983 -0.11079 -0.092023 -0.46413 -0.1845 -0.25392 -0.28385 
viginti -0.14523 0.12753 -0.014415 -0.016302 -0.0063707 -0.12229 -0.093755 -0.0579 -0.10176 0.08932 0.16908 -0.24203 0.15613 0.065583 -0.10967 0.032029 0.27595 0.16445 0.14237 -0.24653 0.06352 0.015023 0.086078 0.11327 -0.083891 0.063087 0.037282 0.098632 -0.14129 0.11532 -0.13813 0.00061507 0.074235 -0.076916 0.04836 -0.12985 0.0048268 0.064341 0.091901 0.14634 0.097892 -0.11481 0.30301 -0.19746 0.11139 0.03435 -0.055315 -0.036099 -0.15396 0.19693 -0.12573 -0.045779 -0.26664 0.065877 -0.15077 -0.022414 0.095698 0.094521 0.22893 -0.035716 0.12071 0.11925 0.41987 0.0046555 -0.18223 0.01521 -0.12265 0.10009 -0.12392 -0.1219 -0.22912 -0.024166 0.13441 0.00109 0.14038 0.22832 0.083699 -0.067646 0.17439 -0.15429 0.023812 -0.03223 0.30014 -0.00074493 -0.10739 0.24451 -0.11258 0.086823 -0.13801 -0.301 0.17928 0.12521 0.062294 -0.090695 -0.10579 -0.085177 -0.43649 -0.17499 -0.23957 -0.27102 
saecula -0.14409 0.12463 -0.014194 -0.014265 -0.0026809 -0.11732 -0.091241 -0.055088 -0.10136 0.088213 0.16476 -0.23569 0.1511 0.06144 -0.10835 0.031532 0.27145 0.16015 0.13921 -0.24524 0.061725 0.013078 0.084562 0.11258 -0.082221 0.06173 0.036238 0.094674 -0.13521 0.11459 -0.1375 0.00067808 0.073909 -0.075299 0.045119 -0.12648 0.0020549 0.064519 0.090582 0.14192 0.09682 -0.11271 0.29631 -0.19213 0.10764 0.034213 -0.053664 -0.034151 -0.15067 0.18984 -0.12295 -0.043992 -0.25848 0.062169 -0.14773 -0.018151 0.094432 0.092254 0.22345 -0.036276 0.11468 0.11512 0.41129 0.0085818 -0.17676 0.016039 -0.11546 0.10008 -0.11764 -0.11847 -0.22311 -0.024783 0.12841 0.0020577 0.13784 0.22206 0.084503 -0.064864 0.17114 -0.15079 0.023757 -0.030678 0.29466 -0.0029007 -0.10436 0.23325 -0.10933 0.086789 -0.1353 -0.29361 0.17699 0.12332 0.061367 -0.086623 -0.10368 -0.082609 -0.43052 -0.17068 -0.23361 -0.26362 
quidam -0.13657 0.11514 -0.014291 -0.013112 -0.0035404 -0.11114 -0.085985 -0.052422 -0.096212 0.082003 0.15532 -0.22581 0.14139 0.060526 -0.10011 0.030573 0.25426 0.14955 0.13117 -0.22547 0.059854 0.01302 0.076308 0.10347 -0.078777 0.05729 0.035906 0.088693 -0.12894 0.10953 -0.12977 0.00019705 0.069506 -0.072595 0.044493 -0.12023 0.0022383 0.060689 0.083846 0.13367 0.089887 -0.10354 0.28087 -0.18079 0.1003 0.032546 -0.050926 -0.032906 -0.1416 0.18018 -0.11432 -0.041455 -0.24451 0.06011 -0.13642 -0.018008 0.086813 0.085928 0.20877 -0.033658 0.10759 0.10815 0.38664 0.0049752 -0.16564 0.01669 -0.11334 0.094066 -0.11314 -0.11469 -0.20909 -0.021364 0.11943 -0.00061336 0.13041 0.20734 0.076595 -0.060155 0.1624 -0.14167 0.022186 -0.027712 0.2778 -0.0012011 -0.098166 0.22227 -0.10214 0.081624 -0.12629 -0.27527 0.16347 0.11861 0.054576 -0.080573 -0.096086 -0.079069 -0.40219 -0.16168 -0.21733 -0.24946 
quinque -0.16435 0.13794 -0.014793 -0.019988 -0.0030334 -0.13734 -0.10125 -0.066008 -0.11376 0.099001 0.18886 -0.27159 0.17283 0.074252 -0.12073 0.036934 0.30581 0.17978 0.1564 -0.27585 0.073159 0.016219 0.092481 0.12517 -0.097114 0.06892 0.042542 0.107 -0.15536 0.13124 -0.15784 0.001707 0.080859 -0.089532 0.055146 -0.1483 0.0053382 0.072826 0.10436 0.16117 0.11068 -0.12901 0.33671 -0.21741 0.12183 0.039515 -0.06019 -0.039917 -0.1725 0.21964 -0.13656 -0.05028 -0.29338 0.072674 -0.16955 -0.021649 0.10779 0.10738 0.25375 -0.041227 0.13518 0.13129 0.46709 0.0048239 -0.19898 0.020241 -0.13513 0.11246 -0.13692 -0.13658 -0.25364 -0.026957 0.14473 -4.5979e-05 0.15723 0.25286 0.093522 -0.074395 0.19499 -0.17196 0.029396 -0.036492 0.33484 0.00042238 -0.12081 0.26863 -0.12382 0.097382 -0.15538 -0.33359 0.19849 0.14104 0.067322 -0.098351 -0.1155 -0.094722 -0.48693 -0.19203 -0.26539 -0.30324 
cons -0.1421 0.12008 -0.011338 -0.012376 -0.0036966 -0.11567 -0.089862 -0.059189 -0.10355 0.085799 0.16143 -0.2332 0.14566 0.061673 -0.10657 0.034822 0.26623 0.15877 0.13622 -0.24063 0.063123 0.014021 0.083589 0.10532 -0.080107 0.060366 0.034259 0.095321 -0.13437 0.10993 -0.13473 0.00099788 0.071403 -0.075841 0.045815 -0.1248 0.0053305 0.065836 0.086209 0.13976 0.094139 -0.1091 0.2908 -0.18822 0.10635 0.034986 -0.051841 -0.035236 -0.14914 0.19035 -0.12174 -0.042636 -0.25309 0.063325 -0.1441 -0.016407 0.090534 0.092306 0.22071 -0.032173 0.11519 0.11367 0.40616 0.0060994 -0.17609 0.013213 -0.11731 0.096527 -0.11644 -0.12034 -0.2206 -0.026477 0.13005 0.006302 0.13387 0.22316 0.080331 -0.065642 0.17118 -0.14719 0.027459 -0.031758 0.29094 -0.003793 -0.10459 0.23151 -0.10982 0.082509 -0.13281 -0.28945 0.17491 0.12279 0.055068 -0.082365 -0.099537 -0.085446 -0.42345 -0.16628 -0.23006 -0.26615 
sint -0.19312 0.16694 -0.021495 -0.018786 -0.0064763 -0.15907 -0.11997 -0.076585 -0.1388 0.11709 0.2212 -0.32089 0.20165 0.085817 -0.1453 0.039838 0.35847 0.20988 0.18814 -0.3242 0.08627 0.022425 0.10984 0.14543 -0.11408 0.080842 0.049638 0.12967 -0.18424 0.15215 -0.18357 -0.00075178 0.095871 -0.10443 0.060502 -0.16976 0.0063342 0.087852 0.11833 0.19249 0.13083 -0.14893 0.3955 -0.25877 0.14531 0.043204 -0.071755 -0.04528 -0.19994 0.25936 -0.16307 -0.058989 -0.34261 0.086395 -0.19866 -0.028261 0.12462 0.12096 0.29997 -0.048463 0.15463 0.15195 0.54789 0.0025419 -0.23507 0.021111 -0.15643 0.13246 -0.158 -0.16107 -0.29643 -0.031701 0.17323 3.1657e-05 0.18778 0.29607 0.10825 -0.089147 0.23222 -0.20334 0.033734 -0.038665 0.39183 -0.0012667 -0.14238 0.31437 -0.14648 0.11196 -0.183 -0.39004 0.23207 0.16877 0.080262 -0.11842 -0.13757 -0.11177 -0.57161 -0.22683 -0.30956 -0.35207 
mensibus -0.16095 0.13898 -0.016842 -0.015563 -0.0028961 -0.12932 -0.10216 -0.065059 -0.11234 0.096161 0.18542 -0.26434 0.17199 0.073382 -0.11874 0.036857 0.30428 0.17992 0.15507 -0.27165 0.072787 0.015175 0.093219 0.12484 -0.092484 0.067594 0.041254 0.10892 -0.15193 0.1264 -0.15186 0.0025507 0.080054 -0.085183 0.053752 -0.14401 0.0045834 0.072788 0.10344 0.15961 0.10677 -0.12695 0.33165 -0.21509 0.1194 0.039065 -0.059666 -0.039351 -0.17285 0.21254 -0.13931 -0.049593 -0.28875 0.070116 -0.16522 -0.022094 0.10412 0.10506 0.24818 -0.036907 0.13257 0.13368 0.45848 0.0035303 -0.19551 0.017044 -0.13221 0.10863 -0.13489 -0.13604 -0.24586 -0.024778 0.14588 0.0017235 0.15509 0.2499 0.091825 -0.071615 0.19318 -0.16875 0.025945 -0.030861 0.32568 -0.00017075 -0.11651 0.26508 -0.12339 0.095028 -0.14896 -0.32858 0.19733 0.14027 0.069636 -0.099093 -0.11563 -0.094476 -0.47765 -0.19237 -0.26233 -0.29361 
at -0.15255 0.13143 -0.01241 -0.013885 -0.0079031 -0.12778 -0.09686 -0.057351 -0.10947 0.094177 0.16821 -0.24548 0.15471 0.066955 -0.10619 0.031775 0.28011 0.166 0.14399 -0.25426 0.065911 0.014076 0.084899 0.1125 -0.084364 0.062444 0.043116 0.095897 -0.14193 0.12022 -0.14002 0.0040408 0.072121 -0.082664 0.046254 -0.13403 0.0009101 0.06857 0.096792 0.14789 0.096378 -0.11902 0.31093 -0.20248 0.10975 0.036919 -0.063022 -0.035903 -0.15858 0.20555 -0.12679 -0.045896 -0.2707 0.063278 -0.15579 -0.023522 0.096294 0.10134 0.23701 -0.037317 0.12336 0.12016 0.42754 0.0052732 -0.18279 0.017392 -0.11991 0.10234 -0.12239 -0.12452 -0.22898 -0.02008 0.13361 -0.0016289 0.14055 0.23503 0.087433 -0.065664 0.18049 -0.15451 0.025633 -0.030768 0.3075 0.0034794 -0.11113 0.24171 -0.11803 0.086925 -0.13974 -0.30377 0.18397 0.12943 0.060813 -0.09393 -0.10806 -0.087704 -0.44311 -0.17263 -0.2513 -0.27321 
apud -0.15415 0.13155 -0.01446 -0.015795 -0.0046543 -0.12708 -0.096696 -0.062696 -0.10969 0.094514 0.17879 -0.25294 0.16318 0.066896 -0.11193 0.035357 0.29037 0.16762 0.14577 -0.26146 0.068471 0.016052 0.088038 0.12093 -0.086628 0.063205 0.041938 0.10182 -0.14381 0.11998 -0.14578 0.00065284 0.076429 -0.083864 0.051069 -0.13733 0.0050203 0.066495 0.096511 0.15227 0.10167 -0.11725 0.31439 -0.20695 0.11801 0.036866 -0.058874 -0.035595 -0.16 0.20493 -0.13366 -0.04937 -0.27456 0.070813 -0.15641 -0.019453 0.10278 0.099972 0.23587 -0.03917 0.1222 0.1246 0.43647 0.0068252 -0.18383 0.017756 -0.12928 0.10415 -0.12742 -0.1306 -0.23608 -0.024383 0.1393 0.0042403 0.14519 0.23459 0.089297 -0.067232 0.18205 -0.15732 0.027648 -0.032837 0.31133 -0.002464 -0.11248 0.25255 -0.11901 0.088011 -0.14101 -0.31155 0.18777 0.13214 0.067021 -0.093178 -0.10805 -0.091417 -0.45576 -0.18441 -0.24838 -0.27852 
esset -0.14897 0.12583 -0.014199 -0.016226 -0.0043628 -0.11957 -0.094217 -0.0576 -0.10545 0.087551 0.171 -0.24555 0.15522 0.069505 -0.11157 0.03177 0.27764 0.16127 0.14359 -0.24681 0.061709 0.015554 0.085661 0.11507 -0.088202 0.06479 0.040825 0.098263 -0.13947 0.11475 -0.14135 0.00076553 0.074508 -0.079269 0.046688 -0.12966 0.0047816 0.065027 0.08987 0.14244 0.097768 -0.11692 0.30483 -0.19556 0.10821 0.034725 -0.056966 -0.035911 -0.15782 0.19788 -0.12621 -0.04667 -0.26541 0.062833 -0.15159 -0.020667 0.096244 0.096169 0.22806 -0.037708 0.11962 0.118 0.42166 0.0047499 -0.18201 0.016436 -0.12378 0.10419 -0.12118 -0.12181 -0.22876 -0.02463 0.13139 0.0022477 0.14178 0.227 0.083369 -0.067172 0.17757 -0.15362 0.02464 -0.032085 0.30068 0.00051936 -0.10772 0.24091 -0.11524 0.087511 -0.13898 -0.3002 0.17757 0.13079 0.061544 -0.089278 -0.10888 -0.090472 -0.44112 -0.17478 -0.23762 -0.27094 
