932 100
< -0.068649 0.31443 -0.034783 -0.11829 0.32201 0.1446 -0.17159 -0.096484 0.033987 0.41338 -0.13919 -0.072023 -0.0061656 0.12923 -0.286 -0.11846 0.214 0.20946 -0.030541 0.0083836 -0.32449 0.096558 0.26598 -0.30539 0.13838 0.069192 0.011675 -0.27006 -0.065287 0.36812 -0.12104 0.12666 0.028365 -0.1925 -0.20692 0.076366 -0.4301 -0.15258 -0.14947 -0.2512 0.077817 0.12571 -0.04347 -0.10116 0.27108 -0.10478 0.097329 -0.31535 -0.38237 0.27391 -0.070593 0.26782 -0.39983 0.223 -0.067688 0.025215 -0.022613 -0.19003 -0.098528 0.21602 0.18058 -0.043947 0.46186 0.24212 0.20132 0.0040401 -0.01469 0.0073487 -0.091453 -0.081023 -0.084804 0.024007 0.20417 -0.29166 0.075656 0.25166 0.28569 -0.018584 0.30343 0.10773 -0.075975 0.0069335 0.4232 -0.30848 0.091562 -0.3773 -0.11355 -0.20171 -0.61174 0.067669 0.031065 -0.03645 0.26234 -0.34495 -0.073732 -0.16865 -0.26441 0.088811 -0.11894 -0.3723 
> -0.065796 0.32549 -0.028113 -0.12135 0.32697 0.14698 -0.17789 -0.080592 0.015262 0.43419 -0.13962 -0.079688 -0.010763 0.14462 -0.30631 -0.11464 0.20605 0.22882 -0.04129 0.0090713 -0.3453 0.089666 0.27743 -0.2868 0.12948 0.072932 -0.0027412 -0.27913 -0.067467 0.37365 -0.11312 0.12876 0.041376 -0.19292 -0.21576 0.072996 -0.43972 -0.15716 -0.14602 -0.25054 0.057701 0.13903 -0.08031 -0.10918 0.2765 -0.10395 0.10036 -0.33201 -0.37874 0.28385 -0.070603 0.26082 -0.40414 0.21601 -0.07944 0.02444 -0.045931 -0.19435 -0.088167 0.2063 0.19051 -0.050579 0.48028 0.26324 0.20709 0.0016634 -0.030645 0.004879 -0.11481 -0.092645 -0.087755 0.01575 0.21277 -0.30879 0.0906 0.23942 0.26681 -0.018536 0.30985 0.1277 -0.057881 -0.0079987 0.42454 -0.321 0.083506 -0.37207 -0.11622 -0.22096 -0.6353 0.078529 0.023706 -0.033507 0.25722 -0.34127 -0.081956 -0.1632 -0.27302 0.087064 -0.12285 -0.37326 
, 0.060802 -0.17382 -0.063225 -0.031974 0.27115 0.07718 -0.16993 -0.19951 0.15824 -0.12796 -0.035423 -0.24041 -0.17286 -0.15675 -0.050385 -0.10176 0.13454 -0.05652 0.039537 0.1757 -0.037039 0.18416 0.11428 -0.18969 -0.014784 -0.032491 0.013809 -0.16403 -0.17235 -0.0093576 -0.16169 0.16192 -0.048565 -0.064059 -0.11882 -0.014043 -0.23377 0.1431 0.15327 -0.16178 -0.16146 0.058604 0.27067 0.044093 0.21158 0.10711 0.13841 0.084396 -0.071264 0.26251 -0.12854 0.012569 -0.23053 0.032041 -0.036542 0.15778 -0.0050871 -0.17121 0.114 -0.10878 0.19866 -0.023064 0.3459 -0.019636 0.13879 0.10266 0.29325 -0.089485 0.0029305 0.10542 0.099862 0.24805 0.013881 -0.21419 0.0035339 0.27075 0.18414 0.038372 0.052356 0.028327 -0.0061532 0.022464 0.25076 -0.11654 0.15147 -0.19321 0.17674 0.11726 -0.043452 -0.065744 0.14521 -0.17459 0.023537 -0.42396 -0.093053 -0.080574 -0.27796 0.040409 -0.12554 -0.26782 
</s> 0.0091562 -0.0070468 -0.057445 -0.051141 0.26722 0.090401 -0.1515 -0.14996 0.094446 0.04783 -0.064534 -0.17948 -0.10905 -0.049753 -0.1141 -0.1066 0.14491 0.028327 0.022115 0.10132 -0.13329 0.1441 0.16029 -0.20788 0.027578 -0.00084407 0.010514 -0.17577 -0.13507 0.10955 -0.13814 0.13339 -0.016188 -0.10013 -0.12847 0.022744 -0.27607 0.038702 0.046075 -0.18221 -0.068644 0.076268 0.14904 -0.0040207 0.2162 0.036422 0.1153 -0.046998 -0.17675 0.24599 -0.097676 0.082128 -0.27554 0.085162 -0.040707 0.10754 -0.011821 -0.16979 0.045809 -0.0041914 0.17452 -0.030769 0.35144 0.052915 0.15278 0.0648 0.17852 -0.054177 -0.034165 0.041193 0.031606 0.17164 0.077029 -0.21105 0.035112 0.24908 0.20124 0.018642 0.12753 0.057664 -0.031583 0.009306 0.28946 -0.16465 0.11921 -0.23028 0.079639 0.0056402 -0.21897 -0.017331 0.1013 -0.11797 0.1023 -0.38064 -0.094185 -0.10975 -0.26863 0.049387 -0.11113 -0.28604 
. 0.036628 -0.10475 -0.062714 -0.035784 0.28209 0.10115 -0.15046 -0.1906 0.13245 -0.066379 -0.056681 -0.23143 -0.15155 -0.10921 -0.06643 -0.11079 0.14211 -0.023432 0.032823 0.1569 -0.078202 0.16437 0.14009 -0.20438 0.0011535 -0.021216 0.024535 -0.16016 -0.1662 0.047044 -0.15804 0.13592 -0.043215 -0.074598 -0.12042 0.018824 -0.2561 0.10162 0.10422 -0.17905 -0.1148 0.060925 0.23813 0.035294 0.22072 0.078893 0.12541 0.048083 -0.12522 0.25274 -0.11778 0.033324 -0.25612 0.04903 -0.025482 0.14191 -0.0076556 -0.16356 0.086061 -0.053016 0.17549 -0.023351 0.34337 -0.0034124 0.15099 0.088651 0.24372 -0.082324 -0.016698 0.088658 0.067171 0.23202 0.044055 -0.20638 0.014454 0.25786 0.18854 0.02055 0.076057 0.043481 -0.030906 0.024854 0.27261 -0.13088 0.12914 -0.20814 0.13673 0.075119 -0.11509 -0.038081 0.14176 -0.14341 0.061659 -0.40973 -0.10048 -0.089962 -0.27593 0.030697 -0.12743 -0.28477 
% -0.032679 0.19063 -0.038408 -0.080265 0.2923 0.12076 -0.16531 -0.10845 0.028509 0.2794 -0.10587 -0.10536 -0.039439 0.073191 -0.23012 -0.11029 0.17781 0.14156 -0.0053438 0.017109 -0.26242 0.099235 0.21575 -0.25681 0.090709 0.038714 0.0060469 -0.23167 -0.092397 0.26455 -0.1189 0.1228 0.0096015 -0.14513 -0.17212 0.060223 -0.36442 -0.087408 -0.083047 -0.20304 0.023147 0.094425 0.017434 -0.07148 0.23569 -0.052298 0.079054 -0.21603 -0.30517 0.25504 -0.071279 0.18653 -0.33819 0.16453 -0.050017 0.061002 -0.02695 -0.17047 -0.044411 0.13138 0.16791 -0.047834 0.39834 0.15695 0.17127 0.02797 0.032976 -0.0108 -0.073857 -0.037337 -0.044695 0.083022 0.16245 -0.25739 0.056742 0.24399 0.2356 -0.011502 0.23095 0.088524 -0.059345 -0.00011364 0.35373 -0.24475 0.088427 -0.31049 -0.053468 -0.12719 -0.45988 0.048681 0.043301 -0.057262 0.17837 -0.34534 -0.07588 -0.13734 -0.26612 0.069891 -0.10353 -0.32433 
the 0.095616 -0.31552 -0.079495 -0.0044371 0.26477 0.058814 -0.15845 -0.24435 0.2008 -0.28639 -0.0018495 -0.31159 -0.24873 -0.2441 0.027995 -0.11523 0.11706 -0.13262 0.069389 0.22998 0.046458 0.22413 0.089466 -0.16999 -0.057064 -0.060957 0.011723 -0.14491 -0.21 -0.11017 -0.20312 0.17928 -0.073669 -0.028545 -0.080322 -0.011766 -0.17753 0.23585 0.24087 -0.16033 -0.22734 0.0439 0.39623 0.095516 0.19915 0.1816 0.16354 0.19835 0.01422 0.26908 -0.15302 -0.066163 -0.20409 -0.023987 -0.036022 0.19973 0.0059327 -0.18043 0.1886 -0.20516 0.1951 -0.016824 0.31411 -0.10906 0.14046 0.14799 0.39717 -0.13148 0.02511 0.17801 0.1581 0.32939 -0.029781 -0.18631 -0.013662 0.28692 0.15275 0.045722 -0.026902 0.016552 0.0016579 0.027643 0.22199 -0.067241 0.17373 -0.14632 0.28158 0.20527 0.12785 -0.10173 0.18762 -0.21121 -0.04637 -0.46478 -0.11929 -0.065066 -0.29682 0.016584 -0.12845 -0.26915 
; 0.066123 -0.25004 -0.078916 -0.014284 0.27799 0.076741 -0.1568 -0.21861 0.17095 -0.21773 -0.011637 -0.28573 -0.20548 -0.19636 -0.010002 -0.11433 0.11687 -0.09766 0.065786 0.20836 0.00054572 0.20694 0.10155 -0.17921 -0.035209 -0.052792 0.0062149 -0.14726 -0.20648 -0.062952 -0.18402 0.16921 -0.056725 -0.043246 -0.09658 -0.0069313 -0.19753 0.18009 0.19415 -0.16796 -0.18216 0.043669 0.33192 0.074985 0.20267 0.15104 0.14909 0.15545 -0.033654 0.26138 -0.15013 -0.035865 -0.22791 0.007322 -0.029201 0.16927 0.0024808 -0.17961 0.16679 -0.1561 0.18458 -0.026221 0.33724 -0.080134 0.13848 0.11801 0.35603 -0.11737 0.012243 0.1432 0.12327 0.30595 -0.018536 -0.18886 0.0079054 0.28437 0.16927 0.042282 0.0010774 0.016247 -0.009626 0.029324 0.24216 -0.089954 0.16035 -0.16447 0.22916 0.16726 0.041574 -0.083774 0.18499 -0.20191 -0.014413 -0.46535 -0.11073 -0.082264 -0.29801 0.021834 -0.11761 -0.27503 
and 0.066904 -0.25942 -0.07364 -0.016737 0.26328 0.06997 -0.15879 -0.23334 0.18568 -0.21732 -0.011733 -0.28965 -0.22288 -0.20777 -0.0058442 -0.11692 0.1249 -0.1138 0.059989 0.22102 0.010125 0.21321 0.09765 -0.18601 -0.035172 -0.054683 0.015403 -0.15816 -0.18655 -0.074856 -0.19449 0.17335 -0.061058 -0.044235 -0.10099 -0.012068 -0.20639 0.20561 0.19275 -0.16466 -0.19497 0.042542 0.34886 0.072089 0.20412 0.15396 0.16641 0.15648 -0.021801 0.25721 -0.14505 -0.032976 -0.21595 2.3576e-05 -0.039555 0.1791 0.011776 -0.1752 0.15611 -0.15465 0.19597 -0.020078 0.3318 -0.065204 0.14335 0.1257 0.36345 -0.10757 0.023024 0.15125 0.13847 0.28529 -0.013167 -0.19764 -0.0053545 0.27495 0.17262 0.041597 0.0057973 0.021458 -0.0014978 0.022364 0.24105 -0.085929 0.15844 -0.16898 0.23556 0.1685 0.057004 -0.092476 0.17192 -0.19946 -0.0059075 -0.44596 -0.10073 -0.063096 -0.28773 0.026677 -0.1344 -0.27406 
of 0.082837 -0.28805 -0.07742 -0.009405 0.27054 0.08257 -0.16633 -0.23984 0.19557 -0.25907 -0.020506 -0.31418 -0.2258 -0.22434 -0.0017072 -0.12623 0.12431 -0.12189 0.065336 0.22735 0.014075 0.22215 0.089745 -0.18724 -0.050467 -0.057366 0.019766 -0.15813 -0.21361 -0.097736 -0.20092 0.16874 -0.066907 -0.036119 -0.098231 -0.0096756 -0.2017 0.22359 0.21231 -0.16841 -0.20422 0.040793 0.36693 0.082248 0.20456 0.17014 0.15801 0.18341 -0.011807 0.26235 -0.15419 -0.047825 -0.22149 -0.014131 -0.024254 0.1974 0.011782 -0.18588 0.17998 -0.17876 0.19502 -0.018364 0.33482 -0.085314 0.13817 0.13151 0.37808 -0.11291 0.022266 0.16582 0.14808 0.32214 -0.015676 -0.1906 -0.0082822 0.28626 0.16585 0.046616 -0.01283 0.021422 0.0017551 0.028982 0.24382 -0.085876 0.16539 -0.16022 0.24769 0.18903 0.086634 -0.099509 0.19245 -0.20767 -0.021251 -0.47414 -0.10891 -0.07459 -0.3142 0.021352 -0.13513 -0.28141 
to 0.076703 -0.28115 -0.079755 -0.011352 0.27491 0.079475 -0.15825 -0.23827 0.17664 -0.25346 -0.011627 -0.30089 -0.22346 -0.22282 0.006313 -0.12286 0.12335 -0.11759 0.068789 0.21726 0.011917 0.21591 0.097761 -0.18178 -0.046676 -0.056181 0.015839 -0.13365 -0.21185 -0.083258 -0.18656 0.16742 -0.068848 -0.043328 -0.082513 -0.014926 -0.19323 0.21046 0.21185 -0.17692 -0.20058 0.041856 0.35909 0.080481 0.20559 0.16721 0.15038 0.18018 -0.022221 0.25809 -0.14742 -0.053495 -0.22069 -0.0074478 -0.026147 0.17961 0.013289 -0.17433 0.17444 -0.17705 0.18878 -0.016492 0.32931 -0.085486 0.12978 0.12936 0.37859 -0.11659 0.013965 0.16009 0.13861 0.32371 -0.021449 -0.19105 -0.0078982 0.29173 0.17157 0.047627 -0.010178 0.014971 -0.0077823 0.026886 0.23292 -0.076227 0.16685 -0.16801 0.25122 0.18779 0.070232 -0.098098 0.18285 -0.205 -0.021553 -0.46608 -0.11075 -0.082128 -0.29846 0.022625 -0.13551 -0.27511 
I 0.035368 -0.11288 -0.059359 -0.029562 0.26489 0.094149 -0.14056 -0.17191 0.11308 -0.076994 -0.059216 -0.22408 -0.13889 -0.11853 -0.06174 -0.10318 0.13427 -0.028678 0.045559 0.1374 -0.073896 0.17492 0.13402 -0.19022 -0.012444 -0.011027 0.0068735 -0.15041 -0.17643 0.044186 -0.15121 0.14294 -0.039338 -0.074433 -0.1047 0.005365 -0.24745 0.10067 0.10043 -0.17823 -0.10585 0.057345 0.23371 0.026853 0.21092 0.085668 0.11782 0.044134 -0.11557 0.25718 -0.11372 0.03244 -0.24933 0.045442 -0.024201 0.13441 -0.0022869 -0.16586 0.10203 -0.073469 0.17368 -0.012463 0.34837 0.0033856 0.13742 0.081095 0.23552 -0.074422 -0.027439 0.082225 0.069948 0.23706 0.040666 -0.1905 0.019231 0.26419 0.1861 0.025806 0.077542 0.029626 -0.010898 0.018014 0.25331 -0.12643 0.14274 -0.20251 0.15571 0.079249 -0.10938 -0.04318 0.14082 -0.14833 0.045402 -0.40958 -0.097273 -0.096015 -0.27512 0.03401 -0.12259 -0.27409 
you 0.05198 -0.18999 -0.072926 -0.026201 0.27444 0.076771 -0.15994 -0.19797 0.15426 -0.14962 -0.030095 -0.25453 -0.18286 -0.16185 -0.027 -0.11221 0.12583 -0.059871 0.051873 0.18123 -0.031022 0.19027 0.11767 -0.18892 -0.022571 -0.038508 0.012429 -0.15144 -0.17993 -0.018775 -0.16655 0.16099 -0.048637 -0.060311 -0.10256 -0.00028134 -0.22199 0.14577 0.14952 -0.18207 -0.15409 0.050412 0.29257 0.053894 0.20847 0.1141 0.13318 0.10557 -0.077124 0.26019 -0.12712 -0.0058347 -0.24275 0.020887 -0.030922 0.14768 -0.0039114 -0.16924 0.13414 -0.1164 0.18203 -0.019315 0.34115 -0.04104 0.12961 0.10713 0.30486 -0.095236 0.00094332 0.12013 0.094726 0.2652 0.010269 -0.20292 0.0043688 0.2777 0.18023 0.036995 0.045496 0.038698 -0.013017 0.018808 0.24739 -0.1105 0.15292 -0.19285 0.19366 0.11735 -0.031075 -0.064207 0.16252 -0.17092 0.015037 -0.44647 -0.10767 -0.08679 -0.2872 0.033425 -0.12264 -0.2776 
DIR -0.074451 0.42857 -0.022915 -0.13943 0.34917 0.13019 -0.19368 -0.093677 0.061419 0.55353 -0.14711 -0.062094 -0.026713 0.17798 -0.3697 -0.12432 0.24589 0.25017 -0.064877 0.040062 -0.401 0.089921 0.32687 -0.35505 0.17482 0.11484 0.012911 -0.35347 -0.029613 0.46423 -0.13422 0.16869 0.059632 -0.23105 -0.24406 0.083355 -0.49006 -0.19447 -0.18225 -0.26584 0.065287 0.14623 -0.085101 -0.1337 0.30137 -0.1189 0.16909 -0.41942 -0.42086 0.34912 -0.078517 0.33118 -0.45963 0.26285 -0.13609 0.014268 -0.052664 -0.21212 -0.15283 0.27291 0.24256 -0.092157 0.55836 0.37363 0.26885 -0.0028177 -0.03481 0.010208 -0.10137 -0.12337 -0.098647 -0.038491 0.24312 -0.36759 0.086572 0.27317 0.31052 -0.049147 0.3829 0.16074 -0.067143 -0.0024261 0.50345 -0.39437 0.085942 -0.44472 -0.14886 -0.26697 -0.7459 0.083934 -0.030931 -0.050931 0.35012 -0.34816 -0.078649 -0.15005 -0.2821 0.090055 -0.12136 -0.45123 
a 0.056869 -0.20766 -0.067413 -0.023619 0.27326 0.070402 -0.16281 -0.20239 0.16587 -0.1608 -0.035105 -0.25793 -0.18971 -0.17009 -0.033237 -0.11086 0.12499 -0.068829 0.047069 0.19723 -0.025064 0.19705 0.10928 -0.18766 -0.026279 -0.031362 0.018189 -0.16005 -0.17299 -0.030997 -0.17663 0.16449 -0.050458 -0.061442 -0.097259 0.002426 -0.22444 0.15886 0.15214 -0.17034 -0.16943 0.052641 0.29871 0.057789 0.20609 0.12677 0.1498 0.10269 -0.051686 0.25618 -0.13713 0.0024351 -0.23669 0.023197 -0.044933 0.1628 0.0040642 -0.17859 0.13003 -0.11643 0.18719 -0.024912 0.32905 -0.043649 0.14297 0.10927 0.31604 -0.099778 0.0014852 0.1294 0.096097 0.27265 0.01641 -0.19706 0.0026292 0.27151 0.17742 0.03597 0.032082 0.036722 -0.0063875 0.014245 0.24401 -0.09297 0.14464 -0.18941 0.20793 0.13327 -0.0085499 -0.081855 0.1688 -0.18359 0.013359 -0.43445 -0.10711 -0.077937 -0.29271 0.033948 -0.12828 -0.27474 
my 0.03309 -0.086825 -0.061496 -0.049565 0.26456 0.093424 -0.15341 -0.1811 0.12279 -0.031628 -0.056111 -0.22004 -0.13455 -0.10104 -0.080895 -0.10907 0.13071 -0.011856 0.026767 0.14286 -0.08706 0.15956 0.14172 -0.1993 0.00016111 -0.018546 0.0046171 -0.15883 -0.15514 0.049061 -0.15017 0.14699 -0.034788 -0.078495 -0.12674 0.0049625 -0.25605 0.085713 0.089316 -0.17709 -0.10754 0.064723 0.21425 0.027548 0.21875 0.078109 0.12517 0.02584 -0.12209 0.25054 -0.10846 0.048474 -0.25924 0.057545 -0.036749 0.12681 -0.0078932 -0.16942 0.085555 -0.05235 0.18379 -0.027087 0.34531 0.018542 0.14473 0.080547 0.23813 -0.073253 -0.021036 0.073552 0.063567 0.21272 0.045371 -0.21153 0.024223 0.25559 0.19605 0.028242 0.088969 0.042809 -0.024173 0.016774 0.26948 -0.1343 0.1243 -0.22379 0.13043 0.055602 -0.13759 -0.041114 0.12229 -0.14055 0.069369 -0.39995 -0.096042 -0.09286 -0.27066 0.040322 -0.11847 -0.27641 
? 0.014274 -0.012229 -0.050219 -0.046935 0.26875 0.093677 -0.16022 -0.15097 0.10993 0.048615 -0.056849 -0.17658 -0.11482 -0.049169 -0.12324 -0.10569 0.15278 0.034195 0.016497 0.10565 -0.13885 0.14649 0.16723 -0.20898 0.027048 -0.0028853 0.012801 -0.18072 -0.12778 0.11995 -0.1374 0.12983 -0.017832 -0.10051 -0.14122 0.020078 -0.27839 0.035169 0.048529 -0.18882 -0.073337 0.079416 0.1578 -0.0021941 0.22455 0.050911 0.11356 -0.051389 -0.1689 0.24645 -0.097012 0.078837 -0.27589 0.080616 -0.051925 0.111 -0.0096096 -0.17224 0.035981 -0.0042468 0.18395 -0.045537 0.36918 0.058627 0.15309 0.069817 0.18366 -0.051231 -0.032338 0.04501 0.029271 0.1673 0.088181 -0.21223 0.035678 0.25402 0.20056 0.010847 0.1353 0.06344 -0.039653 0.013426 0.29319 -0.17169 0.12115 -0.23126 0.075543 -0.0022081 -0.21531 -0.018039 0.10099 -0.12131 0.1066 -0.36724 -0.088927 -0.11142 -0.26525 0.046214 -0.10758 -0.29645 
in 0.070666 -0.22765 -0.069794 -0.018847 0.26725 0.068646 -0.16355 -0.2129 0.17056 -0.19646 -0.023523 -0.27783 -0.20653 -0.18514 -0.019216 -0.10943 0.13084 -0.088198 0.049755 0.19975 -0.011736 0.20107 0.10343 -0.18519 -0.03414 -0.03574 0.016145 -0.15829 -0.19267 -0.043743 -0.18696 0.16407 -0.055885 -0.059672 -0.098736 -0.0045402 -0.212 0.17232 0.18089 -0.16215 -0.17424 0.052581 0.30771 0.067717 0.20633 0.1358 0.15597 0.12323 -0.051783 0.25403 -0.13962 -0.012448 -0.2279 0.013673 -0.040298 0.17512 -0.0011066 -0.17437 0.13501 -0.1432 0.19434 -0.02919 0.3379 -0.046814 0.13924 0.11597 0.33772 -0.094959 0.0059099 0.13613 0.11293 0.28077 0.0039537 -0.19832 0.00045514 0.2728 0.1769 0.042752 0.025213 0.027045 -0.0065455 0.024288 0.25231 -0.10532 0.15027 -0.18103 0.21532 0.15602 0.018823 -0.084232 0.1659 -0.19104 0.0078616 -0.44224 -0.10107 -0.071465 -0.2909 0.029948 -0.13462 -0.27349 
! -0.0088234 0.096827 -0.047298 -0.073443 0.26851 0.09235 -0.16049 -0.12555 0.075638 0.16991 -0.083118 -0.13321 -0.0662 0.016834 -0.1741 -0.10332 0.15399 0.084742 0.0066059 0.070895 -0.19683 0.11763 0.1887 -0.224 0.059115 0.017907 0.01315 -0.2178 -0.099886 0.18442 -0.13412 0.1258 0.0066096 -0.12377 -0.15482 0.033658 -0.30679 -0.030503 -0.023175 -0.18911 -0.02762 0.087583 0.077992 -0.032114 0.21796 -0.0014538 0.10389 -0.12684 -0.22743 0.24281 -0.088593 0.14362 -0.30291 0.13216 -0.062206 0.078788 -0.019655 -0.15297 -0.00074224 0.075004 0.18866 -0.038177 0.38433 0.12988 0.16005 0.041105 0.11333 -0.035908 -0.051904 -0.0016605 -0.0062288 0.10554 0.1133 -0.23244 0.040703 0.24048 0.2179 -0.0016997 0.18607 0.06962 -0.039619 0.0033392 0.32377 -0.20604 0.097132 -0.27233 0.0093998 -0.054711 -0.33812 0.014191 0.059548 -0.081949 0.15212 -0.34342 -0.081862 -0.11343 -0.24934 0.061337 -0.11332 -0.30506 
is 0.044872 -0.13376 -0.059276 -0.026763 0.2719 0.084285 -0.15871 -0.18483 0.12886 -0.082027 -0.05559 -0.22659 -0.15299 -0.13281 -0.069216 -0.11924 0.1339 -0.033581 0.038944 0.15057 -0.067373 0.17571 0.1387 -0.19798 -0.0054021 -0.031211 0.0073558 -0.15855 -0.15679 0.023305 -0.15738 0.14494 -0.034995 -0.070658 -0.10635 0.0044283 -0.24182 0.11167 0.11869 -0.17986 -0.13101 0.057306 0.23501 0.028784 0.2138 0.096207 0.12926 0.052861 -0.10074 0.24222 -0.12486 0.028372 -0.25143 0.045562 -0.040366 0.14778 0.0034921 -0.17458 0.1027 -0.075188 0.18539 -0.01792 0.34006 0.0019453 0.14403 0.091835 0.26098 -0.076888 -0.013093 0.091894 0.078895 0.23175 0.036002 -0.20842 0.01895 0.26433 0.19055 0.029756 0.06398 0.038241 -0.016984 0.014919 0.26252 -0.12551 0.13081 -0.20257 0.15079 0.08364 -0.088519 -0.05655 0.1355 -0.1616 0.04382 -0.41719 -0.095848 -0.089966 -0.28272 0.043365 -0.12021 -0.27704 
it 0.050757 -0.16319 -0.057402 -0.031976 0.26953 0.091798 -0.15861 -0.19428 0.14988 -0.12567 -0.038036 -0.24441 -0.16716 -0.15169 -0.045639 -0.10893 0.1337 -0.051829 0.050337 0.16659 -0.058418 0.17661 0.12852 -0.19675 -0.016331 -0.033269 0.0053735 -0.15819 -0.17075 0.0047124 -0.16292 0.16193 -0.049025 -0.07075 -0.10612 -0.0027403 -0.22652 0.13744 0.14547 -0.17009 -0.14939 0.052403 0.26727 0.046947 0.20816 0.12082 0.13422 0.075937 -0.078427 0.25478 -0.1251 0.0056588 -0.24322 0.029662 -0.033115 0.14639 -0.0007302 -0.17755 0.1129 -0.1012 0.18529 -0.016117 0.3417 -0.015629 0.13158 0.09515 0.29152 -0.088276 -0.013541 0.10843 0.085652 0.25457 0.021439 -0.19869 0.011931 0.27014 0.18145 0.032379 0.056669 0.031592 -0.0073102 0.022899 0.26337 -0.12643 0.14241 -0.20011 0.17801 0.11341 -0.055474 -0.068718 0.15111 -0.16931 0.032622 -0.42986 -0.10509 -0.0893 -0.28034 0.02942 -0.12704 -0.28558 
HAMLET -0.056753 0.27004 -0.034461 -0.097992 0.3054 0.13011 -0.17085 -0.087902 0.012442 0.37373 -0.13036 -0.071468 -0.0049725 0.11743 -0.2733 -0.10488 0.19676 0.18658 -0.021446 -0.0036471 -0.3152 0.078954 0.24635 -0.27073 0.11216 0.051865 0.0096618 -0.25409 -0.074404 0.33797 -0.11209 0.11098 0.02552 -0.16424 -0.19518 0.062758 -0.40369 -0.13503 -0.12792 -0.22632 0.057233 0.11679 -0.036162 -0.09954 0.25475 -0.084374 0.086511 -0.28622 -0.35764 0.26676 -0.067488 0.23152 -0.36369 0.20237 -0.06871 0.044455 -0.034358 -0.17567 -0.086857 0.18673 0.18237 -0.053461 0.42553 0.20936 0.18661 0.013324 -0.013853 0.0043553 -0.1017 -0.080917 -0.075578 0.041422 0.1882 -0.27921 0.076465 0.23765 0.24878 -0.021703 0.2838 0.099302 -0.058907 -0.0062106 0.38015 -0.2941 0.075075 -0.34736 -0.092431 -0.18485 -0.56039 0.062988 0.021216 -0.050557 0.22478 -0.33478 -0.076243 -0.1529 -0.26132 0.084761 -0.10207 -0.34435 
/HAMLET -0.055864 0.2633 -0.03517 -0.097561 0.3023 0.12947 -0.17149 -0.090758 0.017017 0.36649 -0.12987 -0.077983 -0.0088477 0.11192 -0.26998 -0.10631 0.19786 0.18429 -0.020319 0.0031267 -0.31127 0.081249 0.24693 -0.27243 0.11013 0.05282 0.011345 -0.25224 -0.076648 0.33264 -0.11361 0.10962 0.023513 -0.1638 -0.19203 0.062573 -0.40064 -0.13194 -0.12223 -0.22525 0.05297 0.11531 -0.033816 -0.096348 0.25651 -0.080937 0.09061 -0.28149 -0.35248 0.26839 -0.06774 0.22954 -0.36225 0.20005 -0.069131 0.045563 -0.033238 -0.17317 -0.084092 0.18203 0.18647 -0.053505 0.42586 0.20693 0.18927 0.015376 -0.0056729 0.0035624 -0.10041 -0.080131 -0.072304 0.043198 0.18362 -0.27743 0.076721 0.2391 0.25058 -0.021776 0.27895 0.099693 -0.058222 -0.0054035 0.38102 -0.29123 0.076141 -0.34679 -0.089836 -0.18025 -0.55448 0.059555 0.022547 -0.054309 0.22564 -0.33863 -0.077853 -0.14994 -0.26186 0.083171 -0.10449 -0.34517 
not 0.046014 -0.16124 -0.063999 -0.025312 0.26884 0.085885 -0.15594 -0.19141 0.14193 -0.11761 -0.043723 -0.24468 -0.17043 -0.143 -0.053307 -0.11225 0.13228 -0.053438 0.046032 0.16681 -0.056165 0.17857 0.12328 -0.18691 -0.017559 -0.031204 0.0097256 -0.15678 -0.1742 0.0034451 -0.16395 0.14938 -0.040013 -0.066128 -0.10283 0.005422 -0.23297 0.13297 0.13931 -0.16872 -0.14703 0.050413 0.26463 0.048103 0.20648 0.11982 0.13319 0.07463 -0.087512 0.24981 -0.12696 0.010094 -0.24482 0.032124 -0.028875 0.14842 0.00010864 -0.17895 0.11238 -0.099341 0.18115 -0.017849 0.34091 -0.023461 0.13571 0.096385 0.28455 -0.090133 -0.014819 0.10903 0.090088 0.2565 0.023449 -0.19973 0.017807 0.26885 0.18083 0.031829 0.048563 0.034882 -0.017067 0.017451 0.24926 -0.11217 0.14622 -0.19403 0.17501 0.10575 -0.053165 -0.058104 0.14401 -0.16407 0.025496 -0.42681 -0.10039 -0.085555 -0.27797 0.032303 -0.12037 -0.2728 
: 0.051837 -0.17009 -0.072388 -0.024046 0.27489 0.081707 -0.16234 -0.20024 0.15009 -0.1263 -0.041484 -0.24667 -0.18043 -0.14966 -0.047586 -0.10434 0.13199 -0.052393 0.047138 0.17962 -0.048596 0.1878 0.11964 -0.1979 -0.012078 -0.0348 0.013583 -0.16028 -0.18099 0.0013336 -0.16919 0.15773 -0.04423 -0.062641 -0.10874 0.0041398 -0.22901 0.13426 0.14377 -0.17184 -0.15014 0.047113 0.28438 0.038318 0.20948 0.10867 0.13549 0.084134 -0.079965 0.2569 -0.13066 0.0020481 -0.23891 0.023517 -0.035957 0.15505 -0.00037026 -0.17776 0.13127 -0.1093 0.19127 -0.01991 0.35204 -0.023076 0.14639 0.1008 0.30167 -0.088507 0.0041594 0.11658 0.097947 0.25797 0.018427 -0.19875 0.011785 0.26611 0.17811 0.032435 0.04232 0.033252 -0.017647 0.0206 0.25666 -0.11901 0.1419 -0.19601 0.18385 0.11539 -0.053886 -0.055149 0.15028 -0.17962 0.028334 -0.43697 -0.096044 -0.098601 -0.28629 0.025544 -0.12149 -0.2834 
his 0.061319 -0.22437 -0.074777 -0.015507 0.28047 0.080771 -0.17445 -0.21847 0.16279 -0.1867 -0.033539 -0.26814 -0.19938 -0.19346 -0.027405 -0.11986 0.13381 -0.081899 0.056975 0.19598 -0.02165 0.20576 0.1182 -0.19678 -0.019978 -0.04769 0.010192 -0.15301 -0.19613 -0.032613 -0.18476 0.16881 -0.057362 -0.061233 -0.10166 -0.0095623 -0.22343 0.16829 0.17893 -0.18098 -0.17639 0.051427 0.31314 0.055255 0.21334 0.13719 0.14996 0.12104 -0.058302 0.26275 -0.14356 -0.021979 -0.23656 0.022637 -0.030966 0.17234 0.0068692 -0.18634 0.14471 -0.1331 0.19962 -0.025511 0.34989 -0.046168 0.14882 0.11604 0.34005 -0.10023 0.0077119 0.13587 0.10793 0.28906 0.006442 -0.20867 0.0076686 0.28584 0.18193 0.037196 0.023192 0.028198 -0.012387 0.027572 0.25679 -0.10721 0.15632 -0.18748 0.2087 0.14143 -0.0085108 -0.079149 0.16757 -0.19255 0.0098454 -0.45827 -0.10568 -0.093729 -0.30493 0.033822 -0.13197 -0.28399 
that 0.076682 -0.27774 -0.072 -0.0094213 0.27077 0.076369 -0.1624 -0.23104 0.17983 -0.24794 -0.020759 -0.29733 -0.22083 -0.21657 0.0062941 -0.11739 0.12247 -0.1084 0.064528 0.20784 0.0089536 0.215 0.09389 -0.17577 -0.048845 -0.058244 0.014811 -0.14402 -0.21003 -0.080584 -0.18922 0.1648 -0.067693 -0.046241 -0.089933 -0.0076759 -0.20259 0.20731 0.2053 -0.16966 -0.19662 0.047388 0.35142 0.075309 0.20368 0.16286 0.14511 0.16611 -0.021949 0.26062 -0.14275 -0.042495 -0.22584 -0.0064274 -0.028134 0.18798 0.0050592 -0.18182 0.16964 -0.17232 0.18921 -0.011739 0.32973 -0.083573 0.13885 0.12704 0.36229 -0.11272 0.018234 0.15374 0.13416 0.30787 -0.010887 -0.18837 -0.00091935 0.28084 0.16554 0.043699 -0.0053551 0.01579 0.0005235 0.018902 0.23743 -0.079193 0.16386 -0.16521 0.24965 0.18029 0.065443 -0.091806 0.18653 -0.20194 -0.024671 -0.46736 -0.11115 -0.077262 -0.30067 0.023511 -0.13426 -0.26436 
And 0.072581 -0.27565 -0.081052 -0.012097 0.27532 0.075759 -0.16155 -0.23626 0.18433 -0.23914 -0.015875 -0.29834 -0.22249 -0.21929 0.00052676 -0.11887 0.12323 -0.11649 0.065513 0.22272 0.011183 0.2199 0.09846 -0.18723 -0.040961 -0.053537 0.013344 -0.14363 -0.20614 -0.07766 -0.19099 0.17088 -0.066215 -0.046044 -0.092083 -0.014101 -0.20704 0.20374 0.20818 -0.16857 -0.20307 0.042135 0.35495 0.079011 0.20432 0.15889 0.1619 0.16426 -0.017545 0.26354 -0.14587 -0.038413 -0.22443 -0.0094778 -0.033117 0.18198 0.0045434 -0.17968 0.16363 -0.16982 0.20284 -0.020285 0.33066 -0.078097 0.13923 0.13103 0.37076 -0.11653 0.022606 0.15879 0.13998 0.30252 -0.020269 -0.19363 -0.011206 0.28068 0.16937 0.042478 -0.0022441 0.019432 -0.002648 0.029403 0.24343 -0.077235 0.16661 -0.17017 0.23831 0.18089 0.066806 -0.09645 0.1836 -0.20765 -0.012019 -0.46181 -0.10625 -0.070392 -0.30005 0.023258 -0.13794 -0.28059 
'd 0.06051 -0.21606 -0.070379 -0.022484 0.27764 0.07792 -0.16643 -0.21508 0.16214 -0.16973 -0.038846 -0.26899 -0.1898 -0.18377 -0.029043 -0.11439 0.13682 -0.074244 0.055536 0.19733 -0.020086 0.20393 0.11097 -0.19447 -0.025432 -0.038354 0.014613 -0.15832 -0.19405 -0.034944 -0.18008 0.16764 -0.055434 -0.061351 -0.097959 -0.0092829 -0.23084 0.1625 0.17241 -0.18235 -0.17331 0.053116 0.30569 0.057624 0.21426 0.13383 0.14986 0.11574 -0.057474 0.26323 -0.13526 -0.010466 -0.24033 0.02235 -0.032982 0.16987 -0.00036027 -0.17965 0.13892 -0.13095 0.19984 -0.021656 0.34199 -0.045903 0.14102 0.11074 0.32774 -0.095722 0.0065955 0.13234 0.11403 0.28743 0.0041763 -0.19965 0.0059631 0.28115 0.18652 0.04097 0.028638 0.026058 -0.005181 0.021345 0.25467 -0.10529 0.15659 -0.18863 0.21262 0.14127 -0.0043221 -0.075075 0.16709 -0.18587 0.011688 -0.45887 -0.10302 -0.083556 -0.30612 0.02915 -0.13104 -0.28584 
this 0.058026 -0.20349 -0.068635 -0.017453 0.26606 0.078604 -0.15904 -0.20395 0.1575 -0.16499 -0.029904 -0.25521 -0.19415 -0.17521 -0.030221 -0.1179 0.13019 -0.071956 0.055526 0.18465 -0.027431 0.19431 0.11341 -0.19018 -0.020345 -0.034468 0.0090584 -0.15161 -0.18271 -0.027022 -0.174 0.16343 -0.055649 -0.05608 -0.098376 -0.0058434 -0.22061 0.16033 0.16629 -0.16907 -0.16561 0.051239 0.2953 0.055521 0.20515 0.12619 0.13885 0.11273 -0.057058 0.25573 -0.12796 -0.015218 -0.23183 0.018576 -0.035425 0.16164 -0.00066158 -0.17714 0.13369 -0.12346 0.18918 -0.02603 0.33249 -0.04474 0.13961 0.11537 0.31669 -0.096231 0.0013595 0.12382 0.10345 0.26914 0.012272 -0.19912 0.0075096 0.2716 0.17057 0.03186 0.028178 0.029615 -0.0089576 0.022184 0.25104 -0.10593 0.15074 -0.18092 0.20374 0.12884 -0.012451 -0.070487 0.15499 -0.18124 0.010228 -0.43284 -0.10636 -0.082775 -0.28574 0.028931 -0.11983 -0.27292 
's 0.042522 -0.14085 -0.060746 -0.035198 0.26558 0.083974 -0.15848 -0.19237 0.13839 -0.08912 -0.046362 -0.24347 -0.15918 -0.12984 -0.061936 -0.11852 0.14175 -0.040822 0.042726 0.16493 -0.060709 0.18133 0.12527 -0.20282 -0.0052616 -0.027059 0.012268 -0.16296 -0.16151 0.020476 -0.17058 0.15649 -0.040039 -0.073477 -0.11236 0.0049206 -0.24176 0.12184 0.12597 -0.16954 -0.13782 0.05503 0.25433 0.035025 0.2127 0.09963 0.13853 0.05364 -0.0945 0.24889 -0.12369 0.029923 -0.25113 0.044172 -0.045759 0.15309 -0.0034168 -0.17652 0.1071 -0.075746 0.18837 -0.02194 0.34305 -0.0045272 0.1514 0.098856 0.27547 -0.089214 -0.0084895 0.097973 0.079556 0.23882 0.034354 -0.20269 0.0081724 0.26773 0.1902 0.023145 0.06235 0.036212 -0.02256 0.0077046 0.26874 -0.12758 0.14321 -0.20827 0.15885 0.094254 -0.078916 -0.066207 0.13534 -0.1645 0.04029 -0.42067 -0.096649 -0.085111 -0.28315 0.035569 -0.11953 -0.28355 
/STAGE -0.078194 0.41575 -0.027411 -0.13314 0.3543 0.14227 -0.20081 -0.09486 0.050592 0.54299 -0.15301 -0.061884 -0.014904 0.17545 -0.36889 -0.13198 0.25021 0.2516 -0.054096 0.025337 -0.40782 0.085346 0.3284 -0.35655 0.17289 0.1019 0.005863 -0.34396 -0.036803 0.46073 -0.1356 0.16045 0.050865 -0.2237 -0.2399 0.077781 -0.4998 -0.19116 -0.18029 -0.27402 0.072197 0.13873 -0.081605 -0.13481 0.30293 -0.11885 0.15238 -0.41539 -0.44238 0.34415 -0.073639 0.32107 -0.46018 0.26673 -0.12325 0.018493 -0.048042 -0.21145 -0.14357 0.27181 0.23536 -0.088096 0.55 0.34917 0.25868 0.0044667 -0.037433 0.01405 -0.10735 -0.12431 -0.10124 -0.019202 0.24191 -0.36412 0.090319 0.28451 0.31489 -0.051178 0.38052 0.15438 -0.073566 -0.0047075 0.50444 -0.39268 0.085956 -0.44958 -0.15434 -0.26358 -0.75095 0.086375 -0.018095 -0.052382 0.34215 -0.36065 -0.08516 -0.16122 -0.29439 0.097615 -0.12808 -0.44607 
STAGE -0.084991 0.44428 -0.025831 -0.13781 0.36321 0.15013 -0.2038 -0.090188 0.043968 0.57637 -0.16121 -0.056683 -0.0076163 0.1929 -0.38699 -0.13609 0.25633 0.27001 -0.06014 0.017277 -0.4308 0.08176 0.33934 -0.36866 0.18004 0.10912 0.0082908 -0.35412 -0.031923 0.48301 -0.13347 0.15945 0.055425 -0.23076 -0.24788 0.082725 -0.51971 -0.20633 -0.19492 -0.28376 0.082433 0.14417 -0.098745 -0.14549 0.31072 -0.12964 0.14955 -0.44003 -0.46236 0.35112 -0.073064 0.33548 -0.47603 0.27814 -0.12552 0.01296 -0.051124 -0.21583 -0.15785 0.28898 0.23925 -0.089528 0.56655 0.36657 0.26761 -0.0013069 -0.052279 0.016861 -0.11332 -0.13987 -0.1102 -0.030274 0.25309 -0.37503 0.093906 0.288 0.3238 -0.053334 0.3985 0.16093 -0.078057 -0.0095819 0.52044 -0.40789 0.083278 -0.46652 -0.16991 -0.28247 -0.78753 0.094245 -0.024623 -0.047296 0.3583 -0.3623 -0.083169 -0.17093 -0.29734 0.10317 -0.12974 -0.45986 
me 0.061358 -0.2152 -0.065604 -0.018666 0.27002 0.07767 -0.15368 -0.20677 0.15775 -0.18188 -0.022723 -0.25856 -0.1907 -0.17281 -0.023619 -0.10965 0.1218 -0.074739 0.050731 0.1827 -0.01901 0.19434 0.10988 -0.18417 -0.031507 -0.038258 0.009802 -0.14373 -0.18165 -0.034654 -0.17597 0.16238 -0.051922 -0.047712 -0.095703 0.0012426 -0.21004 0.16777 0.16708 -0.17793 -0.17279 0.044966 0.30614 0.057978 0.19341 0.13035 0.14297 0.11838 -0.053246 0.25315 -0.13258 -0.030003 -0.22733 0.013979 -0.034852 0.15263 0.0030642 -0.17387 0.14215 -0.13431 0.17843 -0.020293 0.32704 -0.057271 0.13398 0.11146 0.31204 -0.10186 -0.00288 0.1372 0.10956 0.27409 0.00073366 -0.18559 0.010082 0.27128 0.17162 0.033282 0.019754 0.028606 -0.0081011 0.018782 0.23947 -0.099038 0.14712 -0.18089 0.2019 0.13289 0.013002 -0.068835 0.15755 -0.18087 0.011292 -0.43306 -0.10364 -0.088917 -0.28349 0.024035 -0.13055 -0.26841 
with 0.064535 -0.19952 -0.068483 -0.021235 0.26359 0.075989 -0.15902 -0.2022 0.1636 -0.15571 -0.020803 -0.2556 -0.18511 -0.1751 -0.035438 -0.1102 0.13129 -0.075856 0.052378 0.1806 -0.025111 0.19598 0.11028 -0.18579 -0.023836 -0.042258 0.013571 -0.15516 -0.18209 -0.027021 -0.17396 0.16015 -0.05095 -0.0548 -0.098497 -6.17e-05 -0.21393 0.15522 0.16439 -0.16654 -0.16013 0.052023 0.28903 0.055089 0.2002 0.12718 0.14659 0.10533 -0.053451 0.24903 -0.1285 -0.0067476 -0.23011 0.016701 -0.039611 0.15614 7.7734e-05 -0.17294 0.13145 -0.12274 0.18907 -0.025014 0.32592 -0.040067 0.13812 0.10972 0.31023 -0.096017 0.0072316 0.12505 0.10118 0.26117 0.013283 -0.19804 0.010274 0.26722 0.17297 0.031507 0.029822 0.021527 -0.0082077 0.021346 0.24694 -0.10095 0.14739 -0.17981 0.19556 0.13253 -0.0090644 -0.071315 0.15378 -0.1797 0.014994 -0.42676 -0.099349 -0.082109 -0.28356 0.028756 -0.12117 -0.26767 
your 0.076526 -0.27453 -0.078959 -0.01374 0.26769 0.07623 -0.15927 -0.22496 0.17376 -0.24516 -0.0166 -0.29088 -0.2126 -0.21548 0.010597 -0.11596 0.11388 -0.10542 0.063395 0.21632 0.015694 0.20735 0.10002 -0.18376 -0.042364 -0.055009 0.013015 -0.13636 -0.19964 -0.082673 -0.18282 0.16649 -0.061273 -0.038936 -0.089442 -0.0082766 -0.19517 0.19823 0.19769 -0.17681 -0.19424 0.04668 0.34644 0.077399 0.20685 0.15358 0.14178 0.17485 -0.026216 0.2567 -0.1423 -0.047065 -0.22378 -0.008275 -0.019527 0.17558 0.010267 -0.17007 0.17025 -0.16652 0.18454 -0.0096971 0.3218 -0.089398 0.1248 0.12287 0.36731 -0.10984 0.015275 0.15695 0.12509 0.30718 -0.014527 -0.18862 -0.0013676 0.28385 0.16715 0.04936 0.0021381 0.025432 -0.0022747 0.022824 0.23073 -0.067528 0.1669 -0.1632 0.24771 0.17445 0.062111 -0.094529 0.18637 -0.19806 -0.018484 -0.4647 -0.11107 -0.077971 -0.29815 0.02899 -0.13156 -0.26877 
be 0.076169 -0.25514 -0.069837 -0.016958 0.26917 0.078205 -0.16987 -0.21177 0.17302 -0.21911 -0.016819 -0.2861 -0.20992 -0.19877 -0.0083774 -0.11008 0.12217 -0.099539 0.060768 0.20208 -0.00059011 0.20491 0.099133 -0.18077 -0.041831 -0.053486 0.0105 -0.14412 -0.2019 -0.065317 -0.17316 0.16439 -0.059671 -0.047287 -0.088454 -0.0066775 -0.20313 0.18649 0.19508 -0.16236 -0.18628 0.044045 0.33227 0.068307 0.20488 0.15241 0.14186 0.14899 -0.026953 0.25572 -0.13948 -0.033834 -0.2251 -0.0048969 -0.028222 0.18127 0.0064666 -0.17815 0.15429 -0.1563 0.19162 -0.015161 0.33086 -0.080332 0.13647 0.12054 0.34737 -0.10514 0.013044 0.14607 0.12476 0.30127 -0.007823 -0.18574 0.0029712 0.275 0.17191 0.037344 0.0068357 0.024592 -0.0043051 0.021835 0.23197 -0.08739 0.15268 -0.17195 0.23236 0.1591 0.041424 -0.084092 0.17668 -0.19916 -0.011356 -0.45205 -0.098229 -0.081244 -0.29358 0.023061 -0.12582 -0.26414 
lord -0.0082702 0.065232 -0.045844 -0.059735 0.26075 0.10234 -0.15122 -0.12585 0.07036 0.12602 -0.085583 -0.14868 -0.071106 -0.010146 -0.15441 -0.10233 0.15667 0.0708 0.0075118 0.075779 -0.1783 0.11654 0.17432 -0.22191 0.044362 0.011005 0.0079307 -0.19135 -0.11228 0.1633 -0.12952 0.11935 -0.0099257 -0.10592 -0.14236 0.03438 -0.29906 -0.0055664 -0.00097469 -0.18995 -0.031 0.082709 0.095028 -0.028455 0.21791 0.011947 0.096632 -0.10651 -0.21581 0.242 -0.083922 0.11003 -0.29058 0.10683 -0.045592 0.082035 -0.016078 -0.16225 0.013727 0.043486 0.17542 -0.031318 0.36419 0.088989 0.1523 0.04927 0.12205 -0.041885 -0.051997 0.0093144 -0.0034298 0.13278 0.096065 -0.22777 0.043643 0.23738 0.20754 0.00088277 0.16053 0.068736 -0.035958 0.0054658 0.30082 -0.18678 0.10469 -0.26102 0.031509 -0.048467 -0.30281 0.010619 0.077078 -0.095834 0.12898 -0.35298 -0.081714 -0.11852 -0.25453 0.059377 -0.10896 -0.28661 
him 0.049475 -0.17356 -0.065958 -0.030332 0.27487 0.080818 -0.16041 -0.19335 0.14543 -0.12984 -0.037239 -0.24749 -0.17964 -0.15751 -0.053177 -0.1141 0.1304 -0.060729 0.051091 0.17252 -0.042623 0.1903 0.12364 -0.1911 -0.012544 -0.039629 0.010993 -0.15943 -0.17761 -0.00047773 -0.17928 0.1628 -0.049673 -0.070617 -0.10318 -0.0020145 -0.22695 0.13515 0.15085 -0.17769 -0.14887 0.054256 0.27983 0.040519 0.20556 0.11726 0.14519 0.079337 -0.080307 0.25574 -0.13113 -0.001814 -0.24149 0.030123 -0.04318 0.15157 0.0047249 -0.17663 0.12319 -0.105 0.18958 -0.026219 0.34871 -0.025357 0.14765 0.10143 0.30412 -0.095759 0.0016317 0.11729 0.095793 0.25406 0.018316 -0.19781 0.012096 0.27284 0.18434 0.032387 0.043911 0.033815 -0.016029 0.024895 0.25488 -0.1222 0.1415 -0.19326 0.17989 0.10827 -0.048816 -0.05861 0.15688 -0.17176 0.033247 -0.43133 -0.097746 -0.090539 -0.29061 0.030563 -0.12385 -0.27582 
he 0.080245 -0.26059 -0.082699 -0.009924 0.28142 0.073085 -0.1666 -0.2368 0.18377 -0.22094 -0.013622 -0.29004 -0.2107 -0.21419 -0.0051595 -0.11508 0.13198 -0.097679 0.061925 0.21028 0.016066 0.21942 0.0997 -0.18798 -0.034975 -0.059368 0.020345 -0.1426 -0.20642 -0.062058 -0.19208 0.16996 -0.063549 -0.045536 -0.10155 -0.0036502 -0.20323 0.18958 0.1989 -0.17903 -0.19418 0.045612 0.34442 0.077105 0.2165 0.15361 0.15473 0.15317 -0.024024 0.26003 -0.1488 -0.032248 -0.22172 0.0032674 -0.027776 0.18908 0.0097913 -0.18602 0.16807 -0.16007 0.19662 -0.016125 0.33793 -0.06596 0.14598 0.1288 0.37007 -0.1117 0.025439 0.15171 0.1391 0.30003 -0.010251 -0.19308 -0.0021635 0.28075 0.17851 0.042764 -0.0021764 0.019641 -0.010055 0.030013 0.24498 -0.087006 0.16682 -0.17612 0.23995 0.17776 0.046613 -0.098224 0.18244 -0.19554 -0.016592 -0.46047 -0.106 -0.085119 -0.30349 0.024314 -0.12954 -0.2688 
for 0.081422 -0.28927 -0.080321 -0.0073506 0.27634 0.07455 -0.1649 -0.23098 0.18613 -0.26253 -0.015417 -0.30146 -0.22171 -0.22355 0.0019424 -0.12179 0.12135 -0.11634 0.063507 0.21287 0.016811 0.22042 0.093882 -0.18091 -0.048818 -0.05847 0.01619 -0.15079 -0.21265 -0.088734 -0.1991 0.17045 -0.06534 -0.040183 -0.094623 -0.014607 -0.19711 0.20778 0.2142 -0.17212 -0.20651 0.042592 0.3695 0.080178 0.20705 0.1705 0.15037 0.17494 -0.018651 0.26367 -0.15108 -0.055028 -0.22485 -0.006602 -0.02489 0.18619 0.011938 -0.18509 0.17647 -0.18634 0.1936 -0.016672 0.33221 -0.089704 0.1321 0.13063 0.37933 -0.11535 0.0145 0.16257 0.14249 0.32797 -0.017256 -0.18928 -0.0002445 0.28566 0.16963 0.047694 -0.0086989 0.0184 -0.0033344 0.032005 0.23762 -0.079473 0.16817 -0.16438 0.25946 0.1829 0.077969 -0.091993 0.19277 -0.21385 -0.028939 -0.47914 -0.11064 -0.078531 -0.31058 0.021625 -0.13365 -0.26837 
have 0.072929 -0.24772 -0.072295 -0.017683 0.27545 0.079706 -0.16385 -0.22065 0.17081 -0.21521 -0.024937 -0.28648 -0.20444 -0.19969 -0.0099129 -0.1198 0.12437 -0.088746 0.062392 0.19751 2.485e-05 0.2078 0.099692 -0.18372 -0.039293 -0.055781 0.0095034 -0.15204 -0.19618 -0.066219 -0.17913 0.16644 -0.062271 -0.047834 -0.10001 -0.0052553 -0.2099 0.18821 0.18857 -0.17155 -0.18632 0.048406 0.3307 0.066498 0.20535 0.14777 0.14405 0.14483 -0.036999 0.2628 -0.13921 -0.033013 -0.23036 0.0026198 -0.028854 0.1787 0.0049147 -0.17456 0.15673 -0.15514 0.19456 -0.020214 0.33123 -0.072421 0.1418 0.12464 0.34823 -0.10584 0.013052 0.14442 0.12782 0.297 -0.0068432 -0.19946 0.0031867 0.28181 0.17243 0.042868 0.012644 0.02966 -0.0059541 0.018881 0.24046 -0.08655 0.15974 -0.17815 0.23164 0.15759 0.029811 -0.078929 0.17789 -0.19409 -0.0050035 -0.46151 -0.10858 -0.082578 -0.30179 0.025175 -0.13342 -0.27159 
but 0.058112 -0.20606 -0.069937 -0.019234 0.26396 0.076302 -0.15941 -0.20671 0.15733 -0.16898 -0.026538 -0.2545 -0.1914 -0.16921 -0.032453 -0.10963 0.12369 -0.074664 0.056097 0.17928 -0.027858 0.19722 0.11187 -0.18796 -0.02548 -0.041705 0.013142 -0.14518 -0.1875 -0.034582 -0.17081 0.15542 -0.054274 -0.059509 -0.095763 -0.0029033 -0.21822 0.15978 0.16694 -0.17033 -0.16451 0.051387 0.29738 0.052651 0.20499 0.12452 0.13977 0.11474 -0.061495 0.2531 -0.13665 -0.0098661 -0.23619 0.020031 -0.030761 0.1649 0.0027976 -0.18009 0.13863 -0.13221 0.18407 -0.017614 0.33346 -0.049978 0.13814 0.10904 0.31513 -0.099963 0.0018711 0.12194 0.10771 0.27383 0.0063058 -0.19052 0.0050828 0.26816 0.17512 0.032879 0.030941 0.026873 -0.003477 0.021901 0.24594 -0.10341 0.14646 -0.18208 0.20097 0.13472 -0.0017535 -0.073491 0.16185 -0.1779 0.0045149 -0.44381 -0.10043 -0.082985 -0.28789 0.030758 -0.12365 -0.26958 
will 0.04961 -0.16369 -0.064974 -0.028255 0.26413 0.083249 -0.15319 -0.18651 0.14387 -0.12609 -0.035075 -0.23846 -0.16732 -0.14902 -0.044708 -0.11323 0.12844 -0.050628 0.048328 0.1621 -0.046753 0.18138 0.11813 -0.18457 -0.016526 -0.033162 0.0070183 -0.1557 -0.17403 -0.0033002 -0.1642 0.14691 -0.046261 -0.06005 -0.10281 0.0089666 -0.22164 0.13408 0.13894 -0.16996 -0.14115 0.051085 0.26193 0.043507 0.20188 0.10858 0.13211 0.077589 -0.08812 0.24745 -0.11905 -0.00063274 -0.23398 0.024792 -0.035088 0.14738 0.0024126 -0.16732 0.11461 -0.10147 0.17844 -0.024219 0.32743 -0.020856 0.13304 0.096529 0.28056 -0.086364 -0.0055863 0.10738 0.092602 0.24402 0.022661 -0.19289 0.0078092 0.26032 0.17062 0.028316 0.045636 0.032242 -0.01446 0.015233 0.24199 -0.11134 0.1361 -0.19267 0.17217 0.10905 -0.045116 -0.060041 0.14835 -0.16649 0.027272 -0.41685 -0.093196 -0.084181 -0.27929 0.030549 -0.12093 -0.26593 
The 0.050987 -0.16099 -0.069986 -0.02416 0.27042 0.076291 -0.15492 -0.19557 0.15019 -0.10466 -0.036369 -0.23784 -0.17976 -0.14969 -0.054403 -0.11466 0.13395 -0.04756 0.041305 0.16862 -0.042368 0.18984 0.1206 -0.19363 -0.011143 -0.033092 0.010341 -0.16574 -0.16292 0.0030373 -0.16941 0.14887 -0.044037 -0.055086 -0.10485 0.0016092 -0.23173 0.13098 0.13399 -0.17356 -0.14878 0.055079 0.2702 0.03976 0.21024 0.10622 0.14685 0.073286 -0.074971 0.25327 -0.13248 0.012628 -0.24158 0.039357 -0.042711 0.15142 0.0011753 -0.17206 0.11617 -0.090575 0.1871 -0.023093 0.33801 -0.018134 0.14739 0.10687 0.28922 -0.090185 0.00051493 0.10344 0.089402 0.24218 0.022831 -0.20829 0.0051245 0.26028 0.17573 0.027765 0.04727 0.030377 -0.013 0.019456 0.25988 -0.1127 0.14745 -0.19514 0.16959 0.097191 -0.056592 -0.06376 0.14585 -0.16268 0.033961 -0.42156 -0.098879 -0.08517 -0.2796 0.036279 -0.12094 -0.27798 
so 0.069138 -0.2387 -0.077403 -0.016274 0.27817 0.075359 -0.1577 -0.21796 0.17802 -0.1946 -0.021631 -0.27885 -0.20413 -0.19725 -0.016379 -0.11486 0.12424 -0.096479 0.056838 0.19695 -0.0152 0.20038 0.10377 -0.1861 -0.033045 -0.051695 0.012025 -0.15274 -0.19868 -0.051224 -0.18436 0.16698 -0.059341 -0.049466 -0.098228 -0.0010684 -0.21659 0.18181 0.18552 -0.17489 -0.18322 0.041292 0.32442 0.066197 0.20846 0.1486 0.14717 0.13941 -0.040385 0.26118 -0.14063 -0.023038 -0.23554 0.0024266 -0.028489 0.17543 0.0034385 -0.18457 0.15099 -0.14982 0.19343 -0.02003 0.3318 -0.06017 0.13948 0.1206 0.33823 -0.10657 0.011891 0.14403 0.12116 0.29297 -0.0038638 -0.19748 0.0020353 0.274 0.17372 0.043939 0.019235 0.030131 -0.007195 0.028611 0.2486 -0.093467 0.16021 -0.17963 0.21961 0.15191 0.026125 -0.081828 0.177 -0.19059 0.0013739 -0.45524 -0.10398 -0.080521 -0.30326 0.031689 -0.13617 -0.27892 
as 0.064003 -0.23074 -0.069047 -0.020128 0.27555 0.078444 -0.16535 -0.21925 0.16549 -0.18767 -0.032117 -0.27662 -0.19328 -0.18113 -0.023913 -0.11636 0.1305 -0.086508 0.056619 0.20994 -0.016785 0.20863 0.11445 -0.18879 -0.027076 -0.049898 0.013526 -0.14901 -0.19312 -0.036984 -0.18124 0.16302 -0.058353 -0.058341 -0.10407 0.0023649 -0.22143 0.1722 0.17695 -0.18324 -0.17798 0.047177 0.32218 0.059512 0.21581 0.13264 0.14376 0.12767 -0.05004 0.26611 -0.13588 -0.013536 -0.24151 0.019315 -0.029875 0.16875 0.0055488 -0.17603 0.1443 -0.13115 0.19396 -0.021997 0.34618 -0.05022 0.14626 0.11601 0.33508 -0.10771 0.0031312 0.14356 0.11433 0.28823 0.0012005 -0.2004 0.0024899 0.28759 0.1818 0.030357 0.024181 0.031102 -0.011591 0.027796 0.25378 -0.10016 0.15896 -0.18599 0.215 0.14894 0.0077748 -0.072455 0.17343 -0.19076 0.0043255 -0.45266 -0.10882 -0.08109 -0.30591 0.028662 -0.13721 -0.28751 
That 0.073034 -0.26167 -0.075295 -0.013858 0.2751 0.075086 -0.16256 -0.22969 0.17835 -0.22537 -0.022151 -0.29476 -0.21482 -0.20983 -0.0062245 -0.11795 0.1254 -0.10335 0.063247 0.21129 -0.0012063 0.21592 0.096326 -0.18688 -0.041495 -0.054356 0.013224 -0.14646 -0.1997 -0.068789 -0.18868 0.16371 -0.066011 -0.049458 -0.093333 -0.0098453 -0.20908 0.19253 0.19384 -0.1704 -0.19175 0.046437 0.34281 0.071802 0.21242 0.15664 0.14938 0.15624 -0.032339 0.25632 -0.14606 -0.032677 -0.2329 0.0034178 -0.028561 0.1905 0.0082728 -0.18262 0.1629 -0.1579 0.19519 -0.016625 0.33676 -0.077818 0.13922 0.12514 0.35915 -0.11401 0.016639 0.15049 0.13181 0.30465 -0.0062579 -0.19346 0.0005825 0.28438 0.17324 0.04629 0.0044823 0.015927 0.00023912 0.024223 0.24694 -0.086104 0.16506 -0.17431 0.23909 0.16606 0.050459 -0.094335 0.184 -0.20134 -0.013865 -0.46904 -0.10723 -0.076485 -0.3033 0.028538 -0.13504 -0.27205 
To 0.04554 -0.13477 -0.066582 -0.03108 0.27359 0.082474 -0.16171 -0.19457 0.1471 -0.081732 -0.041557 -0.23474 -0.16467 -0.12954 -0.066186 -0.10933 0.14149 -0.039606 0.041216 0.16399 -0.068837 0.18003 0.1285 -0.19974 -0.0025079 -0.028581 0.012723 -0.16586 -0.16603 0.02543 -0.16664 0.15416 -0.034531 -0.073265 -0.1183 0.0055093 -0.24784 0.1177 0.1279 -0.17699 -0.13342 0.058737 0.25989 0.036041 0.21612 0.10345 0.14427 0.047326 -0.093041 0.25721 -0.12459 0.026036 -0.25232 0.038511 -0.042483 0.14483 -0.0013151 -0.17233 0.106 -0.076987 0.1922 -0.02422 0.35342 -0.0024663 0.14735 0.095593 0.26476 -0.083015 -0.016399 0.095106 0.078014 0.23935 0.039128 -0.20938 0.011706 0.26346 0.18004 0.029741 0.071334 0.047003 -0.019667 0.018479 0.26597 -0.13105 0.13068 -0.21034 0.16115 0.083335 -0.085492 -0.052822 0.14163 -0.16089 0.046168 -0.42473 -0.091899 -0.081511 -0.28269 0.034847 -0.12941 -0.28737 
do 0.044771 -0.13219 -0.05644 -0.03228 0.26423 0.080801 -0.15757 -0.17705 0.13806 -0.090204 -0.04593 -0.23089 -0.15415 -0.12728 -0.072085 -0.10953 0.12867 -0.033906 0.041484 0.16169 -0.065565 0.17161 0.12734 -0.1894 -0.0074945 -0.029829 0.0059658 -0.16031 -0.16633 0.024033 -0.15888 0.14513 -0.036407 -0.070441 -0.10855 0.0094647 -0.23756 0.1164 0.12045 -0.1759 -0.13046 0.063998 0.24458 0.032761 0.2088 0.097545 0.13629 0.047629 -0.091051 0.25184 -0.12006 0.022258 -0.25241 0.044793 -0.043176 0.14064 -0.0095963 -0.17309 0.10343 -0.083979 0.18699 -0.030739 0.3504 -0.0029838 0.14669 0.095338 0.2611 -0.088157 -0.017673 0.091064 0.079282 0.23392 0.031004 -0.19961 0.012982 0.26084 0.18153 0.024004 0.059722 0.040018 -0.019112 0.02152 0.26311 -0.12936 0.13372 -0.20977 0.15098 0.086231 -0.082073 -0.042332 0.13794 -0.15849 0.042697 -0.4102 -0.099268 -0.091161 -0.28305 0.034013 -0.12657 -0.28164 
1 -0.036204 0.2365 -0.029492 -0.086154 0.29973 0.10839 -0.17454 -0.10834 0.027438 0.34693 -0.11288 -0.08732 -0.017881 0.099802 -0.26613 -0.097039 0.22289 0.1495 -0.029852 0.0059567 -0.29431 0.095332 0.23791 -0.25998 0.11067 0.037278 0.030741 -0.24942 -0.078479 0.32117 -0.12159 0.12027 0.025698 -0.16698 -0.20031 0.067705 -0.37949 -0.13316 -0.10619 -0.19963 0.048127 0.10512 -0.0034273 -0.072063 0.24564 -0.061509 0.10087 -0.25771 -0.33029 0.26245 -0.085019 0.21834 -0.33497 0.18567 -0.095059 0.073904 -0.036249 -0.18479 -0.099619 0.16606 0.20375 -0.072159 0.41948 0.21456 0.19811 0.011477 0.0075755 0.0085946 -0.088397 -0.070005 -0.057776 0.05396 0.18234 -0.25561 0.083568 0.23498 0.25814 -0.036314 0.27397 0.10565 -0.070682 -0.0060036 0.37867 -0.30421 0.064746 -0.32759 -0.075484 -0.13363 -0.51813 0.038159 0.011919 -0.060114 0.20258 -0.33697 -0.074379 -0.13228 -0.25833 0.065464 -0.092186 -0.33343 
on 0.077771 -0.27201 -0.07937 -0.015562 0.26736 0.079629 -0.1594 -0.22731 0.18788 -0.23965 -0.010917 -0.29385 -0.21645 -0.21383 -0.0020095 -0.11959 0.11948 -0.10947 0.06689 0.21464 0.0088868 0.20489 0.095434 -0.18335 -0.038816 -0.061769 0.0085447 -0.14526 -0.19664 -0.075522 -0.19464 0.16837 -0.064658 -0.035632 -0.090139 -0.0073717 -0.20623 0.20737 0.21 -0.17006 -0.19624 0.049387 0.34557 0.075962 0.20234 0.15713 0.15808 0.17244 -0.024791 0.26449 -0.14514 -0.040712 -0.22583 -0.00080797 -0.029093 0.18347 0.0029469 -0.17805 0.16186 -0.16796 0.18955 -0.022656 0.32441 -0.078819 0.13959 0.12527 0.36635 -0.10599 0.014089 0.15739 0.13429 0.30808 -0.012357 -0.18558 -0.0091931 0.28214 0.16784 0.048944 -0.001365 0.016783 -0.010083 0.030167 0.23684 -0.081305 0.16128 -0.16295 0.2447 0.18192 0.057338 -0.090016 0.17778 -0.19972 -0.015347 -0.45743 -0.1076 -0.073358 -0.30165 0.029461 -0.13328 -0.26314 
are 0.043716 -0.15102 -0.064792 -0.026795 0.27164 0.077963 -0.16021 -0.18927 0.14619 -0.11204 -0.038207 -0.23959 -0.16506 -0.13828 -0.043757 -0.11119 0.12897 -0.044257 0.039898 0.16077 -0.052082 0.18172 0.12507 -0.19204 -0.011049 -0.032729 0.011131 -0.15832 -0.17354 0.0026599 -0.1666 0.1492 -0.044933 -0.062642 -0.1037 0.0070842 -0.23516 0.13368 0.1358 -0.17381 -0.1373 0.059838 0.2677 0.038408 0.21416 0.10938 0.13389 0.069231 -0.092761 0.25189 -0.12185 0.0068607 -0.24723 0.036712 -0.030842 0.15001 0.0045821 -0.1708 0.10857 -0.10256 0.18198 -0.021501 0.33735 -0.02858 0.14036 0.10484 0.28052 -0.086113 -0.0077773 0.10318 0.085189 0.23919 0.025638 -0.19781 0.0091687 0.26746 0.1812 0.029252 0.056339 0.034821 -0.014277 0.016531 0.25184 -0.12013 0.1442 -0.19388 0.17349 0.096947 -0.057126 -0.057036 0.14959 -0.16162 0.033204 -0.4267 -0.10116 -0.093505 -0.28765 0.028524 -0.1271 -0.2767 
what 0.062705 -0.21272 -0.068114 -0.019665 0.26569 0.077845 -0.15826 -0.21228 0.15833 -0.18052 -0.028108 -0.27055 -0.19053 -0.17868 -0.022469 -0.11306 0.12722 -0.080065 0.053386 0.18357 -0.019505 0.19642 0.10334 -0.18031 -0.029929 -0.044173 0.016762 -0.14573 -0.19102 -0.038338 -0.17763 0.15751 -0.057716 -0.054704 -0.096429 -0.0033833 -0.21394 0.16926 0.16429 -0.16939 -0.16216 0.050449 0.29912 0.060631 0.20587 0.13144 0.13718 0.12165 -0.05565 0.24907 -0.13278 -0.018878 -0.23132 0.013011 -0.028451 0.17049 0.0032029 -0.17887 0.13974 -0.13337 0.18454 -0.014019 0.3292 -0.053291 0.1386 0.10981 0.31634 -0.098698 0.010277 0.12697 0.1112 0.27666 0.0048616 -0.18854 0.0061858 0.26715 0.17154 0.041586 0.0214 0.024869 -0.0099852 0.021507 0.23934 -0.096195 0.15386 -0.17686 0.20874 0.13744 0.0072768 -0.075831 0.16785 -0.1802 0.0043511 -0.44279 -0.10318 -0.083105 -0.28853 0.023258 -0.12883 -0.26665 
we 0.052923 -0.19549 -0.071148 -0.018552 0.27356 0.08528 -0.15862 -0.202 0.15256 -0.1582 -0.028951 -0.26124 -0.17818 -0.16976 -0.03085 -0.11915 0.13139 -0.068082 0.043037 0.17649 -0.031093 0.19555 0.12068 -0.19027 -0.015893 -0.038228 0.009335 -0.1554 -0.17982 -0.021815 -0.17105 0.16378 -0.050212 -0.054551 -0.10028 0.0010663 -0.22067 0.15785 0.15866 -0.17629 -0.15511 0.058354 0.29584 0.048472 0.21273 0.12211 0.13801 0.10375 -0.06269 0.26166 -0.12735 -0.0046028 -0.24648 0.01546 -0.029767 0.16872 0.0040973 -0.1758 0.12757 -0.11476 0.185 -0.020989 0.34889 -0.042313 0.14615 0.10972 0.31464 -0.099324 0.0015923 0.12012 0.10583 0.26152 0.010696 -0.19811 0.0059087 0.27301 0.16942 0.028141 0.030045 0.030213 -0.011952 0.016551 0.24759 -0.094808 0.14673 -0.18647 0.20088 0.12403 -0.028621 -0.06243 0.15795 -0.17692 0.013459 -0.44252 -0.10204 -0.083061 -0.29497 0.024343 -0.12505 -0.28064 
O -0.0038377 0.063958 -0.040363 -0.058331 0.25658 0.092707 -0.15352 -0.1228 0.08324 0.13571 -0.06866 -0.13798 -0.085786 0.00086248 -0.1654 -0.10149 0.1591 0.07363 0.0014187 0.081667 -0.17248 0.12009 0.17904 -0.21525 0.055845 0.013982 0.0081212 -0.19921 -0.10725 0.16436 -0.12648 0.11545 0.0017807 -0.11348 -0.13958 0.036657 -0.29454 -0.0008912 0.0047682 -0.17882 -0.049037 0.082805 0.10019 -0.029594 0.21729 0.0057914 0.11975 -0.11485 -0.20799 0.25281 -0.090953 0.11546 -0.28438 0.10793 -0.054881 0.086525 -0.018425 -0.15579 0.01033 0.049783 0.17514 -0.042231 0.36517 0.1057 0.16136 0.053854 0.12351 -0.035863 -0.040025 0.011151 0.0027943 0.12447 0.10032 -0.22124 0.041229 0.23804 0.20489 -0.0079587 0.16446 0.071999 -0.031182 0.0068013 0.3097 -0.1998 0.098349 -0.25076 0.026437 -0.047969 -0.30138 -0.0019099 0.071649 -0.1051 0.14274 -0.34178 -0.080065 -0.099284 -0.24165 0.057367 -0.10605 -0.30225 
/HORATIO -0.04751 0.22949 -0.034004 -0.085163 0.28949 0.11696 -0.17093 -0.098828 0.028676 0.32584 -0.11895 -0.087496 -0.025248 0.090646 -0.24994 -0.10105 0.19058 0.15971 -0.016356 0.0154 -0.28206 0.086231 0.23125 -0.2558 0.10038 0.050954 0.0099804 -0.23939 -0.077795 0.29914 -0.11269 0.12018 0.019854 -0.15355 -0.18102 0.052925 -0.37817 -0.11389 -0.097999 -0.21339 0.038379 0.10143 -0.014492 -0.082386 0.24302 -0.060986 0.091852 -0.24854 -0.31679 0.26085 -0.07289 0.20642 -0.34437 0.18137 -0.069534 0.057626 -0.030754 -0.17196 -0.072292 0.15358 0.18269 -0.051353 0.41862 0.19344 0.18324 0.01704 0.015878 -0.00012374 -0.087681 -0.063807 -0.059529 0.059553 0.16838 -0.26384 0.070129 0.23611 0.23852 -0.022975 0.255 0.099197 -0.053114 -0.0065649 0.36546 -0.277 0.084042 -0.32536 -0.069579 -0.15045 -0.5045 0.049033 0.031089 -0.057218 0.21355 -0.33785 -0.078574 -0.14243 -0.25965 0.077474 -0.10338 -0.33043 
HORATIO -0.044715 0.22004 -0.034364 -0.084618 0.28897 0.11748 -0.16985 -0.10248 0.03165 0.31635 -0.11756 -0.091733 -0.027728 0.083644 -0.2446 -0.10319 0.18928 0.15736 -0.015561 0.018762 -0.27825 0.0881 0.22943 -0.25526 0.098665 0.049712 0.0089653 -0.23731 -0.07931 0.29354 -0.11578 0.12193 0.019095 -0.15072 -0.18059 0.052582 -0.37555 -0.10936 -0.094995 -0.21359 0.034264 0.10173 -0.0077354 -0.080529 0.24268 -0.058447 0.093127 -0.2413 -0.31212 0.26084 -0.074085 0.20306 -0.34482 0.17808 -0.068362 0.058065 -0.029486 -0.17389 -0.069484 0.14873 0.18154 -0.050661 0.41705 0.18899 0.18102 0.019935 0.022089 -0.0010546 -0.085583 -0.06053 -0.055444 0.06627 0.16737 -0.26414 0.070153 0.23735 0.23836 -0.020888 0.25199 0.098513 -0.053431 -0.0075083 0.3637 -0.27443 0.086304 -0.32397 -0.063968 -0.14666 -0.49624 0.046309 0.035554 -0.059215 0.20977 -0.34077 -0.078888 -0.14364 -0.26238 0.078578 -0.10479 -0.33014 
shall 0.053027 -0.18119 -0.072016 -0.023195 0.27473 0.086574 -0.16133 -0.19032 0.15191 -0.13868 -0.034714 -0.2536 -0.17749 -0.16186 -0.044757 -0.11237 0.12935 -0.060222 0.051544 0.17336 -0.039101 0.18822 0.11564 -0.18944 -0.022767 -0.037716 0.0094962 -0.15514 -0.18168 -0.0078373 -0.16963 0.15685 -0.049476 -0.053657 -0.10639 0.0026417 -0.22775 0.14521 0.15058 -0.17154 -0.15585 0.052904 0.27954 0.043275 0.20813 0.11737 0.13664 0.091304 -0.075455 0.25388 -0.12838 -0.0014332 -0.23992 0.024406 -0.031937 0.15597 0.0031982 -0.1739 0.12524 -0.11359 0.18877 -0.023182 0.3371 -0.036007 0.14346 0.10474 0.30389 -0.096485 -0.0016948 0.11137 0.098021 0.26016 0.011366 -0.20035 0.0046783 0.26943 0.17678 0.035706 0.039531 0.03161 -0.017085 0.020827 0.25443 -0.11119 0.14447 -0.19425 0.18718 0.11944 -0.033373 -0.058686 0.15238 -0.17956 0.024849 -0.43415 -0.10112 -0.090609 -0.28968 0.028643 -0.12442 -0.2691 
But 0.065013 -0.21136 -0.068073 -0.017765 0.27466 0.080951 -0.16034 -0.21447 0.16291 -0.17466 -0.030714 -0.25772 -0.19363 -0.17567 -0.027356 -0.11686 0.12848 -0.076173 0.053702 0.1877 -0.02627 0.19544 0.11215 -0.19011 -0.024506 -0.040791 0.01159 -0.15022 -0.18702 -0.030974 -0.18006 0.16342 -0.051658 -0.055287 -0.099362 -0.0077677 -0.22406 0.16221 0.16491 -0.17044 -0.1664 0.051947 0.3061 0.055496 0.21276 0.12871 0.14346 0.11832 -0.053587 0.25411 -0.13602 -0.010002 -0.23798 0.018572 -0.027051 0.16993 0.0042071 -0.17817 0.13333 -0.13195 0.19679 -0.015737 0.33944 -0.045735 0.13868 0.1151 0.32109 -0.096266 0.007344 0.12447 0.11448 0.27637 0.0083526 -0.1966 0.0032157 0.27832 0.18186 0.036468 0.02953 0.029251 -0.0087598 0.025775 0.24851 -0.10164 0.1522 -0.18722 0.20425 0.1391 -0.0083542 -0.075577 0.16341 -0.17796 0.0094592 -0.44726 -0.10379 -0.080432 -0.29149 0.025668 -0.12963 -0.27737 
KING -0.04638 0.26065 -0.028984 -0.094059 0.28232 0.12024 -0.16182 -0.081274 0.037266 0.35809 -0.11798 -0.075514 -0.024917 0.10725 -0.26387 -0.1063 0.19154 0.17362 -0.026323 0.022562 -0.29481 0.086484 0.24678 -0.2685 0.10881 0.061892 0.0022767 -0.24969 -0.058217 0.32155 -0.10743 0.12316 0.02406 -0.15616 -0.18245 0.055494 -0.38366 -0.1198 -0.11135 -0.21667 0.042555 0.10524 -0.030554 -0.087682 0.24363 -0.068934 0.10209 -0.27888 -0.32737 0.2666 -0.065825 0.21978 -0.35016 0.18736 -0.078146 0.037381 -0.029529 -0.17211 -0.079206 0.17367 0.18502 -0.062339 0.42371 0.22639 0.19184 0.012873 0.0056786 -0.00043895 -0.085448 -0.074991 -0.068079 0.030706 0.17421 -0.27212 0.076292 0.23389 0.2465 -0.029289 0.27103 0.10478 -0.055129 -0.0019619 0.37475 -0.2867 0.073918 -0.33683 -0.083074 -0.17231 -0.53553 0.053512 0.0099531 -0.057613 0.23051 -0.31775 -0.076266 -0.13328 -0.24587 0.070702 -0.10148 -0.3415 
all 0.066398 -0.25839 -0.081068 -0.015989 0.27709 0.078893 -0.16571 -0.21925 0.17668 -0.21998 -0.021745 -0.2846 -0.20744 -0.21134 -0.0087461 -0.11959 0.12169 -0.097242 0.058448 0.20644 0.0031242 0.2099 0.098624 -0.18714 -0.044848 -0.050288 0.0093745 -0.14804 -0.20188 -0.061781 -0.18761 0.1665 -0.062701 -0.044102 -0.092016 -0.0046212 -0.21124 0.1903 0.19792 -0.17375 -0.19695 0.044408 0.33279 0.066085 0.20893 0.14498 0.14838 0.15267 -0.039264 0.25575 -0.13698 -0.032547 -0.2321 -2.6077e-06 -0.031067 0.18095 0.0010008 -0.18024 0.15933 -0.16211 0.18796 -0.015784 0.33707 -0.069056 0.14197 0.12065 0.35966 -0.11265 0.015478 0.14349 0.13028 0.29998 -0.012079 -0.19396 -0.0058686 0.28322 0.17282 0.047487 0.003838 0.019856 -0.0051391 0.023391 0.2417 -0.085093 0.15564 -0.17768 0.22817 0.16541 0.046893 -0.082949 0.1791 -0.2026 -0.0074662 -0.46298 -0.10829 -0.079189 -0.30079 0.027545 -0.13369 -0.27187 
our 0.076455 -0.27054 -0.078617 -0.010906 0.27751 0.084793 -0.16303 -0.23009 0.17759 -0.2438 -0.01956 -0.29163 -0.21038 -0.21194 -0.0025357 -0.12188 0.11998 -0.10199 0.063836 0.21808 0.0031252 0.21472 0.10507 -0.1922 -0.035327 -0.054816 0.0080007 -0.1422 -0.20269 -0.071417 -0.19383 0.1667 -0.057872 -0.045307 -0.088811 -0.0062071 -0.2092 0.19998 0.19855 -0.18114 -0.19502 0.052448 0.3476 0.071716 0.21993 0.15554 0.14544 0.16941 -0.037611 0.25654 -0.1431 -0.040882 -0.23639 -0.001579 -0.019942 0.18526 0.019226 -0.17861 0.16447 -0.16554 0.19335 -0.011393 0.33627 -0.082618 0.13746 0.13125 0.36696 -0.10607 0.014034 0.15883 0.1263 0.31379 -0.0064607 -0.19338 -0.0022632 0.28434 0.16728 0.050692 0.0027159 0.025705 -0.0078579 0.02521 0.24608 -0.077411 0.16748 -0.1712 0.24939 0.17466 0.048477 -0.093583 0.18265 -0.20387 -0.013928 -0.4726 -0.11299 -0.087813 -0.30871 0.025832 -0.13773 -0.28292 
't 0.031049 -0.09521 -0.0587 -0.040222 0.27857 0.094916 -0.16283 -0.17786 0.12546 -0.031314 -0.055465 -0.21382 -0.14373 -0.11151 -0.09316 -0.11634 0.14284 -0.012722 0.035719 0.14036 -0.097596 0.16824 0.1459 -0.21993 0.0059015 -0.022526 0.017758 -0.17226 -0.14939 0.054118 -0.16773 0.14575 -0.033794 -0.082951 -0.12238 0.010007 -0.2627 0.090783 0.094522 -0.184 -0.11467 0.064571 0.22609 0.01868 0.22202 0.085303 0.13577 0.024852 -0.13408 0.25291 -0.11362 0.048449 -0.26609 0.065156 -0.04393 0.13581 -0.0039225 -0.174 0.079235 -0.048238 0.18299 -0.02502 0.35733 0.017441 0.15357 0.08739 0.23542 -0.065168 -0.024914 0.071439 0.064246 0.21701 0.048994 -0.21628 0.017985 0.27206 0.19044 0.023031 0.084643 0.043325 -0.033199 0.018411 0.28491 -0.15029 0.12566 -0.22622 0.13098 0.061376 -0.1389 -0.04002 0.12107 -0.15296 0.064441 -0.41058 -0.1021 -0.099403 -0.27797 0.048072 -0.11485 -0.29319 
/KING -0.038018 0.20831 -0.033743 -0.081881 0.27908 0.11349 -0.16067 -0.096819 0.050079 0.29624 -0.10828 -0.097872 -0.042807 0.075642 -0.23584 -0.10516 0.18221 0.14503 -0.020196 0.042012 -0.26258 0.097478 0.22879 -0.25881 0.094613 0.048672 0.0044321 -0.24011 -0.072495 0.28254 -0.11515 0.12756 0.016132 -0.15037 -0.17281 0.050125 -0.36367 -0.091171 -0.080868 -0.20938 0.021552 0.10044 0.0045645 -0.070315 0.23847 -0.046346 0.1085 -0.23368 -0.29648 0.26309 -0.074418 0.19191 -0.33402 0.17103 -0.075539 0.054095 -0.025896 -0.17192 -0.056478 0.14209 0.18474 -0.054967 0.41037 0.19254 0.1867 0.021799 0.040963 -0.012142 -0.074201 -0.054983 -0.050329 0.057762 0.15881 -0.26012 0.067404 0.23564 0.23735 -0.021645 0.24344 0.10045 -0.048756 0.00094744 0.36137 -0.26775 0.081015 -0.31656 -0.052842 -0.13427 -0.47545 0.039401 0.029741 -0.069706 0.20581 -0.32899 -0.075159 -0.12738 -0.25059 0.065878 -0.10382 -0.33298 
by 0.052315 -0.17828 -0.073078 -0.022682 0.26589 0.08623 -0.15988 -0.20388 0.15422 -0.13732 -0.044223 -0.24942 -0.17814 -0.15734 -0.038026 -0.1157 0.13944 -0.066541 0.045977 0.18217 -0.036313 0.18819 0.11941 -0.20169 -0.012345 -0.030391 0.018695 -0.14846 -0.18048 -0.012135 -0.17427 0.16185 -0.048169 -0.060253 -0.10661 -0.0014123 -0.23926 0.14425 0.15574 -0.17332 -0.15286 0.051623 0.27907 0.048816 0.20766 0.11302 0.14213 0.086966 -0.074111 0.25301 -0.12966 -0.00049037 -0.24314 0.034505 -0.039698 0.15694 -0.0016015 -0.17973 0.12382 -0.11359 0.1862 -0.022384 0.34336 -0.027034 0.14374 0.11437 0.29527 -0.091474 -0.00016863 0.11748 0.10005 0.26303 0.020335 -0.20784 0.0025196 0.27606 0.17764 0.031878 0.04434 0.031194 -0.011249 0.019117 0.26371 -0.11397 0.14505 -0.18796 0.18776 0.12372 -0.03835 -0.065813 0.15528 -0.17228 0.024542 -0.43327 -0.10398 -0.083119 -0.28197 0.027727 -0.12477 -0.2755 
' 0.041078 -0.098025 -0.067888 -0.024437 0.27979 0.091648 -0.15063 -0.17501 0.12648 -0.052766 -0.046545 -0.21242 -0.16036 -0.119 -0.085566 -0.10317 0.14331 -0.03663 0.036573 0.14464 -0.082683 0.16925 0.14715 -0.21102 0.0094612 -0.010461 0.02323 -0.16485 -0.16685 0.05247 -0.152 0.15786 -0.025564 -0.090866 -0.11271 0.00026635 -0.2554 0.095803 0.11535 -0.17612 -0.11413 0.062795 0.2426 0.031797 0.21403 0.086998 0.14409 0.028097 -0.12088 0.25743 -0.13586 0.055175 -0.25495 0.068644 -0.055227 0.11966 -0.006244 -0.17893 0.093557 -0.047038 0.19144 -0.044194 0.34973 -0.001751 0.14395 0.086381 0.23521 -0.086157 -0.022166 0.091816 0.067693 0.22981 0.044733 -0.22513 0.036219 0.27187 0.1947 0.017208 0.091384 0.046454 -0.032897 0.034302 0.28374 -0.15782 0.12935 -0.20474 0.15413 0.069836 -0.13042 -0.049787 0.12116 -0.14555 0.055469 -0.41347 -0.095863 -0.09218 -0.27741 0.034468 -0.10091 -0.28011 
Hamlet -0.011875 0.11576 -0.038333 -0.073309 0.28625 0.10388 -0.15986 -0.13416 0.089475 0.19457 -0.093745 -0.14626 -0.093326 0.013545 -0.19179 -0.11336 0.17583 0.087576 -0.0087597 0.091748 -0.20899 0.12131 0.20928 -0.25403 0.069364 0.032777 0.0087602 -0.23072 -0.096695 0.21214 -0.13908 0.14389 0.0017 -0.13351 -0.15904 0.03753 -0.33403 -0.026914 -0.017481 -0.20227 -0.038793 0.087955 0.087184 -0.037692 0.23456 -0.00077386 0.13824 -0.15284 -0.23972 0.27428 -0.09472 0.14985 -0.31845 0.13617 -0.075729 0.077552 -0.021891 -0.17774 -0.014095 0.077563 0.19378 -0.049621 0.40703 0.15425 0.1879 0.048024 0.11244 -0.035891 -0.050578 -0.0063875 -0.0052908 0.10699 0.12252 -0.25816 0.044651 0.24927 0.22793 -0.0099825 0.19423 0.090377 -0.039895 0.0063465 0.3513 -0.23767 0.098716 -0.29637 0.011025 -0.069953 -0.36721 0.010464 0.057078 -0.10163 0.17216 -0.35532 -0.080775 -0.11039 -0.26204 0.059737 -0.11746 -0.33079 
no 0.059656 -0.19758 -0.068162 -0.021454 0.27488 0.087589 -0.16257 -0.21242 0.15669 -0.16523 -0.038851 -0.26107 -0.19133 -0.17287 -0.037833 -0.12001 0.1369 -0.0706 0.050981 0.18449 -0.040369 0.19917 0.1128 -0.19156 -0.024529 -0.040678 0.011032 -0.1617 -0.18892 -0.019361 -0.17878 0.15766 -0.054552 -0.06718 -0.10164 0.00021143 -0.22983 0.15795 0.17299 -0.16564 -0.17035 0.050296 0.29824 0.057329 0.21815 0.12873 0.14648 0.10467 -0.072709 0.25868 -0.13753 -0.0006078 -0.24246 0.026488 -0.030101 0.16504 0.002797 -0.18514 0.13132 -0.11756 0.18907 -0.015972 0.34829 -0.046567 0.13884 0.11093 0.31848 -0.10076 -0.0052843 0.12656 0.11173 0.28207 0.015788 -0.20791 0.016726 0.28359 0.18836 0.036237 0.033758 0.02969 -0.010987 0.018271 0.25746 -0.10807 0.15731 -0.19274 0.20397 0.12885 -0.019673 -0.074427 0.15334 -0.1815 0.010257 -0.45091 -0.10293 -0.092884 -0.28973 0.031438 -0.1218 -0.27939 
What 0.01976 -0.036982 -0.049116 -0.045581 0.26016 0.089673 -0.14962 -0.15966 0.10194 0.01601 -0.056843 -0.18525 -0.11653 -0.070307 -0.10411 -0.10091 0.14282 0.012881 0.025936 0.11258 -0.11863 0.14657 0.14652 -0.20282 0.021753 -0.0098482 0.014216 -0.17419 -0.13353 0.088283 -0.14279 0.13391 -0.02625 -0.089777 -0.12383 0.017221 -0.26186 0.056083 0.058251 -0.17506 -0.084255 0.070165 0.17221 0.0052973 0.20635 0.054395 0.11484 -0.023989 -0.15138 0.23843 -0.10333 0.065008 -0.2572 0.07552 -0.04415 0.11664 -0.0073138 -0.16185 0.052418 -0.016386 0.17556 -0.029956 0.33939 0.044205 0.14615 0.070356 0.18736 -0.055716 -0.024213 0.049337 0.042693 0.17716 0.064329 -0.20865 0.030711 0.23853 0.18735 0.014814 0.10939 0.050126 -0.026555 0.011499 0.27413 -0.1582 0.11589 -0.21972 0.094234 0.024981 -0.18514 -0.023232 0.10252 -0.12587 0.07891 -0.37311 -0.086958 -0.095538 -0.25658 0.042172 -0.11128 -0.2731 
more 0.067778 -0.23432 -0.072877 -0.018078 0.27847 0.074399 -0.16428 -0.22547 0.16916 -0.19929 -0.020122 -0.2831 -0.20398 -0.19287 -0.013092 -0.12265 0.12773 -0.091616 0.057754 0.20012 -0.011047 0.21144 0.10953 -0.19225 -0.032076 -0.049033 0.016573 -0.15448 -0.19841 -0.056722 -0.18262 0.16534 -0.064517 -0.049638 -0.095453 -0.0035248 -0.2212 0.18248 0.17992 -0.17266 -0.18238 0.051327 0.32908 0.066894 0.21688 0.14424 0.15081 0.14124 -0.044231 0.25748 -0.14479 -0.029436 -0.23569 0.0067523 -0.028789 0.18149 0.010124 -0.18025 0.14654 -0.14349 0.19637 -0.017442 0.33835 -0.065059 0.14736 0.12343 0.34625 -0.10654 0.0086811 0.14199 0.12053 0.28901 0.0028472 -0.19912 0.005001 0.28433 0.17889 0.041781 0.015887 0.027552 -0.0056184 0.019928 0.24767 -0.089388 0.1599 -0.18251 0.22881 0.1534 0.024297 -0.084723 0.17383 -0.19419 0.0025386 -0.46628 -0.10637 -0.081687 -0.30188 0.030556 -0.13369 -0.27623 
thou 0.064809 -0.23318 -0.068944 -0.013841 0.26443 0.077228 -0.1554 -0.21367 0.1682 -0.20172 -0.024604 -0.27306 -0.19951 -0.18769 -0.015615 -0.11339 0.12325 -0.08618 0.06162 0.19338 -0.0098376 0.20267 0.10684 -0.17726 -0.031132 -0.045462 0.018002 -0.15301 -0.19538 -0.051011 -0.17914 0.1628 -0.055532 -0.053606 -0.090692 -0.0023811 -0.19928 0.17846 0.18024 -0.16647 -0.17675 0.046192 0.32046 0.060602 0.19369 0.14702 0.13849 0.136 -0.046085 0.25324 -0.13412 -0.028754 -0.21866 0.008004 -0.035406 0.16417 0.002113 -0.16686 0.14747 -0.14918 0.18316 -0.019877 0.3196 -0.05763 0.13127 0.11954 0.33211 -0.10011 0.0028512 0.13913 0.12001 0.28641 -0.002067 -0.1864 0.0079688 0.27594 0.1658 0.032424 0.016982 0.027205 -0.0041869 0.017232 0.23929 -0.097693 0.14723 -0.17457 0.22302 0.15159 0.030399 -0.077239 0.16581 -0.1882 -0.0086508 -0.43966 -0.10586 -0.075365 -0.28221 0.028141 -0.12508 -0.26682 
from 0.043726 -0.13725 -0.066433 -0.031084 0.27191 0.079925 -0.15866 -0.19195 0.14465 -0.09097 -0.045191 -0.23708 -0.16443 -0.13724 -0.061495 -0.11077 0.14009 -0.041958 0.040344 0.1685 -0.061545 0.18357 0.12834 -0.19949 -0.0042585 -0.025552 0.014462 -0.16562 -0.16525 0.016976 -0.17181 0.15588 -0.041525 -0.076415 -0.11688 0.0067563 -0.24408 0.11766 0.12479 -0.17603 -0.1319 0.061171 0.25122 0.032797 0.21405 0.10033 0.1398 0.054031 -0.090803 0.25584 -0.13007 0.023716 -0.24651 0.042498 -0.039185 0.14385 -0.0021832 -0.17401 0.099105 -0.08339 0.19086 -0.028362 0.34949 -0.001918 0.14918 0.092464 0.27527 -0.078218 -0.0068288 0.10092 0.084349 0.24141 0.029121 -0.20687 0.01476 0.26388 0.19031 0.029029 0.063223 0.041097 -0.018191 0.021555 0.26779 -0.12966 0.13857 -0.20677 0.15729 0.090512 -0.080585 -0.055514 0.14283 -0.16313 0.051697 -0.41929 -0.094626 -0.086891 -0.28159 0.037426 -0.12855 -0.28725 
POLONIUS -0.040378 0.21267 -0.032142 -0.088301 0.2989 0.12009 -0.17163 -0.1001 0.038596 0.30899 -0.11727 -0.10651 -0.026475 0.078821 -0.24972 -0.10738 0.18645 0.15515 -0.011685 0.030606 -0.2847 0.096385 0.23465 -0.26794 0.096188 0.042428 0.0088282 -0.24028 -0.077262 0.28893 -0.12066 0.12051 0.014936 -0.15226 -0.17916 0.054532 -0.37873 -0.099051 -0.087679 -0.22451 0.026848 0.1133 0.0052994 -0.079195 0.24928 -0.057134 0.096781 -0.23898 -0.31961 0.27528 -0.075935 0.20012 -0.3543 0.17899 -0.073379 0.054482 -0.025232 -0.17433 -0.048401 0.14935 0.19258 -0.053118 0.42658 0.18512 0.19161 0.031564 0.034421 -0.012403 -0.075634 -0.056366 -0.0566 0.067997 0.15749 -0.27581 0.067953 0.25043 0.2483 -0.01869 0.25029 0.096935 -0.059414 0.0052371 0.3738 -0.26973 0.09098 -0.33548 -0.057902 -0.14355 -0.4998 0.051532 0.036942 -0.068537 0.20459 -0.34721 -0.08183 -0.14692 -0.27192 0.075859 -0.109 -0.33969 
/POLONIUS -0.037409 0.19696 -0.032136 -0.083069 0.28403 0.11509 -0.16504 -0.097952 0.039137 0.28676 -0.11082 -0.10328 -0.026692 0.073662 -0.2336 -0.10299 0.17808 0.14469 -0.010825 0.02996 -0.26734 0.093266 0.22133 -0.25399 0.089567 0.039871 0.0088391 -0.22745 -0.075991 0.27043 -0.11541 0.11554 0.014186 -0.14298 -0.17001 0.049454 -0.35769 -0.089961 -0.080104 -0.21105 0.022238 0.10696 0.0081922 -0.073079 0.23708 -0.05292 0.094008 -0.22262 -0.30109 0.26136 -0.070807 0.18774 -0.33536 0.16889 -0.069788 0.053599 -0.023823 -0.16706 -0.045667 0.13784 0.18418 -0.050573 0.40498 0.17443 0.18284 0.030302 0.036939 -0.011597 -0.071269 -0.051504 -0.052336 0.065558 0.14742 -0.26063 0.064039 0.23787 0.23674 -0.018141 0.23673 0.090666 -0.055411 0.0050277 0.35411 -0.25406 0.086833 -0.31748 -0.050597 -0.1328 -0.46904 0.045914 0.036515 -0.067398 0.19253 -0.33055 -0.078759 -0.13893 -0.25908 0.070782 -0.10467 -0.32191 
her 0.06834 -0.18309 -0.067503 -0.024665 0.25847 0.081662 -0.15008 -0.2104 0.1663 -0.139 -0.037359 -0.26181 -0.19183 -0.17378 -0.038375 -0.11188 0.13828 -0.068437 0.055649 0.19635 -0.025136 0.18845 0.11879 -0.18644 -0.019457 -0.030258 0.011345 -0.16114 -0.17599 -0.020319 -0.17618 0.16845 -0.049086 -0.06917 -0.10481 0.00085491 -0.20911 0.15287 0.15638 -0.16416 -0.16646 0.051234 0.28416 0.062899 0.20476 0.13757 0.16404 0.10618 -0.053578 0.25334 -0.13938 0.0046065 -0.22614 0.019454 -0.042997 0.16152 -0.0024833 -0.17615 0.12519 -0.11108 0.18481 -0.021772 0.34189 -0.015494 0.15365 0.10117 0.32388 -0.10059 0.0060449 0.11952 0.11021 0.25303 0.011379 -0.19741 0.0072353 0.2631 0.17793 0.025889 0.034358 0.032379 -0.014379 0.018823 0.25386 -0.10578 0.14002 -0.18665 0.19132 0.13162 -0.0048848 -0.074015 0.14741 -0.17552 0.028742 -0.4223 -0.091993 -0.06633 -0.26519 0.024172 -0.12263 -0.27044 
or 0.069716 -0.2439 -0.078802 -0.016655 0.28588 0.079847 -0.17347 -0.2193 0.17525 -0.20281 -0.025649 -0.28065 -0.21022 -0.20291 -0.027095 -0.12071 0.12751 -0.094169 0.057923 0.20822 -0.0069462 0.21158 0.11064 -0.19404 -0.028684 -0.046513 0.024663 -0.15297 -0.1959 -0.051495 -0.18949 0.17425 -0.057746 -0.056369 -0.1026 -0.0079225 -0.2173 0.17905 0.19018 -0.17536 -0.18764 0.045578 0.33559 0.07106 0.22116 0.14878 0.15367 0.14113 -0.043683 0.25961 -0.14917 -0.014572 -0.24012 0.013044 -0.03642 0.1764 0.0067998 -0.19299 0.15134 -0.14798 0.20001 -0.021208 0.35036 -0.068413 0.14083 0.12645 0.34413 -0.10634 0.0025092 0.14593 0.11556 0.30142 -0.0070828 -0.20294 0.0091517 0.28595 0.17432 0.03637 0.012585 0.027012 -0.010378 0.028147 0.25233 -0.10149 0.16667 -0.18948 0.23203 0.15289 0.022738 -0.08342 0.17298 -0.19673 0.0023101 -0.47044 -0.10633 -0.085239 -0.29658 0.03148 -0.12889 -0.27875 
was 0.052927 -0.17522 -0.065229 -0.028597 0.27429 0.085085 -0.16506 -0.20484 0.15729 -0.13013 -0.037974 -0.25838 -0.17934 -0.15956 -0.047665 -0.11576 0.14216 -0.058861 0.044986 0.18411 -0.040983 0.19182 0.12217 -0.19096 -0.016918 -0.040606 0.015388 -0.16128 -0.18437 -0.0059971 -0.1768 0.16192 -0.045844 -0.066243 -0.11276 0.004283 -0.23581 0.14195 0.14433 -0.18105 -0.14708 0.059417 0.28532 0.04454 0.21228 0.12164 0.14289 0.087251 -0.076592 0.25619 -0.13635 0.01267 -0.24399 0.02854 -0.037537 0.16055 0.0019229 -0.18123 0.11842 -0.10116 0.19039 -0.030312 0.35155 -0.028059 0.14786 0.10839 0.29865 -0.095061 -0.00445 0.11867 0.10036 0.25938 0.016855 -0.20317 0.011775 0.27331 0.18687 0.033303 0.043217 0.037361 -0.017433 0.019999 0.26328 -0.11768 0.14347 -0.19622 0.18317 0.11525 -0.04401 -0.067065 0.15752 -0.17578 0.028622 -0.44087 -0.10104 -0.085742 -0.29227 0.036341 -0.13025 -0.28354 
they 0.075132 -0.24737 -0.076653 -0.014242 0.26699 0.070679 -0.15963 -0.22749 0.17949 -0.21524 -0.017673 -0.28236 -0.21364 -0.20282 -0.003099 -0.11439 0.12339 -0.097441 0.058509 0.20119 -0.002123 0.20349 0.10719 -0.18181 -0.040516 -0.046601 0.012897 -0.1511 -0.19738 -0.064369 -0.18377 0.1701 -0.06297 -0.041902 -0.093963 -0.0059792 -0.20385 0.19217 0.19828 -0.16689 -0.18691 0.046654 0.33997 0.073464 0.20257 0.15302 0.14976 0.14921 -0.032057 0.26672 -0.13893 -0.035815 -0.22555 0.00047562 -0.031703 0.17657 0.0022835 -0.17679 0.15367 -0.15778 0.19012 -0.016845 0.3273 -0.075515 0.13783 0.12731 0.34994 -0.11162 0.010745 0.1479 0.12846 0.30093 -0.0075434 -0.19278 -0.0030158 0.28032 0.16798 0.043719 0.0082907 0.027392 -0.0034431 0.021318 0.23741 -0.093394 0.15836 -0.17128 0.23724 0.1611 0.049862 -0.081811 0.1738 -0.18967 -0.012951 -0.45689 -0.11207 -0.075465 -0.29488 0.02393 -0.13005 -0.27401 
thy 0.063058 -0.21403 -0.067584 -0.021704 0.27909 0.078738 -0.1681 -0.21713 0.16223 -0.18109 -0.028014 -0.27432 -0.20626 -0.17999 -0.030647 -0.12255 0.13944 -0.074237 0.057703 0.19265 -0.023093 0.19876 0.12013 -0.1902 -0.027653 -0.04075 0.0077105 -0.15629 -0.19703 -0.030726 -0.18486 0.15954 -0.059275 -0.060365 -0.1012 -0.004703 -0.22386 0.1681 0.17382 -0.16973 -0.17682 0.05183 0.31422 0.056354 0.20992 0.13689 0.14394 0.11925 -0.063039 0.26288 -0.13101 -0.012564 -0.24162 0.010304 -0.032707 0.17154 0.0018303 -0.17946 0.13895 -0.13011 0.19575 -0.023994 0.33992 -0.049223 0.14206 0.12013 0.32667 -0.1052 0.0017416 0.12978 0.11254 0.2832 0.013036 -0.20357 0.0077596 0.28744 0.18307 0.02738 0.027418 0.026828 -0.0094887 0.01473 0.2571 -0.10789 0.15096 -0.19135 0.21464 0.14052 -0.0016124 -0.080961 0.16442 -0.18922 0.0043007 -0.45035 -0.10775 -0.081011 -0.29733 0.036041 -0.12774 -0.28175 
QUEEN -0.042696 0.22137 -0.02883 -0.08626 0.2765 0.11458 -0.15982 -0.089301 0.033169 0.31045 -0.10825 -0.086672 -0.028957 0.083576 -0.24182 -0.10253 0.18346 0.15966 -0.015187 0.026056 -0.27087 0.09155 0.22662 -0.25367 0.095903 0.047484 0.0013555 -0.23886 -0.068888 0.28939 -0.10827 0.11237 0.017709 -0.15182 -0.17147 0.052622 -0.36815 -0.10143 -0.091173 -0.2126 0.031473 0.10793 -0.0095968 -0.079403 0.23892 -0.06065 0.094627 -0.24273 -0.30622 0.25678 -0.067515 0.20455 -0.33323 0.17387 -0.071472 0.053903 -0.026512 -0.16659 -0.057185 0.15555 0.17341 -0.049751 0.40248 0.18863 0.18153 0.018546 0.027229 -0.0082337 -0.082419 -0.059612 -0.056031 0.055319 0.15828 -0.25944 0.064825 0.22675 0.23368 -0.022968 0.24566 0.095966 -0.058081 -0.0029419 0.35574 -0.26398 0.076313 -0.31623 -0.062473 -0.14303 -0.48534 0.049632 0.02624 -0.063063 0.20311 -0.32809 -0.07531 -0.13955 -0.24539 0.076272 -0.10518 -0.32353 
'll 0.039836 -0.14957 -0.064963 -0.027735 0.26843 0.08637 -0.14968 -0.18224 0.13673 -0.10809 -0.038897 -0.2392 -0.15895 -0.13945 -0.053742 -0.10942 0.1285 -0.042833 0.043699 0.16295 -0.0529 0.17367 0.12285 -0.18871 -0.013178 -0.030081 0.010207 -0.15251 -0.17246 0.013977 -0.16103 0.15072 -0.037376 -0.064451 -0.10574 0.0076328 -0.22538 0.11976 0.12715 -0.1698 -0.13461 0.057566 0.25136 0.032881 0.20561 0.1085 0.13206 0.066906 -0.093658 0.24639 -0.11844 0.008425 -0.24098 0.041403 -0.039535 0.14344 -0.0030322 -0.16798 0.10426 -0.094527 0.17406 -0.027021 0.33863 -0.018618 0.14104 0.098621 0.27666 -0.087161 -0.0063391 0.10223 0.077862 0.24133 0.027112 -0.19421 0.011977 0.2625 0.18071 0.028217 0.056149 0.039262 -0.017431 0.013599 0.25669 -0.11623 0.13432 -0.19669 0.167 0.099844 -0.063228 -0.05351 0.14705 -0.15697 0.037372 -0.41722 -0.09635 -0.090553 -0.28172 0.028786 -0.12472 -0.26499 
A -0.0088121 0.14578 -0.036453 -0.079286 0.27527 0.095721 -0.16521 -0.12942 0.076605 0.24134 -0.097184 -0.14135 -0.082535 0.028328 -0.20541 -0.10703 0.18964 0.090942 -0.010995 0.07896 -0.22018 0.12341 0.21304 -0.25409 0.088461 0.038175 0.014629 -0.23604 -0.093291 0.23509 -0.14204 0.14333 0.015445 -0.15007 -0.17292 0.039057 -0.34142 -0.055725 -0.039278 -0.19026 -0.014956 0.097027 0.072374 -0.042796 0.24929 -0.011466 0.15164 -0.18492 -0.24257 0.27055 -0.087739 0.17882 -0.33044 0.14532 -0.094364 0.080093 -0.016269 -0.19071 -0.043331 0.096665 0.21037 -0.058573 0.40766 0.17339 0.20836 0.033748 0.099775 -0.030243 -0.062545 -0.012293 -0.021023 0.076363 0.14146 -0.25231 0.049304 0.24278 0.2435 -0.013057 0.2206 0.096874 -0.036841 -0.0040347 0.36217 -0.23778 0.091664 -0.29583 -6.0358e-05 -0.08569 -0.38523 0.0094286 0.037843 -0.084775 0.18214 -0.34927 -0.079013 -0.099469 -0.25353 0.050227 -0.11224 -0.33387 
come 0.037626 -0.12179 -0.066256 -0.029677 0.26196 0.078207 -0.15219 -0.17594 0.13271 -0.07789 -0.03722 -0.22496 -0.15646 -0.12024 -0.066924 -0.11154 0.12632 -0.0294 0.0334 0.15067 -0.065201 0.16767 0.13574 -0.18896 -0.0043043 -0.018997 0.0088368 -0.16024 -0.15407 0.027485 -0.15685 0.1442 -0.035992 -0.064097 -0.10884 0.0088477 -0.23516 0.11347 0.11263 -0.17552 -0.12913 0.059113 0.239 0.028712 0.20642 0.091976 0.13251 0.048501 -0.10414 0.24988 -0.11794 0.021954 -0.24504 0.043561 -0.037078 0.1331 0.00028535 -0.16676 0.092787 -0.081079 0.17616 -0.022919 0.33742 -0.003242 0.14051 0.090978 0.25562 -0.080026 -0.012828 0.08514 0.078893 0.22395 0.033562 -0.1992 0.012475 0.25494 0.17957 0.02469 0.062936 0.038195 -0.017565 0.014964 0.25535 -0.12903 0.13432 -0.20364 0.15003 0.070757 -0.088676 -0.045279 0.13016 -0.1529 0.051749 -0.40028 -0.091484 -0.091277 -0.27155 0.037819 -0.1197 -0.27096 
good 0.031134 -0.096619 -0.057186 -0.041381 0.25564 0.082637 -0.15284 -0.17015 0.11953 -0.049133 -0.053599 -0.2161 -0.14196 -0.10849 -0.072422 -0.1098 0.13661 -0.013772 0.032843 0.14112 -0.08216 0.1627 0.1317 -0.19648 -0.00086593 -0.015361 0.011165 -0.16202 -0.1541 0.040868 -0.15513 0.14182 -0.033454 -0.076584 -0.11336 0.014031 -0.2421 0.090652 0.097086 -0.1756 -0.11107 0.060594 0.21891 0.023496 0.20672 0.081495 0.12712 0.031348 -0.11617 0.24218 -0.11445 0.040622 -0.24796 0.054975 -0.041511 0.12798 -0.0035982 -0.16591 0.085089 -0.055485 0.1832 -0.024316 0.34038 0.010709 0.14161 0.082141 0.23529 -0.073312 -0.013504 0.079508 0.065709 0.20999 0.038551 -0.20481 0.015088 0.25564 0.18873 0.025269 0.079273 0.043096 -0.014858 0.01521 0.2612 -0.13 0.12592 -0.20455 0.12903 0.062086 -0.12153 -0.041463 0.12451 -0.14424 0.057058 -0.38897 -0.091746 -0.092623 -0.26846 0.041781 -0.11355 -0.27138 
at 0.065695 -0.22917 -0.075448 -0.017572 0.27355 0.073962 -0.16058 -0.21766 0.16627 -0.19029 -0.030417 -0.27766 -0.20086 -0.19496 -0.022749 -0.11709 0.13045 -0.08593 0.06071 0.198 -0.012922 0.20858 0.10715 -0.19169 -0.026956 -0.052485 0.01534 -0.15506 -0.19662 -0.046411 -0.18069 0.15965 -0.060622 -0.056075 -0.10139 -0.0067166 -0.2208 0.17512 0.17752 -0.17022 -0.17857 0.045635 0.31533 0.05908 0.2062 0.14292 0.14867 0.12963 -0.053297 0.25671 -0.13967 -0.020917 -0.23471 0.015687 -0.033952 0.17544 0.0058522 -0.17924 0.14616 -0.13755 0.19536 -0.016929 0.34179 -0.056957 0.14165 0.11313 0.33318 -0.10592 0.012659 0.13935 0.11865 0.28238 -0.0017803 -0.20077 0.0091543 0.28304 0.17031 0.040699 0.0202 0.024722 -0.003032 0.018185 0.24777 -0.097895 0.15429 -0.18441 0.21451 0.14621 0.016691 -0.07516 0.16997 -0.18683 0.0067882 -0.4564 -0.10467 -0.079753 -0.29884 0.02864 -0.13583 -0.27155 
them 0.083896 -0.27349 -0.075033 -0.016467 0.27614 0.071297 -0.16003 -0.23313 0.18933 -0.24439 -0.015241 -0.29934 -0.22549 -0.21876 0.0046846 -0.11678 0.12231 -0.10667 0.065913 0.21742 0.010283 0.21501 0.10389 -0.1813 -0.048416 -0.050884 0.012419 -0.15336 -0.21006 -0.078336 -0.19417 0.17477 -0.066273 -0.04255 -0.091304 -0.0072274 -0.20257 0.2087 0.21361 -0.17184 -0.20464 0.048335 0.36449 0.083183 0.20775 0.1669 0.15667 0.16108 -0.021418 0.2705 -0.14934 -0.049145 -0.22131 -0.0072282 -0.03432 0.1856 0.0059366 -0.18127 0.17059 -0.17796 0.19537 -0.022013 0.33458 -0.082482 0.14205 0.13387 0.37439 -0.12137 0.012192 0.15493 0.14099 0.31242 -0.014323 -0.19254 -0.0019546 0.28861 0.16949 0.047085 -0.0032099 0.023045 -0.0027973 0.023738 0.24025 -0.087174 0.16571 -0.1694 0.2576 0.17924 0.072412 -0.082862 0.18262 -0.20183 -0.020121 -0.46813 -0.11863 -0.076893 -0.30194 0.020828 -0.13312 -0.27527 
now 0.033763 -0.12297 -0.055695 -0.032231 0.26101 0.08747 -0.15914 -0.17532 0.13319 -0.078089 -0.048041 -0.22249 -0.15364 -0.11878 -0.064769 -0.11071 0.1296 -0.034371 0.035067 0.15271 -0.065607 0.16572 0.12957 -0.19189 -0.0089316 -0.02025 0.007058 -0.16102 -0.16012 0.03267 -0.15259 0.14251 -0.039941 -0.06855 -0.10868 0.0054744 -0.24118 0.11281 0.11174 -0.16917 -0.12705 0.056451 0.23425 0.0306 0.20444 0.092842 0.13049 0.046025 -0.10018 0.24721 -0.11552 0.025687 -0.2484 0.041772 -0.028353 0.13493 -0.0027972 -0.16402 0.096037 -0.076183 0.16947 -0.023096 0.34271 -0.0056382 0.14214 0.087394 0.25567 -0.081983 -0.011907 0.088611 0.071598 0.22658 0.032374 -0.19911 0.017268 0.256 0.17988 0.023924 0.068653 0.040598 -0.019328 0.019374 0.25108 -0.11906 0.13091 -0.2031 0.1503 0.080157 -0.088898 -0.049297 0.12891 -0.15117 0.042068 -0.39952 -0.096715 -0.087402 -0.26852 0.038608 -0.11842 -0.27247 
My -0.0051047 0.049812 -0.045608 -0.060416 0.26171 0.095461 -0.15563 -0.1355 0.080975 0.116 -0.082917 -0.15709 -0.08522 -0.026272 -0.14983 -0.10192 0.15211 0.060849 0.01008 0.089096 -0.1685 0.12564 0.17608 -0.21561 0.042807 0.015045 0.016227 -0.19533 -0.1145 0.15412 -0.13318 0.13274 -0.0080748 -0.11227 -0.13997 0.023501 -0.29007 0.0048657 0.013757 -0.18663 -0.049623 0.077078 0.11585 -0.026247 0.21908 0.023366 0.10854 -0.093535 -0.20059 0.25628 -0.094742 0.11309 -0.28656 0.10372 -0.054163 0.086006 -0.016493 -0.16085 0.011078 0.036554 0.18157 -0.034764 0.37443 0.082724 0.15567 0.054762 0.14309 -0.045176 -0.046665 0.011042 0.010618 0.14034 0.096059 -0.23149 0.043641 0.24137 0.20525 -0.0030599 0.16029 0.065212 -0.034833 0.0085802 0.30577 -0.18902 0.10938 -0.26455 0.046024 -0.033634 -0.28313 0.0028074 0.078384 -0.10722 0.12369 -0.35615 -0.077931 -0.10566 -0.26056 0.053211 -0.11258 -0.29271 
know 0.043518 -0.15218 -0.062234 -0.030714 0.27152 0.084521 -0.16462 -0.19121 0.14468 -0.10978 -0.043273 -0.24264 -0.16748 -0.14148 -0.055674 -0.11972 0.13569 -0.044375 0.040578 0.17021 -0.056881 0.18029 0.1262 -0.19782 -0.012805 -0.026522 0.01026 -0.15867 -0.17414 0.011352 -0.16619 0.15486 -0.043234 -0.070449 -0.11052 0.0068496 -0.24162 0.12738 0.13159 -0.17977 -0.13986 0.058281 0.26216 0.036811 0.21328 0.10355 0.1377 0.066765 -0.092996 0.25368 -0.12443 0.013357 -0.25382 0.035497 -0.033027 0.14638 0.00010668 -0.17145 0.10937 -0.094994 0.17995 -0.022891 0.34895 -0.023549 0.14637 0.10309 0.28116 -0.089506 -0.0046162 0.10118 0.085207 0.24833 0.025206 -0.2056 0.011568 0.26821 0.18336 0.033503 0.057083 0.040315 -0.017406 0.022254 0.25988 -0.1165 0.14413 -0.20411 0.1732 0.096868 -0.069618 -0.053968 0.14782 -0.1659 0.036564 -0.42613 -0.10486 -0.089125 -0.28579 0.039443 -0.12412 -0.27666 
As 0.053062 -0.1814 -0.065293 -0.023541 0.27642 0.083687 -0.16522 -0.20322 0.15158 -0.13188 -0.034964 -0.25151 -0.17854 -0.15374 -0.048433 -0.11191 0.13163 -0.055583 0.045668 0.17796 -0.050755 0.19103 0.12328 -0.19553 -0.020809 -0.043821 0.010143 -0.16214 -0.1835 -0.0012913 -0.17124 0.16152 -0.050408 -0.065272 -0.11059 0.0068793 -0.22936 0.13944 0.14901 -0.17827 -0.15013 0.058502 0.28112 0.048256 0.21106 0.1137 0.14619 0.078777 -0.078784 0.26459 -0.12766 0.0089792 -0.24881 0.035525 -0.040805 0.15588 0.004171 -0.18257 0.12231 -0.10995 0.19756 -0.029263 0.34596 -0.027949 0.15025 0.10728 0.30115 -0.087175 -0.0027695 0.11045 0.10311 0.25459 0.017384 -0.20114 0.014993 0.27544 0.17684 0.028386 0.048899 0.038873 -0.010883 0.018776 0.26003 -0.11418 0.14277 -0.20268 0.17972 0.11037 -0.044803 -0.064589 0.15045 -0.17872 0.033184 -0.4329 -0.10426 -0.083798 -0.29826 0.028981 -0.12914 -0.28025 
like 0.070098 -0.23596 -0.074053 -0.015753 0.27815 0.076216 -0.16619 -0.22278 0.17317 -0.20249 -0.021625 -0.27853 -0.20816 -0.19541 -0.018807 -0.11724 0.13302 -0.0914 0.058436 0.20384 -0.0093051 0.21375 0.11329 -0.19188 -0.02897 -0.048736 0.01561 -0.15371 -0.19965 -0.050381 -0.18965 0.16911 -0.05507 -0.051563 -0.10364 -0.0057546 -0.22359 0.18104 0.18331 -0.17009 -0.17713 0.047832 0.32757 0.06551 0.21202 0.13855 0.15459 0.136 -0.048741 0.25902 -0.14212 -0.02 -0.23311 0.0099656 -0.033029 0.17764 0.0044728 -0.18463 0.15074 -0.14333 0.19774 -0.024909 0.34581 -0.058057 0.14256 0.12357 0.34816 -0.10755 0.0083295 0.14411 0.11916 0.2951 0.00096557 -0.20171 0.0024242 0.28229 0.17693 0.039301 0.020976 0.02583 -0.0078699 0.027704 0.25157 -0.10039 0.16043 -0.18523 0.21889 0.15539 0.023255 -0.085589 0.1749 -0.19148 0.0037062 -0.4546 -0.1063 -0.07887 -0.30058 0.029076 -0.13562 -0.28147 
us 0.054632 -0.16115 -0.067555 -0.037325 0.2767 0.086508 -0.15907 -0.20174 0.16031 -0.11678 -0.037252 -0.25213 -0.18468 -0.15092 -0.055096 -0.11616 0.14551 -0.049384 0.046616 0.18084 -0.050021 0.18774 0.1276 -0.20389 -0.002932 -0.038986 0.012965 -0.16822 -0.16868 0.0091344 -0.18093 0.16465 -0.040888 -0.067108 -0.10936 0.0078878 -0.2341 0.14009 0.13961 -0.18328 -0.15456 0.055967 0.26674 0.041053 0.22211 0.11465 0.1567 0.072087 -0.079639 0.25804 -0.1236 0.012517 -0.24804 0.035052 -0.038834 0.15566 0.00060109 -0.17327 0.11197 -0.10664 0.18686 -0.022935 0.34754 -0.0086795 0.15921 0.10962 0.29623 -0.092536 -0.0021468 0.11317 0.099187 0.25158 0.020854 -0.21246 0.011886 0.26796 0.18013 0.02574 0.055081 0.041453 -0.0089695 0.014034 0.26422 -0.11822 0.14307 -0.20176 0.17923 0.10736 -0.063742 -0.061436 0.14628 -0.17634 0.037075 -0.43815 -0.098687 -0.086596 -0.27954 0.035547 -0.12223 -0.28792 
king 0.042897 -0.13458 -0.060828 -0.031157 0.26616 0.083327 -0.15846 -0.18618 0.14812 -0.085241 -0.040501 -0.23492 -0.16911 -0.13103 -0.0645 -0.11364 0.14077 -0.042846 0.032403 0.16588 -0.063182 0.17797 0.12776 -0.19846 -0.00067948 -0.018247 0.012148 -0.16403 -0.15988 0.023299 -0.16563 0.15141 -0.03773 -0.068046 -0.11528 0.0086058 -0.2386 0.12037 0.11939 -0.17694 -0.13913 0.062592 0.25151 0.031462 0.21369 0.093838 0.14192 0.052009 -0.092254 0.25663 -0.12231 0.029235 -0.25126 0.045284 -0.044736 0.14199 0.00024827 -0.17165 0.097022 -0.083827 0.18937 -0.029478 0.34609 -0.0024133 0.15527 0.09703 0.26803 -0.082799 -0.0046699 0.097118 0.082061 0.23206 0.033459 -0.20556 0.011308 0.25906 0.18494 0.023677 0.064708 0.038174 -0.016897 0.01801 0.26351 -0.12836 0.1363 -0.20377 0.1545 0.088865 -0.088791 -0.058084 0.1325 -0.16027 0.04748 -0.41448 -0.095345 -0.085999 -0.27469 0.032574 -0.12706 -0.27616 
most 0.055701 -0.18449 -0.069654 -0.027615 0.26719 0.081629 -0.15974 -0.20424 0.15588 -0.14076 -0.037282 -0.25799 -0.18053 -0.15967 -0.040917 -0.12144 0.13125 -0.067845 0.047302 0.18044 -0.039415 0.18868 0.11844 -0.20117 -0.02027 -0.03178 0.0089667 -0.16382 -0.1794 -0.0075561 -0.17402 0.15162 -0.051023 -0.055012 -0.10441 0.00062645 -0.23095 0.14972 0.15068 -0.17379 -0.157 0.05429 0.28426 0.051017 0.20853 0.11957 0.14127 0.096223 -0.075704 0.25148 -0.12872 0.00039873 -0.24354 0.025599 -0.033121 0.16129 0.0029509 -0.17312 0.12312 -0.10989 0.18367 -0.019531 0.33818 -0.030418 0.14322 0.10801 0.30233 -0.095997 0.0007165 0.11568 0.10362 0.25989 0.019818 -0.20238 0.0028439 0.27426 0.18048 0.031824 0.041707 0.034078 -0.015377 0.021342 0.25811 -0.10724 0.1466 -0.19446 0.18209 0.12153 -0.027709 -0.069741 0.15544 -0.17518 0.025707 -0.42902 -0.099317 -0.084944 -0.28462 0.033597 -0.12969 -0.27902 
father 0.060225 -0.17454 -0.065247 -0.030602 0.27079 0.080524 -0.15596 -0.21117 0.15909 -0.13039 -0.042123 -0.25673 -0.19051 -0.16115 -0.045077 -0.11847 0.13928 -0.065234 0.049697 0.19003 -0.039483 0.18848 0.12218 -0.19824 -0.018505 -0.033673 0.012015 -0.1649 -0.17738 -0.0060347 -0.17522 0.16484 -0.047989 -0.067929 -0.10971 0.0028389 -0.22626 0.1476 0.15039 -0.16872 -0.16287 0.054916 0.28408 0.054278 0.21312 0.12544 0.15571 0.093238 -0.070411 0.26031 -0.13706 0.011218 -0.24104 0.024496 -0.040984 0.16131 -0.00063582 -0.18073 0.12035 -0.10521 0.19624 -0.023451 0.34728 -0.019567 0.1544 0.10389 0.3086 -0.097584 -0.0014401 0.1153 0.1009 0.25537 0.020144 -0.20963 0.0075101 0.2738 0.18594 0.026493 0.047363 0.037947 -0.0087385 0.016706 0.25829 -0.11307 0.14391 -0.19614 0.18584 0.1204 -0.030884 -0.066581 0.14265 -0.17298 0.030017 -0.42985 -0.096542 -0.074063 -0.28215 0.0313 -0.12806 -0.2811 
/QUEEN -0.042559 0.22349 -0.030726 -0.087095 0.2807 0.11439 -0.16117 -0.090451 0.03747 0.31526 -0.10761 -0.087968 -0.03213 0.087211 -0.24603 -0.10181 0.18402 0.15958 -0.018255 0.027444 -0.27156 0.093993 0.22708 -0.25533 0.10066 0.050598 0.0049319 -0.24343 -0.068252 0.2932 -0.11054 0.11624 0.016799 -0.15197 -0.17425 0.05408 -0.37183 -0.10156 -0.091901 -0.21052 0.027951 0.10791 -0.008534 -0.078823 0.24192 -0.060027 0.099616 -0.24403 -0.30729 0.26052 -0.068627 0.20567 -0.33582 0.17522 -0.073019 0.054189 -0.028744 -0.16511 -0.060547 0.15564 0.17875 -0.050533 0.40816 0.19573 0.18641 0.020261 0.028864 -0.0078341 -0.07966 -0.059064 -0.054649 0.052221 0.16207 -0.26004 0.063876 0.22853 0.23583 -0.020635 0.24864 0.097439 -0.057621 -0.0036157 0.36207 -0.26972 0.07648 -0.31837 -0.064043 -0.14447 -0.48951 0.050547 0.025766 -0.062952 0.20909 -0.32896 -0.074924 -0.13598 -0.24842 0.071804 -0.10406 -0.32776 
would 0.067328 -0.23305 -0.073618 -0.016709 0.28882 0.083274 -0.16916 -0.21817 0.17146 -0.19589 -0.028247 -0.2793 -0.2033 -0.19443 -0.025144 -0.11477 0.13277 -0.084172 0.057985 0.1965 -0.020009 0.20308 0.11297 -0.19196 -0.029502 -0.05014 0.0097492 -0.15897 -0.20161 -0.043408 -0.18093 0.16981 -0.055356 -0.058183 -0.10768 -0.0049169 -0.22725 0.17735 0.18631 -0.18079 -0.17606 0.050868 0.3258 0.060477 0.21742 0.13982 0.14269 0.12915 -0.056925 0.27126 -0.14447 -0.01984 -0.24595 0.011989 -0.031291 0.17896 0.0022051 -0.1847 0.15352 -0.14362 0.19816 -0.023951 0.35019 -0.065338 0.14471 0.11648 0.3422 -0.10628 0.009283 0.14238 0.11493 0.2997 0.0033004 -0.20567 0.0052758 0.2882 0.1842 0.0441 0.022176 0.026594 -0.0096629 0.021715 0.25895 -0.10215 0.16111 -0.19063 0.22397 0.15193 0.0089937 -0.083711 0.181 -0.19585 0.0040393 -0.47152 -0.10914 -0.085326 -0.30725 0.032745 -0.13646 -0.28622 
if 0.042883 -0.14047 -0.064094 -0.030468 0.27378 0.08653 -0.15377 -0.18165 0.14419 -0.093864 -0.036579 -0.2335 -0.161 -0.13637 -0.064557 -0.10951 0.12921 -0.039773 0.043658 0.16048 -0.057367 0.17636 0.13167 -0.1899 -0.0059425 -0.027028 0.005364 -0.16208 -0.17342 0.017935 -0.16871 0.15742 -0.04375 -0.072191 -0.11336 0.0092675 -0.24009 0.12105 0.12948 -0.17633 -0.13394 0.054432 0.24697 0.039153 0.21454 0.10409 0.13508 0.057491 -0.09862 0.25985 -0.12775 0.024565 -0.25124 0.03589 -0.037921 0.14084 0.0010995 -0.16964 0.10156 -0.088162 0.17756 -0.024046 0.34305 -0.0035206 0.14607 0.094994 0.26765 -0.085692 -0.0086559 0.099834 0.084601 0.23638 0.025189 -0.19832 0.013699 0.26352 0.18145 0.026496 0.062369 0.040826 -0.015925 0.01712 0.26124 -0.12647 0.13127 -0.1982 0.16262 0.095833 -0.076409 -0.050779 0.14674 -0.16184 0.038642 -0.41949 -0.094504 -0.09001 -0.28334 0.039273 -0.12117 -0.27702 
there 0.073817 -0.22934 -0.07046 -0.014097 0.27578 0.073249 -0.1573 -0.22363 0.17326 -0.1938 -0.027464 -0.27756 -0.20583 -0.18975 -0.013816 -0.11675 0.12989 -0.093581 0.053371 0.19591 -0.0093126 0.20367 0.10992 -0.18186 -0.032369 -0.044207 0.017844 -0.15313 -0.194 -0.051795 -0.18254 0.16645 -0.060657 -0.053194 -0.095073 -0.0012413 -0.20484 0.18015 0.18261 -0.16401 -0.18175 0.051337 0.32595 0.070253 0.21172 0.14512 0.15178 0.13317 -0.040202 0.25675 -0.14583 -0.021017 -0.2285 0.01017 -0.035151 0.18176 0.0062988 -0.17711 0.14316 -0.14567 0.19052 -0.023274 0.33153 -0.062714 0.14622 0.12122 0.34053 -0.11237 0.0073155 0.1358 0.11723 0.28463 0.0041128 -0.19273 -0.00036023 0.28127 0.17307 0.035211 0.014271 0.026244 -0.0048257 0.020223 0.23913 -0.093132 0.1526 -0.17663 0.2253 0.15429 0.030764 -0.078249 0.16478 -0.18191 -0.0036439 -0.45179 -0.11066 -0.074793 -0.2883 0.022496 -0.12605 -0.26948 
let 0.047643 -0.15965 -0.066974 -0.026383 0.26418 0.082225 -0.15432 -0.19165 0.15111 -0.1163 -0.034248 -0.24823 -0.17615 -0.14632 -0.054789 -0.11137 0.12854 -0.045443 0.042469 0.17003 -0.046639 0.18569 0.1254 -0.19217 -0.016275 -0.02886 0.0037024 -0.16335 -0.16615 0.0049327 -0.17472 0.14929 -0.046216 -0.060709 -0.10502 0.00066506 -0.22505 0.12706 0.13626 -0.17108 -0.14424 0.055367 0.26851 0.046152 0.20422 0.10956 0.1384 0.074693 -0.080417 0.25853 -0.12309 0.0085941 -0.24446 0.036418 -0.037143 0.14389 -0.0012166 -0.16444 0.11213 -0.09782 0.18757 -0.022925 0.33803 -0.014461 0.14513 0.10136 0.28353 -0.086942 -0.00021375 0.10637 0.090379 0.24372 0.020842 -0.19938 0.0050381 0.26417 0.17584 0.030397 0.045531 0.040281 -0.015481 0.023521 0.25322 -0.11845 0.14084 -0.1931 0.17516 0.10105 -0.059036 -0.057353 0.14473 -0.16588 0.032743 -0.4185 -0.094798 -0.087393 -0.27862 0.031322 -0.12594 -0.2717 
love 0.053355 -0.17673 -0.06908 -0.026055 0.27648 0.087021 -0.16513 -0.2039 0.14962 -0.13971 -0.03459 -0.25662 -0.17989 -0.15813 -0.043417 -0.11287 0.136 -0.054776 0.050162 0.17666 -0.044603 0.19068 0.12474 -0.19675 -0.019857 -0.042193 0.013599 -0.15932 -0.18427 -0.0083065 -0.17383 0.15631 -0.048581 -0.068163 -0.10518 0.0034894 -0.23497 0.14535 0.14671 -0.18247 -0.1503 0.055179 0.28274 0.047887 0.20827 0.11921 0.13857 0.090273 -0.081726 0.25305 -0.12871 0.0069385 -0.24846 0.027986 -0.034914 0.16109 0.0041028 -0.1764 0.1227 -0.11173 0.19588 -0.017361 0.34099 -0.030742 0.14604 0.10757 0.29736 -0.091643 -0.003519 0.11458 0.099378 0.26457 0.018275 -0.20176 0.012861 0.27415 0.18329 0.036969 0.042973 0.033087 -0.013287 0.020088 0.26205 -0.11458 0.14781 -0.20116 0.19061 0.1157 -0.046398 -0.061574 0.15703 -0.17486 0.030025 -0.44568 -0.10384 -0.088783 -0.29338 0.03806 -0.13285 -0.28075 
For 0.03861 -0.13081 -0.059524 -0.032348 0.2638 0.080861 -0.1598 -0.18078 0.13568 -0.087085 -0.046744 -0.22643 -0.1586 -0.12702 -0.071599 -0.11209 0.13795 -0.03434 0.039824 0.1618 -0.06289 0.17453 0.1305 -0.19382 -0.0012564 -0.026215 0.01394 -0.16614 -0.16039 0.023537 -0.16082 0.15611 -0.035872 -0.075456 -0.11318 0.0043303 -0.23696 0.11695 0.11839 -0.17341 -0.13485 0.052234 0.24717 0.034853 0.20435 0.10128 0.13643 0.052086 -0.089189 0.25333 -0.12303 0.032182 -0.24889 0.046252 -0.0434 0.14394 -0.0010712 -0.17151 0.10025 -0.078937 0.18276 -0.029312 0.34649 -0.0078299 0.14504 0.095664 0.26062 -0.076519 -0.0099749 0.099178 0.082027 0.23249 0.031953 -0.19783 0.014326 0.2565 0.1826 0.026773 0.066899 0.041939 -0.018383 0.019009 0.26339 -0.12846 0.13262 -0.19748 0.16091 0.085748 -0.084251 -0.052831 0.13819 -0.15505 0.044471 -0.41236 -0.098346 -0.088675 -0.27694 0.033416 -0.11889 -0.28038 
sir 0.0080292 -0.0071418 -0.048211 -0.0484 0.26005 0.08816 -0.15099 -0.14293 0.091857 0.056813 -0.065607 -0.1658 -0.10204 -0.049162 -0.122 -0.099228 0.14539 0.0263 0.011785 0.1011 -0.13279 0.14003 0.15717 -0.20757 0.02868 -0.0031239 0.011365 -0.1795 -0.12446 0.11185 -0.13365 0.13227 -0.018565 -0.089103 -0.12898 0.019363 -0.27883 0.029586 0.038717 -0.17729 -0.065787 0.069292 0.14222 -0.0071452 0.21061 0.040461 0.11353 -0.045103 -0.16756 0.23749 -0.097889 0.080492 -0.26885 0.084835 -0.047023 0.10406 -0.016921 -0.16203 0.039431 -0.0010589 0.17191 -0.03528 0.34407 0.058098 0.15053 0.061051 0.16494 -0.050643 -0.041755 0.034324 0.031957 0.15947 0.077703 -0.20923 0.035082 0.23653 0.19014 0.011846 0.12759 0.055309 -0.028147 0.0083605 0.27569 -0.17344 0.11094 -0.23042 0.071899 -0.002727 -0.22099 -0.015507 0.094368 -0.11717 0.10101 -0.36305 -0.090069 -0.10041 -0.25383 0.052574 -0.10527 -0.27852 
well 0.037431 -0.12211 -0.065163 -0.033956 0.27506 0.088674 -0.15699 -0.17373 0.12956 -0.07286 -0.042654 -0.22451 -0.14454 -0.11868 -0.069409 -0.1059 0.13791 -0.02872 0.03789 0.14583 -0.074556 0.1749 0.13296 -0.1995 -0.00044506 -0.023112 0.0093379 -0.15933 -0.16703 0.035424 -0.15568 0.14476 -0.037918 -0.067318 -0.11627 0.011889 -0.24628 0.10576 0.11329 -0.1801 -0.11531 0.060432 0.23431 0.028733 0.20901 0.085431 0.12128 0.043609 -0.11359 0.2493 -0.11427 0.028151 -0.25303 0.048171 -0.035665 0.13657 -0.0030184 -0.17328 0.096246 -0.074731 0.17672 -0.025298 0.3471 -0.010077 0.14602 0.094064 0.25302 -0.081555 -0.010965 0.089901 0.066799 0.23201 0.036868 -0.20334 0.022244 0.2616 0.18876 0.025684 0.067964 0.040207 -0.022373 0.017658 0.26394 -0.12975 0.13392 -0.20826 0.14735 0.079742 -0.10559 -0.044231 0.14016 -0.15563 0.049067 -0.41726 -0.099327 -0.10134 -0.28119 0.032837 -0.12014 -0.27571 
LAERTES -0.026462 0.14886 -0.034009 -0.071016 0.26308 0.10431 -0.15512 -0.10526 0.046981 0.22658 -0.092933 -0.10662 -0.050043 0.042763 -0.20318 -0.099732 0.16347 0.11879 -0.0036568 0.045025 -0.22765 0.099949 0.19532 -0.23431 0.0736 0.028774 0.0076067 -0.21457 -0.080944 0.22998 -0.11288 0.11743 0.0053981 -0.12575 -0.15211 0.036432 -0.3278 -0.063638 -0.046586 -0.19549 0.0016074 0.092897 0.032801 -0.055712 0.21544 -0.028945 0.094332 -0.17745 -0.25479 0.24532 -0.070239 0.15754 -0.30428 0.14396 -0.065522 0.067727 -0.019468 -0.15878 -0.03112 0.10324 0.17208 -0.039527 0.37072 0.14921 0.16207 0.030722 0.061914 -0.013838 -0.066146 -0.033714 -0.029807 0.084689 0.12803 -0.23621 0.052659 0.22651 0.21488 -0.016062 0.20496 0.086436 -0.044656 0.0018897 0.32106 -0.22952 0.08546 -0.2816 -0.02322 -0.10116 -0.39336 0.025472 0.038867 -0.073724 0.16625 -0.32337 -0.077326 -0.12128 -0.24056 0.066336 -0.097496 -0.30368 
/LAERTES -0.024739 0.14441 -0.033772 -0.068997 0.26529 0.10653 -0.1558 -0.10839 0.049892 0.22234 -0.093331 -0.1107 -0.053471 0.04046 -0.20133 -0.098575 0.16687 0.11534 -0.0037289 0.048462 -0.22442 0.10218 0.19461 -0.23699 0.074092 0.02932 0.0090706 -0.21423 -0.082908 0.22735 -0.115 0.11912 0.0041256 -0.12608 -0.15095 0.037098 -0.32858 -0.060618 -0.04447 -0.19561 -0.0037445 0.092371 0.040038 -0.053855 0.21702 -0.025643 0.097993 -0.1754 -0.25382 0.2479 -0.071862 0.15581 -0.30669 0.14258 -0.064176 0.068489 -0.021504 -0.16098 -0.028455 0.10049 0.17353 -0.041407 0.37385 0.14645 0.16385 0.031627 0.06826 -0.015347 -0.065415 -0.028579 -0.027757 0.088113 0.12772 -0.2373 0.05341 0.22763 0.21671 -0.01592 0.20238 0.086192 -0.044478 0.0032695 0.32322 -0.23036 0.088031 -0.28151 -0.019935 -0.097464 -0.38964 0.02575 0.041621 -0.077121 0.16579 -0.32716 -0.077982 -0.12056 -0.24417 0.063721 -0.10036 -0.30674 
Enter -0.049487 0.30365 -0.026831 -0.11332 0.32116 0.11769 -0.18078 -0.10217 0.066922 0.41405 -0.12897 -0.089324 -0.043234 0.11976 -0.30134 -0.12131 0.22756 0.1814 -0.041612 0.051011 -0.32473 0.1028 0.28211 -0.30818 0.13273 0.077813 0.0098929 -0.30343 -0.055253 0.36618 -0.13609 0.15714 0.038526 -0.19378 -0.21596 0.056809 -0.42921 -0.13503 -0.12152 -0.2321 0.028108 0.1229 -0.015375 -0.094349 0.27703 -0.069808 0.15786 -0.3216 -0.35152 0.31849 -0.08348 0.26272 -0.39656 0.21604 -0.11328 0.041791 -0.03968 -0.20044 -0.10409 0.19565 0.22418 -0.077951 0.5004 0.28444 0.23997 0.019288 0.02674 -0.0063951 -0.086207 -0.081688 -0.061675 0.017858 0.19911 -0.3191 0.072866 0.26434 0.2816 -0.037794 0.31541 0.13281 -0.055285 -0.0015346 0.44101 -0.33041 0.08696 -0.38556 -0.087125 -0.18925 -0.59787 0.052088 0.00066733 -0.071924 0.28241 -0.34785 -0.076215 -0.13138 -0.26975 0.076087 -0.11729 -0.40274 
may 0.060149 -0.21333 -0.069706 -0.020097 0.2791 0.081919 -0.16439 -0.20823 0.16225 -0.17394 -0.036018 -0.26804 -0.18411 -0.1754 -0.029147 -0.11972 0.13193 -0.072827 0.052317 0.18344 -0.031097 0.19807 0.11218 -0.19164 -0.024608 -0.050897 0.0083144 -0.1478 -0.18804 -0.03203 -0.17523 0.16011 -0.052043 -0.05744 -0.1022 -0.0031388 -0.22282 0.16602 0.16899 -0.17149 -0.17225 0.049002 0.3018 0.054684 0.21239 0.13329 0.14353 0.11652 -0.065149 0.25364 -0.13487 -0.014689 -0.23578 0.02221 -0.028473 0.16211 0.0071704 -0.17812 0.1398 -0.12618 0.18913 -0.022976 0.33675 -0.05197 0.14006 0.11205 0.32036 -0.10058 0.005099 0.12983 0.10746 0.27793 0.0047808 -0.19542 0.0074665 0.2727 0.18072 0.034813 0.02452 0.031483 -0.0090543 0.023882 0.24459 -0.10594 0.14784 -0.18537 0.20379 0.14216 -0.0026458 -0.075964 0.16985 -0.18431 0.0046352 -0.44801 -0.10591 -0.088005 -0.2912 0.029459 -0.12309 -0.27163 
can 0.054376 -0.18244 -0.060569 -0.029861 0.28016 0.081815 -0.16671 -0.20592 0.15831 -0.1391 -0.037261 -0.25268 -0.17628 -0.16223 -0.042646 -0.11588 0.13331 -0.057023 0.048389 0.17314 -0.041496 0.19559 0.12023 -0.1954 -0.019802 -0.037365 0.0066805 -0.16482 -0.18191 -0.013499 -0.17465 0.15923 -0.051698 -0.064482 -0.10668 0.0024699 -0.23184 0.14855 0.15226 -0.17651 -0.15464 0.05501 0.29088 0.044483 0.21228 0.11516 0.13723 0.093181 -0.075447 0.26232 -0.13546 -0.00077069 -0.24337 0.027482 -0.035441 0.15665 -0.00033958 -0.18164 0.13154 -0.11239 0.18941 -0.023814 0.34114 -0.034021 0.14654 0.10836 0.30426 -0.097606 -0.0053737 0.12142 0.10135 0.26639 0.0099907 -0.20661 0.010936 0.26925 0.18268 0.032323 0.046003 0.03327 -0.012431 0.022671 0.25429 -0.11501 0.15118 -0.195 0.19018 0.11922 -0.032318 -0.064062 0.15583 -0.17671 0.01613 -0.44334 -0.10391 -0.093018 -0.29279 0.031408 -0.12626 -0.27992 
thee 0.070235 -0.22733 -0.070271 -0.01707 0.26747 0.074825 -0.15717 -0.2164 0.17225 -0.19476 -0.024319 -0.27339 -0.20677 -0.19019 -0.015137 -0.11391 0.12534 -0.086577 0.05831 0.19436 -0.012531 0.19751 0.1092 -0.18075 -0.032414 -0.044661 0.013434 -0.15178 -0.19179 -0.048939 -0.18304 0.1657 -0.057521 -0.050781 -0.095287 -0.0029207 -0.20559 0.1782 0.18407 -0.16547 -0.17829 0.049531 0.32312 0.068062 0.20345 0.14538 0.14577 0.13395 -0.040741 0.26077 -0.13652 -0.024678 -0.22704 0.0077147 -0.032183 0.17156 0.0027597 -0.17267 0.15152 -0.14219 0.18435 -0.019067 0.32848 -0.06047 0.13769 0.1228 0.3365 -0.10648 0.0051991 0.13708 0.11908 0.2867 -0.00016964 -0.1906 0.0027409 0.27587 0.17054 0.036833 0.021206 0.028206 -0.0046019 0.018194 0.23839 -0.096512 0.15332 -0.17705 0.22021 0.15157 0.02429 -0.076805 0.16273 -0.18581 -0.00048272 -0.44263 -0.11191 -0.077191 -0.28851 0.026343 -0.124 -0.27196 
