932 100
< -0.080861 0.36461 -0.15534 -0.043159 0.32118 0.29906 0.15028 -0.030384 0.13014 0.44627 -0.12977 -0.01933 -0.19462 0.088247 -0.28442 -0.14374 0.10606 0.1389 -0.10992 0.13958 -0.27036 -0.049205 0.40682 -0.27367 0.10945 0.29343 0.024845 -0.13623 0.028219 0.11583 -0.14284 0.039039 -0.053832 -0.10238 -0.33906 0.10086 -0.44316 -0.057518 0.0049079 -0.33219 0.07982 0.080829 -0.043289 -0.031063 0.16764 0.025242 0.13664 -0.36923 -0.18759 0.28077 0.043083 0.18834 -0.54758 0.094399 -0.21818 -0.024254 -0.014427 -0.24952 -0.067237 0.31646 -0.0062343 -0.006062 0.57932 0.13588 0.15795 0.053385 0.00070846 -0.1536 -0.076231 0.0061638 -0.083912 -0.017618 0.32273 -0.47212 0.037277 0.34851 0.029005 0.059388 0.29112 0.2319 -0.23714 -0.025797 0.54764 -0.1726 0.16118 -0.37643 -0.26247 -0.3396 -0.51569 0.082034 0.29843 -0.11349 0.25216 -0.13308 -0.069334 -0.040964 -0.24512 0.15304 0.044773 -0.34072 
> -0.076595 0.32851 -0.15616 -0.043168 0.31801 0.27871 0.11762 -0.016443 0.1213 0.41622 -0.11439 -0.033893 -0.20265 0.079226 -0.2765 -0.13225 0.10254 0.13113 -0.11476 0.1505 -0.25946 -0.038616 0.40685 -0.27043 0.10208 0.25545 0.015615 -0.13518 0.019052 0.09811 -0.15094 0.049363 -0.031495 -0.10383 -0.32765 0.096296 -0.44217 -0.048147 0.021735 -0.32418 0.057478 0.069676 -0.026133 -0.028088 0.16412 0.044432 0.15768 -0.35562 -0.18084 0.27994 0.038658 0.17108 -0.53301 0.066737 -0.23002 -0.007543 -0.032262 -0.25218 -0.040341 0.28864 -0.0022165 -0.0069461 0.57138 0.10685 0.15655 0.053452 0.033898 -0.14621 -0.077328 0.0060149 -0.081753 -0.0060028 0.30356 -0.47713 0.038152 0.34382 0.035291 0.060984 0.28773 0.2525 -0.23695 -0.024367 0.5366 -0.19153 0.1469 -0.37297 -0.23275 -0.32026 -0.48795 0.061385 0.30305 -0.12197 0.24995 -0.15068 -0.075605 -0.022916 -0.26212 0.13874 0.048968 -0.34644 
, -0.030708 -0.058376 -0.17122 -0.034796 0.11264 0.052923 -0.1506 0.066678 0.015579 -0.06212 0.0089479 -0.13539 -0.020112 -0.10005 -0.019141 -0.024472 0.10355 -0.076106 -0.08982 0.068762 -0.038357 0.054221 0.2478 -0.25592 0.053009 -0.17008 -0.0090455 0.024015 -0.068212 -0.029415 -0.18425 0.13007 0.085405 -0.1092 -0.060576 0.074202 -0.2329 -0.041677 0.046374 -0.14981 0.015273 -0.13348 0.29961 0.044504 0.010069 0.30134 0.13378 -0.086669 -0.10885 0.14476 0.0013694 -0.0033018 -0.2205 -0.096813 -0.20248 0.18647 -0.038595 -0.18988 0.17964 -0.004832 0.056818 0.0071594 0.33885 -0.39925 0.02814 0.033071 0.33334 -0.066833 0.055355 0.084043 -0.06422 0.15514 -0.0025496 -0.22587 -0.05267 0.26903 0.23914 -0.003209 0.18511 0.2002 -0.25484 0.044953 0.17908 -0.22611 0.035341 -0.21079 0.16875 0.096858 -0.029935 -0.11944 0.24538 -0.15096 0.088059 -0.39125 -0.1088 -0.026324 -0.28839 -0.030361 0.19577 -0.22795 
</s> -0.048099 0.066082 -0.16568 -0.03111 0.16086 0.1196 -0.047336 0.042775 0.044128 0.089947 -0.026269 -0.095988 -0.07227 -0.037678 -0.090002 -0.061156 0.08459 -0.0094335 -0.084537 0.074714 -0.10686 0.022565 0.2805 -0.23656 0.064834 -0.023797 -0.0031042 -0.015512 -0.033227 0.0090442 -0.16081 0.087615 0.042133 -0.095152 -0.12737 0.087941 -0.27101 -0.04633 0.028364 -0.19466 0.039551 -0.065591 0.17404 0.018879 0.051649 0.2049 0.12824 -0.16044 -0.12592 0.16716 0.025172 0.040528 -0.30724 -0.042103 -0.19139 0.1133 -0.028706 -0.19688 0.095988 0.091869 0.027011 -0.0015089 0.37593 -0.22127 0.066072 0.034633 0.21864 -0.087291 0.0073772 0.052876 -0.071184 0.096522 0.097736 -0.27755 -0.018329 0.28167 0.15895 0.012294 0.20163 0.20075 -0.23495 0.0206 0.27518 -0.18791 0.064882 -0.24327 0.031906 -0.038463 -0.16477 -0.055711 0.24136 -0.1309 0.13643 -0.29886 -0.096794 -0.023816 -0.26204 0.022166 0.1453 -0.25422 
. -0.040816 0.034489 -0.16584 -0.030643 0.15515 0.10625 -0.067745 0.04353 0.034138 0.04343 -0.023053 -0.11128 -0.056902 -0.051229 -0.061338 -0.047856 0.09119 -0.027859 -0.09972 0.084674 -0.085383 0.027035 0.27891 -0.24765 0.059876 -0.06629 0.0071299 0.0022573 -0.048093 0.0030961 -0.16657 0.09295 0.04938 -0.10042 -0.10832 0.093026 -0.25997 -0.053575 0.026145 -0.17855 0.031744 -0.087531 0.22261 0.030037 0.044057 0.23103 0.12525 -0.12795 -0.12633 0.16058 0.017392 0.026641 -0.28046 -0.063329 -0.18639 0.14166 -0.0323 -0.18451 0.11951 0.074998 0.033083 -0.00029339 0.3616 -0.27747 0.058497 0.035595 0.24779 -0.083626 0.021285 0.071409 -0.076694 0.11596 0.069111 -0.26535 -0.029511 0.26963 0.18222 -0.0011289 0.19491 0.20641 -0.25114 0.033757 0.24465 -0.19479 0.047674 -0.22916 0.07319 -0.0011272 -0.13057 -0.069166 0.24721 -0.12572 0.12988 -0.31901 -0.10228 -0.017967 -0.26379 -0.0016524 0.15911 -0.25349 
% -0.047707 0.25259 -0.15014 -0.029084 0.26459 0.22744 0.07727 -0.002086 0.089539 0.32663 -0.091491 -0.048825 -0.15625 0.051184 -0.22331 -0.11197 0.089737 0.079947 -0.098866 0.10419 -0.21078 -0.026588 0.34749 -0.25061 0.09647 0.18714 0.010428 -0.099097 0.0075994 0.065188 -0.14123 0.062796 -0.02863 -0.0817 -0.26223 0.097024 -0.37779 -0.049672 0.014723 -0.25599 0.046896 0.036676 0.029233 -0.02183 0.12991 0.084833 0.11626 -0.28705 -0.14973 0.24321 0.042318 0.12511 -0.44559 0.034514 -0.19246 0.031568 -0.024134 -0.21278 -0.017778 0.22934 0.0060875 -0.025665 0.48727 0.011283 0.119 0.045293 0.055261 -0.13387 -0.049084 0.025278 -0.07236 0.018741 0.26379 -0.39785 0.014617 0.32032 0.050897 0.034065 0.24426 0.22249 -0.2176 -0.017842 0.42684 -0.15411 0.12263 -0.31124 -0.16002 -0.23257 -0.3811 0.041392 0.24916 -0.11344 0.18353 -0.17979 -0.071735 -0.016235 -0.25201 0.099169 0.085078 -0.30596 
the -0.038253 -0.11313 -0.18432 -0.024927 0.078793 0.014581 -0.17847 0.089199 -0.011549 -0.13698 0.033412 -0.13726 0.0098789 -0.13547 0.028379 -0.0102 0.10023 -0.10071 -0.08459 0.051118 -0.0096599 0.071917 0.24574 -0.25048 0.048395 -0.24864 -0.021977 0.055769 -0.080135 -0.050043 -0.20392 0.13952 0.11074 -0.11413 -0.010385 0.087031 -0.19781 -0.047913 0.043714 -0.13657 0.020758 -0.16984 0.35788 0.059317 -0.016898 0.35239 0.12466 -0.054266 -0.10462 0.11301 -0.0021724 -0.037088 -0.18659 -0.12437 -0.20637 0.22562 -0.042031 -0.18262 0.2346 -0.041796 0.043623 0.015567 0.28805 -0.49698 0.020443 0.044076 0.3896 -0.050058 0.068431 0.099872 -0.076074 0.19079 -0.051904 -0.18668 -0.059541 0.25671 0.27764 -0.016294 0.17613 0.2079 -0.28395 0.056255 0.13429 -0.24054 0.01502 -0.19171 0.23538 0.159 0.03987 -0.15246 0.2453 -0.14636 0.069064 -0.43592 -0.13016 -0.023033 -0.29574 -0.059233 0.22502 -0.22752 
; -0.045258 -0.10728 -0.18872 -0.029961 0.093976 0.029299 -0.1737 0.097068 -0.016728 -0.12651 0.03225 -0.14881 0.013437 -0.11914 0.016919 -0.015583 0.090981 -0.09822 -0.080422 0.061579 -0.024536 0.06566 0.24492 -0.25414 0.045904 -0.23271 -0.021953 0.053863 -0.086811 -0.047836 -0.20258 0.14129 0.1127 -0.1141 -0.018315 0.092075 -0.20066 -0.061381 0.037356 -0.14296 0.033188 -0.16512 0.33964 0.06125 -0.016473 0.34913 0.12947 -0.054859 -0.10522 0.12065 -0.00703 -0.034696 -0.20381 -0.11785 -0.20421 0.20662 -0.03831 -0.19443 0.22474 -0.03996 0.04517 -0.00065156 0.32439 -0.48701 0.017574 0.027336 0.38968 -0.051046 0.057504 0.090824 -0.08064 0.19219 -0.044617 -0.18454 -0.050344 0.27237 0.26654 -0.011896 0.17391 0.19762 -0.28081 0.057308 0.15123 -0.232 0.016835 -0.18923 0.22251 0.14998 0.025234 -0.13996 0.26493 -0.16065 0.071035 -0.4448 -0.13378 -0.02957 -0.30513 -0.058354 0.23532 -0.23981 
and -0.03862 -0.064726 -0.1747 -0.025019 0.10101 0.040989 -0.14788 0.075364 0.0091479 -0.06439 0.022864 -0.12654 -0.023328 -0.097397 -0.0095082 -0.020369 0.095908 -0.074277 -0.078437 0.062829 -0.037428 0.054632 0.25592 -0.25067 0.056957 -0.183 -0.011487 0.021294 -0.058403 -0.03943 -0.18935 0.13106 0.091623 -0.11064 -0.04265 0.080209 -0.22463 -0.035642 0.039746 -0.15375 0.021999 -0.1472 0.2948 0.038964 0.003906 0.30429 0.14437 -0.085712 -0.1053 0.1326 0.0040267 -0.015232 -0.21408 -0.10285 -0.20315 0.18517 -0.033647 -0.18327 0.18801 -0.0015036 0.048133 0.015474 0.32063 -0.38987 0.0311 0.029217 0.34256 -0.045167 0.058187 0.085048 -0.06786 0.15112 -0.0097047 -0.22101 -0.042149 0.25385 0.23951 -0.013858 0.18492 0.20713 -0.2555 0.044704 0.18241 -0.22801 0.023283 -0.21222 0.1739 0.10407 -0.017271 -0.12157 0.23826 -0.14578 0.096909 -0.38613 -0.10841 -0.014661 -0.28639 -0.036543 0.19495 -0.23054 
of -0.036018 -0.1369 -0.18784 -0.02881 0.072027 0.017975 -0.2062 0.10281 -0.019583 -0.16003 0.032406 -0.16395 0.019027 -0.13558 0.024799 -0.014706 0.10488 -0.11141 -0.08532 0.053365 -0.013966 0.072218 0.24131 -0.26577 0.039007 -0.26913 -0.015988 0.054427 -0.093664 -0.063967 -0.20961 0.14322 0.12604 -0.1182 -0.0067974 0.091365 -0.20363 -0.042282 0.039437 -0.13513 0.022061 -0.18859 0.3696 0.064116 -0.028126 0.37092 0.13483 -0.045771 -0.10277 0.11268 -0.007987 -0.045132 -0.18249 -0.13897 -0.20701 0.23266 -0.035416 -0.19366 0.25142 -0.053438 0.052727 0.012688 0.31218 -0.51862 0.0087454 0.030402 0.40989 -0.03504 0.074293 0.1022 -0.07754 0.1984 -0.05719 -0.1806 -0.064677 0.26236 0.29158 -0.019707 0.17437 0.21366 -0.28174 0.057606 0.13554 -0.25332 0.0052001 -0.19025 0.24527 0.176 0.054056 -0.16282 0.25405 -0.16073 0.067738 -0.46451 -0.13655 -0.031321 -0.32304 -0.073733 0.23751 -0.23952 
to -0.034365 -0.13815 -0.19004 -0.027573 0.075738 0.016456 -0.19725 0.09455 -0.032365 -0.1553 0.0436 -0.15626 0.0094355 -0.14133 0.028235 -0.011426 0.095906 -0.11354 -0.080751 0.040817 -0.015825 0.071721 0.23778 -0.25759 0.044008 -0.27008 -0.023207 0.070587 -0.092959 -0.055326 -0.20328 0.14276 0.11631 -0.11952 0.0090642 0.088614 -0.18909 -0.05278 0.040111 -0.13367 0.02088 -0.18261 0.36699 0.057938 -0.0264 0.37206 0.12369 -0.034584 -0.10976 0.10937 -0.0041798 -0.054412 -0.17862 -0.13456 -0.20392 0.2267 -0.033004 -0.1806 0.23909 -0.062461 0.049541 0.0064681 0.3028 -0.52261 0.0039559 0.031601 0.41358 -0.043416 0.073293 0.099647 -0.074332 0.20405 -0.059086 -0.18225 -0.070166 0.26991 0.29018 -0.017572 0.16568 0.20573 -0.28585 0.055042 0.12066 -0.23742 0.012887 -0.1893 0.24946 0.17571 0.049115 -0.15894 0.23994 -0.16058 0.058616 -0.46104 -0.13003 -0.036522 -0.30488 -0.068033 0.24282 -0.23237 
I -0.036578 -0.0181 -0.16726 -0.027605 0.12591 0.087017 -0.094832 0.066278 -0.0021439 -0.018165 -0.015149 -0.12413 -0.024036 -0.079426 -0.036735 -0.034535 0.090967 -0.057041 -0.078485 0.066991 -0.064287 0.045401 0.26444 -0.23887 0.039986 -0.11452 -0.012972 0.032451 -0.071656 -0.0097767 -0.17787 0.10695 0.068251 -0.10453 -0.068558 0.089344 -0.24281 -0.052156 0.025578 -0.16791 0.039045 -0.11523 0.26115 0.038597 0.022366 0.27633 0.12154 -0.10055 -0.11534 0.15017 0.0057455 0.0085809 -0.24669 -0.080525 -0.1825 0.16168 -0.03033 -0.187 0.16623 0.02407 0.039703 0.0074053 0.36189 -0.33853 0.037482 0.02562 0.28226 -0.066726 0.018504 0.074279 -0.074146 0.14373 0.041554 -0.22573 -0.037033 0.27302 0.20894 0.0027582 0.19099 0.1947 -0.2433 0.034576 0.19875 -0.20311 0.048168 -0.21126 0.13289 0.050804 -0.078839 -0.092089 0.24901 -0.13858 0.098373 -0.36062 -0.1128 -0.025538 -0.27617 -0.022773 0.17862 -0.24637 
you -0.039953 -0.014665 -0.17325 -0.033784 0.12672 0.075199 -0.10458 0.076047 0.017889 -0.0083749 0.0022336 -0.11465 -0.037762 -0.072296 -0.030821 -0.037947 0.085219 -0.04423 -0.08833 0.066921 -0.063943 0.03695 0.25819 -0.23824 0.056191 -0.12173 -0.0060325 0.01424 -0.052106 -0.013797 -0.17494 0.11304 0.067167 -0.096404 -0.077102 0.095074 -0.23539 -0.053657 0.025614 -0.16925 0.028008 -0.10897 0.25243 0.032085 0.022822 0.25974 0.11834 -0.10604 -0.12318 0.14774 0.017406 0.0019926 -0.25334 -0.084565 -0.19101 0.15026 -0.03553 -0.18052 0.14856 0.028743 0.043007 -0.00056608 0.3494 -0.32937 0.031653 0.030047 0.28128 -0.066991 0.034575 0.070911 -0.07861 0.12453 0.040389 -0.23339 -0.039927 0.263 0.19911 -0.0038791 0.18978 0.20692 -0.2487 0.031777 0.20081 -0.19989 0.041713 -0.21758 0.12112 0.036953 -0.086118 -0.085071 0.2426 -0.13113 0.096822 -0.35362 -0.10607 -0.027184 -0.27596 -0.01714 0.18483 -0.24465 
DIR -0.084135 0.43053 -0.1723 -0.030443 0.36786 0.3053 0.17025 -0.029892 0.19946 0.52043 -0.12568 -0.01067 -0.26832 0.097616 -0.3335 -0.14211 0.10611 0.15393 -0.14263 0.17739 -0.29872 -0.046279 0.46598 -0.3044 0.13903 0.37781 0.051973 -0.18805 0.062115 0.11868 -0.14943 0.045322 -0.063262 -0.094194 -0.38219 0.091897 -0.50175 -0.033719 0.036147 -0.37977 0.053205 0.094778 -0.057788 -0.04745 0.19844 0.022235 0.19412 -0.42624 -0.17647 0.33826 0.062974 0.21035 -0.61507 0.078623 -0.27015 -0.024812 -0.025857 -0.26521 -0.10224 0.36748 0.010353 -0.024414 0.63922 0.22693 0.194 0.063012 -0.0061282 -0.166 -0.066201 -0.0071215 -0.084833 -0.043942 0.36716 -0.56506 0.051904 0.39117 -0.014787 0.050617 0.31729 0.28776 -0.25415 -0.022468 0.63631 -0.1986 0.17201 -0.43917 -0.3067 -0.38744 -0.58984 0.077169 0.29862 -0.1397 0.3178 -0.1185 -0.060046 0.00622 -0.28761 0.17081 0.036602 -0.39118 
a -0.042099 -0.077853 -0.18158 -0.028584 0.11093 0.038621 -0.15547 0.085295 0.0050288 -0.080597 0.014777 -0.1351 -0.012526 -0.10225 -0.0073088 -0.021991 0.093775 -0.077697 -0.086521 0.072089 -0.039567 0.063269 0.24692 -0.2541 0.051482 -0.18318 -0.0047169 0.029521 -0.064726 -0.038711 -0.19189 0.13717 0.095945 -0.11726 -0.035178 0.091203 -0.22155 -0.050009 0.030743 -0.15313 0.022739 -0.1446 0.30941 0.0517 -0.0035474 0.31151 0.1376 -0.088828 -0.10681 0.13415 -0.0023605 -0.0074964 -0.22332 -0.10021 -0.21248 0.19088 -0.034135 -0.19231 0.19041 -0.002945 0.044545 0.00054682 0.32278 -0.42229 0.029423 0.031675 0.3514 -0.057179 0.05037 0.09273 -0.086681 0.17114 -0.0033845 -0.2066 -0.049638 0.26672 0.24898 -0.010769 0.17832 0.20945 -0.26467 0.042228 0.17372 -0.21737 0.023818 -0.20904 0.18745 0.11083 -0.017916 -0.13156 0.25811 -0.15108 0.085584 -0.40731 -0.12321 -0.02305 -0.30128 -0.036571 0.20177 -0.23519 
my -0.039423 0.039051 -0.16332 -0.037735 0.14793 0.10968 -0.069942 0.049736 0.02767 0.06259 -0.023061 -0.11042 -0.052616 -0.048247 -0.073626 -0.05162 0.081447 -0.024293 -0.096068 0.077048 -0.09133 0.023114 0.27657 -0.23883 0.053381 -0.064083 -0.0075589 0.0021133 -0.045807 -0.0029694 -0.16304 0.10463 0.050463 -0.09416 -0.11769 0.081711 -0.264 -0.052937 0.024734 -0.17959 0.037123 -0.086918 0.20933 0.030957 0.047871 0.23071 0.12292 -0.1355 -0.11427 0.16309 0.022598 0.035547 -0.28759 -0.059927 -0.18693 0.1333 -0.03234 -0.19036 0.11887 0.066851 0.036439 -0.0061163 0.37047 -0.26301 0.053304 0.032064 0.24382 -0.078301 0.013627 0.060523 -0.071901 0.1106 0.075353 -0.26744 -0.019399 0.26942 0.17793 0.010145 0.20152 0.20463 -0.24033 0.022373 0.24595 -0.19123 0.047386 -0.24139 0.070262 -0.010768 -0.14066 -0.069492 0.23993 -0.1287 0.12447 -0.32217 -0.10349 -0.019359 -0.26815 0.00083696 0.16459 -0.24899 
? -0.041907 0.050641 -0.16016 -0.023472 0.1548 0.10676 -0.063043 0.047029 0.045589 0.071717 -0.01467 -0.092202 -0.066833 -0.040527 -0.082119 -0.053442 0.087876 -0.0088225 -0.093038 0.075252 -0.10229 0.025633 0.27759 -0.22679 0.059143 -0.042847 0.0029805 -0.0080739 -0.033183 0.0096735 -0.15333 0.090538 0.046551 -0.097691 -0.12876 0.083002 -0.26141 -0.053899 0.032124 -0.18773 0.030888 -0.062939 0.18881 0.021719 0.054933 0.22009 0.11633 -0.15024 -0.11617 0.15937 0.02429 0.03372 -0.29169 -0.057206 -0.19699 0.12459 -0.026793 -0.19391 0.099482 0.077897 0.037186 -0.016145 0.37319 -0.23779 0.057964 0.039216 0.23219 -0.080314 0.012415 0.059515 -0.076505 0.097393 0.095536 -0.26228 -0.018156 0.27387 0.16106 0.0058207 0.20146 0.20588 -0.24259 0.024336 0.25684 -0.18703 0.062613 -0.22632 0.048136 -0.034614 -0.14206 -0.06039 0.23886 -0.12648 0.1335 -0.28743 -0.095335 -0.027713 -0.26057 0.01339 0.15463 -0.25359 
in -0.03797 -0.1002 -0.18582 -0.031108 0.088644 0.024898 -0.1748 0.095896 -0.010368 -0.11892 0.030354 -0.15068 -0.0015772 -0.11524 0.015216 -0.011209 0.099496 -0.093072 -0.088531 0.054703 -0.023693 0.06515 0.24599 -0.25498 0.043027 -0.21858 -0.012312 0.042471 -0.083172 -0.043466 -0.20337 0.13572 0.10444 -0.11593 -0.02002 0.093263 -0.20558 -0.052079 0.03973 -0.13989 0.033575 -0.16022 0.32837 0.054829 -0.0128 0.33267 0.13594 -0.068246 -0.11671 0.11971 0.0004377 -0.027869 -0.20424 -0.11472 -0.20669 0.20898 -0.039191 -0.18395 0.20541 -0.036492 0.047456 0.0046541 0.31717 -0.45495 0.016031 0.02954 0.38046 -0.039411 0.056123 0.094374 -0.080685 0.17878 -0.029326 -0.19516 -0.052995 0.26088 0.26363 -0.0098163 0.17858 0.20487 -0.27405 0.054162 0.15846 -0.23883 0.014979 -0.20181 0.21326 0.13971 0.016061 -0.1375 0.24893 -0.15341 0.08537 -0.42879 -0.12329 -0.022013 -0.3011 -0.052152 0.21392 -0.23197 
! -0.044881 0.15548 -0.15952 -0.034071 0.2019 0.15144 0.0056711 0.016023 0.076705 0.195 -0.055002 -0.061831 -0.10638 0.010307 -0.14693 -0.080143 0.07817 0.034393 -0.088503 0.091711 -0.15252 0.0025761 0.30735 -0.23405 0.076326 0.069714 0.016691 -0.068359 -0.0088816 0.028416 -0.14931 0.068703 0.016996 -0.093127 -0.18945 0.079011 -0.30517 -0.053544 0.015609 -0.21956 0.039916 -0.016536 0.10128 0.0042418 0.085924 0.14407 0.12192 -0.20504 -0.13019 0.191 0.028295 0.091896 -0.363 -9.2316e-05 -0.1967 0.074657 -0.022962 -0.18663 0.04718 0.16661 0.035069 -0.0057326 0.42059 -0.088061 0.089557 0.036878 0.14599 -0.10396 -0.013526 0.039236 -0.070006 0.045672 0.16291 -0.33023 -0.00059452 0.28907 0.10725 0.017276 0.22235 0.20129 -0.21719 0.0026482 0.34814 -0.16843 0.08539 -0.27084 -0.059541 -0.11823 -0.26471 -0.013362 0.23205 -0.10861 0.16783 -0.22906 -0.07937 -0.014247 -0.24072 0.063511 0.1042 -0.27277 
is -0.03355 -0.066303 -0.17438 -0.022146 0.11818 0.052448 -0.14553 0.075157 -0.0052964 -0.067851 0.0033779 -0.13172 -0.01093 -0.10636 -0.016694 -0.038078 0.088588 -0.070955 -0.082737 0.054322 -0.049979 0.057677 0.26439 -0.2508 0.04622 -0.18466 -0.017821 0.040438 -0.062814 -0.040684 -0.18315 0.11829 0.09642 -0.10657 -0.044201 0.084965 -0.23233 -0.046829 0.0379 -0.16012 0.026514 -0.14377 0.2862 0.043759 0.012027 0.30916 0.12371 -0.0808 -0.11289 0.12464 0.0038772 -0.0096224 -0.23337 -0.099007 -0.20169 0.18764 -0.03031 -0.18957 0.19022 -0.0038856 0.04577 0.014281 0.33311 -0.40169 0.027427 0.028819 0.33306 -0.052694 0.045364 0.084224 -0.075152 0.15996 0.00041287 -0.22525 -0.046584 0.27683 0.24635 0.0010519 0.18013 0.20494 -0.26206 0.042206 0.18255 -0.21716 0.02158 -0.20567 0.16452 0.1001 -0.024152 -0.12215 0.2476 -0.1541 0.089016 -0.40845 -0.11841 -0.019931 -0.29627 -0.031714 0.20371 -0.23889 
it -0.04 -0.068618 -0.17295 -0.030594 0.1042 0.060793 -0.14686 0.084807 0.00015208 -0.075995 0.014741 -0.13319 -0.0061371 -0.10214 -0.0057478 -0.023996 0.095239 -0.076021 -0.080437 0.059254 -0.054866 0.052031 0.25713 -0.25385 0.046214 -0.18999 -0.017966 0.04071 -0.068749 -0.034045 -0.18428 0.12765 0.087195 -0.11145 -0.040008 0.087691 -0.2188 -0.046956 0.039055 -0.15092 0.02685 -0.14723 0.30085 0.051938 0.0018608 0.31651 0.12573 -0.083839 -0.11348 0.12319 0.009323 -0.018556 -0.22502 -0.10758 -0.1964 0.18385 -0.031824 -0.19377 0.18354 -0.0076557 0.042583 0.011802 0.32602 -0.41294 0.021711 0.024792 0.34639 -0.05287 0.036563 0.08612 -0.083519 0.16794 -0.0063393 -0.20946 -0.045131 0.27075 0.24164 -0.0075463 0.18522 0.20183 -0.26234 0.045736 0.18323 -0.22965 0.018224 -0.21002 0.17707 0.1085 -0.024723 -0.12604 0.25273 -0.14898 0.09286 -0.40822 -0.12634 -0.024197 -0.29386 -0.044022 0.20265 -0.24496 
HAMLET -0.056902 0.2928 -0.15873 -0.033121 0.28608 0.25596 0.10276 -0.017313 0.11157 0.3752 -0.10428 -0.040802 -0.17486 0.063175 -0.24246 -0.12097 0.087691 0.097791 -0.10616 0.12193 -0.23239 -0.033092 0.37276 -0.2544 0.10087 0.2306 0.024791 -0.10942 0.019333 0.081348 -0.13614 0.051189 -0.042544 -0.080875 -0.29104 0.09192 -0.40325 -0.052481 0.017197 -0.28775 0.052242 0.052256 0.0061627 -0.031602 0.14023 0.073287 0.13348 -0.31718 -0.15499 0.26707 0.048421 0.14943 -0.47601 0.04892 -0.20963 0.020985 -0.018638 -0.22751 -0.038303 0.26207 0.015591 -0.025557 0.52431 0.063505 0.13166 0.045065 0.037691 -0.14287 -0.063754 0.012147 -0.076193 -0.0032024 0.29082 -0.439 0.026574 0.33295 0.031332 0.041601 0.26715 0.23448 -0.21502 -0.028587 0.46272 -0.15977 0.13212 -0.3406 -0.19204 -0.27427 -0.43358 0.044368 0.26335 -0.12327 0.21244 -0.16716 -0.069031 -0.013157 -0.24431 0.11883 0.073744 -0.32711 
/HAMLET -0.057843 0.30794 -0.15576 -0.032518 0.29154 0.26346 0.11381 -0.021365 0.1196 0.39292 -0.10888 -0.039462 -0.18441 0.069041 -0.25287 -0.12422 0.087781 0.10761 -0.10655 0.12557 -0.24003 -0.037009 0.37934 -0.25283 0.1019 0.25161 0.027666 -0.1149 0.022324 0.085655 -0.13152 0.044903 -0.049961 -0.079526 -0.29905 0.090678 -0.40797 -0.051736 0.018111 -0.29354 0.050421 0.05972 -0.010969 -0.03303 0.14854 0.062194 0.1369 -0.32691 -0.15342 0.27302 0.050753 0.15554 -0.48513 0.05512 -0.21094 0.011668 -0.018147 -0.22484 -0.047945 0.27295 0.015828 -0.02612 0.53108 0.086646 0.13786 0.046469 0.024385 -0.14556 -0.069814 0.0065746 -0.077007 -0.013284 0.29986 -0.44661 0.031863 0.33565 0.023054 0.042146 0.26639 0.23526 -0.21106 -0.031027 0.47647 -0.15635 0.13481 -0.34663 -0.20999 -0.28849 -0.45106 0.050613 0.26073 -0.12218 0.21983 -0.15594 -0.068714 -0.0088185 -0.24155 0.12421 0.065489 -0.3275 
not -0.038413 -0.07523 -0.18249 -0.028043 0.10342 0.049828 -0.15226 0.087709 -0.0026441 -0.083572 0.016698 -0.14034 -0.010392 -0.10527 -0.0079884 -0.030086 0.097318 -0.082496 -0.090873 0.055646 -0.046263 0.054939 0.25173 -0.25106 0.04453 -0.19625 -0.015588 0.043501 -0.070542 -0.03999 -0.19221 0.12212 0.095082 -0.10228 -0.033374 0.093013 -0.22045 -0.049362 0.041646 -0.14317 0.021509 -0.15292 0.31556 0.054409 -0.0015323 0.32765 0.12676 -0.077762 -0.11277 0.12374 0.0077572 -0.021764 -0.22269 -0.11511 -0.19684 0.1925 -0.035548 -0.19293 0.19141 -0.013859 0.042181 0.0078225 0.32513 -0.43325 0.0209 0.030492 0.35454 -0.056284 0.042942 0.089977 -0.078728 0.174 -0.0093218 -0.21015 -0.045335 0.26923 0.24817 -0.011383 0.17085 0.20901 -0.27244 0.044386 0.1628 -0.21751 0.020482 -0.2042 0.1904 0.10907 -0.011847 -0.1255 0.24269 -0.14829 0.080477 -0.413 -0.12201 -0.023792 -0.29442 -0.045071 0.21507 -0.24218 
: -0.040921 -0.053321 -0.18543 -0.025433 0.11208 0.051377 -0.14412 0.076984 0.0031114 -0.058247 0.0061637 -0.12805 -0.020635 -0.097464 -0.012027 -0.016759 0.093195 -0.068697 -0.088665 0.065585 -0.050682 0.0561 0.25896 -0.25899 0.056229 -0.17787 -0.0093976 0.033763 -0.074655 -0.027913 -0.18533 0.1253 0.090543 -0.10981 -0.049801 0.09212 -0.23171 -0.055903 0.033931 -0.15394 0.026719 -0.14709 0.30439 0.039613 0.0050222 0.30513 0.12496 -0.089267 -0.11475 0.1324 0.0068367 -0.018168 -0.22756 -0.10818 -0.19979 0.1877 -0.034098 -0.19099 0.19748 -0.0057543 0.049405 0.0098072 0.34153 -0.40549 0.03296 0.030255 0.34071 -0.056351 0.056643 0.088832 -0.074056 0.1617 0.0021938 -0.21833 -0.046195 0.26658 0.23272 -0.0073682 0.18033 0.20872 -0.26928 0.045361 0.18347 -0.22424 0.026087 -0.21043 0.17182 0.09722 -0.041306 -0.11106 0.25328 -0.15295 0.092755 -0.40576 -0.11395 -0.036622 -0.29288 -0.038325 0.21037 -0.24486 
his -0.037788 -0.14763 -0.19343 -0.025455 0.0757 0.01193 -0.21233 0.098845 -0.030743 -0.17141 0.038931 -0.15715 0.021782 -0.14756 0.040754 -0.0081917 0.099989 -0.11455 -0.085077 0.046728 -0.0099667 0.077859 0.24138 -0.26135 0.044762 -0.28449 -0.028667 0.07254 -0.096888 -0.057572 -0.20684 0.14591 0.12433 -0.11782 0.0046986 0.091083 -0.19351 -0.049235 0.045259 -0.1329 0.021406 -0.18893 0.37139 0.059048 -0.026517 0.377 0.13129 -0.03734 -0.10687 0.10836 -0.0071296 -0.055714 -0.17864 -0.13434 -0.19908 0.23248 -0.036949 -0.18967 0.2471 -0.065312 0.053824 0.0092811 0.30708 -0.5358 0.012207 0.026552 0.42061 -0.037405 0.075967 0.1064 -0.084826 0.20554 -0.065577 -0.18429 -0.065719 0.26461 0.29582 -0.013814 0.16981 0.21082 -0.28893 0.057769 0.12186 -0.24013 0.007575 -0.18566 0.25363 0.1842 0.05765 -0.16344 0.2519 -0.16311 0.06356 -0.47799 -0.13448 -0.038388 -0.3193 -0.071706 0.23999 -0.23603 
that -0.040586 -0.10089 -0.1785 -0.030643 0.085916 0.032942 -0.16953 0.087465 -0.0059187 -0.11623 0.017926 -0.14233 0.0043278 -0.12019 0.015652 -0.016728 0.094504 -0.090002 -0.086181 0.055951 -0.029251 0.066276 0.24221 -0.25021 0.044332 -0.22537 -0.014125 0.05108 -0.079994 -0.044877 -0.19797 0.13377 0.10189 -0.1141 -0.022621 0.088723 -0.21179 -0.047183 0.037259 -0.14544 0.021246 -0.1548 0.33397 0.049499 -0.012741 0.33955 0.12189 -0.065212 -0.10731 0.11939 0.0063854 -0.030555 -0.20305 -0.11377 -0.20048 0.20732 -0.039901 -0.1876 0.21722 -0.029815 0.047749 0.01168 0.30982 -0.46304 0.023078 0.034275 0.369 -0.05121 0.060178 0.093157 -0.075937 0.17309 -0.030027 -0.19291 -0.051947 0.25813 0.26196 -0.016363 0.17612 0.20188 -0.26787 0.042734 0.14932 -0.22993 0.017478 -0.19862 0.21785 0.13608 0.012839 -0.13954 0.25097 -0.14963 0.073959 -0.42792 -0.12547 -0.028724 -0.29799 -0.054684 0.21585 -0.22913 
And -0.035725 -0.11838 -0.18935 -0.026268 0.086188 0.02473 -0.18557 0.095271 -0.01599 -0.13138 0.036948 -0.15028 0.0051761 -0.13013 0.020933 -0.010632 0.097521 -0.10173 -0.081661 0.056733 -0.018793 0.070392 0.24734 -0.25948 0.046842 -0.24623 -0.019275 0.057661 -0.086105 -0.052005 -0.19998 0.13958 0.11157 -0.11707 -0.0064926 0.086636 -0.20646 -0.052074 0.04278 -0.13822 0.020797 -0.1768 0.34984 0.057606 -0.020509 0.35182 0.14012 -0.055402 -0.10285 0.11986 0.0026581 -0.037052 -0.19337 -0.13277 -0.20347 0.21431 -0.042109 -0.18649 0.22695 -0.042662 0.056776 0.011859 0.3061 -0.48777 0.012472 0.03033 0.39417 -0.044429 0.072426 0.098065 -0.073538 0.18308 -0.052031 -0.19381 -0.063597 0.25995 0.27417 -0.018569 0.17414 0.20534 -0.27965 0.058702 0.14635 -0.23425 0.016435 -0.1993 0.22733 0.15957 0.033992 -0.15074 0.24957 -0.15734 0.076902 -0.44094 -0.1278 -0.022949 -0.30858 -0.063485 0.22604 -0.23392 
'd -0.04105 -0.10171 -0.18073 -0.030107 0.090144 0.027281 -0.17288 0.09355 -0.01904 -0.109 0.019779 -0.14323 0.006027 -0.11808 0.01301 -0.013144 0.098521 -0.088055 -0.083678 0.061269 -0.023978 0.066591 0.24183 -0.25343 0.042778 -0.22228 -0.0158 0.04768 -0.083511 -0.04505 -0.19336 0.13483 0.10766 -0.11496 -0.012895 0.087599 -0.21316 -0.052859 0.036134 -0.15028 0.024248 -0.16128 0.328 0.052661 -0.011391 0.3335 0.1328 -0.061686 -0.10914 0.11937 0.003176 -0.033961 -0.20333 -0.11581 -0.19978 0.2064 -0.040535 -0.18547 0.21273 -0.029976 0.050655 0.0070687 0.31171 -0.46224 0.020003 0.02694 0.37076 -0.042 0.061972 0.093763 -0.074666 0.18128 -0.036294 -0.19064 -0.054354 0.25797 0.26675 -0.01199 0.17331 0.20181 -0.26827 0.049064 0.14922 -0.23311 0.01326 -0.19535 0.21458 0.13688 0.01415 -0.13384 0.24499 -0.14909 0.081401 -0.43056 -0.12226 -0.026798 -0.30485 -0.060677 0.21836 -0.23906 
this -0.041482 -0.10333 -0.17721 -0.028411 0.086445 0.025532 -0.17255 0.089626 -0.013502 -0.12062 0.024253 -0.13912 0.0047588 -0.12474 0.016796 -0.017647 0.097303 -0.091114 -0.07925 0.05265 -0.024995 0.067896 0.23996 -0.25024 0.047182 -0.22799 -0.018666 0.054528 -0.080701 -0.049405 -0.19514 0.13509 0.10288 -0.11131 -0.016033 0.089441 -0.20627 -0.047138 0.040628 -0.13578 0.026284 -0.16293 0.33505 0.054617 -0.014363 0.33923 0.12477 -0.053534 -0.10492 0.11321 0.0064227 -0.035334 -0.19456 -0.11847 -0.19918 0.2104 -0.038946 -0.18286 0.21371 -0.032673 0.0504 0.0063416 0.30269 -0.46891 0.020396 0.033008 0.37636 -0.041925 0.057405 0.093228 -0.078458 0.17756 -0.034681 -0.19094 -0.05443 0.2589 0.26175 -0.013884 0.17359 0.20403 -0.27273 0.048527 0.14485 -0.22874 0.017888 -0.19286 0.21722 0.14193 0.02231 -0.14088 0.24388 -0.15091 0.070905 -0.42763 -0.12648 -0.025109 -0.2945 -0.057398 0.22284 -0.22872 
's -0.040927 -0.08244 -0.1776 -0.032031 0.097395 0.041272 -0.15912 0.083527 -0.0032358 -0.088879 0.018054 -0.14383 0.0013468 -0.10493 0.00041504 -0.03134 0.10093 -0.08253 -0.088519 0.06336 -0.036354 0.060508 0.24845 -0.25879 0.052682 -0.20528 -0.019345 0.042882 -0.0694 -0.038469 -0.19757 0.13409 0.098383 -0.11122 -0.034776 0.088405 -0.22175 -0.043542 0.041297 -0.1436 0.022802 -0.15416 0.32058 0.048326 -0.0034057 0.32146 0.13073 -0.079237 -0.10965 0.1202 0.0023953 -0.016378 -0.22025 -0.1061 -0.20793 0.20344 -0.040011 -0.18701 0.20221 -0.010196 0.051143 0.010312 0.32127 -0.43764 0.028537 0.035275 0.36284 -0.061713 0.055 0.09065 -0.077634 0.17096 -0.016975 -0.20465 -0.059274 0.26762 0.25828 -0.01363 0.17832 0.20267 -0.27653 0.036278 0.17102 -0.23356 0.026039 -0.20867 0.18864 0.12041 -0.0060802 -0.13763 0.24822 -0.15181 0.082825 -0.41831 -0.12126 -0.021241 -0.30253 -0.042558 0.21193 -0.24008 
/STAGE -0.089386 0.39681 -0.17953 -0.031654 0.35578 0.29032 0.14476 -0.023269 0.18704 0.48664 -0.11724 -0.01964 -0.25795 0.079468 -0.31667 -0.13602 0.11082 0.14074 -0.13776 0.1768 -0.28785 -0.039956 0.45955 -0.30982 0.14204 0.33715 0.047037 -0.17283 0.055584 0.10703 -0.15707 0.058027 -0.052448 -0.099074 -0.36114 0.081359 -0.48639 -0.03527 0.038788 -0.37233 0.05729 0.068147 -0.028351 -0.039775 0.18563 0.048077 0.19942 -0.41144 -0.18427 0.32577 0.053471 0.19565 -0.59699 0.065242 -0.27802 -0.014765 -0.027594 -0.27124 -0.076349 0.3431 0.013079 -0.014986 0.62533 0.18125 0.18476 0.063297 0.025647 -0.15508 -0.062019 -0.00085148 -0.081914 -0.022728 0.33912 -0.55082 0.047184 0.38975 0.00649 0.046304 0.31197 0.28988 -0.26016 -0.015194 0.62253 -0.21528 0.15783 -0.43645 -0.28039 -0.35595 -0.55764 0.06113 0.3087 -0.14513 0.31212 -0.14117 -0.06545 0.0087603 -0.29857 0.16188 0.038945 -0.3792 
STAGE -0.09295 0.45297 -0.18234 -0.030419 0.38793 0.32238 0.18167 -0.033842 0.20781 0.55591 -0.134 -0.0079142 -0.28679 0.1043 -0.35348 -0.15054 0.11282 0.16775 -0.14703 0.19096 -0.31853 -0.049564 0.48818 -0.32136 0.15288 0.40163 0.056986 -0.19512 0.070357 0.12145 -0.15327 0.050146 -0.068853 -0.098469 -0.39987 0.082304 -0.52317 -0.034951 0.041658 -0.40133 0.060092 0.093366 -0.065427 -0.050597 0.20849 0.020263 0.20537 -0.45196 -0.19109 0.35218 0.058723 0.22083 -0.64617 0.083231 -0.28681 -0.037568 -0.027736 -0.28383 -0.1093 0.38703 0.011062 -0.017378 0.66861 0.24642 0.2057 0.065233 -0.010994 -0.17243 -0.075254 -0.012664 -0.082823 -0.045561 0.38371 -0.59519 0.05822 0.40737 -0.020459 0.053573 0.33123 0.3046 -0.26159 -0.025631 0.67759 -0.21332 0.1754 -0.4657 -0.33248 -0.41165 -0.62221 0.082418 0.31788 -0.14557 0.33866 -0.114 -0.05809 0.0095706 -0.30123 0.18726 0.02575 -0.40179 
me -0.039251 -0.11879 -0.18089 -0.030764 0.088954 0.024405 -0.18083 0.095365 -0.021764 -0.13432 0.036453 -0.14152 0.011954 -0.12074 0.026579 -0.0076282 0.096761 -0.094337 -0.084862 0.046216 -0.017479 0.069335 0.23486 -0.25064 0.041905 -0.24041 -0.01853 0.057552 -0.084239 -0.043411 -0.20052 0.14205 0.10985 -0.10892 -0.0094882 0.098606 -0.19775 -0.04995 0.032322 -0.1375 0.023229 -0.16885 0.3462 0.053047 -0.023092 0.33993 0.12851 -0.052487 -0.10974 0.11492 0.0023923 -0.046001 -0.19155 -0.12427 -0.1966 0.20936 -0.037103 -0.18256 0.22216 -0.044826 0.046014 0.0093841 0.30056 -0.49031 0.0090045 0.027644 0.37973 -0.043909 0.056446 0.10139 -0.079605 0.18238 -0.040703 -0.17564 -0.055456 0.2569 0.27542 -0.019038 0.16873 0.19973 -0.26878 0.047746 0.13087 -0.2271 0.012052 -0.19409 0.22381 0.14567 0.038373 -0.13979 0.243 -0.14735 0.069752 -0.43639 -0.12017 -0.038593 -0.29956 -0.063028 0.22142 -0.22734 
with -0.034399 -0.093206 -0.18262 -0.030706 0.092527 0.030663 -0.16727 0.087479 -0.0039647 -0.10024 0.034713 -0.1423 -0.0046769 -0.11819 0.0069327 -0.017455 0.098543 -0.089233 -0.082079 0.055421 -0.029965 0.067533 0.25042 -0.25475 0.052081 -0.21902 -0.015886 0.039091 -0.077172 -0.042072 -0.19592 0.1411 0.10193 -0.11152 -0.02365 0.089435 -0.20987 -0.049001 0.041976 -0.14436 0.027657 -0.16014 0.32244 0.048603 -0.010703 0.33176 0.13406 -0.066833 -0.1051 0.12268 0.005226 -0.02699 -0.20885 -0.11806 -0.20714 0.20208 -0.036414 -0.18928 0.21017 -0.025894 0.047208 0.0087056 0.31409 -0.44898 0.020115 0.02953 0.37126 -0.048654 0.062207 0.093937 -0.07635 0.17126 -0.025001 -0.2072 -0.047479 0.25874 0.25485 -0.016585 0.17712 0.20411 -0.27045 0.047706 0.1611 -0.22959 0.022531 -0.20118 0.20836 0.13386 0.0077951 -0.13404 0.24644 -0.15425 0.082835 -0.42155 -0.12055 -0.026757 -0.29888 -0.049129 0.21491 -0.23614 
your -0.031282 -0.099828 -0.18334 -0.035678 0.08343 0.035731 -0.16593 0.098147 -0.015503 -0.11469 0.030184 -0.14235 0.0052174 -0.11842 0.020397 -0.016168 0.091588 -0.085224 -0.085238 0.054858 -0.02343 0.055476 0.24015 -0.2491 0.050109 -0.22513 -0.018588 0.048976 -0.075654 -0.041172 -0.19657 0.13684 0.10495 -0.10349 -0.020179 0.10184 -0.20525 -0.053776 0.031687 -0.14373 0.025025 -0.15244 0.32599 0.04674 -0.0072198 0.33233 0.12255 -0.056793 -0.11729 0.1194 0.0036382 -0.034205 -0.20166 -0.12277 -0.19524 0.20443 -0.033952 -0.17934 0.20498 -0.035042 0.050719 0.0075015 0.31568 -0.46573 0.010791 0.024542 0.36982 -0.045219 0.058099 0.093577 -0.083002 0.16631 -0.019872 -0.18542 -0.054494 0.25679 0.25559 -0.012873 0.17832 0.20817 -0.27074 0.045271 0.14134 -0.21751 0.020966 -0.18778 0.21648 0.13563 0.012589 -0.13248 0.24704 -0.1432 0.071058 -0.42134 -0.12158 -0.033007 -0.29951 -0.052991 0.22149 -0.23442 
be -0.033375 -0.1039 -0.17737 -0.034587 0.088972 0.029524 -0.17871 0.096669 -0.010386 -0.11294 0.029809 -0.1523 -0.0015694 -0.11733 0.014831 -0.013923 0.096733 -0.094976 -0.084446 0.055491 -0.028389 0.064534 0.23803 -0.25071 0.041087 -0.22706 -0.016504 0.049502 -0.083139 -0.044762 -0.18544 0.13588 0.10595 -0.11284 -0.016302 0.093029 -0.20775 -0.053575 0.03826 -0.13301 0.027182 -0.16416 0.33241 0.05386 -0.0082725 0.33789 0.12419 -0.059825 -0.10736 0.11896 -0.0008095 -0.029089 -0.20147 -0.12008 -0.19745 0.207 -0.03572 -0.18697 0.20736 -0.036252 0.0515 0.0081205 0.31433 -0.47015 0.020263 0.027169 0.36896 -0.043567 0.060323 0.093062 -0.073824 0.18329 -0.033448 -0.18841 -0.051658 0.25811 0.26459 -0.01751 0.17572 0.20549 -0.26951 0.050423 0.14485 -0.22953 0.0087644 -0.19831 0.21618 0.13286 0.014165 -0.13382 0.24646 -0.15157 0.07443 -0.4264 -0.11859 -0.031043 -0.29432 -0.054777 0.22308 -0.22819 
lord -0.039664 0.093957 -0.15091 -0.031656 0.16795 0.13504 -0.021377 0.035076 0.044196 0.12455 -0.038554 -0.083113 -0.078692 -0.023064 -0.10622 -0.063719 0.086142 0.005761 -0.092119 0.081812 -0.11579 0.0068506 0.28194 -0.2321 0.064192 0.0045391 -0.0020571 -0.025989 -0.026366 0.025342 -0.15557 0.081537 0.023252 -0.084204 -0.14426 0.088105 -0.26903 -0.045445 0.024248 -0.19601 0.035103 -0.044976 0.14162 0.010845 0.062684 0.18413 0.11454 -0.17395 -0.12318 0.17052 0.021414 0.048292 -0.31276 -0.034477 -0.18114 0.092556 -0.026725 -0.18522 0.077161 0.10427 0.030741 -0.0056005 0.38518 -0.17603 0.067912 0.034224 0.1838 -0.09456 -0.0032457 0.052071 -0.073277 0.07502 0.11362 -0.28654 -0.012795 0.26786 0.13641 0.011431 0.1951 0.20243 -0.22231 0.012813 0.27658 -0.16804 0.074611 -0.24521 0.00073006 -0.071353 -0.19784 -0.030366 0.22869 -0.11844 0.13398 -0.25989 -0.083878 -0.025789 -0.24523 0.029846 0.13096 -0.24841 
him -0.042848 -0.062597 -0.17885 -0.031464 0.10884 0.053127 -0.14198 0.087854 -0.0039435 -0.063941 0.015918 -0.13493 -0.016275 -0.099259 -0.019109 -0.028251 0.091123 -0.076774 -0.088578 0.061323 -0.047216 0.055714 0.25836 -0.24773 0.051785 -0.1796 -0.015259 0.034645 -0.069095 -0.026767 -0.19637 0.13188 0.090795 -0.10793 -0.048582 0.089748 -0.22079 -0.052084 0.038563 -0.157 0.028902 -0.13878 0.29771 0.040682 0.0015937 0.30931 0.12896 -0.089541 -0.11517 0.13594 0.0052821 -0.021746 -0.23052 -0.10184 -0.20555 0.18545 -0.032274 -0.19029 0.18982 -0.0054795 0.041167 0.0021202 0.3379 -0.41128 0.034948 0.028887 0.34351 -0.063525 0.053052 0.088086 -0.077151 0.15861 -8.7374e-05 -0.2128 -0.043684 0.26567 0.23891 -0.0084465 0.17732 0.20648 -0.26772 0.043388 0.17781 -0.22104 0.027398 -0.20703 0.17092 0.091399 -0.032476 -0.11199 0.25248 -0.14812 0.092781 -0.39957 -0.11737 -0.030043 -0.29836 -0.03906 0.20376 -0.23832 
he -0.033196 -0.11227 -0.18803 -0.023879 0.086647 0.024724 -0.17939 0.091984 -0.019102 -0.12708 0.03702 -0.14751 0.012174 -0.1298 0.023771 -0.015382 0.1005 -0.09309 -0.084421 0.046207 -0.0074563 0.070387 0.24305 -0.25457 0.046106 -0.24937 -0.017221 0.061831 -0.088742 -0.040046 -0.19823 0.13951 0.11379 -0.11276 -0.015066 0.097101 -0.19671 -0.056304 0.034204 -0.14631 0.025512 -0.16917 0.3399 0.058165 -0.01135 0.3533 0.12747 -0.054552 -0.10401 0.11386 -0.0063721 -0.035518 -0.19329 -0.12112 -0.20051 0.21966 -0.032311 -0.19363 0.23355 -0.039768 0.04215 0.014302 0.30871 -0.48472 0.018136 0.032226 0.39152 -0.049561 0.071683 0.094973 -0.073725 0.18671 -0.046614 -0.18792 -0.059565 0.25782 0.27515 -0.016215 0.16648 0.20561 -0.2828 0.058185 0.14205 -0.22948 0.016958 -0.19575 0.23035 0.15587 0.027233 -0.15037 0.24977 -0.14735 0.065396 -0.44261 -0.12843 -0.033994 -0.30218 -0.056637 0.22765 -0.22605 
for -0.032948 -0.1668 -0.19036 -0.029644 0.062916 0.00015158 -0.21988 0.10906 -0.037148 -0.19621 0.043918 -0.16907 0.034811 -0.14737 0.04726 -0.0055039 0.098478 -0.12572 -0.083843 0.037954 0.0044854 0.079403 0.22377 -0.2598 0.034581 -0.3034 -0.020204 0.073274 -0.09708 -0.066369 -0.21203 0.15125 0.13201 -0.11916 0.017581 0.094001 -0.18243 -0.056105 0.034372 -0.12039 0.018683 -0.19783 0.39421 0.068578 -0.037994 0.38793 0.12725 -0.024243 -0.10547 0.094811 -0.0054891 -0.061246 -0.16173 -0.14275 -0.19886 0.23658 -0.035242 -0.18415 0.25659 -0.082579 0.057253 0.013341 0.28774 -0.55669 -0.0046236 0.024769 0.4349 -0.035581 0.070761 0.10561 -0.078678 0.21555 -0.081532 -0.1584 -0.069635 0.24994 0.31009 -0.01823 0.16381 0.20075 -0.28274 0.063927 0.10074 -0.24298 -0.002713 -0.17997 0.2862 0.20222 0.087045 -0.16703 0.25157 -0.16804 0.048805 -0.48674 -0.13158 -0.033061 -0.31121 -0.082255 0.2486 -0.22237 
have -0.034046 -0.10532 -0.18224 -0.029257 0.090392 0.031293 -0.17534 0.092879 -0.017801 -0.12259 0.024286 -0.14556 0.010999 -0.12129 0.015656 -0.017183 0.097536 -0.094022 -0.079554 0.049826 -0.018572 0.062978 0.24055 -0.25042 0.044498 -0.23296 -0.021401 0.050492 -0.081189 -0.047927 -0.19625 0.14056 0.10831 -0.11457 -0.022567 0.093034 -0.20789 -0.052392 0.035981 -0.1408 0.025795 -0.162 0.33494 0.054057 -0.01293 0.33903 0.12356 -0.06035 -0.10704 0.12088 -0.00067559 -0.035409 -0.19882 -0.12201 -0.1974 0.2098 -0.038709 -0.18477 0.21822 -0.040512 0.051214 0.0062401 0.31084 -0.47439 0.020171 0.031461 0.37697 -0.046622 0.061623 0.094668 -0.074986 0.18142 -0.032798 -0.19134 -0.056324 0.26531 0.26608 -0.016408 0.17349 0.20297 -0.27192 0.047626 0.14329 -0.22853 0.014579 -0.19409 0.22088 0.14008 0.014748 -0.13467 0.24843 -0.1538 0.072417 -0.43297 -0.12511 -0.033737 -0.2971 -0.059153 0.22172 -0.22914 
but -0.042423 -0.056894 -0.17804 -0.029866 0.10572 0.053226 -0.13986 0.078392 -0.0032413 -0.064318 0.015346 -0.12434 -0.016205 -0.09565 -0.021366 -0.026409 0.093529 -0.070226 -0.082415 0.05736 -0.052402 0.052828 0.25459 -0.24758 0.047612 -0.17802 -0.012658 0.040202 -0.074148 -0.031361 -0.18616 0.11584 0.087581 -0.10994 -0.045051 0.091488 -0.22675 -0.051835 0.037341 -0.15425 0.026379 -0.13284 0.29139 0.043789 0.0068333 0.30192 0.12537 -0.083284 -0.1202 0.12986 0.0060417 -0.013016 -0.23203 -0.096023 -0.19601 0.18745 -0.035552 -0.19225 0.18604 -0.0060288 0.036746 0.0075528 0.32802 -0.40678 0.031561 0.02895 0.33501 -0.062018 0.041356 0.077207 -0.074282 0.159 -0.0035436 -0.2114 -0.043865 0.26219 0.23496 -0.010149 0.18359 0.20317 -0.26008 0.043202 0.17747 -0.22219 0.022987 -0.2062 0.16702 0.092433 -0.02904 -0.11577 0.24363 -0.13972 0.08448 -0.39792 -0.11568 -0.028271 -0.28624 -0.0357 0.20438 -0.23773 
The -0.038766 -0.0033423 -0.17589 -0.025234 0.14081 0.082436 -0.10108 0.063503 0.019377 0.010365 -0.0014305 -0.11152 -0.048187 -0.078203 -0.052381 -0.045955 0.094323 -0.043156 -0.091855 0.069786 -0.074063 0.04541 0.2767 -0.24966 0.059551 -0.11464 -0.0094461 0.0050599 -0.047024 -0.0162 -0.18164 0.10939 0.066503 -0.098152 -0.08434 0.083013 -0.25151 -0.047968 0.034012 -0.17546 0.027945 -0.11034 0.24532 0.033136 0.029748 0.27 0.13769 -0.12531 -0.11435 0.15291 0.0061797 0.01348 -0.26796 -0.072967 -0.21016 0.15691 -0.029464 -0.18997 0.14965 0.046702 0.035246 0.002844 0.36003 -0.32773 0.043666 0.039635 0.29028 -0.074005 0.033977 0.07521 -0.075604 0.13242 0.042666 -0.26069 -0.03678 0.27425 0.20363 -0.00118 0.19519 0.20798 -0.25635 0.032879 0.22866 -0.20955 0.050764 -0.23024 0.10505 0.035408 -0.098016 -0.096654 0.24891 -0.13793 0.11293 -0.35894 -0.10787 -0.021786 -0.28523 -0.0080092 0.176 -0.25205 
will -0.037005 -0.079709 -0.17714 -0.032743 0.098414 0.041699 -0.15135 0.083189 -0.0019047 -0.08528 0.017937 -0.13184 -0.0070067 -0.10675 -0.0013473 -0.027887 0.094862 -0.07905 -0.080486 0.053081 -0.034382 0.061627 0.24532 -0.24114 0.04623 -0.19804 -0.01548 0.039849 -0.07262 -0.038542 -0.18552 0.12217 0.094278 -0.10548 -0.033858 0.092999 -0.20509 -0.044969 0.036431 -0.14418 0.023877 -0.14469 0.3062 0.048633 -0.00097374 0.31304 0.12495 -0.070763 -0.11526 0.12172 0.0060534 -0.025229 -0.21251 -0.11109 -0.19384 0.19066 -0.030998 -0.18278 0.19015 -0.0174 0.04457 0.0075901 0.31256 -0.41911 0.020344 0.027075 0.34856 -0.051096 0.053817 0.085048 -0.071274 0.16088 -0.012108 -0.20064 -0.050541 0.25827 0.23961 -0.013295 0.17419 0.19929 -0.26018 0.042609 0.15588 -0.21417 0.020684 -0.19659 0.18507 0.11408 -0.0035637 -0.12603 0.24367 -0.14194 0.081382 -0.40148 -0.11225 -0.02517 -0.28625 -0.040197 0.2084 -0.23221 
so -0.038377 -0.10883 -0.18969 -0.029961 0.090775 0.022916 -0.17215 0.097173 -0.010439 -0.11771 0.032208 -0.14582 0.0029057 -0.12561 0.01713 -0.014521 0.09524 -0.10133 -0.088562 0.052194 -0.026818 0.062699 0.24216 -0.25565 0.044912 -0.23808 -0.017965 0.052472 -0.083893 -0.045149 -0.19962 0.13937 0.10689 -0.11584 -0.013837 0.093828 -0.21018 -0.050469 0.037707 -0.14384 0.020816 -0.17333 0.34038 0.05469 -0.014989 0.34933 0.1318 -0.06073 -0.1052 0.11827 0.0029982 -0.031832 -0.20682 -0.12645 -0.20144 0.21264 -0.036888 -0.19009 0.21677 -0.039238 0.053178 0.0088778 0.31072 -0.47421 0.01507 0.034095 0.38059 -0.047743 0.06371 0.098813 -0.079688 0.18308 -0.039292 -0.19367 -0.057135 0.25679 0.26923 -0.012493 0.17741 0.21047 -0.27459 0.056686 0.14812 -0.23068 0.01762 -0.20084 0.22434 0.13647 0.0222 -0.14364 0.25178 -0.1534 0.079223 -0.43746 -0.12236 -0.028276 -0.30983 -0.053204 0.21759 -0.23981 
as -0.040188 -0.084311 -0.17969 -0.029042 0.10208 0.041096 -0.1596 0.088318 -0.0081707 -0.084844 0.019107 -0.14342 -0.0061928 -0.10159 -0.0065986 -0.021636 0.098021 -0.083443 -0.083109 0.069402 -0.038395 0.063717 0.26047 -0.25614 0.049024 -0.20448 -0.012345 0.042795 -0.069632 -0.035868 -0.19265 0.12583 0.096576 -0.11207 -0.038647 0.098267 -0.21962 -0.053115 0.037026 -0.15877 0.020754 -0.15247 0.31942 0.045022 -0.0002365 0.31869 0.12294 -0.076991 -0.11165 0.13277 0.008729 -0.017779 -0.22647 -0.10629 -0.20449 0.19776 -0.038118 -0.18482 0.19862 -0.008607 0.049294 0.0059803 0.32997 -0.43238 0.029425 0.034417 0.35746 -0.058229 0.052179 0.09551 -0.08019 0.17002 -0.018512 -0.21521 -0.053547 0.27657 0.25346 -0.017345 0.18017 0.20887 -0.27229 0.049884 0.17194 -0.22767 0.025863 -0.21028 0.18956 0.11397 -0.011956 -0.11778 0.25379 -0.15264 0.083692 -0.41679 -0.12443 -0.023582 -0.30804 -0.044138 0.20794 -0.24268 
That -0.039818 -0.07659 -0.18046 -0.030535 0.097574 0.042636 -0.1506 0.085326 -0.0030252 -0.083423 0.017617 -0.13756 -0.0087342 -0.10706 -0.00037916 -0.021349 0.093417 -0.079822 -0.087547 0.059948 -0.0413 0.058777 0.24973 -0.25426 0.048314 -0.19789 -0.016491 0.043317 -0.068431 -0.035365 -0.19167 0.12801 0.091969 -0.11072 -0.034099 0.08729 -0.21874 -0.053198 0.032676 -0.1485 0.02489 -0.14511 0.31253 0.046399 -0.0014431 0.32205 0.12319 -0.077802 -0.11191 0.12467 0.0074382 -0.021382 -0.22095 -0.104 -0.19823 0.19772 -0.034378 -0.18498 0.19796 -0.011307 0.046087 0.0051943 0.32192 -0.43375 0.024294 0.033117 0.35456 -0.059408 0.055505 0.088954 -0.075166 0.16695 -0.01007 -0.2059 -0.048745 0.26407 0.24694 -0.010266 0.18053 0.2036 -0.26311 0.045787 0.16819 -0.2241 0.02444 -0.20389 0.18994 0.1068 -0.010008 -0.1298 0.24936 -0.14759 0.081098 -0.41174 -0.11899 -0.024828 -0.2976 -0.042917 0.2085 -0.23797 
To -0.0418 -0.053558 -0.18401 -0.028258 0.11586 0.055165 -0.13909 0.072644 0.01305 -0.048603 0.012292 -0.12868 -0.018708 -0.095888 -0.018214 -0.027209 0.099571 -0.06966 -0.087562 0.064784 -0.052595 0.053706 0.25768 -0.25469 0.057328 -0.17243 -0.010347 0.030235 -0.065621 -0.027456 -0.18775 0.12307 0.091692 -0.10877 -0.057071 0.088623 -0.2361 -0.04877 0.039499 -0.16102 0.028331 -0.13657 0.29925 0.045985 0.008821 0.30825 0.1391 -0.098787 -0.10961 0.13526 0.0032963 -0.006866 -0.23549 -0.1047 -0.20503 0.18326 -0.033133 -0.18837 0.185 0.010368 0.047139 0.0090627 0.34055 -0.3967 0.032237 0.033051 0.32782 -0.058424 0.042977 0.081084 -0.080908 0.15849 0.0097249 -0.22606 -0.049591 0.26766 0.22919 -0.0049427 0.19022 0.21631 -0.27214 0.044414 0.18863 -0.22481 0.020464 -0.21837 0.16302 0.082648 -0.036218 -0.11529 0.25537 -0.148 0.098761 -0.39803 -0.11136 -0.017684 -0.29295 -0.032541 0.19383 -0.24555 
do -0.040157 -0.0032937 -0.16688 -0.029179 0.12882 0.081605 -0.096018 0.071331 0.0215 0.0040344 -0.010136 -0.11375 -0.035203 -0.071701 -0.056653 -0.041804 0.085939 -0.041993 -0.084963 0.073698 -0.074256 0.037756 0.26556 -0.23903 0.056079 -0.11206 -0.011644 0.012595 -0.052813 -0.014569 -0.1752 0.10718 0.06672 -0.10023 -0.081407 0.093233 -0.24669 -0.047961 0.029553 -0.17026 0.032091 -0.097741 0.24913 0.032956 0.028308 0.26482 0.12776 -0.12139 -0.11092 0.14847 0.014577 0.011941 -0.26781 -0.071928 -0.20288 0.15461 -0.034091 -0.19104 0.14638 0.038405 0.039759 -0.0036638 0.35799 -0.32334 0.049964 0.033456 0.27596 -0.078244 0.023121 0.067265 -0.075269 0.13167 0.047623 -0.23916 -0.034107 0.27212 0.19889 -0.0076898 0.1847 0.20393 -0.25375 0.034314 0.22058 -0.2073 0.039716 -0.22577 0.10777 0.035057 -0.086245 -0.078506 0.24398 -0.13866 0.10238 -0.34938 -0.1111 -0.02422 -0.28415 -0.012624 0.17541 -0.25013 
1 -0.057289 0.24732 -0.14918 -0.022222 0.25609 0.20276 0.059787 -0.0073814 0.10573 0.30347 -0.076682 -0.052074 -0.14282 0.039429 -0.21287 -0.098549 0.11208 0.0705 -0.10871 0.09594 -0.20957 -0.023521 0.33882 -0.22996 0.090962 0.17358 0.032449 -0.099324 0.0081872 0.067863 -0.13444 0.051603 -0.016571 -0.083445 -0.26664 0.088366 -0.36184 -0.058509 0.028082 -0.25567 0.054137 0.024378 0.045163 -0.0027404 0.1179 0.09968 0.12744 -0.2763 -0.15009 0.24316 0.035797 0.11664 -0.42309 0.025346 -0.22062 0.0528 -0.032784 -0.22552 -0.023526 0.22694 0.028907 -0.030464 0.45569 0.017173 0.1246 0.038828 0.069266 -0.11329 -0.051293 0.005418 -0.082505 0.022347 0.23604 -0.37557 0.029098 0.31289 0.064351 0.020516 0.24735 0.21351 -0.2266 -0.013033 0.42639 -0.19065 0.095458 -0.31366 -0.14891 -0.19831 -0.36854 0.010402 0.23167 -0.12207 0.18787 -0.18406 -0.076346 -0.0068985 -0.24534 0.090671 0.077449 -0.28697 
on -0.0326 -0.13925 -0.19052 -0.031852 0.068017 0.013409 -0.19474 0.10694 -0.020585 -0.1626 0.045462 -0.1567 0.014912 -0.1355 0.035233 -0.0096763 0.093735 -0.11071 -0.077476 0.046963 -0.0099618 0.066349 0.2302 -0.25324 0.044204 -0.27497 -0.027024 0.066828 -0.082499 -0.055995 -0.20408 0.14188 0.11829 -0.10787 0.010066 0.095536 -0.19515 -0.048139 0.042676 -0.12377 0.025444 -0.17506 0.35844 0.058514 -0.029579 0.35979 0.13097 -0.030205 -0.10448 0.11097 -0.0012007 -0.045231 -0.17964 -0.13096 -0.20181 0.22655 -0.041921 -0.18197 0.22811 -0.062649 0.051598 0.00306 0.28998 -0.51365 0.0099146 0.026233 0.40566 -0.034376 0.065751 0.10054 -0.078807 0.19789 -0.056491 -0.16274 -0.071251 0.25469 0.28288 -0.014719 0.16642 0.1967 -0.28119 0.061037 0.11799 -0.2364 0.0016439 -0.17559 0.25695 0.1817 0.053037 -0.15399 0.23849 -0.15347 0.057911 -0.45036 -0.12663 -0.026922 -0.30656 -0.068369 0.23075 -0.22034 
are -0.04076 -0.091167 -0.18188 -0.03125 0.09603 0.03204 -0.16782 0.092349 -0.0090471 -0.10538 0.026181 -0.14027 0.0035776 -0.1114 0.011462 -0.017429 0.091764 -0.086179 -0.086904 0.053358 -0.030846 0.063893 0.24447 -0.24955 0.050032 -0.22389 -0.020378 0.048067 -0.079238 -0.044576 -0.19839 0.13034 0.10047 -0.109 -0.022013 0.090978 -0.21289 -0.044784 0.039334 -0.14034 0.025614 -0.15542 0.33391 0.047472 -0.0059114 0.33175 0.12695 -0.067471 -0.11418 0.11797 0.0028078 -0.029498 -0.20742 -0.1137 -0.19718 0.20504 -0.033822 -0.17939 0.20527 -0.031091 0.051861 0.0096519 0.31316 -0.46539 0.015133 0.037944 0.36659 -0.047775 0.052538 0.090534 -0.078036 0.1682 -0.028486 -0.19475 -0.056392 0.2625 0.26012 -0.016633 0.1755 0.2028 -0.26766 0.046701 0.14596 -0.23169 0.019738 -0.19909 0.20825 0.12712 0.0076314 -0.13292 0.24789 -0.14609 0.077745 -0.42666 -0.11736 -0.034146 -0.30446 -0.055845 0.21157 -0.23271 
what -0.037234 -0.060492 -0.17164 -0.029434 0.10261 0.051351 -0.14099 0.077319 0.0040258 -0.069433 0.011509 -0.13206 -0.015525 -0.098894 -0.010574 -0.024451 0.092417 -0.070712 -0.087362 0.058003 -0.047294 0.052862 0.24454 -0.24423 0.048807 -0.1756 -0.0077124 0.035015 -0.068311 -0.030191 -0.18689 0.12432 0.084537 -0.10498 -0.042861 0.086651 -0.21976 -0.043496 0.034922 -0.15061 0.024419 -0.12755 0.28461 0.043697 0.0062615 0.29977 0.12026 -0.084065 -0.11142 0.12615 0.0087241 -0.019332 -0.22357 -0.097088 -0.19377 0.18455 -0.034818 -0.18701 0.18392 -0.0038431 0.044684 0.0082775 0.31739 -0.39734 0.030339 0.032359 0.32741 -0.057057 0.052634 0.079679 -0.07339 0.15575 -0.00053484 -0.20754 -0.043003 0.25611 0.23324 -0.0079686 0.17491 0.20008 -0.25572 0.040089 0.16998 -0.21354 0.030168 -0.20127 0.17151 0.092213 -0.023253 -0.11815 0.24156 -0.14206 0.084762 -0.39092 -0.11436 -0.02735 -0.28513 -0.042193 0.19373 -0.23122 
we -0.042669 -0.070211 -0.17898 -0.026769 0.10414 0.051943 -0.1484 0.085347 -0.00026588 -0.080205 0.016798 -0.13283 -0.00030513 -0.10689 -0.0028382 -0.027092 0.098299 -0.079927 -0.092099 0.056196 -0.039768 0.057313 0.25242 -0.25142 0.059095 -0.18593 -0.014783 0.031856 -0.065316 -0.032259 -0.18869 0.13652 0.088232 -0.1064 -0.040677 0.090511 -0.2189 -0.044772 0.037244 -0.15138 0.032624 -0.13482 0.30871 0.044515 0.0039565 0.30941 0.12313 -0.081892 -0.10886 0.13398 0.0094385 -0.014742 -0.22681 -0.10832 -0.19729 0.19857 -0.035978 -0.1865 0.18594 -0.0042648 0.044731 0.001086 0.333 -0.42139 0.030378 0.034467 0.34739 -0.057488 0.049735 0.085162 -0.075406 0.15735 -0.0076213 -0.20913 -0.051524 0.26618 0.23359 -0.017769 0.17757 0.20438 -0.26399 0.042258 0.16836 -0.21481 0.025858 -0.20168 0.18368 0.10341 -0.025044 -0.11369 0.24683 -0.14635 0.081079 -0.40643 -0.11688 -0.026864 -0.29704 -0.043093 0.2079 -0.23971 
O -0.047097 0.13345 -0.14633 -0.028066 0.18571 0.14601 0.0012413 0.025502 0.073153 0.1757 -0.039989 -0.059143 -0.1041 0.0027965 -0.14141 -0.074527 0.087303 0.032535 -0.094231 0.089519 -0.13747 0.0034016 0.29668 -0.22428 0.078934 0.057205 0.0048015 -0.052709 -0.01287 0.029819 -0.13809 0.061862 0.019762 -0.089283 -0.16991 0.083599 -0.29416 -0.038984 0.029052 -0.20756 0.02677 -0.022781 0.11343 -0.00083098 0.082362 0.1479 0.13473 -0.2076 -0.12511 0.1987 0.023415 0.070942 -0.34313 -0.012738 -0.18794 0.077532 -0.023872 -0.18463 0.052617 0.14506 0.026412 -0.0095266 0.40467 -0.10547 0.088336 0.040599 0.1498 -0.094785 -0.0037982 0.04018 -0.067551 0.057352 0.14701 -0.31169 0.0013347 0.2796 0.10624 0.0095022 0.21227 0.20152 -0.21096 0.0047528 0.32906 -0.174 0.07984 -0.25809 -0.044937 -0.11458 -0.24416 -0.028496 0.23155 -0.12872 0.16573 -0.22974 -0.07837 -0.0060113 -0.23204 0.058897 0.10854 -0.27049 
HORATIO -0.057464 0.24249 -0.15566 -0.028934 0.24871 0.21229 0.071786 -0.0074761 0.10048 0.30359 -0.080213 -0.05025 -0.15311 0.038997 -0.20456 -0.10351 0.091834 0.072691 -0.10516 0.11091 -0.19674 -0.020507 0.34465 -0.2391 0.092361 0.17896 0.01773 -0.088863 0.010169 0.063712 -0.13896 0.062611 -0.018158 -0.085946 -0.25302 0.083428 -0.35936 -0.050556 0.022724 -0.2623 0.051287 0.022203 0.038286 -0.012287 0.12039 0.098887 0.13432 -0.27585 -0.14086 0.23516 0.034643 0.12254 -0.43434 0.029578 -0.20804 0.038065 -0.025121 -0.21137 -0.015412 0.22291 0.01456 -0.021853 0.47763 0.0057088 0.12342 0.044724 0.077558 -0.12298 -0.044123 0.020618 -0.074951 0.019982 0.23381 -0.39117 0.019285 0.31306 0.058305 0.026612 0.24134 0.22391 -0.21637 -0.014942 0.42242 -0.17117 0.11507 -0.30849 -0.1449 -0.21233 -0.36292 0.020348 0.25024 -0.11702 0.19943 -0.1808 -0.075059 -0.01419 -0.24647 0.09727 0.082695 -0.29724 
/HORATIO -0.057957 0.23922 -0.15557 -0.027999 0.24772 0.20843 0.068725 -0.0058237 0.10009 0.2986 -0.080174 -0.050028 -0.15161 0.038159 -0.20185 -0.1012 0.09232 0.071257 -0.1045 0.11017 -0.19313 -0.018919 0.3432 -0.23921 0.09116 0.17485 0.019026 -0.087825 0.0074113 0.061119 -0.13894 0.061636 -0.017282 -0.087013 -0.24893 0.083126 -0.35802 -0.050494 0.023611 -0.26181 0.051148 0.018922 0.041716 -0.01187 0.11951 0.10157 0.13453 -0.27323 -0.14138 0.23335 0.033989 0.12234 -0.42991 0.030162 -0.20752 0.039881 -0.023976 -0.21073 -0.012302 0.21939 0.01545 -0.021276 0.47615 0.0015617 0.12203 0.04354 0.079564 -0.12273 -0.0433 0.021916 -0.075119 0.019294 0.22913 -0.38789 0.01864 0.31247 0.059447 0.026413 0.24103 0.2225 -0.21513 -0.013767 0.41994 -0.17099 0.11486 -0.30809 -0.14127 -0.20854 -0.35949 0.01876 0.24953 -0.118 0.19909 -0.18319 -0.075095 -0.011708 -0.24618 0.094859 0.082909 -0.29588 
shall -0.038914 -0.063933 -0.18364 -0.027561 0.10334 0.055667 -0.1468 0.089018 0.0011168 -0.06884 0.014246 -0.13588 -0.012608 -0.10596 -0.01028 -0.026421 0.095704 -0.073321 -0.087388 0.058707 -0.043094 0.054821 0.24894 -0.24707 0.048728 -0.18556 -0.012473 0.037644 -0.072331 -0.032013 -0.18689 0.12663 0.089259 -0.10237 -0.044976 0.094904 -0.22235 -0.04985 0.035017 -0.14968 0.027547 -0.13908 0.30093 0.044018 0.0068754 0.31235 0.12607 -0.081502 -0.11281 0.12753 0.0069872 -0.017566 -0.22383 -0.10734 -0.19734 0.18901 -0.030865 -0.18666 0.18697 -0.0069368 0.045087 0.0040171 0.32636 -0.4168 0.030157 0.027521 0.34482 -0.058211 0.047779 0.082579 -0.076522 0.15989 -0.0028042 -0.21107 -0.049355 0.26391 0.23961 -0.009563 0.17794 0.20895 -0.26862 0.043082 0.17437 -0.21939 0.023054 -0.2067 0.17874 0.10123 -0.020393 -0.11753 0.24555 -0.14507 0.091067 -0.40312 -0.11733 -0.028769 -0.29313 -0.03943 0.20505 -0.23613 
KING -0.058035 0.27311 -0.14769 -0.02708 0.26124 0.22715 0.091802 -0.0089347 0.12333 0.34168 -0.09383 -0.032517 -0.17377 0.051291 -0.224 -0.10949 0.08628 0.090037 -0.10237 0.12031 -0.20825 -0.024869 0.3585 -0.24291 0.097009 0.2182 0.022708 -0.10489 0.026443 0.072651 -0.13144 0.049533 -0.041564 -0.073477 -0.2658 0.075785 -0.37396 -0.04005 0.022238 -0.27241 0.047408 0.038339 0.0095122 -0.021486 0.13282 0.073211 0.13365 -0.2993 -0.14163 0.24744 0.042849 0.1339 -0.45119 0.04086 -0.20232 0.015332 -0.016353 -0.20993 -0.03278 0.24662 0.013718 -0.013924 0.48478 0.066359 0.12898 0.044522 0.048623 -0.12974 -0.048535 0.010444 -0.069709 -0.0017296 0.25633 -0.40948 0.030719 0.31384 0.038495 0.031919 0.2465 0.22028 -0.20776 -0.015317 0.44583 -0.16598 0.11841 -0.32244 -0.17926 -0.24595 -0.40217 0.029522 0.24445 -0.11794 0.21087 -0.15041 -0.066451 -0.0038295 -0.23561 0.11052 0.063188 -0.30227 
But -0.036306 -0.082158 -0.17878 -0.029351 0.096646 0.045999 -0.14777 0.081259 -0.0062499 -0.08961 0.015502 -0.12908 -0.0063717 -0.10878 -0.00088974 -0.026384 0.095139 -0.079773 -0.085195 0.056411 -0.041833 0.056136 0.24674 -0.24549 0.048161 -0.19909 -0.015958 0.045509 -0.07716 -0.035499 -0.19092 0.12513 0.097244 -0.10903 -0.03589 0.088338 -0.21836 -0.050495 0.03446 -0.14799 0.03005 -0.14344 0.31304 0.049531 0.001251 0.31521 0.12617 -0.070286 -0.10705 0.11953 0.0074111 -0.016697 -0.21279 -0.1073 -0.19439 0.19767 -0.032976 -0.1864 0.19229 -0.017998 0.049423 0.0078913 0.31656 -0.42708 0.023795 0.028496 0.34791 -0.049429 0.052854 0.080375 -0.072646 0.16314 -0.013393 -0.20174 -0.047968 0.2656 0.24903 -0.013031 0.17604 0.20122 -0.26796 0.047691 0.1604 -0.22244 0.021205 -0.20218 0.18675 0.11532 -0.0094991 -0.12545 0.24357 -0.14174 0.082262 -0.41034 -0.12106 -0.022377 -0.28911 -0.046614 0.20975 -0.23216 
our -0.032725 -0.11234 -0.18371 -0.032542 0.080937 0.032247 -0.17852 0.10009 -0.011005 -0.12987 0.0299 -0.14478 0.015911 -0.12356 0.017992 -0.018498 0.097184 -0.09367 -0.087045 0.056403 -0.023365 0.062831 0.24044 -0.25504 0.056792 -0.23602 -0.023665 0.055134 -0.078838 -0.045081 -0.20283 0.14206 0.11436 -0.11308 -0.010307 0.097641 -0.211 -0.053817 0.038886 -0.14367 0.025152 -0.15663 0.33995 0.046736 -0.0040005 0.34678 0.12428 -0.055331 -0.11781 0.11423 0.0067881 -0.036044 -0.20276 -0.12646 -0.19984 0.21949 -0.030101 -0.18653 0.21285 -0.041218 0.052188 0.0072882 0.31862 -0.48399 0.014362 0.028189 0.38444 -0.041856 0.065311 0.096397 -0.07988 0.18082 -0.031292 -0.18756 -0.055908 0.25943 0.26521 -0.014389 0.17911 0.21137 -0.27698 0.051534 0.14533 -0.23305 0.017018 -0.18683 0.22935 0.15612 0.02703 -0.14129 0.25079 -0.15156 0.070133 -0.43995 -0.12332 -0.035587 -0.30715 -0.06087 0.22783 -0.23881 
all -0.041604 -0.098121 -0.19233 -0.029076 0.092707 0.038159 -0.16986 0.096108 -0.011922 -0.1066 0.025372 -0.14284 0.00055443 -0.12247 0.008003 -0.017486 0.093103 -0.087686 -0.08687 0.056316 -0.0293 0.065752 0.24497 -0.2532 0.04045 -0.22503 -0.016562 0.047777 -0.07838 -0.041677 -0.19885 0.13562 0.10422 -0.11004 -0.021761 0.098337 -0.21479 -0.049368 0.038328 -0.14756 0.022727 -0.15977 0.32793 0.05028 -0.0063159 0.33164 0.12778 -0.06347 -0.11643 0.11544 0.0061687 -0.027946 -0.21002 -0.12025 -0.20598 0.20585 -0.036911 -0.19016 0.20459 -0.030747 0.044199 0.01063 0.31969 -0.46333 0.025643 0.028899 0.37296 -0.049 0.059499 0.092706 -0.076934 0.17426 -0.022228 -0.19783 -0.05602 0.26608 0.25931 -0.013127 0.17339 0.21175 -0.26939 0.047489 0.15244 -0.23059 0.010297 -0.19924 0.20728 0.12681 0.013018 -0.13469 0.24713 -0.15125 0.078016 -0.42778 -0.12422 -0.028627 -0.30399 -0.053514 0.21883 -0.23842 
't -0.043528 -0.012717 -0.17052 -0.028298 0.13145 0.082137 -0.10643 0.072179 0.01486 0.00028589 -0.0012106 -0.11567 -0.039718 -0.07932 -0.050538 -0.043954 0.089099 -0.041145 -0.08433 0.064474 -0.078311 0.041626 0.26593 -0.24907 0.050085 -0.11998 -0.0013553 0.01775 -0.048417 -0.018298 -0.1827 0.10436 0.069325 -0.10116 -0.080143 0.086348 -0.24437 -0.046652 0.033135 -0.16971 0.030122 -0.11118 0.25217 0.035967 0.0272 0.27029 0.13023 -0.11076 -0.12324 0.14391 0.016653 0.0092291 -0.26036 -0.075182 -0.20173 0.15562 -0.031346 -0.19189 0.14777 0.035724 0.036791 0.0022732 0.35027 -0.3291 0.046784 0.032121 0.28238 -0.061262 0.022862 0.06483 -0.079279 0.1341 0.034094 -0.2415 -0.037298 0.27936 0.19858 -0.00064787 0.18207 0.20098 -0.26183 0.036954 0.22175 -0.21148 0.0319 -0.22368 0.11442 0.042621 -0.085758 -0.089565 0.23664 -0.14256 0.10645 -0.35278 -0.11749 -0.023258 -0.27777 -0.010513 0.18503 -0.2476 
/KING -0.060144 0.2509 -0.15067 -0.025478 0.24885 0.21327 0.077193 -0.0031812 0.11671 0.31158 -0.086448 -0.042007 -0.1629 0.039983 -0.20954 -0.10234 0.086103 0.07905 -0.10598 0.11835 -0.19781 -0.018423 0.35134 -0.24433 0.094174 0.19096 0.021274 -0.098801 0.020089 0.067964 -0.13228 0.056124 -0.029538 -0.079731 -0.25088 0.078491 -0.36443 -0.040443 0.026283 -0.26804 0.045922 0.027259 0.026372 -0.014992 0.1273 0.090085 0.13825 -0.28691 -0.13865 0.23969 0.038984 0.1232 -0.43466 0.030962 -0.20658 0.028741 -0.017182 -0.21026 -0.017972 0.23018 0.017563 -0.011168 0.4741 0.033775 0.12436 0.043287 0.070447 -0.12415 -0.042009 0.012074 -0.072394 0.009851 0.23968 -0.39717 0.027515 0.30993 0.051071 0.029929 0.24354 0.22466 -0.211 -0.0099202 0.43254 -0.17107 0.11289 -0.31657 -0.15585 -0.22027 -0.37688 0.021321 0.2467 -0.11978 0.20702 -0.16802 -0.066743 -0.0037233 -0.24281 0.099223 0.069384 -0.2975 
by -0.043296 -0.040002 -0.18395 -0.025522 0.1107 0.068806 -0.13275 0.075736 0.0074392 -0.0394 2.8641e-05 -0.1228 -0.017724 -0.088276 -0.019507 -0.032092 0.10356 -0.067128 -0.091602 0.065005 -0.054112 0.047081 0.26438 -0.25998 0.059144 -0.15519 -0.0053909 0.032869 -0.064728 -0.025654 -0.1916 0.12637 0.084986 -0.10942 -0.061959 0.087968 -0.24569 -0.049021 0.043438 -0.16434 0.029252 -0.13162 0.27876 0.043433 0.010382 0.29645 0.13127 -0.1055 -0.11656 0.13815 0.010224 -0.0075164 -0.2461 -0.089946 -0.20822 0.1814 -0.037641 -0.19761 0.17818 0.0072217 0.040194 0.0060877 0.34502 -0.38121 0.035044 0.037814 0.32488 -0.057127 0.042854 0.0807 -0.07624 0.15385 0.016772 -0.23535 -0.046457 0.27471 0.22935 -0.0070823 0.19282 0.20925 -0.26244 0.039249 0.20566 -0.22447 0.031671 -0.21128 0.15517 0.084545 -0.05335 -0.11067 0.24984 -0.14404 0.099072 -0.39071 -0.11527 -0.024409 -0.28599 -0.031652 0.19969 -0.24252 
' -0.039589 -0.016121 -0.17675 -0.020006 0.12894 0.07448 -0.1077 0.073582 0.011404 -0.018677 0.0010528 -0.11356 -0.037358 -0.082312 -0.042213 -0.031879 0.091968 -0.060589 -0.087852 0.063633 -0.064586 0.040298 0.26616 -0.25065 0.056831 -0.11908 0.00076619 0.022336 -0.062199 -0.015894 -0.1763 0.11919 0.080763 -0.10888 -0.067239 0.081912 -0.24469 -0.048784 0.041934 -0.16852 0.033073 -0.11503 0.26826 0.042946 0.019159 0.27685 0.13383 -0.11027 -0.12053 0.14641 0.002179 0.013498 -0.25269 -0.075319 -0.212 0.15325 -0.035352 -0.19471 0.16222 0.040592 0.044724 -0.0099338 0.34151 -0.35307 0.036396 0.032724 0.29007 -0.072765 0.02884 0.081105 -0.07855 0.14836 0.031844 -0.24569 -0.025027 0.27579 0.21317 -0.0084339 0.19479 0.20484 -0.26496 0.048474 0.21868 -0.22245 0.031207 -0.21542 0.13582 0.051457 -0.085674 -0.1028 0.24162 -0.13652 0.10334 -0.36236 -0.11076 -0.021343 -0.28358 -0.018584 0.19431 -0.23988 
Hamlet -0.056207 0.13872 -0.16437 -0.026302 0.20407 0.15201 -0.0046189 0.02955 0.080579 0.17418 -0.047764 -0.077864 -0.11743 -0.016509 -0.13843 -0.071564 0.092107 0.020694 -0.10646 0.10449 -0.14351 0.009776 0.32361 -0.25798 0.081941 0.053512 0.014311 -0.053422 -0.012371 0.031691 -0.16005 0.086277 0.020231 -0.095028 -0.17624 0.082542 -0.31895 -0.040381 0.035153 -0.23305 0.03819 -0.039932 0.1364 0.0088744 0.080099 0.17436 0.14961 -0.2183 -0.13127 0.203 0.02341 0.074863 -0.36742 -0.020691 -0.21633 0.084228 -0.027176 -0.20737 0.061337 0.1414 0.029889 -0.0036597 0.43094 -0.12552 0.094129 0.044141 0.17642 -0.095636 0.0013057 0.040582 -0.074223 0.068933 0.14635 -0.33836 -0.0059495 0.29741 0.12316 0.015185 0.21685 0.22391 -0.2431 0.015904 0.35362 -0.19734 0.080343 -0.29026 -0.034946 -0.10227 -0.25355 -0.034589 0.25399 -0.13706 0.1759 -0.2586 -0.083455 -0.0079976 -0.27205 0.050996 0.11772 -0.27927 
no -0.03821 -0.07571 -0.17397 -0.02597 0.096145 0.043963 -0.15617 0.0808 -0.0062844 -0.091944 0.013658 -0.12947 -0.0038747 -0.10825 -0.0044326 -0.03064 0.097141 -0.077171 -0.086725 0.049992 -0.045279 0.058939 0.23951 -0.24636 0.045761 -0.20239 -0.019399 0.038899 -0.07223 -0.037089 -0.19362 0.12221 0.08929 -0.10998 -0.029353 0.089813 -0.21465 -0.051518 0.050044 -0.13404 0.018355 -0.1506 0.31226 0.048358 -0.0021313 0.3149 0.12587 -0.074072 -0.11475 0.11886 0.0044593 -0.019701 -0.21454 -0.10516 -0.1941 0.19436 -0.036552 -0.18952 0.19567 -0.011588 0.041739 0.010676 0.31696 -0.43961 0.019844 0.032725 0.35358 -0.053798 0.046245 0.088647 -0.07093 0.17161 -0.014199 -0.20436 -0.043737 0.26298 0.25491 -0.009742 0.16906 0.20193 -0.26631 0.039573 0.16374 -0.22224 0.024354 -0.20142 0.1901 0.11028 -0.0092111 -0.12885 0.23322 -0.14833 0.076264 -0.41136 -0.11824 -0.036193 -0.28642 -0.044934 0.21806 -0.23286 
What -0.042846 0.059 -0.1536 -0.029609 0.15698 0.11195 -0.049946 0.037895 0.041795 0.076483 -0.024885 -0.089297 -0.064623 -0.042918 -0.081633 -0.051077 0.086885 -0.0091415 -0.086131 0.076638 -0.10471 0.022795 0.27117 -0.23207 0.064035 -0.030478 0.0031085 -0.014902 -0.030986 0.0077767 -0.15523 0.092603 0.036873 -0.091161 -0.12128 0.076439 -0.26514 -0.041551 0.030228 -0.18793 0.02848 -0.057856 0.17665 0.01887 0.049789 0.20494 0.11752 -0.15529 -0.11794 0.16244 0.021014 0.033783 -0.28806 -0.04187 -0.18702 0.11503 -0.025267 -0.18333 0.096571 0.084436 0.03284 -0.0028605 0.35662 -0.21429 0.061547 0.036077 0.21184 -0.078721 0.011778 0.052014 -0.071301 0.094102 0.089046 -0.26985 -0.014219 0.26129 0.15295 0.0073624 0.19602 0.19831 -0.226 0.018464 0.25788 -0.18563 0.060007 -0.23002 0.040664 -0.030104 -0.15764 -0.057043 0.22987 -0.12591 0.12373 -0.28519 -0.093965 -0.01892 -0.2509 0.015554 0.13623 -0.24263 
more -0.042011 -0.081215 -0.18371 -0.031679 0.10008 0.038624 -0.16596 0.087109 -0.011555 -0.09386 0.025419 -0.1449 -0.0017176 -0.11241 0.0012005 -0.024598 0.098025 -0.086252 -0.088448 0.057208 -0.039174 0.062195 0.25672 -0.26079 0.052363 -0.21609 -0.01301 0.042473 -0.077818 -0.045206 -0.19792 0.13343 0.097489 -0.11491 -0.032508 0.094844 -0.22817 -0.051438 0.036709 -0.15101 0.024663 -0.15682 0.32838 0.052717 -0.0016446 0.33675 0.13338 -0.07353 -0.11332 0.12248 0.0036291 -0.030336 -0.2201 -0.11653 -0.20612 0.20918 -0.035237 -0.19371 0.20651 -0.015345 0.050836 0.0084506 0.32908 -0.46128 0.028865 0.037269 0.37047 -0.05529 0.052519 0.093087 -0.081566 0.17058 -0.01634 -0.21237 -0.049124 0.2732 0.2597 -0.013498 0.1832 0.21588 -0.27576 0.045627 0.16738 -0.23318 0.022165 -0.21437 0.20428 0.12404 -0.0050373 -0.13342 0.25276 -0.15473 0.086814 -0.43663 -0.12401 -0.028449 -0.30424 -0.048125 0.21925 -0.24208 
thou -0.041757 -0.084509 -0.17574 -0.026641 0.091935 0.034253 -0.15475 0.082969 -3.0571e-05 -0.095853 0.017398 -0.13688 0.00090629 -0.11048 0.0081935 -0.019834 0.095636 -0.080389 -0.077991 0.054999 -0.029627 0.06377 0.24282 -0.24435 0.051356 -0.20637 -0.0082335 0.035576 -0.078847 -0.03803 -0.19317 0.13347 0.096427 -0.11241 -0.029862 0.091794 -0.20237 -0.047717 0.037285 -0.13913 0.026133 -0.14962 0.3166 0.045491 -0.010323 0.32189 0.11992 -0.068474 -0.11061 0.11624 0.0067249 -0.023981 -0.20096 -0.10403 -0.19928 0.19665 -0.036465 -0.17536 0.19955 -0.019877 0.047948 0.0072082 0.30225 -0.42735 0.024716 0.03708 0.35389 -0.047535 0.053809 0.089213 -0.071885 0.1631 -0.022661 -0.19014 -0.045647 0.2567 0.24848 -0.016449 0.17804 0.20239 -0.26013 0.040757 0.15622 -0.22663 0.018836 -0.20122 0.19893 0.11903 0.0040137 -0.12687 0.24139 -0.14685 0.075731 -0.40586 -0.1208 -0.02163 -0.28074 -0.040917 0.21034 -0.22851 
from -0.042511 -0.082998 -0.18389 -0.027689 0.10051 0.037942 -0.16006 0.087712 -0.0035777 -0.092367 0.019577 -0.14086 -0.0044255 -0.11551 0.00062103 -0.0227 0.099445 -0.083885 -0.088928 0.061318 -0.034921 0.064574 0.25215 -0.25702 0.052314 -0.20331 -0.015353 0.042619 -0.076231 -0.039733 -0.19912 0.13395 0.10145 -0.11577 -0.038003 0.091089 -0.22153 -0.049381 0.040674 -0.15362 0.027858 -0.14836 0.31586 0.04815 -0.0009191 0.32747 0.13211 -0.080239 -0.10615 0.12538 -0.0015668 -0.022607 -0.21622 -0.10986 -0.2062 0.19562 -0.03703 -0.18984 0.19944 -0.02046 0.048303 0.0056339 0.3274 -0.43802 0.026986 0.030068 0.36537 -0.047357 0.058528 0.090858 -0.076364 0.17749 -0.019709 -0.20883 -0.048468 0.26822 0.25793 -0.0094724 0.17588 0.20923 -0.27464 0.04951 0.17245 -0.23251 0.022313 -0.207 0.19141 0.11691 -0.0061968 -0.13491 0.25347 -0.15315 0.09294 -0.41687 -0.12004 -0.026304 -0.30415 -0.043243 0.20857 -0.24286 
POLONIUS -0.054701 0.26915 -0.14541 -0.03172 0.26897 0.2293 0.086171 -0.010702 0.11365 0.34181 -0.094738 -0.047948 -0.16715 0.053589 -0.22416 -0.1117 0.084652 0.087604 -0.10589 0.12125 -0.21502 -0.024721 0.36042 -0.24877 0.092563 0.20892 0.022923 -0.10313 0.02232 0.071891 -0.13864 0.052458 -0.031525 -0.080898 -0.27268 0.086938 -0.37678 -0.045745 0.022386 -0.27561 0.043665 0.044261 0.015859 -0.023474 0.13306 0.075092 0.13001 -0.29439 -0.14256 0.2577 0.042151 0.13534 -0.45642 0.036485 -0.20659 0.029981 -0.012868 -0.21465 -0.023579 0.24341 0.020612 -0.021588 0.50068 0.045935 0.12896 0.046162 0.05014 -0.1372 -0.042675 0.014183 -0.074538 0.0013319 0.25839 -0.41869 0.023576 0.31839 0.041102 0.036018 0.25265 0.22749 -0.21422 -0.016552 0.44308 -0.1588 0.12851 -0.32597 -0.17453 -0.24643 -0.40083 0.035683 0.25441 -0.12083 0.2061 -0.16253 -0.070573 -0.012044 -0.24894 0.10771 0.072735 -0.30559 
/POLONIUS -0.055352 0.26179 -0.14678 -0.032688 0.26588 0.22677 0.079347 -0.0096705 0.11197 0.33199 -0.093494 -0.05 -0.16275 0.051634 -0.21887 -0.11054 0.085927 0.084105 -0.1056 0.11891 -0.21131 -0.022947 0.35864 -0.24842 0.09095 0.20039 0.022583 -0.10062 0.018958 0.069293 -0.13962 0.054126 -0.028098 -0.080884 -0.26847 0.085593 -0.37385 -0.045475 0.02272 -0.27185 0.042344 0.040348 0.022146 -0.021199 0.13118 0.079829 0.13153 -0.28981 -0.14289 0.25491 0.042685 0.1318 -0.45178 0.033683 -0.20796 0.034235 -0.014433 -0.21594 -0.02121 0.23785 0.021614 -0.021036 0.4973 0.03659 0.12773 0.04479 0.057204 -0.13414 -0.042516 0.015839 -0.075559 0.0039642 0.25208 -0.41367 0.022831 0.31614 0.046727 0.03428 0.25306 0.2265 -0.21515 -0.015608 0.43754 -0.16157 0.12472 -0.32363 -0.16536 -0.23854 -0.39275 0.030268 0.25524 -0.12222 0.20413 -0.16753 -0.072675 -0.01206 -0.25101 0.1041 0.074846 -0.30387 
her -0.031828 -0.10427 -0.18349 -0.025002 0.077872 0.024131 -0.17848 0.092553 -0.007171 -0.12575 0.02867 -0.15214 0.0069232 -0.13384 0.020328 -0.015432 0.10687 -0.090035 -0.079292 0.050409 -0.016848 0.068914 0.24748 -0.24897 0.044258 -0.23933 -0.018817 0.043367 -0.082829 -0.04369 -0.20407 0.13936 0.10898 -0.11647 -0.016614 0.09307 -0.19606 -0.046646 0.039776 -0.14448 0.020021 -0.16905 0.34344 0.061838 -0.016308 0.35611 0.1436 -0.05131 -0.11031 0.11323 -0.0071278 -0.03044 -0.19331 -0.12927 -0.20707 0.21728 -0.041417 -0.18504 0.22153 -0.0337 0.045417 0.013151 0.30632 -0.47382 0.021004 0.031581 0.39781 -0.04616 0.066709 0.095338 -0.0739 0.18464 -0.050103 -0.18596 -0.056659 0.25404 0.2702 -0.02189 0.1622 0.20476 -0.2865 0.054064 0.14883 -0.23724 0.0083963 -0.20177 0.22307 0.15221 0.033945 -0.14238 0.2406 -0.14724 0.081179 -0.43947 -0.12342 -0.014262 -0.29784 -0.056897 0.22238 -0.22594 
was -0.03702 -0.049159 -0.17244 -0.030591 0.11139 0.058237 -0.13385 0.077277 0.0057795 -0.053274 0.012074 -0.12983 -0.020571 -0.09664 -0.021294 -0.030458 0.098375 -0.067585 -0.083905 0.066342 -0.046374 0.052079 0.2529 -0.24798 0.048951 -0.16468 -0.0068828 0.033023 -0.064729 -0.027282 -0.1868 0.12118 0.089193 -0.10927 -0.053078 0.088796 -0.22889 -0.049901 0.034525 -0.16241 0.032497 -0.13119 0.28658 0.042247 0.0070536 0.30115 0.12586 -0.090128 -0.10846 0.13477 0.0018109 -0.0025965 -0.23048 -0.095451 -0.20002 0.18068 -0.033609 -0.19236 0.1792 0.007784 0.04339 0.00056933 0.33426 -0.38902 0.03315 0.036923 0.32107 -0.062827 0.04223 0.085267 -0.075651 0.15273 0.0013798 -0.21948 -0.042283 0.26636 0.23274 -0.0069937 0.178 0.19976 -0.26494 0.044948 0.18751 -0.216 0.028508 -0.20769 0.15615 0.082499 -0.042822 -0.11202 0.24299 -0.14717 0.092595 -0.39057 -0.1146 -0.024372 -0.2839 -0.029845 0.19084 -0.23577 
or -0.040384 -0.14281 -0.19349 -0.029171 0.075612 0.013421 -0.21313 0.1063 -0.027176 -0.15925 0.036327 -0.1646 0.019926 -0.14109 0.033726 -0.010159 0.10099 -0.11207 -0.089253 0.049757 -0.0080895 0.076385 0.24125 -0.25963 0.04863 -0.28336 -0.013593 0.065789 -0.093058 -0.060949 -0.21482 0.1565 0.12106 -0.11944 0.002984 0.10274 -0.19047 -0.054651 0.036559 -0.1317 0.021738 -0.18627 0.38319 0.06725 -0.023209 0.37491 0.12839 -0.037718 -0.11308 0.099358 -0.002656 -0.042682 -0.1829 -0.13904 -0.21049 0.23435 -0.035715 -0.19313 0.24032 -0.05641 0.056343 0.0085625 0.30633 -0.53918 0.0054211 0.034779 0.42066 -0.03866 0.069535 0.10862 -0.084091 0.20261 -0.067431 -0.17153 -0.064318 0.25789 0.29052 -0.022836 0.16466 0.21198 -0.28321 0.057796 0.12659 -0.24225 0.0068806 -0.19605 0.26392 0.17386 0.056695 -0.15505 0.25598 -0.16157 0.068889 -0.47279 -0.13027 -0.035286 -0.31043 -0.066367 0.24774 -0.23271 
they -0.040027 -0.11129 -0.19092 -0.028947 0.079306 0.019551 -0.17823 0.089238 -0.011489 -0.13031 0.032507 -0.13958 0.011285 -0.12995 0.025113 -0.011567 0.095146 -0.098477 -0.086465 0.051528 -0.02136 0.069524 0.24536 -0.25286 0.045479 -0.24466 -0.023156 0.055712 -0.081804 -0.04883 -0.20186 0.14065 0.10545 -0.11121 -0.013579 0.09037 -0.20037 -0.049278 0.043513 -0.13614 0.025702 -0.16972 0.35287 0.05802 -0.019177 0.34979 0.12943 -0.054548 -0.10844 0.11805 0.0019012 -0.037918 -0.19641 -0.12369 -0.19805 0.21816 -0.041968 -0.18304 0.22597 -0.039524 0.047266 0.013622 0.29787 -0.4969 0.015314 0.036706 0.38914 -0.047627 0.065818 0.09835 -0.07573 0.18915 -0.045976 -0.18545 -0.059647 0.25848 0.27839 -0.0124 0.17363 0.20877 -0.27655 0.049198 0.13236 -0.23961 0.01408 -0.19707 0.23503 0.15057 0.034217 -0.14786 0.24877 -0.14922 0.068095 -0.44355 -0.1257 -0.027318 -0.3048 -0.059016 0.22662 -0.23198 
thy -0.041311 -0.085933 -0.17668 -0.030623 0.09638 0.031393 -0.16586 0.086514 -0.0062464 -0.10276 0.022467 -0.13509 -0.0040944 -0.11278 0.0057209 -0.022357 0.10529 -0.081891 -0.082471 0.054728 -0.030078 0.061409 0.25213 -0.24685 0.049962 -0.21316 -0.020816 0.047388 -0.083869 -0.040696 -0.19694 0.12756 0.095705 -0.11291 -0.02704 0.090999 -0.21199 -0.0532 0.038283 -0.13831 0.023109 -0.15794 0.32811 0.04815 -0.010422 0.33432 0.12462 -0.069603 -0.11156 0.11871 0.012495 -0.020836 -0.21261 -0.11681 -0.19774 0.20401 -0.035693 -0.18523 0.2035 -0.013648 0.050818 0.0028969 0.30868 -0.44919 0.023655 0.034372 0.35951 -0.053428 0.056052 0.090426 -0.078663 0.1661 -0.016614 -0.20211 -0.047427 0.26513 0.25986 -0.022004 0.17723 0.20222 -0.27123 0.037804 0.1555 -0.23086 0.014313 -0.2069 0.20483 0.12527 0.005678 -0.13988 0.24607 -0.15246 0.075169 -0.41895 -0.1231 -0.020035 -0.29177 -0.040246 0.22188 -0.2348 
QUEEN -0.049539 0.22962 -0.15049 -0.032063 0.2353 0.19971 0.06156 0.0038139 0.097818 0.28748 -0.078029 -0.048192 -0.14542 0.03289 -0.1928 -0.099493 0.088626 0.067469 -0.099319 0.10933 -0.18605 -0.013064 0.34146 -0.24299 0.089511 0.15884 0.015844 -0.08744 0.013808 0.056765 -0.13383 0.056621 -0.020171 -0.083942 -0.2343 0.083685 -0.35212 -0.045662 0.020412 -0.2537 0.045194 0.02001 0.047242 -0.015874 0.12135 0.10157 0.12846 -0.26884 -0.13734 0.22962 0.043516 0.12066 -0.41624 0.022954 -0.20088 0.044943 -0.017458 -0.20486 -0.0015044 0.21767 0.018439 -0.012762 0.45964 -0.0039369 0.11565 0.041456 0.089876 -0.12256 -0.036454 0.021798 -0.071262 0.019056 0.22198 -0.38302 0.014924 0.29971 0.06383 0.024884 0.2361 0.22144 -0.21601 -0.010214 0.40588 -0.16403 0.10611 -0.29954 -0.12921 -0.19833 -0.34672 0.019081 0.24155 -0.11911 0.19071 -0.18838 -0.073524 -0.012278 -0.24032 0.094175 0.084189 -0.29202 
'll -0.044129 -0.010251 -0.16933 -0.028485 0.12922 0.080148 -0.097581 0.06984 0.022447 -0.0024526 -0.002558 -0.11706 -0.036588 -0.075961 -0.043622 -0.039726 0.088844 -0.045197 -0.087584 0.070843 -0.065614 0.036609 0.26096 -0.23845 0.056057 -0.11476 -0.0059629 0.011065 -0.051981 -0.010747 -0.17215 0.11076 0.07197 -0.09577 -0.078571 0.090642 -0.23377 -0.049444 0.029739 -0.16353 0.030201 -0.1016 0.24304 0.028021 0.028996 0.26429 0.12644 -0.11331 -0.1185 0.14343 0.012652 0.0058043 -0.25365 -0.071602 -0.19636 0.15372 -0.030155 -0.18362 0.13724 0.031647 0.032748 0.00087198 0.34393 -0.32038 0.045005 0.035489 0.28274 -0.06724 0.033942 0.071906 -0.07835 0.12926 0.041291 -0.23483 -0.035372 0.26221 0.19748 -0.0055451 0.18537 0.20608 -0.2455 0.030784 0.21379 -0.19803 0.03666 -0.21694 0.11503 0.040704 -0.078852 -0.088508 0.2422 -0.12977 0.10672 -0.34664 -0.099683 -0.024354 -0.27688 -0.01567 0.17009 -0.23668 
come -0.040096 -0.088114 -0.17956 -0.029033 0.095685 0.035113 -0.16031 0.090894 -0.010265 -0.095158 0.026398 -0.13837 -0.00051738 -0.1094 0.0048722 -0.019632 0.091372 -0.079354 -0.084087 0.051457 -0.030033 0.061191 0.24066 -0.23837 0.050118 -0.20568 -0.018852 0.038827 -0.072215 -0.036859 -0.19098 0.1274 0.097914 -0.10254 -0.027456 0.090232 -0.20341 -0.048397 0.030338 -0.13972 0.022495 -0.14499 0.31519 0.045401 -0.0053777 0.32052 0.12522 -0.067939 -0.1116 0.12324 -0.0008281 -0.022942 -0.2044 -0.1066 -0.19463 0.19528 -0.033642 -0.17856 0.19368 -0.028239 0.047634 0.0090308 0.30791 -0.43796 0.016214 0.027333 0.35054 -0.049017 0.055803 0.088831 -0.073841 0.16525 -0.019545 -0.19157 -0.056928 0.25454 0.24918 -0.01388 0.1706 0.19264 -0.25992 0.045457 0.14869 -0.21845 0.022154 -0.19307 0.19384 0.11637 0.0039963 -0.12439 0.23887 -0.14174 0.076479 -0.40754 -0.10801 -0.032234 -0.2909 -0.046011 0.20834 -0.22078 
A -0.043121 0.1354 -0.16429 -0.025994 0.18802 0.13705 -0.013531 0.022762 0.079456 0.16261 -0.041561 -0.084136 -0.10813 -0.01236 -0.13195 -0.074998 0.10163 0.013268 -0.10252 0.0956 -0.13588 0.0026591 0.30909 -0.25065 0.079744 0.044128 0.01863 -0.049998 -0.0082 0.029594 -0.14512 0.083026 0.03109 -0.095391 -0.17616 0.076104 -0.30442 -0.04305 0.026402 -0.22425 0.049812 -0.038924 0.13763 0.013137 0.084255 0.16251 0.14546 -0.20336 -0.12876 0.19189 0.026287 0.072669 -0.34822 -0.022538 -0.21318 0.083127 -0.025373 -0.20941 0.047895 0.13868 0.027255 -0.014533 0.4072 -0.12285 0.09277 0.032461 0.17588 -0.097734 -0.011037 0.036123 -0.0817 0.059689 0.14449 -0.32097 -0.0010239 0.28542 0.12125 0.012258 0.20994 0.2181 -0.22599 0.01082 0.3428 -0.191 0.070165 -0.2764 -0.030772 -0.091993 -0.23998 -0.024311 0.23062 -0.1165 0.16719 -0.2486 -0.0943 -0.0014748 -0.25337 0.042914 0.11738 -0.26558 
at -0.043664 -0.062787 -0.1859 -0.02651 0.10198 0.052244 -0.14354 0.083687 0.00097507 -0.067748 0.010447 -0.13351 -0.016788 -0.11241 -0.0094426 -0.023428 0.097217 -0.068594 -0.0841 0.061013 -0.047087 0.056532 0.25852 -0.25337 0.053871 -0.18731 -0.008247 0.038255 -0.07281 -0.034112 -0.18672 0.12237 0.093907 -0.11166 -0.046904 0.088329 -0.22658 -0.049275 0.035958 -0.16008 0.025472 -0.13708 0.29429 0.041877 -0.00049178 0.32104 0.1328 -0.087588 -0.11471 0.13211 0.0039369 -0.018431 -0.22861 -0.096002 -0.20605 0.19334 -0.032496 -0.18951 0.19049 -0.0016195 0.044181 0.0071244 0.33985 -0.41293 0.028608 0.028439 0.34432 -0.05789 0.051732 0.087452 -0.074182 0.15867 -0.004897 -0.22178 -0.042547 0.27456 0.24082 -0.0069247 0.18335 0.21054 -0.26192 0.035615 0.17959 -0.21915 0.030532 -0.21339 0.17052 0.098921 -0.025472 -0.1194 0.24869 -0.1465 0.092716 -0.40783 -0.11793 -0.024983 -0.29833 -0.040005 0.19873 -0.23705 
them -0.038791 -0.11258 -0.19102 -0.032559 0.08498 0.018678 -0.17711 0.093213 -0.011019 -0.1321 0.032613 -0.14612 0.011867 -0.13168 0.027002 -0.012527 0.099103 -0.099689 -0.083534 0.054475 -0.020038 0.072155 0.24864 -0.2554 0.046626 -0.24537 -0.019164 0.051714 -0.08353 -0.049183 -0.20668 0.14388 0.10761 -0.11421 -0.014356 0.091787 -0.20877 -0.050295 0.040299 -0.14151 0.025683 -0.17091 0.3595 0.056998 -0.018017 0.35462 0.132 -0.061978 -0.11144 0.11933 -0.0016742 -0.03948 -0.19453 -0.12807 -0.20632 0.22149 -0.038294 -0.1871 0.22979 -0.04145 0.049246 0.0097545 0.3056 -0.49496 0.016898 0.036246 0.39658 -0.051632 0.06525 0.094412 -0.076537 0.18728 -0.043625 -0.18896 -0.055587 0.2624 0.28038 -0.013663 0.177 0.20979 -0.28382 0.053074 0.1379 -0.24416 0.014586 -0.20104 0.23837 0.15278 0.035252 -0.14255 0.25447 -0.15066 0.072326 -0.44299 -0.13039 -0.026378 -0.30605 -0.058362 0.22585 -0.23383 
good -0.041956 0.0016869 -0.16487 -0.03347 0.12944 0.082339 -0.098236 0.065532 0.019124 0.0104 -0.0076554 -0.11818 -0.040563 -0.070459 -0.048511 -0.044418 0.092045 -0.036869 -0.091145 0.071463 -0.077087 0.036163 0.26837 -0.24463 0.056979 -0.10036 -0.0068195 0.0066631 -0.05095 -0.012618 -0.17863 0.1099 0.066282 -0.10273 -0.08578 0.092015 -0.24485 -0.049268 0.031837 -0.17224 0.030548 -0.1038 0.24469 0.031959 0.03024 0.26122 0.12921 -0.11695 -0.1152 0.14999 0.011487 0.018189 -0.26329 -0.071383 -0.19675 0.15191 -0.033314 -0.19058 0.14203 0.043227 0.046845 -0.00072045 0.35452 -0.31587 0.046859 0.032392 0.27734 -0.070665 0.029079 0.070515 -0.075091 0.12421 0.042755 -0.2493 -0.03352 0.27082 0.19779 -0.00065458 0.19236 0.20944 -0.24207 0.031239 0.22341 -0.20421 0.042457 -0.22394 0.10388 0.029369 -0.095882 -0.084577 0.24345 -0.13709 0.10872 -0.34491 -0.1048 -0.021501 -0.28056 -0.0079732 0.17718 -0.24368 
now -0.047714 0.0064511 -0.16137 -0.02858 0.13783 0.086989 -0.10069 0.060863 0.028301 0.018429 -0.012323 -0.10781 -0.045729 -0.064663 -0.054487 -0.04634 0.088942 -0.039997 -0.087763 0.070318 -0.076154 0.037897 0.26648 -0.2424 0.054251 -0.09642 -0.0067168 0.00043417 -0.049496 -0.0032449 -0.16922 0.10386 0.058851 -0.094925 -0.086053 0.082739 -0.25218 -0.043884 0.03103 -0.17053 0.027917 -0.10336 0.23648 0.030048 0.028379 0.25243 0.12793 -0.12449 -0.11848 0.15219 0.014997 0.016789 -0.26852 -0.074908 -0.18843 0.14747 -0.032627 -0.18671 0.13845 0.045192 0.031694 0.0048089 0.35532 -0.30851 0.050358 0.030947 0.27534 -0.069191 0.029589 0.066008 -0.071765 0.12545 0.048875 -0.24917 -0.02935 0.26672 0.19283 -0.0015214 0.18948 0.20489 -0.25005 0.028904 0.2237 -0.19781 0.041602 -0.22842 0.10054 0.024801 -0.099974 -0.085548 0.23899 -0.1347 0.11047 -0.33968 -0.1039 -0.024134 -0.27073 -0.0026553 0.173 -0.24681 
As -0.040179 -0.084888 -0.179 -0.027792 0.097115 0.045046 -0.16277 0.086064 -0.0016564 -0.09049 0.020173 -0.14528 -0.0065914 -0.11007 0.003502 -0.017281 0.097351 -0.086661 -0.089664 0.063592 -0.035237 0.059164 0.24847 -0.2592 0.045536 -0.21319 -0.012658 0.038114 -0.076816 -0.037045 -0.18938 0.135 0.093106 -0.11022 -0.030913 0.092356 -0.21153 -0.047653 0.040587 -0.15234 0.02789 -0.15662 0.32149 0.049739 -0.0091253 0.32835 0.13421 -0.079339 -0.11557 0.12909 0.0035813 -0.021329 -0.21865 -0.11076 -0.20384 0.2008 -0.029923 -0.19088 0.19944 -0.018808 0.051766 0.0046245 0.32677 -0.44634 0.026706 0.036928 0.36344 -0.051649 0.055936 0.09048 -0.072446 0.17554 -0.016439 -0.20741 -0.051745 0.272 0.25061 -0.015105 0.18118 0.2073 -0.26757 0.04727 0.16573 -0.22869 0.022178 -0.21109 0.19734 0.11625 -0.0053013 -0.12981 0.2465 -0.15132 0.084389 -0.41908 -0.12185 -0.020963 -0.30449 -0.045924 0.21005 -0.23628 
know -0.043961 -0.018641 -0.16834 -0.030875 0.12636 0.073961 -0.11666 0.069774 0.015765 -0.014792 -0.0026504 -0.12183 -0.031486 -0.077866 -0.039833 -0.042208 0.095054 -0.051697 -0.090253 0.072956 -0.065798 0.043286 0.26441 -0.24792 0.052745 -0.12799 -0.0073918 0.015734 -0.059596 -0.012582 -0.18125 0.11696 0.073722 -0.1046 -0.074538 0.09206 -0.246 -0.048946 0.032061 -0.1704 0.030127 -0.11415 0.26361 0.035115 0.022615 0.27466 0.12921 -0.11325 -0.12119 0.14756 0.011527 0.0052742 -0.25898 -0.084687 -0.19819 0.16402 -0.03221 -0.18916 0.1553 0.029083 0.038438 0.0039802 0.35412 -0.35198 0.043125 0.035777 0.30082 -0.066931 0.036505 0.073325 -0.073572 0.13901 0.031707 -0.23956 -0.037889 0.27016 0.21074 -0.0025125 0.19018 0.20959 -0.25847 0.036859 0.21117 -0.20884 0.040071 -0.22237 0.13188 0.050079 -0.077178 -0.091508 0.24827 -0.14048 0.10404 -0.36758 -0.11242 -0.025163 -0.28445 -0.013735 0.18816 -0.24403 
like -0.036467 -0.08056 -0.18096 -0.026601 0.09943 0.039324 -0.16175 0.084937 -0.0034287 -0.095141 0.028294 -0.13713 -0.0098792 -0.11151 -0.00037118 -0.019928 0.099461 -0.081072 -0.083627 0.055206 -0.035488 0.06305 0.25149 -0.24859 0.054959 -0.20854 -0.015886 0.039004 -0.074246 -0.042677 -0.19081 0.13452 0.10302 -0.10946 -0.032837 0.089988 -0.21701 -0.051144 0.036964 -0.14253 0.030725 -0.15203 0.31582 0.050796 -0.0029394 0.32083 0.13347 -0.071526 -0.11082 0.12406 0.0021771 -0.01926 -0.20769 -0.11255 -0.20211 0.20034 -0.036528 -0.19081 0.20198 -0.016169 0.049108 0.0033495 0.32393 -0.43833 0.026151 0.032119 0.36317 -0.052943 0.053732 0.089659 -0.07786 0.16785 -0.021554 -0.20461 -0.048112 0.25906 0.25153 -0.013363 0.17896 0.20463 -0.26731 0.051598 0.16403 -0.23013 0.023307 -0.20328 0.19473 0.1235 -0.00064457 -0.13237 0.24579 -0.1471 0.084322 -0.41031 -0.11856 -0.026116 -0.29284 -0.04529 0.20945 -0.23178 
My -0.04105 0.055239 -0.15717 -0.026306 0.1527 0.10297 -0.06196 0.046396 0.038148 0.075356 -0.022689 -0.096083 -0.067612 -0.049032 -0.084225 -0.051647 0.082199 -0.012012 -0.08801 0.074453 -0.10037 0.02674 0.27975 -0.23328 0.063725 -0.033934 0.006871 -0.014394 -0.037715 0.0055469 -0.16784 0.098938 0.044491 -0.098483 -0.12433 0.079748 -0.26373 -0.045307 0.034629 -0.18472 0.033225 -0.071385 0.19162 0.016661 0.049183 0.21919 0.12463 -0.14842 -0.11188 0.16899 0.016035 0.041331 -0.29485 -0.053405 -0.19181 0.12001 -0.026306 -0.18974 0.098876 0.078311 0.042465 -0.004023 0.37408 -0.24008 0.055185 0.034974 0.22914 -0.080044 0.017952 0.052145 -0.069509 0.098673 0.090181 -0.27881 -0.017942 0.26938 0.15432 0.00051377 0.20149 0.20152 -0.23711 0.018645 0.26185 -0.18462 0.064792 -0.2462 0.04893 -0.021473 -0.14693 -0.062456 0.23664 -0.13311 0.12356 -0.29751 -0.087493 -0.018097 -0.26675 0.013162 0.14491 -0.24978 
king -0.042021 -0.030101 -0.17221 -0.027848 0.12361 0.064793 -0.12172 0.077377 0.019897 -0.028839 0.0068412 -0.12161 -0.03885 -0.090279 -0.037325 -0.033905 0.098988 -0.061924 -0.094258 0.071286 -0.062277 0.043987 0.26409 -0.25188 0.060105 -0.1347 -0.0093018 0.018965 -0.056272 -0.021447 -0.18198 0.11822 0.080726 -0.10328 -0.065791 0.082284 -0.24001 -0.040586 0.03721 -0.17058 0.024457 -0.11964 0.27077 0.035273 0.020098 0.28279 0.13636 -0.11088 -0.11163 0.14339 0.0062097 0.0031923 -0.24965 -0.090053 -0.20621 0.16562 -0.031993 -0.18848 0.16298 0.016198 0.045031 0.0037546 0.34862 -0.35503 0.042975 0.034053 0.31369 -0.062904 0.044069 0.078996 -0.074745 0.1492 0.021984 -0.23641 -0.038627 0.26718 0.21695 -0.0048951 0.18263 0.20594 -0.2599 0.039264 0.20924 -0.22013 0.034841 -0.221 0.1318 0.064857 -0.06742 -0.10649 0.24161 -0.1437 0.10777 -0.37108 -0.11019 -0.018968 -0.28681 -0.024469 0.18474 -0.2388 
us -0.038358 -0.039262 -0.17926 -0.032498 0.11616 0.069793 -0.12468 0.075954 0.017436 -0.035791 0.007527 -0.13227 -0.030679 -0.087334 -0.02441 -0.030246 0.10008 -0.055909 -0.084963 0.072235 -0.063333 0.051911 0.26152 -0.25429 0.060996 -0.15828 -0.0025892 0.015273 -0.064199 -0.021185 -0.18955 0.12384 0.086199 -0.10613 -0.056441 0.094413 -0.22852 -0.045615 0.036363 -0.16791 0.029239 -0.12309 0.2705 0.037647 0.017962 0.2944 0.13826 -0.099543 -0.11051 0.13732 0.010667 -0.0041144 -0.24055 -0.089599 -0.19694 0.17551 -0.035002 -0.18593 0.16626 0.0094507 0.039227 0.0063946 0.33263 -0.3653 0.044587 0.032493 0.31662 -0.054275 0.043487 0.082722 -0.071285 0.15055 0.012855 -0.2298 -0.039728 0.26246 0.21425 -0.014872 0.18807 0.21095 -0.25427 0.039067 0.1959 -0.2165 0.030816 -0.21467 0.1438 0.078101 -0.055015 -0.10661 0.24433 -0.14401 0.10198 -0.38593 -0.11478 -0.024005 -0.28424 -0.027469 0.19267 -0.24429 
most -0.038681 -0.075809 -0.18327 -0.03012 0.1002 0.045043 -0.15406 0.084436 -0.0048475 -0.081889 0.013944 -0.14152 -0.0091748 -0.10946 -0.0056563 -0.030977 0.09949 -0.085154 -0.086823 0.060353 -0.039402 0.057795 0.25799 -0.264 0.050848 -0.19391 -0.014841 0.033542 -0.071744 -0.032816 -0.19948 0.12835 0.095185 -0.10875 -0.038115 0.092023 -0.22853 -0.051347 0.034994 -0.15296 0.026119 -0.14996 0.31333 0.051387 -0.0023659 0.32701 0.13496 -0.079188 -0.11587 0.12646 0.0058155 -0.018411 -0.22981 -0.10798 -0.2061 0.20105 -0.036201 -0.19075 0.19803 -0.011989 0.045113 0.0093241 0.33394 -0.43454 0.027759 0.034101 0.3579 -0.055947 0.053878 0.088741 -0.075791 0.16786 -0.0047402 -0.21997 -0.05295 0.27264 0.25227 -0.010414 0.18775 0.213 -0.27869 0.045453 0.17755 -0.22877 0.027409 -0.21446 0.18649 0.11502 -0.011985 -0.12979 0.25462 -0.15215 0.091481 -0.41545 -0.1203 -0.026768 -0.29806 -0.041551 0.21165 -0.24198 
father -0.037509 -0.060851 -0.17849 -0.028732 0.10099 0.04593 -0.14313 0.076153 0.0066345 -0.071977 0.012908 -0.1296 -0.014624 -0.10561 -0.0076416 -0.028023 0.10262 -0.074929 -0.085421 0.059733 -0.042243 0.056333 0.25582 -0.25406 0.049767 -0.18892 -0.012364 0.030713 -0.067862 -0.029606 -0.19324 0.12608 0.091401 -0.10901 -0.042976 0.089764 -0.21616 -0.044309 0.039101 -0.1523 0.019718 -0.14279 0.30429 0.048986 0.0019939 0.3147 0.1353 -0.080427 -0.11222 0.12904 0.0010745 -0.012302 -0.22015 -0.10805 -0.19924 0.19129 -0.036793 -0.18656 0.1894 -0.0016879 0.047677 0.0090316 0.32565 -0.41252 0.032599 0.035292 0.34604 -0.054212 0.052395 0.087531 -0.073886 0.15968 -0.0096891 -0.21488 -0.046738 0.26292 0.24487 -0.014568 0.17928 0.20703 -0.26702 0.042587 0.17693 -0.22488 0.023511 -0.20977 0.17524 0.10387 -0.019189 -0.12056 0.23557 -0.14019 0.092145 -0.39843 -0.11465 -0.016626 -0.29097 -0.037202 0.20206 -0.23766 
/QUEEN -0.050292 0.22504 -0.14892 -0.030653 0.2335 0.19586 0.061092 0.0034756 0.099447 0.28115 -0.075846 -0.045953 -0.14508 0.034313 -0.19048 -0.095558 0.085615 0.066867 -0.098339 0.10728 -0.1823 -0.011237 0.33385 -0.23588 0.090859 0.15981 0.018147 -0.085487 0.014763 0.057037 -0.13088 0.055843 -0.022733 -0.080555 -0.23037 0.080919 -0.34626 -0.043207 0.022559 -0.24919 0.040859 0.020203 0.045984 -0.014476 0.12095 0.10013 0.12766 -0.26274 -0.13383 0.22592 0.042048 0.11617 -0.40842 0.02037 -0.19605 0.044801 -0.018239 -0.19838 -0.0028118 0.21272 0.019638 -0.012247 0.45085 0.0007066 0.11471 0.042289 0.089145 -0.11891 -0.03497 0.022335 -0.069536 0.018952 0.22014 -0.37301 0.014592 0.29602 0.061886 0.02684 0.2325 0.21654 -0.21306 -0.011139 0.40113 -0.16406 0.10361 -0.29465 -0.12844 -0.19404 -0.34188 0.017096 0.23749 -0.11657 0.19119 -0.18413 -0.070967 -0.008264 -0.23871 0.088446 0.081611 -0.28728 
would -0.037285 -0.1229 -0.18515 -0.028427 0.085139 0.020932 -0.18657 0.10416 -0.024414 -0.1411 0.030757 -0.15227 0.01205 -0.13317 0.023374 -0.012278 0.098173 -0.10353 -0.084613 0.049615 -0.019632 0.06445 0.23926 -0.25638 0.045226 -0.25415 -0.025329 0.059018 -0.088773 -0.052806 -0.20238 0.14352 0.11344 -0.11388 -0.0077406 0.096145 -0.2045 -0.055241 0.039939 -0.1368 0.028793 -0.17828 0.35892 0.056553 -0.020651 0.35828 0.12405 -0.050554 -0.1138 0.11566 -0.002495 -0.043182 -0.19693 -0.12833 -0.20334 0.22247 -0.038259 -0.18676 0.23065 -0.047643 0.049196 0.0026755 0.31292 -0.51287 0.015057 0.025968 0.39857 -0.047993 0.065285 0.10377 -0.08041 0.19576 -0.044223 -0.18536 -0.059068 0.26546 0.28193 -0.014927 0.17087 0.20744 -0.28078 0.049828 0.13809 -0.23523 0.011219 -0.19513 0.24305 0.15559 0.033717 -0.14976 0.25569 -0.15765 0.067134 -0.45305 -0.13133 -0.02859 -0.30801 -0.063014 0.23259 -0.23546 
let -0.041035 -0.053461 -0.17434 -0.025837 0.10886 0.057946 -0.13017 0.079847 0.0082159 -0.055131 0.013424 -0.13159 -0.021481 -0.098519 -0.01957 -0.03029 0.089031 -0.064197 -0.085836 0.057435 -0.046488 0.054729 0.25071 -0.24431 0.047095 -0.16363 -0.016111 0.023861 -0.062822 -0.028247 -0.19049 0.11609 0.08233 -0.099798 -0.047217 0.087108 -0.21818 -0.050241 0.030396 -0.15113 0.029126 -0.12614 0.28255 0.04477 0.0091662 0.29201 0.12974 -0.08896 -0.10757 0.13604 0.0058958 -0.0070208 -0.2317 -0.092788 -0.1953 0.16915 -0.029969 -0.17435 0.17242 0.00211 0.045768 0.0053395 0.32528 -0.37957 0.032684 0.034687 0.32241 -0.057883 0.050338 0.078877 -0.073839 0.15075 0.0030761 -0.21505 -0.048559 0.25977 0.2224 -0.0081626 0.17246 0.19995 -0.25613 0.045088 0.17573 -0.21161 0.030725 -0.20636 0.15875 0.085795 -0.037752 -0.1108 0.24094 -0.14203 0.088197 -0.38121 -0.10648 -0.023138 -0.28573 -0.02864 0.19064 -0.22873 
there -0.037417 -0.12484 -0.18965 -0.029673 0.082998 0.016101 -0.1889 0.095455 -0.015593 -0.14964 0.033778 -0.15316 0.018116 -0.13562 0.032959 -0.015873 0.10211 -0.1103 -0.086335 0.050552 -0.015703 0.075932 0.24992 -0.25991 0.046168 -0.26464 -0.018887 0.059466 -0.086127 -0.055308 -0.21012 0.14521 0.11381 -0.11828 -0.0047994 0.092829 -0.19601 -0.048408 0.040355 -0.13938 0.022117 -0.17697 0.36963 0.062252 -0.018111 0.36619 0.13201 -0.047246 -0.11273 0.10727 -0.0072267 -0.035811 -0.19098 -0.1282 -0.20667 0.23461 -0.038172 -0.18357 0.23722 -0.045512 0.05361 0.013314 0.30147 -0.52112 0.012636 0.038674 0.41197 -0.051117 0.070026 0.10217 -0.08098 0.19313 -0.058362 -0.18539 -0.067082 0.26712 0.2956 -0.01895 0.17186 0.20568 -0.28688 0.057405 0.12928 -0.24238 0.011195 -0.20314 0.24732 0.17282 0.045357 -0.15126 0.25127 -0.15035 0.068173 -0.46291 -0.13059 -0.023766 -0.30661 -0.065161 0.23571 -0.22884 
if -0.043849 -0.059944 -0.18247 -0.030465 0.10521 0.051742 -0.1397 0.085997 0.0084049 -0.064806 0.013471 -0.13089 -0.012046 -0.10327 -0.015316 -0.026186 0.09131 -0.066755 -0.087577 0.065417 -0.045308 0.054057 0.25731 -0.24213 0.049912 -0.17342 -0.019113 0.03706 -0.07037 -0.028948 -0.19337 0.12713 0.085218 -0.10818 -0.052337 0.088746 -0.23176 -0.049557 0.044118 -0.16168 0.029247 -0.13839 0.29413 0.044694 0.0075713 0.31297 0.12304 -0.089296 -0.11647 0.13595 0.0026737 -0.011154 -0.23519 -0.10011 -0.2009 0.18558 -0.034199 -0.18799 0.1738 -0.0065315 0.039861 0.0010762 0.33045 -0.4019 0.03224 0.027309 0.33192 -0.055163 0.045732 0.084975 -0.07838 0.15635 0.0038494 -0.20656 -0.046767 0.26872 0.23374 -0.009699 0.17793 0.20773 -0.26431 0.041739 0.18529 -0.21978 0.022721 -0.20432 0.17184 0.092644 -0.033153 -0.11405 0.25732 -0.14663 0.08753 -0.39772 -0.11758 -0.026103 -0.29512 -0.03213 0.19974 -0.23882 
love -0.037976 -0.081806 -0.18195 -0.030158 0.099666 0.047657 -0.16088 0.087534 -0.0098481 -0.093134 0.024168 -0.13969 -0.0036101 -0.10905 0.0033404 -0.021349 0.098066 -0.080755 -0.082997 0.056846 -0.039376 0.057053 0.25303 -0.25673 0.047363 -0.21223 -0.017909 0.045711 -0.077901 -0.038134 -0.19613 0.13309 0.097083 -0.11425 -0.030126 0.095175 -0.2169 -0.048764 0.035467 -0.15091 0.030423 -0.15398 0.31717 0.051727 -0.0083669 0.32624 0.12673 -0.072517 -0.11313 0.12024 0.0053987 -0.020588 -0.21851 -0.11201 -0.19854 0.19553 -0.029506 -0.18734 0.20228 -0.022834 0.049921 0.011104 0.32503 -0.44259 0.023059 0.033785 0.35554 -0.054691 0.049847 0.090756 -0.076857 0.17399 -0.017963 -0.20274 -0.051216 0.26578 0.25668 -0.0096416 0.17395 0.20338 -0.2725 0.047237 0.16587 -0.22401 0.025166 -0.20636 0.19944 0.1185 -0.0093926 -0.12455 0.24864 -0.15201 0.081974 -0.42089 -0.12329 -0.02857 -0.29739 -0.043649 0.21286 -0.23743 
For -0.043404 -0.094989 -0.17671 -0.032607 0.089039 0.032655 -0.17452 0.094514 -0.010452 -0.10954 0.020492 -0.14301 0.0026388 -0.11459 -0.00042831 -0.021008 0.099016 -0.084968 -0.083391 0.057403 -0.02927 0.062532 0.24598 -0.25627 0.047677 -0.22462 -0.014955 0.042817 -0.077566 -0.042546 -0.19281 0.1405 0.10517 -0.11534 -0.027746 0.088003 -0.20812 -0.043101 0.039734 -0.14443 0.021174 -0.16376 0.33132 0.052369 -0.014975 0.33565 0.12794 -0.064544 -0.10604 0.12145 0.0019876 -0.020853 -0.20904 -0.11229 -0.20436 0.20452 -0.035702 -0.18552 0.21245 -0.029576 0.048953 0.007327 0.3203 -0.4595 0.018707 0.032629 0.36934 -0.047399 0.060265 0.093159 -0.073233 0.17636 -0.033302 -0.19502 -0.057182 0.25782 0.26192 -0.010662 0.17514 0.20133 -0.27052 0.049846 0.15718 -0.22847 0.013785 -0.19811 0.21317 0.13222 0.0092333 -0.13308 0.2516 -0.15415 0.07612 -0.42887 -0.1265 -0.030704 -0.30114 -0.051516 0.21818 -0.2333 
sir -0.045561 0.016367 -0.16626 -0.030092 0.14413 0.09205 -0.085874 0.061459 0.023498 0.03259 -0.01159 -0.10505 -0.04857 -0.062147 -0.063303 -0.044908 0.092376 -0.03447 -0.095534 0.076006 -0.084879 0.039439 0.2724 -0.24305 0.058214 -0.084299 -0.0045803 -0.0025111 -0.044293 -0.0063727 -0.16893 0.11015 0.058489 -0.092976 -0.096878 0.084289 -0.2614 -0.04767 0.028848 -0.17728 0.030531 -0.093833 0.21891 0.026809 0.035732 0.24619 0.12932 -0.12932 -0.11866 0.15321 0.013348 0.022119 -0.27923 -0.067086 -0.19679 0.14191 -0.037264 -0.18904 0.1283 0.051068 0.037602 -0.004159 0.35701 -0.29082 0.053187 0.032532 0.2594 -0.074198 0.014328 0.064733 -0.071817 0.1151 0.063163 -0.25429 -0.026404 0.26779 0.18119 0.0015924 0.19231 0.20449 -0.24088 0.02526 0.22976 -0.20303 0.051204 -0.22758 0.086158 0.0060581 -0.11687 -0.076259 0.24148 -0.13712 0.11679 -0.33168 -0.10805 -0.019715 -0.27439 0.00085117 0.16588 -0.24659 
well -0.0412 0.027272 -0.16368 -0.03231 0.14579 0.099453 -0.071575 0.057362 0.032196 0.047039 -0.015705 -0.10161 -0.046986 -0.052382 -0.065119 -0.044437 0.088724 -0.028947 -0.087804 0.073241 -0.086948 0.030939 0.266 -0.23895 0.061978 -0.063491 -0.0032423 -0.0018451 -0.040595 0.0034947 -0.16278 0.10011 0.050837 -0.089085 -0.10764 0.08941 -0.25189 -0.04547 0.029378 -0.17694 0.037828 -0.079504 0.20568 0.02598 0.040081 0.22645 0.11613 -0.1357 -0.12017 0.15531 0.019061 0.02516 -0.27616 -0.059901 -0.18902 0.13453 -0.026921 -0.18707 0.11519 0.057606 0.031743 -0.0022136 0.3572 -0.26957 0.053988 0.034525 0.24379 -0.075759 0.018077 0.06263 -0.080724 0.10939 0.069946 -0.25493 -0.022383 0.26465 0.17492 -0.00033407 0.18834 0.20352 -0.23642 0.023833 0.23488 -0.18818 0.05095 -0.22486 0.070945 0.0012739 -0.12464 -0.066945 0.23751 -0.12716 0.1179 -0.31509 -0.099051 -0.027792 -0.26297 0.0013236 0.15691 -0.24405 
Enter -0.070004 0.29375 -0.15954 -0.030253 0.28583 0.22871 0.09074 -0.002802 0.1458 0.35667 -0.092111 -0.035551 -0.18985 0.051717 -0.24287 -0.1099 0.10276 0.088627 -0.12519 0.14075 -0.22186 -0.020752 0.3917 -0.26893 0.11153 0.22897 0.035363 -0.12703 0.031619 0.074959 -0.1501 0.059966 -0.028037 -0.090373 -0.28674 0.069196 -0.40402 -0.039731 0.03361 -0.30107 0.044933 0.033333 0.027134 -0.018131 0.14382 0.088091 0.17318 -0.32502 -0.14983 0.27089 0.038548 0.14629 -0.48413 0.032296 -0.24034 0.020918 -0.026272 -0.23598 -0.030592 0.25999 0.019486 -0.0127 0.52691 0.075343 0.14704 0.05037 0.076235 -0.1284 -0.042747 0.011687 -0.075322 0.0072353 0.2626 -0.44835 0.032078 0.33727 0.040783 0.030745 0.26638 0.25212 -0.23771 -0.0072749 0.49864 -0.19403 0.12263 -0.36065 -0.18518 -0.25437 -0.42892 0.023948 0.26804 -0.13534 0.25296 -0.16836 -0.064053 0.0079876 -0.26893 0.11505 0.065117 -0.32784 
may -0.040401 -0.076718 -0.17868 -0.027049 0.10484 0.04726 -0.16011 0.088556 -0.0023851 -0.085934 0.011907 -0.14416 -0.0025808 -0.10235 -0.0036022 -0.029214 0.10063 -0.077329 -0.090947 0.058827 -0.044445 0.060416 0.25214 -0.25759 0.051441 -0.20249 -0.015927 0.045508 -0.071487 -0.038097 -0.19226 0.13081 0.097787 -0.11216 -0.035819 0.092112 -0.22297 -0.049256 0.033735 -0.1518 0.021785 -0.14826 0.31477 0.045945 0.0029316 0.32581 0.13165 -0.077954 -0.11676 0.12816 0.005297 -0.021519 -0.22051 -0.10388 -0.19827 0.19564 -0.036432 -0.1883 0.19823 -0.011813 0.050851 -8.3554e-06 0.3281 -0.43759 0.025469 0.029784 0.3549 -0.055521 0.052855 0.092518 -0.082173 0.172 -0.013166 -0.20736 -0.050314 0.26594 0.25705 -0.014374 0.17821 0.2094 -0.26585 0.047477 0.16719 -0.23019 0.018311 -0.20361 0.18853 0.11383 -0.011078 -0.12743 0.25793 -0.15007 0.080621 -0.42018 -0.12362 -0.028747 -0.29971 -0.044592 0.21646 -0.24161 
LAERTES -0.052548 0.21053 -0.1506 -0.029967 0.23138 0.19602 0.050741 0.0037546 0.089987 0.26409 -0.074537 -0.052018 -0.1379 0.025712 -0.18115 -0.097147 0.084391 0.063306 -0.094425 0.10616 -0.17956 -0.0066591 0.33023 -0.24105 0.082462 0.14152 0.016416 -0.079037 0.0098844 0.056413 -0.1369 0.060667 -0.016451 -0.080194 -0.22249 0.078299 -0.3437 -0.044666 0.025001 -0.25281 0.045627 0.012847 0.057424 -0.0092305 0.10678 0.1107 0.12612 -0.25465 -0.13416 0.22403 0.042035 0.10814 -0.40516 0.017266 -0.19935 0.045666 -0.016034 -0.20223 0.0068312 0.19512 0.018994 -0.0047717 0.45532 -0.017578 0.10315 0.038505 0.096156 -0.11323 -0.034812 0.019963 -0.071696 0.026185 0.2093 -0.36705 0.014519 0.30098 0.072197 0.025809 0.23249 0.2195 -0.21448 -0.0043292 0.38619 -0.16741 0.10754 -0.2935 -0.11082 -0.18169 -0.3291 0.0088627 0.24183 -0.11692 0.1829 -0.19499 -0.0752 -0.014846 -0.23776 0.086663 0.08876 -0.29115 
/LAERTES -0.051916 0.19566 -0.15244 -0.028507 0.22528 0.18996 0.041011 0.0069151 0.087666 0.24711 -0.070345 -0.056043 -0.13182 0.019112 -0.1719 -0.091134 0.087133 0.054904 -0.095377 0.1035 -0.17208 -0.0039961 0.32597 -0.24223 0.083097 0.1255 0.016464 -0.072437 0.0069506 0.051375 -0.13971 0.063487 -0.011615 -0.081401 -0.21312 0.078326 -0.33884 -0.045334 0.025748 -0.24682 0.042753 0.0039189 0.072297 -0.0055543 0.1016 0.12194 0.12755 -0.2465 -0.13411 0.21899 0.041554 0.10233 -0.39703 0.010555 -0.19935 0.053 -0.01825 -0.20201 0.01581 0.18632 0.019356 -0.0057984 0.44871 -0.040359 0.099749 0.038386 0.11069 -0.10969 -0.030405 0.025669 -0.072206 0.033006 0.19931 -0.36029 0.011461 0.29884 0.081514 0.023419 0.22943 0.22029 -0.2177 -0.00071212 0.37609 -0.17093 0.10392 -0.28946 -0.096641 -0.16725 -0.31253 0.0020455 0.24226 -0.11993 0.17967 -0.20498 -0.077587 -0.013086 -0.24157 0.078669 0.093462 -0.28859 
can -0.040204 -0.078369 -0.1791 -0.032534 0.10465 0.046891 -0.15998 0.086754 -0.0041098 -0.086054 0.013503 -0.13837 -0.0060199 -0.11092 -0.0045054 -0.02944 0.096878 -0.079359 -0.089467 0.056408 -0.042142 0.061111 0.26105 -0.25966 0.048504 -0.20395 -0.022964 0.038746 -0.07385 -0.043284 -0.20002 0.12785 0.096794 -0.11246 -0.03794 0.094238 -0.22509 -0.048891 0.038322 -0.15132 0.027157 -0.152 0.32555 0.046134 -0.0011093 0.32451 0.12654 -0.079677 -0.11536 0.12919 0.00033648 -0.023337 -0.22231 -0.1118 -0.2061 0.19847 -0.040064 -0.19492 0.20808 -0.01188 0.044981 0.0027021 0.33062 -0.44587 0.030544 0.034638 0.36311 -0.058189 0.046979 0.09514 -0.077546 0.1761 -0.020446 -0.21627 -0.050151 0.26545 0.25609 -0.011489 0.18463 0.21125 -0.27635 0.04593 0.16876 -0.22957 0.022972 -0.21096 0.19213 0.11097 -0.010847 -0.12721 0.25034 -0.15172 0.081807 -0.42323 -0.12206 -0.03165 -0.3028 -0.046459 0.21429 -0.2441 
