1463 100
) 0.027647 -0.0152 -0.17621 -0.12267 0.2284 0.23096 0.16959 -0.13832 0.26165 0.2322 0.0006302 -0.010241 0.20521 0.35643 0.086456 0.078387 -0.12608 0.050944 0.36735 0.15171 0.065483 0.14655 0.012621 -0.18647 0.11194 -0.30174 -0.10485 0.010007 -0.024766 0.088971 0.066546 0.015275 -0.18396 0.046372 -0.15962 0.057225 -0.065767 0.09145 -0.16072 0.045815 -0.039687 -0.07196 -0.089016 0.15408 0.2226 -0.16189 0.047497 0.084647 -0.0096945 -0.26642 -0.17083 0.20903 0.044157 -0.020697 0.13316 0.35436 -0.025127 0.21181 0.41904 -0.15412 0.16169 0.069595 0.20077 0.20713 0.032498 0.2082 -0.048801 -0.082508 0.13264 0.14571 0.18419 0.21999 0.14035 -0.11798 0.0046686 -0.24107 0.25958 -0.074574 0.10684 0.1698 0.077359 -0.083497 0.11778 0.023906 0.15118 -0.023725 0.019248 0.21178 0.039207 -0.11552 0.14649 0.16349 0.035538 -0.35207 -0.094558 -0.23019 -0.067862 0.092488 -0.16747 -0.041014 
( 0.22135 -0.0038203 0.06064 -0.11714 0.16197 0.27695 0.050156 -0.073387 -0.05317 0.12965 0.13116 -0.11141 0.20488 0.23947 -0.044154 -0.058107 -0.15681 0.14359 0.12115 0.038948 0.0013517 0.086378 -0.13375 0.041593 -0.023427 -0.2021 -0.20493 -0.24044 -0.2264 -0.10382 -0.0050183 0.05416 0.012833 0.086686 -0.012408 -0.021422 -0.21107 0.19525 0.025584 0.12831 -0.29529 -0.019254 -0.053499 0.079483 0.10515 -0.11557 0.10954 0.081486 0.076917 -0.25171 -0.20327 0.11322 0.12863 0.10193 0.072856 0.41091 -0.30905 -0.0048861 0.4869 -0.052554 0.31543 0.025788 0.21814 0.24656 0.072614 0.24703 -0.20379 -0.17248 -0.050137 0.0098956 -0.00041971 0.20244 0.31288 -0.1443 -0.10004 -0.088184 0.16705 -0.065725 0.38393 0.34377 0.051627 -0.19724 0.011519 0.092088 0.33348 0.046534 0.051976 0.23409 0.10358 0.0646 -0.050271 0.13498 -0.10776 -0.068375 0.18634 -0.16618 -0.062893 0.16921 -0.060732 0.01514 
e 0.26667 -0.061855 -0.072242 -0.12126 0.13127 0.17288 0.10891 -0.085207 0.057676 0.18524 -0.030145 -0.11839 0.11642 0.32556 -0.038596 0.050695 -0.071049 0.15837 0.19976 0.10607 0.11048 0.14148 -0.12116 -0.078713 0.083913 -0.22302 -0.23736 -0.20641 -0.048636 -0.016063 0.036172 0.02429 -0.087366 0.012968 -0.09781 -0.0056697 -0.14701 0.16548 -0.030133 0.13515 -0.13476 0.013086 -0.01037 0.11856 0.19604 -0.18087 0.095371 0.17907 -0.024579 -0.27004 -0.15331 0.20295 0.046124 0.012182 0.035398 0.30869 -0.17779 0.063616 0.44274 0.042732 0.35631 0.12309 0.15064 0.25879 0.06395 0.11947 -0.078646 -0.13492 0.0093861 0.038737 0.17063 0.22234 0.19335 -0.16535 -0.041222 -0.040061 0.30677 -0.07625 0.27595 0.29672 0.12773 -0.23059 0.028871 0.037131 0.19886 0.039266 0.05313 0.23294 0.20124 -0.0032671 0.041363 0.1129 -0.011099 -0.2423 0.023743 -0.30842 -0.11787 0.20227 -0.1188 0.033949 
a -0.020818 0.12206 -0.041479 -0.10769 0.21363 0.29051 0.15597 -0.12855 0.26738 0.19005 0.045993 -0.062931 0.18315 0.30409 0.16472 0.015448 -0.1463 -0.035724 0.40218 0.1334 0.10057 0.16994 -0.06485 -0.14164 0.070197 -0.31562 0.011973 0.07639 -0.068955 0.030899 0.083089 0.073971 -0.084055 0.14816 -0.053251 0.055072 -0.11652 0.085866 -0.13751 0.20739 -0.16785 -0.07316 -0.19301 0.1695 0.20322 -0.18295 0.1213 0.013073 0.022191 -0.21028 -0.21469 0.11846 0.13485 0.017787 0.19371 0.36057 -0.039866 0.26538 0.46914 -0.18833 0.1436 -0.018347 0.17278 0.19948 0.044554 0.31465 -0.1492 -0.11093 0.041699 0.13434 0.027225 0.10197 0.18956 -0.050374 -0.073617 -0.22719 0.10105 0.0049168 0.11819 0.1645 0.034499 -0.048819 0.029528 0.078022 0.20622 0.098083 0.057039 0.23381 0.076585 -0.12701 0.0078276 0.10487 -0.060238 -0.18686 -0.035791 -0.13269 -0.083506 -0.024532 -0.14009 -0.00026465 
, 0.11987 -0.053054 -0.037585 -0.046529 0.25434 0.2699 0.12245 -0.096274 0.16256 0.19488 0.038833 -0.081783 0.15112 0.29541 0.021108 -0.001586 -0.13886 0.014347 0.2425 0.10823 0.062076 0.084221 -0.076968 -0.086527 0.054129 -0.27145 -0.058568 -0.043874 -0.12457 0.057296 0.038208 0.060743 -0.094218 0.1095 -0.055431 0.024567 -0.16753 0.14901 -0.10233 0.14444 -0.1872 -0.03294 -0.17342 0.21923 0.15893 -0.19588 0.094181 0.050945 -0.01602 -0.22085 -0.21396 0.14978 0.10753 0.038752 0.14273 0.33762 -0.13982 0.17142 0.39574 -0.10205 0.22726 0.056605 0.16866 0.26994 0.07372 0.24987 -0.15536 -0.099821 0.0057438 0.14847 0.071983 0.13934 0.24171 -0.050003 -0.098538 -0.14644 0.13347 -0.048652 0.2314 0.24238 0.0619 -0.15047 0.077422 0.024941 0.20361 -0.0047027 0.024606 0.23542 0.12514 -0.042768 0.01812 0.10654 -0.017098 -0.12219 0.052009 -0.17198 -0.11869 0.087341 -0.14127 0.063227 
kai\ 0.11609 0.03684 -0.040521 -0.033773 0.12886 0.27907 0.1121 -0.088862 0.12261 0.12329 0.050793 -0.13457 0.16623 0.22056 -0.032575 0.13577 -0.17151 0.041973 0.26901 0.024175 0.011462 0.11598 -0.17795 -0.083424 0.13878 -0.296 -0.12463 -0.028116 -0.095362 0.047511 0.066532 0.085874 0.0017261 0.18197 0.045094 -0.018531 -0.1871 0.068924 -0.10365 0.15972 -0.1772 -0.089612 -0.1208 0.16339 0.18072 -0.20487 0.20551 0.052792 -0.012133 -0.29757 -0.16472 0.19711 0.09913 -0.011267 0.084082 0.27846 -0.11875 0.20708 0.45219 -0.12444 0.15304 0.055432 0.15894 0.17647 0.08051 0.24336 -0.076856 -0.059591 0.010087 0.043975 -0.032875 0.1596 0.17411 -0.15252 -0.14757 -0.13406 0.1404 0.00074892 0.24817 0.30159 0.09149 -0.13438 0.041351 0.091064 0.22755 0.10305 0.077795 0.21135 0.20102 -0.069258 -0.050603 0.10027 -0.037983 -0.17435 -0.026224 -0.16322 -0.075758 0.077074 -0.11479 0.093759 
ou 0.20137 -0.10674 -0.068028 -0.057717 0.096827 0.15798 0.09426 -0.062761 0.11304 0.26848 0.082742 -0.036837 0.11112 0.25846 -0.051203 0.030073 -0.025041 0.078186 0.23072 0.077693 0.14757 0.21756 -0.095693 -0.011589 0.14065 -0.28155 -0.11679 -0.23514 -0.19763 0.031628 0.045451 0.095544 -0.096053 0.099757 -0.087336 -0.054599 -0.21794 0.14009 0.0099269 0.057154 -0.091976 -0.086392 -0.024286 0.017213 0.19951 -0.22341 0.1012 0.021214 0.023817 -0.26071 -0.10925 0.18441 -0.048368 0.0086444 -0.019461 0.25316 -0.24327 0.019503 0.56833 -0.0031021 0.23667 0.11681 0.19 0.16049 0.038562 0.1777 -0.17621 -0.10838 -0.016324 0.17539 0.11867 0.18386 0.25221 -0.10305 -0.12788 -0.034106 0.292 -0.039932 0.26235 0.24124 0.076945 -0.21772 -0.0064628 0.078131 0.238 -0.012942 0.10686 0.28154 0.12904 -0.069203 0.081453 0.081308 -0.072209 -0.15404 0.014576 -0.30781 -0.022852 0.29658 -0.1685 0.10103 
ei 0.095686 0.015204 -0.16109 -0.045271 0.11589 0.31992 0.1547 -0.11292 0.24998 0.18953 0.14694 -0.021973 0.1156 0.3015 0.21026 0.093824 -0.085478 -0.0058143 0.34622 0.038021 0.14888 0.1051 -0.1033 -0.20928 0.23074 -0.19722 0.021221 -0.02473 -0.040412 0.053126 0.10025 -0.0056031 -0.042937 0.10189 -0.026606 0.084965 0.02433 0.12344 -0.13516 0.15388 0.036382 -0.16882 -0.018139 0.11092 0.24952 -0.2175 0.12199 0.083889 0.010379 -0.29698 -0.18544 0.24132 0.0022936 -0.0021232 0.074935 0.32079 -0.076246 0.28942 0.50568 -0.074379 0.16372 -0.017654 0.25471 0.07648 0.061815 0.27008 -0.010766 -0.065792 0.08614 0.067592 0.14531 0.22895 0.17622 -0.08316 -0.053356 -0.21336 0.25706 -0.081869 0.079678 0.23628 0.018713 -0.089902 -0.0085872 0.15264 0.17716 0.18374 0.10755 0.2651 0.036963 -0.11346 0.13674 0.097149 -0.067644 -0.27326 -0.19261 -0.19137 -0.082379 0.021261 -0.23611 0.082095 
o 0.26955 -0.070559 -0.027433 -0.088685 0.28089 0.27353 0.067971 -0.1038 0.16248 0.19746 0.035127 -0.088308 0.20196 0.33144 -0.0070343 0.0095593 -0.16406 0.14533 0.26399 0.15039 -0.0048607 0.10844 -0.076175 -0.032829 0.10632 -0.24292 -0.14945 -0.13593 -0.076797 -0.054856 0.057591 0.06091 -0.10038 0.058798 -0.082223 0.025824 -0.12158 0.1981 -0.049116 0.18875 -0.21498 -0.047384 -0.03462 0.14452 0.18539 -0.16377 0.079516 0.15367 0.044909 -0.27339 -0.2332 0.13431 -0.014387 0.015703 0.098665 0.41102 -0.15628 0.075918 0.40978 -0.041257 0.34393 0.03884 0.15962 0.19384 0.094497 0.16941 -0.14556 -0.17298 -0.070906 0.0518 0.12958 0.24094 0.20544 -0.073736 -0.022334 -0.12026 0.1852 -0.036949 0.26623 0.22573 -0.027004 -0.19597 0.04903 0.10759 0.24116 0.041798 0.0045333 0.29684 0.11421 0.011269 0.023463 0.10323 -0.031693 -0.16062 -0.031116 -0.14343 -0.068102 0.082024 -0.094669 0.0017155 
to\ 0.32443 -0.073805 -0.061327 -0.08245 0.29681 0.29425 0.047637 -0.030137 0.29541 0.088485 0.096255 -0.13149 0.16317 0.33383 0.023097 -0.10163 -0.14568 0.072357 0.22118 0.22664 -0.03545 0.080439 -0.14612 -0.11125 -0.090062 -0.30426 0.0074479 0.034412 -0.062158 -0.10694 0.064114 0.11444 -0.11641 0.066171 -0.12093 0.23541 -0.023561 0.07603 -0.10551 0.40361 -0.20767 0.14854 -0.31458 0.3006 0.17684 -0.027365 0.057348 0.043707 0.062827 -0.13451 -0.34152 -0.021937 0.14442 0.20099 0.32972 0.42645 -0.10248 0.33319 0.42249 -0.30118 0.34675 -0.084751 0.12199 0.32311 -0.096207 0.16151 -0.25882 -0.19376 -0.14318 0.048917 0.029844 0.12507 0.21551 0.0010428 0.070753 -0.15421 0.13008 -0.0042083 0.33791 0.21943 -0.012061 -0.24587 0.031879 0.078942 0.18381 0.060318 -0.066354 0.18839 0.086224 -0.0083872 0.17437 0.11445 -0.017541 -0.19758 0.057324 -0.21818 -0.15079 -0.19918 -0.11295 -0.013104 
h 0.26931 -0.1177 -0.048503 -0.046266 0.26476 0.23111 0.10195 -0.060315 0.012365 0.19051 0.067042 -0.050653 0.083419 0.2806 -0.0062701 -0.070701 -0.13235 0.11356 0.11906 0.05019 0.037877 0.075506 -0.039402 0.041772 -0.01949 -0.26004 -0.092504 -0.23448 -0.21715 -0.019583 -0.0051653 0.060894 -0.038803 0.032219 -0.10539 -0.01885 -0.17702 0.17227 -0.081489 0.11322 -0.24348 0.038195 -0.14549 0.14929 0.10968 -0.095933 0.030592 0.015251 -0.03741 -0.21765 -0.24709 0.16409 0.10875 0.10018 0.10726 0.36352 -0.20573 0.13939 0.42659 -0.074633 0.30944 0.044102 0.18654 0.33618 -0.030104 0.2036 -0.11789 -0.061496 0.041802 0.20263 0.16733 0.20506 0.33068 -0.022614 -0.038426 -0.0068433 0.18443 -0.089503 0.28986 0.3461 0.078552 -0.23532 0.084735 0.0098996 0.2754 -0.076545 -0.00011746 0.20203 0.089391 0.024362 0.038132 0.10789 -0.05349 -0.13869 0.10727 -0.23169 -0.099853 0.22748 -0.16571 0.065788 
' 0.19783 0.010788 -0.076332 -0.054106 0.18118 0.23996 0.1634 -0.12169 0.17917 0.19419 0.027691 -0.033729 0.12983 0.33013 0.045968 0.040538 -0.072877 0.062213 0.30311 0.10679 0.041552 0.12441 -0.094708 -0.13653 0.079664 -0.1934 -0.082383 -0.059161 -0.059705 0.031203 0.081395 0.051934 -0.12045 0.040095 -0.088647 0.072261 -0.10487 0.1355 -0.08091 0.14587 -0.075238 0.0031559 -0.08299 0.18154 0.21633 -0.17653 0.078731 0.067136 0.037746 -0.25668 -0.19644 0.20609 0.073943 0.048454 0.1178 0.34798 -0.12419 0.16034 0.49221 -0.098381 0.26602 0.022961 0.18191 0.19599 0.040096 0.20737 -0.14951 -0.11833 0.011849 0.082681 0.091293 0.22015 0.21724 -0.056865 -0.0343 -0.17434 0.20965 -0.058184 0.2085 0.23986 0.071732 -0.16377 -0.0059053 0.06248 0.19592 0.07248 0.059627 0.26119 0.084871 -0.018882 0.097968 0.12637 -0.041007 -0.17697 -0.047594 -0.18274 -0.15966 0.015926 -0.18372 -0.07226 
de\ 0.12265 -0.0080926 -0.019475 -0.11499 0.1651 0.2216 0.12746 -0.15993 0.13812 0.20969 0.086815 -0.10401 0.18488 0.31222 0.089262 -0.024414 -0.12489 0.035331 0.28141 0.079272 0.095648 0.076626 -0.091401 -0.083133 0.079135 -0.24113 -0.082049 -0.10282 -0.11298 0.0030895 0.01165 0.054611 -0.062242 0.10395 -0.082423 0.017223 -0.14857 0.139 -0.073086 0.11465 -0.1063 -0.075426 -0.14895 0.12293 0.14951 -0.15706 0.12163 0.059406 0.020634 -0.23029 -0.17051 0.10934 0.11242 0.047607 0.13327 0.32385 -0.13011 0.13408 0.41293 -0.045026 0.20791 0.053701 0.15555 0.25717 0.054825 0.24081 -0.14821 -0.088877 0.01961 0.10028 0.081286 0.10418 0.26393 -0.090404 -0.034226 -0.19942 0.21109 -0.030392 0.19602 0.32277 0.034843 -0.13338 0.020453 0.031316 0.17803 -8.463e-05 0.017207 0.23439 0.12381 -0.085497 0.030112 0.055295 -0.032979 -0.13043 0.04085 -0.23131 -0.096537 0.085955 -0.098378 0.02023 
: 0.15102 -0.055173 -0.047021 -0.11291 0.14798 0.19786 0.13139 -0.14901 0.13883 0.21315 0.045769 -0.092044 0.12994 0.31195 0.014788 -0.008726 -0.11424 0.12307 0.21876 0.064831 0.10015 0.10868 -0.11461 -0.022782 0.098709 -0.2669 -0.12426 -0.13153 -0.12186 0.0038887 -0.012722 0.054054 -0.034795 0.065317 -0.099839 0.020121 -0.17283 0.11604 -0.091547 0.078097 -0.10132 -0.058913 -0.13988 0.11168 0.15931 -0.15805 0.11123 0.058235 -0.0054425 -0.27393 -0.15777 0.17969 0.096187 0.071243 0.15516 0.30177 -0.17578 0.1761 0.40438 -0.05513 0.20273 0.062347 0.17886 0.30479 0.00016304 0.16824 -0.10574 -0.079903 0.056349 0.10745 0.09253 0.099958 0.2609 -0.12784 -0.03555 -0.17275 0.27008 -0.11576 0.2127 0.3462 0.058381 -0.15231 0.031007 0.0106 0.1957 -0.025851 0.045156 0.18713 0.12847 -0.080895 0.079874 0.076767 -0.020519 -0.18764 0.043108 -0.24795 -0.11719 0.137 -0.093912 0.034822 
</s> 0.16027 -0.010543 -0.047459 -0.058866 0.22159 0.21017 0.15026 -0.11385 0.12059 0.22078 -0.0011479 -0.081804 0.16631 0.28306 -0.0021884 0.034146 -0.14975 0.10724 0.27679 0.096178 0.021783 0.083346 -0.035104 -0.058173 0.13521 -0.24198 -0.14423 -0.13161 -0.11536 0.033503 0.041764 0.055245 -0.1086 0.084233 -0.087605 -0.056395 -0.16918 0.12442 -0.079237 0.098518 -0.20397 -0.10018 -0.046899 0.13534 0.15522 -0.17249 0.15049 0.10129 0.060738 -0.33121 -0.18559 0.18753 0.03519 -0.063306 0.044498 0.33325 -0.18388 0.11389 0.44484 9.5278e-05 0.23516 0.077785 0.14054 0.17622 0.10231 0.21909 -0.11645 -0.076928 0.021274 0.12984 0.093945 0.17151 0.20199 -0.086392 -0.064327 -0.11775 0.23279 0.004992 0.22217 0.24665 0.062496 -0.13771 0.056871 0.071538 0.1926 0.0091119 -0.0071232 0.25639 0.12539 -0.039289 0.017754 0.098846 -0.010742 -0.18398 -0.016648 -0.21353 -0.085352 0.16283 -0.090456 0.00079466 
. 0.096597 0.021498 -0.013587 -0.13918 0.22417 0.21244 0.11946 -0.11125 0.11396 0.21135 0.057155 -0.080332 0.17072 0.36853 0.10531 0.043944 -0.1562 0.071939 0.26785 0.1062 0.11869 -0.010832 -0.10974 -0.11121 0.1075 -0.19417 -0.08853 -0.051436 -0.098481 -5.3635e-05 -0.0058813 0.025095 -0.067195 0.067942 -0.092041 0.0084942 -0.14602 0.10261 -0.015843 0.17553 -0.09644 -0.0065337 -0.034565 0.14184 0.16504 -0.24831 0.13429 0.08323 0.027846 -0.2476 -0.19618 0.18241 0.11183 0.073588 0.14014 0.33841 -0.23319 0.11435 0.45847 -0.042893 0.24059 0.045925 0.11974 0.21582 0.073514 0.18605 -0.11209 -0.10873 -0.0054116 0.1321 0.069659 0.187 0.19135 -0.10019 -0.011522 -0.16862 0.23246 -0.06166 0.23527 0.3153 0.057541 -0.066955 0.04612 0.074243 0.21778 -0.017368 0.030296 0.18618 0.11915 -0.094883 -0.056133 0.10667 -0.023911 -0.10724 0.036643 -0.26338 -0.11087 0.090235 -0.04753 0.040984 
ga\r 0.15521 -0.0077073 -0.061657 -0.11431 0.16205 0.22898 0.11381 -0.13356 0.10133 0.19443 0.071707 -0.081148 0.15104 0.29009 0.066211 0.020535 -0.12914 0.08683 0.2425 0.068653 0.067571 0.10264 -0.091742 -0.093728 0.058612 -0.24794 -0.14458 -0.11059 -0.09657 0.018284 0.019555 0.037689 -0.045141 0.067945 -0.1036 0.032532 -0.13013 0.13901 -0.092626 0.086304 -0.10065 -0.061662 -0.10218 0.12576 0.15217 -0.12354 0.10016 0.053901 -0.0014559 -0.26173 -0.20108 0.15102 0.10104 0.053647 0.13262 0.33703 -0.10494 0.18944 0.41616 -0.050049 0.21433 0.04459 0.19332 0.24928 0.059761 0.23072 -0.080307 -0.07608 0.067529 0.092809 0.10638 0.16804 0.24405 -0.12423 -0.019311 -0.17578 0.22483 -0.059118 0.19839 0.31736 0.059738 -0.13739 0.049859 0.026862 0.18789 0.0032701 0.011467 0.21928 0.10642 -0.053647 0.044027 0.091446 -0.036885 -0.18973 0.02204 -0.23433 -0.082849 0.13385 -0.13556 0.021698 
; 0.29621 -0.13122 -0.0056377 0.013093 -0.18229 0.24665 0.042456 -0.048355 0.22416 0.11452 0.041605 -0.14384 -0.1303 0.23374 -0.094796 0.20388 0.034081 0.06155 0.091075 -0.086138 0.12359 0.25749 -0.35306 -0.091329 0.17359 -0.38451 0.014595 -0.021452 -0.040116 0.16803 -0.027418 0.16779 0.16066 0.14676 -0.056039 0.18394 -0.11462 -0.034465 -0.27077 0.10584 0.097442 0.046786 -0.45828 0.19952 0.23694 -0.19588 0.21715 -0.18541 -0.24357 -0.22595 -0.10467 0.20627 0.15334 0.25436 0.27308 0.16293 -0.063411 0.58873 0.5112 -0.20536 0.033165 -0.051514 0.2262 0.31779 -0.15369 0.16426 0.065509 -0.0097626 0.12332 0.028143 0.051933 -0.032878 0.26211 -0.14073 -0.060742 -0.19568 0.22726 -0.14889 0.14208 0.55133 0.087954 -0.27154 -0.087882 -0.07277 0.10768 0.061922 0.11064 0.098444 0.29073 -0.1895 0.18019 -0.018618 -0.08169 -0.33998 -0.076625 -0.24935 -0.23775 -0.0089813 -0.18612 0.24999 
\ 0.28344 -0.080858 -0.077184 -0.080675 0.2868 0.29566 0.10841 -0.060187 0.11743 0.11493 0.11208 -0.1137 0.078336 0.32877 0.14213 -0.063675 -0.13759 0.07715 0.088712 0.10921 0.081228 0.019783 -0.14848 -0.016014 -0.015362 -0.20161 0.059911 -0.098803 -0.10086 -0.013073 0.018396 -0.018401 -0.040835 0.010159 -0.04959 0.10298 -0.046511 0.21767 -0.14091 0.28292 -0.16863 0.0067997 -0.18091 0.26213 0.19502 -0.14783 0.027384 0.094687 -0.024987 -0.21317 -0.319 0.1093 0.14869 0.21294 0.2317 0.34204 -0.22937 0.34115 0.3882 -0.094882 0.32609 -0.057748 0.16937 0.28967 -0.026191 0.19757 -0.11671 -0.099599 -0.046381 0.10804 0.19012 0.21677 0.27365 0.015914 -0.036232 -0.080252 0.1379 -0.065859 0.1979 0.33472 0.046861 -0.21557 0.010391 0.079774 0.23886 0.07585 0.011635 0.25013 0.13262 0.020923 0.033747 0.056455 -0.0090527 -0.12839 0.04993 -0.18157 -0.19042 -0.029832 -0.18135 0.061094 
w 0.28537 -0.13187 -0.046192 -0.088652 0.30663 0.27362 0.062609 -0.14077 0.15809 0.20822 0.059096 -0.085623 0.12839 0.32198 -0.0030999 -0.044132 -0.15833 0.11892 0.16763 0.078372 0.0011411 0.099034 -0.062482 0.0050701 0.065831 -0.27719 -0.14677 -0.16841 -0.11497 -0.04002 0.041304 0.064886 -0.081364 0.022501 -0.11887 0.072616 -0.1581 0.19937 -0.08725 0.13718 -0.13634 -0.028245 -0.064191 0.14837 0.16659 -0.10332 0.053331 0.10023 0.026733 -0.287 -0.22319 0.14963 0.045484 0.058174 0.15399 0.36196 -0.14156 0.13293 0.43621 -0.023502 0.30227 0.0049743 0.15883 0.25664 0.041403 0.13554 -0.13576 -0.10985 -0.02472 0.091011 0.13578 0.22784 0.21826 -0.058879 -0.033936 -0.13326 0.23381 -0.10318 0.27386 0.26932 -0.01007 -0.20241 0.086476 0.034678 0.20294 0.0064695 -0.039476 0.2794 0.10693 0.018963 0.091988 0.099445 -0.047011 -0.19462 -0.013267 -0.14938 -0.1302 0.15459 -0.14834 0.039311 
tw=n -0.22833 0.36152 -0.087184 -0.22933 -0.1412 0.09464 0.25664 -0.12459 0.017384 0.1417 0.083551 -0.21359 0.38755 0.41988 0.16395 0.29759 -0.14559 0.014924 0.47543 0.025042 0.1792 0.19217 -0.066925 -0.29562 0.38875 -0.2566 -0.37877 -0.051536 -0.03232 0.16124 -0.058985 -0.18188 -0.092947 0.19013 -0.063427 -0.24252 -0.20185 -0.029286 -0.045124 -0.20559 0.06588 -0.34217 0.021132 -0.011258 0.35019 -0.31432 0.26848 0.12643 0.054863 -0.5176 -0.0010942 0.35148 0.05058 -0.27866 -0.0021368 0.17034 -0.1932 0.11165 0.54182 0.10315 -0.10959 0.25628 0.09184 0.16427 0.27044 0.40572 -0.056389 -0.0055352 0.1342 0.063534 0.019861 0.12565 0.022258 -0.34105 -0.05276 -0.25231 0.33858 0.11236 0.10857 0.35628 0.28613 0.10465 -0.034407 0.10472 0.21339 0.093492 0.20193 0.29258 0.20346 -0.35857 -0.1805 0.10054 0.12511 -0.21494 -0.10668 -0.36353 0.09388 0.29474 0.017381 -0.15558 
au 0.10719 0.075988 -0.067384 -0.078538 0.079795 0.24596 0.11033 -0.098796 0.14074 0.11671 0.09318 -0.09422 0.13686 0.3152 0.10902 0.097196 -0.074469 0.054034 0.28686 0.037252 0.1396 0.076975 -0.13493 -0.13451 0.19828 -0.17998 -0.059461 -0.053459 -0.088203 0.035922 0.038844 0.0073624 -0.022467 0.11012 0.018813 0.0117 -0.11664 0.11162 -0.077147 0.19173 -0.088182 -0.072284 -0.055712 0.096133 0.28661 -0.25701 0.14571 0.071826 0.021833 -0.34142 -0.1451 0.18793 0.07187 -0.018982 0.11287 0.29107 -0.21733 0.21393 0.50546 -0.051767 0.1625 0.020773 0.19148 0.16084 0.064134 0.2798 -0.090335 -0.12608 0.024158 0.042395 0.080316 0.14903 0.18669 -0.12477 -0.10463 -0.1532 0.19023 -0.022996 0.1552 0.31993 0.098905 -0.075614 -0.08606 0.1452 0.20488 0.15365 0.06659 0.23513 0.15597 -0.081769 0.0041121 0.071036 -0.037529 -0.1409 -0.04065 -0.22715 -0.07607 0.066948 -0.12109 0.036159 
& 0.28684 -0.082176 0.0090808 -0.035831 -0.14208 0.26689 0.045528 -0.061221 0.23107 0.10883 0.033979 -0.15762 -0.12879 0.21959 -0.088113 0.14305 -0.033661 0.10729 0.077408 -0.10485 0.090733 0.28817 -0.3584 -0.045466 0.12213 -0.4352 -0.01677 -0.018789 -0.054853 0.078203 0.011655 0.16482 0.19462 0.1433 -0.053898 0.19507 -0.11632 -0.027108 -0.33671 0.11511 -0.0047203 0.032514 -0.51243 0.22001 0.18389 -0.12904 0.20339 -0.17695 -0.23588 -0.2189 -0.12143 0.16755 0.18869 0.24801 0.31942 0.19025 -0.062513 0.63947 0.49107 -0.21704 0.025388 -0.098752 0.21807 0.37054 -0.17047 0.15475 0.094413 -0.0013137 0.14856 0.0087015 0.038005 -0.10464 0.26814 -0.16004 -0.027553 -0.19005 0.20122 -0.14327 0.11897 0.56914 0.070762 -0.26039 -0.039315 -0.099088 0.11041 0.067085 0.080514 0.08491 0.25648 -0.18433 0.1594 -0.022575 -0.082242 -0.36888 -0.030912 -0.23304 -0.2491 0.0029902 -0.16896 0.21314 
ta\ -0.12342 0.36391 -0.11952 -0.17249 0.01776 0.28263 0.29414 -0.23564 0.28339 0.15235 0.11392 -0.20989 0.19042 0.35241 0.29872 0.21005 -0.15398 0.053446 0.48231 0.007433 0.095377 0.084932 -0.24452 -0.25076 0.356 -0.249 -0.15935 0.10844 0.079936 0.15276 0.12666 -0.076199 -0.049505 0.16815 0.14152 -0.026824 -0.044485 0.15492 -0.16361 0.073166 -0.0081743 -0.36343 0.014004 0.16095 0.21464 -0.31585 0.30388 0.15568 0.0031183 -0.4733 -0.10562 0.28947 0.11699 -0.071133 0.05448 0.22014 -0.042798 0.33383 0.49907 0.13829 -0.011677 -0.0063024 0.073662 0.033909 0.23213 0.43093 -0.020072 0.057222 0.12328 -0.092284 -0.0039319 0.080947 0.13896 -0.20915 -0.10761 -0.36377 0.18244 0.045181 -0.061276 0.33631 0.079634 0.055586 -0.12983 0.1263 0.11041 0.27847 0.13137 0.30405 0.22168 -0.18481 -0.18368 0.0090177 0.018871 -0.14613 -0.24376 -0.21144 -0.14318 0.043367 -0.12602 -0.056959 
me\n -0.021923 0.020024 -0.014123 -0.15461 0.13877 0.23894 0.13917 -0.13977 0.23312 0.16736 0.10861 -0.089143 0.21081 0.30534 0.10922 -0.034896 -0.12845 0.002755 0.33555 0.084297 0.075418 0.11195 -0.1124 -0.12483 0.05154 -0.33661 -0.041212 0.022329 -0.11771 0.064205 0.017029 0.11842 -0.059081 0.12729 -0.089528 0.054953 -0.16106 0.085889 -0.098847 0.13025 -0.079341 -0.072159 -0.2232 0.16275 0.14923 -0.14503 0.12525 -0.052722 -0.01348 -0.2102 -0.16494 0.064467 0.174 0.091154 0.19479 0.3351 -0.048169 0.20268 0.44936 -0.091001 0.12934 0.024638 0.13123 0.26632 0.049429 0.33339 -0.20428 -0.033222 0.037755 0.115 -0.01834 0.050153 0.22835 -0.087163 -0.010363 -0.25423 0.15629 0.015458 0.16529 0.3249 0.035477 -0.10787 0.02299 0.012304 0.1691 -0.011886 0.027059 0.19924 0.11193 -0.13799 -0.0097558 0.068754 -0.036786 -0.11856 0.069442 -0.24372 -0.045229 0.070727 -0.08404 0.034708 
=nai -0.082003 0.11392 -0.076119 -0.062146 0.10181 0.30819 0.16748 -0.1052 0.41583 0.18629 0.15258 -0.065192 0.20931 0.32788 0.24119 0.13883 -0.062069 -0.11353 0.38856 0.19226 0.16082 0.14828 -0.094561 -0.3374 0.24813 -0.34978 0.22852 0.19402 0.064089 0.1893 0.13697 0.055341 -0.14729 0.14428 -0.083059 0.18595 -0.039806 -0.0034857 -0.14782 0.21718 0.13369 -0.15791 -0.25822 0.17044 0.34346 -0.28761 0.10824 -0.066728 -0.0044172 -0.23976 -0.19645 0.13211 0.047197 0.057571 0.24432 0.33665 0.0070132 0.47242 0.56134 -0.171 0.047888 -0.034311 0.11764 0.11453 0.010197 0.27777 -0.14469 -0.069676 0.041412 0.073468 0.047893 0.16671 0.090172 -0.070672 -0.026386 -0.35014 0.13705 0.0058899 0.016579 0.16458 0.016313 -0.016072 -0.041237 0.095021 0.12038 0.19907 0.042046 0.29184 0.078629 -0.23436 0.10396 0.040846 -0.050924 -0.29668 -0.21474 -0.063766 -0.066099 -0.15564 -0.19588 0.075843 
u 0.19368 -0.07164 0.035446 -0.06953 0.19511 0.17613 0.17031 -0.15136 -0.012116 0.27155 -0.02746 -0.096318 0.03835 0.21402 -0.088814 -0.11716 -0.16139 0.14915 0.18375 -0.01724 0.10168 0.046436 -0.15963 0.12134 -0.032069 -0.23727 -0.17752 -0.25205 -0.25097 -0.052494 -0.00035478 0.15961 0.050521 0.12023 -0.059341 -0.071286 -0.29453 0.14481 -0.10116 0.098975 -0.29895 -0.0080408 -0.1299 0.10951 -0.040237 -0.15827 0.18942 0.074729 -0.021442 -0.20483 -0.18335 0.17908 0.20445 0.070333 0.045079 0.24532 -0.21139 0.057047 0.40826 -0.0085879 0.32165 0.096845 0.15968 0.36333 0.0049417 0.18066 -0.11761 0.00028804 0.057163 0.18573 0.017411 0.0042722 0.39799 -0.10107 -0.10343 -0.018535 0.28621 -0.065635 0.32716 0.44032 0.11191 -0.24667 0.094515 -0.074242 0.22034 -0.082294 0.029401 0.18534 0.1577 0.029082 0.011861 0.024661 -0.030714 -0.047457 0.19003 -0.33378 -0.17992 0.28097 -0.093841 0.12926 
oi -0.034778 -0.045572 0.11409 -0.04329 0.19538 0.37313 0.13657 -0.088077 0.13585 0.2145 0.051847 -0.097906 0.1627 0.19119 -0.047107 -0.010456 -0.20005 -0.059656 0.24115 0.0072318 0.05213 0.15868 -0.13143 -0.022166 0.11036 -0.36463 -0.048857 0.04454 -0.20492 0.14522 0.046372 0.19768 0.023211 0.24343 -0.0094167 -0.0028741 -0.31174 0.062043 -0.16651 0.090212 -0.31908 -0.11946 -0.29017 0.17715 0.035717 -0.2547 0.19341 -0.073165 0.0048418 -0.22333 -0.088182 0.10455 0.18554 -0.021111 0.10309 0.33287 -0.085738 0.14164 0.45605 -0.16346 0.13718 -0.010797 0.13481 0.25659 0.12556 0.37219 -0.1723 -0.036528 0.061876 0.19125 -0.046087 -0.028658 0.32267 -0.078035 -0.23352 -0.17527 0.017501 -0.010925 0.1739 0.32293 0.03478 -0.11538 0.12579 -0.0059605 0.17544 0.0072174 0.026619 0.25205 0.12474 -0.058919 -0.051571 0.065066 -0.060368 -0.02113 0.11238 -0.013946 -0.11563 0.08358 -0.091795 0.19813 
d 0.2133 -0.059049 0.0077385 -0.032189 0.093035 0.20928 0.10044 -0.091383 0.12955 0.2223 0.047687 -0.074968 0.087895 0.28876 -0.014019 0.032045 -0.0608 0.084076 0.20896 0.049472 0.10131 0.14671 -0.094679 -0.032809 0.14617 -0.21446 -0.10733 -0.15392 -0.12715 0.025273 0.0025737 0.062472 -0.055555 0.081697 -0.083839 0.019582 -0.19291 0.092843 -0.076685 0.10978 -0.087683 -0.013793 -0.10259 0.069978 0.19237 -0.21055 0.13748 0.030772 0.024911 -0.27914 -0.12206 0.17648 0.054827 0.071613 0.091433 0.32024 -0.2216 0.1262 0.50551 -0.025909 0.26021 0.054416 0.1871 0.21217 0.050628 0.17985 -0.13935 -0.11046 0.00717 0.10405 0.1015 0.14167 0.25656 -0.092637 -0.097918 -0.13438 0.28355 -0.075716 0.24288 0.30965 0.043618 -0.20295 0.0078881 0.062971 0.21154 0.011932 0.05308 0.21985 0.12844 -0.016256 0.081914 0.066531 -0.054961 -0.15313 -0.0028836 -0.20293 -0.11729 0.15018 -0.11443 0.051373 
\n 0.014204 0.034756 -0.063079 -0.15381 0.28254 0.28344 0.041287 -0.15958 0.37085 0.16575 0.21908 -0.048089 0.30443 0.40677 0.27519 -0.096931 -0.10208 -0.05017 0.36172 0.21119 0.092981 0.061671 0.046798 -0.1814 0.08119 -0.20801 0.11917 0.054661 -0.11807 0.0041589 0.014208 0.0029952 -0.16113 0.043504 -0.1452 0.14221 -0.041539 0.16207 -0.047842 0.21661 0.021658 -0.054853 -0.18425 0.14844 0.32483 -0.13916 -0.0057093 -0.018886 0.11904 -0.23822 -0.2916 -0.038847 0.086925 0.10144 0.32419 0.44891 -0.13624 0.24584 0.44574 -0.10635 0.16672 0.0014506 0.18838 0.19422 0.022307 0.36506 -0.3235 -0.17728 -0.09146 0.1196 0.12207 0.19186 0.18345 0.033574 0.075115 -0.29051 0.098214 -0.020709 0.15587 0.17275 -0.026947 -0.049568 -0.019056 0.13877 0.22963 0.034872 -0.0054341 0.31098 -0.023066 -0.13136 0.10169 0.081576 -0.054146 -0.058228 0.017205 -0.14159 0.010417 -0.040388 -0.11949 -0.099955 
tou= 0.21877 -0.040129 0.034526 -0.17189 0.22468 0.10164 0.072003 -0.071775 0.061061 0.19172 0.025372 -0.16937 0.2658 0.33212 -0.1092 -0.13146 -0.13872 0.1721 0.17265 0.2575 0.064582 0.12732 -0.099999 0.058991 -0.083577 -0.33996 -0.15403 -0.095309 -0.20359 -0.13175 -0.020193 0.14878 -0.10203 0.062083 -0.15395 0.012342 -0.23187 0.067953 -0.021339 0.18168 -0.3264 0.049251 -0.30483 0.16232 0.13796 -0.012208 0.11235 0.12084 0.076628 -0.15098 -0.1756 -0.022233 0.17722 0.13426 0.24267 0.35807 -0.2629 0.10774 0.41513 -0.23859 0.23664 0.058575 0.050184 0.41892 -0.063408 0.079497 -0.29809 -0.23769 -0.096465 0.10337 -0.03173 0.016294 0.28732 -0.14153 0.0060412 -0.11486 0.20733 0.03122 0.40095 0.19389 0.068524 -0.19651 0.02261 -0.038488 0.20745 -0.12259 -0.032492 0.18485 0.12772 -0.066284 0.095713 0.14022 -0.0029808 -0.21791 0.23825 -0.2751 -0.062091 -0.015144 -0.013591 0.041464 
ai -0.28634 0.25972 -0.12117 -0.068868 -0.16089 0.1729 0.33605 -0.18658 0.11869 0.28716 0.037445 -0.042365 0.2346 0.24222 0.085124 0.29209 -0.079949 -0.023419 0.47588 -0.087867 0.14214 0.30458 -0.07612 -0.24638 0.45594 -0.36934 -0.19174 -0.11428 -5.7727e-05 0.30528 0.075223 0.00030999 -0.10053 0.22626 -0.0204 -0.11347 -0.26907 -0.085353 -0.077894 -0.19167 0.083427 -0.38778 0.075928 -0.085136 0.2849 -0.41823 0.2527 -0.075284 -0.050097 -0.49522 0.080229 0.4569 -0.040959 -0.29513 -0.11477 0.24077 -0.022483 0.1174 0.72138 0.18732 -0.13505 0.20931 0.17689 -0.0052902 0.27953 0.40501 -0.061336 0.10573 0.29493 0.048119 -0.059625 0.18804 0.11305 -0.3102 -0.15742 -0.25213 0.33463 0.031254 0.093801 0.30657 0.19639 0.041139 0.052462 0.078113 0.21999 0.14126 0.22163 0.32187 0.1416 -0.27774 -0.11215 0.087719 -0.062513 -0.29407 -0.2387 -0.18721 0.088322 0.44843 -0.17424 0.051905 
/ti 0.232 -0.11074 -0.11742 -0.032102 0.1614 0.21171 0.035402 -0.10521 0.15921 0.24095 0.15212 -0.019925 0.16767 0.35684 0.036486 0.068521 -0.050912 0.069424 0.22174 0.071117 0.082069 0.13679 -0.042481 -0.076931 0.16518 -0.14916 -0.13035 -0.17426 -0.12954 -0.013756 0.012171 -0.031998 -0.17671 0.013301 -0.12322 0.024585 -0.091591 0.14053 0.010198 0.09708 0.047439 -0.039987 0.029619 0.0026917 0.29402 -0.22004 0.03368 0.057396 0.072243 -0.30516 -0.15764 0.18143 -0.091554 0.0071106 0.083914 0.29322 -0.25313 0.04876 0.53904 0.036807 0.23766 0.11426 0.25563 0.1239 0.0542 0.18767 -0.1638 -0.16744 -0.03068 0.1129 0.21154 0.31667 0.21604 -0.099522 -0.043166 -0.087875 0.28737 -0.13139 0.25723 0.23379 0.051378 -0.1626 -0.002085 0.1645 0.2538 0.017679 0.05838 0.3002 0.050582 -0.09265 0.11952 0.10051 -0.049094 -0.14259 -0.081288 -0.27914 -0.017052 0.2127 -0.18876 -0.0040562 
k 0.23443 -0.1355 -0.088817 -0.079387 0.17635 0.20003 0.050895 -0.14149 0.11349 0.24075 0.095574 -0.085027 0.14005 0.31784 -0.0064366 0.040627 -0.070854 0.1008 0.16396 0.046368 0.13687 0.13561 -0.10028 0.0020276 0.1515 -0.235 -0.10799 -0.18405 -0.15269 -0.017892 -0.0065213 0.02431 -0.072177 0.050034 -0.11503 -0.0020192 -0.14167 0.17059 -0.072068 0.074468 -0.063259 -0.098906 -0.074601 0.030172 0.22441 -0.17463 0.090642 0.10501 0.017772 -0.30251 -0.13384 0.14603 -0.0037093 0.040019 0.14503 0.27097 -0.2236 0.12518 0.45701 -0.027331 0.19599 0.066646 0.22411 0.26824 0.007763 0.11828 -0.10315 -0.15288 0.0036264 0.10334 0.17607 0.16652 0.26031 -0.13156 -0.10855 -0.13247 0.28446 -0.14713 0.22411 0.28661 0.026363 -0.17207 0.0092204 0.06974 0.2015 -0.0058395 0.024105 0.25042 0.13208 -0.10265 0.14189 0.084019 -0.03875 -0.20242 -0.022898 -0.24482 -0.076505 0.16829 -0.16752 0.11054 
s 0.23087 -0.1057 -0.010823 -0.058839 0.25189 0.24325 0.099834 -0.12609 0.17454 0.24418 0.075974 -0.058913 0.13227 0.27265 -0.026847 0.00207 -0.1092 0.10222 0.20885 0.070333 0.037927 0.076956 -0.10973 -0.022481 0.11811 -0.24596 -0.080962 -0.13093 -0.13644 0.02224 0.020974 0.084666 -0.086688 0.080963 -0.078302 0.035174 -0.19505 0.16238 -0.084276 0.12033 -0.08739 -0.06882 -0.071867 0.11377 0.17139 -0.1695 0.10338 0.066393 0.042867 -0.27405 -0.19216 0.16936 0.047399 0.08158 0.1134 0.31802 -0.15836 0.12644 0.46998 -0.01489 0.27446 0.021364 0.15108 0.1944 0.033541 0.17932 -0.186 -0.080967 -0.025627 0.10571 0.085308 0.17122 0.23679 -0.068244 -0.089405 -0.17698 0.22603 -0.085938 0.24235 0.28463 0.0017151 -0.1966 0.021482 0.040673 0.19829 0.031569 -0.010109 0.27278 0.12775 0.00019413 0.0628 0.072714 -0.060812 -0.12587 -0.029044 -0.14944 -0.14653 0.10948 -0.15064 0.06064 
=n 0.097682 0.018411 -0.043127 -0.12113 0.097285 0.1744 0.11968 -0.085313 0.17532 0.17513 0.12821 -0.12066 0.25098 0.37855 0.087404 0.10701 -0.10923 0.020967 0.26397 0.1257 0.10402 0.12595 -0.063897 -0.18445 0.1833 -0.27283 -0.098015 -0.05468 -0.063164 0.061531 0.0003603 -0.05103 -0.13581 0.085987 -0.15898 0.036708 -0.086622 0.041046 -0.083942 0.042932 0.079685 -0.083613 -0.15896 0.10434 0.28906 -0.18646 0.10652 0.045806 0.044794 -0.27639 -0.17508 0.18419 0.031552 0.00028829 0.17437 0.26734 -0.15511 0.23122 0.46876 -0.066329 0.13639 0.082932 0.11192 0.23326 0.038711 0.20852 -0.12489 -0.10107 -0.029106 0.10216 0.11338 0.17764 0.11667 -0.15919 0.036136 -0.21327 0.2849 -0.016997 0.1855 0.29651 0.087067 -0.10719 0.00423 0.066102 0.1797 0.043051 0.032146 0.27447 0.11271 -0.22125 0.067683 0.065149 0.033292 -0.21958 -0.084173 -0.23703 -0.038598 0.062821 -0.075569 -0.055217 
mh\ 0.17235 -0.042598 -0.092893 -0.049205 0.27916 0.28304 0.093106 -0.11478 0.29248 0.21363 0.09325 -0.060109 0.16208 0.34702 0.11498 -0.019767 -0.091691 0.026207 0.2929 0.18103 0.082969 0.077497 -0.05272 -0.12961 0.051498 -0.2501 0.070174 -0.031056 -0.044953 -0.0063416 0.072916 0.046987 -0.13585 0.035609 -0.10634 0.12333 -0.059373 0.13525 -0.10243 0.24967 -0.09381 -0.0024869 -0.17567 0.17367 0.23225 -0.16053 0.013851 0.050919 0.035782 -0.2143 -0.27293 0.088932 0.051 0.08673 0.23055 0.37992 -0.091201 0.27433 0.43052 -0.15351 0.26779 -0.011598 0.20011 0.21647 -0.01664 0.18577 -0.16548 -0.16881 -0.0071872 0.12213 0.15159 0.219 0.236 -0.013664 -0.0069377 -0.18422 0.19014 -0.080497 0.17521 0.18566 0.017793 -0.14547 0.033133 0.083619 0.19353 0.06306 -0.014022 0.22025 0.044995 -0.053853 0.14691 0.10056 -0.044185 -0.22568 -0.041564 -0.14641 -0.10295 -0.039883 -0.192 0.018687 
n 0.13924 0.048968 -0.053099 -0.11136 0.0011794 0.1959 0.11296 -0.11433 0.039728 0.15512 0.028582 -0.098361 0.061571 0.27269 -0.0058036 0.084349 -0.053716 0.15318 0.22946 -0.061192 0.13141 0.10917 -0.16778 -0.080264 0.16543 -0.18841 -0.2117 -0.21622 -0.11066 0.010322 -0.023292 0.014947 0.0358 0.066032 -0.00029515 -0.025861 -0.1493 0.069191 -0.093352 0.048215 -0.11637 -0.054989 -0.027694 0.06429 0.18797 -0.21744 0.16362 0.067079 -0.069631 -0.35658 -0.096374 0.25011 0.11507 -0.015016 0.043965 0.24707 -0.24372 0.19682 0.50654 0.055101 0.1521 0.11361 0.18538 0.18941 0.049915 0.23963 -0.039724 -0.05348 0.1388 0.029191 0.065672 0.071694 0.21652 -0.1722 -0.078749 -0.066261 0.30602 -0.094226 0.21661 0.43195 0.16776 -0.16154 -0.030758 0.068393 0.24798 0.061879 0.11851 0.12206 0.14541 -0.068435 -0.013018 0.083524 -0.02673 -0.19366 0.017673 -0.35983 -0.10934 0.27265 -0.10389 0.074786 
tw=| 0.41683 -0.091107 -0.24257 -0.11358 0.26519 0.36181 0.073563 -0.18247 0.16663 0.055859 0.081019 -0.1705 0.035595 0.32179 0.10692 0.025742 -0.14166 0.18748 0.16235 -0.047777 0.030426 -0.037334 -0.22979 -0.089621 0.064002 -0.13902 -0.2042 -0.14397 0.003659 -0.13165 0.026163 -0.046275 0.022391 -0.022383 0.035144 0.11309 0.07655 0.26122 -0.23948 0.28133 -0.20918 -0.014384 0.013373 0.16822 0.22763 -0.082665 0.091904 0.24253 -0.036873 -0.37877 -0.32442 0.1744 0.12749 0.02795 0.22024 0.33107 -0.1545 0.39567 0.28619 -0.069152 0.31229 -0.070906 0.28319 0.28513 -0.00724 0.17174 0.10694 -0.16238 0.067955 -0.046101 0.28713 0.22476 0.21926 -0.10294 -0.050479 -0.11671 0.23688 -0.23193 0.16695 0.40206 0.04345 -0.18709 -0.043055 0.18181 0.15492 0.19033 -0.038132 0.16325 0.14733 0.081307 0.14122 0.082698 0.040912 -0.27675 -0.068254 -0.26722 -0.23716 -0.0019187 -0.26044 0.063333 
th\n -0.22351 0.20748 0.057644 -0.13599 0.052496 0.13556 0.25694 -0.10092 0.25426 0.25952 0.039919 -0.036487 0.21764 0.33032 0.16641 -0.065764 -0.065972 -0.08091 0.49401 0.15426 0.1705 0.089067 -0.046747 -0.23481 0.097822 -0.30296 0.086648 0.063406 -0.097753 0.13831 -0.0064283 0.14561 -0.1155 0.13917 -0.11134 -0.023698 -0.24642 -0.037815 -0.057702 0.06681 -0.048043 -0.03192 -0.27882 0.12383 0.1497 -0.2399 0.14356 -0.11777 0.025987 -0.17501 -0.10791 0.12924 0.23679 0.061371 0.14881 0.35044 -0.057699 0.14912 0.56252 -0.088324 0.088169 0.092235 0.056851 0.22836 0.03459 0.40433 -0.28195 0.005096 0.081451 0.21013 -0.08723 -0.029829 0.22793 -0.053012 0.050652 -0.23074 0.20653 0.098805 0.16631 0.2883 0.15181 -0.029669 -0.034872 -0.040794 0.21581 -0.033257 0.094496 0.17314 0.072415 -0.20546 -0.046893 0.067332 -0.045623 -0.084938 0.11899 -0.26947 0.0046718 0.069514 -0.042673 -0.065666 
ti 0.26576 -0.10413 -0.032153 -0.036557 0.15752 0.20645 0.025667 0.037626 0.17727 0.18492 0.10991 -0.083227 0.13055 0.42848 0.038602 -0.0054124 -0.08276 0.069072 0.21342 0.2012 0.088602 0.11211 0.018046 -0.063811 0.070871 -0.21602 -0.0097209 -0.11753 -0.14176 0.011058 -0.046315 0.0084812 -0.16586 0.026738 -0.18614 0.048832 -0.14283 0.069529 0.032524 0.21975 -0.041286 0.034481 -0.13484 0.15807 0.24169 -0.18536 -0.033203 0.033679 0.054717 -0.21932 -0.21308 0.13046 -0.096782 0.10959 0.12691 0.3507 -0.28735 0.08981 0.50249 -0.05377 0.34804 0.090174 0.14256 0.19105 0.021353 0.17064 -0.2718 -0.14706 -0.079221 0.24847 0.20829 0.25393 0.18336 0.051241 -0.0096517 -0.068041 0.28316 -0.032507 0.32716 0.16297 0.017068 -0.22475 0.014579 0.088666 0.21822 -0.040469 0.042101 0.26192 0.11071 -0.079868 0.15358 0.066476 -0.018157 -0.12732 0.019151 -0.27727 -0.041921 0.13677 -0.088754 0.010589 
th=s -0.10676 0.063202 0.099697 -0.088769 -0.072208 0.0075111 0.24749 -0.075804 -0.1339 0.34478 -0.13972 -0.053664 0.10829 0.15742 -0.23066 -0.0082444 -0.08496 0.088286 0.27817 -0.024251 0.17023 0.19807 -0.14033 0.053558 0.045208 -0.3783 -0.23141 -0.31778 -0.33749 0.072878 -0.040242 0.24952 0.074769 0.17504 -0.058812 -0.3255 -0.52034 -0.038501 0.025299 -0.14493 -0.27403 -0.015957 -0.1965 -0.02773 0.007265 -0.27115 0.26943 -0.05145 -0.095821 -0.22263 0.05392 0.29381 0.21254 -0.083482 -0.13087 0.19417 -0.25257 -0.14429 0.59241 0.010784 0.1267 0.2929 0.13313 0.34052 0.041832 0.24449 -0.17482 0.052976 0.17825 0.25483 -0.15851 -0.081132 0.37094 -0.25373 -0.11639 0.068862 0.37127 0.024696 0.38574 0.49154 0.35092 -0.1984 0.099496 -0.12975 0.29949 -0.20674 0.15509 0.068498 0.22538 -0.15262 -0.11461 0.14944 -0.065292 -0.1443 0.31318 -0.46394 0.033596 0.54879 0.0040158 0.18112 
rpar 0.18875 0.0002085 -0.010815 -0.070147 -0.15601 0.20578 0.068218 -0.11568 0.14607 0.1124 0.044902 -0.14556 -0.044887 0.25006 -0.023963 0.17763 -0.016044 0.105 0.12138 -0.061707 0.15086 0.26957 -0.30967 -0.084726 0.2204 -0.33079 -0.095125 -0.059221 -0.051062 0.15508 -0.0049713 0.086442 0.14571 0.12197 -0.045396 0.11131 -0.15241 0.0058817 -0.22635 0.053705 0.067955 -0.058459 -0.28128 0.13348 0.24735 -0.24321 0.26017 -0.071131 -0.15811 -0.31174 -0.088519 0.2085 0.13509 0.15292 0.20837 0.15933 -0.18298 0.512 0.51476 -0.078313 0.033755 -0.011726 0.18769 0.25829 -0.050562 0.17061 0.036995 -0.024479 0.10224 -0.018923 0.067968 -0.037491 0.21815 -0.21799 -0.085539 -0.19185 0.26502 -0.12874 0.10434 0.51997 0.091127 -0.201 -0.094719 -0.011681 0.10444 0.097092 0.098847 0.15142 0.25891 -0.1445 0.10907 -0.030471 -0.058229 -0.28555 -0.071289 -0.26835 -0.21506 0.09445 -0.15075 0.16577 
lpar 0.21742 -0.053769 -0.041277 -0.065853 -0.098998 0.23801 0.043857 -0.10647 0.16543 0.11253 0.067652 -0.14353 -0.047854 0.25853 -0.018215 0.17345 -0.01245 0.088891 0.096812 -0.058464 0.14721 0.2467 -0.30333 -0.089996 0.19606 -0.33348 -0.064854 -0.049301 -0.046501 0.1595 -0.014991 0.085534 0.12559 0.10944 -0.050131 0.13568 -0.12387 0.013294 -0.23946 0.071256 0.063174 -0.050974 -0.29155 0.14951 0.25304 -0.2361 0.22165 -0.06772 -0.162 -0.30463 -0.11762 0.20048 0.12761 0.16233 0.24835 0.16497 -0.16066 0.52874 0.47468 -0.11355 0.034681 -0.026216 0.21594 0.27205 -0.069901 0.15445 0.046884 -0.025126 0.10755 0.0067794 0.10478 -0.0097086 0.22245 -0.1815 -0.10049 -0.20732 0.24301 -0.16627 0.095601 0.49935 0.084833 -0.19944 -0.091229 -0.013976 0.10196 0.089773 0.080157 0.14178 0.25528 -0.14407 0.13475 -0.021116 -0.049889 -0.31355 -0.079631 -0.25473 -0.23287 0.069124 -0.1836 0.20004 
=on 0.10846 -0.09155 0.033033 -0.16067 0.31754 0.33642 0.071517 -0.097855 0.18107 0.11196 0.12252 -0.11852 0.20719 0.28627 0.093856 -0.16499 -0.22897 -0.026592 0.199 0.15198 0.028165 0.023425 -0.096656 -0.028969 -0.13269 -0.33274 0.034898 0.068828 -0.1771 0.0139 0.020735 0.12612 -0.061469 0.14851 -0.12117 0.13288 -0.16032 0.17319 -0.15338 0.25584 -0.27617 -0.0031976 -0.36637 0.30169 0.031858 -0.066951 0.085227 -0.058482 0.025541 -0.11503 -0.30443 -0.060103 0.27529 0.21345 0.35223 0.42836 -0.090786 0.27744 0.33301 -0.29016 0.24314 -0.082454 0.15063 0.39928 -0.012957 0.31973 -0.23404 -0.068423 -0.031447 0.16505 0.025326 0.014511 0.30869 0.0035935 -0.062973 -0.25646 0.0080117 -0.0053975 0.22514 0.29758 -0.02623 -0.14945 0.13982 -0.031172 0.17702 -0.053904 -0.084186 0.20678 0.069793 -0.034084 0.056839 0.090889 -0.033558 -0.044703 0.22225 -0.14288 -0.15508 -0.084284 -0.083736 0.066078 
peri\ -0.28552 0.28929 0.055814 -0.14299 -0.059163 0.139 0.25744 -0.064428 0.10863 0.21041 0.044684 -0.083608 0.31449 0.2794 0.079518 0.16233 -0.11801 -0.034919 0.51115 0.11469 0.14333 0.20281 -0.077097 -0.22538 0.22478 -0.34803 -0.12079 0.020163 -0.13596 0.17607 0.048555 0.057008 -0.077082 0.24595 -0.014798 -0.17227 -0.29949 -0.037076 -0.00017355 -0.054007 -0.075728 -0.1982 -0.11645 0.08452 0.20922 -0.31994 0.26182 -0.040158 0.0071946 -0.26947 -0.027429 0.2633 0.1149 -0.11212 -0.057473 0.25869 -0.12366 0.059438 0.60178 -0.02034 -0.019198 0.19563 0.063649 0.10114 0.20608 0.44113 -0.19241 0.011288 0.086355 0.16024 -0.16347 0.068492 0.13995 -0.23225 -0.086278 -0.20987 0.21837 0.16589 0.16412 0.25834 0.20246 0.02101 -0.012867 0.023201 0.25336 0.023586 0.18804 0.23684 0.15678 -0.27859 -0.24064 0.12061 -0.031665 -0.12149 0.012879 -0.23417 0.075289 0.22091 -0.0022386 -0.030944 
kata\ 0.24509 0.039311 -0.10248 -0.13087 0.2505 0.32975 0.11869 -0.15323 0.33035 0.081709 0.15242 -0.17979 0.13094 0.36011 0.1907 0.0086611 -0.14915 0.10938 0.24922 0.12266 0.0014173 0.0069402 -0.21596 -0.10518 0.11061 -0.24967 0.016428 0.089627 0.013037 -0.011005 0.080649 0.01744 -0.060676 0.072591 0.027175 0.17214 0.029437 0.18681 -0.17248 0.34792 -0.10315 -0.061112 -0.19009 0.28048 0.2079 -0.11563 0.11822 0.10481 0.03753 -0.30535 -0.30209 0.068673 0.14501 0.17261 0.32709 0.346 -0.10054 0.40808 0.3868 -0.13234 0.21571 -0.13871 0.10182 0.22864 -0.011637 0.23353 -0.1321 -0.094338 -0.069609 -0.037937 0.10168 0.13914 0.1862 -0.02774 0.0010129 -0.29692 0.091705 -0.0038006 0.12515 0.30753 -0.057008 -0.11938 -0.088604 0.12676 0.12025 0.17427 -0.039694 0.23686 0.18246 -0.035869 0.033392 0.016197 -0.012895 -0.14366 -0.083804 -0.18071 -0.22344 -0.18879 -0.14686 -0.019065 
i -0.024256 0.12615 0.0072799 -0.10676 -0.045284 0.28552 0.10471 -0.1076 0.16193 0.097879 0.11137 -0.090577 0.12848 0.26145 0.05793 0.12478 -0.10948 0.0027465 0.2763 -0.012401 0.085048 0.13818 -0.14901 -0.15845 0.20017 -0.3272 -0.034319 0.027891 -0.066785 0.17099 -0.00097565 0.11175 0.034064 0.19354 0.018274 0.10584 -0.18752 -0.015304 -0.13934 0.068239 -0.11014 -0.17185 -0.20435 0.14427 0.22274 -0.22208 0.20402 0.0084261 -0.019716 -0.35045 -0.071998 0.17347 0.12481 0.016495 0.14629 0.31069 -0.098743 0.34181 0.55781 -0.10937 0.011846 -0.00096061 0.1358 0.17406 0.14267 0.35645 -0.11814 -0.087223 0.098592 0.064955 -0.03955 0.0079517 0.22319 -0.11114 -0.18708 -0.24181 0.13454 0.030499 0.077871 0.34088 0.03575 -0.0625 -0.021517 0.031778 0.20903 0.11524 0.096137 0.24436 0.12545 -0.1122 -0.018171 0.040543 -0.045181 -0.16212 -0.015713 -0.12233 -0.076586 0.025568 -0.062282 0.12498 
toi=s -0.29746 0.37975 0.041127 -0.12182 -0.0059832 0.208 0.26561 -0.14416 0.13011 0.18449 0.025243 -0.11762 0.27189 0.25683 0.093761 0.13318 -0.14803 0.0067422 0.49854 0.070166 0.10236 0.2087 -0.1455 -0.25791 0.20596 -0.29227 -0.15729 0.097401 -0.084514 0.16174 0.07083 0.041449 -0.055274 0.20627 0.039076 -0.091319 -0.24379 -0.045853 -0.081453 0.0023996 -0.16977 -0.15118 -0.14383 0.14817 0.16087 -0.30042 0.31162 -0.0094198 -0.014584 -0.30455 -0.048838 0.22805 0.22434 -0.096192 0.0060208 0.28758 -0.093754 0.20381 0.58245 -0.048167 -0.041375 0.12521 0.087661 0.073285 0.19777 0.4528 -0.15576 -0.010086 0.14275 0.043486 -0.2138 -0.012502 0.16795 -0.25803 -0.084837 -0.24085 0.12771 0.10191 0.13763 0.29402 0.2238 0.023325 -0.0020824 0.041134 0.21725 0.091759 0.19549 0.18483 0.09707 -0.21807 -0.24982 0.13386 -0.026818 -0.1036 0.039827 -0.20993 -0.020902 0.13002 -0.035044 -0.057543 
ll 0.2238 -0.094363 -0.050588 -0.032467 0.17829 0.28267 0.049726 -0.1277 0.179 0.19722 0.12772 -0.052076 0.13217 0.32543 0.06634 0.026623 -0.087464 0.081195 0.21659 0.060441 0.097274 0.090447 -0.093466 -0.051413 0.16609 -0.17286 -0.044585 -0.11701 -0.13206 0.012394 0.0074417 0.010251 -0.050732 0.06103 -0.056965 0.061332 -0.10948 0.17397 -0.063451 0.16707 -0.07447 -0.052471 -0.064265 0.083043 0.24216 -0.21661 0.073272 0.054968 0.054331 -0.30546 -0.17198 0.1457 0.013552 0.061166 0.13715 0.34956 -0.22704 0.16312 0.48731 -0.051288 0.24369 0.0027962 0.23671 0.17641 0.053057 0.23253 -0.14616 -0.16945 -0.015841 0.089861 0.15026 0.20658 0.26744 -0.05408 -0.097997 -0.14167 0.20543 -0.12418 0.18519 0.28195 -0.0033054 -0.15943 -0.010147 0.14492 0.21852 0.063374 0.037178 0.25125 0.082929 -0.026073 0.10057 0.08358 -0.06787 -0.12079 -0.036446 -0.17616 -0.082479 0.078001 -0.15655 0.059523 
lla\ 0.090121 0.061978 -0.063246 -0.072374 0.13217 0.31693 0.10872 -0.13949 0.2817 0.16051 0.16363 -0.12199 0.18085 0.38524 0.2035 0.13865 -0.10838 -0.022573 0.33612 0.11818 0.10364 0.091045 -0.17633 -0.19022 0.2537 -0.2182 0.014326 0.092977 -0.017292 0.10753 0.064522 -0.039383 -0.079288 0.13309 -0.0019271 0.0686 -0.057954 0.1471 -0.084332 0.20969 0.024637 -0.15027 -0.10829 0.17852 0.2831 -0.29209 0.12428 0.063166 0.026123 -0.31924 -0.18889 0.15056 0.038697 0.054032 0.18021 0.29602 -0.15029 0.30222 0.48438 -0.06945 0.11588 -0.030976 0.14552 0.12534 0.097349 0.28304 -0.12543 -0.10025 -0.020437 0.043321 0.098895 0.1845 0.15423 -0.087618 -0.10403 -0.26824 0.11532 -0.019563 0.06549 0.27191 0.0068504 -0.04831 -0.071245 0.16071 0.14704 0.16038 0.066865 0.28981 0.1689 -0.15919 -0.010474 0.038062 -0.040955 -0.12553 -0.14986 -0.16444 -0.12215 -0.066153 -0.14343 0.026537 
to\n -0.068512 0.16352 -0.082783 -0.25981 0.39584 0.37788 0.093387 -0.11388 0.49125 0.034705 0.27669 -0.11896 0.44838 0.4218 0.36308 -0.16006 -0.20084 -0.11492 0.45369 0.34749 0.015521 0.038285 -0.024682 -0.29995 -0.071992 -0.30535 0.16312 0.3382 -0.031264 -0.043081 0.1034 0.054043 -0.23599 0.10396 -0.11991 0.27504 0.065582 0.099497 -0.10661 0.44937 -0.14388 -0.020728 -0.32961 0.31062 0.29695 -0.0344 0.031562 0.007599 0.20277 -0.13237 -0.39315 -0.20784 0.24014 0.16134 0.48771 0.53131 0.0097477 0.38139 0.39904 -0.34495 0.15413 -0.13746 0.10886 0.24364 0.026914 0.43778 -0.40507 -0.2104 -0.17569 0.05668 -0.03398 0.13744 0.13255 0.034061 0.1252 -0.42259 -0.082536 0.14013 0.14775 0.071782 -0.067474 0.035498 -0.034784 0.1809 0.16011 0.14171 -0.0903 0.30103 -0.056724 -0.12383 0.034599 0.13134 -0.0056547 -0.073412 0.080823 -0.07724 -0.014271 -0.40528 -0.090346 -0.14048 
/n 0.38937 -0.14262 -0.139 -0.093627 0.35346 0.37077 -0.11072 -0.11489 0.29326 0.093713 0.215 -0.12494 0.20605 0.43993 0.17509 0.0016959 -0.1155 0.08527 0.17397 0.17474 0.0073787 0.03904 -0.046757 -0.063909 0.10859 -0.16276 -0.0086015 -0.049636 -0.090992 -0.086258 0.0096835 -0.051834 -0.11915 -0.023482 -0.12279 0.19926 0.063689 0.2389 -0.066894 0.33633 -0.063068 -0.01991 -0.10319 0.18056 0.35804 -0.14719 -0.021705 0.10961 0.098431 -0.30661 -0.33619 0.0081155 -0.066706 0.11325 0.37276 0.43303 -0.25231 0.30846 0.40937 -0.11215 0.30418 -0.10217 0.2199 0.17889 -0.010014 0.208 -0.19529 -0.26834 -0.17547 0.04112 0.27842 0.30895 0.19094 0.023948 -0.019689 -0.17223 0.092157 -0.1481 0.20444 0.17902 -0.10722 -0.13367 -0.042232 0.22932 0.19723 0.10832 -0.080049 0.33845 0.059415 -0.037765 0.18952 0.07133 -0.069571 -0.13821 -0.11787 -0.1233 -0.10228 -0.087296 -0.18667 0.0089772 
tou=to 0.16974 -0.0027139 0.0049441 -0.13924 0.18302 0.18268 0.092403 -0.089949 0.20777 0.16478 0.071863 -0.1208 0.21855 0.37621 0.040993 -0.075561 -0.10085 0.087182 0.23657 0.2379 0.083834 0.10923 -0.10487 -0.089625 0.0032201 -0.29636 -0.022032 0.022856 -0.1132 -0.018131 0.010983 0.097544 -0.11558 0.060988 -0.16523 0.12095 -0.13201 0.043799 -0.095832 0.22922 -0.14914 0.052642 -0.31749 0.20665 0.21449 -0.095803 0.1041 0.041777 0.05704 -0.17026 -0.22432 0.01136 0.17069 0.17422 0.30592 0.35875 -0.18633 0.28904 0.44864 -0.2305 0.20746 -0.0047947 0.088852 0.33466 -0.061703 0.16076 -0.25567 -0.17988 -0.070361 0.10437 0.03461 0.040455 0.22963 -0.089644 0.044966 -0.20547 0.18562 0.009025 0.25463 0.22665 0.037933 -0.1391 -0.027519 0.0019555 0.14787 -0.021266 -0.04427 0.21024 0.091687 -0.10189 0.13855 0.091016 -0.013595 -0.21077 0.10639 -0.22741 -0.11048 -0.10853 -0.067703 0.0040478 
ti/ 0.06313 0.022166 -0.017901 -0.046387 -0.012837 0.15852 0.10894 -0.024541 0.15169 0.18973 0.069597 -0.070156 0.10088 0.31209 0.010665 0.11488 -0.052445 0.051983 0.2438 0.072015 0.12516 0.16029 -0.10727 -0.10752 0.21236 -0.30723 -0.048629 -0.10197 -0.10012 0.12185 -0.004631 0.058003 -0.054565 0.082959 -0.095553 -0.016151 -0.2302 0.0070673 -0.013769 0.071532 0.010911 -0.056589 -0.13957 0.074894 0.24617 -0.27664 0.10416 -0.019264 -0.049664 -0.30793 -0.094938 0.23334 -0.015184 0.017584 0.058383 0.255 -0.18461 0.15609 0.56304 0.010659 0.15013 0.12322 0.12338 0.19233 0.045504 0.22033 -0.13982 -0.037751 0.048611 0.16221 0.093828 0.1389 0.16755 -0.11245 -0.075483 -0.086474 0.28921 -0.051865 0.21694 0.32317 0.12254 -0.15583 -0.014783 0.038013 0.20366 0.013104 0.093318 0.23272 0.17514 -0.17976 0.043648 0.042401 -0.028273 -0.17107 -0.033399 -0.29883 -0.014353 0.24779 -0.092367 0.1062 
/stai 0.23014 -0.032883 -0.14793 -0.068819 0.084885 0.18276 0.072903 -0.17982 0.13963 0.21679 0.089636 -0.090128 0.14222 0.31852 0.034775 0.12925 -0.060738 0.12937 0.23515 0.017513 0.096387 0.16373 -0.054658 -0.073721 0.25894 -0.19832 -0.18052 -0.23907 -0.081308 0.013378 0.015967 -0.047073 -0.088617 0.033647 -0.08148 0.024332 -0.11041 0.12919 -0.07973 0.016297 0.028328 -0.18197 0.055998 -0.019189 0.3147 -0.21115 0.10254 0.1286 0.051776 -0.44192 -0.12137 0.25952 -0.10696 -0.10404 0.075613 0.2771 -0.22537 0.15898 0.50192 0.078387 0.15531 0.11541 0.2326 0.12641 0.085013 0.15822 -0.078475 -0.10835 0.063205 0.028718 0.19221 0.25085 0.16973 -0.15743 -0.084462 -0.16286 0.36671 -0.125 0.19489 0.25483 0.065784 -0.12721 -0.004861 0.14183 0.20752 0.088528 0.051334 0.29822 0.11358 -0.077094 0.14343 0.0647 -0.04154 -0.27816 -0.16603 -0.23672 -0.053505 0.25555 -0.1793 0.023731 
/sti 0.36963 -0.13971 -0.093426 -0.047495 0.068746 0.13272 0.034172 -0.095971 0.084472 0.21101 0.087985 -0.091195 0.078036 0.33478 -0.026184 0.058999 -0.040946 0.16643 0.1519 0.029776 0.09759 0.13139 -0.078333 -0.012683 0.14557 -0.17518 -0.19145 -0.3187 -0.15215 -0.046741 -0.033757 -0.0074428 -0.084453 0.0065766 -0.13881 0.029149 -0.10357 0.13865 -0.040438 0.057719 0.006259 -0.039863 -0.014855 0.0092346 0.25796 -0.16354 0.075006 0.10635 0.042372 -0.32172 -0.15284 0.21781 -0.08581 0.028786 0.079395 0.25062 -0.30451 0.10135 0.48778 0.063592 0.27817 0.11213 0.21778 0.20926 -0.0063665 0.099668 -0.097338 -0.14343 -0.0069923 0.086661 0.226 0.21072 0.24069 -0.11758 -0.026361 -0.058912 0.41936 -0.13477 0.2848 0.32881 0.071341 -0.25453 -0.02737 0.099569 0.22962 0.0045525 0.036436 0.23179 0.13704 -0.064655 0.16811 0.052193 -0.027365 -0.23496 -0.065148 -0.34542 -0.082758 0.26858 -0.13256 0.038247 
ta\s -0.54508 0.52754 0.075533 -0.15113 -0.28696 0.17264 0.33987 -0.061744 0.19339 0.21209 0.085567 -0.095055 0.25827 0.19172 0.19789 0.29141 -0.087536 -0.11133 0.60712 -0.015622 0.26491 0.27072 -0.13682 -0.32499 0.36912 -0.39472 -0.052094 0.11041 -0.1298 0.31284 0.0996 0.08828 0.017111 0.34602 0.13004 -0.17597 -0.32239 -0.12681 -0.077266 -0.16026 -0.009695 -0.41205 -0.12354 -0.0073833 0.25871 -0.49471 0.40711 -0.096827 -0.040178 -0.38059 0.087498 0.36217 0.16992 -0.16815 -0.16613 0.19982 -0.11205 0.20943 0.79163 0.079363 -0.22926 0.20012 0.076074 -0.057135 0.25906 0.64764 -0.14429 0.14296 0.23344 0.11374 -0.24658 -0.063849 0.15081 -0.27999 -0.18601 -0.31702 0.23391 0.21942 -0.002149 0.32648 0.31574 0.11186 -0.11089 0.0030783 0.29308 0.20024 0.30869 0.28725 0.18071 -0.36634 -0.33575 0.062911 -0.048079 -0.17745 -0.058692 -0.19525 0.10081 0.32746 -0.030952 0.066725 
te -0.061673 0.066987 -0.02991 -0.13833 0.061612 0.20112 0.13373 -0.13968 0.17798 0.23388 0.062313 -0.071598 0.18374 0.32358 0.10882 0.036538 -0.075163 -0.010204 0.34761 0.086202 0.16628 0.15822 -0.083926 -0.10811 0.13943 -0.28962 -0.02598 -0.078115 -0.12463 0.080584 0.011319 0.057386 -0.041282 0.11736 -0.12033 -0.018962 -0.19242 0.090851 -0.036869 0.042604 -0.010158 -0.13733 -0.1726 0.049935 0.1913 -0.2621 0.12498 -0.035316 -0.031318 -0.24658 -0.096139 0.16316 0.087061 0.032253 0.16138 0.30254 -0.092331 0.14595 0.5147 -0.028699 0.1082 0.082209 0.17724 0.22416 0.053016 0.29229 -0.1679 -0.043852 0.085914 0.12582 0.022979 0.055539 0.25726 -0.10827 -0.063374 -0.22713 0.23596 -0.063292 0.13386 0.30527 0.084237 -0.059616 0.032228 -0.015417 0.22894 0.00046442 0.072202 0.21143 0.11118 -0.19013 0.043399 0.079311 -0.072335 -0.16549 -0.001374 -0.25082 -0.017191 0.191 -0.085581 0.064824 
tou/twn -0.034666 0.2143 -0.035718 -0.17001 0.051508 0.17068 0.20009 -0.12371 0.13512 0.1721 0.080817 -0.17869 0.31227 0.38893 0.1053 0.11986 -0.14773 0.053785 0.39888 0.12888 0.090883 0.16915 -0.11771 -0.20134 0.22247 -0.24353 -0.23243 0.0038075 -0.039955 0.037273 0.022698 -0.067109 -0.13029 0.15168 -0.061633 -0.074636 -0.13996 0.04345 -0.066765 0.033625 -0.05989 -0.18055 -0.086432 0.10911 0.24927 -0.22119 0.20448 0.12163 0.093667 -0.34217 -0.12006 0.17906 0.084058 -0.073631 0.1032 0.25813 -0.16872 0.15952 0.49157 -0.01268 0.08151 0.12112 0.067116 0.18299 0.16182 0.29006 -0.14903 -0.10561 0.0055252 0.032165 -0.0045967 0.107 0.11292 -0.21627 -0.012742 -0.23021 0.2516 0.089882 0.17194 0.25406 0.12263 -0.022746 -0.015937 0.095585 0.18031 0.082599 0.096138 0.26768 0.15497 -0.21267 -0.099506 0.08386 0.050341 -0.19148 -0.056998 -0.25313 -0.023066 0.064793 -0.019788 -0.12577 
le/getai 0.29244 -0.046911 -0.083252 -0.13904 0.33268 0.33234 0.10195 -0.19188 0.23571 0.13838 0.12227 -0.13203 0.1691 0.34866 0.11131 -0.048372 -0.15803 0.15223 0.20729 0.093964 -0.042066 0.045349 -0.14737 -0.033415 0.059979 -0.26382 -0.1046 -0.069119 -0.04156 -0.041711 0.08851 0.025117 -0.095082 0.012934 -0.067701 0.13845 -0.027146 0.24343 -0.16034 0.26545 -0.16517 -0.053249 -0.095626 0.22809 0.19491 -0.087051 0.094901 0.11902 0.05639 -0.28205 -0.32465 0.10548 0.078377 0.093441 0.27795 0.38264 -0.080487 0.28946 0.37626 -0.039174 0.29497 -0.10145 0.14849 0.21727 0.035243 0.21533 -0.12431 -0.10859 -0.042858 0.0060846 0.13057 0.20456 0.23143 -0.05395 0.016721 -0.22685 0.13611 -0.079162 0.18955 0.28744 -0.075134 -0.16635 0.0023296 0.09661 0.15081 0.10756 -0.086403 0.29716 0.11818 0.026148 0.040936 0.050737 -0.044417 -0.15027 -0.062937 -0.10445 -0.19878 -0.035013 -0.15964 -0.031668 
c 0.27066 -0.11746 -0.069368 -0.078923 0.25966 0.2389 0.049161 -0.15559 0.13547 0.2504 0.065394 -0.071917 0.1342 0.32229 -0.0075413 -0.04351 -0.090692 0.134 0.16995 0.079024 0.072686 0.076389 -0.092403 0.01558 0.10813 -0.20544 -0.10696 -0.16959 -0.15497 -0.048306 0.013096 0.027545 -0.077255 0.020739 -0.081621 0.032039 -0.15297 0.19041 -0.085556 0.12341 -0.14144 -0.067494 -0.065647 0.064021 0.18434 -0.15444 0.066396 0.1611 0.05071 -0.31097 -0.19404 0.14299 0.037322 0.034446 0.17431 0.32356 -0.22868 0.12091 0.44004 -0.042119 0.28932 0.042614 0.20749 0.24116 0.00511 0.12842 -0.15655 -0.13518 -0.011125 0.095539 0.18204 0.1762 0.25497 -0.052752 -0.087266 -0.10935 0.25847 -0.12415 0.24515 0.26352 0.023872 -0.18454 0.040152 0.058656 0.21777 0.0065245 -0.010023 0.28985 0.10886 0.00063318 0.14735 0.096708 -0.029516 -0.17465 0.0054548 -0.22262 -0.10949 0.1595 -0.15548 0.074059 
=| 0.41626 -0.1432 -0.15027 -0.057851 0.38488 0.35084 0.029773 -0.12281 0.14264 0.13477 0.069099 -0.11344 0.082078 0.3019 0.024801 -0.040287 -0.14911 0.17604 0.12831 0.053138 0.0069282 -0.020091 -0.14204 0.011664 0.0106 -0.14519 -0.12292 -0.18861 -0.11549 -0.11962 0.034297 0.026413 -0.033228 -0.013378 0.022178 0.056968 -0.044355 0.2718 -0.11839 0.30356 -0.29022 0.043141 -0.0072358 0.19295 0.18481 -0.11327 0.033195 0.19332 0.016099 -0.31381 -0.30908 0.13752 0.065775 0.039691 0.16115 0.39934 -0.22061 0.18755 0.33953 -0.069628 0.41224 -0.032149 0.24245 0.24921 0.00090634 0.1723 -0.069221 -0.18783 -0.035041 0.041543 0.23401 0.27158 0.28032 -0.014941 -0.084613 -0.024539 0.16533 -0.1627 0.26898 0.30125 0.023618 -0.23023 0.018779 0.15733 0.23218 0.10022 -0.039686 0.21537 0.11789 0.13344 0.090444 0.11054 -0.04133 -0.14234 0.010441 -0.20273 -0.17584 0.059473 -0.19983 0.0699 
/te 0.19521 -0.17772 -0.23937 -0.061123 0.27232 0.37773 0.013094 -0.17802 0.31667 0.21812 0.19267 0.019827 0.14974 0.35237 0.15746 0.076087 -0.084459 0.022825 0.28326 0.030394 0.051584 0.093106 -0.033584 -0.11467 0.15681 -0.16537 -0.039583 -0.080243 -0.076347 0.030655 0.063917 -0.038991 -0.1352 0.02236 -0.10184 0.14072 0.048674 0.25708 -0.080905 0.17153 0.066093 -0.14373 0.048805 0.060558 0.28474 -0.23505 -0.040736 0.02451 -0.010241 -0.31891 -0.24657 0.15453 -0.10554 0.0024565 0.16489 0.36412 -0.062785 0.18436 0.45936 0.026773 0.23038 0.019248 0.36813 0.10546 0.12392 0.30095 -0.096184 -0.1267 0.049796 0.10756 0.30433 0.36052 0.23234 -0.015298 -0.077922 -0.19817 0.20238 -0.19619 0.088245 0.19987 -0.072525 -0.10448 0.088772 0.21391 0.22724 0.057543 0.0099379 0.29251 -0.021406 -0.041314 0.15642 0.088979 -0.053521 -0.14654 -0.18498 -0.21665 -0.030932 0.16147 -0.29298 0.072898 
kaq 0.1742 0.07988 -0.072999 -0.074154 0.13478 0.21134 0.14028 -0.097074 0.20547 0.13233 0.065777 -0.12656 0.14391 0.27311 0.029117 0.066824 -0.10953 0.10895 0.27718 0.077175 0.010799 0.086894 -0.11796 -0.087649 0.14551 -0.23766 -0.082169 -0.059771 -0.060289 0.0017049 0.11562 0.041445 -0.055031 0.10129 0.0030489 0.038007 -0.11662 0.10107 -0.11915 0.19376 -0.10699 -0.078262 -0.11353 0.18817 0.22633 -0.16956 0.1554 0.062939 0.067718 -0.30921 -0.20226 0.18068 0.053767 0.0052375 0.101 0.29804 -0.15196 0.24791 0.47782 -0.069237 0.22379 0.030288 0.11443 0.15713 0.039629 0.25536 -0.1093 -0.081798 -0.020095 0.024818 0.071196 0.18711 0.15953 -0.11682 -0.010779 -0.16045 0.21579 0.05927 0.21575 0.27593 0.083671 -0.1517 -0.024854 0.095786 0.18577 0.12271 0.03901 0.25723 0.15226 -0.013432 0.019161 0.045169 -0.0042465 -0.17961 -0.068545 -0.18974 -0.11368 0.022605 -0.11753 -0.044363 
/ 0.063835 0.0010764 -0.015179 -0.065286 0.11485 0.25401 0.12405 -0.078433 0.16148 0.21093 0.088044 -0.04988 0.17522 0.32587 0.0907 0.074597 -0.10622 0.022195 0.29245 0.088812 0.10823 0.14678 -0.045493 -0.10199 0.17024 -0.23881 -0.088043 -0.067747 -0.13346 0.088232 0.028439 0.016535 -0.090835 0.12511 -0.096901 -0.0089961 -0.1541 0.10562 -0.073315 0.07769 -0.055049 -0.10159 -0.11672 0.11657 0.20435 -0.25659 0.10332 -0.0092651 0.015323 -0.27151 -0.13864 0.19658 0.019091 0.007848 0.062284 0.31809 -0.17946 0.14933 0.51417 -0.034869 0.17482 0.077587 0.17033 0.16796 0.084083 0.30407 -0.14327 -0.064433 0.032287 0.17515 0.097629 0.16956 0.2081 -0.086936 -0.066029 -0.14523 0.21748 -0.018825 0.17613 0.24776 0.062741 -0.11548 0.036521 0.063117 0.21256 0.030735 0.080811 0.28667 0.080219 -0.113 0.022009 0.092597 -0.042458 -0.13561 -0.04786 -0.18787 -0.050361 0.15768 -0.11677 0.021436 
tis 0.04663 0.04325 0.049453 -0.061897 0.033513 0.082333 0.14383 -0.027992 -0.012906 0.26627 -0.03627 -0.052456 0.098107 0.29098 -0.056617 0.040806 -0.067127 0.094175 0.2379 0.09035 0.1667 0.16505 -0.027333 -0.01001 0.13816 -0.25523 -0.13472 -0.2216 -0.20626 0.089446 -0.033821 0.063059 -0.036216 0.080564 -0.11072 -0.14952 -0.34963 0.042833 0.020804 -0.021347 -0.12975 -0.032714 -0.08636 0.066136 0.15017 -0.25872 0.11711 0.0074279 -0.028189 -0.2835 -0.050648 0.26248 0.037308 -0.010933 -0.04287 0.25129 -0.26541 -0.023219 0.55067 0.05065 0.19709 0.18057 0.12517 0.2109 0.062232 0.21918 -0.17278 -0.034949 0.070081 0.23657 0.038871 0.12821 0.23496 -0.11016 -0.088263 -0.0015234 0.31089 -0.019397 0.30986 0.29378 0.19383 -0.173 0.04302 -0.040924 0.25412 -0.088708 0.13056 0.21067 0.15844 -0.10212 -0.02321 0.10379 -0.045705 -0.12005 0.11182 -0.31311 -0.012926 0.38097 -0.048295 0.055352 
tau=ta -0.087232 0.28548 -0.093967 -0.10434 0.02394 0.25638 0.24577 -0.19315 0.20094 0.17083 0.093871 -0.13958 0.19456 0.32485 0.22466 0.20785 -0.15414 0.010708 0.45186 0.026056 0.12027 0.11106 -0.18506 -0.23637 0.33512 -0.21378 -0.13415 0.048107 0.019351 0.12771 0.10014 -0.051518 -0.057576 0.18851 0.074782 -0.047991 -0.10716 0.11338 -0.10899 0.060494 0.0013483 -0.30588 0.0070897 0.11621 0.2335 -0.32161 0.27531 0.11114 0.018717 -0.43912 -0.10185 0.28367 0.065231 -0.084116 0.020014 0.24623 -0.099341 0.24867 0.51713 0.089004 0.022827 0.061667 0.13399 0.064567 0.20751 0.37973 -0.051158 0.0074502 0.093004 -0.0085308 0.0024955 0.14036 0.13952 -0.19525 -0.12873 -0.29421 0.1896 0.035246 0.02486 0.29781 0.10364 0.027198 -0.058071 0.1493 0.16162 0.20649 0.15573 0.31287 0.17433 -0.18326 -0.13689 0.038943 -0.025956 -0.13357 -0.19285 -0.21762 -0.082477 0.081171 -0.13648 -0.012778 
/sper 0.12627 -0.00024093 -0.019178 -0.070313 0.1753 0.23744 0.11125 -0.12268 0.17933 0.19905 0.047425 -0.074181 0.15361 0.28102 0.016768 0.023614 -0.12541 0.059194 0.28004 0.073044 0.051786 0.11807 -0.076634 -0.087863 0.12493 -0.27362 -0.08415 -0.085488 -0.12907 0.057288 0.037932 0.089463 -0.057489 0.10732 -0.07215 0.027292 -0.18425 0.10248 -0.12107 0.089404 -0.11935 -0.10211 -0.13217 0.14343 0.18793 -0.18027 0.14513 0.043697 0.021768 -0.27465 -0.16662 0.17821 0.068666 -0.0022775 0.10147 0.31526 -0.14193 0.19576 0.47259 -0.057617 0.17651 0.063738 0.15266 0.17786 0.056227 0.2585 -0.13254 -0.071039 0.035109 0.12427 0.05741 0.12716 0.20928 -0.08109 -0.064321 -0.15266 0.21297 -0.020711 0.20962 0.25901 0.051439 -0.14758 0.035056 0.030267 0.20134 0.026377 0.038123 0.25624 0.11031 -0.062578 0.036415 0.075972 -0.041904 -0.17286 -0.01685 -0.16739 -0.087884 0.12778 -0.11935 0.054255 
stin 0.25916 -0.12554 -0.027018 -0.099241 0.077691 0.14135 0.036129 -0.094819 0.10031 0.21503 0.12591 -0.077332 0.12021 0.3706 0.03161 -0.0089681 -0.042596 0.12081 0.16467 0.054476 0.099798 0.12826 -0.069251 -0.016651 0.11035 -0.19809 -0.12916 -0.24929 -0.17816 -0.017278 -0.087922 -0.00065507 -0.090869 0.0055678 -0.18238 0.033245 -0.1246 0.13038 -0.0056557 0.074695 0.0028528 0.0014221 -0.074823 0.02357 0.22582 -0.17707 0.052713 0.017557 0.014951 -0.25398 -0.16705 0.15006 -0.020895 0.10431 0.14178 0.30296 -0.2843 0.088363 0.48632 0.051319 0.26133 0.092442 0.18688 0.25507 0.0056787 0.15176 -0.16582 -0.13579 -0.027798 0.13521 0.19492 0.1618 0.26522 -0.083541 0.023139 -0.070481 0.34704 -0.13238 0.28077 0.35647 0.024767 -0.23118 -0.016846 0.074734 0.22902 -0.060434 0.038812 0.21848 0.10347 -0.10691 0.11125 0.039436 -0.043413 -0.12132 0.022986 -0.33633 -0.036415 0.25749 -0.074784 0.014116 
/stin 0.30974 -0.13203 -0.066156 -0.085327 0.11717 0.15277 0.034029 -0.12249 0.10519 0.23176 0.11134 -0.078767 0.12156 0.37301 0.023555 0.0043729 -0.041904 0.1378 0.17132 0.068788 0.11235 0.1154 -0.049561 -0.015684 0.13484 -0.16544 -0.14491 -0.28051 -0.16073 -0.037066 -0.062935 -0.013625 -0.10404 -0.0060528 -0.17387 0.033921 -0.10945 0.1591 -0.024455 0.061809 -0.0029743 -0.048909 -0.029911 0.009935 0.2523 -0.17115 0.052535 0.098752 0.054836 -0.29725 -0.16944 0.17208 -0.052118 0.057876 0.12754 0.2985 -0.30623 0.087356 0.48092 0.058055 0.27386 0.098256 0.20931 0.22711 0.011488 0.1144 -0.14947 -0.16227 -0.022572 0.11275 0.23111 0.18664 0.25959 -0.079414 -0.012018 -0.092619 0.38017 -0.13966 0.26567 0.30791 0.027073 -0.21803 -0.017712 0.097663 0.2292 -0.027214 0.023529 0.24007 0.095334 -0.077547 0.15938 0.05306 -0.037356 -0.19166 -0.023795 -0.31843 -0.065944 0.23523 -0.10957 0.021017 
dia\ 0.1205 0.055113 -0.061285 -0.095708 0.092104 0.22262 0.16211 -0.11905 0.15843 0.16549 0.093872 -0.13953 0.13345 0.28435 0.094035 0.090107 -0.13185 0.074808 0.27041 0.054031 0.088546 0.067366 -0.17165 -0.097496 0.15568 -0.26521 -0.080456 -0.066258 -0.064439 0.051921 0.033532 0.037601 -0.024775 0.10482 0.0090312 0.010177 -0.14249 0.1124 -0.076791 0.14385 -0.080525 -0.10016 -0.091091 0.12938 0.17745 -0.19912 0.152 0.057854 -0.003801 -0.31556 -0.15791 0.1958 0.10527 0.044224 0.11483 0.28283 -0.15094 0.22022 0.46761 -0.025128 0.16821 0.029133 0.11239 0.19715 0.069398 0.24659 -0.083646 -0.048075 0.03153 0.050889 0.053109 0.15128 0.20189 -0.1402 -0.093682 -0.1663 0.22185 -0.025942 0.18451 0.35002 0.085769 -0.11427 -0.044206 0.08346 0.18482 0.089445 0.060828 0.22614 0.18668 -0.11371 -0.035474 0.045169 -0.029362 -0.14021 -0.04708 -0.24657 -0.10479 0.091531 -0.11331 0.063841 
pi\ 0.12791 -0.018361 -0.0076408 -0.064229 0.060983 0.19058 0.093593 -0.077526 0.093414 0.18222 0.066973 -0.10713 0.17621 0.29348 -0.033859 0.11705 -0.10627 0.066355 0.24487 0.050045 0.080995 0.14049 -0.10193 -0.061114 0.19181 -0.26761 -0.14382 -0.11788 -0.12899 0.049176 -0.010265 0.02103 -0.048533 0.13428 -0.0759 -0.045693 -0.20275 0.061371 -0.034129 0.06087 -0.052019 -0.08895 -0.09279 0.075811 0.22405 -0.22602 0.15297 0.050772 0.011085 -0.30323 -0.10974 0.20677 0.025442 -0.021414 0.080314 0.25716 -0.20801 0.089628 0.49408 -0.02971 0.15919 0.11633 0.13081 0.21242 0.077909 0.19866 -0.14433 -0.070681 -0.025828 0.095315 0.050869 0.13552 0.17486 -0.15938 -0.090889 -0.12539 0.26766 -0.010765 0.24988 0.32162 0.079768 -0.13976 0.023588 0.06588 0.23959 0.024678 0.070238 0.23468 0.1797 -0.1338 0.0035966 0.085276 -0.015958 -0.15428 -0.034657 -0.23551 -0.028157 0.18503 -0.043222 0.041238 
pro\s 0.10303 0.03704 -0.0012152 -0.15893 0.14696 0.22533 0.057192 -0.093036 0.14423 0.10998 0.085516 -0.11769 0.25089 0.27377 0.029952 -0.016437 -0.18721 0.072253 0.26912 0.12696 0.012392 0.082968 -0.081861 -0.053269 0.044424 -0.24639 -0.09278 -0.076401 -0.18604 -0.027212 -0.025998 0.072121 -0.02764 0.12725 -0.038201 -0.00037575 -0.18424 0.1192 -0.040699 0.10739 -0.19553 -0.090089 -0.14855 0.11933 0.19433 -0.13351 0.12923 0.093338 0.065321 -0.25506 -0.18503 0.084331 0.1336 0.046628 0.13553 0.37842 -0.21551 0.10634 0.43005 -0.099861 0.19784 0.094023 0.13769 0.20119 0.090562 0.2899 -0.23329 -0.11672 -0.069409 0.060822 0.01677 0.11033 0.19707 -0.086774 -0.044384 -0.16442 0.18223 0.06445 0.28931 0.26044 0.059308 -0.14793 0.026666 0.092591 0.26604 0.0045425 0.034793 0.25309 0.13029 -0.052704 -0.031219 0.094011 -0.01949 -0.1317 0.12495 -0.19863 0.0052348 0.084023 -0.024957 0.022451 
th=| 0.21879 -0.079859 -0.064086 -0.096631 0.040362 0.17727 0.11127 -0.12338 -0.0048174 0.16295 -0.035791 -0.10895 0.0036398 0.20712 -0.1158 -0.0072843 -0.079539 0.1698 0.17867 -0.087303 0.1067 0.085925 -0.19361 0.03577 0.017552 -0.20223 -0.22973 -0.29407 -0.20723 -0.028109 -0.040387 0.15036 0.12291 0.078028 -0.004612 -0.084776 -0.22196 0.10897 -0.1028 0.070113 -0.23933 0.0011474 -0.083208 0.082264 0.097966 -0.17298 0.16758 0.07747 -0.11943 -0.27649 -0.11133 0.23419 0.16909 -0.0049746 0.014808 0.26719 -0.24718 0.11438 0.4306 0.0077591 0.26398 0.14777 0.22404 0.30985 -0.011947 0.1931 -0.049404 -0.023341 0.14004 0.091431 0.072769 0.02262 0.32746 -0.15734 -0.089771 0.026131 0.31667 -0.10257 0.3037 0.4957 0.20897 -0.24518 0.021149 0.016246 0.24826 -0.017791 0.092269 0.083225 0.19042 0.015501 0.031311 0.084877 -0.050674 -0.19869 0.17325 -0.4213 -0.11757 0.33576 -0.11857 0.19028 
/ste 0.20014 -0.022932 -0.083202 -0.071827 0.12069 0.1927 0.095788 -0.14225 0.13886 0.21941 0.072087 -0.083317 0.10358 0.28061 0.022165 0.051133 -0.088684 0.13049 0.25627 0.024645 0.095495 0.087344 -0.077631 -0.049316 0.15544 -0.21509 -0.142 -0.22006 -0.13773 0.0034771 0.014192 0.035594 -0.041063 0.065476 -0.064593 0.0062374 -0.14091 0.13842 -0.095053 0.036806 -0.057536 -0.15056 -0.028904 0.04613 0.21153 -0.18805 0.12467 0.09529 0.015539 -0.34804 -0.16551 0.23284 0.0019241 -0.030825 0.069497 0.27019 -0.20108 0.17117 0.47345 0.041085 0.19332 0.11074 0.20133 0.17597 0.046502 0.21236 -0.093566 -0.059244 0.076961 0.09837 0.14054 0.1482 0.23046 -0.097159 -0.067432 -0.13216 0.3438 -0.090934 0.20788 0.30995 0.081607 -0.16167 0.013385 0.05898 0.22515 0.040836 0.037737 0.23062 0.11388 -0.062274 0.087147 0.055453 -0.028494 -0.22602 -0.05017 -0.28807 -0.084334 0.2623 -0.14592 0.08043 
tau 0.2112 0.035851 -0.15379 -0.083705 0.17564 0.29511 0.13088 -0.17613 0.2627 0.12566 0.11523 -0.12236 0.085172 0.32167 0.20185 0.067042 -0.10349 0.10933 0.2899 0.029971 0.097356 -0.0070652 -0.19997 -0.14474 0.17601 -0.16297 -0.038588 -0.036983 0.008152 -0.024766 0.093818 -0.026691 -0.024842 0.043821 0.036634 0.099781 0.032018 0.24535 -0.15004 0.28842 -0.056555 -0.089494 -0.039371 0.15865 0.24926 -0.20286 0.14182 0.15326 -0.0046323 -0.34282 -0.26605 0.18094 0.071377 0.073216 0.17759 0.30434 -0.11884 0.34828 0.39935 -0.02343 0.24334 -0.068154 0.21062 0.16697 0.011099 0.24007 0.0013162 -0.10873 0.018579 -0.026106 0.17553 0.17489 0.19146 -0.098097 -0.037099 -0.21501 0.22234 -0.11785 0.087063 0.35038 0.014526 -0.11505 -0.10802 0.16182 0.14842 0.21902 0.00055161 0.22914 0.1566 -0.038174 0.074692 0.037576 -0.018419 -0.18405 -0.14068 -0.24974 -0.16862 -0.025179 -0.19598 0.038841 
dh\ 0.16965 -0.013156 -0.046767 -0.093245 0.20602 0.22178 0.096301 -0.12176 0.12759 0.18328 0.055041 -0.10491 0.15986 0.3081 0.029209 -0.0051803 -0.13046 0.090133 0.22812 0.098249 0.066974 0.084425 -0.10011 -0.043677 0.073651 -0.25451 -0.099323 -0.11205 -0.10831 -0.0057043 0.023829 0.056137 -0.056081 0.067428 -0.072115 0.016077 -0.16072 0.13671 -0.06453 0.15877 -0.15386 -0.037325 -0.10955 0.13793 0.1869 -0.16328 0.095303 0.085464 0.014773 -0.2653 -0.1961 0.13947 0.086501 0.034269 0.15399 0.32543 -0.17189 0.15059 0.42286 -0.058508 0.23605 0.041266 0.15669 0.24506 0.029281 0.19543 -0.14613 -0.11001 -0.011292 0.092028 0.080773 0.1583 0.23523 -0.098944 -0.052114 -0.13388 0.19442 -0.055118 0.24469 0.29362 0.067075 -0.14625 0.025218 0.060422 0.20826 0.024069 0.0097701 0.21991 0.13533 -0.048101 0.033837 0.089834 -0.033782 -0.15495 0.037607 -0.21543 -0.095223 0.10568 -0.10756 0.037313 
si/a 0.19812 -0.19982 -0.11347 0.027588 -0.034116 0.081707 0.12792 -0.065729 0.024375 0.2712 0.098201 0.050441 0.0056352 0.25462 -0.0037475 0.039878 0.014677 0.071982 0.21341 -0.11274 0.16431 0.1848 -0.0011522 0.0051014 0.19549 -0.19063 -0.12163 -0.4037 -0.28925 0.07226 -0.018446 0.067715 -0.03371 0.044129 -0.15974 -0.052657 -0.17259 0.096244 -0.029015 -0.01884 0.070148 -0.040639 0.034302 -0.06539 0.17586 -0.27635 0.1049 -0.14905 -0.07442 -0.2997 -0.05659 0.32212 -0.11996 -0.054752 -0.098136 0.23257 -0.24831 -0.009243 0.62459 0.14457 0.2136 0.20481 0.33218 0.17004 -0.010607 0.33214 -0.057727 0.037773 0.11707 0.27153 0.20984 0.2533 0.31192 -0.11772 -0.019541 0.074951 0.44862 -0.13545 0.34224 0.42331 0.14046 -0.24131 0.039618 0.088667 0.29846 -0.086758 0.14789 0.26283 0.044741 -0.13768 0.15321 0.053071 -0.10311 -0.08812 -0.03021 -0.451 0.07098 0.58125 -0.22159 0.082111 
na/gkh 0.20965 -0.078892 -0.10007 -0.068018 0.19287 0.2959 0.041075 -0.17475 0.29713 0.20043 0.14985 -0.062694 0.13646 0.36028 0.13227 0.033084 -0.055792 0.057916 0.24498 0.10991 0.12028 0.067852 -0.10389 -0.11416 0.20412 -0.18406 0.040439 -0.016017 -0.058384 0.036753 0.0089725 0.0047391 -0.087192 0.039582 -0.084407 0.15096 -0.031005 0.1603 -0.12806 0.20349 0.024835 -0.091315 -0.11708 0.078869 0.29279 -0.19804 0.069022 0.10627 0.035459 -0.32397 -0.20417 0.10641 0.037099 0.10407 0.26657 0.33067 -0.16248 0.30827 0.44391 -0.08877 0.19302 -0.023545 0.21759 0.19708 -0.015487 0.15725 -0.14699 -0.15774 -0.017171 0.047375 0.19286 0.14601 0.21277 -0.049737 -0.061916 -0.25084 0.21843 -0.15437 0.11322 0.25499 -0.031951 -0.11899 -0.037474 0.13139 0.17601 0.11147 -0.014994 0.25316 0.072369 -0.071848 0.20572 0.060811 -0.047814 -0.20428 -0.10327 -0.18553 -0.13129 -0.015169 -0.17611 0.085439 
pa/nta 0.07061 0.16793 -0.088174 -0.13373 0.12892 0.2686 0.17388 -0.22584 0.20779 0.14741 0.099839 -0.16989 0.18901 0.32372 0.18218 0.068604 -0.17181 0.089027 0.34464 0.044758 0.059929 0.057795 -0.20103 -0.13085 0.20369 -0.2072 -0.13954 -0.0020873 -0.0074703 0.022761 0.067922 -0.036188 -0.027024 0.11584 0.049851 0.011343 -0.080931 0.18863 -0.13429 0.12223 -0.076975 -0.19776 -0.055155 0.15886 0.18982 -0.17807 0.20322 0.15862 0.026371 -0.37581 -0.1957 0.17843 0.12666 0.0044887 0.15672 0.28983 -0.091877 0.26651 0.38641 0.010071 0.13076 0.0075683 0.13818 0.18464 0.13227 0.26921 -0.07394 -0.046724 0.041308 -0.055852 0.057763 0.10512 0.18757 -0.1538 -0.062009 -0.28749 0.17031 -0.035469 0.081227 0.33181 0.033807 -0.04917 -0.036836 0.10355 0.14523 0.15961 0.066486 0.26081 0.17505 -0.078972 -0.053636 0.030687 -0.023574 -0.15091 -0.09164 -0.19893 -0.14342 0.013479 -0.11792 -0.023296 
para\ -0.10789 0.20383 -0.0048122 -0.096331 -0.074934 0.18513 0.23774 -0.088841 0.13407 0.21807 0.049182 -0.10368 0.1581 0.26639 0.079365 0.17117 -0.10888 0.020854 0.39594 0.022126 0.13407 0.17126 -0.13241 -0.1783 0.2606 -0.31735 -0.1435 -0.040209 -0.094502 0.17683 0.05529 0.049963 -0.037826 0.2073 0.015007 -0.082566 -0.24116 0.0065883 -0.074342 -0.033238 -0.035579 -0.21752 -0.10103 0.08917 0.16163 -0.32779 0.24863 -0.025776 -0.022485 -0.35272 -0.032768 0.29891 0.08909 -0.062904 -0.038424 0.23612 -0.13569 0.15897 0.60257 0.028533 0.048609 0.12109 0.097374 0.1113 0.1515 0.38312 -0.093273 0.05907 0.13705 0.098605 -0.039231 0.064582 0.19192 -0.20112 -0.11801 -0.20366 0.27091 0.067623 0.12787 0.35055 0.17396 -0.054137 -0.013811 0.013427 0.20735 0.087968 0.16076 0.24628 0.18738 -0.19952 -0.11219 0.056027 -0.031073 -0.17059 -0.061613 -0.26262 -0.042646 0.24458 -0.078235 0.03523 
sti 0.30183 -0.11302 -0.090143 -0.064701 0.011596 0.1214 0.046028 -0.064413 0.10616 0.17933 0.13261 -0.1079 0.099584 0.36241 0.03659 0.08955 -0.039878 0.13029 0.18423 0.015346 0.10574 0.14075 -0.11586 -0.060179 0.15917 -0.19618 -0.17424 -0.25741 -0.14944 -0.021388 -0.047211 -0.046797 -0.097607 0.026863 -0.13512 0.026474 -0.078112 0.11888 -0.0099885 0.10313 0.061162 -0.0072472 -0.029417 0.0229 0.27449 -0.19936 0.077996 0.036167 0.00059158 -0.29801 -0.16084 0.20484 -0.077859 0.058143 0.092362 0.23906 -0.28037 0.1218 0.50319 0.070876 0.25126 0.11325 0.19836 0.22436 0.0055857 0.16421 -0.10119 -0.11512 -0.021295 0.1032 0.2057 0.21724 0.21581 -0.14151 0.015497 -0.047879 0.39341 -0.12084 0.27831 0.38251 0.079317 -0.24843 -0.051684 0.12071 0.22852 0.012442 0.062946 0.2285 0.15896 -0.13534 0.10524 0.034163 -0.017592 -0.15686 -0.058767 -0.39488 -0.034264 0.27874 -0.11545 0.017749 
dh=lon 0.13256 -0.0085889 -0.050581 -0.12822 0.15093 0.21102 0.082253 -0.11427 0.14668 0.17042 0.096383 -0.088895 0.17917 0.3203 0.064311 0.022587 -0.098609 0.072987 0.23879 0.10033 0.088498 0.1109 -0.093361 -0.08779 0.089916 -0.2434 -0.089196 -0.1018 -0.10855 0.0061557 0.019895 0.02196 -0.080962 0.056851 -0.098509 0.036334 -0.12118 0.13035 -0.063167 0.12337 -0.063047 -0.047204 -0.10828 0.11427 0.2181 -0.17661 0.094542 0.037007 0.020906 -0.26042 -0.20135 0.12343 0.064785 0.05865 0.16047 0.3132 -0.18388 0.17913 0.45755 -0.042194 0.19967 0.061171 0.16542 0.22301 0.041239 0.22756 -0.15035 -0.10613 -0.009404 0.084339 0.0978 0.16033 0.19961 -0.11475 -0.024702 -0.15497 0.22303 -0.047107 0.21133 0.29997 0.065989 -0.13069 0.0027472 0.080524 0.21925 0.031227 0.019146 0.23791 0.10562 -0.10207 0.030488 0.078459 -0.036232 -0.15002 0.0072049 -0.23939 -0.072325 0.11093 -0.10935 0.0069283 
/tws 0.23581 -0.13935 -0.080758 -0.040154 0.16191 0.23726 0.040099 -0.11582 0.17484 0.23991 0.11798 -0.028625 0.15032 0.31879 0.013714 0.038692 -0.055751 0.092736 0.22717 0.047891 0.074786 0.17598 -0.052773 -0.052029 0.16831 -0.19804 -0.14951 -0.18999 -0.15199 0.0083533 0.013468 0.0061848 -0.089941 0.039791 -0.13361 0.028878 -0.083016 0.1572 -0.076999 0.0691 -0.0049856 -0.063424 -0.028262 0.038048 0.24614 -0.19206 0.069865 0.027023 0.026189 -0.28133 -0.17288 0.16413 -0.058767 0.0023988 0.082569 0.29284 -0.18831 0.13304 0.49647 0.021577 0.23048 0.098287 0.24829 0.14858 0.05432 0.22338 -0.12886 -0.13793 -0.0070359 0.11799 0.19421 0.23203 0.22483 -0.093916 -0.017236 -0.089382 0.28403 -0.11079 0.21795 0.26558 0.010743 -0.18299 0.0058121 0.12808 0.20742 0.018221 0.026625 0.28746 0.046066 -0.069956 0.11124 0.069031 -0.051051 -0.1707 -0.082975 -0.23391 -0.036856 0.22235 -0.17868 0.03114 
= 0.2917 -0.17909 -0.029688 -0.061542 0.21281 0.17511 0.070427 -0.10403 0.071427 0.25314 -0.0029417 -0.084419 0.10256 0.30091 -0.11965 -0.095658 -0.096109 0.1602 0.11817 0.062976 0.063482 0.10102 -0.086718 0.087527 0.023446 -0.28938 -0.16328 -0.27183 -0.18133 -0.049837 -0.034013 0.13032 -0.038763 0.014543 -0.16623 0.0060607 -0.25462 0.14222 -0.061127 0.12376 -0.18115 0.025054 -0.16873 0.074397 0.10331 -0.13185 0.080108 0.045635 -0.0096482 -0.2412 -0.15039 0.12386 0.065502 0.10045 0.18902 0.33636 -0.21054 0.10335 0.45034 -0.036401 0.35356 0.046792 0.16884 0.35037 -0.072537 0.079913 -0.17457 -0.11376 0.0039798 0.12257 0.11842 0.10491 0.328 -0.057418 -0.028864 -0.047897 0.2927 -0.17067 0.31425 0.35468 0.023714 -0.27666 0.084934 -0.046656 0.2071 -0.082751 -0.043978 0.1886 0.15502 0.0091316 0.19024 0.091046 -0.048326 -0.20733 0.10455 -0.26655 -0.12567 0.23624 -0.09752 0.099574 
/dh -0.05692 0.16041 -0.050116 -0.088189 0.088705 0.24086 0.21045 -0.13913 0.13816 0.20894 0.082323 -0.13334 0.20253 0.31008 0.14741 0.12974 -0.13134 -0.0012566 0.3715 0.067977 0.1603 0.10929 -0.11239 -0.17458 0.26 -0.23095 -0.098448 -0.0059006 -0.06753 0.11198 0.068426 -0.023864 -0.07243 0.16634 0.010259 -0.07452 -0.16365 0.11937 -0.077767 0.055294 -0.058365 -0.23422 -0.056477 0.11329 0.20677 -0.29108 0.20502 0.090214 0.036344 -0.36001 -0.10541 0.23618 0.069807 -0.078219 0.029276 0.24682 -0.15084 0.1608 0.51057 0.014432 0.091685 0.076765 0.12492 0.13894 0.16653 0.33032 -0.10143 -0.038851 0.060266 0.092969 0.023386 0.13666 0.17933 -0.15561 -0.14371 -0.22107 0.1918 0.029135 0.10072 0.26394 0.12235 -0.015915 -0.024536 0.099801 0.18132 0.12201 0.12005 0.30572 0.15006 -0.16581 -0.082238 0.065132 -0.015044 -0.12075 -0.081332 -0.2104 -0.072742 0.11065 -0.11407 0.034055 
moi/ws 0.17327 -0.032594 -0.028449 -0.067535 0.14267 0.23283 0.063506 -0.12586 0.13461 0.19569 0.046539 -0.11297 0.1545 0.28417 -0.0001481 0.027192 -0.12444 0.087275 0.21709 0.069694 0.065107 0.13317 -0.1217 -0.032437 0.10611 -0.24975 -0.1378 -0.12046 -0.13892 -0.0033092 0.012987 0.055057 -0.021826 0.091062 -0.070226 -0.020971 -0.16703 0.12303 -0.10593 0.10818 -0.14576 -0.05618 -0.15088 0.10098 0.18889 -0.16897 0.14005 0.076812 0.014556 -0.2765 -0.15283 0.1263 0.079916 0.015584 0.14303 0.28652 -0.19122 0.16524 0.4318 -0.076649 0.20739 0.048757 0.17742 0.2281 0.024732 0.20146 -0.11858 -0.12081 -0.0096318 0.085036 0.092199 0.11149 0.2523 -0.12276 -0.06428 -0.11816 0.22219 -0.062657 0.21243 0.31514 0.070747 -0.16283 0.0099664 0.052736 0.19346 0.034262 0.018836 0.22906 0.14788 -0.073669 0.059922 0.077919 -0.029106 -0.18247 0.023774 -0.21495 -0.067896 0.12641 -0.090384 0.066042 
x 0.23974 -0.1012 -0.056767 -0.066992 0.27287 0.28123 0.054667 -0.12743 0.15329 0.22571 0.088202 -0.061493 0.15721 0.30742 0.027681 -0.030223 -0.13108 0.11406 0.21282 0.089319 0.029491 0.06404 -0.05327 -0.007048 0.056952 -0.20881 -0.11124 -0.14318 -0.16308 -0.040464 0.040056 0.042653 -0.085027 0.05149 -0.092021 0.032866 -0.12315 0.21228 -0.070845 0.13566 -0.16088 -0.048522 -0.077703 0.12766 0.16404 -0.14003 0.050285 0.071896 0.045441 -0.25753 -0.24084 0.14034 0.026042 0.051883 0.12695 0.37308 -0.20141 0.12653 0.42334 -0.066031 0.30805 0.02194 0.21494 0.22074 0.034495 0.21577 -0.14465 -0.13661 -0.018047 0.1191 0.16339 0.22159 0.26368 -0.049848 -0.056107 -0.12867 0.22727 -0.11492 0.24616 0.24529 -0.0042479 -0.18341 0.053556 0.072608 0.23333 0.0073075 -0.012777 0.26989 0.063911 0.013091 0.09789 0.10562 -0.051434 -0.13416 0.015916 -0.16891 -0.10107 0.13484 -0.14594 0.025037 
ma=llon 0.021899 0.06574 -0.019588 -0.13716 0.11316 0.20944 0.14689 -0.10239 0.14932 0.16968 0.073211 -0.10711 0.18192 0.32658 0.10542 0.016701 -0.12162 0.014951 0.289 0.11716 0.11647 0.10891 -0.098241 -0.12198 0.078393 -0.28196 -0.040057 -0.02187 -0.10932 0.066192 0.0055776 0.042177 -0.059289 0.11141 -0.10127 0.018278 -0.16753 0.080388 -0.095641 0.097812 -0.07187 -0.074166 -0.20753 0.16821 0.17984 -0.18494 0.13034 -0.0051133 -0.00066434 -0.23194 -0.17888 0.12726 0.14811 0.076476 0.18162 0.30976 -0.14303 0.23659 0.46249 -0.10191 0.13608 0.04647 0.13021 0.25957 0.03592 0.28349 -0.15964 -0.043002 0.040544 0.12591 0.031458 0.075015 0.21383 -0.098574 -0.028371 -0.20093 0.18812 0.0062017 0.16996 0.30888 0.095355 -0.095109 0.027705 0.011786 0.19822 0.0064899 0.044743 0.20831 0.1149 -0.14509 0.0047488 0.075677 -0.028284 -0.15222 0.043196 -0.23858 -0.083838 0.064491 -0.082819 0.012483 
si/as -0.37352 0.23616 0.05595 -0.071342 -0.21494 0.074139 0.33253 -0.014426 0.071529 0.28399 0.081564 0.023163 0.18901 0.20888 0.10773 0.14018 -0.03923 -0.11394 0.52732 -0.04111 0.25668 0.26785 -0.032397 -0.22611 0.25928 -0.37399 -0.048777 -0.11021 -0.25494 0.26425 0.063424 0.16492 -0.052358 0.27083 -0.049802 -0.18372 -0.33809 -0.11772 -0.012892 -0.12405 0.011 -0.22531 -0.1014 -0.045888 0.14673 -0.43686 0.3074 -0.25657 -0.059058 -0.25306 0.073452 0.35274 0.061019 -0.16212 -0.21789 0.20599 -0.14027 0.014038 0.80059 0.092573 -0.073145 0.26015 0.14488 0.052387 0.14806 0.60752 -0.16246 0.15693 0.22411 0.3202 -0.13959 0.037635 0.24461 -0.21918 -0.083629 -0.10179 0.34831 0.15186 0.19175 0.3692 0.28459 -0.0032628 -0.012735 -0.015827 0.30574 -0.0025743 0.26541 0.26072 0.081075 -0.35664 -0.19359 0.072051 -0.084659 -0.073121 0.0096925 -0.35933 0.17352 0.52895 -0.092147 0.064252 
/xei 0.28531 -0.019362 -0.060282 -0.14322 0.1394 0.2343 0.10312 -0.16637 0.13428 0.18163 0.10797 -0.1061 0.059395 0.36557 0.12565 -0.064476 -0.093612 0.15075 0.21851 0.028912 0.10856 0.053576 -0.15631 -0.040205 0.070132 -0.18076 -0.1217 -0.19855 -0.098642 -0.070507 -0.020489 0.014943 -0.012611 0.017885 -0.081857 0.078416 -0.043694 0.18911 -0.12549 0.1631 -0.089904 -0.0095037 -0.11637 0.13548 0.1597 -0.12123 0.087262 0.070576 -0.024264 -0.26356 -0.23718 0.14449 0.119 0.13432 0.20069 0.34411 -0.20577 0.26569 0.42492 0.0043519 0.29235 -0.0086466 0.18529 0.27285 -0.025141 0.20033 -0.072712 -0.10329 0.030226 0.037514 0.16894 0.0902 0.30699 -0.080995 0.057606 -0.12727 0.2811 -0.12058 0.18356 0.41518 0.010337 -0.21095 -0.052528 0.059597 0.19897 0.046247 0.013161 0.1915 0.11011 -0.032365 0.086 0.017074 -0.060877 -0.15992 0.01429 -0.31746 -0.16258 0.1077 -0.1326 -0.0057472 
/sa 0.26483 0.0068469 -0.12529 -0.085324 0.21338 0.23279 0.12148 -0.19921 0.085843 0.20131 0.049422 -0.1256 0.11737 0.30373 0.038603 0.016728 -0.16192 0.17671 0.24639 0.0032643 0.030907 0.031722 -0.10178 -0.013112 0.13921 -0.16421 -0.24392 -0.24104 -0.10777 -0.042267 0.027316 0.010909 -0.039674 0.045869 -0.016716 -0.02606 -0.12436 0.21301 -0.099687 0.086207 -0.17984 -0.15717 0.072124 0.082211 0.15499 -0.15369 0.1443 0.2071 0.054998 -0.40045 -0.18727 0.22811 0.023529 -0.073449 0.04193 0.30389 -0.21472 0.10889 0.41242 0.095736 0.26784 0.070746 0.20284 0.17498 0.10662 0.20203 -0.066344 -0.090927 0.045587 0.044202 0.16292 0.20257 0.26044 -0.11926 -0.085626 -0.10959 0.28984 -0.086876 0.22548 0.31528 0.055016 -0.15433 0.023802 0.10983 0.21251 0.072248 0.013905 0.25888 0.11893 0.027355 0.044624 0.066501 -0.016937 -0.1689 -0.047408 -0.26534 -0.1281 0.22683 -0.14969 0.012826 
/nqrwpos 0.55692 -0.40179 -0.12674 0.035431 0.54089 0.52506 -0.13718 -0.090174 0.3312 0.12282 0.18796 -0.10274 0.11232 0.31646 -0.022371 -0.036962 -0.12708 0.087367 -0.0045971 0.15313 -0.018147 0.0039368 -0.18991 0.028832 -0.012073 -0.24689 0.15699 0.03333 -0.15166 -0.13172 0.1008 0.094625 -0.085609 -0.022259 -0.0072972 0.29439 0.0069626 0.30116 -0.16931 0.57317 -0.30067 0.13414 -0.20505 0.26623 0.30995 -0.10684 -0.019304 0.14373 0.067094 -0.23585 -0.42654 -0.043478 0.026411 0.24456 0.44276 0.48673 -0.25791 0.386 0.37718 -0.39567 0.44846 -0.24429 0.31981 0.28938 -0.12613 0.095462 -0.10888 -0.38894 -0.21105 0.067805 0.27426 0.36004 0.27413 0.02652 -0.21265 -0.15218 0.026748 -0.2565 0.28892 0.22214 -0.15638 -0.25244 -0.065743 0.24947 0.20926 0.16708 -0.13976 0.2914 0.11194 0.092468 0.26997 0.12399 -0.062664 -0.17964 -0.01372 0.0068745 -0.21735 -0.31046 -0.28619 0.23524 
nde/xetai 0.23649 -0.048543 -0.12246 -0.11802 0.23355 0.29092 0.051596 -0.18468 0.28296 0.16892 0.14206 -0.10365 0.14716 0.36838 0.15264 0.0059889 -0.07687 0.085686 0.22297 0.11866 0.078601 0.071848 -0.1144 -0.10478 0.12037 -0.2337 0.012727 -0.063303 -0.028656 -0.025116 0.046476 0.0073853 -0.10946 0.0041713 -0.092481 0.16847 0.0023753 0.18405 -0.11891 0.24461 -0.029132 -0.056866 -0.12027 0.13261 0.29876 -0.15069 0.037292 0.099977 0.02677 -0.28645 -0.26045 0.083831 0.026683 0.10461 0.29753 0.36601 -0.13098 0.30918 0.42746 -0.071544 0.2244 -0.052273 0.19294 0.21327 -0.019743 0.15511 -0.12876 -0.16878 -0.027976 0.010708 0.18243 0.19804 0.20801 -0.055644 -0.0027514 -0.22939 0.19948 -0.12829 0.14597 0.26126 -0.04411 -0.13454 -0.042673 0.12571 0.17166 0.11553 -0.037213 0.25936 0.096353 -0.067604 0.14958 0.053707 -0.058845 -0.22386 -0.10518 -0.17339 -0.13633 -0.037274 -0.18035 0.029675 
du/naton 0.13113 -0.014086 -0.059136 -0.15036 0.26701 0.2751 0.098769 -0.19332 0.30567 0.17463 0.12606 -0.10839 0.17394 0.37038 0.20278 -0.09186 -0.11751 0.040702 0.26447 0.1999 0.10303 0.026591 -0.083573 -0.12671 0.034322 -0.27615 0.092599 0.029263 -0.028032 0.012272 0.013804 0.054095 -0.097962 0.037153 -0.14593 0.17463 -0.04767 0.14699 -0.13451 0.26542 -0.046296 -0.012908 -0.27311 0.21661 0.21299 -0.10511 0.036554 0.042937 0.014015 -0.1968 -0.2982 0.014265 0.17346 0.19362 0.35886 0.39131 -0.072948 0.37799 0.36948 -0.16291 0.20885 -0.046286 0.14743 0.32246 -0.06525 0.1824 -0.18589 -0.12035 -0.0098571 0.077516 0.14149 0.094824 0.22065 -0.032766 0.044584 -0.27845 0.16787 -0.084311 0.125 0.27102 -0.022217 -0.10757 0.021768 0.022274 0.12974 0.041321 -0.079752 0.20638 0.070206 -0.089507 0.14432 0.057792 -0.030816 -0.19648 0.014712 -0.19373 -0.17601 -0.099534 -0.12819 0.023059 
lo/gos 0.083276 -0.010372 -0.0098072 -0.11278 0.24463 0.20062 0.15242 -0.12403 0.03456 0.20663 0.029649 -0.097328 0.27576 0.24521 -0.086715 -0.031963 -0.19022 0.12785 0.26272 0.10143 0.029108 0.095425 -0.10233 -0.014199 0.056898 -0.29218 -0.19495 -0.12877 -0.1967 -0.044005 0.050536 0.11982 -0.070827 0.11343 -0.025623 -0.12658 -0.25763 0.11871 -0.062228 0.089749 -0.31212 -0.082962 -0.083339 0.11005 0.11211 -0.12699 0.18896 0.1198 0.068195 -0.26 -0.15501 0.13319 0.12785 -0.0752 0.040964 0.33505 -0.21484 0.015261 0.42402 -0.10736 0.22245 0.12564 0.13873 0.27326 0.1001 0.20885 -0.15723 -0.11187 0.00017079 0.12031 -0.025704 0.14006 0.22911 -0.1861 -0.083944 -0.10727 0.21855 0.0020131 0.32174 0.27169 0.084989 -0.14408 0.055976 0.040307 0.20538 -0.037837 0.021484 0.22731 0.12485 -0.051402 -0.044172 0.1483 0.016745 -0.14435 0.15665 -0.21531 -0.021227 0.15365 -0.084458 0.049143 
dei= -0.073041 0.15143 0.0017683 -0.10825 0.011075 0.16868 0.23245 -0.085546 0.096142 0.25205 0.055575 -0.089195 0.21007 0.28769 0.077111 0.10246 -0.12766 0.016674 0.39361 0.074604 0.13105 0.12987 -0.089276 -0.15772 0.16723 -0.30324 -0.15119 -0.076158 -0.10448 0.11169 0.045485 0.047119 -0.087682 0.17671 -0.0458 -0.10976 -0.23935 0.031251 -0.040052 -0.016055 -0.063497 -0.14949 -0.086274 0.072356 0.14544 -0.26691 0.18626 0.0048317 -0.0034061 -0.26388 -0.093365 0.25138 0.078895 -0.050606 -0.045627 0.27146 -0.13612 0.094285 0.54563 0.0052745 0.13499 0.14882 0.10021 0.13333 0.14267 0.3326 -0.11227 0.0039868 0.11077 0.16636 -0.0077014 0.12344 0.20759 -0.19205 -0.06421 -0.17612 0.2903 0.055904 0.14853 0.30455 0.15492 -0.06098 -0.0079021 0.013589 0.21339 0.036852 0.11931 0.24371 0.13258 -0.19195 -0.10564 0.068436 -0.025262 -0.16848 -0.01038 -0.25563 -0.013506 0.22418 -0.078059 0.0096959 
ge 0.11002 0.072172 -0.082682 -0.091505 0.029166 0.20709 0.16762 -0.11711 0.11815 0.19088 0.071718 -0.11098 0.10481 0.3189 0.10248 0.16063 -0.070857 0.072384 0.29792 0.021606 0.15724 0.14208 -0.17579 -0.1198 0.25114 -0.23499 -0.12595 -0.11095 -0.041725 0.089776 0.044467 -0.024646 -0.0028343 0.11886 -0.0271 -0.043208 -0.1045 0.14521 -0.093371 0.061253 -0.00011323 -0.17979 -0.049502 0.099303 0.22452 -0.26395 0.17597 0.077263 -0.054283 -0.34097 -0.10647 0.27537 0.026682 -0.014737 0.053428 0.21845 -0.16562 0.23332 0.48889 0.025845 0.1023 0.065459 0.15507 0.17523 0.08431 0.21833 -0.010442 -0.048812 0.093502 0.050719 0.12254 0.14121 0.17425 -0.16166 -0.089519 -0.17488 0.2648 -0.056113 0.098556 0.35148 0.10012 -0.10192 -0.050481 0.069023 0.14206 0.11377 0.11754 0.21852 0.19575 -0.15295 0.0036316 0.0405 -0.02469 -0.22851 -0.13204 -0.28603 -0.11972 0.15466 -0.149 0.078669 
prw=ton 0.023713 0.085159 0.01472 -0.17102 0.13111 0.20282 0.1309 -0.10789 0.12891 0.1573 0.063234 -0.11152 0.20486 0.30879 0.087767 -0.037773 -0.13928 0.021836 0.29241 0.12199 0.076409 0.075417 -0.081087 -0.090199 0.043632 -0.28028 -0.076355 -0.049375 -0.13106 0.053275 -0.0040459 0.082139 -0.049586 0.13245 -0.09097 0.00088671 -0.20635 0.081998 -0.062104 0.097326 -0.14048 -0.077055 -0.19917 0.17349 0.1511 -0.14537 0.1341 0.010655 0.032187 -0.23979 -0.17833 0.10507 0.1884 0.063794 0.17622 0.33341 -0.1421 0.18013 0.44395 -0.079949 0.13947 0.06508 0.10684 0.26508 0.046166 0.29251 -0.22325 -0.04105 0.033789 0.10786 0.0018767 0.033295 0.21984 -0.076212 -0.029 -0.1987 0.15713 0.038731 0.22075 0.30146 0.10372 -0.10335 0.044907 -0.017792 0.19217 -0.014985 0.018261 0.21995 0.11991 -0.09785 -0.0076584 0.084401 -0.041839 -0.12241 0.10372 -0.23908 -0.086034 0.098346 -0.044733 0.010647 
pw=s -0.050931 0.15741 0.0014673 -0.12167 -0.0085274 0.14948 0.16203 -0.11827 0.13207 0.21312 0.047296 -0.078842 0.19118 0.32076 0.054257 0.1025 -0.078296 0.041309 0.38061 0.098722 0.11584 0.19195 -0.089438 -0.13945 0.1907 -0.27885 -0.14485 -0.081713 -0.093722 0.07628 0.0089267 0.035306 -0.058382 0.12292 -0.073197 -0.063245 -0.21149 0.022161 -0.037874 -0.0034793 -0.02471 -0.10801 -0.11426 0.071068 0.22449 -0.25365 0.17016 0.0053681 -0.0058081 -0.29005 -0.081007 0.21751 0.070859 -0.032643 0.050732 0.27237 -0.1612 0.1452 0.54307 0.014005 0.070077 0.15256 0.13042 0.15874 0.091414 0.29642 -0.14543 -0.038854 0.072983 0.098766 -0.0053239 0.096332 0.17772 -0.18046 -0.018429 -0.1727 0.26725 0.032192 0.18521 0.29834 0.15612 -0.079024 -0.01057 0.030379 0.22642 0.023395 0.11646 0.22264 0.12883 -0.19185 -0.067411 0.087794 -0.044128 -0.18578 -0.020287 -0.27307 -0.011591 0.20843 -0.06714 -0.030143 
pei\ 0.12137 -0.035597 -0.024371 -0.055491 0.13887 0.22047 0.091491 -0.11637 0.15936 0.2109 0.082402 -0.06572 0.17431 0.30095 0.032856 0.049352 -0.091863 0.057106 0.26391 0.092415 0.082669 0.13675 -0.079515 -0.074048 0.1343 -0.24908 -0.077343 -0.10362 -0.13703 0.041424 0.020985 0.041815 -0.078131 0.097694 -0.084432 0.006982 -0.16252 0.11039 -0.042637 0.10793 -0.058535 -0.04869 -0.10895 0.10053 0.2201 -0.20398 0.10652 0.025413 0.013797 -0.25048 -0.15853 0.16439 0.040778 0.039038 0.10405 0.30637 -0.15998 0.12754 0.48012 -0.056384 0.18621 0.086059 0.17927 0.19337 0.056639 0.22366 -0.16603 -0.09428 0.0039916 0.11596 0.073844 0.16457 0.21561 -0.11281 -0.064193 -0.14982 0.23059 -0.060186 0.22534 0.27132 0.049319 -0.14087 0.02475 0.067973 0.22618 0.013437 0.047328 0.24298 0.10972 -0.097564 0.048673 0.091309 -0.055963 -0.14576 -0.02045 -0.21444 -0.056584 0.14804 -0.11249 0.043244 
eu 0.070355 -0.0046591 -0.017403 -0.10463 0.14689 0.20416 0.12018 -0.1166 0.16247 0.22616 0.020367 -0.087388 0.17552 0.30012 0.013809 -0.015655 -0.10979 0.048334 0.29045 0.097498 0.10116 0.11023 -0.082558 -0.073705 0.069437 -0.26643 -0.091718 -0.087377 -0.13026 0.029147 -0.00063185 0.098399 -0.07476 0.086379 -0.1008 -0.016236 -0.19369 0.093016 -0.052524 0.10281 -0.11848 -0.04785 -0.14374 0.096723 0.16798 -0.18972 0.12537 0.052467 0.0071588 -0.23174 -0.16445 0.13435 0.11913 0.039557 0.12501 0.31933 -0.13886 0.11544 0.45341 -0.047635 0.21333 0.088806 0.14085 0.23994 0.042936 0.20923 -0.18768 -0.074368 0.027 0.12613 0.045081 0.088141 0.23574 -0.089422 -0.054969 -0.12446 0.22907 -0.048592 0.22645 0.27019 0.082514 -0.14821 0.047983 0.013939 0.20551 -0.013956 0.032578 0.22035 0.12216 -0.086518 0.039202 0.084291 -0.051903 -0.15514 0.062794 -0.24089 -0.065595 0.15263 -0.08058 0.050472 
/kaston 0.12972 0.081922 -0.075206 -0.13992 0.094462 0.22126 0.08742 -0.098578 0.17006 0.10106 0.16156 -0.14092 0.20681 0.35445 0.14883 0.066517 -0.10898 0.052511 0.26221 0.084336 0.096779 0.086894 -0.11027 -0.12494 0.17496 -0.19234 -0.082413 -0.059563 -0.08245 0.0054697 0.023333 -0.058583 -0.074674 0.096803 -0.047278 0.040432 -0.086663 0.12413 -0.061207 0.13875 -0.0096424 -0.12942 -0.085613 0.12857 0.29513 -0.17588 0.11165 0.063712 0.083291 -0.34323 -0.20368 0.14052 0.05016 0.027548 0.16398 0.29136 -0.23095 0.24971 0.47505 -0.009288 0.1393 0.037709 0.14365 0.18272 0.077337 0.28085 -0.15968 -0.10051 -0.031943 0.026014 0.10292 0.17135 0.14605 -0.10028 -0.028988 -0.20681 0.20287 0.011862 0.16329 0.29638 0.078401 -0.077688 -0.042652 0.13657 0.19561 0.12129 0.043144 0.28889 0.13036 -0.1183 0.0037104 0.051251 -0.013402 -0.13595 -0.064004 -0.21865 -0.079025 0.040253 -0.095914 -0.041457 
=dos 0.42302 -0.25566 -0.071134 -0.053972 0.34441 0.29154 -0.011224 -0.13279 0.19138 0.14898 0.095453 -0.1298 0.084964 0.29107 -0.029356 -0.087819 -0.12864 0.12659 0.027235 0.11459 0.038802 0.0094233 -0.14899 0.065527 -0.001464 -0.27082 0.054243 -0.13456 -0.16821 -0.071885 0.0071885 0.11023 -0.018508 0.0054761 -0.08798 0.13961 -0.11719 0.2304 -0.1384 0.30011 -0.19059 0.042672 -0.24686 0.20431 0.19743 -0.07246 0.050447 0.11813 0.0087345 -0.23848 -0.30302 0.023356 0.10152 0.19352 0.32994 0.36048 -0.23044 0.28341 0.35642 -0.1919 0.34471 -0.066127 0.19195 0.3813 -0.12483 0.052994 -0.16629 -0.18436 -0.11103 0.078807 0.18692 0.1548 0.29067 -0.012441 -0.086958 -0.1314 0.16752 -0.16103 0.29052 0.32462 -0.031239 -0.27719 0.0249 0.060764 0.17854 0.010544 -0.096746 0.24177 0.16609 0.024533 0.21914 0.066925 -0.054452 -0.18215 0.069393 -0.19177 -0.20036 -0.053379 -0.17525 0.18011 
/lh 0.2956 -0.21377 0.021713 -0.018843 0.23308 0.12666 0.12814 -0.16583 -0.067561 0.33359 -0.069163 -0.086985 -0.011441 0.19395 -0.20161 -0.16028 -0.17756 0.19495 0.042752 -0.025512 0.069225 0.026826 -0.14076 0.18437 -0.037167 -0.26347 -0.15996 -0.37014 -0.3496 -0.046338 -0.022383 0.17694 0.04668 0.07057 -0.078004 -0.087566 -0.37678 0.17172 -0.11265 0.011983 -0.30157 0.026905 -0.16844 0.091877 -0.049869 -0.13655 0.17257 0.094515 -0.021752 -0.22761 -0.15872 0.20222 0.17968 0.077101 0.046583 0.25513 -0.2968 0.010759 0.4036 -0.034107 0.37719 0.096263 0.18903 0.40912 -0.060062 0.061946 -0.1126 -0.025458 0.026041 0.21973 0.084173 0.018342 0.42636 -0.11614 -0.10223 0.041879 0.34909 -0.11953 0.39125 0.48896 0.1348 -0.33476 0.15603 -0.090475 0.23214 -0.17893 -0.016874 0.1537 0.15526 0.066752 0.12972 0.068522 -0.048098 -0.10049 0.27006 -0.37159 -0.18063 0.38933 -0.08132 0.18005 
mo/non 0.11727 -0.015014 -0.031331 -0.14074 0.17988 0.25755 0.088339 -0.092978 0.20002 0.14736 0.08225 -0.10419 0.18204 0.31471 0.090072 -0.020515 -0.13663 0.04338 0.26575 0.1252 0.050443 0.10157 -0.10453 -0.094489 0.031231 -0.28701 -0.053444 -0.014031 -0.11256 0.038978 0.040102 0.072454 -0.068761 0.10136 -0.10571 0.074359 -0.11146 0.12279 -0.11705 0.16649 -0.12579 -0.051641 -0.20172 0.19888 0.16322 -0.14317 0.10735 0.010897 0.015132 -0.21204 -0.23373 0.060882 0.12637 0.10832 0.20338 0.33911 -0.11128 0.25578 0.43143 -0.13896 0.20061 -0.00061786 0.14634 0.2304 0.021102 0.27353 -0.16304 -0.060588 -0.0016415 0.11063 0.061177 0.095291 0.21626 -0.061282 -0.0090309 -0.18635 0.16196 -0.0017507 0.18572 0.26891 0.029738 -0.14779 0.04639 0.020544 0.18178 0.024128 -0.00080599 0.24818 0.096996 -0.072517 0.037727 0.071712 -0.029474 -0.16211 0.041226 -0.20013 -0.10363 0.029996 -0.10156 0.019519 
qe\n 0.0070087 -0.0034393 -0.05135 -0.11087 0.13707 0.26426 0.11526 -0.14104 0.2959 0.1858 0.1844 -0.043127 0.24346 0.35054 0.19743 0.0013329 -0.075179 -0.039813 0.37242 0.10981 0.11511 0.13569 -0.067361 -0.19838 0.13422 -0.23871 0.012252 0.03928 -0.094423 0.065043 0.03389 0.030665 -0.12146 0.097926 -0.1125 0.10294 -0.048387 0.11624 -0.083104 0.15719 0.047468 -0.090374 -0.15455 0.12283 0.25556 -0.19016 0.092321 -0.048291 0.037148 -0.22711 -0.19461 0.057165 0.076021 0.088072 0.18592 0.3498 -0.075357 0.2408 0.4842 -0.070976 0.1343 0.027418 0.20433 0.175 0.066082 0.35573 -0.20081 -0.10346 0.0080189 0.10563 0.077571 0.15098 0.20711 -0.067449 0.01569 -0.26038 0.17662 -0.024889 0.10997 0.26463 -0.0074593 -0.08072 -0.016567 0.11937 0.17846 0.05546 0.046207 0.26268 0.031856 -0.15975 0.056739 0.071591 -0.052228 -0.10842 -0.036036 -0.19481 -0.0052891 0.018405 -0.14521 -0.013824 
tro/pon 0.041183 0.13309 -0.019451 -0.20436 0.17571 0.27846 0.10563 -0.12621 0.20963 0.06876 0.17318 -0.1237 0.26245 0.34518 0.21098 -0.051006 -0.1526 0.017041 0.3092 0.16737 0.065008 0.045126 -0.091246 -0.13785 0.055455 -0.25087 0.017253 0.073999 -0.10972 0.012078 0.0050648 0.033578 -0.058481 0.10429 -0.04674 0.10158 -0.10489 0.12102 -0.095075 0.22884 -0.13804 -0.085413 -0.23276 0.2085 0.2416 -0.11943 0.11797 0.012479 0.094843 -0.26548 -0.25762 0.0078707 0.20164 0.11868 0.30207 0.40641 -0.16296 0.29769 0.45485 -0.15605 0.12382 -0.037662 0.12167 0.2556 0.054693 0.38274 -0.2584 -0.12602 -0.060921 0.052774 0.0077188 0.091846 0.19748 -0.0463 -0.018405 -0.27852 0.061412 0.066342 0.1911 0.27013 0.028944 -0.058108 -0.052733 0.10341 0.19289 0.083596 0.014274 0.27799 0.081578 -0.093272 -0.036717 0.078852 -0.040446 -0.054781 0.086424 -0.16419 -0.069335 -0.11689 -0.080783 -0.036702 
sti\n 0.15507 -0.031769 -0.072732 -0.081763 0.083016 0.15302 0.08753 -0.095548 0.13219 0.2093 0.11315 -0.065183 0.15362 0.33765 0.063455 0.053033 -0.057916 0.081453 0.24779 0.043516 0.10645 0.13322 -0.064445 -0.079523 0.16179 -0.21354 -0.12583 -0.19746 -0.16007 0.0057942 0.0016787 -0.0083047 -0.096519 0.042212 -0.11387 -0.0063832 -0.12979 0.1189 -0.023643 0.066061 -0.00040072 -0.051444 -0.029831 0.028224 0.26568 -0.22044 0.085244 0.027867 0.026919 -0.30487 -0.15783 0.18794 -0.017307 0.0038978 0.077933 0.27981 -0.23462 0.10321 0.51903 0.036257 0.20573 0.10968 0.19404 0.18804 0.038973 0.23539 -0.13542 -0.1044 0.00096709 0.12976 0.14938 0.21367 0.21821 -0.11646 -0.0098919 -0.086872 0.31456 -0.087442 0.24064 0.32689 0.095697 -0.16862 -0.019513 0.10422 0.24463 0.0083461 0.066849 0.26123 0.10319 -0.12011 0.063691 0.071763 -0.025367 -0.14388 -0.029299 -0.30462 -0.012871 0.2532 -0.12073 -0.0052597 
ei\ 0.19933 -0.088519 -0.059551 -0.043892 0.23092 0.28146 0.083175 -0.13748 0.1744 0.20799 0.09266 -0.081833 0.17018 0.30913 0.041056 0.028628 -0.13721 0.06984 0.22874 0.092157 0.054097 0.083557 -0.091495 -0.043309 0.12509 -0.23226 -0.066607 -0.091649 -0.11494 0.0084125 0.027984 0.030129 -0.080526 0.085996 -0.065181 0.030968 -0.1229 0.16356 -0.072296 0.17133 -0.10604 -0.065678 -0.084822 0.12908 0.20983 -0.18312 0.090794 0.10114 0.029716 -0.2712 -0.20252 0.15938 0.050651 0.052499 0.14072 0.32993 -0.16285 0.14785 0.43867 -0.082822 0.23659 0.027052 0.19421 0.20697 0.047926 0.18066 -0.15041 -0.11326 -0.024811 0.099675 0.13036 0.20303 0.22238 -0.084069 -0.080918 -0.16061 0.21514 -0.081035 0.22332 0.25821 0.010831 -0.15303 0.047862 0.098448 0.21845 0.050369 0.0087721 0.25201 0.12052 -0.044187 0.093318 0.10051 -0.038534 -0.16842 -0.041267 -0.17621 -0.094945 0.081871 -0.13827 0.080087 
to/ 0.24972 -0.05081 -0.10607 -0.089266 0.31766 0.29969 0.057538 -0.083815 0.32498 0.1015 0.1096 -0.1401 0.20485 0.41885 0.13758 -0.049332 -0.12417 0.067543 0.28349 0.25946 0.010504 0.061537 -0.079511 -0.16592 0.0043856 -0.23632 0.02654 0.075601 -0.035852 -0.037156 0.071932 0.010976 -0.17416 0.024129 -0.15198 0.21446 0.03024 0.11935 -0.12222 0.38171 -0.14295 0.076115 -0.24053 0.28798 0.2683 -0.11205 0.042419 0.083118 0.063338 -0.18693 -0.3488 0.0034874 0.070535 0.1458 0.33355 0.43019 -0.11233 0.35649 0.40229 -0.25897 0.31183 -0.0773 0.16502 0.24521 -0.039176 0.19369 -0.20904 -0.18204 -0.10572 0.083325 0.13013 0.1893 0.17585 -0.016224 0.072417 -0.22196 0.14146 -0.042011 0.23746 0.15285 -0.031608 -0.14309 0.021089 0.12132 0.15523 0.070471 -0.073005 0.23762 0.046469 -0.028551 0.19186 0.10256 0.0025206 -0.20291 -0.0067956 -0.18639 -0.13289 -0.19735 -0.13054 -0.058303 
