1960 100
, 0.079402 0.046151 0.21593 -0.084044 0.13177 0.202 -0.11378 0.0526 0.08705 0.35435 0.028958 0.15305 0.10447 0.083441 0.093678 0.18867 -0.15472 -0.13438 -0.11948 -0.18974 -0.02085 -0.26401 0.038841 -0.14355 0.21339 0.031088 0.14026 -0.019824 -0.065822 0.032501 0.21614 -0.15235 -0.015737 -0.24259 -0.055744 0.18054 0.085239 -0.24331 0.08532 -0.069281 -0.080412 0.062956 -0.028226 0.14062 0.10291 -0.33477 0.22254 0.2493 -0.23586 0.11412 -0.1387 0.18702 -0.027623 -0.16357 0.19497 -0.19267 -0.031674 -0.24738 0.057756 0.033548 0.087747 0.23461 -0.01991 0.10536 0.08429 0.023552 0.16477 0.10175 0.050142 0.25087 -0.10332 -0.19861 -0.030377 -0.10027 0.029876 0.040362 0.26838 0.065766 -0.032897 0.010598 0.057695 0.15042 -0.10883 0.073316 0.20846 -0.14463 0.36638 -0.17789 -0.14023 -0.19707 0.23446 0.14536 0.17717 -0.42923 -0.44312 0.025982 0.03513 0.13662 0.0037144 0.028423 
the 0.050596 -0.08979 0.097095 0.090915 0.15583 0.082241 -0.11712 0.045038 0.10319 0.27718 0.013196 -0.071926 0.11997 0.097195 -0.06169 0.24958 -0.040811 -0.019076 -0.15022 -0.14971 0.064576 -0.2499 -0.023811 -0.11847 0.050489 -0.1559 0.14971 -0.090964 -0.17522 0.08429 0.28009 -0.10841 -0.027688 -0.2384 -0.18625 0.055018 0.10573 -0.15186 0.194 -0.11853 -0.042783 -0.063436 -0.026429 0.13179 0.18646 -0.24692 0.21965 0.20467 -0.2335 0.14508 -0.10066 0.08171 -0.042543 -0.11005 0.29488 -0.076728 0.094716 -0.17651 0.086619 0.1224 0.048415 0.2398 0.023065 0.18074 0.10996 0.017166 0.18752 0.068166 0.11201 0.30097 -0.1224 -0.14279 -0.027145 -0.044326 0.036701 0.11563 0.28574 0.17738 -0.00070074 0.036785 0.26625 0.14779 -0.1213 0.029852 0.12269 -0.063205 0.42384 -0.23676 -0.091934 -0.089876 0.15272 0.14369 0.18765 -0.35056 -0.37948 0.072714 0.05843 0.21845 0.047833 0.14926 
</s> 0.06271 0.0012649 0.18718 -0.040437 0.10754 0.15636 -0.15903 0.035436 0.084153 0.36839 0.019307 0.051042 0.070507 0.1087 0.044214 0.17217 -0.1185 -0.10084 -0.084786 -0.16908 -0.0057711 -0.26378 -0.0047261 -0.14132 0.15741 -0.040323 0.16208 -0.056547 -0.088254 0.026953 0.25664 -0.14514 0.0051375 -0.19664 -0.1307 0.15572 0.073329 -0.18478 0.12205 -0.053077 -0.034348 0.026711 0.009003 0.11701 0.1642 -0.29134 0.22687 0.23753 -0.21719 0.13373 -0.14961 0.091643 -0.028969 -0.12333 0.23347 -0.076425 0.031057 -0.22672 0.077777 0.058163 0.042514 0.19967 -0.041051 0.12619 0.091819 -0.011318 0.18826 0.078607 0.070181 0.25367 -0.11385 -0.17088 -0.037693 -0.082439 0.041491 0.061962 0.24677 0.070044 -0.019438 0.047824 0.087793 0.10549 -0.034451 0.066073 0.18466 -0.10533 0.30943 -0.1812 -0.074869 -0.15169 0.23064 0.14582 0.14506 -0.37854 -0.4178 0.012374 -0.012377 0.16925 -0.031219 0.041605 
and -0.010268 -0.093246 0.065998 0.10852 0.094367 0.061713 -0.14268 0.01728 0.03017 0.29814 0.036273 -0.11485 0.079311 0.12704 -0.019175 0.26285 -0.054267 0.016694 -0.084544 -0.14224 0.025382 -0.27018 -0.064922 -0.10176 0.093796 -0.21355 0.18731 -0.10176 -0.232 0.09466 0.31133 -0.11204 0.0023165 -0.22886 -0.28751 0.019052 0.094197 -0.1793 0.25207 -0.12442 0.011456 -0.11372 -0.010459 0.066341 0.20073 -0.2607 0.27364 0.22413 -0.20704 0.13525 -0.15134 -0.0093687 -0.044926 -0.12339 0.31588 -0.013852 0.11253 -0.1574 0.09415 0.11366 -0.0047377 0.20606 -0.034734 0.19827 0.1202 0.011046 0.2336 0.094513 0.12977 0.29365 -0.13172 -0.11195 -0.051896 -0.015007 0.034229 0.10299 0.28699 0.16727 0.00097942 0.099087 0.26244 0.12144 -0.020385 0.025448 0.10862 -0.045178 0.41392 -0.22012 -0.058246 -0.10688 0.16677 0.14852 0.16146 -0.3322 -0.41299 0.042523 -0.024032 0.25276 0.035458 0.1754 
of 0.0038062 -0.093638 0.08087 0.09753 0.15126 0.10095 -0.087008 0.02794 0.080504 0.27753 0.032461 -0.1049 0.0598 0.13466 -0.032638 0.30246 -0.050462 -0.036863 -0.11887 -0.14504 0.035086 -0.2863 -0.039214 -0.10914 0.054127 -0.19215 0.17086 -0.06753 -0.17059 0.056734 0.29599 -0.09878 0.029668 -0.23352 -0.22326 0.045585 0.087138 -0.12683 0.23838 -0.17195 -0.022069 -0.074508 0.030859 0.11664 0.18262 -0.27737 0.23795 0.21947 -0.19952 0.1313 -0.11115 0.045674 -0.050356 -0.10839 0.32108 -0.020123 0.11729 -0.1892 0.091152 0.15383 0.012408 0.19049 0.015493 0.1558 0.13507 -0.011923 0.15748 0.086216 0.076133 0.27837 -0.12492 -0.12733 -0.034103 -0.057726 0.076054 0.16165 0.29839 0.15393 -0.00094465 0.061602 0.23342 0.13158 -0.053819 0.070827 0.13406 -0.061006 0.4375 -0.1832 -0.061215 -0.084548 0.19276 0.15216 0.17587 -0.33863 -0.43677 0.058354 0.052953 0.25233 0.039214 0.12668 
. 0.11239 0.058793 0.23087 -0.079522 0.13037 0.21027 -0.14678 0.06144 0.10857 0.3711 -0.011203 0.15312 0.084776 0.10375 0.064907 0.1561 -0.13543 -0.15501 -0.070895 -0.20494 -0.037892 -0.28323 0.041787 -0.15872 0.17925 0.054741 0.13001 -0.030678 -0.043883 0.00097006 0.22739 -0.14144 0.0067142 -0.19963 -0.031205 0.21472 0.061129 -0.21719 0.064499 -0.045401 -0.0632 0.097595 -0.0032295 0.14793 0.13899 -0.33528 0.19941 0.21157 -0.23521 0.12767 -0.14314 0.14315 -0.033035 -0.11427 0.16445 -0.14607 0.00061732 -0.23252 0.063871 0.016871 0.092551 0.19164 -0.015014 0.065377 0.078492 0.0010659 0.14867 0.070486 0.022158 0.22943 -0.083692 -0.18596 0.0027831 -0.12246 0.043036 0.057515 0.23771 0.004606 -0.066157 0.024469 0.063292 0.13355 -0.083425 0.10189 0.23514 -0.13428 0.28526 -0.17645 -0.11384 -0.19119 0.23196 0.15693 0.15734 -0.42132 -0.43281 0.023909 0.026649 0.12834 -0.040713 -0.026613 
to 0.060241 -0.061323 0.15059 0.01148 0.06442 0.10314 -0.15872 0.047371 0.06065 0.34993 0.020145 0.047172 0.091163 0.044193 0.057756 0.19109 -0.064777 -0.054965 -0.094863 -0.13837 -0.0021171 -0.26477 -0.029361 -0.1476 0.17494 -0.071897 0.2008 -0.073291 -0.13392 0.094893 0.27115 -0.15805 -0.044683 -0.23221 -0.18649 0.096571 0.093733 -0.2252 0.16152 -0.037093 -0.044292 -0.0098855 -0.028191 0.11025 0.18878 -0.2922 0.29119 0.2899 -0.20296 0.12931 -0.15189 0.071344 -0.013882 -0.15408 0.26664 -0.1041 -0.0088394 -0.22922 0.061712 0.061175 0.033555 0.24138 -0.068893 0.19408 0.11183 0.057107 0.23538 0.090634 0.14634 0.2866 -0.12516 -0.18255 -0.062055 -0.044562 0.024822 0.025464 0.24525 0.082184 0.02514 0.057285 0.12919 0.15144 -0.047264 0.0076681 0.14005 -0.085843 0.33192 -0.21357 -0.096474 -0.11851 0.19998 0.12733 0.15877 -0.39262 -0.43824 0.027386 0.0018217 0.18374 0.0082234 0.10498 
is 0.023754 -0.00079099 0.11482 -0.017965 0.15951 0.13924 -0.11952 0.023734 0.065499 0.28187 0.07585 -0.014254 0.069115 0.11448 0.032388 0.24611 -0.073328 -0.075115 -0.084195 -0.16358 0.00069625 -0.28396 -0.029055 -0.12523 0.13005 -0.10097 0.15362 -0.052539 -0.13259 0.036109 0.26263 -0.11321 0.048895 -0.22423 -0.1427 0.14153 0.10372 -0.16474 0.19651 -0.13556 -0.037281 0.037826 0.011794 0.10697 0.16183 -0.28685 0.22057 0.22002 -0.23804 0.12484 -0.13136 0.049355 -0.013712 -0.11316 0.26586 -0.071995 0.061477 -0.18225 0.11833 0.098374 0.034216 0.17817 -0.023719 0.12541 0.10369 -0.0046428 0.16274 0.073 0.060182 0.25461 -0.10448 -0.18302 -0.066504 -0.076774 0.053798 0.091362 0.27428 0.15249 -0.045725 0.039197 0.16364 0.12419 -0.03752 0.074896 0.18308 -0.093451 0.40969 -0.1749 -0.054056 -0.16509 0.22154 0.13033 0.17421 -0.36033 -0.44955 0.011355 0.022719 0.21359 0.0059503 0.052552 
in 0.0018145 -0.10625 0.064564 0.092074 0.13423 0.086858 -0.13967 0.021037 0.044588 0.28184 0.062987 -0.13315 0.066334 0.13503 -0.024418 0.28643 -0.024808 0.0055346 -0.10342 -0.1365 0.023693 -0.2964 -0.06054 -0.1258 0.075725 -0.22798 0.20406 -0.084344 -0.19961 0.08378 0.30177 -0.11914 0.020079 -0.23055 -0.26989 0.042425 0.087279 -0.143 0.22752 -0.1377 -0.0097034 -0.1008 0.02388 0.098963 0.2282 -0.25464 0.2465 0.24316 -0.21185 0.14111 -0.13191 0.0019964 -0.043573 -0.095227 0.33019 -0.0031927 0.11512 -0.1873 0.090268 0.13664 -0.017215 0.19091 -0.007093 0.18616 0.13403 -0.0063622 0.20311 0.095447 0.12847 0.27406 -0.12707 -0.1507 -0.05642 -0.024787 0.063897 0.11684 0.28942 0.15914 0.0034038 0.084527 0.24792 0.10744 -0.011478 0.018627 0.10012 -0.031437 0.40049 -0.19797 -0.0464 -0.073298 0.18746 0.13546 0.16379 -0.32076 -0.42379 0.028926 0.025674 0.27624 0.026638 0.14143 
he 0.045935 0.0077228 0.1531 -0.010309 0.11792 0.16335 -0.11369 0.073759 0.085817 0.29369 0.066056 0.011812 0.089179 0.056972 0.083074 0.19424 -0.089222 -0.095271 -0.080505 -0.14996 -0.019669 -0.27382 0.020888 -0.1647 0.1817 -0.049179 0.1603 -0.0487 -0.093353 0.046792 0.26792 -0.16635 0.0048763 -0.20531 -0.079006 0.16528 0.074755 -0.18048 0.16179 -0.058435 -0.025438 0.03036 -0.032187 0.10975 0.15472 -0.28091 0.24356 0.22176 -0.24544 0.1246 -0.1785 0.069166 -0.026726 -0.1221 0.23379 -0.10904 0.053721 -0.18194 0.080441 0.098912 0.055621 0.20534 -0.024609 0.1623 0.076059 0.011177 0.1802 0.083238 0.062365 0.27497 -0.093889 -0.17812 -0.038094 -0.088893 0.025596 0.064756 0.24429 0.11003 -0.025221 0.034195 0.13491 0.13731 -0.052218 0.0739 0.18324 -0.090748 0.32059 -0.17297 -0.1018 -0.15172 0.22349 0.14798 0.15855 -0.38027 -0.47109 0.013072 0.049257 0.15347 -0.0060374 0.036741 
a 0.033016 -0.023327 0.10386 0.027864 0.1494 0.11566 -0.1139 0.042949 0.060007 0.282 0.057217 -0.012797 0.080236 0.085026 0.017593 0.23342 -0.045009 -0.064041 -0.088855 -0.13377 -0.0067529 -0.26663 -0.020372 -0.1392 0.13722 -0.13 0.16376 -0.076101 -0.15719 0.06925 0.28701 -0.12115 0.026122 -0.22525 -0.14692 0.10077 0.087706 -0.17958 0.2033 -0.12477 -0.037009 0.0020344 -0.011668 0.089941 0.16706 -0.26199 0.24654 0.22758 -0.24035 0.12077 -0.16647 0.047878 -0.013631 -0.12207 0.2683 -0.083893 0.064512 -0.17498 0.099378 0.10914 0.030999 0.2113 -0.015635 0.16584 0.10042 0.030507 0.1869 0.078373 0.078824 0.28305 -0.10002 -0.16521 -0.036853 -0.057394 0.048777 0.080229 0.26381 0.15187 -0.012626 0.055272 0.17126 0.14532 -0.046478 0.075325 0.15599 -0.094079 0.39359 -0.19135 -0.083023 -0.13125 0.2119 0.12676 0.17275 -0.36908 -0.45151 0.019034 0.047201 0.18874 0.016728 0.081392 
be 0.066316 -0.030446 0.13241 0.006719 0.096293 0.11573 -0.17336 0.038524 0.086554 0.34244 0.016496 0.039646 0.10961 0.08302 0.04703 0.18183 -0.053908 -0.039391 -0.049054 -0.15632 -0.01209 -0.28152 -0.022438 -0.148 0.15816 -0.097898 0.19449 -0.070887 -0.16284 0.072966 0.28696 -0.14091 0.0066053 -0.19773 -0.20064 0.12236 0.087773 -0.21012 0.16262 -0.04929 -0.022718 0.028616 0.015022 0.099259 0.22114 -0.27904 0.25977 0.27501 -0.22298 0.14094 -0.16319 0.013839 -0.004179 -0.12862 0.25326 -0.068778 0.046106 -0.21294 0.10334 0.060189 0.031501 0.20626 -0.053985 0.17359 0.086133 0.031041 0.22906 0.072907 0.12316 0.28863 -0.10837 -0.20844 -0.049086 -0.057558 0.042461 0.043842 0.22467 0.069766 -0.0075112 0.073676 0.14368 0.1337 -0.0066785 0.035573 0.14354 -0.077806 0.31662 -0.20352 -0.059236 -0.17002 0.19948 0.14247 0.15863 -0.37271 -0.43237 0.01284 -0.0081399 0.17721 -0.024836 0.077649 
that 0.07856 0.05284 0.23024 -0.11098 0.15895 0.17208 -0.14898 0.039259 0.13706 0.34765 0.01919 0.18953 0.11979 0.094239 0.075148 0.17395 -0.12533 -0.14061 -0.10837 -0.17941 -0.01056 -0.28806 0.017103 -0.13613 0.21859 0.044903 0.155 0.019886 -0.075098 -0.00072288 0.2413 -0.13218 0.0099726 -0.22451 -0.089983 0.17818 0.11 -0.24351 0.069406 -0.072392 -0.10588 0.097314 0.0094796 0.15863 0.1177 -0.30147 0.19682 0.28572 -0.24066 0.11611 -0.11898 0.14713 0.014128 -0.14012 0.1855 -0.18673 -0.041428 -0.26714 0.10321 0.0042697 0.10348 0.21441 -0.047048 0.1122 0.065772 0.026847 0.16941 0.10165 0.041377 0.23091 -0.071238 -0.24955 -0.056473 -0.10258 0.028095 0.035108 0.24882 0.049351 -0.025809 0.020094 0.060995 0.15715 -0.1051 0.072356 0.19216 -0.13903 0.3637 -0.19437 -0.11518 -0.23985 0.19917 0.12846 0.1807 -0.43436 -0.42976 0.0059973 0.018987 0.12139 -0.0047371 0.018101 
? 0.045853 -0.041947 0.14527 0.025713 0.095907 0.11192 -0.15784 0.013722 0.054999 0.33007 0.033189 -0.013895 0.065565 0.12913 0.016281 0.21451 -0.071622 -0.034997 -0.070417 -0.16989 -0.0052296 -0.28898 -0.023167 -0.13025 0.12985 -0.12111 0.18419 -0.076721 -0.17227 0.07397 0.28159 -0.14164 0.0026229 -0.21279 -0.19672 0.11493 0.07621 -0.20492 0.18531 -0.088236 0.0029581 -0.0015121 -0.00050772 0.10296 0.20359 -0.29702 0.24192 0.25489 -0.22561 0.12339 -0.13432 0.040375 -0.028031 -0.12465 0.25391 -0.052038 0.067511 -0.20424 0.08626 0.07339 -0.0003818 0.20514 -0.055995 0.16318 0.1163 0.014762 0.2224 0.076311 0.12355 0.25932 -0.11976 -0.16265 -0.042423 -0.035791 0.028324 0.075194 0.26407 0.10128 -0.032565 0.082925 0.17388 0.11438 -0.028215 0.038922 0.14629 -0.072158 0.35124 -0.21217 -0.064782 -0.13649 0.20555 0.14633 0.16135 -0.3708 -0.41448 0.019229 -0.015511 0.21041 0.0020512 0.085662 
; 0.058493 -0.048089 0.14335 0.021011 0.11145 0.10761 -0.1283 0.032087 0.065619 0.3287 0.019899 0.029977 0.085634 0.095779 0.02953 0.22421 -0.072869 -0.051841 -0.088449 -0.15534 -0.0078525 -0.26632 -0.019988 -0.12942 0.13386 -0.096051 0.18067 -0.072385 -0.14279 0.079467 0.25894 -0.122 -0.0072586 -0.22019 -0.18036 0.088189 0.095926 -0.20726 0.16282 -0.083449 -0.036708 -0.0029136 -0.01945 0.1001 0.17444 -0.29795 0.25063 0.25308 -0.22387 0.12946 -0.14577 0.075719 -0.035875 -0.13918 0.26322 -0.095276 0.032557 -0.21221 0.08354 0.076372 0.029843 0.21971 -0.045948 0.16301 0.11036 0.033011 0.20565 0.079998 0.11539 0.27562 -0.11977 -0.17012 -0.041388 -0.072639 0.032342 0.074431 0.2675 0.10834 -0.014635 0.062462 0.16683 0.13109 -0.052989 0.048412 0.14717 -0.10023 0.37785 -0.20569 -0.090648 -0.14554 0.19843 0.15064 0.16331 -0.36657 -0.43072 0.035374 0.0017314 0.19525 0.026086 0.093757 
I 0.14712 0.1581 0.36607 -0.27625 0.14486 0.24001 -0.16365 0.08173 0.14261 0.40486 0.012461 0.3767 0.15297 0.057357 0.21109 0.10476 -0.21614 -0.23446 -0.13177 -0.21433 -0.065956 -0.3031 0.08565 -0.13822 0.32834 0.22239 0.1345 0.093022 0.028187 -0.0020728 0.20885 -0.17804 -0.010657 -0.23056 0.03206 0.24708 0.10348 -0.29353 -0.041504 0.012181 -0.16684 0.22374 -0.026418 0.21077 0.073717 -0.37958 0.20938 0.3477 -0.24441 0.088469 -0.13622 0.26788 0.038695 -0.19988 0.097033 -0.29246 -0.17169 -0.33987 0.077176 -0.064904 0.15161 0.25276 -0.074418 0.058008 0.038577 0.063748 0.17326 0.10719 0.011803 0.22578 -0.048278 -0.30694 -0.061045 -0.17628 0.0099184 -0.058135 0.2151 -0.04136 -0.04654 -0.025127 -0.086026 0.19358 -0.12993 0.10094 0.23254 -0.19923 0.31929 -0.19721 -0.1825 -0.3182 0.22339 0.14227 0.18558 -0.52955 -0.45897 -0.0047357 0.0094705 0.010288 -0.0074452 -0.070558 
not 0.060198 0.0097242 0.17333 -0.069403 0.12571 0.14741 -0.15451 0.036916 0.092771 0.33336 0.046584 0.079354 0.11007 0.075283 0.067609 0.18467 -0.08755 -0.088025 -0.075658 -0.16779 -0.0050645 -0.29018 0.0021346 -0.15205 0.18535 -0.047037 0.16259 -0.048407 -0.13099 0.050394 0.26409 -0.15015 0.0014926 -0.21133 -0.13163 0.16473 0.092741 -0.20968 0.13454 -0.073496 -0.054688 0.063641 -0.014619 0.12442 0.16825 -0.29483 0.23036 0.27873 -0.25544 0.11432 -0.13837 0.081312 -0.0024014 -0.13038 0.20887 -0.10988 0.017672 -0.2275 0.11195 0.049345 0.042786 0.20237 -0.058265 0.14599 0.097906 0.033429 0.21228 0.087544 0.1017 0.24509 -0.10399 -0.23634 -0.053455 -0.08432 0.02589 0.036906 0.23333 0.097853 -0.014205 0.054886 0.11226 0.14027 -0.050468 0.052642 0.15575 -0.092807 0.34204 -0.20584 -0.090155 -0.19855 0.21254 0.13609 0.18915 -0.39408 -0.4402 0.0097929 0.010967 0.15354 -0.016356 0.046228 
which 0.015619 -0.090937 0.087848 0.083268 0.14078 0.096903 -0.10778 0.028147 0.061157 0.28343 0.031426 -0.056824 0.078626 0.12346 -0.032 0.27008 -0.049986 -0.026915 -0.10412 -0.15668 0.025718 -0.26748 -0.031306 -0.094068 0.089165 -0.17826 0.16294 -0.054764 -0.17888 0.06655 0.26952 -0.098803 0.02839 -0.22426 -0.22658 0.043357 0.10972 -0.16639 0.21308 -0.15137 -0.013535 -0.048921 0.028202 0.12603 0.18112 -0.27543 0.2362 0.21943 -0.21338 0.13615 -0.11022 0.020584 -0.030902 -0.11305 0.3122 -0.0512 0.095504 -0.19531 0.091333 0.12128 0.024559 0.20968 -0.0063667 0.16606 0.12783 0.018114 0.1739 0.088168 0.1008 0.26972 -0.11152 -0.13777 -0.054799 -0.049742 0.054629 0.13464 0.28629 0.15483 -0.012979 0.068123 0.242 0.12619 -0.054645 0.054792 0.13453 -0.062822 0.41415 -0.19949 -0.066853 -0.11771 0.16793 0.15166 0.16122 -0.33945 -0.42574 0.04163 0.037033 0.23459 0.041829 0.1263 
are 0.085588 -0.058236 0.15087 0.027809 0.1462 0.13198 -0.092138 0.050612 0.12403 0.3308 -0.02727 0.0586 0.10912 0.13793 -0.0093754 0.24453 -0.080584 -0.096085 -0.11686 -0.19257 0.039225 -0.27776 -0.016639 -0.1137 0.093057 -0.097864 0.13285 -0.045074 -0.1327 0.041809 0.26018 -0.090381 0.0050504 -0.22048 -0.15717 0.080076 0.11181 -0.19009 0.14075 -0.12404 -0.056642 0.0050526 0.0051117 0.14121 0.15775 -0.32057 0.22153 0.22364 -0.21884 0.1346 -0.10542 0.10889 -0.040336 -0.12654 0.24361 -0.11039 0.052516 -0.23767 0.080489 0.07415 0.08476 0.21083 0.0067821 0.13368 0.10027 0.0196 0.16852 0.07915 0.06818 0.26611 -0.10419 -0.1752 -0.024142 -0.087529 0.052149 0.11894 0.26061 0.089584 -0.0055618 0.041311 0.18177 0.16014 -0.107 0.06972 0.15862 -0.099328 0.39114 -0.20498 -0.093118 -0.14875 0.16792 0.16823 0.17525 -0.37194 -0.42645 0.071981 0.045467 0.18225 0.038345 0.10032 
or -0.011489 -0.085839 0.023713 0.084872 0.10532 0.095453 -0.13169 0.033535 0.039333 0.28905 0.080757 -0.14396 0.063289 0.12066 0.0050654 0.2761 -0.023302 0.0052017 -0.072109 -0.1372 0.033947 -0.2972 -0.054508 -0.14405 0.079244 -0.25364 0.18866 -0.13252 -0.22457 0.10067 0.32387 -0.12695 0.015319 -0.20378 -0.26712 0.055587 0.05213 -0.12546 0.26359 -0.14827 0.018326 -0.098329 -0.012097 0.060656 0.24078 -0.23594 0.25816 0.22263 -0.23341 0.12317 -0.1449 0.0027166 -0.046448 -0.1033 0.31013 0.031925 0.11426 -0.18161 0.093087 0.15857 -0.030408 0.19726 -0.021477 0.21207 0.14362 0.019233 0.22175 0.088211 0.14299 0.27873 -0.13773 -0.14984 -0.050422 -0.02211 0.055186 0.10045 0.27675 0.17645 0.030124 0.099187 0.24799 0.10325 0.019183 0.041123 0.10437 -0.034288 0.3963 -0.18838 -0.037017 -0.073543 0.20115 0.12951 0.18005 -0.28819 -0.43033 0.01546 0.013836 0.26151 0.03654 0.13911 
they 0.065121 -0.12609 0.10107 0.10878 0.089125 0.055049 -0.13721 0.03599 0.079255 0.31143 -0.0015483 -0.059471 0.11807 0.099984 -0.0329 0.23837 -0.035603 0.0015983 -0.11218 -0.15177 0.050586 -0.25065 -0.033434 -0.1294 0.065875 -0.16343 0.1712 -0.11197 -0.19638 0.10651 0.28163 -0.11865 -0.04934 -0.22757 -0.23727 0.042042 0.086949 -0.18143 0.20248 -0.070825 -0.012622 -0.084423 -0.045289 0.10538 0.20765 -0.26195 0.25844 0.23686 -0.21634 0.15099 -0.12493 0.057465 -0.050059 -0.12128 0.28674 -0.059099 0.082938 -0.19329 0.063442 0.099822 0.031751 0.24356 -0.029053 0.20922 0.10946 0.034168 0.2338 0.083928 0.15267 0.29739 -0.13743 -0.13519 -0.027471 -0.016614 0.027063 0.096231 0.2689 0.1472 0.03247 0.071025 0.26483 0.13433 -0.090126 0.011408 0.10187 -0.046549 0.37388 -0.22713 -0.087596 -0.077006 0.15687 0.15613 0.18152 -0.33416 -0.38899 0.072485 0.011488 0.21518 0.040062 0.16895 
will 0.062307 -0.048149 0.14013 0.02416 0.07173 0.094308 -0.15359 0.032383 0.055088 0.34715 0.014103 0.023095 0.091946 0.090149 0.04352 0.19475 -0.05903 -0.029948 -0.066011 -0.14752 0.0030692 -0.2648 -0.024666 -0.14902 0.14315 -0.10818 0.18199 -0.085591 -0.16618 0.086953 0.2758 -0.14605 -0.016884 -0.20724 -0.20623 0.10545 0.07628 -0.21027 0.16882 -0.042656 -0.025146 -0.012151 -0.026374 0.090974 0.20249 -0.29561 0.26683 0.27119 -0.21676 0.12762 -0.15533 0.052909 -0.03046 -0.13549 0.2632 -0.064716 0.036117 -0.21114 0.091782 0.063959 0.014384 0.21354 -0.066098 0.17583 0.10706 0.027071 0.24166 0.086359 0.14204 0.28272 -0.1264 -0.17102 -0.046318 -0.039476 0.027555 0.040861 0.24244 0.10238 0.015083 0.075038 0.15751 0.12735 -0.036489 0.035201 0.14496 -0.076677 0.34339 -0.21901 -0.080696 -0.1386 0.20634 0.14359 0.17767 -0.36244 -0.42268 0.030874 -0.02358 0.17752 -0.003513 0.10796 
you 0.15837 0.12365 0.36914 -0.26613 0.17077 0.22218 -0.15385 0.086872 0.17338 0.39778 -0.015423 0.42103 0.1575 0.047354 0.19077 0.14231 -0.19691 -0.26735 -0.16828 -0.22333 -0.058937 -0.31813 0.080963 -0.14697 0.33107 0.26323 0.13483 0.10378 0.052834 -0.018349 0.20374 -0.16605 -0.02003 -0.27467 0.049274 0.25985 0.11915 -0.302 -0.068789 -0.037247 -0.19524 0.21691 -0.019477 0.22643 0.056828 -0.38587 0.20564 0.35887 -0.23792 0.07224 -0.10636 0.29536 0.057447 -0.19376 0.081936 -0.3297 -0.20158 -0.3672 0.075641 -0.057175 0.18367 0.25069 -0.076832 0.060182 0.03915 0.07377 0.14586 0.13448 -0.011023 0.21386 -0.047413 -0.32691 -0.031736 -0.18049 0.024356 -0.038087 0.23001 -0.054269 -0.0066691 -0.025782 -0.096684 0.22624 -0.17795 0.10677 0.24358 -0.1982 0.33019 -0.18084 -0.17778 -0.31047 0.24287 0.11445 0.19755 -0.56123 -0.48028 0.0048798 0.058966 0.018588 -0.0018067 -0.070015 
said 0.11213 0.090163 0.26771 -0.15471 0.16157 0.22736 -0.11953 0.064882 0.13605 0.3441 0.0053869 0.25781 0.12016 0.08648 0.12524 0.15251 -0.18057 -0.19142 -0.13095 -0.1948 -0.036993 -0.28807 0.056776 -0.13809 0.24516 0.14025 0.12304 0.042723 0.0020419 -0.024253 0.20856 -0.14956 0.0090109 -0.23272 0.0098603 0.2295 0.086612 -0.24323 0.026931 -0.060702 -0.127 0.14667 0.0053869 0.17992 0.073239 -0.34563 0.19279 0.27052 -0.21946 0.094695 -0.11994 0.20882 0.005786 -0.15048 0.14567 -0.23633 -0.07649 -0.29369 0.072421 -0.017985 0.14946 0.22537 -0.037007 0.053061 0.053309 0.022569 0.13056 0.10514 -0.0053893 0.20834 -0.058813 -0.24403 -0.030655 -0.15409 0.032667 0.04086 0.23384 0.003222 -0.047996 -0.0083016 0.010248 0.16774 -0.12835 0.11408 0.23653 -0.16302 0.3312 -0.16281 -0.14732 -0.24517 0.23471 0.14048 0.17185 -0.46915 -0.44542 0.016361 0.053282 0.077293 -0.0030028 -0.033945 
as 0.068706 0.0051302 0.18661 -0.036695 0.13055 0.15394 -0.13259 0.046459 0.11147 0.34345 0.0083619 0.11515 0.1319 0.084768 0.070264 0.21329 -0.094138 -0.11126 -0.11054 -0.17451 -0.0031896 -0.28962 0.009923 -0.13458 0.20015 -0.024289 0.16633 -0.012017 -0.12191 0.046472 0.26237 -0.12841 -0.00059279 -0.23794 -0.11587 0.13281 0.10043 -0.23376 0.11624 -0.081278 -0.0764 0.050245 -0.0059326 0.15574 0.14089 -0.30562 0.22985 0.2756 -0.23007 0.11064 -0.11907 0.10607 0.017366 -0.13561 0.21205 -0.16237 0.0033227 -0.25047 0.085385 0.039293 0.092883 0.2244 -0.042991 0.1452 0.074279 0.043804 0.18357 0.10136 0.066434 0.25646 -0.079857 -0.20681 -0.036799 -0.085061 0.035378 0.048346 0.24019 0.061103 0.0034933 0.042474 0.10929 0.16549 -0.08727 0.056422 0.15871 -0.10731 0.36762 -0.19884 -0.11191 -0.19838 0.18868 0.13247 0.16521 -0.41591 -0.42901 0.022738 0.020438 0.13649 0.0057307 0.05918 
we 0.070238 -0.035167 0.1544 -0.010204 0.11747 0.13662 -0.14438 0.050075 0.11774 0.30742 0.012619 0.092602 0.11505 0.078162 0.040981 0.22281 -0.069617 -0.090553 -0.12299 -0.16314 0.013052 -0.28814 -0.012407 -0.13258 0.17159 -0.04292 0.1546 -0.021069 -0.13409 0.046639 0.2524 -0.11539 -0.01221 -0.23121 -0.16383 0.098222 0.10213 -0.23482 0.10634 -0.078778 -0.073094 0.022371 0.0036949 0.13896 0.15815 -0.27828 0.22842 0.2724 -0.2453 0.11433 -0.11603 0.11654 0.0022063 -0.12602 0.22531 -0.13814 -0.007096 -0.2535 0.074312 0.044398 0.086129 0.22791 -0.038045 0.14501 0.079709 0.032951 0.19555 0.10132 0.072259 0.25005 -0.085028 -0.21199 -0.05039 -0.076446 0.031227 0.055791 0.24177 0.075061 0.011117 0.051343 0.12306 0.15687 -0.095782 0.038617 0.12935 -0.10061 0.37331 -0.20009 -0.097382 -0.18155 0.17734 0.1295 0.17914 -0.39012 -0.41686 0.020655 0.025603 0.16545 0.034506 0.086698 
have 0.060126 -0.05596 0.14737 0.019597 0.096078 0.11942 -0.137 0.050574 0.095633 0.3281 0.017392 0.041295 0.11341 0.090818 0.045932 0.21824 -0.070659 -0.059231 -0.096377 -0.17088 0.014309 -0.28912 -0.015621 -0.13719 0.15437 -0.085327 0.1667 -0.048118 -0.13832 0.056774 0.26711 -0.1422 -0.0072605 -0.22736 -0.18147 0.10914 0.088378 -0.20117 0.15509 -0.080557 -0.030819 -0.012421 -0.014925 0.12122 0.16961 -0.30008 0.24928 0.26268 -0.2232 0.12896 -0.1391 0.068628 -0.012531 -0.12118 0.25086 -0.10134 0.032226 -0.24708 0.084178 0.067182 0.055058 0.22056 -0.038371 0.16444 0.10357 0.026952 0.21425 0.10778 0.10161 0.26411 -0.11708 -0.19454 -0.036637 -0.070147 0.045083 0.087339 0.24517 0.085335 0.011178 0.069273 0.162 0.15013 -0.06352 0.055144 0.13758 -0.083476 0.34935 -0.19051 -0.092434 -0.14068 0.19032 0.13615 0.17417 -0.38209 -0.44325 0.032936 0.020174 0.17963 0.017996 0.10661 
And 0.047471 -0.027806 0.13422 -0.0043483 0.14161 0.14727 -0.10367 0.038657 0.083522 0.30215 0.023773 0.041281 0.094767 0.10439 0.02359 0.24509 -0.084242 -0.093472 -0.1142 -0.17113 -0.0011119 -0.28722 -0.0064599 -0.11887 0.14952 -0.075485 0.15267 -0.023905 -0.12643 0.045354 0.25911 -0.11863 0.011529 -0.24016 -0.14454 0.10252 0.099336 -0.19989 0.15402 -0.12536 -0.055121 0.012988 0.0028587 0.13827 0.14262 -0.30243 0.22558 0.23312 -0.22057 0.11997 -0.10921 0.097772 -0.020984 -0.12663 0.23361 -0.12141 0.034066 -0.22312 0.078669 0.07909 0.070735 0.20654 -0.013189 0.12942 0.10168 0.018932 0.16768 0.098257 0.061348 0.25104 -0.097059 -0.17732 -0.040103 -0.085206 0.051817 0.097408 0.26335 0.097495 -0.0093021 0.046777 0.15802 0.15247 -0.080239 0.068019 0.16734 -0.09487 0.39247 -0.18392 -0.089524 -0.15889 0.1903 0.14095 0.17582 -0.38622 -0.43758 0.035713 0.0498 0.18016 0.035667 0.076997 
them 0.043303 -0.12377 0.082555 0.11386 0.10309 0.069064 -0.12407 0.033252 0.081051 0.30638 0.0055709 -0.079746 0.11598 0.10573 -0.036811 0.25673 -0.033657 0.0023423 -0.11935 -0.15179 0.062224 -0.26265 -0.036887 -0.12868 0.05816 -0.17529 0.16213 -0.10976 -0.19686 0.091813 0.2835 -0.11901 -0.035803 -0.23464 -0.23158 0.042882 0.084172 -0.1671 0.21354 -0.10174 -0.0017422 -0.08877 -0.034611 0.1024 0.19569 -0.26701 0.24449 0.2193 -0.22204 0.14214 -0.11131 0.055686 -0.047032 -0.11283 0.29482 -0.050422 0.098167 -0.19214 0.067515 0.11153 0.034247 0.23064 -0.021405 0.19889 0.11715 0.018191 0.21859 0.087767 0.14023 0.28382 -0.13941 -0.13462 -0.029179 -0.026076 0.035264 0.11777 0.27363 0.15697 0.027085 0.075161 0.27192 0.13135 -0.093861 0.028018 0.11091 -0.044309 0.39105 -0.21688 -0.083564 -0.076227 0.17136 0.15082 0.18711 -0.33541 -0.39647 0.072552 0.020484 0.22416 0.044215 0.16449 
-- 0.1396 0.20122 0.27893 -0.23134 0.61854 0.43564 0.15582 0.12141 0.50658 0.28853 -0.055078 0.46857 0.26202 0.17886 0.054097 0.47129 -0.20845 -0.52178 -0.36519 -0.35665 0.079957 -0.49109 0.15872 -0.15203 0.22949 0.28657 -0.021471 0.2512 0.19169 -0.19989 0.24982 -0.064681 0.12088 -0.44166 0.30895 0.3532 0.22023 -0.14024 -0.0011601 -0.53931 -0.38187 0.31418 0.13299 0.50544 -0.15734 -0.4848 0.066112 0.24219 -0.32741 0.084202 0.067808 0.4791 0.034737 -0.1215 0.099997 -0.54732 -0.094558 -0.44431 0.17074 0.1344 0.52345 0.24628 0.19313 -0.09853 0.016644 -0.047847 -0.19354 0.19062 -0.36676 0.21667 0.042491 -0.4488 0.03814 -0.38198 0.21295 0.284 0.3457 0.043382 -0.014227 -0.1988 0.064085 0.38194 -0.48417 0.38171 0.4758 -0.29035 0.74045 -0.1026 -0.18784 -0.42848 0.25292 0.1139 0.33707 -0.70549 -0.74305 0.12639 0.51042 0.080202 0.14801 -0.15839 
his -0.009469 -0.080343 0.058028 0.10094 0.060888 0.066243 -0.13993 0.037434 -0.0032506 0.29927 0.104 -0.17139 0.051308 0.088862 0.020397 0.26031 -0.030342 0.029688 -0.070352 -0.12308 0.0022487 -0.26606 -0.052153 -0.14182 0.11811 -0.21056 0.19467 -0.15237 -0.2211 0.11734 0.29323 -0.15136 -0.0045607 -0.21669 -0.2288 0.083348 0.066547 -0.16181 0.28927 -0.081087 0.034445 -0.081106 -0.039034 0.049939 0.20749 -0.25919 0.28443 0.21525 -0.23427 0.13897 -0.17874 -0.036944 -0.042063 -0.13201 0.33218 -0.0074293 0.13105 -0.12911 0.075371 0.13589 -0.023924 0.20481 -0.055738 0.22737 0.14545 0.017272 0.23777 0.072593 0.14969 0.29263 -0.14973 -0.10637 -0.054621 -0.015095 0.037192 0.087836 0.28387 0.20095 -0.015364 0.098304 0.24393 0.097603 -0.0090863 0.026796 0.13422 -0.055307 0.37529 -0.18989 -0.067347 -0.049509 0.22657 0.15369 0.1593 -0.319 -0.44375 0.039504 -0.034049 0.25882 0.0057146 0.12965 
who 0.003193 -0.091159 0.082618 0.08089 0.10511 0.087035 -0.12691 0.029082 0.046575 0.28147 0.052382 -0.060656 0.074764 0.095858 -0.012909 0.2637 -0.055116 -0.018903 -0.11582 -0.13504 0.027767 -0.28724 -0.04464 -0.12711 0.10968 -0.15177 0.18378 -0.075447 -0.18722 0.084626 0.28728 -0.10823 0.0014031 -0.23755 -0.21192 0.069536 0.095968 -0.1823 0.22995 -0.11836 -0.019135 -0.08257 -0.0064873 0.10361 0.1939 -0.26593 0.26428 0.23595 -0.21006 0.14521 -0.13018 0.028873 -0.037719 -0.12054 0.29502 -0.0646 0.081661 -0.1716 0.081772 0.1126 0.033379 0.22522 -0.01722 0.20102 0.12148 0.025781 0.19385 0.078285 0.10624 0.26524 -0.12042 -0.13725 -0.051196 -0.032476 0.033964 0.10429 0.28997 0.17764 0.0023105 0.077146 0.23154 0.12368 -0.074791 0.064684 0.13055 -0.048014 0.39577 -0.20737 -0.088436 -0.098664 0.19117 0.13323 0.16864 -0.34917 -0.42992 0.044222 0.02738 0.23175 0.048137 0.13347 
their 0.030115 -0.13194 0.065589 0.14195 0.085403 0.042926 -0.12609 0.03631 0.055074 0.29976 0.010665 -0.11255 0.095499 0.11328 -0.046778 0.26557 -0.025312 0.021808 -0.1056 -0.14424 0.057634 -0.26452 -0.048189 -0.12189 0.047012 -0.20048 0.18272 -0.12728 -0.21125 0.10377 0.29831 -0.11102 -0.029361 -0.22557 -0.25928 0.027109 0.084351 -0.16181 0.23951 -0.10044 0.0073833 -0.11178 -0.030826 0.085616 0.21986 -0.25913 0.26248 0.22195 -0.20427 0.1443 -0.13166 0.019531 -0.057427 -0.1079 0.31782 -0.018464 0.10967 -0.17225 0.074434 0.1266 0.011113 0.22621 -0.02063 0.21373 0.12809 0.020964 0.22537 0.081877 0.15003 0.29673 -0.14619 -0.11515 -0.025039 -0.008873 0.034926 0.1285 0.28184 0.17069 0.028232 0.091973 0.28084 0.12374 -0.063305 0.023102 0.09997 -0.034968 0.38827 -0.22314 -0.063644 -0.053231 0.16604 0.14548 0.16661 -0.32211 -0.3881 0.06967 0.0059845 0.24304 0.038753 0.17986 
by 0.010674 -0.12332 0.083932 0.10818 0.087461 0.084085 -0.12894 0.023328 0.027733 0.3079 0.051951 -0.1269 0.071131 0.10514 -0.00045761 0.26845 -0.037469 0.0084447 -0.090881 -0.14809 0.028039 -0.26693 -0.053095 -0.12346 0.080412 -0.22005 0.18972 -0.10851 -0.20699 0.10892 0.29329 -0.13152 -0.0076413 -0.21873 -0.26252 0.051258 0.088471 -0.16845 0.25258 -0.10928 0.021503 -0.080443 -0.028403 0.090117 0.21154 -0.2795 0.27336 0.22794 -0.2174 0.13875 -0.14515 0.0072721 -0.035312 -0.11833 0.31868 -0.017037 0.10894 -0.16861 0.076586 0.13966 -0.01937 0.21619 -0.036517 0.21438 0.14231 0.023237 0.2274 0.087141 0.13811 0.28736 -0.15363 -0.12261 -0.045958 -0.029567 0.045953 0.11648 0.28261 0.15398 0.01571 0.092483 0.25056 0.11729 -0.028024 0.021068 0.1076 -0.060024 0.38015 -0.19004 -0.061657 -0.066972 0.18223 0.15993 0.15903 -0.32221 -0.43253 0.04069 -0.0084328 0.25709 0.030557 0.15236 
but 0.038055 -0.048599 0.13421 0.018338 0.087664 0.10974 -0.16398 0.030749 0.044372 0.32861 0.060412 -0.0085128 0.087821 0.082574 0.037833 0.20803 -0.06119 -0.039047 -0.071456 -0.15576 -0.0097142 -0.27743 -0.028003 -0.1467 0.1564 -0.11297 0.18607 -0.077232 -0.1741 0.07139 0.26694 -0.14538 -0.0084739 -0.21655 -0.20041 0.10142 0.08734 -0.2089 0.1904 -0.058489 -0.013091 -0.010761 -0.016655 0.08986 0.19442 -0.29157 0.2678 0.26232 -0.23496 0.12927 -0.15605 0.037488 -0.018416 -0.12513 0.26417 -0.061432 0.052098 -0.2107 0.084916 0.079676 0.011509 0.21229 -0.072116 0.17949 0.10844 0.027796 0.22783 0.091637 0.13182 0.27551 -0.12332 -0.1733 -0.063431 -0.047015 0.032362 0.070753 0.25862 0.1239 -0.0089101 0.075859 0.16483 0.12466 -0.016332 0.036449 0.14124 -0.081203 0.35226 -0.20029 -0.083422 -0.14169 0.21131 0.14326 0.16268 -0.36831 -0.43457 0.015055 -0.016444 0.20231 -0.0046202 0.095508 
for 0.0015068 -0.111 0.061363 0.092221 0.097193 0.086794 -0.14091 0.025085 0.034984 0.29717 0.040794 -0.096989 0.067661 0.11067 -0.0034001 0.27065 -0.034178 0.0030249 -0.094155 -0.14602 0.026584 -0.28336 -0.050605 -0.12406 0.085315 -0.20706 0.18523 -0.10138 -0.21961 0.084417 0.29435 -0.11707 0.00073864 -0.20857 -0.25276 0.050093 0.09387 -0.1674 0.22738 -0.11846 0.0084545 -0.083361 -0.025019 0.081381 0.21969 -0.26544 0.26161 0.23146 -0.21071 0.13619 -0.1305 0.027335 -0.053535 -0.099631 0.3105 -0.0091329 0.10972 -0.1716 0.07359 0.12564 -0.0089427 0.21496 -0.02259 0.20686 0.12549 0.021232 0.22273 0.090538 0.13214 0.26541 -0.13419 -0.13813 -0.056131 -0.025415 0.036493 0.11824 0.28159 0.15829 0.012614 0.099023 0.24965 0.10977 -0.019105 0.032779 0.098401 -0.042374 0.41042 -0.19657 -0.063839 -0.081934 0.18768 0.13854 0.16562 -0.30437 -0.4118 0.027995 0.0090806 0.24555 0.052614 0.14914 
one 0.020778 -0.094908 0.087466 0.069964 0.099859 0.098411 -0.13583 0.02659 0.036322 0.28701 0.058564 -0.084136 0.072856 0.093599 0.0070538 0.24008 -0.047601 -0.0035597 -0.095278 -0.14821 0.021658 -0.26774 -0.05766 -0.12471 0.10919 -0.18499 0.19476 -0.10128 -0.20275 0.086946 0.27681 -0.12325 -0.01616 -0.23949 -0.21765 0.058116 0.075681 -0.17389 0.20867 -0.10048 0.011414 -0.06511 -0.028499 0.097362 0.19351 -0.27155 0.25965 0.24504 -0.23741 0.1399 -0.13378 0.034928 -0.038816 -0.1135 0.29652 -0.049775 0.10315 -0.18746 0.075653 0.1032 -0.0024447 0.22516 -0.04357 0.18779 0.13386 0.02518 0.2116 0.081052 0.14136 0.27785 -0.12855 -0.1392 -0.04702 -0.026512 0.043665 0.10562 0.2759 0.15768 -0.013443 0.085719 0.22042 0.11485 -0.041577 0.030885 0.1061 -0.058707 0.38455 -0.21242 -0.089951 -0.10719 0.19035 0.1532 0.16137 -0.3384 -0.42503 0.028425 0.016698 0.23076 0.028263 0.13601 
this 0.043251 -0.013794 0.13905 -0.0049745 0.15153 0.12714 -0.11273 0.029295 0.079384 0.30242 0.051762 0.013344 0.092657 0.10471 0.016207 0.23265 -0.072427 -0.068861 -0.10838 -0.16847 0.012917 -0.26744 -0.021414 -0.12027 0.14059 -0.096418 0.1492 -0.047169 -0.14732 0.047407 0.25501 -0.12753 0.015539 -0.23741 -0.15055 0.11014 0.11036 -0.19323 0.17414 -0.12631 -0.043123 0.02653 -0.005958 0.12556 0.14689 -0.28932 0.21359 0.23648 -0.24772 0.12722 -0.11688 0.07754 -0.0078969 -0.12707 0.26297 -0.11515 0.058715 -0.19368 0.099236 0.082014 0.051142 0.21061 -0.024741 0.14383 0.10056 0.013621 0.17448 0.08035 0.080232 0.25924 -0.10295 -0.17734 -0.053445 -0.067941 0.047101 0.094538 0.27726 0.13296 -0.032871 0.038257 0.16507 0.1414 -0.08857 0.060202 0.17184 -0.11299 0.41627 -0.20062 -0.099116 -0.16277 0.19446 0.15303 0.17786 -0.38286 -0.42648 0.038677 0.029199 0.20236 0.017974 0.077809 
with 0.042464 -0.071791 0.087224 0.060692 0.13533 0.12416 -0.09466 0.035858 0.069086 0.2731 0.044655 -0.058601 0.074943 0.096809 0.0054145 0.2646 -0.068638 -0.039001 -0.10813 -0.14401 0.02297 -0.27375 -0.033263 -0.11009 0.1134 -0.15682 0.15579 -0.059628 -0.14507 0.059691 0.26125 -0.12427 0.0048468 -0.23601 -0.17953 0.070654 0.07897 -0.16005 0.19886 -0.13565 -0.017338 -0.035363 -0.0023015 0.10757 0.16992 -0.28469 0.23508 0.21867 -0.21594 0.12802 -0.12489 0.066699 -0.029931 -0.13537 0.29148 -0.063048 0.092359 -0.20632 0.070897 0.12159 0.019403 0.21252 -0.0079632 0.14527 0.11574 0.0055548 0.17967 0.089645 0.091164 0.26502 -0.12374 -0.15079 -0.031566 -0.066126 0.064374 0.11612 0.27848 0.13969 -0.013179 0.055486 0.21 0.13718 -0.058592 0.058116 0.14108 -0.077611 0.39652 -0.171 -0.097877 -0.10466 0.19296 0.16841 0.17932 -0.3538 -0.44378 0.039311 0.055131 0.21512 0.049545 0.11178 
if 0.063504 -0.02212 0.15254 -0.014042 0.11938 0.14511 -0.13235 0.041491 0.082721 0.33143 0.032658 0.080581 0.096949 0.073091 0.062566 0.20871 -0.08948 -0.073139 -0.10401 -0.16315 0.0011399 -0.27489 -0.0028187 -0.13676 0.17376 -0.047689 0.14937 -0.043154 -0.11983 0.060767 0.25984 -0.13896 -0.0076976 -0.22534 -0.12926 0.12694 0.098554 -0.20474 0.13292 -0.084596 -0.065117 0.033099 -0.024004 0.12531 0.14747 -0.30994 0.23724 0.26573 -0.22682 0.11649 -0.13508 0.10534 -0.01347 -0.13513 0.23794 -0.12066 0.010335 -0.24012 0.07729 0.059475 0.058731 0.22657 -0.044525 0.14953 0.097233 0.030154 0.19766 0.094719 0.095636 0.24326 -0.10514 -0.1969 -0.04306 -0.074719 0.043739 0.060532 0.24184 0.09775 -0.0024613 0.05441 0.13262 0.15137 -0.085119 0.06377 0.16742 -0.095535 0.36133 -0.18126 -0.10398 -0.16853 0.19558 0.13374 0.17817 -0.37945 -0.43431 0.026706 0.020375 0.15471 0.010921 0.063631 
all 0.08061 -0.053852 0.15915 0.035899 0.11182 0.12071 -0.1178 0.041374 0.10113 0.32866 -0.0076308 0.039155 0.10344 0.096521 0.0038489 0.21894 -0.066778 -0.072813 -0.10366 -0.16167 0.016084 -0.27718 -0.0061931 -0.13572 0.12313 -0.078935 0.15963 -0.04684 -0.13029 0.062956 0.24672 -0.12788 -0.014606 -0.21384 -0.17505 0.097215 0.099974 -0.20805 0.13854 -0.085077 -0.058635 -0.0091636 -0.0088 0.14853 0.17731 -0.30332 0.22582 0.24961 -0.21812 0.13563 -0.10151 0.098489 -0.019587 -0.12513 0.25707 -0.10658 0.03018 -0.23744 0.093964 0.062458 0.070553 0.22835 -0.027821 0.14216 0.096322 0.015631 0.19347 0.09225 0.09854 0.26997 -0.10215 -0.18999 -0.037343 -0.077005 0.037859 0.076278 0.25094 0.093087 0.0091223 0.044946 0.1717 0.14715 -0.10485 0.039315 0.15924 -0.084492 0.36245 -0.21872 -0.093589 -0.15093 0.18064 0.14506 0.18008 -0.37543 -0.42153 0.052361 0.040532 0.17846 0.020019 0.098669 
what 0.071796 0.058183 0.22433 -0.12069 0.16272 0.18422 -0.14714 0.04739 0.12323 0.33579 0.038914 0.17871 0.10489 0.09147 0.085752 0.19124 -0.13245 -0.15674 -0.11661 -0.18188 -0.017364 -0.30622 0.024592 -0.13689 0.2271 0.058099 0.14339 0.017282 -0.060773 0.0016012 0.2344 -0.13332 0.016383 -0.22932 -0.066939 0.19035 0.10229 -0.23397 0.084552 -0.088702 -0.11133 0.097464 0.0075422 0.16926 0.11124 -0.30626 0.20434 0.28501 -0.24115 0.10728 -0.11976 0.15039 0.012593 -0.14092 0.18208 -0.19022 -0.045647 -0.26188 0.1028 0.019269 0.11362 0.21502 -0.042599 0.11258 0.071337 0.030865 0.15885 0.10478 0.030237 0.22716 -0.067126 -0.24988 -0.058252 -0.11599 0.029935 0.039287 0.25349 0.071252 -0.026891 0.01533 0.054536 0.15286 -0.10427 0.086431 0.20549 -0.13601 0.35997 -0.18166 -0.11238 -0.23417 0.22106 0.12222 0.18218 -0.43875 -0.44996 0.0018658 0.031891 0.12078 0.0052164 0.0053532 
at 0.050567 -0.029144 0.16528 -0.010937 0.09677 0.13898 -0.15898 0.035284 0.060738 0.34206 0.022969 0.051775 0.094646 0.088311 0.057492 0.21771 -0.085949 -0.075184 -0.096415 -0.1662 -0.022379 -0.27307 -0.0065712 -0.14368 0.18065 -0.053839 0.19529 -0.042068 -0.14565 0.059375 0.27076 -0.14402 -0.020625 -0.23071 -0.17281 0.1173 0.087137 -0.2435 0.15787 -0.058785 -0.043639 0.020747 -0.019999 0.10953 0.17441 -0.30486 0.27001 0.27962 -0.23481 0.12487 -0.15358 0.086163 -0.025893 -0.12754 0.24771 -0.11396 0.0058684 -0.23997 0.078365 0.045409 0.038119 0.23651 -0.070713 0.16115 0.087313 0.041489 0.21019 0.087758 0.11129 0.26654 -0.10542 -0.18046 -0.047921 -0.055105 0.02981 0.048991 0.26461 0.09039 -0.0005654 0.064893 0.12924 0.14803 -0.05824 0.027735 0.15416 -0.089146 0.34198 -0.19831 -0.10418 -0.16494 0.20816 0.1407 0.16839 -0.40323 -0.42908 0.0096457 0.0012661 0.17695 0.018025 0.085313 
other -0.0034925 -0.099515 0.018067 0.10823 0.12658 0.081377 -0.14584 0.051493 0.09092 0.26327 0.10714 -0.17223 0.12662 0.079115 0.00094884 0.28356 -0.018111 0.020062 -0.14327 -0.11185 0.060055 -0.31293 -0.0339 -0.17507 0.078488 -0.20067 0.15697 -0.15804 -0.19033 0.10831 0.31846 -0.13572 -0.024979 -0.22745 -0.17615 0.091693 0.048368 -0.096598 0.22371 -0.1117 -0.013464 -0.097757 -0.045852 0.088218 0.21883 -0.22644 0.22872 0.2013 -0.27012 0.16056 -0.12159 0.013272 -0.046191 -0.10631 0.28845 -0.030261 0.1519 -0.17706 0.0735 0.16283 0.02758 0.23058 -0.0040961 0.2366 0.12082 0.020812 0.2363 0.081056 0.12406 0.27726 -0.13368 -0.1642 -0.054427 -0.031047 0.042494 0.078609 0.2717 0.22217 -0.0047486 0.079326 0.31569 0.098281 -0.054779 0.063416 0.10699 -0.0025011 0.38682 -0.1805 -0.072333 -0.03648 0.19037 0.1296 0.22473 -0.29244 -0.43761 0.033849 0.050971 0.23526 0.039688 0.13367 
has 0.022529 -0.0637 0.099433 0.053416 0.098798 0.11517 -0.13777 0.039582 0.045634 0.30272 0.053717 -0.028569 0.09284 0.081872 0.032884 0.23511 -0.052106 -0.039027 -0.079161 -0.14646 0.011207 -0.2785 -0.034103 -0.1412 0.15318 -0.14108 0.18376 -0.075519 -0.17211 0.073437 0.27981 -0.13479 -0.0030684 -0.22847 -0.18954 0.10412 0.08391 -0.18626 0.20578 -0.096249 -0.007992 -0.038885 -0.015512 0.087566 0.17835 -0.2798 0.26332 0.23883 -0.2329 0.12957 -0.15426 0.033159 -0.013315 -0.11699 0.28138 -0.075289 0.072589 -0.19197 0.081491 0.10441 0.022392 0.20973 -0.037985 0.18441 0.10884 0.026161 0.21426 0.09123 0.11374 0.27357 -0.1228 -0.14688 -0.048461 -0.040875 0.048175 0.088316 0.26238 0.13259 -0.0052424 0.076549 0.19218 0.13062 -0.045043 0.055486 0.13587 -0.069425 0.3681 -0.1947 -0.087295 -0.12504 0.20266 0.13566 0.16864 -0.35734 -0.4489 0.021388 0.023087 0.20712 0.012747 0.10777 
when 0.03028 -0.0638 0.11487 0.034456 0.11955 0.1112 -0.12852 0.046606 0.065072 0.29655 0.043799 0.01764 0.10606 0.082986 0.04641 0.25048 -0.065273 -0.051259 -0.11967 -0.13951 0.0003712 -0.28118 -0.019547 -0.13418 0.1589 -0.094476 0.17025 -0.056423 -0.15094 0.074209 0.26951 -0.11733 -0.012784 -0.23462 -0.16171 0.098668 0.08323 -0.19879 0.17887 -0.10571 -0.050499 -0.02588 -0.029403 0.11404 0.16347 -0.27274 0.25033 0.25108 -0.23313 0.11943 -0.13493 0.078207 -0.020737 -0.13208 0.25361 -0.11506 0.025482 -0.21321 0.069116 0.093105 0.059986 0.2267 -0.033548 0.19657 0.10433 0.038454 0.19944 0.10068 0.097728 0.26369 -0.10389 -0.17564 -0.049656 -0.060361 0.033837 0.061886 0.26432 0.12935 0.0092153 0.057601 0.17882 0.14789 -0.077269 0.056375 0.13436 -0.068097 0.37282 -0.19297 -0.10327 -0.12794 0.18219 0.12608 0.17759 -0.36574 -0.44607 0.027029 0.033475 0.18645 0.044593 0.10138 
there 0.049649 -0.042817 0.11397 0.014508 0.15872 0.11188 -0.13719 0.038779 0.11619 0.29182 0.033822 -0.0017067 0.13678 0.095052 -0.0014913 0.22504 -0.061269 -0.052267 -0.13875 -0.1551 0.046925 -0.28074 -0.0085392 -0.12981 0.095236 -0.093777 0.1312 -0.078106 -0.14337 0.069249 0.2677 -0.10871 -0.0084104 -0.21757 -0.14005 0.11344 0.09559 -0.16113 0.13874 -0.10557 -0.056242 -0.0016334 -0.025985 0.12812 0.1731 -0.26348 0.20177 0.22643 -0.25699 0.13527 -0.098449 0.094907 -0.02009 -0.11883 0.24213 -0.093641 0.072133 -0.20944 0.096317 0.09029 0.061781 0.21909 -0.004072 0.16812 0.090634 0.025322 0.20931 0.080816 0.098358 0.26804 -0.10345 -0.19779 -0.055933 -0.068081 0.033859 0.073863 0.25883 0.14346 -0.022264 0.037925 0.22353 0.13827 -0.0919 0.048174 0.12742 -0.059575 0.39418 -0.20165 -0.086238 -0.12892 0.16533 0.13085 0.21151 -0.3464 -0.39619 0.039439 0.044865 0.17304 0.039412 0.098586 
Yes 0.073711 -0.026999 0.1617 0.0031894 0.16629 0.16853 -0.049939 0.052749 0.14693 0.28616 -0.010767 0.085462 0.093488 0.12901 0.01038 0.24797 -0.10784 -0.13144 -0.1382 -0.18321 0.031335 -0.28344 0.017821 -0.11748 0.11131 -0.022557 0.11306 0.0027401 -0.05918 -0.0091544 0.21598 -0.093827 0.018026 -0.23323 -0.079474 0.13889 0.093501 -0.17394 0.12004 -0.15762 -0.064503 0.045124 0.02821 0.16953 0.09385 -0.30308 0.19035 0.21586 -0.19679 0.10249 -0.087415 0.15141 -0.041364 -0.10882 0.22102 -0.15569 0.033078 -0.24378 0.064146 0.078475 0.13017 0.20749 0.0058837 0.083234 0.0876 0.0018022 0.090664 0.10016 0.006751 0.21344 -0.089626 -0.16756 -0.0076827 -0.11267 0.060244 0.14959 0.25131 0.077507 -0.0047977 0.017155 0.14645 0.14702 -0.14298 0.11614 0.20031 -0.11161 0.38927 -0.15452 -0.10803 -0.15743 0.19537 0.15611 0.17255 -0.3823 -0.43822 0.060448 0.095185 0.16046 0.043667 0.050091 
do 0.091501 0.042802 0.22081 -0.096098 0.15024 0.15791 -0.13408 0.052791 0.13049 0.34825 0.0085727 0.18794 0.12275 0.092857 0.090715 0.18929 -0.13178 -0.14873 -0.13048 -0.18578 -0.0069604 -0.30794 0.027686 -0.15262 0.21203 0.062343 0.15637 0.0054723 -0.055507 0.021384 0.24447 -0.14934 -0.0070469 -0.24404 -0.06606 0.19577 0.093385 -0.22771 0.075341 -0.082947 -0.11245 0.095593 -0.014754 0.17595 0.10707 -0.33115 0.21824 0.29505 -0.23084 0.10402 -0.11365 0.16809 0.0064221 -0.15453 0.17747 -0.18927 -0.054518 -0.27843 0.10075 0.026739 0.11669 0.23002 -0.057777 0.11555 0.068403 0.032827 0.16339 0.10595 0.039834 0.23904 -0.080409 -0.24886 -0.037947 -0.11677 0.032719 0.038849 0.23247 0.048916 -0.00073422 0.020756 0.054688 0.16163 -0.11099 0.080838 0.19337 -0.1331 0.35614 -0.18853 -0.10013 -0.2183 0.22144 0.12467 0.19072 -0.44272 -0.45395 0.024052 0.044224 0.11938 0.0072258 0.0092388 
any 0.019488 -0.074823 0.079455 0.071134 0.11565 0.095713 -0.12961 0.032454 0.046285 0.29674 0.043867 -0.087521 0.082315 0.1126 0.00080016 0.24615 -0.040022 -0.014153 -0.079749 -0.14147 0.02061 -0.27865 -0.031694 -0.14182 0.096977 -0.20258 0.17398 -0.10694 -0.20916 0.092054 0.29942 -0.12844 0.0060698 -0.22563 -0.22703 0.086574 0.080712 -0.17124 0.23401 -0.11588 0.0088568 -0.051929 -0.025079 0.074975 0.20756 -0.27197 0.26009 0.22981 -0.248 0.1259 -0.13431 0.020255 -0.042711 -0.11706 0.29075 -0.036816 0.11562 -0.18243 0.096543 0.11992 0.011057 0.21124 -0.032434 0.19073 0.12429 0.02192 0.22579 0.077193 0.14074 0.28632 -0.13369 -0.14704 -0.045534 -0.024571 0.045449 0.095015 0.26226 0.15911 -0.0033913 0.074424 0.23345 0.12563 -0.028666 0.03953 0.11761 -0.06172 0.39207 -0.21149 -0.067737 -0.10993 0.20232 0.14992 0.18649 -0.33169 -0.4348 0.034092 0.019659 0.22749 0.023422 0.12357 
him 0.021995 -0.074423 0.10051 0.075288 0.08123 0.10507 -0.13416 0.043564 0.028939 0.31306 0.063415 -0.076054 0.072221 0.084151 0.028993 0.2493 -0.04655 -0.023684 -0.083343 -0.14206 0.0011014 -0.2699 -0.034887 -0.14377 0.14014 -0.15273 0.18132 -0.10664 -0.19043 0.091113 0.28735 -0.14918 -0.0058084 -0.22677 -0.19835 0.10464 0.076335 -0.18755 0.23078 -0.078707 0.0028424 -0.049304 -0.021562 0.088682 0.19033 -0.28949 0.27262 0.23478 -0.22574 0.13549 -0.16097 0.015555 -0.030536 -0.12843 0.29702 -0.04768 0.090244 -0.17734 0.075875 0.10926 0.013147 0.21443 -0.049679 0.20227 0.13382 0.024778 0.21978 0.090301 0.12321 0.28067 -0.13805 -0.13575 -0.041043 -0.042578 0.041273 0.094746 0.27344 0.15609 -0.0061374 0.086325 0.20203 0.11893 -0.030843 0.039538 0.14387 -0.072519 0.36631 -0.1833 -0.083568 -0.088072 0.21886 0.15458 0.16471 -0.35588 -0.448 0.037565 -0.0066671 0.22237 0.011306 0.11279 
good 0.030257 -0.045171 0.11322 0.04142 0.12139 0.12968 -0.12168 0.023662 0.076156 0.30328 0.036722 -0.018456 0.085876 0.1127 0.0095401 0.24096 -0.054133 -0.064984 -0.080828 -0.15675 0.017413 -0.28641 -0.013406 -0.13988 0.14253 -0.12861 0.16467 -0.05551 -0.16543 0.042267 0.28163 -0.12287 0.026559 -0.22518 -0.18927 0.10598 0.093311 -0.18249 0.20366 -0.13366 -0.013316 -0.011446 0.011375 0.10269 0.17695 -0.28555 0.24423 0.22803 -0.23413 0.12965 -0.12835 0.031232 -0.023454 -0.11281 0.27356 -0.063404 0.078568 -0.21343 0.093869 0.09649 0.041382 0.19301 -0.036502 0.1493 0.10045 0.013889 0.17738 0.089991 0.086282 0.24809 -0.10865 -0.16576 -0.050955 -0.055549 0.050926 0.11971 0.25908 0.14215 -0.0067846 0.07187 0.18401 0.13113 -0.047603 0.075018 0.15051 -0.071584 0.383 -0.18231 -0.06619 -0.14927 0.21109 0.13687 0.16845 -0.35726 -0.4514 0.026007 0.027453 0.21081 0.013558 0.089816 
may 0.055067 -0.025451 0.13982 -0.016136 0.16023 0.14862 -0.096028 0.047877 0.11594 0.2987 0.015199 0.059156 0.11466 0.10256 0.035237 0.2594 -0.0732 -0.10695 -0.1301 -0.15902 0.011798 -0.2908 -0.0017903 -0.13232 0.14293 -0.061493 0.14005 -0.022943 -0.10501 0.036967 0.24799 -0.11675 0.0065344 -0.24518 -0.12991 0.11409 0.10411 -0.17055 0.1344 -0.13838 -0.080361 0.016185 0.0071124 0.16651 0.14255 -0.30983 0.21647 0.25883 -0.22581 0.11096 -0.094365 0.11618 -0.010025 -0.12683 0.23835 -0.13286 0.019658 -0.24097 0.092012 0.089411 0.093375 0.21295 -0.0093321 0.13182 0.10713 0.023109 0.15466 0.11035 0.051588 0.2493 -0.095018 -0.20696 -0.037227 -0.091321 0.064097 0.096835 0.25695 0.093772 0.0075936 0.027136 0.14625 0.1653 -0.096014 0.077055 0.1717 -0.11035 0.39696 -0.17813 -0.09295 -0.15715 0.18551 0.12302 0.1841 -0.38796 -0.44873 0.041406 0.074795 0.17275 0.036353 0.066559 
would 0.064902 -0.01935 0.17803 -0.034941 0.077015 0.11253 -0.17028 0.039344 0.058222 0.35283 0.04026 0.06845 0.10946 0.06707 0.085778 0.17397 -0.083462 -0.05752 -0.074803 -0.15893 -0.014604 -0.26114 -0.007009 -0.14889 0.19131 -0.05978 0.17754 -0.059649 -0.14091 0.083402 0.25487 -0.15656 -0.029968 -0.22013 -0.16469 0.12831 0.08705 -0.23167 0.13563 -0.029987 -0.032483 0.040641 -0.038927 0.1134 0.17591 -0.30407 0.26131 0.29912 -0.23664 0.11199 -0.15372 0.075515 -0.0047132 -0.15406 0.2304 -0.11562 -0.0024847 -0.23466 0.090363 0.031984 0.025362 0.23145 -0.079077 0.18633 0.1008 0.053869 0.24107 0.083989 0.14375 0.27297 -0.11589 -0.20177 -0.065446 -0.054818 0.012685 0.01296 0.23771 0.088877 -0.0095705 0.062298 0.10712 0.1445 -0.043548 0.029334 0.139 -0.093183 0.32737 -0.21646 -0.099131 -0.16355 0.20155 0.13836 0.16621 -0.38537 -0.4207 0.018892 -0.025811 0.15236 -0.018004 0.07591 
man 0.029485 -0.02481 0.085165 0.010169 0.15913 0.15107 -0.08416 0.036263 0.08829 0.25658 0.050356 0.02095 0.097652 0.10266 0.0098459 0.28071 -0.041356 -0.097653 -0.11715 -0.14195 0.018531 -0.3089 -0.016428 -0.14647 0.12897 -0.090836 0.13793 -0.036836 -0.11886 0.033471 0.25398 -0.096019 0.03098 -0.24119 -0.1386 0.12657 0.10534 -0.15647 0.18598 -0.17218 -0.063166 -0.011664 0.0074826 0.12595 0.14486 -0.29048 0.22451 0.22327 -0.23539 0.12298 -0.1056 0.089394 -0.014272 -0.11065 0.24481 -0.10154 0.037555 -0.21242 0.10351 0.11679 0.081285 0.19231 0.0098877 0.13752 0.11063 0.019755 0.16168 0.10581 0.041705 0.25438 -0.10141 -0.1892 -0.040686 -0.074306 0.068443 0.10216 0.26646 0.1436 -0.010869 0.039335 0.17466 0.15288 -0.078866 0.098873 0.1784 -0.098039 0.41904 -0.17135 -0.074829 -0.14768 0.2076 0.10161 0.2025 -0.3706 -0.46953 0.029602 0.091548 0.19555 0.046588 0.074926 
from 0.011169 -0.13033 0.06595 0.12543 0.081429 0.072657 -0.14164 0.032278 0.023658 0.30102 0.051408 -0.13521 0.067987 0.11939 -0.020737 0.26059 -0.030869 0.018333 -0.083978 -0.13521 0.023782 -0.27703 -0.062446 -0.12146 0.090689 -0.23172 0.19698 -0.10842 -0.21859 0.1041 0.29775 -0.1318 -0.0040997 -0.2264 -0.27171 0.032785 0.082906 -0.16832 0.25543 -0.096049 0.030348 -0.096507 -0.0044913 0.070519 0.21755 -0.27633 0.28813 0.23339 -0.21127 0.14382 -0.16481 -0.012451 -0.04702 -0.11028 0.34278 0.00033946 0.12094 -0.17348 0.078521 0.12996 -0.011835 0.21211 -0.036049 0.21296 0.13347 0.019937 0.23619 0.084459 0.14888 0.2882 -0.14115 -0.1136 -0.052401 -0.012801 0.048497 0.12654 0.29169 0.17466 0.0069055 0.098317 0.25753 0.11272 -0.010989 0.029684 0.10529 -0.049775 0.37012 -0.20201 -0.068725 -0.06416 0.18486 0.16015 0.1506 -0.32639 -0.43408 0.044037 -0.0053582 0.25764 0.031179 0.15771 
can 0.047222 -0.039203 0.12872 0.0030566 0.085637 0.11453 -0.1535 0.0316 0.044795 0.33174 0.047622 0.0028558 0.08999 0.087834 0.038344 0.20107 -0.071945 -0.03454 -0.067477 -0.14925 -0.0049548 -0.28578 -0.020526 -0.1475 0.1602 -0.11983 0.18094 -0.082929 -0.16536 0.080056 0.27135 -0.1413 -0.00092838 -0.20986 -0.18823 0.1327 0.08282 -0.20779 0.18213 -0.058275 -0.0072515 -0.0033095 -0.029434 0.088801 0.20113 -0.28848 0.26107 0.259 -0.23677 0.12704 -0.15929 0.044387 -0.021736 -0.12873 0.24918 -0.06445 0.052555 -0.20228 0.09127 0.073647 0.021957 0.21719 -0.054466 0.17502 0.10359 0.0353 0.24045 0.081989 0.12862 0.27277 -0.11675 -0.17811 -0.060484 -0.041134 0.030438 0.052143 0.25271 0.11984 -0.014081 0.075071 0.16789 0.12773 -0.028079 0.035165 0.14777 -0.079947 0.34388 -0.20276 -0.080211 -0.14397 0.21173 0.13815 0.17761 -0.36074 -0.44074 0.012793 -0.0037906 0.1834 0.0050699 0.090475 
true 0.071914 0.0093673 0.17245 -0.017815 0.14597 0.17758 -0.11245 0.045808 0.098489 0.31495 0.021104 0.051685 0.079517 0.11942 0.032145 0.18952 -0.1006 -0.11618 -0.090589 -0.17227 -0.00012742 -0.2754 0.010539 -0.14171 0.15342 -0.044828 0.1356 -0.032691 -0.089272 0.0040025 0.24331 -0.13774 0.036138 -0.19482 -0.099395 0.14801 0.074145 -0.16337 0.11878 -0.092946 -0.029779 0.036859 0.034967 0.12369 0.14362 -0.29213 0.20536 0.21138 -0.2188 0.13373 -0.12721 0.082922 -0.033404 -0.093668 0.22379 -0.08103 0.069556 -0.22787 0.076694 0.071077 0.06373 0.17209 -0.00031069 0.090078 0.077627 -0.010265 0.14171 0.076933 0.035436 0.22724 -0.092532 -0.16739 -0.029796 -0.095637 0.05514 0.10179 0.25231 0.066755 -0.040638 0.030068 0.12098 0.11122 -0.053818 0.087871 0.19395 -0.09719 0.32114 -0.15791 -0.080772 -0.15987 0.22729 0.15083 0.14361 -0.36214 -0.43087 0.031717 0.030076 0.16429 -0.032855 0.017713 
no 0.040439 -0.0093459 0.12784 -0.04721 0.18336 0.15602 -0.12408 0.04202 0.10853 0.29241 0.049964 0.055002 0.10822 0.084668 0.04996 0.22312 -0.074188 -0.10362 -0.090846 -0.1583 0.0010835 -0.30124 -0.0039574 -0.1502 0.15184 -0.068508 0.14458 -0.040494 -0.12867 0.044335 0.27482 -0.13039 0.022495 -0.21747 -0.1052 0.16128 0.093352 -0.18084 0.14657 -0.11504 -0.064389 0.033008 -0.013064 0.12371 0.1559 -0.29573 0.2146 0.2449 -0.28014 0.11731 -0.12905 0.098563 -0.015149 -0.09717 0.21468 -0.10654 0.050019 -0.21258 0.11584 0.0779 0.063973 0.19181 -0.02517 0.13541 0.091709 0.015092 0.191 0.092174 0.065853 0.23481 -0.095829 -0.23056 -0.050835 -0.096133 0.043711 0.074727 0.24351 0.10793 -0.020686 0.043242 0.15632 0.14463 -0.0621 0.08351 0.15472 -0.076514 0.37828 -0.18592 -0.07797 -0.19148 0.20442 0.13821 0.20884 -0.37759 -0.46989 0.021871 0.061942 0.16569 0.01909 0.053874 
our 0.085823 -0.046664 0.17381 -0.0033641 0.1156 0.10576 -0.1287 0.042518 0.13572 0.34248 -0.019003 0.08857 0.10643 0.10587 0.023433 0.22353 -0.069735 -0.080677 -0.13338 -0.16822 0.019257 -0.29476 -0.018896 -0.12403 0.12674 -0.05099 0.16473 -0.029333 -0.11545 0.047398 0.25601 -0.12441 -0.006252 -0.22428 -0.15986 0.097697 0.10675 -0.20616 0.11499 -0.087804 -0.070226 0.0070901 0.0069262 0.14796 0.16624 -0.30212 0.22324 0.27565 -0.21215 0.11315 -0.094856 0.13176 -0.01272 -0.11348 0.24592 -0.12648 0.0098176 -0.24489 0.076347 0.047794 0.096682 0.22838 -0.040684 0.15316 0.10435 0.036997 0.18805 0.1029 0.085035 0.24475 -0.094157 -0.19312 -0.024351 -0.077506 0.036102 0.08902 0.24664 0.06607 0.025423 0.061036 0.13679 0.14657 -0.10453 0.054436 0.14284 -0.10305 0.36353 -0.2148 -0.09478 -0.15985 0.17929 0.13981 0.15759 -0.38074 -0.41288 0.044402 0.019316 0.15613 0.021665 0.094375 
only 0.050474 -0.043646 0.14374 0.007624 0.097102 0.12462 -0.15198 0.035253 0.057645 0.33821 0.031543 0.0090044 0.092552 0.09695 0.034095 0.20783 -0.063566 -0.048448 -0.072635 -0.16887 -0.00521 -0.28652 -0.024869 -0.14406 0.15231 -0.11232 0.19086 -0.06973 -0.16555 0.066898 0.26861 -0.1408 0.0099347 -0.2164 -0.20133 0.10993 0.093222 -0.20877 0.16927 -0.071784 -0.0065924 0.0021113 -0.0026684 0.10531 0.20834 -0.29588 0.2554 0.26637 -0.23387 0.13006 -0.14717 0.044757 -0.021925 -0.12572 0.27012 -0.061918 0.052506 -0.21968 0.088736 0.068216 0.018867 0.21615 -0.059686 0.1652 0.10777 0.02842 0.21788 0.082288 0.12172 0.27369 -0.1178 -0.18118 -0.06043 -0.053006 0.034755 0.071865 0.26372 0.11 -0.016611 0.070709 0.16431 0.1277 -0.026037 0.035324 0.14798 -0.077418 0.35671 -0.21844 -0.086392 -0.15173 0.21132 0.14957 0.16826 -0.37686 -0.43803 0.018985 -0.0030172 0.2033 0.0046138 0.091292 
say 0.093593 0.044478 0.23227 -0.1112 0.1425 0.16606 -0.14389 0.051146 0.12467 0.35016 0.018976 0.19137 0.1321 0.092756 0.099751 0.18662 -0.12898 -0.14282 -0.11511 -0.17912 -0.010838 -0.30292 0.026906 -0.14068 0.22197 0.05389 0.16066 0.0029704 -0.073801 0.013138 0.23531 -0.14524 -0.0054763 -0.23491 -0.065006 0.17983 0.10198 -0.23681 0.069876 -0.076084 -0.10317 0.10011 -0.0096647 0.16709 0.11572 -0.32408 0.21489 0.30417 -0.23128 0.10682 -0.11292 0.14227 0.020533 -0.14855 0.17187 -0.19056 -0.051241 -0.2769 0.09404 0.015694 0.10973 0.21972 -0.061644 0.121 0.068445 0.04262 0.16394 0.10982 0.043756 0.23297 -0.073075 -0.25388 -0.051658 -0.11316 0.031677 0.033771 0.23565 0.049036 -0.01472 0.028103 0.055998 0.16944 -0.10318 0.074493 0.19252 -0.13621 0.34199 -0.18719 -0.1191 -0.22276 0.20739 0.12621 0.17754 -0.45008 -0.44167 0.013473 0.025116 0.12033 0.0097634 0.023312 
then 0.052875 -0.063121 0.12452 0.03333 0.13559 0.10242 -0.10906 0.047505 0.098699 0.29605 0.0068656 0.032383 0.1285 0.088155 0.01572 0.24163 -0.066627 -0.058851 -0.13801 -0.15055 0.03186 -0.27094 -0.011495 -0.12381 0.11969 -0.077785 0.14807 -0.054566 -0.13435 0.070409 0.25802 -0.1155 -0.026891 -0.24174 -0.15352 0.084085 0.096234 -0.18227 0.15116 -0.1071 -0.064723 -0.020241 -0.034574 0.13458 0.15147 -0.27032 0.22032 0.2376 -0.22743 0.12148 -0.10486 0.11729 -0.025727 -0.12423 0.24708 -0.12679 0.029924 -0.21811 0.067795 0.081225 0.076098 0.23529 -0.013607 0.16852 0.09413 0.030605 0.18677 0.095193 0.093118 0.26345 -0.10522 -0.17606 -0.028422 -0.062041 0.032312 0.077632 0.2624 0.12056 0.016531 0.039225 0.19814 0.15451 -0.11952 0.049308 0.13148 -0.078683 0.38961 -0.20129 -0.11034 -0.127 0.16236 0.12944 0.18689 -0.36793 -0.40476 0.052564 0.051017 0.17321 0.050953 0.11102 
State 0.039446 -0.091685 0.068417 0.0913 0.12123 0.10744 -0.1092 0.022724 0.075745 0.29368 0.023372 -0.059997 0.084656 0.1414 -0.030701 0.27939 -0.02607 -0.032359 -0.087465 -0.13959 0.026135 -0.30505 -0.06079 -0.13548 0.076329 -0.18492 0.17779 -0.076892 -0.18597 0.055851 0.28049 -0.10994 0.031837 -0.22467 -0.22184 0.072438 0.080777 -0.15976 0.22425 -0.15608 -0.014874 -0.05817 0.026527 0.11402 0.20131 -0.27592 0.23781 0.22078 -0.21273 0.14064 -0.11171 0.030697 -0.039692 -0.086845 0.2976 -0.051342 0.087502 -0.20188 0.08672 0.11043 0.035115 0.19934 -0.014213 0.16403 0.1399 -0.0076265 0.19142 0.089564 0.10088 0.26124 -0.12185 -0.15499 -0.025954 -0.040413 0.069791 0.13624 0.26029 0.13252 -0.00061634 0.083281 0.22965 0.12548 -0.057288 0.050878 0.14229 -0.048503 0.39396 -0.19789 -0.059772 -0.10941 0.19934 0.13995 0.17347 -0.33349 -0.43391 0.038426 0.035305 0.24256 0.018499 0.11978 
was 0.0333 -0.063671 0.12132 0.035763 0.078268 0.1131 -0.13119 0.031453 0.055036 0.31118 0.054806 -0.011177 0.094055 0.073496 0.047621 0.22991 -0.052979 -0.042799 -0.088585 -0.15254 -0.0020337 -0.26729 -0.028891 -0.135 0.16405 -0.11532 0.17933 -0.066993 -0.16235 0.08344 0.26379 -0.13616 -0.018867 -0.22552 -0.18872 0.087873 0.082242 -0.2006 0.19683 -0.073817 -0.01986 -0.017617 -0.027072 0.1019 0.17362 -0.29462 0.26889 0.25099 -0.23065 0.12537 -0.14853 0.047527 -0.0076801 -0.13091 0.27287 -0.0833 0.040945 -0.20676 0.073088 0.079149 0.03234 0.2171 -0.056637 0.18216 0.10829 0.035611 0.22438 0.091336 0.12179 0.26553 -0.11557 -0.16118 -0.055316 -0.054321 0.034193 0.070368 0.25527 0.12639 -0.00084176 0.0781 0.17124 0.13649 -0.04906 0.037581 0.12917 -0.080679 0.35774 -0.18384 -0.096229 -0.12907 0.19449 0.1479 0.16104 -0.35946 -0.43342 0.031366 -0.0063895 0.18967 0.01793 0.1039 
: 0.088376 0.028857 0.19581 -0.088799 0.2023 0.20476 -0.080095 0.068038 0.15413 0.30158 0.013573 0.18504 0.12621 0.084065 0.074814 0.23812 -0.12394 -0.18874 -0.17696 -0.18719 0.0037165 -0.28964 0.026419 -0.1271 0.19096 0.067998 0.10905 0.038758 -0.024054 -0.0065243 0.21957 -0.11987 -0.00041959 -0.26993 -0.022142 0.15408 0.098668 -0.1991 0.066851 -0.12702 -0.14378 0.083936 0.0015658 0.20556 0.076816 -0.32724 0.19016 0.24505 -0.22923 0.10077 -0.090066 0.20774 0.0083425 -0.13996 0.1771 -0.2158 -0.045598 -0.27846 0.063259 0.042939 0.15709 0.23195 0.010792 0.089752 0.074009 0.035908 0.10873 0.11549 -0.017119 0.22135 -0.065404 -0.22553 -0.021857 -0.15465 0.063169 0.081848 0.2548 0.057835 -0.020424 -0.017326 0.082989 0.18631 -0.15805 0.11069 0.2062 -0.143 0.39746 -0.14969 -0.14385 -0.18653 0.19857 0.14389 0.18997 -0.44961 -0.4703 0.044934 0.11899 0.12803 0.054866 0.0059659 
an 0.014871 -0.027461 0.094315 0.033752 0.10798 0.12346 -0.13804 0.028139 0.045136 0.29545 0.056195 -0.030712 0.089441 0.10505 0.020274 0.22812 -0.047271 -0.03147 -0.059361 -0.13951 -0.0017217 -0.28938 -0.027808 -0.14187 0.15268 -0.15643 0.17547 -0.082806 -0.19679 0.075838 0.28123 -0.12161 0.03007 -0.21818 -0.20003 0.10866 0.083842 -0.18382 0.21224 -0.10315 -0.0055474 -0.021904 0.0023462 0.076852 0.19112 -0.27139 0.24626 0.23979 -0.24449 0.11947 -0.15199 0.0080355 -0.018361 -0.1153 0.27044 -0.05994 0.084991 -0.1842 0.11496 0.095415 0.017032 0.19682 -0.042968 0.16645 0.11009 0.027497 0.22548 0.086292 0.11399 0.27979 -0.11651 -0.16505 -0.054407 -0.037426 0.04274 0.066415 0.26611 0.14078 -0.019073 0.07503 0.18325 0.12851 -0.013077 0.049787 0.14066 -0.068449 0.38975 -0.20201 -0.063346 -0.14804 0.20991 0.13506 0.18086 -0.35075 -0.44628 0.0067669 -0.0069571 0.19479 0.0076412 0.095678 
should 0.05835 -0.035044 0.16456 -0.0097669 0.075609 0.10392 -0.16048 0.038311 0.064864 0.35249 0.036995 0.050152 0.11273 0.073777 0.062463 0.19623 -0.07565 -0.049893 -0.084812 -0.15404 -0.0034231 -0.26978 -0.017104 -0.14477 0.18067 -0.078185 0.18404 -0.058169 -0.14823 0.08202 0.26411 -0.15061 -0.025579 -0.22499 -0.18481 0.10856 0.092718 -0.2201 0.14342 -0.045327 -0.032545 0.019265 -0.025529 0.11693 0.18728 -0.29903 0.26507 0.29513 -0.22943 0.11403 -0.14816 0.064277 -0.0057957 -0.14524 0.251 -0.10151 0.008729 -0.23325 0.088667 0.046213 0.031222 0.23051 -0.07221 0.18812 0.10617 0.046576 0.23666 0.088629 0.13853 0.27793 -0.11249 -0.19521 -0.05988 -0.057921 0.019331 0.037639 0.24518 0.096853 0.0009937 0.069197 0.12431 0.1432 -0.04387 0.031379 0.13564 -0.087943 0.34026 -0.22118 -0.091295 -0.1554 0.19366 0.13549 0.16295 -0.38609 -0.4241 0.0246 -0.015933 0.16866 -0.0062547 0.088933 
more 0.06111 -0.023602 0.13765 0.0092638 0.13986 0.1493 -0.12129 0.042448 0.082805 0.31078 0.026346 0.048936 0.096003 0.1102 0.027103 0.21645 -0.061484 -0.083308 -0.097416 -0.153 0.0057358 -0.27593 -0.028143 -0.13739 0.14279 -0.077106 0.14237 -0.042654 -0.12739 0.033732 0.26994 -0.1136 0.015775 -0.22473 -0.1498 0.11682 0.10127 -0.20017 0.16544 -0.10124 -0.048999 0.030885 0.0042605 0.11409 0.14836 -0.30022 0.23084 0.23218 -0.2357 0.12806 -0.14363 0.082144 -0.020788 -0.12583 0.24773 -0.096977 0.037448 -0.23151 0.092072 0.080044 0.063599 0.19838 -0.023384 0.12966 0.095083 0.022593 0.19682 0.079868 0.070305 0.25532 -0.099059 -0.18631 -0.044609 -0.075913 0.049122 0.080078 0.25485 0.10295 -0.024865 0.046319 0.16819 0.14822 -0.069534 0.066969 0.17039 -0.10332 0.37848 -0.18673 -0.087184 -0.16062 0.19431 0.14735 0.18367 -0.38015 -0.45003 0.028374 0.02614 0.18573 0.016021 0.074476 
must 0.047955 -0.032257 0.13458 0.012434 0.10029 0.13624 -0.14405 0.029052 0.088032 0.33023 0.032387 0.061562 0.099587 0.091687 0.03581 0.22262 -0.058511 -0.071729 -0.080314 -0.15102 0.010147 -0.28707 -0.030001 -0.14056 0.16284 -0.072044 0.17073 -0.034877 -0.13521 0.038764 0.25928 -0.12034 0.0045244 -0.22074 -0.18245 0.10163 0.09347 -0.20166 0.14705 -0.076851 -0.050152 0.00076595 0.0082211 0.11266 0.17603 -0.28517 0.24379 0.25022 -0.22396 0.13283 -0.14188 0.059143 -0.010752 -0.11987 0.25079 -0.09333 0.0078805 -0.23223 0.084897 0.047606 0.055109 0.20111 -0.046925 0.15281 0.091369 0.022629 0.19945 0.098756 0.085529 0.26033 -0.099359 -0.1836 -0.052426 -0.065389 0.033212 0.061232 0.23871 0.08227 0.0080395 0.06111 0.1392 0.13715 -0.051558 0.056293 0.15138 -0.085479 0.34997 -0.18908 -0.073839 -0.16704 0.1872 0.13084 0.16435 -0.3717 -0.42751 0.012121 -0.00085087 0.18046 0.01099 0.094253 
us 0.095874 0.024146 0.19422 -0.075797 0.20154 0.20338 -0.073819 0.060089 0.14945 0.29209 0.016419 0.18389 0.11265 0.076088 0.069196 0.23192 -0.11295 -0.1828 -0.16074 -0.19395 -0.010931 -0.29997 0.02887 -0.12623 0.19673 0.074781 0.11746 0.034507 -0.015976 -0.014507 0.22193 -0.13615 0.0046544 -0.2632 -0.022704 0.17252 0.10077 -0.20059 0.073533 -0.1278 -0.1336 0.073842 0.0032458 0.18807 0.079289 -0.31626 0.19567 0.23796 -0.2155 0.099779 -0.10794 0.2029 0.015664 -0.13829 0.1846 -0.22036 -0.050222 -0.28515 0.075387 0.042733 0.1648 0.23183 7.3272e-05 0.083023 0.064856 0.012938 0.10252 0.12345 -0.010538 0.21394 -0.076781 -0.22929 -0.014319 -0.14217 0.074332 0.08462 0.24079 0.055986 -0.0046769 -0.01199 0.086747 0.18455 -0.1625 0.11852 0.22015 -0.14127 0.3814 -0.1578 -0.14385 -0.20502 0.22077 0.11974 0.19899 -0.46761 -0.47072 0.040014 0.11043 0.12476 0.047783 0.010016 
so 0.044107 -0.067955 0.116 0.052487 0.093605 0.11892 -0.12723 0.029788 0.059134 0.3007 0.035725 -0.039187 0.080808 0.09329 0.017966 0.23255 -0.054562 -0.041738 -0.087648 -0.15077 0.00063427 -0.26466 -0.013902 -0.13277 0.13331 -0.12583 0.16284 -0.066439 -0.14905 0.07405 0.25722 -0.13182 0.0052003 -0.22167 -0.18887 0.086021 0.081686 -0.19075 0.17999 -0.08918 -0.014311 -0.020136 -0.0091119 0.1018 0.16831 -0.28301 0.24914 0.2404 -0.21533 0.12123 -0.13478 0.048472 -0.037437 -0.12664 0.27189 -0.073727 0.071047 -0.2078 0.063514 0.081282 0.028817 0.21926 -0.039656 0.16145 0.10799 0.025615 0.19135 0.085766 0.10868 0.24921 -0.11593 -0.14658 -0.043007 -0.04998 0.037574 0.083313 0.26464 0.12143 -0.0077942 0.0705 0.18938 0.12233 -0.04846 0.056543 0.14451 -0.068685 0.35701 -0.18562 -0.088616 -0.11734 0.19576 0.15003 0.16433 -0.36186 -0.42667 0.032209 0.023543 0.19824 0.029141 0.11152 
were 0.060732 -0.034591 0.16037 -0.013451 0.13454 0.13576 -0.13883 0.037143 0.11571 0.31972 0.016873 0.065868 0.10784 0.10167 0.026356 0.22497 -0.077132 -0.087625 -0.11803 -0.17776 0.020254 -0.28419 -0.014103 -0.12441 0.13857 -0.071233 0.14431 -0.031227 -0.13489 0.041535 0.25408 -0.10875 0.0010767 -0.23222 -0.16065 0.10794 0.10517 -0.20527 0.12369 -0.10295 -0.059716 0.031869 -0.0023078 0.14197 0.15781 -0.29909 0.22519 0.26056 -0.2435 0.12491 -0.10812 0.10489 -0.011622 -0.13313 0.23983 -0.12483 0.024811 -0.25103 0.09016 0.060066 0.073338 0.21484 -0.029268 0.14724 0.090856 0.026973 0.19741 0.09116 0.083703 0.25294 -0.088141 -0.20422 -0.058273 -0.088226 0.033687 0.080904 0.25465 0.095904 -0.012127 0.047508 0.15376 0.16171 -0.083478 0.05024 0.13547 -0.097922 0.39283 -0.19284 -0.093332 -0.16924 0.17561 0.14565 0.18722 -0.3755 -0.42226 0.032735 0.025635 0.16998 0.036636 0.083218 
on 0.022092 -0.072656 0.076638 0.055268 0.10922 0.12041 -0.092192 0.034172 0.01366 0.2677 0.061516 -0.074564 0.075036 0.07168 0.016541 0.26826 -0.056594 -0.039236 -0.12524 -0.1452 -0.0028533 -0.27664 -0.031607 -0.11012 0.13142 -0.14109 0.16446 -0.076383 -0.13642 0.073003 0.23862 -0.13252 -0.006556 -0.26403 -0.17202 0.054948 0.074686 -0.17344 0.19677 -0.11385 -0.0077328 -0.040055 -0.014362 0.10189 0.16742 -0.28176 0.24562 0.21392 -0.23111 0.12218 -0.12648 0.071595 -0.038924 -0.13982 0.29633 -0.065611 0.069632 -0.20144 0.042453 0.098559 0.023767 0.23179 -0.013596 0.15376 0.14943 0.023406 0.19725 0.093526 0.09337 0.2639 -0.1272 -0.12294 -0.031425 -0.083115 0.051377 0.11108 0.28084 0.15437 -0.025209 0.052737 0.20818 0.12926 -0.057562 0.041821 0.13712 -0.086727 0.3826 -0.17576 -0.10715 -0.091041 0.20162 0.1553 0.16611 -0.35467 -0.42699 0.020059 0.048771 0.22683 0.04117 0.10206 
replied 0.095412 0.045603 0.21496 -0.092464 0.12578 0.17877 -0.12511 0.04805 0.11866 0.32774 -0.0024698 0.17518 0.10536 0.07968 0.088114 0.1421 -0.11736 -0.1402 -0.086878 -0.17725 -0.023007 -0.25451 0.026442 -0.13874 0.1888 0.046808 0.12868 0.003859 -0.049902 0.0081327 0.20963 -0.13695 -0.0016121 -0.19881 -0.046522 0.18364 0.082319 -0.21049 0.056821 -0.05099 -0.074993 0.10417 0.0068061 0.15533 0.10433 -0.3067 0.19113 0.25558 -0.21076 0.10244 -0.11814 0.13192 -0.0036158 -0.12063 0.16082 -0.17243 -0.02298 -0.2451 0.083731 0.0051463 0.097213 0.1939 -0.043846 0.08234 0.065727 0.020846 0.15082 0.086377 0.035742 0.21278 -0.071788 -0.21641 -0.031519 -0.11155 0.029719 0.040863 0.20924 0.022792 -0.033067 0.018387 0.046909 0.14389 -0.084509 0.08431 0.18848 -0.12432 0.29239 -0.16843 -0.10935 -0.20649 0.20239 0.12508 0.15145 -0.39704 -0.40442 0.018602 0.027981 0.093964 -0.02176 -0.0046531 
Then 0.05854 -0.016574 0.17057 -0.023142 0.12837 0.14283 -0.133 0.044983 0.088483 0.32864 0.01262 0.089754 0.11321 0.091081 0.050173 0.22327 -0.091308 -0.093507 -0.11318 -0.16583 -0.012325 -0.28594 -0.0070762 -0.12894 0.17698 -0.041087 0.16191 -0.026314 -0.11897 0.050344 0.24804 -0.12918 -0.006487 -0.23032 -0.14307 0.12108 0.10096 -0.21416 0.12362 -0.086803 -0.066809 0.021363 -0.0086617 0.13723 0.15397 -0.29521 0.23089 0.26543 -0.23367 0.12117 -0.12575 0.11527 -0.0051713 -0.13993 0.22684 -0.13464 -0.001644 -0.24881 0.0783 0.051619 0.073562 0.22755 -0.039313 0.14561 0.094856 0.033938 0.18971 0.10337 0.073195 0.26036 -0.093507 -0.19781 -0.045416 -0.083839 0.03153 0.053115 0.25476 0.080879 -0.0069831 0.039948 0.12467 0.15255 -0.080811 0.05372 0.15907 -0.10694 0.36015 -0.19569 -0.10622 -0.17361 0.19329 0.12926 0.17406 -0.39536 -0.43473 0.024795 0.02653 0.15943 0.02596 0.068435 
like 0.03015 -0.068131 0.095558 0.059295 0.10659 0.11247 -0.11305 0.032786 0.068833 0.29326 0.037492 -0.026764 0.082292 0.10841 0.0014027 0.24773 -0.042399 -0.042279 -0.086261 -0.14398 0.013897 -0.2814 -0.023743 -0.13814 0.11485 -0.13719 0.16036 -0.060963 -0.15275 0.061523 0.2722 -0.11722 0.015448 -0.22705 -0.19971 0.09264 0.095228 -0.17911 0.21024 -0.11372 -0.01077 -0.030994 -0.0029877 0.097448 0.17836 -0.28232 0.2492 0.2303 -0.21655 0.13952 -0.14211 0.036844 -0.041696 -0.11668 0.27344 -0.066612 0.075581 -0.19902 0.08844 0.10494 0.042925 0.20211 -0.030328 0.15725 0.10745 0.018115 0.19423 0.095899 0.091959 0.26983 -0.11906 -0.15813 -0.042668 -0.05323 0.049068 0.10929 0.2645 0.13807 -0.00019139 0.069793 0.198 0.13607 -0.047406 0.079778 0.15741 -0.073375 0.37319 -0.18454 -0.068671 -0.12373 0.20016 0.13984 0.17775 -0.35557 -0.4512 0.03648 0.032544 0.20751 0.026424 0.10689 
But 0.070794 -0.0061608 0.1672 -0.042707 0.15755 0.17861 -0.10197 0.05634 0.10312 0.31629 0.020964 0.10882 0.10186 0.092115 0.059391 0.22997 -0.10831 -0.12851 -0.14039 -0.18009 -0.0078739 -0.29379 0.0095978 -0.134 0.19047 -0.0007688 0.14094 -0.0086434 -0.070986 0.0203 0.24124 -0.13132 -0.0037648 -0.25679 -0.089745 0.14263 0.096368 -0.21358 0.11495 -0.10754 -0.094267 0.045888 -0.010258 0.15805 0.11314 -0.32803 0.2246 0.24921 -0.22304 0.10151 -0.11639 0.14857 -0.0017464 -0.14158 0.2111 -0.17023 -0.011545 -0.26702 0.063132 0.056478 0.11035 0.22345 -0.022627 0.11273 0.087565 0.025866 0.15417 0.1136 0.039084 0.24179 -0.089392 -0.20144 -0.028876 -0.11164 0.057549 0.078805 0.25797 0.0772 -0.01312 0.022669 0.11609 0.17131 -0.11257 0.085678 0.19018 -0.12901 0.37687 -0.16964 -0.12109 -0.17509 0.219 0.14215 0.18427 -0.42725 -0.46876 0.029272 0.07522 0.14957 0.03886 0.044724 
than 0.04353 -0.042541 0.12625 0.025675 0.11623 0.10791 -0.15751 0.031897 0.058433 0.3287 0.038996 -0.00029534 0.09458 0.11227 0.010307 0.21358 -0.051952 -0.028855 -0.082168 -0.14767 0.016608 -0.27488 -0.03931 -0.13833 0.14509 -0.12858 0.17372 -0.073802 -0.1808 0.058954 0.28992 -0.1199 0.015729 -0.2231 -0.22407 0.09914 0.10889 -0.21742 0.18624 -0.092321 -0.016495 -0.0092617 -0.011895 0.084376 0.18303 -0.27644 0.2409 0.24961 -0.24489 0.13854 -0.14842 0.045701 -0.010259 -0.12881 0.28182 -0.066046 0.065173 -0.20453 0.10303 0.076528 0.027049 0.21086 -0.041847 0.16453 0.10786 0.021937 0.23105 0.084127 0.11793 0.27039 -0.11675 -0.18216 -0.056719 -0.033601 0.038342 0.077533 0.28204 0.13376 -0.019613 0.069233 0.19423 0.13691 -0.047602 0.042674 0.14342 -0.095719 0.39453 -0.21803 -0.073122 -0.15659 0.19266 0.14005 0.17818 -0.37444 -0.42955 0.025208 -0.010225 0.21273 0.0040874 0.10875 
such 0.049314 -0.026047 0.12524 -0.0021025 0.15159 0.1503 -0.10137 0.039852 0.10939 0.30192 0.014323 0.054006 0.098731 0.10559 0.03598 0.24746 -0.067679 -0.09436 -0.10484 -0.16493 0.014691 -0.29186 -0.0024711 -0.13078 0.14555 -0.082757 0.14563 -0.033203 -0.12102 0.038464 0.26045 -0.11318 0.023875 -0.23277 -0.14137 0.11657 0.095262 -0.18795 0.15802 -0.13816 -0.059758 0.014768 0.0064496 0.14105 0.14316 -0.29226 0.22349 0.24232 -0.22282 0.11754 -0.11552 0.089261 -0.019282 -0.11701 0.23707 -0.12499 0.034246 -0.23848 0.08205 0.08714 0.079892 0.20958 -0.014324 0.13366 0.093806 0.016023 0.16513 0.098551 0.059707 0.25284 -0.093211 -0.19094 -0.035876 -0.076365 0.059745 0.087894 0.25196 0.093686 0.0082348 0.042637 0.15834 0.1542 -0.087965 0.076708 0.17113 -0.094396 0.39588 -0.17493 -0.08861 -0.15728 0.19897 0.13476 0.18427 -0.38188 -0.44707 0.026692 0.061298 0.17706 0.033935 0.077537 
also 0.03552 -0.084617 0.096751 0.08388 0.099066 0.10084 -0.13011 0.024588 0.054633 0.3099 0.034142 -0.067193 0.076171 0.12411 -0.016262 0.23925 -0.041283 -0.02031 -0.079441 -0.15099 0.013308 -0.27408 -0.042422 -0.12805 0.10088 -0.17559 0.18047 -0.082284 -0.18692 0.080249 0.27897 -0.12056 0.011698 -0.21978 -0.23756 0.063615 0.092031 -0.18108 0.21265 -0.10892 0.0053096 -0.052973 0.0080906 0.097416 0.20688 -0.28028 0.24879 0.23629 -0.2225 0.13915 -0.14 0.022764 -0.035527 -0.11299 0.29878 -0.03744 0.097777 -0.19873 0.090599 0.10327 0.016189 0.21305 -0.029781 0.17144 0.11762 0.014443 0.20803 0.081289 0.11934 0.27789 -0.13041 -0.14616 -0.051462 -0.040811 0.051445 0.10742 0.27171 0.1361 -0.0028219 0.081332 0.21857 0.1151 -0.037261 0.041626 0.13183 -0.061947 0.37287 -0.20759 -0.07006 -0.11094 0.19651 0.14852 0.16387 -0.34248 -0.43246 0.0328 0.014084 0.2332 0.017948 0.12455 
another 0.014682 -0.072433 0.056288 0.072397 0.12056 0.091831 -0.15585 0.043 0.078044 0.27859 0.085422 -0.11733 0.11844 0.0895 0.010927 0.25722 -0.037403 0.0022003 -0.12155 -0.12759 0.043182 -0.30616 -0.029473 -0.15662 0.10345 -0.17328 0.16302 -0.13358 -0.19171 0.099938 0.30315 -0.13504 -0.01299 -0.22619 -0.18084 0.095488 0.06228 -0.13308 0.20366 -0.098549 -0.012232 -0.062771 -0.037459 0.089891 0.20976 -0.24374 0.23657 0.21772 -0.26171 0.14866 -0.12944 0.018564 -0.040885 -0.11279 0.27952 -0.047527 0.12331 -0.1835 0.085433 0.12811 0.025289 0.22447 -0.023846 0.21488 0.1204 0.024473 0.23902 0.079953 0.1278 0.27917 -0.12872 -0.1661 -0.053943 -0.03488 0.034136 0.068605 0.27023 0.1916 -0.016059 0.076036 0.2744 0.10765 -0.049659 0.056941 0.11603 -0.026728 0.38452 -0.19855 -0.081816 -0.077861 0.19316 0.13521 0.2081 -0.31753 -0.43229 0.023502 0.024611 0.21619 0.027294 0.11785 
same 0.049745 -0.067059 0.12628 0.048502 0.094902 0.1083 -0.14403 0.023549 0.047126 0.33501 0.036215 -0.044046 0.068862 0.12376 -0.0011406 0.22633 -0.06701 -0.029946 -0.087231 -0.16462 0.0056881 -0.2679 -0.036907 -0.11781 0.11489 -0.15619 0.18056 -0.080682 -0.17804 0.076517 0.27272 -0.13694 0.0018146 -0.22388 -0.219 0.079831 0.084444 -0.19999 0.19286 -0.089506 0.0037956 -0.02344 -0.00057708 0.09991 0.20346 -0.28546 0.25228 0.24323 -0.23205 0.14134 -0.12633 0.042358 -0.031799 -0.12553 0.29228 -0.05435 0.086762 -0.21427 0.078958 0.087968 0.0076942 0.21868 -0.043572 0.17877 0.11391 0.018434 0.21315 0.077256 0.13159 0.2767 -0.12051 -0.15281 -0.052095 -0.042945 0.047504 0.096498 0.27207 0.12487 -0.011284 0.079519 0.1931 0.12711 -0.042778 0.03264 0.13708 -0.079252 0.36171 -0.21099 -0.085513 -0.11761 0.2025 0.15375 0.16303 -0.36295 -0.41969 0.0267 -0.0022184 0.22472 0.016386 0.11284 
men 0.060437 -0.067533 0.14573 0.042334 0.10852 0.11349 -0.097068 0.037908 0.10627 0.31026 -0.0084406 0.047595 0.10906 0.10948 0.021273 0.25779 -0.068466 -0.076371 -0.10249 -0.17161 0.0081104 -0.28932 -0.018218 -0.13802 0.13172 -0.093004 0.15926 -0.027417 -0.12611 0.056396 0.24991 -0.12163 -0.0080319 -0.23945 -0.19119 0.087242 0.096878 -0.19289 0.16201 -0.12438 -0.040471 -0.016133 -0.0079695 0.13282 0.16091 -0.30236 0.23633 0.26161 -0.22177 0.13207 -0.11227 0.11164 -0.027719 -0.11675 0.25511 -0.12361 0.013093 -0.24668 0.077 0.073262 0.081102 0.22818 -0.029575 0.14682 0.096007 0.021808 0.17588 0.095777 0.073525 0.25837 -0.11443 -0.18246 -0.016952 -0.077368 0.052433 0.087157 0.25387 0.079425 0.01689 0.051586 0.16359 0.15909 -0.10004 0.069804 0.14739 -0.090345 0.36847 -0.19281 -0.10045 -0.1428 0.17585 0.13663 0.16392 -0.38717 -0.43264 0.055084 0.041559 0.18087 0.037377 0.1083 
just 0.043002 -0.029843 0.13394 -0.0031577 0.080181 0.1374 -0.20052 0.01277 0.066461 0.34829 0.071005 0.06944 0.08965 0.099571 0.050646 0.20899 -0.048279 -0.045873 -0.04843 -0.14231 0.015796 -0.29581 -0.04774 -0.15276 0.20179 -0.078355 0.18869 -0.047418 -0.16493 0.013089 0.27416 -0.12405 0.009637 -0.21381 -0.24046 0.11163 0.10503 -0.22147 0.16237 -0.057382 -0.043254 -0.0027909 -0.0036087 0.081898 0.16815 -0.28834 0.26603 0.27978 -0.25423 0.14697 -0.16267 0.027544 0.010748 -0.12371 0.26257 -0.069353 -0.0083312 -0.24262 0.10765 0.031217 0.026426 0.18689 -0.087805 0.16564 0.09408 0.027086 0.25175 0.10625 0.10797 0.24458 -0.117 -0.20501 -0.088495 -0.042579 0.030821 0.047265 0.25061 0.11479 -0.0082575 0.084726 0.14415 0.12629 -0.011499 0.047503 0.15194 -0.099549 0.34902 -0.19324 -0.04877 -0.18676 0.19736 0.12979 0.18111 -0.37937 -0.43788 -0.0054409 -0.068424 0.20871 -0.0078624 0.095811 
about 0.050964 -0.044895 0.13101 0.018154 0.13049 0.12985 -0.11885 0.041279 0.077694 0.30531 0.022835 0.019134 0.0893 0.10183 0.02137 0.23323 -0.065709 -0.069471 -0.10848 -0.15986 0.012343 -0.28165 -0.0072508 -0.12551 0.13998 -0.087836 0.16023 -0.044581 -0.12898 0.050682 0.26485 -0.12554 0.0047933 -0.22964 -0.162 0.096913 0.097391 -0.19307 0.16064 -0.1077 -0.039408 -0.0067156 -0.0040496 0.13103 0.16479 -0.29333 0.23328 0.24361 -0.2169 0.11829 -0.12082 0.081631 -0.018596 -0.12183 0.25121 -0.10032 0.045125 -0.22584 0.079926 0.080749 0.055545 0.21596 -0.028829 0.14462 0.090386 0.022845 0.1848 0.096925 0.080375 0.25351 -0.10931 -0.17641 -0.036067 -0.070698 0.046538 0.090437 0.26182 0.10457 -0.0049127 0.052817 0.16581 0.14487 -0.071554 0.055479 0.14659 -0.08729 0.36857 -0.19412 -0.091247 -0.14822 0.19873 0.1386 0.16642 -0.37329 -0.43697 0.031353 0.042667 0.18415 0.025902 0.090868 
own 0.026125 -0.09119 0.07793 0.094722 0.1134 0.11189 -0.1185 0.045365 0.058372 0.29126 0.04532 -0.070961 0.078271 0.11706 0.0012882 0.28697 -0.049482 -0.022262 -0.10027 -0.14992 0.024879 -0.28699 -0.036669 -0.13867 0.11077 -0.14665 0.17747 -0.093624 -0.16531 0.060701 0.28777 -0.12741 0.00037884 -0.24528 -0.20188 0.078756 0.076728 -0.17387 0.22769 -0.1163 -0.014405 -0.069029 -0.011258 0.099494 0.18182 -0.29101 0.25159 0.21863 -0.21974 0.14355 -0.14088 0.03879 -0.028964 -0.10596 0.29742 -0.061645 0.091 -0.19911 0.071966 0.11612 0.039161 0.2005 -0.015368 0.1829 0.12335 0.0035719 0.18834 0.10949 0.094951 0.26633 -0.1348 -0.14689 -0.041028 -0.047756 0.062539 0.12194 0.27319 0.14814 -0.0049332 0.082939 0.23353 0.13345 -0.065261 0.069913 0.14721 -0.058638 0.38103 -0.17882 -0.073776 -0.084286 0.20287 0.14713 0.17033 -0.35186 -0.44767 0.042739 0.028557 0.2255 0.039601 0.11855 
these 0.071251 -0.041973 0.14304 0.017971 0.16866 0.13466 -0.088679 0.048193 0.13815 0.29586 -0.0083169 0.052616 0.13303 0.11497 -0.012733 0.24787 -0.073419 -0.095365 -0.145 -0.17486 0.044967 -0.28048 0.0024514 -0.12077 0.10656 -0.064659 0.12499 -0.031495 -0.1102 0.036919 0.24926 -0.10393 -0.0066323 -0.25314 -0.11963 0.10348 0.10677 -0.17565 0.13044 -0.14258 -0.07105 0.015496 0.0022379 0.16516 0.13954 -0.28424 0.19166 0.22481 -0.22861 0.11918 -0.075275 0.1325 -0.025248 -0.11656 0.23429 -0.14492 0.038644 -0.23074 0.074002 0.087958 0.11251 0.23203 0.0032894 0.12358 0.090997 0.017656 0.145 0.09743 0.050951 0.24957 -0.09023 -0.18241 -0.019753 -0.080919 0.052306 0.11602 0.26195 0.11005 0.0062997 0.018209 0.18813 0.16866 -0.15345 0.07374 0.17322 -0.098944 0.40253 -0.19485 -0.098571 -0.15122 0.16666 0.1326 0.18559 -0.38415 -0.41658 0.06101 0.083287 0.17863 0.04252 0.090593 
justice 0.026454 -0.04323 0.12209 0.012754 0.10548 0.13401 -0.19749 0.0069035 0.059414 0.32675 0.090273 0.0060589 0.081082 0.119 0.041575 0.23886 -0.040269 -0.029933 -0.049214 -0.16982 0.022022 -0.3163 -0.063291 -0.14339 0.17086 -0.12101 0.18609 -0.063271 -0.18171 0.016354 0.28253 -0.12845 0.024216 -0.21686 -0.24564 0.10854 0.11283 -0.19634 0.18664 -0.10099 -0.0054209 -0.0071811 0.0096544 0.071348 0.17065 -0.29775 0.2648 0.26494 -0.27297 0.14051 -0.1608 0.012201 0.0030761 -0.11112 0.28307 -0.036863 0.037774 -0.23174 0.1168 0.062875 0.0057128 0.18846 -0.082433 0.16125 0.1139 0.01789 0.2465 0.099589 0.11013 0.24971 -0.12511 -0.20306 -0.083751 -0.043437 0.037222 0.077468 0.27332 0.14818 -0.028335 0.090483 0.16739 0.1102 -0.0044986 0.041342 0.14148 -0.082676 0.37456 -0.1874 -0.037818 -0.17377 0.20721 0.13485 0.17623 -0.36992 -0.44794 -0.0060289 -0.069198 0.22985 -0.0077572 0.10309 
soul 0.011586 -0.10344 0.069468 0.10131 0.12182 0.10871 -0.11238 0.032178 0.048783 0.28824 0.05129 -0.10189 0.075848 0.10722 -0.019784 0.27215 -0.026816 -0.013414 -0.089432 -0.15383 0.018389 -0.26829 -0.042653 -0.11735 0.092291 -0.20901 0.17295 -0.080752 -0.19304 0.077399 0.28798 -0.11712 0.015855 -0.23815 -0.22631 0.051664 0.096783 -0.16825 0.2323 -0.14242 0.014098 -0.05262 0.013788 0.099784 0.19589 -0.28305 0.25751 0.22336 -0.22816 0.13713 -0.1306 0.0044539 -0.037079 -0.11411 0.31921 -0.034476 0.11275 -0.18822 0.080229 0.12886 0.0060815 0.21083 -0.019689 0.17745 0.13182 0.018286 0.19433 0.084856 0.12041 0.28474 -0.12873 -0.13736 -0.055335 -0.045079 0.0595 0.13645 0.28666 0.16522 -0.0093279 0.073723 0.23957 0.13599 -0.020527 0.048791 0.12712 -0.067463 0.40184 -0.18588 -0.068135 -0.10066 0.18855 0.15388 0.16254 -0.34143 -0.44308 0.037091 0.042144 0.24462 0.035461 0.13332 
now 0.080586 0.016819 0.18865 -0.080858 0.17641 0.17021 -0.12929 0.048159 0.13314 0.31634 0.024882 0.15564 0.12492 0.075369 0.067399 0.21207 -0.095749 -0.13874 -0.12372 -0.17789 -0.0018635 -0.30466 0.016053 -0.13965 0.19994 0.01266 0.13894 0.016091 -0.080392 0.015437 0.24249 -0.13749 0.0032035 -0.23801 -0.073941 0.16714 0.11838 -0.21716 0.093076 -0.10342 -0.10868 0.082548 -0.0010799 0.17547 0.12152 -0.31769 0.2103 0.27089 -0.26007 0.11683 -0.10951 0.1435 0.024444 -0.12367 0.18326 -0.17398 -0.01573 -0.26554 0.10698 0.034149 0.11024 0.21407 -0.027985 0.11602 0.07168 0.034806 0.17044 0.10995 0.035568 0.22587 -0.072928 -0.2617 -0.043402 -0.11676 0.049136 0.055527 0.23174 0.069845 -0.013444 0.023307 0.089048 0.17403 -0.10728 0.07802 0.17556 -0.11762 0.36288 -0.1908 -0.10514 -0.2214 0.19646 0.12454 0.19474 -0.42886 -0.46072 0.022545 0.066989 0.13529 0.027202 0.026511 
been 0.039664 -0.080714 0.11529 0.061723 0.090976 0.10043 -0.15671 0.039861 0.062488 0.317 0.03812 -0.00021755 0.090527 0.070124 0.032733 0.23534 -0.043855 -0.022747 -0.073872 -0.14944 -0.0085449 -0.28273 -0.045275 -0.15556 0.15418 -0.12651 0.19678 -0.084402 -0.17949 0.087552 0.27727 -0.14107 -0.023132 -0.22402 -0.20805 0.088862 0.079105 -0.19908 0.1818 -0.075622 -0.022734 -0.035958 -0.014858 0.096729 0.2061 -0.28674 0.27344 0.26546 -0.23894 0.14208 -0.15316 0.038032 -0.016117 -0.11952 0.2712 -0.077651 0.049829 -0.21624 0.078464 0.085016 0.027388 0.22167 -0.046976 0.20145 0.10472 0.036639 0.23657 0.092214 0.12873 0.27964 -0.11939 -0.17345 -0.044822 -0.049695 0.041272 0.057493 0.25286 0.0981 -0.0016313 0.075802 0.16983 0.14151 -0.031642 0.032862 0.10942 -0.069588 0.33922 -0.19887 -0.09022 -0.12274 0.18941 0.13665 0.16689 -0.36046 -0.43884 0.032202 0.013352 0.19651 0.026135 0.10954 
into 0.0023314 -0.10804 0.063375 0.10261 0.10713 0.096567 -0.13906 0.027449 0.054501 0.294 0.058326 -0.11125 0.080608 0.10147 -0.0090175 0.27532 -0.023897 0.0023338 -0.09354 -0.13824 0.030227 -0.29613 -0.054831 -0.13458 0.089509 -0.19646 0.18893 -0.09426 -0.19433 0.079478 0.30044 -0.12723 0.010488 -0.23137 -0.24231 0.056868 0.086897 -0.14842 0.23764 -0.12708 0.0072972 -0.080106 0.0082457 0.091492 0.21416 -0.26179 0.26156 0.23676 -0.21357 0.137 -0.13954 -0.0075291 -0.037259 -0.095904 0.31764 -0.018932 0.10578 -0.19039 0.088721 0.12821 -0.00052401 0.20874 -0.029101 0.20039 0.12852 0.017791 0.20889 0.10123 0.12722 0.27854 -0.12684 -0.14404 -0.059727 -0.034638 0.057571 0.11824 0.28547 0.1499 0.010877 0.083214 0.24741 0.12016 -0.020624 0.034313 0.12299 -0.037457 0.38028 -0.19431 -0.054397 -0.073756 0.19876 0.14161 0.15992 -0.33429 -0.43068 0.03279 0.0245 0.25758 0.023185 0.13753 
being -0.0013792 -0.091036 0.066003 0.086334 0.089689 0.078419 -0.16561 0.0080328 0.0034891 0.30035 0.086104 -0.14085 0.069511 0.1163 0.0024184 0.2397 -0.018632 0.034796 -0.038002 -0.14033 0.0099675 -0.28023 -0.07154 -0.14684 0.094985 -0.24514 0.20639 -0.11287 -0.26311 0.10373 0.30293 -0.14318 0.024147 -0.19607 -0.28061 0.046844 0.083925 -0.17248 0.28051 -0.087856 0.058651 -0.049846 0.0043105 0.059732 0.23903 -0.27038 0.27892 0.263 -0.24003 0.13853 -0.17255 -0.074198 -0.040352 -0.10331 0.33822 0.028568 0.14197 -0.16514 0.11764 0.13281 -0.041814 0.20422 -0.063625 0.21102 0.11864 0.02741 0.24112 0.068801 0.17088 0.28102 -0.13983 -0.15323 -0.092044 -0.013088 0.030979 0.1034 0.27697 0.16919 -0.017943 0.10329 0.24286 0.10647 0.053249 0.01003 0.090114 -0.051847 0.36097 -0.20725 -0.051953 -0.11117 0.19941 0.16319 0.14821 -0.32269 -0.44982 0.018075 -0.028942 0.26907 0.0047658 0.13406 
me 0.12037 0.070288 0.27568 -0.14887 0.17328 0.21198 -0.092607 0.064683 0.16392 0.34065 -0.024537 0.26715 0.12627 0.084385 0.10209 0.18409 -0.15962 -0.22209 -0.1507 -0.22798 -0.04005 -0.299 0.046125 -0.12215 0.22605 0.13266 0.11687 0.064092 0.002451 -0.023956 0.1956 -0.13735 -0.00029784 -0.26024 0.013883 0.19391 0.10276 -0.24787 0.024087 -0.096817 -0.14349 0.15043 0.0040853 0.22182 0.05689 -0.35221 0.18685 0.277 -0.21793 0.089316 -0.074174 0.23779 0.021419 -0.14978 0.14399 -0.26097 -0.098654 -0.31502 0.071818 0.0068489 0.16752 0.22913 -0.027403 0.05192 0.057676 0.035973 0.11689 0.11072 -0.0074648 0.21146 -0.058822 -0.25981 -0.016722 -0.16858 0.052805 0.045246 0.2261 -0.0090244 -0.016333 -0.022855 -0.0048232 0.20828 -0.1739 0.1012 0.23355 -0.17674 0.35376 -0.16199 -0.15865 -0.23721 0.21279 0.13781 0.17797 -0.49805 -0.45456 0.036647 0.079468 0.079905 0.020894 -0.019731 
Certainly 0.07147 0.0039018 0.15887 -0.029517 0.10102 0.13798 -0.12587 0.041078 0.082929 0.30331 0.016654 0.072606 0.083575 0.087198 0.048868 0.15428 -0.086619 -0.083019 -0.068905 -0.15695 -0.0057661 -0.24805 0.0037489 -0.12923 0.14633 -0.029313 0.1386 -0.037807 -0.090439 0.030755 0.22036 -0.1252 0.013812 -0.17834 -0.10171 0.13916 0.07147 -0.17936 0.10403 -0.048942 -0.034618 0.046065 0.0061962 0.10443 0.14711 -0.26577 0.20059 0.21803 -0.18972 0.113 -0.1301 0.075212 -0.019264 -0.10639 0.19143 -0.095975 0.02343 -0.20276 0.076889 0.041177 0.052986 0.18157 -0.037716 0.10523 0.073655 0.0033649 0.16934 0.070682 0.060256 0.21974 -0.087854 -0.16344 -0.035591 -0.071254 0.031818 0.052744 0.20718 0.056949 -0.024426 0.038023 0.09888 0.11131 -0.047282 0.065325 0.16292 -0.087263 0.28158 -0.16478 -0.083247 -0.15254 0.19544 0.13034 0.14405 -0.34129 -0.38253 0.011935 0.010862 0.13449 -0.016149 0.033578 
nature 0.03948 -0.097304 0.082019 0.086085 0.12202 0.11417 -0.1168 0.021988 0.076654 0.3127 0.011945 -0.056261 0.076726 0.13883 -0.024549 0.2532 -0.028474 -0.034448 -0.085082 -0.16282 0.038643 -0.29211 -0.067896 -0.12359 0.074278 -0.19675 0.17153 -0.067932 -0.17499 0.068456 0.28763 -0.11178 0.02303 -0.22213 -0.24051 0.059636 0.10392 -0.14841 0.18876 -0.14649 0.0040829 -0.056052 0.026237 0.094479 0.2121 -0.27895 0.24471 0.22891 -0.21549 0.13708 -0.13259 0.023594 -0.034316 -0.098806 0.30712 -0.030084 0.10472 -0.21272 0.091965 0.11513 0.019837 0.19934 -0.011363 0.16643 0.11816 0.0013468 0.20302 0.082466 0.10461 0.27902 -0.13186 -0.15022 -0.047388 -0.044454 0.061661 0.1164 0.26469 0.11471 -0.0035386 0.07225 0.22926 0.11751 -0.020846 0.053521 0.12116 -0.064114 0.37726 -0.20539 -0.058776 -0.11142 0.17806 0.1394 0.16724 -0.33839 -0.43142 0.031631 0.032762 0.24252 0.031861 0.12638 
my 0.070922 0.042463 0.21327 -0.088188 0.14497 0.16446 -0.10581 0.070286 0.10729 0.31951 0.026118 0.1506 0.11381 0.088672 0.085696 0.18856 -0.13649 -0.14815 -0.14029 -0.17432 -0.013856 -0.28034 0.031476 -0.12243 0.1964 0.039703 0.12855 0.0099488 -0.059609 0.033729 0.24415 -0.14253 0.010632 -0.24725 -0.057575 0.15636 0.098542 -0.21517 0.086061 -0.095368 -0.0987 0.06809 -0.0026003 0.15589 0.10491 -0.3256 0.20495 0.25719 -0.21919 0.1063 -0.11515 0.15541 0.0069598 -0.1407 0.19393 -0.1785 -0.029595 -0.25793 0.087284 0.027033 0.096873 0.21004 -0.022739 0.096957 0.075998 0.044848 0.13552 0.099316 0.031303 0.23741 -0.08385 -0.21737 -0.022071 -0.11358 0.040155 0.058875 0.2469 0.058074 -0.02615 0.031169 0.086454 0.16432 -0.10612 0.087853 0.19285 -0.13252 0.36304 -0.17994 -0.13085 -0.19608 0.20652 0.12359 0.16769 -0.4204 -0.44683 0.025341 0.040964 0.12662 0.013309 0.021701 
shall 0.076131 -0.041547 0.16645 0.0012778 0.10467 0.12183 -0.13033 0.044837 0.10145 0.33258 0.0080546 0.061349 0.1079 0.086822 0.036375 0.21114 -0.071607 -0.071398 -0.1031 -0.16178 0.017913 -0.28048 -0.0059991 -0.13091 0.15037 -0.067086 0.16175 -0.034269 -0.12158 0.056178 0.25258 -0.13298 -0.015218 -0.22364 -0.16727 0.10092 0.10334 -0.20357 0.11919 -0.072476 -0.053413 0.0089228 -0.0067605 0.14645 0.17002 -0.2986 0.23095 0.26465 -0.2189 0.12478 -0.11248 0.097986 -0.012562 -0.12666 0.24437 -0.10919 0.018934 -0.24199 0.084715 0.048015 0.061767 0.22339 -0.040749 0.1566 0.099773 0.028436 0.20214 0.099159 0.093578 0.2595 -0.10248 -0.1915 -0.039858 -0.073192 0.029106 0.067778 0.24421 0.080169 0.0099262 0.055023 0.14749 0.14633 -0.078012 0.038974 0.14285 -0.092301 0.3494 -0.20462 -0.090409 -0.15265 0.18322 0.14008 0.16935 -0.37679 -0.41959 0.034882 0.015031 0.16995 0.015677 0.091537 
it 0.043023 -0.05437 0.11535 0.030988 0.12036 0.11871 -0.12975 0.024352 0.066687 0.30962 0.043347 -0.022456 0.079292 0.10966 0.031028 0.237 -0.054475 -0.04153 -0.071977 -0.15604 0.010902 -0.29539 -0.023483 -0.13396 0.14379 -0.13285 0.1757 -0.07715 -0.15332 0.06016 0.27893 -0.13826 0.0116 -0.21152 -0.18912 0.10846 0.078901 -0.17538 0.202 -0.11256 -0.014073 -0.013419 -0.003476 0.10644 0.17837 -0.2895 0.24546 0.24712 -0.23378 0.12816 -0.15096 0.039057 -0.025434 -0.12125 0.27308 -0.054584 0.070387 -0.20843 0.089929 0.098451 0.029223 0.20433 -0.03334 0.16188 0.11781 0.016704 0.2119 0.093088 0.1075 0.26606 -0.11642 -0.18238 -0.050292 -0.063116 0.049258 0.088014 0.26056 0.12729 -0.0069219 0.07201 0.19148 0.11606 -0.032732 0.063023 0.15113 -0.072436 0.3666 -0.18865 -0.073243 -0.1311 0.20748 0.14254 0.17464 -0.3618 -0.44655 0.019153 0.019823 0.20797 0.0074269 0.097996 
life 0.015951 -0.079233 0.075508 0.069763 0.11914 0.11803 -0.11254 0.041268 0.051558 0.29202 0.052629 -0.064267 0.079976 0.11549 -0.00032697 0.26755 -0.044911 -0.04074 -0.096161 -0.13944 0.0071128 -0.28383 -0.041855 -0.13321 0.11395 -0.16183 0.1735 -0.070039 -0.16923 0.065357 0.28554 -0.12214 0.022849 -0.23073 -0.21052 0.075293 0.09291 -0.17843 0.2332 -0.13184 -0.0077678 -0.054287 0.0015436 0.09693 0.18346 -0.28298 0.24832 0.22572 -0.22551 0.13843 -0.1492 0.03516 -0.041182 -0.11077 0.30137 -0.047456 0.081799 -0.19529 0.085519 0.12543 0.029029 0.20357 -0.011623 0.1674 0.12255 0.0077643 0.20135 0.095531 0.10174 0.26718 -0.12338 -0.14917 -0.044205 -0.042622 0.062884 0.12719 0.29033 0.15088 -0.0017075 0.077681 0.21502 0.13041 -0.039918 0.062578 0.14513 -0.068455 0.39421 -0.18373 -0.07663 -0.10438 0.20077 0.14597 0.17533 -0.35271 -0.45893 0.038687 0.037569 0.23771 0.036116 0.11569 
whether 0.019425 -0.062615 0.079044 0.044924 0.12402 0.10848 -0.1539 0.051308 0.08605 0.29345 0.07917 -0.053945 0.12006 0.083672 0.035665 0.24302 -0.046347 -0.023131 -0.12262 -0.131 0.030451 -0.30344 -0.0212 -0.16335 0.13282 -0.13447 0.16051 -0.10078 -0.16795 0.087925 0.29452 -0.13963 -0.01298 -0.219 -0.17018 0.10616 0.064163 -0.15243 0.18099 -0.093336 -0.032543 -0.045197 -0.035941 0.10275 0.20545 -0.25156 0.23199 0.24057 -0.26386 0.13791 -0.13157 0.046627 -0.022543 -0.11735 0.25744 -0.072168 0.080537 -0.20666 0.082916 0.11425 0.039221 0.22825 -0.027152 0.2157 0.10601 0.035205 0.23938 0.092396 0.12423 0.27019 -0.12011 -0.19241 -0.055488 -0.045727 0.039241 0.049852 0.25822 0.16168 0.00101 0.067575 0.2297 0.12493 -0.049704 0.052765 0.12011 -0.035767 0.36552 -0.19268 -0.090344 -0.097716 0.19749 0.12358 0.20423 -0.33632 -0.44057 0.016333 0.029886 0.19805 0.029357 0.10073 
The 0.067765 0.005422 0.17914 -0.032628 0.1488 0.1645 -0.12592 0.048626 0.097122 0.32252 0.019608 0.079252 0.097375 0.091583 0.036557 0.20631 -0.098313 -0.10799 -0.1164 -0.1789 -0.010413 -0.27733 0.0051023 -0.13119 0.16424 -0.031192 0.14354 -0.022792 -0.099292 0.036232 0.24776 -0.13334 0.00023766 -0.22333 -0.10464 0.14596 0.10728 -0.20205 0.11912 -0.087044 -0.062667 0.037841 0.0021075 0.14762 0.15139 -0.29599 0.21864 0.24564 -0.23659 0.12725 -0.12554 0.11575 -0.0078806 -0.13185 0.23063 -0.1344 0.020679 -0.23736 0.083101 0.054691 0.069265 0.22168 -0.019656 0.12261 0.093538 0.019973 0.16504 0.091722 0.052874 0.26374 -0.096053 -0.19809 -0.037929 -0.10094 0.033268 0.067454 0.25823 0.087139 -0.037723 0.024381 0.12151 0.15515 -0.082176 0.061613 0.18121 -0.11282 0.36464 -0.19196 -0.10099 -0.16911 0.20737 0.14224 0.16876 -0.40625 -0.43365 0.028706 0.03933 0.16261 0.012519 0.044563 
That 0.086308 0.068342 0.22299 -0.11818 0.15904 0.19562 -0.12409 0.048147 0.12731 0.31788 0.012681 0.19385 0.1028 0.089111 0.081825 0.171 -0.13429 -0.1668 -0.11149 -0.18732 -0.028004 -0.28525 0.033572 -0.13179 0.20936 0.078839 0.12966 0.025902 -0.026478 -0.01352 0.20632 -0.12426 0.015708 -0.21202 -0.026861 0.19862 0.093673 -0.21845 0.060023 -0.083973 -0.10512 0.10857 0.011711 0.15975 0.096741 -0.30577 0.18894 0.24953 -0.22293 0.10722 -0.11429 0.16458 0.0035136 -0.13395 0.15952 -0.19069 -0.046011 -0.25955 0.085318 0.010601 0.11694 0.20155 -0.036163 0.07121 0.059692 0.014719 0.13186 0.10029 -0.00091566 0.21052 -0.06795 -0.22506 -0.037825 -0.12396 0.036757 0.042661 0.2283 0.037081 -0.042223 0.003667 0.034277 0.14853 -0.10632 0.093392 0.21311 -0.14276 0.33077 -0.15431 -0.11374 -0.22205 0.21222 0.12474 0.16893 -0.41831 -0.42739 0.0076004 0.039435 0.10342 0.0041071 -0.016477 
had 0.045329 -0.06189 0.13188 0.031915 0.078025 0.11702 -0.14535 0.05504 0.053346 0.31584 0.052314 -0.0043255 0.096243 0.065152 0.055263 0.21458 -0.064096 -0.049463 -0.085781 -0.15115 -0.0053798 -0.25512 -0.016319 -0.13848 0.17511 -0.10163 0.17904 -0.067155 -0.14689 0.073727 0.26221 -0.14014 -0.023924 -0.2242 -0.17437 0.10047 0.079746 -0.20474 0.1915 -0.061833 -0.012349 -0.030497 -0.033372 0.098193 0.16843 -0.28809 0.26687 0.24563 -0.2363 0.12756 -0.16018 0.05671 -0.014913 -0.13619 0.27292 -0.095936 0.035163 -0.21226 0.067644 0.080958 0.025291 0.22931 -0.045745 0.18428 0.10164 0.034845 0.22436 0.087819 0.1165 0.27625 -0.11605 -0.15425 -0.044547 -0.049767 0.042347 0.081543 0.2573 0.12082 -0.006694 0.059992 0.16035 0.14334 -0.055572 0.037747 0.13827 -0.086236 0.34604 -0.17616 -0.11091 -0.12066 0.19795 0.13508 0.15264 -0.37254 -0.43592 0.032504 0.010762 0.1871 0.018725 0.10535 
way 0.058107 -0.058293 0.12984 0.017353 0.1143 0.11931 -0.11789 0.044671 0.080562 0.29598 0.028222 0.02652 0.092091 0.093887 0.042425 0.2347 -0.068251 -0.068693 -0.10581 -0.15584 0.000893 -0.27011 -0.016973 -0.13278 0.14961 -0.082926 0.15796 -0.055888 -0.12434 0.054879 0.25278 -0.12253 -0.017914 -0.23796 -0.15532 0.085419 0.076821 -0.18597 0.16152 -0.089734 -0.039308 -0.0039893 -0.011463 0.12461 0.15457 -0.30085 0.24035 0.24025 -0.21769 0.1164 -0.12834 0.077312 -0.015982 -0.12557 0.23847 -0.10997 0.028226 -0.22702 0.07171 0.076971 0.057358 0.21867 -0.035632 0.14833 0.11218 0.031513 0.19453 0.1048 0.081849 0.25524 -0.11637 -0.16731 -0.031412 -0.072624 0.055418 0.08203 0.25425 0.097614 0.0018881 0.057476 0.159 0.14593 -0.073595 0.055131 0.15889 -0.09149 0.35486 -0.17622 -0.095757 -0.12547 0.18907 0.14454 0.17377 -0.37468 -0.42812 0.035488 0.02823 0.17845 0.028885 0.087162 
things 0.041529 -0.03687 0.13363 0.018346 0.1252 0.11508 -0.13952 0.019617 0.057911 0.31846 0.048656 -0.013041 0.090049 0.11214 0.017336 0.20411 -0.067733 -0.039289 -0.08467 -0.16485 0.012565 -0.26433 -0.02418 -0.13355 0.13077 -0.13036 0.1688 -0.061938 -0.18452 0.070764 0.26619 -0.12843 0.0095641 -0.22494 -0.1944 0.092299 0.10057 -0.20599 0.18837 -0.093742 -0.0078853 0.014044 -0.016631 0.10644 0.17893 -0.29137 0.23467 0.25899 -0.24985 0.12886 -0.12839 0.043795 -0.024281 -0.12581 0.27594 -0.076171 0.074559 -0.20548 0.10555 0.082719 0.019538 0.21773 -0.050561 0.16023 0.097511 0.021318 0.20937 0.071107 0.12866 0.26288 -0.11263 -0.17848 -0.064435 -0.047175 0.035245 0.091131 0.27337 0.13364 -0.027152 0.061271 0.18055 0.13453 -0.05484 0.035772 0.14248 -0.092638 0.37851 -0.21932 -0.09131 -0.16531 0.18695 0.1573 0.17205 -0.37176 -0.43199 0.027128 0.008774 0.21377 0.0037186 0.097825 
many 0.039685 -0.062312 0.0935 0.049356 0.14705 0.12523 -0.084683 0.037953 0.075847 0.27107 0.029369 -0.017904 0.088773 0.10328 -0.0031444 0.26776 -0.03967 -0.067755 -0.11281 -0.14304 0.022619 -0.28101 -0.021738 -0.13901 0.10112 -0.12727 0.14387 -0.062348 -0.14534 0.057108 0.26622 -0.10628 0.0090691 -0.23886 -0.1661 0.10197 0.09529 -0.16786 0.19598 -0.1517 -0.040285 -0.030149 -0.0063772 0.11878 0.16171 -0.29373 0.23796 0.22188 -0.22788 0.12279 -0.10571 0.080514 -0.036934 -0.11242 0.25944 -0.087758 0.066661 -0.20618 0.086484 0.12037 0.066868 0.20308 0.0018295 0.14893 0.11386 0.018909 0.17287 0.09729 0.076247 0.26017 -0.1209 -0.16473 -0.031335 -0.060838 0.068263 0.11274 0.25939 0.14124 -0.0021791 0.049313 0.19891 0.15029 -0.083871 0.071614 0.14726 -0.087467 0.40156 -0.18457 -0.080103 -0.12307 0.1963 0.12333 0.18917 -0.35485 -0.44846 0.051357 0.081669 0.20814 0.051163 0.10046 
some 0.035047 -0.080079 0.10357 0.063714 0.099283 0.1031 -0.12345 0.037147 0.053714 0.29866 0.036711 -0.052737 0.0835 0.094962 0.014959 0.25325 -0.045534 -0.033423 -0.099509 -0.1567 0.0074577 -0.27724 -0.038172 -0.12293 0.11905 -0.16026 0.17592 -0.07165 -0.18101 0.084641 0.27472 -0.1324 -0.0054781 -0.23552 -0.20277 0.06938 0.086484 -0.18531 0.21159 -0.10306 -0.0089925 -0.042542 -0.013478 0.10036 0.18603 -0.28515 0.26963 0.24784 -0.224 0.12097 -0.13805 0.039761 -0.036872 -0.12969 0.29116 -0.064901 0.076407 -0.20802 0.075295 0.1048 0.02723 0.22803 -0.04662 0.18152 0.11911 0.036251 0.21156 0.090143 0.12473 0.28041 -0.12228 -0.15219 -0.043204 -0.047729 0.044765 0.098158 0.26817 0.14014 0.0015562 0.069964 0.20636 0.14091 -0.04882 0.043752 0.13032 -0.071757 0.3807 -0.19755 -0.093187 -0.10943 0.19555 0.15345 0.17102 -0.36158 -0.44491 0.038827 0.02702 0.20894 0.044272 0.12657 
those 0.060813 -0.086285 0.12991 0.066481 0.085264 0.088064 -0.14027 0.035435 0.065953 0.32179 0.013845 -0.013886 0.092296 0.11052 -0.002225 0.22987 -0.0565 -0.027407 -0.095737 -0.16065 0.021494 -0.26739 -0.033406 -0.12432 0.11253 -0.12962 0.18214 -0.074287 -0.18233 0.075106 0.28015 -0.12389 -0.025618 -0.23862 -0.21757 0.080313 0.10016 -0.20727 0.19063 -0.091117 -0.016075 -0.040904 -0.0091673 0.10503 0.19564 -0.28847 0.2526 0.25041 -0.21366 0.14275 -0.13245 0.054396 -0.022069 -0.11897 0.27374 -0.081114 0.06283 -0.20541 0.084311 0.072954 0.043705 0.2318 -0.041266 0.17087 0.111 0.03054 0.2131 0.08521 0.12365 0.27289 -0.12464 -0.15187 -0.036984 -0.042653 0.033122 0.095389 0.27204 0.12807 0.003316 0.079822 0.20024 0.13218 -0.089141 0.032333 0.1382 -0.069177 0.35972 -0.22417 -0.082326 -0.11963 0.18536 0.14582 0.15981 -0.3742 -0.41005 0.055502 0.004633 0.21169 0.024065 0.12556 
how 0.085207 -0.019159 0.1699 -0.033824 0.1597 0.15166 -0.1021 0.051399 0.1187 0.29791 -0.00031582 0.128 0.1106 0.084048 0.049466 0.23033 -0.094912 -0.13583 -0.14385 -0.171 0.0042926 -0.29604 0.0081138 -0.1309 0.18016 0.0011914 0.13372 0.0027156 -0.064003 0.010136 0.23951 -0.12088 -0.0059088 -0.24997 -0.078529 0.13477 0.101 -0.20097 0.10901 -0.1197 -0.09931 0.046913 -0.0067008 0.16366 0.106 -0.31271 0.20788 0.24889 -0.22831 0.10414 -0.10635 0.15098 0.00032452 -0.11716 0.19971 -0.16757 -0.014852 -0.25696 0.083985 0.052511 0.12476 0.22002 -0.022503 0.10503 0.085165 0.02808 0.14874 0.11973 0.031019 0.22711 -0.076614 -0.21099 -0.021396 -0.10722 0.059082 0.088388 0.23881 0.074819 0.0028714 0.029097 0.1181 0.16545 -0.12532 0.091354 0.18973 -0.1127 0.36249 -0.16867 -0.11367 -0.17961 0.18997 0.1332 0.18112 -0.42229 -0.44673 0.046559 0.078371 0.14071 0.035517 0.046164 
mean 0.094389 0.092606 0.26989 -0.16058 0.18599 0.20575 -0.098848 0.05306 0.17147 0.33405 -0.002494 0.24775 0.12955 0.10445 0.10866 0.18404 -0.16626 -0.20986 -0.13309 -0.22047 -0.029675 -0.31921 0.058901 -0.13948 0.22634 0.13564 0.11498 0.062639 -0.0035535 -0.033348 0.20293 -0.13946 0.020753 -0.2358 -0.0056906 0.20936 0.11381 -0.23239 0.035235 -0.10871 -0.13122 0.14975 0.0086088 0.21665 0.057772 -0.35831 0.17186 0.27627 -0.22375 0.089171 -0.080608 0.20986 0.019933 -0.13827 0.14064 -0.24129 -0.08697 -0.30128 0.106 0.0016223 0.16439 0.20775 -0.027062 0.041929 0.048931 0.019691 0.11043 0.11254 -0.027822 0.19574 -0.056698 -0.27067 -0.038708 -0.15337 0.044836 0.056979 0.23662 0.013956 -0.03116 -0.027902 -0.00021334 0.18291 -0.14111 0.11194 0.24883 -0.17265 0.35598 -0.16036 -0.12548 -0.26589 0.21348 0.12685 0.17262 -0.47273 -0.45415 0.014744 0.070655 0.081798 -0.0028351 -0.035001 
knowledge 0.03656 -0.034184 0.13394 0.019824 0.12571 0.12153 -0.15544 0.025082 0.069689 0.32802 0.053364 -0.012113 0.095983 0.12223 0.012084 0.22739 -0.061098 -0.04161 -0.076586 -0.16108 0.0095848 -0.29523 -0.035762 -0.13931 0.15185 -0.142 0.18314 -0.068412 -0.19093 0.059502 0.295 -0.14522 0.019488 -0.21231 -0.20761 0.10364 0.101 -0.19941 0.18687 -0.10468 -0.008805 0.0044573 0.0070219 0.10318 0.19707 -0.29423 0.25178 0.26584 -0.24871 0.13349 -0.14286 0.022642 -0.012863 -0.11485 0.27044 -0.046891 0.080326 -0.21659 0.11869 0.088458 0.019422 0.20771 -0.046787 0.16612 0.09791 0.020852 0.22024 0.084781 0.1127 0.26515 -0.11342 -0.19726 -0.066685 -0.054864 0.036431 0.088475 0.26237 0.12814 -0.016201 0.075793 0.17698 0.11984 -0.026689 0.053673 0.13947 -0.074995 0.37366 -0.21587 -0.063014 -0.16101 0.20293 0.13966 0.17179 -0.37468 -0.44712 0.024355 0.0025618 0.21271 -0.0045161 0.091772 
