1284 100
, -0.15611 0.037905 -0.0107 -0.17733 0.08244 0.006656 0.074023 -0.038335 0.062864 0.037555 0.0046538 -0.074398 0.0042124 -0.18808 0.43698 -0.23211 -0.065986 0.15224 -0.25116 -0.076667 -0.052251 0.17432 -0.084031 -0.069366 -0.058467 0.12385 0.3074 -0.058449 0.16458 0.18584 0.15398 0.16803 -0.081685 -0.2804 -0.063287 0.22322 -0.035583 -0.17269 0.030414 0.036002 0.0094731 -0.0334 -0.081723 0.13961 -0.023439 0.049873 0.22983 -0.024928 0.0027202 -0.067546 -0.10618 0.088036 -0.074012 0.18338 -0.27678 -0.14926 0.097105 0.089838 -0.15142 -0.40053 -0.017044 0.057942 0.35907 0.058912 0.16879 -0.38067 -0.010718 -0.093923 -0.13673 -0.17891 -0.35172 0.12906 0.15831 0.15265 0.12857 0.031017 0.14349 0.2314 0.18083 0.22325 -0.15396 0.18451 0.19845 -0.10758 0.075893 -0.12538 0.12311 -0.18091 -0.042059 0.10578 0.10652 -0.22105 0.17878 -0.091477 0.040588 0.15993 0.17807 0.35528 -0.18958 -0.020463 
et -0.16627 0.032396 -0.001655 -0.15278 0.073816 -0.00037842 0.067593 -0.039916 0.049216 0.032146 4.5141e-05 -0.06779 -0.0087346 -0.21535 0.43221 -0.24829 -0.063093 0.17078 -0.25341 -0.064117 -0.054898 0.16833 -0.10786 -0.069404 -0.050205 0.12587 0.30662 -0.031214 0.17427 0.18935 0.16907 0.13689 -0.080013 -0.27182 -0.060018 0.22203 -0.042127 -0.15283 0.0072392 0.044623 -0.010612 -0.028823 -0.093508 0.14068 -0.023298 0.035991 0.22599 -0.021847 0.0014524 -0.064237 -0.078995 0.089754 -0.061956 0.16805 -0.28519 -0.14649 0.087598 0.10142 -0.15495 -0.41263 -0.0087862 0.05838 0.34863 0.045606 0.17801 -0.38894 -0.020024 -0.089524 -0.13073 -0.18102 -0.34527 0.12367 0.14885 0.15401 0.1273 0.028833 0.14296 0.22269 0.16293 0.22548 -0.15244 0.16334 0.20801 -0.084666 0.085497 -0.12213 0.13261 -0.18593 -0.044498 0.12706 0.094159 -0.21553 0.15585 -0.097451 0.035939 0.1835 0.18248 0.3558 -0.18889 0.0040793 
</s> -0.15594 0.041804 -0.0084807 -0.16946 0.079568 0.012384 0.063743 -0.026313 0.058566 0.03658 0.0052385 -0.07804 -0.00011883 -0.19811 0.44152 -0.23635 -0.059888 0.15064 -0.2441 -0.060562 -0.05793 0.18476 -0.10576 -0.066587 -0.073215 0.13224 0.31202 -0.050844 0.16759 0.18826 0.16559 0.15283 -0.073762 -0.26867 -0.047694 0.23031 -0.045559 -0.15579 0.025816 0.039208 0.010916 -0.036236 -0.087999 0.15273 -0.024986 0.046583 0.23021 -0.025861 -0.0044009 -0.066056 -0.092294 0.091966 -0.075769 0.19962 -0.29017 -0.14233 0.092548 0.10576 -0.15532 -0.40925 -0.018365 0.070699 0.36367 0.042857 0.17419 -0.39135 -0.012469 -0.097864 -0.15477 -0.18214 -0.34225 0.12815 0.16097 0.15369 0.13588 0.037379 0.14512 0.22226 0.17914 0.23262 -0.14146 0.17918 0.20536 -0.085144 0.079754 -0.1192 0.13186 -0.17882 -0.035238 0.12159 0.096133 -0.22085 0.17101 -0.10047 0.034729 0.17451 0.16628 0.3475 -0.1813 -0.0030566 
. -0.16155 0.039817 -0.0091124 -0.16958 0.087135 0.016607 0.064779 -0.029206 0.056349 0.038834 0.0017489 -0.063437 -0.011355 -0.19455 0.44461 -0.24089 -0.070464 0.14872 -0.24508 -0.057928 -0.044209 0.18596 -0.10204 -0.0736 -0.07405 0.13673 0.31628 -0.057134 0.16379 0.18477 0.16534 0.16376 -0.078627 -0.25305 -0.047258 0.23406 -0.035972 -0.16668 0.034147 0.039854 0.0040322 -0.047049 -0.089904 0.1461 -0.02754 0.043224 0.22698 -0.022295 -0.0016565 -0.060295 -0.10112 0.084299 -0.070461 0.19263 -0.29936 -0.14658 0.10316 0.10169 -0.15602 -0.40254 -0.029397 0.070277 0.34951 0.032986 0.17267 -0.38289 -0.019232 -0.10285 -0.14984 -0.1855 -0.33572 0.129 0.1524 0.15655 0.12897 0.034733 0.1414 0.22901 0.18613 0.22562 -0.14644 0.19282 0.21228 -0.075206 0.087907 -0.11768 0.13291 -0.1756 -0.035558 0.10995 0.091551 -0.21916 0.17715 -0.095556 0.029079 0.16542 0.16694 0.35219 -0.18582 -0.009524 
in -0.15333 0.027453 -0.010332 -0.1686 0.088043 0.017441 0.079797 -0.033738 0.065876 0.029755 0.0065051 -0.065046 -0.0014017 -0.18812 0.43118 -0.22536 -0.056121 0.14471 -0.23246 -0.057303 -0.05023 0.1676 -0.11614 -0.081377 -0.069148 0.13763 0.3095 -0.042116 0.18194 0.1983 0.16225 0.16019 -0.085635 -0.2595 -0.050667 0.22019 -0.046168 -0.1591 0.028465 0.034512 0.0015405 -0.051644 -0.077586 0.149 -0.031221 0.038152 0.22717 -0.027244 -0.0017799 -0.067959 -0.088131 0.089241 -0.076964 0.18651 -0.28168 -0.14207 0.09094 0.10822 -0.155 -0.40676 -0.027931 0.06171 0.34398 0.043898 0.16615 -0.38619 -0.010828 -0.094971 -0.15238 -0.17441 -0.33458 0.11281 0.1448 0.15248 0.1268 0.022553 0.14339 0.22275 0.1706 0.23096 -0.13409 0.18727 0.20681 -0.084253 0.079101 -0.1146 0.12134 -0.17946 -0.02659 0.12334 0.091289 -0.21537 0.17856 -0.097241 0.030554 0.16691 0.16389 0.33211 -0.19333 -0.0086936 
est -0.14413 0.03747 -0.0098263 -0.17488 0.077798 0.0082249 0.079624 -0.034176 0.052774 0.039965 0.0011603 -0.070662 -0.00011157 -0.18678 0.429 -0.21761 -0.068848 0.135 -0.24565 -0.076545 -0.050767 0.17078 -0.092305 -0.064889 -0.070478 0.12688 0.314 -0.056946 0.16257 0.18675 0.15276 0.16586 -0.076499 -0.24856 -0.045705 0.23177 -0.052396 -0.15969 0.029917 0.023828 0.016464 -0.051608 -0.086712 0.14143 -0.020685 0.03813 0.22706 -0.030206 -0.0019865 -0.06402 -0.090907 0.080921 -0.071611 0.19211 -0.27999 -0.1347 0.09964 0.094609 -0.14568 -0.39999 -0.024806 0.048102 0.34779 0.049134 0.17843 -0.37846 -0.0072089 -0.09443 -0.14521 -0.17163 -0.33217 0.11539 0.14954 0.15763 0.12618 0.031336 0.1377 0.21146 0.18728 0.2208 -0.12909 0.18552 0.19466 -0.099803 0.078557 -0.11389 0.11362 -0.17868 -0.044572 0.11624 0.099653 -0.21808 0.17921 -0.088828 0.03398 0.15108 0.1581 0.33442 -0.18758 -0.015874 
de -0.14877 0.077305 -0.0051666 -0.16685 0.049891 0.021237 0.040643 -0.0017111 0.07052 0.043553 -0.013587 -0.098569 0.0038951 -0.17826 0.41636 -0.23725 -0.017279 0.16956 -0.259 -0.031745 -0.063465 0.19346 -0.089282 -0.055683 -0.052942 0.1351 0.27334 -0.034106 0.15276 0.1489 0.1939 0.10113 -0.081932 -0.25082 -0.062239 0.21489 -0.01305 -0.14971 0.02535 0.069705 -0.023932 -0.024335 -0.068223 0.17023 -0.012357 0.024402 0.2375 -0.018725 -0.0071288 -0.062577 -0.10495 0.076934 -0.10694 0.19684 -0.29448 -0.14425 0.076669 0.11645 -0.13283 -0.3859 -0.037336 0.093319 0.35013 0.022249 0.1861 -0.41526 -0.023497 -0.10201 -0.16536 -0.18045 -0.33841 0.1245 0.16611 0.16259 0.12772 0.0598 0.14374 0.19293 0.16646 0.24641 -0.11703 0.15845 0.18925 -0.052274 0.055792 -0.11036 0.17137 -0.14632 -0.017705 0.10069 0.082824 -0.215 0.14352 -0.11876 0.059385 0.18122 0.15719 0.34998 -0.13623 -0.0067881 
ad -0.16106 0.033094 -0.010661 -0.16652 0.085564 0.015625 0.067453 -0.02029 0.050422 0.031295 0.0090191 -0.07225 -0.0033669 -0.18824 0.44108 -0.24015 -0.066081 0.15286 -0.24146 -0.05892 -0.050339 0.17114 -0.10496 -0.071151 -0.073236 0.14132 0.30934 -0.045311 0.17023 0.18682 0.16096 0.16861 -0.07828 -0.26076 -0.050616 0.23031 -0.037331 -0.16187 0.034812 0.037608 0.0086739 -0.035451 -0.088928 0.14896 -0.031181 0.040881 0.22494 -0.022111 0.013201 -0.053714 -0.1048 0.086748 -0.077715 0.19999 -0.27988 -0.14481 0.091181 0.099015 -0.15258 -0.40385 -0.018228 0.066322 0.35951 0.043854 0.1675 -0.39034 -0.025672 -0.09268 -0.15376 -0.1868 -0.33522 0.12856 0.16055 0.14865 0.13799 0.037781 0.1375 0.2332 0.18047 0.22961 -0.15047 0.18385 0.2122 -0.076402 0.083173 -0.10856 0.13346 -0.17759 -0.034292 0.11608 0.082027 -0.21629 0.16549 -0.09635 0.030441 0.18137 0.16773 0.35172 -0.18113 -0.0054524 
quod -0.17602 0.0062375 0.0066868 -0.16382 0.11619 -0.0042831 0.076249 -0.038795 0.053704 0.041361 0.0037665 -0.045347 -0.01804 -0.18651 0.44418 -0.2396 -0.052893 0.16419 -0.23882 -0.069346 -0.039189 0.14085 -0.14227 -0.092991 -0.075682 0.15567 0.31011 -0.038504 0.19586 0.21966 0.17638 0.16756 -0.079268 -0.25798 -0.054938 0.21998 -0.032146 -0.17957 0.0068791 0.04629 -0.0070518 -0.046047 -0.087219 0.1592 -0.022251 0.01485 0.2244 -0.019928 -0.0094225 -0.077987 -0.084766 0.094608 -0.07097 0.1677 -0.28936 -0.13846 0.097263 0.10675 -0.14963 -0.40822 -0.027696 0.065368 0.3496 0.031569 0.17398 -0.39786 -0.011405 -0.080309 -0.14586 -0.18301 -0.32556 0.11752 0.12944 0.15339 0.13808 0.02677 0.1564 0.24648 0.18536 0.22776 -0.14519 0.18455 0.23013 -0.059278 0.07973 -0.12484 0.1411 -0.19652 -0.035354 0.1246 0.075431 -0.24375 0.18634 -0.088434 0.016371 0.19388 0.18543 0.35692 -0.17907 -0.0069186 
Et -0.15739 0.037702 -0.0045307 -0.1624 0.081972 0.012044 0.075108 -0.031295 0.057165 0.027546 0.0015452 -0.071412 0.0007593 -0.19443 0.43761 -0.23694 -0.058437 0.15156 -0.23668 -0.061555 -0.052846 0.17261 -0.10068 -0.076257 -0.068756 0.14312 0.312 -0.046511 0.17995 0.18125 0.16785 0.15844 -0.079413 -0.26157 -0.0421 0.22752 -0.052277 -0.15377 0.021445 0.040225 0.010127 -0.035916 -0.084284 0.14271 -0.03207 0.03336 0.22015 -0.022397 -0.00085041 -0.063106 -0.095363 0.08041 -0.070787 0.18623 -0.27783 -0.13892 0.089018 0.10514 -0.14446 -0.4042 -0.029737 0.069972 0.3566 0.050546 0.16844 -0.38825 -0.01734 -0.086891 -0.14688 -0.18153 -0.32828 0.11171 0.15181 0.15445 0.12364 0.039251 0.14065 0.22345 0.17409 0.2266 -0.13733 0.18447 0.2103 -0.086346 0.074334 -0.11642 0.13197 -0.17525 -0.041452 0.11575 0.091559 -0.21546 0.17453 -0.092842 0.031667 0.17219 0.15891 0.33978 -0.17969 -0.0077668 
non -0.1641 0.028708 -0.0097131 -0.17301 0.089743 0.0086927 0.079172 -0.034416 0.058376 0.034362 0.0049288 -0.067805 -0.0036434 -0.19947 0.43432 -0.2337 -0.068225 0.1443 -0.24243 -0.070868 -0.052906 0.1724 -0.10988 -0.079344 -0.074045 0.14235 0.31327 -0.041096 0.17391 0.19166 0.17136 0.16556 -0.075893 -0.26114 -0.044216 0.22389 -0.047557 -0.15526 0.030377 0.031872 0.010681 -0.044055 -0.089651 0.14885 -0.026872 0.035255 0.22918 -0.02557 0.0040587 -0.061852 -0.094768 0.076058 -0.073389 0.19024 -0.28596 -0.14396 0.091156 0.10645 -0.1553 -0.40823 -0.025912 0.065889 0.35147 0.048522 0.16864 -0.38247 -0.012178 -0.092637 -0.14915 -0.17592 -0.32629 0.11544 0.15385 0.14904 0.12718 0.033301 0.14321 0.22713 0.18502 0.22978 -0.14327 0.18126 0.20825 -0.089011 0.071507 -0.11619 0.12548 -0.18477 -0.031873 0.11096 0.081719 -0.22475 0.17909 -0.091311 0.02811 0.16658 0.1668 0.33974 -0.18486 -0.01247 
que -0.17163 0.013274 -0.006595 -0.15702 0.091084 -0.010842 0.086814 -0.03779 0.04532 0.042051 -0.0047353 -0.057811 -0.0011091 -0.20658 0.43389 -0.23704 -0.075311 0.15928 -0.23845 -0.085377 -0.051426 0.15186 -0.12818 -0.07841 -0.061464 0.14978 0.31301 -0.030097 0.19076 0.20325 0.16954 0.17176 -0.07601 -0.27023 -0.043433 0.21745 -0.053859 -0.15982 0.004858 0.029531 0.01526 -0.04221 -0.093936 0.13814 -0.023294 0.015721 0.23615 -0.024454 0.007359 -0.060226 -0.088806 0.09317 -0.067115 0.15879 -0.27978 -0.1459 0.10422 0.096087 -0.15268 -0.41307 -0.018305 0.056957 0.35559 0.054116 0.17345 -0.38174 -0.0069462 -0.094294 -0.13779 -0.17073 -0.33381 0.12599 0.14553 0.15509 0.12388 0.029147 0.15777 0.23674 0.18346 0.21392 -0.14956 0.18074 0.21326 -0.10169 0.076974 -0.12315 0.11169 -0.1939 -0.052042 0.10261 0.081964 -0.22375 0.1745 -0.085282 0.027138 0.18215 0.18108 0.35993 -0.20093 -0.013675 
sunt -0.1709 0.021437 -0.0042046 -0.1789 0.10167 -0.0020376 0.091361 -0.034777 0.053735 0.031398 0.0062929 -0.057448 0.0021069 -0.19885 0.44063 -0.225 -0.051749 0.14662 -0.24941 -0.073515 -0.052583 0.17095 -0.11301 -0.086041 -0.068383 0.14036 0.31621 -0.046819 0.18727 0.19853 0.16177 0.17976 -0.075656 -0.2691 -0.054757 0.22684 -0.047442 -0.16062 0.028604 0.024101 0.011109 -0.042602 -0.083006 0.1464 -0.024961 0.030089 0.23046 -0.033253 0.00027137 -0.062486 -0.088606 0.08278 -0.070262 0.19147 -0.28174 -0.15063 0.10801 0.088573 -0.1664 -0.3912 -0.028993 0.065745 0.34288 0.044899 0.16925 -0.38226 -0.013271 -0.10111 -0.13911 -0.17871 -0.33051 0.13712 0.15447 0.16086 0.13079 0.029485 0.13495 0.23 0.18187 0.22042 -0.15087 0.19555 0.20832 -0.094464 0.085001 -0.11576 0.11914 -0.18988 -0.032563 0.10556 0.081327 -0.23354 0.1812 -0.084643 0.020484 0.16686 0.1805 0.34433 -0.18146 -0.019471 
per -0.1566 0.040093 -0.011454 -0.16774 0.074764 0.015273 0.085535 -0.031405 0.057119 0.020179 0.0039927 -0.063054 0.0009722 -0.21102 0.4426 -0.24216 -0.072883 0.14587 -0.24926 -0.068182 -0.057013 0.17398 -0.1017 -0.073333 -0.079503 0.13845 0.32749 -0.036079 0.19245 0.1977 0.1675 0.16559 -0.08525 -0.26365 -0.039218 0.23921 -0.062151 -0.14483 0.03225 0.022775 0.022641 -0.048241 -0.088913 0.13548 -0.026718 0.033789 0.22057 -0.026067 -0.00053318 -0.063474 -0.09685 0.092451 -0.066772 0.19686 -0.30119 -0.14324 0.1043 0.093851 -0.16111 -0.41954 -0.030521 0.052635 0.36374 0.055424 0.16919 -0.39462 -0.024057 -0.082911 -0.1481 -0.17657 -0.32885 0.12249 0.14752 0.14734 0.1349 0.028533 0.15605 0.23493 0.17118 0.22596 -0.1496 0.19448 0.2103 -0.10971 0.091796 -0.10619 0.12435 -0.19512 -0.037271 0.12385 0.089601 -0.22835 0.17032 -0.10257 0.026606 0.1713 0.17038 0.34591 -0.19612 -0.0075818 
cum -0.16003 0.026191 0.0027096 -0.1532 0.098518 0.022006 0.052918 -0.017695 0.053096 0.028618 0.0030149 -0.056343 -0.019307 -0.18421 0.43868 -0.24019 -0.042429 0.16345 -0.22899 -0.029505 -0.028764 0.15492 -0.14364 -0.084779 -0.07652 0.13765 0.28708 -0.044963 0.17167 0.19729 0.16981 0.13685 -0.075912 -0.23784 -0.051088 0.21705 -0.025248 -0.16082 0.017633 0.056129 -0.025009 -0.043742 -0.089257 0.1659 -0.028005 0.020138 0.21281 -0.023111 -0.0040618 -0.060723 -0.089424 0.10115 -0.077312 0.17959 -0.28514 -0.13381 0.088393 0.12219 -0.13635 -0.38349 -0.022912 0.080381 0.33988 0.015644 0.17375 -0.3976 -0.020445 -0.075303 -0.14227 -0.18258 -0.32263 0.12486 0.13601 0.14008 0.12518 0.030428 0.15184 0.23284 0.16642 0.2366 -0.14683 0.16965 0.22604 -0.023792 0.082106 -0.11763 0.14235 -0.176 -0.014931 0.12872 0.066191 -0.23407 0.15482 -0.095599 0.011689 0.19321 0.165 0.33679 -0.17324 0.004192 
vel -0.15909 0.036072 0.0053901 -0.17419 0.073298 0.010965 0.06816 -0.037631 0.054488 0.036753 0.0085986 -0.079109 0.0051167 -0.18844 0.43632 -0.21805 -0.068776 0.1404 -0.25092 -0.075285 -0.054796 0.18253 -0.11321 -0.067399 -0.072128 0.14036 0.30625 -0.049349 0.16241 0.18123 0.16136 0.15884 -0.06613 -0.26 -0.048561 0.23093 -0.047569 -0.15103 0.023669 0.028426 0.0079574 -0.048896 -0.093193 0.14573 -0.02074 0.031852 0.22871 -0.028289 0.0014012 -0.069397 -0.080133 0.092377 -0.072811 0.19971 -0.29742 -0.13679 0.093917 0.10512 -0.15824 -0.40946 -0.021237 0.057767 0.35009 0.052491 0.17614 -0.39879 0.0044852 -0.085774 -0.15242 -0.17667 -0.34029 0.11565 0.1478 0.14765 0.12755 0.026905 0.14677 0.21684 0.19058 0.2278 -0.14218 0.18689 0.20814 -0.095514 0.073693 -0.11118 0.12924 -0.17563 -0.041329 0.10185 0.089749 -0.22771 0.18612 -0.098281 0.037696 0.16108 0.16185 0.34079 -0.18803 -0.020354 
Capitulum -0.13194 0.06379 0.0087785 -0.1395 0.059782 0.034479 0.023035 -0.012704 0.060275 0.035692 0.0098415 -0.080529 0.00091771 -0.1485 0.38136 -0.21118 -0.017242 0.12884 -0.21974 0.005973 -0.041768 0.18397 -0.1146 -0.063046 -0.065295 0.13087 0.25063 -0.047377 0.13847 0.13995 0.16756 0.081293 -0.065152 -0.22319 -0.057374 0.21104 0.0057441 -0.14323 0.013844 0.049371 -0.019822 -0.033484 -0.069344 0.16023 -0.017699 0.040743 0.19945 -0.013934 -0.0204 -0.078812 -0.066716 0.11393 -0.086433 0.19361 -0.28717 -0.1058 0.063793 0.12183 -0.13364 -0.34804 -0.042403 0.090683 0.33038 -0.0011239 0.16158 -0.39238 -0.01464 -0.071553 -0.14786 -0.15806 -0.30863 0.12876 0.12595 0.14023 0.12715 0.041323 0.13579 0.1985 0.15951 0.21648 -0.12052 0.14516 0.18969 -0.015421 0.061972 -0.09941 0.15373 -0.13247 -0.015453 0.12013 0.089574 -0.20392 0.15987 -0.13161 0.047289 0.18452 0.13489 0.30318 -0.14178 0.003881 
quia -0.17038 0.0072986 0.0020206 -0.16894 0.12316 -0.0034301 0.078723 -0.029761 0.046689 0.036027 -0.0044872 -0.045877 -0.015557 -0.18171 0.44561 -0.22268 -0.055526 0.15461 -0.23707 -0.082382 -0.038389 0.15202 -0.13393 -0.085861 -0.081828 0.16001 0.31023 -0.043876 0.18561 0.20929 0.15594 0.17739 -0.071535 -0.26266 -0.051855 0.22077 -0.036366 -0.18136 0.012708 0.026001 0.0060772 -0.044575 -0.09134 0.15758 -0.017189 0.015763 0.22268 -0.026705 -0.0074344 -0.076447 -0.080636 0.098716 -0.072084 0.17179 -0.27802 -0.14359 0.10738 0.10379 -0.15152 -0.38835 -0.028566 0.059286 0.33968 0.031431 0.16776 -0.37989 -0.0065695 -0.083489 -0.14307 -0.17782 -0.3245 0.12726 0.13378 0.15035 0.12939 0.031257 0.14526 0.23822 0.19252 0.22397 -0.13692 0.18892 0.22755 -0.059344 0.081622 -0.1198 0.12148 -0.19553 -0.03184 0.11065 0.078823 -0.23231 0.19059 -0.083934 0.0099524 0.17855 0.1819 0.34913 -0.18028 -0.014855 
qui -0.18103 -0.010384 0.0071526 -0.16744 0.13756 -0.01121 0.078413 -0.042293 0.048024 0.042413 -0.0051689 -0.040824 -0.02408 -0.17802 0.45094 -0.23216 -0.047169 0.15993 -0.22762 -0.0842 -0.040038 0.13721 -0.1539 -0.093735 -0.082077 0.17527 0.31059 -0.04876 0.2 0.22104 0.16707 0.17997 -0.076265 -0.25749 -0.05816 0.21346 -0.031136 -0.18818 -0.00054767 0.034751 -0.0099619 -0.046407 -0.084168 0.16742 -0.021431 0.012019 0.21457 -0.021586 -0.011616 -0.082704 -0.075918 0.10368 -0.073688 0.15582 -0.28047 -0.14267 0.11328 0.11268 -0.15076 -0.39118 -0.030011 0.061433 0.34 0.022982 0.17329 -0.38505 -0.0024614 -0.075618 -0.14613 -0.17189 -0.32368 0.11775 0.12591 0.15473 0.13161 0.024316 0.15737 0.25029 0.19774 0.22485 -0.13844 0.18909 0.23819 -0.042679 0.079205 -0.11876 0.13214 -0.19883 -0.025562 0.11458 0.072619 -0.23873 0.20137 -0.08389 -0.00090275 0.19306 0.19059 0.35261 -0.18055 -0.016014 
ex -0.15698 0.030496 -0.0077073 -0.16382 0.089816 0.019977 0.077256 -0.029084 0.055021 0.038353 -0.0090984 -0.063689 -0.0027139 -0.17824 0.443 -0.2293 -0.05567 0.14636 -0.2511 -0.074873 -0.05321 0.17451 -0.096167 -0.068333 -0.072162 0.13278 0.3123 -0.050334 0.17183 0.18916 0.16723 0.16196 -0.071856 -0.25594 -0.041846 0.22321 -0.046772 -0.16178 0.023913 0.020618 0.012859 -0.041272 -0.088153 0.14299 -0.016836 0.033596 0.22916 -0.038319 -0.0053269 -0.074185 -0.09124 0.095417 -0.070218 0.19829 -0.29153 -0.13784 0.10231 0.098981 -0.1464 -0.3979 -0.026161 0.060883 0.34161 0.041426 0.17653 -0.38731 -0.0089154 -0.096572 -0.15102 -0.17583 -0.34251 0.11711 0.15723 0.14338 0.12549 0.037465 0.14516 0.22326 0.18545 0.23144 -0.12698 0.19128 0.20367 -0.082116 0.072826 -0.11601 0.11823 -0.18675 -0.033484 0.10181 0.10133 -0.22684 0.18516 -0.095668 0.029541 0.16552 0.16948 0.35566 -0.17628 -0.015438 
ut -0.15001 0.014168 0.0057436 -0.17238 0.078546 -0.0058308 0.095277 -0.044077 0.060591 0.041719 0.0081392 -0.063539 0.0091229 -0.19396 0.42682 -0.21532 -0.05618 0.12536 -0.23856 -0.083834 -0.065823 0.17198 -0.089893 -0.074179 -0.061281 0.13752 0.30337 -0.05719 0.16831 0.18223 0.16378 0.17855 -0.089879 -0.27305 -0.061774 0.21284 -0.039034 -0.15671 0.033024 0.024984 0.00068658 -0.040973 -0.074535 0.13735 -0.016947 0.041661 0.23521 -0.039407 0.0026648 -0.049842 -0.08393 0.085024 -0.070935 0.19599 -0.29095 -0.1612 0.11232 0.098133 -0.16036 -0.40843 -0.035826 0.063386 0.34288 0.054388 0.15519 -0.39587 0.0045049 -0.087718 -0.13785 -0.16852 -0.34456 0.13091 0.1605 0.1548 0.12228 0.033191 0.14454 0.21816 0.19 0.21485 -0.14968 0.19235 0.20418 -0.10404 0.073244 -0.10749 0.1054 -0.16908 -0.022058 0.098787 0.086723 -0.23028 0.1856 -0.088405 0.028469 0.15621 0.17185 0.34438 -0.19134 -0.022985 
: -0.15421 0.028544 -0.017318 -0.17693 0.085901 0.0036023 0.067164 -0.02473 0.051875 0.031843 0.0016105 -0.071744 -0.009255 -0.18408 0.44551 -0.2334 -0.061335 0.14971 -0.23288 -0.07764 -0.049739 0.15792 -0.10513 -0.073716 -0.072346 0.13623 0.32569 -0.041575 0.16473 0.19009 0.17422 0.1816 -0.074751 -0.25292 -0.054246 0.2088 -0.056165 -0.16716 0.015582 0.044153 0.010871 -0.037908 -0.083607 0.14328 -0.029432 0.020986 0.2333 -0.016707 0.011258 -0.079067 -0.1025 0.098682 -0.071806 0.18106 -0.2876 -0.13863 0.088852 0.086027 -0.14947 -0.41196 -0.030518 0.060694 0.35289 0.056456 0.17153 -0.3905 -0.010975 -0.091013 -0.14855 -0.1841 -0.34558 0.10965 0.14562 0.14927 0.13181 0.041954 0.14514 0.23453 0.19207 0.2331 -0.1366 0.18672 0.21136 -0.09333 0.087021 -0.12039 0.12975 -0.1894 -0.052707 0.11205 0.090714 -0.22722 0.16389 -0.08602 0.043003 0.16468 0.16327 0.35242 -0.17474 -0.023971 
) -0.13984 0.073926 0.0062285 -0.15398 0.055151 0.024372 0.034575 -0.020184 0.067115 0.040579 0.0042113 -0.092334 0.001896 -0.17894 0.4001 -0.21542 -0.029334 0.15574 -0.2534 -0.017395 -0.047296 0.19203 -0.1293 -0.057843 -0.061602 0.14805 0.27776 -0.033943 0.14762 0.14974 0.18051 0.11263 -0.052865 -0.23213 -0.058027 0.23566 -8.093e-05 -0.14483 4.6705e-05 0.043538 -0.013896 -0.03984 -0.088436 0.16103 -0.01533 0.030936 0.21832 -0.034512 -0.022798 -0.07924 -0.07296 0.10779 -0.085052 0.19411 -0.30181 -0.12419 0.066107 0.12767 -0.14225 -0.37338 -0.046313 0.068967 0.33268 0.014593 0.18249 -0.41958 0.0071966 -0.06834 -0.15545 -0.17555 -0.33205 0.11771 0.12748 0.13195 0.12731 0.029991 0.159 0.20153 0.17691 0.21985 -0.13129 0.16485 0.20228 -0.038826 0.06074 -0.11243 0.16698 -0.15691 -0.01693 0.09481 0.097044 -0.22957 0.17555 -0.13084 0.048965 0.17633 0.14602 0.32644 -0.16404 -0.02572 
( -0.1604 0.053723 -0.005041 -0.15419 0.070079 0.034485 0.035932 -0.031399 0.074239 0.026325 0.0098473 -0.08443 0.015153 -0.16933 0.4151 -0.22542 -0.0326 0.13637 -0.24806 -0.029141 -0.043207 0.18651 -0.11985 -0.060827 -0.070544 0.13768 0.27541 -0.039341 0.15106 0.15592 0.17481 0.11874 -0.062233 -0.24268 -0.057023 0.22425 -0.0092813 -0.15688 0.013465 0.048151 -0.010071 -0.046024 -0.087953 0.16246 -0.017075 0.038718 0.22094 -0.023572 -0.005378 -0.091084 -0.073533 0.11367 -0.086758 0.19131 -0.30445 -0.14005 0.068157 0.11776 -0.15305 -0.38679 -0.03446 0.085071 0.35263 0.01604 0.16122 -0.41223 -0.012668 -0.074309 -0.16498 -0.18173 -0.32685 0.12245 0.139 0.14885 0.13246 0.032544 0.15087 0.21395 0.17094 0.23837 -0.12654 0.15908 0.19404 -0.048795 0.069066 -0.11024 0.14915 -0.15101 -0.027719 0.12381 0.090045 -0.21872 0.17633 -0.12118 0.056812 0.18119 0.16963 0.33241 -0.163 0.0011379 
hoc -0.15936 0.033325 -0.011984 -0.1653 0.090472 0.012149 0.07672 -0.028939 0.048815 0.031574 0.0052069 -0.070324 -0.0054957 -0.18563 0.44114 -0.22686 -0.068469 0.15254 -0.24263 -0.069392 -0.046193 0.17315 -0.10318 -0.075796 -0.073606 0.13498 0.31143 -0.046169 0.17564 0.19683 0.16755 0.16953 -0.067929 -0.25602 -0.045362 0.22739 -0.038539 -0.1644 0.020658 0.032616 0.01308 -0.041734 -0.085187 0.1496 -0.029293 0.029828 0.22298 -0.028388 0.0020908 -0.064084 -0.091892 0.082715 -0.072363 0.18787 -0.28093 -0.14202 0.098424 0.095529 -0.14689 -0.40986 -0.022126 0.06817 0.35624 0.045276 0.17375 -0.38485 -0.015912 -0.089591 -0.14859 -0.17457 -0.33519 0.1301 0.15237 0.14932 0.13181 0.027261 0.14554 0.22715 0.19058 0.22962 -0.14894 0.18317 0.21376 -0.085024 0.084193 -0.11211 0.12624 -0.18131 -0.035862 0.11814 0.097478 -0.22795 0.17206 -0.086829 0.034894 0.17524 0.16511 0.33906 -0.1854 -0.011519 
ejus -0.15038 0.03127 -0.010378 -0.17604 0.081361 0.0090699 0.067797 -0.045873 0.06347 0.040076 0.0076328 -0.070335 0.0017737 -0.18299 0.4376 -0.21432 -0.05963 0.14312 -0.24757 -0.061271 -0.049104 0.16534 -0.11384 -0.080662 -0.07673 0.13719 0.31238 -0.064604 0.179 0.19551 0.16328 0.16008 -0.0816 -0.25117 -0.057294 0.22771 -0.039706 -0.16864 0.027825 0.02627 0.0085424 -0.049918 -0.082813 0.14918 -0.026471 0.042349 0.22364 -0.023425 -0.0066095 -0.08044 -0.082546 0.097746 -0.072562 0.19316 -0.29714 -0.13333 0.10509 0.10214 -0.14832 -0.39718 -0.023413 0.055342 0.34001 0.035196 0.17422 -0.39378 -0.0032908 -0.087438 -0.14372 -0.17572 -0.33983 0.12221 0.14145 0.15001 0.1342 0.028475 0.14399 0.23162 0.17751 0.22997 -0.14273 0.19153 0.20794 -0.079358 0.08098 -0.11661 0.12475 -0.18575 -0.027631 0.11442 0.10415 -0.23283 0.18324 -0.10017 0.029258 0.16001 0.16387 0.34535 -0.1794 -0.015836 
| -0.16595 0.038084 -0.010189 -0.16511 0.081891 0.003487 0.081102 -0.034948 0.059019 0.041004 0.0033588 -0.074628 -0.0068784 -0.19485 0.43147 -0.24248 -0.065249 0.15948 -0.242 -0.070658 -0.061403 0.17353 -0.10843 -0.058072 -0.065623 0.13086 0.31065 -0.0491 0.17262 0.18196 0.16762 0.16313 -0.082224 -0.25911 -0.052187 0.21926 -0.041712 -0.15467 0.030589 0.046569 0.006626 -0.039948 -0.090213 0.14984 -0.035544 0.030108 0.23145 -0.021938 0.0037977 -0.050803 -0.10263 0.082139 -0.075569 0.19925 -0.28553 -0.14851 0.090732 0.099297 -0.14569 -0.40773 -0.01921 0.069242 0.35748 0.047872 0.17194 -0.38666 -0.023452 -0.092436 -0.14768 -0.18726 -0.34939 0.11052 0.16341 0.15674 0.13333 0.041188 0.15381 0.21044 0.18037 0.23643 -0.1394 0.17743 0.20094 -0.087325 0.076197 -0.11941 0.13946 -0.17649 -0.040909 0.11098 0.082702 -0.22199 0.16911 -0.090908 0.035381 0.16437 0.16514 0.34754 -0.17869 -0.00069084 
ergo -0.16107 0.027332 -0.0028012 -0.16231 0.084002 0.0035996 0.077163 -0.038918 0.062394 0.032987 0.0041671 -0.067586 -0.0050746 -0.19602 0.43785 -0.23405 -0.066633 0.15407 -0.24413 -0.071402 -0.050753 0.16484 -0.10726 -0.076108 -0.062417 0.13782 0.30932 -0.04422 0.17561 0.19317 0.17358 0.16229 -0.08223 -0.26173 -0.052028 0.21895 -0.042707 -0.16233 0.020831 0.038744 0.00028773 -0.043172 -0.085156 0.14451 -0.026604 0.032061 0.22741 -0.030289 0.0026159 -0.066683 -0.090572 0.080412 -0.071104 0.18309 -0.28795 -0.14872 0.091832 0.098894 -0.15478 -0.41366 -0.023737 0.067338 0.35037 0.048165 0.17162 -0.39006 -0.014073 -0.089361 -0.14224 -0.18224 -0.34102 0.11884 0.15271 0.15206 0.12624 0.035148 0.15156 0.22363 0.17717 0.23258 -0.14555 0.17791 0.20865 -0.088048 0.073629 -0.11745 0.13602 -0.18511 -0.032594 0.11375 0.089171 -0.22217 0.16868 -0.086977 0.033542 0.17554 0.17179 0.35048 -0.18309 -0.0080334 
vero -0.15932 0.032787 -0.0012538 -0.1684 0.07572 0.0073271 0.072726 -0.031572 0.052709 0.038447 0.0049903 -0.071941 -0.002863 -0.18561 0.43247 -0.22475 -0.059649 0.14293 -0.24031 -0.068009 -0.053379 0.17421 -0.099772 -0.063724 -0.067494 0.13242 0.30113 -0.045682 0.16467 0.1852 0.15876 0.15827 -0.073306 -0.25257 -0.045187 0.22185 -0.046186 -0.1499 0.025652 0.028225 0.012482 -0.044971 -0.088296 0.14303 -0.02058 0.032286 0.22444 -0.025581 0.0030845 -0.062157 -0.086593 0.085279 -0.065874 0.18865 -0.28518 -0.13454 0.096223 0.096413 -0.14948 -0.39701 -0.026206 0.064278 0.34411 0.051493 0.17357 -0.38151 -0.0059022 -0.095452 -0.14697 -0.17499 -0.33452 0.118 0.15473 0.15513 0.12836 0.030157 0.14516 0.21987 0.18841 0.2275 -0.13846 0.18081 0.20398 -0.083526 0.077404 -0.10941 0.12502 -0.17618 -0.042354 0.11183 0.086879 -0.21835 0.17442 -0.088892 0.037235 0.16362 0.15918 0.33478 -0.17754 -0.017204 
a -0.15573 0.047014 -0.013554 -0.17593 0.077198 0.01454 0.077424 -0.022921 0.05394 0.040634 0.0018919 -0.071479 -0.0074062 -0.19737 0.44798 -0.2431 -0.066057 0.14604 -0.23585 -0.062107 -0.058368 0.1793 -0.10264 -0.06863 -0.073414 0.13058 0.32301 -0.043655 0.17439 0.19222 0.16211 0.17059 -0.07626 -0.27334 -0.036993 0.22876 -0.048323 -0.16107 0.023859 0.041853 0.016731 -0.040557 -0.08979 0.16015 -0.023661 0.02798 0.22197 -0.027444 -0.0013232 -0.071598 -0.094291 0.094487 -0.081518 0.19806 -0.29582 -0.14992 0.087135 0.10096 -0.15817 -0.40769 -0.021614 0.070167 0.35825 0.051246 0.1663 -0.38907 -0.01108 -0.10229 -0.15139 -0.18149 -0.33821 0.12069 0.15607 0.15145 0.13348 0.030962 0.14393 0.24043 0.18127 0.23836 -0.13894 0.18154 0.21286 -0.085956 0.088881 -0.12665 0.13786 -0.18458 -0.034555 0.11968 0.093036 -0.22872 0.17186 -0.092067 0.034689 0.18576 0.17255 0.33677 -0.18261 -0.008527 
; -0.16264 0.033814 -0.014083 -0.16652 0.067936 0.0022571 0.066955 -0.026276 0.052002 0.044717 0.0029425 -0.08158 0.011278 -0.18958 0.44179 -0.22767 -0.062865 0.15427 -0.24422 -0.067848 -0.06002 0.17126 -0.1065 -0.065482 -0.064177 0.13771 0.31838 -0.048094 0.17721 0.18037 0.15922 0.17319 -0.070573 -0.26045 -0.037115 0.22461 -0.04518 -0.14937 0.024487 0.041565 0.012686 -0.043824 -0.084752 0.14086 -0.032222 0.032489 0.23472 -0.020929 0.015423 -0.069502 -0.092052 0.0763 -0.082086 0.19751 -0.28689 -0.1502 0.086749 0.096061 -0.14424 -0.40508 -0.017204 0.058885 0.34637 0.048523 0.18027 -0.38778 -0.01077 -0.099474 -0.14561 -0.19067 -0.33068 0.11386 0.1612 0.1468 0.12423 0.039876 0.14814 0.21454 0.19134 0.22166 -0.14615 0.17295 0.20774 -0.096666 0.077773 -0.12473 0.12381 -0.17586 -0.04205 0.11087 0.084136 -0.22959 0.17088 -0.10042 0.028872 0.16486 0.16206 0.33617 -0.18477 -0.017299 
﻿ -0.15955 0.029594 -0.0093318 -0.16849 0.073419 0.0074188 0.078867 -0.025398 0.065705 0.031712 -0.0037559 -0.071768 0.003091 -0.19898 0.43776 -0.23805 -0.065993 0.15125 -0.25136 -0.062539 -0.065422 0.17793 -0.10652 -0.07158 -0.067036 0.13293 0.31306 -0.04668 0.17137 0.19081 0.1715 0.1586 -0.077435 -0.27135 -0.051913 0.22637 -0.048034 -0.16332 0.031833 0.040759 0.012567 -0.043631 -0.078197 0.14229 -0.02179 0.036466 0.23234 -0.029286 -0.0017975 -0.072495 -0.095238 0.084356 -0.08149 0.18684 -0.28469 -0.13955 0.085514 0.10355 -0.1465 -0.4053 -0.026439 0.059857 0.34558 0.051703 0.16476 -0.38862 -0.018146 -0.096327 -0.15901 -0.1855 -0.34621 0.12004 0.15503 0.15524 0.13469 0.037675 0.14272 0.21766 0.17903 0.22981 -0.12701 0.18271 0.19658 -0.077174 0.082417 -0.11541 0.12684 -0.17315 -0.044676 0.11519 0.088636 -0.22386 0.16721 -0.10332 0.029378 0.17302 0.16033 0.35461 -0.18555 -0.0083777 
sive -0.15447 0.045346 -0.0058718 -0.16468 0.079414 0.020058 0.059778 -0.029332 0.055655 0.034629 0.0025907 -0.07306 -0.00046962 -0.18337 0.43093 -0.22949 -0.043335 0.14784 -0.25153 -0.045477 -0.053411 0.18197 -0.11277 -0.077659 -0.068422 0.1369 0.29831 -0.053474 0.16823 0.17813 0.16414 0.13382 -0.08438 -0.25742 -0.050383 0.23019 -0.030771 -0.15921 0.028227 0.034977 -0.0047739 -0.041728 -0.077364 0.16018 -0.020209 0.041241 0.22311 -0.026157 -0.0097176 -0.070801 -0.087624 0.097627 -0.079853 0.19867 -0.2974 -0.14281 0.091441 0.11382 -0.15233 -0.39613 -0.028055 0.073916 0.34283 0.028743 0.17643 -0.40567 -0.016267 -0.09784 -0.154 -0.17645 -0.33905 0.12897 0.15423 0.1605 0.12945 0.042674 0.14702 0.22021 0.18131 0.23756 -0.13743 0.18546 0.20178 -0.063449 0.072796 -0.11534 0.13713 -0.1681 -0.023685 0.11584 0.09433 -0.21937 0.17743 -0.11307 0.035966 0.17351 0.16618 0.34293 -0.17223 -0.001945 
si -0.16181 0.024474 0.0040654 -0.16734 0.083879 0.0041441 0.079924 -0.042167 0.054669 0.040112 0.013971 -0.065757 -0.0048474 -0.18843 0.43648 -0.22714 -0.058052 0.1493 -0.23904 -0.069728 -0.050017 0.16123 -0.11624 -0.08369 -0.071259 0.14315 0.30149 -0.059051 0.17541 0.18802 0.15785 0.16542 -0.081417 -0.24746 -0.050678 0.21163 -0.039538 -0.14724 0.026489 0.035285 0.0062999 -0.050516 -0.079688 0.14432 -0.025536 0.034484 0.2229 -0.022667 0.0023551 -0.063439 -0.082149 0.089387 -0.078852 0.19367 -0.29416 -0.13993 0.095963 0.10289 -0.14546 -0.38776 -0.027365 0.057919 0.33375 0.049367 0.17466 -0.38244 -0.0020283 -0.087005 -0.14964 -0.17123 -0.33437 0.1141 0.15702 0.15562 0.12629 0.03064 0.14523 0.22407 0.1787 0.22981 -0.14649 0.18439 0.20437 -0.081662 0.073885 -0.11701 0.11804 -0.18372 -0.027263 0.10831 0.079287 -0.22334 0.17574 -0.090566 0.010599 0.16059 0.16953 0.34185 -0.1782 -0.016102 
set -0.17016 0.02269 0.00094107 -0.17183 0.089152 -0.00034257 0.077144 -0.035506 0.059253 0.034549 0.015669 -0.061441 0.0025288 -0.20865 0.42338 -0.23069 -0.067159 0.14485 -0.24286 -0.059715 -0.048757 0.16719 -0.11504 -0.080288 -0.060579 0.14532 0.31061 -0.039872 0.18941 0.19723 0.17774 0.15498 -0.088737 -0.26407 -0.049604 0.22153 -0.037576 -0.16141 0.024574 0.042637 0.0021004 -0.043561 -0.081891 0.14802 -0.034491 0.029418 0.23202 -0.020028 -0.0043638 -0.061698 -0.089829 0.080852 -0.074958 0.1786 -0.28871 -0.14366 0.093004 0.10558 -0.15538 -0.40646 -0.031878 0.069604 0.3518 0.035284 0.1747 -0.39847 -0.017853 -0.085683 -0.14086 -0.17685 -0.33426 0.11974 0.14621 0.15915 0.13206 0.034248 0.14605 0.22909 0.1787 0.21923 -0.13951 0.18095 0.21782 -0.085607 0.080471 -0.11027 0.13232 -0.18198 -0.033543 0.11668 0.084676 -0.22505 0.17665 -0.10174 0.028951 0.17847 0.16435 0.34383 -0.19042 -0.0069875 
p. -0.12999 0.061789 0.0080601 -0.14906 0.065257 0.035404 0.029015 -0.012476 0.063058 0.034615 0.00033891 -0.078741 0.010556 -0.16132 0.38697 -0.20904 -0.026402 0.12497 -0.23868 -0.013978 -0.047667 0.17494 -0.10611 -0.054085 -0.065797 0.12396 0.25964 -0.040498 0.14293 0.14664 0.16972 0.093663 -0.055883 -0.21656 -0.055232 0.21112 -0.0061862 -0.13872 0.017665 0.042907 -0.015262 -0.032706 -0.080034 0.14942 -0.015009 0.033798 0.20575 -0.020532 -0.013522 -0.067001 -0.073841 0.10177 -0.083885 0.18873 -0.2878 -0.10929 0.061253 0.1141 -0.13779 -0.35162 -0.0418 0.073701 0.33495 0.013015 0.16396 -0.38909 -0.010692 -0.076265 -0.15545 -0.1624 -0.31853 0.11188 0.12476 0.13394 0.12512 0.038186 0.14367 0.19313 0.15986 0.2157 -0.1251 0.14748 0.17768 -0.037215 0.065553 -0.097898 0.1544 -0.13797 -0.024506 0.10017 0.086258 -0.20699 0.16035 -0.11741 0.05314 0.17666 0.13996 0.31202 -0.14992 -0.012572 
tibi -0.15419 0.024043 -0.00028225 -0.17106 0.093716 0.010275 0.076329 -0.025483 0.05941 0.029341 0.0041049 -0.061269 -0.0083315 -0.18865 0.44216 -0.23223 -0.054511 0.14635 -0.23974 -0.071622 -0.04328 0.1647 -0.11057 -0.076251 -0.077218 0.13977 0.30133 -0.050133 0.17777 0.19804 0.16187 0.17159 -0.080814 -0.25862 -0.052213 0.2266 -0.048982 -0.17014 0.026483 0.029339 0.0046333 -0.041671 -0.083718 0.15052 -0.028903 0.03738 0.22848 -0.0284 -0.00068286 -0.068188 -0.092269 0.089318 -0.073785 0.18988 -0.28495 -0.1455 0.10219 0.09886 -0.14847 -0.40606 -0.022486 0.065637 0.34973 0.047398 0.17322 -0.38551 -0.019638 -0.087303 -0.14477 -0.18 -0.33078 0.11953 0.14855 0.1481 0.13532 0.031664 0.14074 0.22703 0.17496 0.23187 -0.14487 0.19084 0.21543 -0.081532 0.079306 -0.11186 0.13107 -0.1896 -0.027722 0.11716 0.088291 -0.22727 0.1791 -0.083921 0.028168 0.17121 0.16968 0.34495 -0.18045 -0.01034 
sicut -0.16235 0.029659 -0.0014438 -0.16581 0.084877 0.0038653 0.086769 -0.033662 0.057761 0.03354 0.0066764 -0.064972 -0.0030181 -0.18954 0.43998 -0.2263 -0.057378 0.14521 -0.24625 -0.07221 -0.054891 0.16988 -0.10462 -0.0736 -0.070375 0.13665 0.31027 -0.04773 0.17851 0.19105 0.16741 0.16754 -0.084492 -0.26417 -0.047956 0.22345 -0.043677 -0.16086 0.030981 0.036824 0.0049337 -0.040836 -0.08294 0.1488 -0.024442 0.031828 0.22771 -0.029913 0.00046082 -0.059357 -0.096384 0.084393 -0.077546 0.19564 -0.28718 -0.14686 0.098144 0.10031 -0.15716 -0.40345 -0.029493 0.065775 0.34882 0.050173 0.17189 -0.39279 -0.011857 -0.098284 -0.14667 -0.17795 -0.33971 0.12159 0.15221 0.15517 0.12858 0.036529 0.146 0.22493 0.18351 0.22571 -0.14297 0.18968 0.20525 -0.089737 0.077067 -0.11723 0.12323 -0.18017 -0.036247 0.11189 0.08237 -0.2237 0.17637 -0.091613 0.029497 0.1667 0.1679 0.35003 -0.18056 -0.011762 
secundum -0.15853 0.033016 0.00080881 -0.15728 0.086873 0.012507 0.062416 -0.01445 0.06441 0.039232 0.018507 -0.06095 0.00015527 -0.17764 0.42844 -0.23663 -0.040692 0.14563 -0.23948 -0.038927 -0.044472 0.17016 -0.11363 -0.08225 -0.065933 0.13932 0.29862 -0.046814 0.17633 0.18617 0.17773 0.14002 -0.094263 -0.25339 -0.042208 0.22373 -0.034222 -0.15839 0.023835 0.044336 -0.0062749 -0.040698 -0.07471 0.16252 -0.025476 0.016373 0.22258 -0.025186 -0.010313 -0.053804 -0.096671 0.092454 -0.090011 0.20428 -0.29038 -0.14272 0.097697 0.105 -0.14941 -0.39386 -0.033136 0.081565 0.34752 0.028435 0.17546 -0.40803 -0.027276 -0.095884 -0.1523 -0.18116 -0.3296 0.12841 0.14282 0.16117 0.12945 0.051424 0.14623 0.22829 0.17134 0.22381 -0.13425 0.18345 0.21211 -0.063644 0.077984 -0.11354 0.12729 -0.17098 -0.034811 0.12217 0.073353 -0.21753 0.16499 -0.1109 0.031437 0.18775 0.16044 0.34204 -0.17162 -0.0011582 
sit -0.16405 0.029534 -0.0032303 -0.17112 0.092379 0.005279 0.073165 -0.037256 0.057289 0.034123 0.011432 -0.064938 -0.010211 -0.18945 0.44576 -0.22954 -0.061081 0.14376 -0.24321 -0.06831 -0.047364 0.16735 -0.11296 -0.081551 -0.078431 0.136 0.31201 -0.055297 0.17067 0.19449 0.1546 0.17763 -0.076308 -0.25116 -0.050955 0.22523 -0.033256 -0.15662 0.024884 0.033835 0.004837 -0.048349 -0.096678 0.14297 -0.029018 0.036507 0.22313 -0.025918 0.004193 -0.067914 -0.089832 0.092249 -0.071646 0.19003 -0.28881 -0.13828 0.097118 0.1046 -0.14889 -0.39703 -0.020721 0.064694 0.34396 0.04205 0.17822 -0.3819 -0.0053951 -0.08984 -0.14538 -0.18307 -0.33336 0.11486 0.15646 0.15084 0.12923 0.025064 0.14728 0.23468 0.18414 0.23371 -0.14721 0.19003 0.2143 -0.073927 0.081688 -0.12075 0.12636 -0.18615 -0.039123 0.11487 0.087687 -0.22698 0.17037 -0.095556 0.017625 0.16489 0.17039 0.34176 -0.17559 -0.016348 
eorum -0.16997 0.039425 0.011959 -0.159 0.11361 0.032075 0.046823 -0.0085529 0.048248 0.023724 0.0008731 -0.053303 -0.016506 -0.17643 0.45002 -0.25104 -0.021148 0.15546 -0.23495 -0.0035116 -0.032133 0.16546 -0.15566 -0.090947 -0.082787 0.14516 0.27905 -0.054473 0.18707 0.19943 0.17987 0.13135 -0.08423 -0.23783 -0.062647 0.2215 -0.011347 -0.16722 0.027057 0.05089 -0.031008 -0.040942 -0.090626 0.18009 -0.020358 0.029005 0.20107 -0.022601 -0.02212 -0.068207 -0.069365 0.12009 -0.081186 0.18959 -0.30033 -0.13654 0.10106 0.14218 -0.15234 -0.3759 -0.033339 0.094258 0.34316 -0.01843 0.17102 -0.41443 -0.015099 -0.076616 -0.14459 -0.17292 -0.31895 0.15905 0.14256 0.14997 0.13608 0.030814 0.1493 0.24116 0.17061 0.22561 -0.15696 0.18119 0.21885 0.00061228 0.090722 -0.11184 0.14711 -0.18194 -0.0071666 0.14142 0.069489 -0.24579 0.16039 -0.11491 0.011091 0.20605 0.17606 0.35323 -0.16966 0.0082855 
te -0.13377 0.046571 -0.0086026 -0.1622 0.063855 0.0073796 0.08413 -0.016366 0.043666 0.016093 0.0089693 -0.068189 0.006841 -0.19697 0.43658 -0.23196 -0.076918 0.12009 -0.2421 -0.063248 -0.057212 0.18096 -0.092547 -0.061767 -0.055735 0.12014 0.31549 -0.047713 0.17235 0.16774 0.15046 0.16201 -0.077911 -0.26438 -0.037927 0.23202 -0.05373 -0.13776 0.01914 0.0085952 0.019771 -0.05912 -0.092446 0.12241 -0.021212 0.039027 0.21816 -0.025285 0.0071394 -0.062103 -0.10178 0.093932 -0.079374 0.21297 -0.28936 -0.14212 0.093057 0.087245 -0.15232 -0.41169 -0.022931 0.049425 0.36253 0.056111 0.17646 -0.37677 -0.021385 -0.087519 -0.14227 -0.1729 -0.33875 0.11421 0.15384 0.15078 0.12303 0.03057 0.13697 0.22375 0.16268 0.21268 -0.1431 0.18255 0.19939 -0.12034 0.087343 -0.10606 0.11455 -0.18567 -0.036444 0.12853 0.10088 -0.2177 0.17341 -0.10734 0.040398 0.15177 0.15555 0.32748 -0.19713 -0.0046319 
ab -0.16498 0.039031 -0.0070409 -0.17146 0.091213 0.012785 0.078135 -0.031814 0.062728 0.0318 0.0066411 -0.07215 -0.0012879 -0.20135 0.44243 -0.23478 -0.061203 0.14681 -0.25101 -0.07044 -0.052844 0.17929 -0.09856 -0.079896 -0.069954 0.14713 0.31386 -0.046453 0.17466 0.188 0.16951 0.16829 -0.08293 -0.2757 -0.049899 0.22641 -0.044091 -0.16686 0.032533 0.037541 0.0082304 -0.043314 -0.085083 0.14537 -0.030888 0.034412 0.23613 -0.02404 -0.0042398 -0.065223 -0.10292 0.082226 -0.07599 0.19561 -0.29086 -0.14534 0.097162 0.099376 -0.15231 -0.41521 -0.029093 0.06381 0.3589 0.04925 0.1742 -0.39212 -0.019113 -0.099923 -0.14463 -0.18928 -0.34041 0.1214 0.15996 0.15037 0.12997 0.039025 0.14843 0.22887 0.18209 0.23434 -0.14133 0.18323 0.21171 -0.087498 0.075281 -0.11969 0.13005 -0.18436 -0.031867 0.11658 0.092164 -0.22905 0.16825 -0.09867 0.035519 0.17253 0.17189 0.35531 -0.18676 -0.013377 
scilicet -0.15985 0.036515 -0.0035594 -0.17275 0.077079 0.0057556 0.08206 -0.029748 0.05827 0.034485 0.0044796 -0.068977 0.0073156 -0.20009 0.43488 -0.22622 -0.058483 0.14523 -0.25097 -0.063484 -0.057711 0.17581 -0.10723 -0.076934 -0.059142 0.13708 0.31278 -0.043993 0.1784 0.18937 0.17628 0.149 -0.081528 -0.26563 -0.049346 0.22849 -0.04333 -0.15092 0.025286 0.031694 0.0028223 -0.046455 -0.083371 0.14829 -0.020769 0.029971 0.23008 -0.025756 -0.0046459 -0.061415 -0.093232 0.092818 -0.074555 0.19784 -0.2958 -0.14677 0.09751 0.10384 -0.15526 -0.41311 -0.031595 0.066032 0.35617 0.044235 0.1754 -0.39997 -0.014711 -0.095018 -0.1494 -0.17957 -0.33828 0.12328 0.14995 0.15422 0.12953 0.038548 0.14918 0.22207 0.17608 0.22712 -0.14237 0.18799 0.20896 -0.091661 0.077601 -0.11685 0.12832 -0.1809 -0.03283 0.11735 0.092664 -0.22678 0.17656 -0.10316 0.03775 0.17037 0.17105 0.3434 -0.18539 -0.0063265 
quam -0.16857 0.010241 -0.0020014 -0.16122 0.11007 0.0086663 0.076686 -0.02535 0.051344 0.032478 0.0024639 -0.042838 -0.01665 -0.18696 0.45565 -0.24224 -0.059482 0.16039 -0.23695 -0.076972 -0.036986 0.15468 -0.11995 -0.077094 -0.075648 0.14763 0.31384 -0.040188 0.18685 0.19905 0.16337 0.1865 -0.085934 -0.26652 -0.047548 0.21917 -0.051354 -0.16977 0.018309 0.036625 0.0030727 -0.051104 -0.08962 0.14949 -0.033588 0.020484 0.22055 -0.029051 0.00083906 -0.059646 -0.10633 0.098438 -0.073906 0.18543 -0.27462 -0.15285 0.10239 0.095316 -0.15455 -0.40293 -0.028641 0.062859 0.35717 0.041405 0.16521 -0.38214 -0.020992 -0.094705 -0.1476 -0.19087 -0.33583 0.11581 0.14864 0.13529 0.1326 0.028148 0.15522 0.24033 0.18663 0.23622 -0.15292 0.19427 0.22058 -0.078749 0.091731 -0.13002 0.12067 -0.19998 -0.037414 0.11214 0.074179 -0.232 0.17995 -0.079404 0.019936 0.18816 0.18183 0.3646 -0.18651 -0.0090919 
hec -0.1591 0.032061 -0.010535 -0.16288 0.072146 0.0023742 0.078026 -0.024152 0.061245 0.036282 0.0091124 -0.070133 -0.0016962 -0.18961 0.4361 -0.23064 -0.061343 0.15044 -0.24167 -0.072739 -0.06185 0.17284 -0.09884 -0.062582 -0.064814 0.13349 0.31015 -0.045974 0.1727 0.18337 0.16416 0.16669 -0.081864 -0.26772 -0.044141 0.22135 -0.053688 -0.15333 0.032685 0.038977 0.013538 -0.0334 -0.086214 0.14493 -0.024633 0.031884 0.23045 -0.024212 0.0039505 -0.055793 -0.1036 0.075568 -0.084854 0.19128 -0.27854 -0.14392 0.094519 0.097689 -0.14948 -0.39703 -0.022456 0.066473 0.34639 0.050791 0.1728 -0.38339 -0.011168 -0.097727 -0.14661 -0.1782 -0.33066 0.119 0.15281 0.153 0.11999 0.041939 0.14043 0.21641 0.17766 0.22115 -0.14079 0.18269 0.19883 -0.091817 0.07688 -0.12011 0.12336 -0.18004 -0.045298 0.11084 0.080513 -0.22083 0.1663 -0.092341 0.034787 0.16511 0.16518 0.3502 -0.17914 -0.011736 
nec -0.17214 0.01755 -0.0066453 -0.16473 0.088178 -0.0066139 0.079578 -0.033896 0.060309 0.034525 0.0070521 -0.070715 0.0023723 -0.19425 0.42914 -0.23549 -0.064409 0.15952 -0.23814 -0.08646 -0.059483 0.17354 -0.11267 -0.058982 -0.068136 0.13958 0.30631 -0.039751 0.16077 0.18728 0.17184 0.16889 -0.066559 -0.25905 -0.03815 0.22783 -0.047428 -0.16457 0.021195 0.037841 0.011603 -0.039319 -0.093394 0.14586 -0.032139 0.027254 0.23187 -0.023408 0.016755 -0.054074 -0.10218 0.064739 -0.073134 0.18278 -0.27032 -0.1424 0.09245 0.094238 -0.15042 -0.41346 -0.020403 0.063082 0.34128 0.051732 0.17091 -0.38106 -0.004707 -0.097012 -0.14963 -0.17512 -0.33014 0.10784 0.14985 0.15797 0.11735 0.034087 0.13892 0.22115 0.17821 0.21814 -0.14191 0.17139 0.20699 -0.10568 0.070617 -0.10745 0.13009 -0.18319 -0.045954 0.10561 0.064942 -0.22606 0.17181 -0.081845 0.038435 0.16771 0.17033 0.34533 -0.19319 -0.0093343 
tunc -0.16571 0.03397 -0.010097 -0.16263 0.089927 0.01831 0.074499 -0.025381 0.050702 0.029392 0.0035714 -0.067699 -0.0060093 -0.18927 0.44724 -0.23682 -0.063471 0.15558 -0.2451 -0.066414 -0.049701 0.17171 -0.1051 -0.069955 -0.076886 0.13824 0.31925 -0.045711 0.17509 0.19402 0.16182 0.1755 -0.075529 -0.26354 -0.050218 0.23528 -0.048442 -0.16293 0.030341 0.037425 0.014617 -0.047201 -0.092605 0.14873 -0.027755 0.0311 0.22635 -0.026446 0.00049159 -0.069892 -0.088244 0.089342 -0.084717 0.19671 -0.28774 -0.14629 0.089773 0.10287 -0.1543 -0.41094 -0.019078 0.067405 0.36044 0.042423 0.17882 -0.39181 -0.018599 -0.093902 -0.14773 -0.18217 -0.34596 0.12335 0.15334 0.14315 0.12727 0.038713 0.15006 0.23374 0.18075 0.23606 -0.14366 0.19127 0.21067 -0.080109 0.086589 -0.12041 0.1284 -0.18803 -0.035471 0.12194 0.085904 -0.22513 0.17289 -0.092543 0.027844 0.17961 0.17053 0.34854 -0.18187 -0.013039 
super -0.15302 0.030549 -0.0079999 -0.17003 0.077964 0.004523 0.087562 -0.027194 0.06082 0.026347 0.00068237 -0.068454 0.0056968 -0.20913 0.45126 -0.23491 -0.067954 0.14904 -0.2498 -0.075822 -0.052512 0.17 -0.10344 -0.071238 -0.074195 0.13313 0.32974 -0.052641 0.18902 0.19207 0.15895 0.17306 -0.080741 -0.27126 -0.048274 0.23029 -0.050983 -0.15434 0.032433 0.02898 0.0090379 -0.04585 -0.087681 0.13477 -0.028328 0.043256 0.22571 -0.030191 0.0044993 -0.062469 -0.098283 0.090085 -0.074734 0.19704 -0.29621 -0.15083 0.10659 0.095149 -0.15592 -0.41671 -0.019454 0.058724 0.36056 0.051469 0.17131 -0.3896 -0.017772 -0.091482 -0.14235 -0.18732 -0.33968 0.12609 0.16022 0.14741 0.13542 0.030437 0.14958 0.23089 0.17378 0.22925 -0.15503 0.1971 0.21796 -0.10395 0.087926 -0.11626 0.12551 -0.19268 -0.033824 0.12001 0.091624 -0.22491 0.17363 -0.086423 0.026827 0.17095 0.17591 0.35331 -0.19583 -0.0079898 
eo -0.15983 0.031877 -0.0088213 -0.16789 0.083359 0.0045217 0.070411 -0.02136 0.059533 0.039812 0.0032313 -0.068906 -3.2162e-05 -0.19833 0.43024 -0.23978 -0.05576 0.16079 -0.24808 -0.068311 -0.056695 0.17008 -0.10633 -0.074497 -0.066006 0.13173 0.31347 -0.03907 0.1816 0.1871 0.17327 0.15828 -0.076928 -0.26527 -0.049324 0.22598 -0.038399 -0.16234 0.029459 0.043479 0.0084196 -0.03645 -0.087761 0.14288 -0.027573 0.041118 0.23284 -0.024954 -0.0016572 -0.062506 -0.095627 0.075959 -0.074965 0.19421 -0.28624 -0.1476 0.092455 0.10913 -0.14778 -0.40681 -0.021609 0.070001 0.35645 0.044027 0.17062 -0.38597 -0.011128 -0.10182 -0.14901 -0.18411 -0.33783 0.11979 0.15186 0.15418 0.13039 0.039888 0.14331 0.21558 0.16766 0.23265 -0.13567 0.1792 0.20408 -0.075254 0.07377 -0.11714 0.13059 -0.16966 -0.031672 0.12151 0.087093 -0.21493 0.17026 -0.088175 0.039443 0.16742 0.16679 0.35116 -0.17999 -0.013691 
' -0.19067 0.044047 -0.030707 -0.15521 0.10462 0.0050992 0.091393 -0.039577 0.11103 0.072493 0.0036163 -0.11098 0.020993 -0.18098 0.4335 -0.25962 -0.045624 0.18169 -0.28693 -0.10888 -0.081576 0.17095 -0.0678 -0.099068 -0.03771 0.11643 0.32056 0.0075173 0.18825 0.18515 0.25215 0.17526 -0.10476 -0.25348 -0.031208 0.23799 -0.085418 -0.19055 0.059736 0.076581 0.0061569 -0.013046 -0.069657 0.18135 -0.020511 -0.036246 0.24686 -0.05004 -0.015049 -0.02696 -0.13604 0.011717 -0.11558 0.21327 -0.27069 -0.16063 0.060191 0.086638 -0.15245 -0.41306 -0.040139 0.080219 0.35993 0.077384 0.18869 -0.41271 -0.045615 -0.10082 -0.19552 -0.23485 -0.33498 0.087726 0.14421 0.17755 0.11198 0.099863 0.16327 0.19423 0.18392 0.22213 -0.1429 0.19817 0.17399 -0.14773 0.025949 -0.14167 0.11336 -0.14537 -0.084025 0.084621 0.050102 -0.19547 0.14967 -0.097569 0.071081 0.1497 0.16511 0.36389 -0.15578 -0.022328 
habet -0.16567 0.018202 -0.0027502 -0.15845 0.088314 -0.0084323 0.076941 -0.033014 0.059655 0.038905 0.0056314 -0.055314 -0.011034 -0.19817 0.42758 -0.23495 -0.065079 0.15817 -0.24071 -0.067028 -0.044247 0.1547 -0.11733 -0.075216 -0.058151 0.14283 0.30076 -0.034828 0.18347 0.19478 0.16643 0.15535 -0.07878 -0.25767 -0.052903 0.21199 -0.036095 -0.15539 0.013753 0.044608 -0.0056594 -0.036028 -0.086327 0.14358 -0.026804 0.027116 0.22314 -0.018711 -0.0005448 -0.059505 -0.088292 0.082781 -0.070472 0.17037 -0.27518 -0.14368 0.088832 0.096378 -0.14697 -0.40537 -0.018493 0.063834 0.33804 0.038751 0.1664 -0.38125 -0.020664 -0.08478 -0.13948 -0.17984 -0.32878 0.11855 0.14077 0.15644 0.12569 0.030633 0.14604 0.22689 0.17374 0.21835 -0.13766 0.17455 0.21289 -0.072603 0.084459 -0.11543 0.13246 -0.1858 -0.042409 0.11829 0.079133 -0.22035 0.1645 -0.086164 0.027544 0.18844 0.1732 0.34372 -0.18542 -0.0021288 
igitur -0.14677 0.03821 -0.014683 -0.15001 0.061052 0.0026173 0.078917 -0.019724 0.069413 0.048358 -0.00099607 -0.06395 0.012234 -0.18025 0.3998 -0.21596 -0.059443 0.14051 -0.22882 -0.069864 -0.063228 0.15429 -0.079322 -0.056778 -0.054252 0.12184 0.28656 -0.025779 0.16002 0.16587 0.16519 0.14784 -0.080599 -0.25263 -0.032398 0.20096 -0.054838 -0.14041 0.036413 0.043391 0.015729 -0.031325 -0.071057 0.13429 -0.022692 0.013366 0.22266 -0.026733 -0.0067026 -0.04272 -0.11122 0.058667 -0.082298 0.18164 -0.25505 -0.14472 0.071677 0.079525 -0.1326 -0.36839 -0.022096 0.062409 0.32253 0.051845 0.1575 -0.35704 -0.02084 -0.10084 -0.14749 -0.17644 -0.3053 0.097207 0.14613 0.13864 0.11962 0.055383 0.1303 0.19218 0.1625 0.21058 -0.1125 0.16701 0.18068 -0.085091 0.066954 -0.11218 0.11442 -0.15895 -0.047003 0.10203 0.06772 -0.18916 0.13804 -0.085271 0.043982 0.14998 0.14846 0.32655 -0.14987 -0.0033464 
regis -0.15065 0.050183 0.0031505 -0.16187 0.082961 0.037765 0.049232 -0.02888 0.041167 0.021312 -0.00043462 -0.079738 -0.0049978 -0.17144 0.41899 -0.23516 -0.03032 0.13231 -0.24176 -0.022052 -0.049872 0.17973 -0.11469 -0.078118 -0.083289 0.13297 0.28424 -0.064772 0.1676 0.1677 0.16238 0.12472 -0.071087 -0.24095 -0.060548 0.22426 -0.022228 -0.15245 0.032011 0.028713 -0.011254 -0.043422 -0.087008 0.16286 -0.01226 0.058088 0.20862 -0.023867 -0.013816 -0.079239 -0.066003 0.1114 -0.058993 0.19706 -0.30391 -0.12703 0.096596 0.12191 -0.14149 -0.38239 -0.036177 0.074212 0.34616 0.0151 0.17666 -0.38862 -0.0087876 -0.084577 -0.12903 -0.15472 -0.32459 0.13599 0.14675 0.14484 0.13538 0.019684 0.13755 0.2179 0.17319 0.22523 -0.15365 0.18124 0.20786 -0.044062 0.072624 -0.10207 0.1398 -0.16616 -0.0062632 0.11869 0.10102 -0.22779 0.16867 -0.10982 0.031274 0.17783 0.16214 0.32909 -0.17146 -0.0057042 
quibus -0.16429 0.020313 0.0045968 -0.18757 0.11571 0.016545 0.079968 -0.045532 0.045814 0.037768 -0.005548 -0.064964 -0.0095049 -0.18014 0.46915 -0.22483 -0.056161 0.15024 -0.25759 -0.072149 -0.053825 0.17453 -0.14226 -0.097075 -0.087214 0.1474 0.31796 -0.081047 0.2003 0.21353 0.16175 0.15988 -0.082648 -0.26702 -0.061313 0.23355 -0.028477 -0.18805 0.014051 0.023431 -0.0033906 -0.050358 -0.090836 0.17567 -0.014586 0.044237 0.23652 -0.029064 -0.020359 -0.088892 -0.062208 0.11102 -0.064496 0.1958 -0.3205 -0.14188 0.12077 0.13496 -0.16131 -0.39896 -0.029183 0.070316 0.35432 0.022457 0.18918 -0.41255 0.010056 -0.095074 -0.15573 -0.16848 -0.35304 0.13377 0.13903 0.16654 0.13692 0.024362 0.14438 0.24847 0.19962 0.24689 -0.14189 0.2117 0.22763 -0.051965 0.087315 -0.12632 0.13871 -0.19785 -0.011586 0.12245 0.11748 -0.25006 0.20481 -0.10679 0.01577 0.1759 0.18857 0.35928 -0.18731 -0.020278 
quando -0.16754 0.02875 -0.0016532 -0.16464 0.085494 0.0074298 0.080462 -0.028475 0.057618 0.040924 0.0055826 -0.06041 -0.0070745 -0.18746 0.42969 -0.23279 -0.062798 0.15692 -0.23693 -0.067858 -0.051295 0.16268 -0.1137 -0.071095 -0.067017 0.14274 0.30463 -0.040172 0.17729 0.19107 0.16593 0.16375 -0.077668 -0.26069 -0.044125 0.22199 -0.052619 -0.15181 0.025245 0.044911 0.00081614 -0.043223 -0.087013 0.14486 -0.022543 0.022849 0.22427 -0.027712 -0.0053414 -0.054081 -0.098963 0.085272 -0.075417 0.18846 -0.27478 -0.13844 0.088835 0.099478 -0.15217 -0.39595 -0.027253 0.06903 0.34438 0.044184 0.16735 -0.38088 -0.016553 -0.093543 -0.1535 -0.18406 -0.32893 0.11222 0.15291 0.14701 0.13276 0.04246 0.14901 0.21948 0.17839 0.22091 -0.14507 0.18244 0.20471 -0.083895 0.080125 -0.12361 0.12784 -0.18313 -0.043928 0.11305 0.07663 -0.21706 0.17339 -0.091135 0.029753 0.17153 0.1667 0.34663 -0.17793 -0.0065863 
eis -0.15534 0.045457 0.0011076 -0.18201 0.072308 0.015795 0.086312 -0.050952 0.047349 0.016899 0.009151 -0.079822 0.018301 -0.20069 0.42688 -0.23938 -0.055299 0.12093 -0.26498 -0.067546 -0.071497 0.19504 -0.09933 -0.078376 -0.060888 0.1248 0.32031 -0.069881 0.17757 0.1774 0.16389 0.14119 -0.071212 -0.26027 -0.042606 0.23635 -0.051524 -0.14023 0.026531 -0.001287 0.014238 -0.058968 -0.085209 0.13792 -0.020177 0.061043 0.22795 -0.031504 -0.0021558 -0.064657 -0.079036 0.099611 -0.053968 0.21871 -0.31082 -0.13393 0.11326 0.10743 -0.16066 -0.42033 -0.026565 0.059815 0.35083 0.05253 0.18324 -0.39952 -0.011544 -0.092374 -0.14238 -0.16234 -0.3497 0.12212 0.14816 0.14852 0.12561 0.025184 0.14059 0.22273 0.16805 0.21884 -0.15222 0.18671 0.20259 -0.12061 0.084373 -0.11061 0.12446 -0.18591 -0.020286 0.11259 0.10965 -0.23181 0.19009 -0.10176 0.038032 0.15054 0.17338 0.34094 -0.20506 -0.0050438 
propter -0.15371 0.035212 0.00095231 -0.16651 0.089503 0.008736 0.072437 -0.019833 0.054283 0.030922 0.0030367 -0.073318 -0.00029882 -0.18745 0.45499 -0.22574 -0.059824 0.14858 -0.24625 -0.065251 -0.050691 0.17706 -0.10754 -0.067383 -0.074229 0.13941 0.31101 -0.051121 0.17274 0.18957 0.1606 0.16493 -0.072583 -0.2637 -0.045008 0.23429 -0.046759 -0.15912 0.021681 0.027461 0.0075863 -0.044637 -0.089515 0.15251 -0.018915 0.031217 0.22928 -0.028375 0.00025136 -0.064688 -0.089688 0.094351 -0.077555 0.20412 -0.28885 -0.14952 0.099403 0.10152 -0.15746 -0.39906 -0.020355 0.065413 0.35504 0.040368 0.17864 -0.40111 -0.011502 -0.098886 -0.15916 -0.17897 -0.34509 0.13481 0.15442 0.15154 0.13156 0.040547 0.14173 0.22406 0.19151 0.23245 -0.13933 0.18849 0.21311 -0.085224 0.086232 -0.11562 0.1239 -0.18365 -0.029604 0.11212 0.088348 -0.22594 0.18338 -0.096567 0.032697 0.17413 0.16543 0.34988 -0.18547 -0.011499 
fuerit -0.15975 0.031742 -0.0043529 -0.17364 0.068486 0.004931 0.077674 -0.031698 0.057112 0.027586 0.011606 -0.070617 -0.0058409 -0.19631 0.42101 -0.22643 -0.071754 0.13813 -0.23087 -0.06817 -0.048568 0.17274 -0.10374 -0.075676 -0.072379 0.13183 0.31124 -0.049644 0.16605 0.1909 0.1538 0.15978 -0.078882 -0.24413 -0.033198 0.21637 -0.054725 -0.13594 0.024963 0.036599 0.016453 -0.041945 -0.095237 0.14369 -0.035829 0.039826 0.21406 -0.025142 0.0087455 -0.061623 -0.091037 0.086582 -0.075517 0.18759 -0.28305 -0.13894 0.091356 0.094842 -0.14533 -0.40343 -0.019269 0.062493 0.33871 0.056236 0.16441 -0.37307 -0.00069832 -0.086807 -0.15006 -0.17158 -0.32512 0.10514 0.14681 0.14576 0.12421 0.025651 0.14432 0.21927 0.17821 0.23167 -0.14103 0.17579 0.20247 -0.089386 0.076757 -0.12278 0.12497 -0.18267 -0.040361 0.11421 0.094949 -0.21824 0.16976 -0.088431 0.025424 0.16867 0.16003 0.31943 -0.18495 -0.016215 
hiis -0.15922 0.042535 -0.00093739 -0.18145 0.073637 0.015087 0.080564 -0.044466 0.05231 0.02419 0.0045345 -0.078432 0.0076407 -0.19634 0.43473 -0.24059 -0.054047 0.13137 -0.25838 -0.061096 -0.065715 0.193 -0.1 -0.076754 -0.064304 0.12602 0.30977 -0.063309 0.17471 0.17627 0.16313 0.14497 -0.075097 -0.26391 -0.047691 0.23295 -0.047463 -0.14739 0.028254 0.0096444 0.011592 -0.057793 -0.085244 0.14813 -0.021923 0.053964 0.22781 -0.029247 -0.0052324 -0.065646 -0.083757 0.098994 -0.057607 0.21017 -0.30604 -0.13967 0.10652 0.10931 -0.15882 -0.41215 -0.032462 0.062854 0.35672 0.047944 0.17403 -0.39343 -0.012262 -0.097023 -0.14444 -0.16535 -0.35034 0.12709 0.15344 0.1511 0.12802 0.028213 0.14185 0.2248 0.17332 0.22758 -0.15568 0.18502 0.20356 -0.10438 0.082918 -0.11245 0.12812 -0.18849 -0.028716 0.11117 0.10407 -0.23229 0.18478 -0.10091 0.037659 0.16145 0.17062 0.34694 -0.19016 -0.010415 
ipsum -0.15947 0.033297 -0.0013716 -0.16185 0.094474 0.019357 0.065035 -0.02016 0.049947 0.029526 0.004626 -0.061115 -0.013615 -0.19377 0.44945 -0.24226 -0.055946 0.16356 -0.23607 -0.048088 -0.035589 0.16379 -0.12005 -0.079792 -0.075768 0.13407 0.30721 -0.045695 0.17784 0.19527 0.16456 0.1562 -0.081054 -0.25098 -0.054719 0.2213 -0.035045 -0.16629 0.027374 0.044265 -0.0011646 -0.040659 -0.090614 0.1525 -0.03081 0.031349 0.2167 -0.026992 -0.0006772 -0.062517 -0.091139 0.09781 -0.069518 0.18386 -0.28725 -0.13589 0.09685 0.11179 -0.14697 -0.4038 -0.022403 0.068293 0.35134 0.02858 0.17421 -0.39464 -0.022808 -0.084385 -0.13639 -0.18994 -0.33648 0.12961 0.14921 0.14383 0.1341 0.028632 0.1526 0.23567 0.17478 0.23317 -0.1516 0.18171 0.2127 -0.05437 0.093377 -0.11668 0.13605 -0.18459 -0.029078 0.13688 0.084286 -0.22711 0.16159 -0.092082 0.020051 0.19043 0.17623 0.35011 -0.18572 0.0018881 
Si -0.1568 0.029402 -0.0036081 -0.16917 0.075652 0.011717 0.077694 -0.023148 0.052964 0.038713 0.011858 -0.070014 0.00013224 -0.19592 0.43037 -0.2286 -0.060344 0.15077 -0.23987 -0.070638 -0.052306 0.17139 -0.1026 -0.068158 -0.064073 0.13357 0.30862 -0.045306 0.167 0.18326 0.1639 0.16076 -0.072797 -0.2637 -0.042557 0.22523 -0.048475 -0.15287 0.021073 0.034054 0.0096059 -0.036816 -0.087505 0.14329 -0.022459 0.039156 0.22009 -0.025841 0.004095 -0.067193 -0.091476 0.085307 -0.081894 0.18808 -0.28264 -0.139 0.087394 0.09843 -0.14721 -0.40473 -0.020196 0.057498 0.34571 0.055004 0.16889 -0.3924 -0.01157 -0.091022 -0.15194 -0.18248 -0.33734 0.11516 0.15102 0.15027 0.12661 0.035086 0.14882 0.22003 0.1782 0.23152 -0.1411 0.18231 0.20836 -0.095921 0.076968 -0.11687 0.12692 -0.17473 -0.034433 0.1138 0.093852 -0.21884 0.17182 -0.093119 0.032932 0.16283 0.16916 0.34514 -0.17989 -0.0094011 
corporis -0.1302 0.047182 -0.0034347 -0.15852 0.054347 0.010716 0.068653 -0.013835 0.026837 0.025035 -0.0025527 -0.078465 0.0075165 -0.19093 0.4424 -0.21516 -0.069035 0.13139 -0.25198 -0.081115 -0.065182 0.19143 -0.079947 -0.034589 -0.06198 0.10454 0.31584 -0.059816 0.15585 0.1592 0.12141 0.15824 -0.055961 -0.26099 -0.032832 0.23211 -0.06204 -0.12466 0.020868 -0.0013138 0.029511 -0.047101 -0.10443 0.12345 -0.006652 0.052054 0.2187 -0.033216 0.0063764 -0.068708 -0.083821 0.097565 -0.061749 0.21352 -0.27623 -0.14233 0.10415 0.086559 -0.16176 -0.38388 0.0038303 0.047435 0.33904 0.054352 0.17459 -0.36295 -0.0077628 -0.11084 -0.14107 -0.16517 -0.33795 0.13083 0.1615 0.13812 0.11938 0.039131 0.12758 0.21023 0.18146 0.2157 -0.13182 0.17955 0.19378 -0.11825 0.10093 -0.12108 0.10848 -0.18089 -0.04392 0.10285 0.10597 -0.21296 0.17057 -0.088631 0.043746 0.14206 0.15765 0.34236 -0.19951 -0.0055632 
se -0.16231 0.027117 -0.006924 -0.17204 0.094906 0.0014269 0.072993 -0.021552 0.055523 0.033942 0.012275 -0.056397 -0.0042441 -0.18818 0.43445 -0.2255 -0.062337 0.14115 -0.24183 -0.060994 -0.044795 0.16646 -0.10966 -0.08082 -0.069644 0.14765 0.30758 -0.048351 0.18345 0.19026 0.15978 0.15957 -0.082779 -0.25953 -0.049088 0.22336 -0.032687 -0.16223 0.023676 0.034661 0.0037175 -0.044486 -0.082936 0.15603 -0.023598 0.031438 0.22211 -0.021413 -0.0052891 -0.063165 -0.09348 0.09032 -0.081274 0.18797 -0.28978 -0.14348 0.094716 0.094131 -0.15017 -0.39936 -0.027677 0.074981 0.3525 0.037992 0.17901 -0.39059 -0.016809 -0.091182 -0.14805 -0.18513 -0.33624 0.12812 0.14867 0.15011 0.13465 0.036461 0.14531 0.23782 0.18036 0.22455 -0.14391 0.18447 0.22298 -0.079939 0.074739 -0.11412 0.13106 -0.17747 -0.038336 0.11556 0.084469 -0.2264 0.17745 -0.093769 0.02784 0.18367 0.16271 0.34654 -0.17719 -0.0012874 
ea -0.16194 0.026652 -0.0038357 -0.16816 0.085132 0.0050273 0.084913 -0.039466 0.052598 0.021972 0.002604 -0.066805 -0.00066463 -0.20155 0.44051 -0.23069 -0.072541 0.15415 -0.24436 -0.068841 -0.047344 0.17432 -0.10183 -0.062265 -0.070497 0.14074 0.31485 -0.048933 0.17395 0.20406 0.16553 0.16719 -0.082689 -0.27592 -0.045136 0.21732 -0.05519 -0.16245 0.032652 0.043201 0.012717 -0.031887 -0.087947 0.15618 -0.037355 0.037554 0.23896 -0.024929 0.0064033 -0.056253 -0.093274 0.083363 -0.074531 0.19079 -0.28768 -0.14776 0.099114 0.10461 -0.14549 -0.41028 -0.020477 0.067791 0.35048 0.044632 0.17627 -0.38624 -0.0099994 -0.10091 -0.14559 -0.18452 -0.34157 0.12481 0.15869 0.15817 0.12681 0.029823 0.14089 0.22921 0.1837 0.23228 -0.13139 0.18793 0.2005 -0.092081 0.075119 -0.11541 0.12873 -0.1851 -0.02565 0.11969 0.091492 -0.21815 0.17203 -0.10029 0.028254 0.17166 0.17312 0.34668 -0.17626 -0.022204 
sua -0.16946 0.016364 -0.016343 -0.16946 0.1022 0.0052166 0.078676 -0.035649 0.061495 0.035918 -0.0027067 -0.061276 0.00065176 -0.19644 0.45852 -0.23447 -0.058595 0.15837 -0.25683 -0.076627 -0.045025 0.16894 -0.10823 -0.080027 -0.073965 0.13981 0.31688 -0.046832 0.18588 0.19566 0.15597 0.17922 -0.087242 -0.27063 -0.060357 0.21891 -0.041775 -0.1679 0.035898 0.036389 -0.0041919 -0.039884 -0.089235 0.14481 -0.020017 0.041717 0.22988 -0.032745 0.0047318 -0.061281 -0.10125 0.084936 -0.075913 0.19206 -0.28925 -0.15585 0.11017 0.095111 -0.15503 -0.41356 -0.029383 0.061313 0.3551 0.052602 0.17739 -0.38754 -0.023046 -0.090259 -0.13852 -0.19619 -0.34706 0.12801 0.16094 0.15192 0.14393 0.037675 0.14091 0.23242 0.17595 0.233 -0.15371 0.19886 0.21052 -0.090461 0.086813 -0.1202 0.12631 -0.19091 -0.033752 0.11854 0.087465 -0.2269 0.16497 -0.083387 0.022827 0.17515 0.18601 0.35697 -0.18171 -0.016554 
alia -0.17567 0.035166 -0.0063839 -0.17895 0.10108 0.0034549 0.092096 -0.032474 0.046196 0.034327 0.0030961 -0.064753 0.0082454 -0.2033 0.44396 -0.23059 -0.071409 0.14076 -0.26685 -0.085793 -0.049518 0.17605 -0.11141 -0.08522 -0.067519 0.14467 0.32282 -0.040315 0.16573 0.19252 0.16966 0.18191 -0.070605 -0.27756 -0.033392 0.23608 -0.058494 -0.15733 0.033939 0.011427 0.029981 -0.045913 -0.094087 0.14216 -0.016036 0.036083 0.23919 -0.035406 0.0011641 -0.048624 -0.097427 0.083672 -0.060228 0.19716 -0.28268 -0.14531 0.098699 0.089701 -0.16944 -0.39525 -0.023346 0.063235 0.35402 0.044617 0.16767 -0.38822 -0.020421 -0.10024 -0.15622 -0.1795 -0.32922 0.13163 0.16211 0.14602 0.13063 0.039764 0.13416 0.22692 0.19072 0.21051 -0.15246 0.19145 0.21228 -0.09914 0.083858 -0.12336 0.11212 -0.18825 -0.046754 0.095022 0.08054 -0.22896 0.19367 -0.086055 0.024437 0.16541 0.16519 0.35056 -0.20005 -0.0077527 
omnibus -0.15165 0.033191 -0.0030331 -0.18183 0.095322 0.019427 0.073026 -0.042186 0.045704 0.028977 -0.0038879 -0.070327 0.00045472 -0.17652 0.44286 -0.21199 -0.063646 0.14104 -0.24341 -0.067024 -0.051099 0.17395 -0.12465 -0.087168 -0.077621 0.12988 0.30214 -0.076741 0.17707 0.19871 0.15028 0.14723 -0.075186 -0.24964 -0.056255 0.22221 -0.033318 -0.17263 0.021192 0.026118 0.0051539 -0.043354 -0.093221 0.16352 -0.021669 0.051929 0.22899 -0.028554 -0.015472 -0.080711 -0.060154 0.099386 -0.057436 0.19227 -0.30603 -0.1388 0.10724 0.12709 -0.15405 -0.38707 -0.01955 0.063547 0.33765 0.032793 0.17994 -0.38894 0.0087847 -0.08964 -0.14641 -0.1617 -0.33866 0.12703 0.1414 0.15259 0.12672 0.017084 0.13408 0.22963 0.18678 0.23564 -0.13536 0.19444 0.20468 -0.061988 0.083039 -0.11533 0.13256 -0.18799 -0.013079 0.11882 0.11336 -0.23088 0.18704 -0.098553 0.02266 0.15826 0.17462 0.33221 -0.18452 -0.020137 
enim -0.16353 0.034988 -0.0094477 -0.17259 0.083346 0.013658 0.083082 -0.029915 0.052883 0.035061 0.0052185 -0.073252 -0.0040679 -0.20052 0.44567 -0.23586 -0.067431 0.14823 -0.25061 -0.06752 -0.057524 0.1768 -0.10501 -0.074061 -0.075364 0.13512 0.31768 -0.044161 0.17979 0.18967 0.16817 0.16941 -0.08043 -0.26633 -0.044604 0.22564 -0.051185 -0.1643 0.02985 0.03509 0.0061409 -0.043732 -0.088414 0.14752 -0.024245 0.034368 0.23334 -0.025423 -0.0010889 -0.067672 -0.095939 0.087101 -0.072522 0.19388 -0.2884 -0.14845 0.095516 0.099146 -0.15545 -0.41273 -0.019729 0.066996 0.35544 0.050964 0.17722 -0.39098 -0.019389 -0.094786 -0.14899 -0.18536 -0.3413 0.1208 0.15887 0.15229 0.1324 0.034937 0.14475 0.23008 0.18177 0.23046 -0.14233 0.19188 0.20876 -0.097843 0.084034 -0.11733 0.12702 -0.18333 -0.04372 0.1156 0.089153 -0.22495 0.17391 -0.090414 0.034962 0.17028 0.16986 0.3512 -0.18912 -0.0063193 
suis -0.15624 0.032899 -0.0024612 -0.18577 0.084302 0.012593 0.084431 -0.045711 0.052945 0.024224 0.0027919 -0.072715 0.0075334 -0.20459 0.44241 -0.23939 -0.049682 0.13632 -0.26081 -0.0704 -0.061126 0.18202 -0.10205 -0.083634 -0.076026 0.12837 0.32024 -0.066935 0.19041 0.18982 0.15539 0.15805 -0.083256 -0.26413 -0.05443 0.22581 -0.04544 -0.15436 0.032396 0.013774 0.0038459 -0.055987 -0.086093 0.14236 -0.017307 0.057081 0.22405 -0.034069 -0.0050213 -0.073123 -0.084364 0.10324 -0.057271 0.20152 -0.30895 -0.14658 0.11627 0.10183 -0.15716 -0.42004 -0.03238 0.063251 0.3587 0.053518 0.17274 -0.39312 -0.012364 -0.092037 -0.13418 -0.17346 -0.35467 0.13034 0.15666 0.15414 0.13171 0.019413 0.14711 0.23457 0.16571 0.22844 -0.16424 0.19874 0.20853 -0.10819 0.086735 -0.11446 0.12931 -0.19293 -0.019536 0.11816 0.10752 -0.24039 0.18656 -0.092685 0.030361 0.16533 0.1804 0.34657 -0.19819 -0.016292 
erit -0.16911 0.034674 -0.0071811 -0.18483 0.081222 0.010518 0.081097 -0.033667 0.05756 0.026952 0.011766 -0.074988 -0.0083113 -0.20925 0.44731 -0.24117 -0.077175 0.14381 -0.24992 -0.070785 -0.046847 0.18342 -0.113 -0.080565 -0.08275 0.13891 0.32821 -0.051878 0.1751 0.20156 0.16266 0.17186 -0.079719 -0.25274 -0.038375 0.22986 -0.054498 -0.14779 0.026652 0.036356 0.015503 -0.045495 -0.10462 0.15222 -0.037859 0.043258 0.2261 -0.025727 0.0069191 -0.069571 -0.09132 0.09127 -0.074721 0.19648 -0.30074 -0.1451 0.10179 0.10047 -0.15198 -0.42599 -0.023553 0.067327 0.36211 0.051388 0.17879 -0.3929 -0.00032251 -0.087992 -0.16312 -0.1788 -0.34293 0.11649 0.15702 0.14922 0.13466 0.022162 0.15316 0.2357 0.19273 0.24498 -0.14963 0.1877 0.21977 -0.089266 0.081516 -0.12418 0.13286 -0.19045 -0.038949 0.1196 0.098455 -0.23052 0.17776 -0.093784 0.026258 0.17805 0.16688 0.33727 -0.19917 -0.01704 
cujus -0.15534 0.034742 -0.011239 -0.18182 0.081252 0.012247 0.065036 -0.036659 0.065012 0.042658 0.0064666 -0.076552 0.003072 -0.19146 0.44704 -0.21932 -0.058708 0.14488 -0.25754 -0.060285 -0.056175 0.17585 -0.11973 -0.08064 -0.07578 0.14295 0.31615 -0.057016 0.1799 0.19769 0.16106 0.15803 -0.086891 -0.26123 -0.051919 0.2375 -0.037409 -0.16278 0.018536 0.031679 0.005954 -0.046967 -0.083295 0.1588 -0.022485 0.038706 0.23303 -0.019013 -0.0083615 -0.078162 -0.085704 0.098349 -0.083239 0.19745 -0.302 -0.13877 0.1003 0.10715 -0.15346 -0.39773 -0.025652 0.063899 0.34814 0.034558 0.17909 -0.41049 -0.0045304 -0.099172 -0.14869 -0.18285 -0.34778 0.12463 0.14831 0.16176 0.14138 0.039015 0.14702 0.22748 0.18684 0.23596 -0.12729 0.19444 0.21505 -0.074285 0.078584 -0.11741 0.13317 -0.18723 -0.026498 0.11358 0.098134 -0.23116 0.18542 -0.10609 0.030478 0.17932 0.16144 0.34933 -0.17902 -0.014235 
corpus -0.13142 0.03926 -0.0049985 -0.16009 0.064516 0.014029 0.068014 -0.01897 0.036586 0.034 -0.0030262 -0.07649 0.0003741 -0.18574 0.44766 -0.21163 -0.069966 0.13791 -0.24301 -0.072299 -0.048584 0.17882 -0.089166 -0.044634 -0.071191 0.11477 0.31226 -0.060765 0.16054 0.17188 0.12703 0.16632 -0.061969 -0.25242 -0.04211 0.22836 -0.056461 -0.14717 0.022366 0.012812 0.024793 -0.048649 -0.098934 0.12897 -0.016804 0.044581 0.22032 -0.030765 0.0058225 -0.076572 -0.081969 0.096608 -0.068363 0.2048 -0.27862 -0.14175 0.09824 0.094592 -0.15381 -0.38121 0.0041125 0.054762 0.33867 0.048707 0.17524 -0.36966 -0.0049848 -0.10059 -0.13893 -0.17284 -0.3343 0.12559 0.15318 0.13914 0.12297 0.035264 0.1331 0.2153 0.18537 0.22095 -0.12975 0.18188 0.20267 -0.099615 0.097084 -0.12278 0.11613 -0.18258 -0.040722 0.10859 0.1063 -0.21717 0.17481 -0.090838 0.038701 0.14948 0.15302 0.341 -0.18874 -0.0098824 
quo -0.1798 -0.0034828 0.0083885 -0.15779 0.11627 -0.0066461 0.077074 -0.038166 0.044147 0.04284 0.0066558 -0.037218 -0.026657 -0.18781 0.43981 -0.23546 -0.064894 0.17114 -0.23552 -0.076271 -0.036876 0.1337 -0.14341 -0.086178 -0.068393 0.15494 0.30888 -0.037557 0.19983 0.21992 0.17135 0.16888 -0.083881 -0.25492 -0.052742 0.2139 -0.038831 -0.18114 0.001598 0.042929 -0.0053853 -0.043018 -0.086652 0.15644 -0.023133 0.01601 0.21756 -0.022996 -0.0038333 -0.078955 -0.077695 0.096533 -0.071162 0.16169 -0.27738 -0.14424 0.099646 0.10815 -0.15045 -0.4044 -0.020487 0.063879 0.34923 0.03335 0.1714 -0.39022 -0.01188 -0.083789 -0.14411 -0.18063 -0.32763 0.12205 0.12125 0.15247 0.13581 0.023139 0.15841 0.24721 0.1864 0.22677 -0.14655 0.18167 0.22598 -0.055271 0.077364 -0.12875 0.13257 -0.19461 -0.036024 0.12415 0.07815 -0.23893 0.18181 -0.080388 0.013909 0.19497 0.18823 0.3541 -0.18682 -0.0079012 
quedam -0.1643 0.017129 -0.003043 -0.15829 0.094245 0.000797 0.07587 -0.023077 0.048041 0.034975 -0.005279 -0.05991 -0.01086 -0.19587 0.44417 -0.23546 -0.059638 0.15689 -0.24233 -0.072294 -0.051333 0.1624 -0.11395 -0.070388 -0.071553 0.14013 0.30595 -0.043489 0.17696 0.18898 0.1667 0.17004 -0.078272 -0.26677 -0.043231 0.21285 -0.046757 -0.16012 0.01688 0.031356 0.011127 -0.034373 -0.096417 0.15544 -0.024367 0.02185 0.22834 -0.023305 0.0017695 -0.058328 -0.099642 0.087131 -0.070034 0.1733 -0.27307 -0.14544 0.1011 0.090347 -0.15341 -0.39439 -0.020273 0.06271 0.3445 0.047461 0.16578 -0.38311 -0.012708 -0.087227 -0.14333 -0.17761 -0.33011 0.12694 0.15052 0.14583 0.13106 0.031991 0.14292 0.23094 0.18208 0.22794 -0.14292 0.17383 0.21502 -0.079661 0.078097 -0.12087 0.11732 -0.18804 -0.040929 0.1065 0.076552 -0.22685 0.16466 -0.084785 0.021666 0.18428 0.174 0.35642 -0.18182 -0.011263 
multum -0.1616 0.034007 -1.9812e-05 -0.16391 0.086707 0.016572 0.063195 -0.01689 0.049387 0.033261 0.0073631 -0.070962 -0.0061632 -0.18638 0.44339 -0.23343 -0.054063 0.15215 -0.24171 -0.051204 -0.041706 0.17308 -0.11326 -0.071445 -0.074916 0.13789 0.30043 -0.051218 0.16611 0.17756 0.16445 0.15385 -0.074189 -0.25304 -0.049263 0.22316 -0.032039 -0.15801 0.027376 0.039505 -0.0020066 -0.039553 -0.09057 0.15576 -0.030212 0.029966 0.22284 -0.028829 0.0025883 -0.060394 -0.090746 0.090982 -0.07511 0.19544 -0.28239 -0.13942 0.096251 0.11052 -0.14811 -0.39227 -0.022096 0.077363 0.34947 0.03161 0.17438 -0.39363 -0.018154 -0.090112 -0.14904 -0.17931 -0.32765 0.13092 0.14884 0.14677 0.13044 0.038023 0.13886 0.2257 0.17686 0.22695 -0.14424 0.17417 0.2135 -0.062362 0.085953 -0.11683 0.13374 -0.18202 -0.030071 0.11832 0.079488 -0.22638 0.16538 -0.090577 0.026565 0.18404 0.16512 0.34854 -0.1786 -0.0048313 
aliis -0.16771 0.045934 -0.0034262 -0.1857 0.085189 0.015171 0.086375 -0.04223 0.045556 0.024322 0.005715 -0.073109 0.0062299 -0.20029 0.42951 -0.24176 -0.058354 0.12805 -0.25932 -0.064497 -0.055752 0.19247 -0.10574 -0.088752 -0.064266 0.13752 0.31451 -0.058475 0.17301 0.18078 0.17276 0.14883 -0.074027 -0.2654 -0.035116 0.23456 -0.054088 -0.14547 0.034185 0.0087668 0.018663 -0.053585 -0.084947 0.14228 -0.018282 0.052241 0.22886 -0.033806 -0.011437 -0.060185 -0.086266 0.096421 -0.056518 0.20785 -0.30124 -0.13626 0.10365 0.10426 -0.16661 -0.40695 -0.030638 0.06608 0.3543 0.041535 0.17216 -0.38935 -0.021707 -0.10236 -0.15073 -0.16826 -0.33759 0.12602 0.15187 0.14957 0.12863 0.03379 0.13546 0.2269 0.17282 0.21646 -0.15869 0.18788 0.2019 -0.10167 0.084314 -0.11679 0.12382 -0.18505 -0.035262 0.10501 0.1002 -0.23445 0.19475 -0.099624 0.032607 0.16587 0.16708 0.34268 -0.20118 -0.0049 
sic -0.15863 0.032135 -0.0046593 -0.16373 0.082785 0.0082896 0.080527 -0.038807 0.05608 0.035329 0.0074381 -0.065182 -0.0068548 -0.18105 0.4489 -0.23067 -0.051927 0.1485 -0.24669 -0.065652 -0.04851 0.17168 -0.10795 -0.074874 -0.075478 0.1344 0.30772 -0.054097 0.17533 0.19186 0.15917 0.16474 -0.080887 -0.26777 -0.051525 0.22106 -0.045228 -0.16488 0.028501 0.035963 0.0063127 -0.043297 -0.086203 0.15353 -0.023354 0.035496 0.22758 -0.025296 0.00030935 -0.058808 -0.096474 0.085397 -0.075293 0.19702 -0.29221 -0.14525 0.10493 0.10028 -0.15375 -0.39303 -0.025574 0.062829 0.34835 0.050173 0.17277 -0.3844 -0.012518 -0.092943 -0.14868 -0.17462 -0.34079 0.12751 0.15919 0.15764 0.12854 0.03713 0.14021 0.22277 0.18457 0.22616 -0.14719 0.19213 0.20414 -0.079249 0.079275 -0.11864 0.12155 -0.18495 -0.031151 0.1158 0.085071 -0.22138 0.17112 -0.090622 0.025701 0.16397 0.1692 0.35341 -0.17046 -0.0053784 
omnes -0.17219 0.029837 -0.0055575 -0.17087 0.091645 0.0015831 0.080694 -0.037132 0.060451 0.030555 0.0017976 -0.067285 -0.0030074 -0.20679 0.4489 -0.24148 -0.070423 0.16304 -0.24987 -0.072579 -0.049341 0.17145 -0.11485 -0.077278 -0.067935 0.14077 0.31668 -0.04543 0.18496 0.20442 0.1717 0.16551 -0.078671 -0.27209 -0.050042 0.22541 -0.043667 -0.17077 0.025893 0.042451 0.0090552 -0.036478 -0.093722 0.15851 -0.029173 0.037582 0.23843 -0.028711 3.4332e-05 -0.061413 -0.089274 0.082988 -0.075457 0.18955 -0.29228 -0.1535 0.096066 0.10512 -0.16048 -0.41274 -0.02187 0.066901 0.35429 0.049541 0.1801 -0.39581 -0.012201 -0.099488 -0.14724 -0.18445 -0.34977 0.12964 0.15983 0.16027 0.13425 0.033886 0.15072 0.23132 0.17636 0.23083 -0.14699 0.18618 0.21039 -0.085151 0.082235 -0.12344 0.12897 -0.1918 -0.03161 0.11358 0.086462 -0.22856 0.17435 -0.090038 0.027557 0.17795 0.1824 0.35407 -0.18912 -0.0089714 
tempore -0.13972 0.037567 -0.0074844 -0.16021 0.074451 0.010387 0.068131 -0.01459 0.027963 0.032295 -0.00035821 -0.069556 -0.0081403 -0.19188 0.44393 -0.22259 -0.073361 0.13965 -0.24677 -0.07182 -0.053426 0.18206 -0.091206 -0.051017 -0.06355 0.12243 0.31016 -0.052222 0.16718 0.1742 0.12874 0.16098 -0.062041 -0.26511 -0.042503 0.23051 -0.048633 -0.15118 0.0085874 0.01844 0.014351 -0.045609 -0.089635 0.13166 -0.011192 0.041566 0.22546 -0.032728 0.0054314 -0.07273 -0.087166 0.090889 -0.071842 0.20203 -0.28195 -0.14596 0.10327 0.09103 -0.15472 -0.39541 -0.0092287 0.059928 0.35476 0.047385 0.17449 -0.3798 -0.017702 -0.10808 -0.14663 -0.17158 -0.3418 0.13726 0.15606 0.15019 0.12725 0.033478 0.13559 0.21812 0.19244 0.22597 -0.13614 0.1842 0.20627 -0.095825 0.094307 -0.11575 0.11908 -0.17375 -0.038131 0.12015 0.10478 -0.22135 0.17755 -0.092992 0.040184 0.16126 0.16398 0.34162 -0.18612 -0.0064364 
sine -0.16513 0.043204 -0.0092233 -0.16729 0.079939 0.011096 0.065767 -0.028499 0.064694 0.037237 0.006428 -0.078139 -0.0012808 -0.18552 0.43991 -0.23443 -0.051479 0.15315 -0.24838 -0.055709 -0.060504 0.18135 -0.1047 -0.071496 -0.075708 0.13752 0.30697 -0.043571 0.16382 0.18264 0.17853 0.15093 -0.07286 -0.25549 -0.04174 0.23366 -0.042566 -0.15505 0.02423 0.044214 0.0035387 -0.043495 -0.080359 0.16048 -0.022828 0.030334 0.22657 -0.03276 -0.0048141 -0.067958 -0.0935 0.083201 -0.081183 0.2007 -0.29064 -0.14535 0.085621 0.10792 -0.15198 -0.39639 -0.023249 0.068618 0.3461 0.039024 0.17804 -0.3996 -0.017247 -0.097227 -0.15821 -0.18023 -0.33276 0.11946 0.1531 0.16129 0.13336 0.039983 0.14059 0.21801 0.18265 0.22966 -0.14163 0.18471 0.20567 -0.073919 0.066279 -0.11449 0.13493 -0.172 -0.032763 0.10677 0.089454 -0.21782 0.17231 -0.10469 0.036032 0.16752 0.16374 0.34086 -0.17461 -0.0076116 
tua -0.16364 0.011198 -0.013271 -0.15742 0.10647 0.016675 0.080833 -0.036172 0.05322 0.024281 0.0053389 -0.064239 -0.013153 -0.18093 0.44945 -0.23782 -0.049066 0.15624 -0.23953 -0.068599 -0.043332 0.16188 -0.11298 -0.078127 -0.073658 0.14561 0.31225 -0.046341 0.18467 0.20032 0.16695 0.18379 -0.077795 -0.26208 -0.06132 0.21719 -0.040955 -0.17237 0.020001 0.034075 0.0069655 -0.046719 -0.096945 0.14342 -0.032876 0.028538 0.22333 -0.027355 0.0031476 -0.081247 -0.085656 0.090702 -0.080263 0.18279 -0.28842 -0.15381 0.099238 0.10261 -0.14802 -0.42803 -0.035354 0.060609 0.36389 0.042438 0.16498 -0.3936 -0.012429 -0.066343 -0.13801 -0.18418 -0.34761 0.11276 0.14128 0.13974 0.13191 0.023716 0.1523 0.23824 0.17249 0.23967 -0.15272 0.19239 0.21277 -0.086763 0.077918 -0.10577 0.12976 -0.19027 -0.026591 0.12538 0.092489 -0.23487 0.17948 -0.082552 0.024207 0.1785 0.17993 0.3404 -0.17975 -0.014878 
modo -0.1557 0.042535 -0.0035729 -0.16183 0.073354 0.013465 0.062827 -0.024703 0.053853 0.035845 0.0066712 -0.07114 -0.0011574 -0.18311 0.42313 -0.22931 -0.0538 0.14748 -0.23484 -0.052112 -0.052935 0.17809 -0.10064 -0.075555 -0.064178 0.13275 0.29588 -0.045858 0.16728 0.17916 0.1587 0.13264 -0.076733 -0.25386 -0.047262 0.22413 -0.038808 -0.15094 0.029989 0.043172 0.00059734 -0.045007 -0.082174 0.14603 -0.019455 0.03638 0.21946 -0.021468 -0.0059519 -0.064969 -0.089078 0.09112 -0.073192 0.19343 -0.28483 -0.13767 0.091575 0.10639 -0.14366 -0.38543 -0.025715 0.070349 0.34435 0.031308 0.17192 -0.38486 -0.016188 -0.090546 -0.14974 -0.16938 -0.33116 0.1181 0.14492 0.14807 0.12694 0.038745 0.13948 0.21558 0.17181 0.22245 -0.13748 0.17729 0.19948 -0.06848 0.073823 -0.11041 0.13405 -0.17425 -0.027382 0.10992 0.090463 -0.21294 0.16765 -0.10403 0.034283 0.16863 0.15898 0.33569 -0.17503 -0.0089344 
pars -0.15587 0.043946 -0.016137 -0.15576 0.063538 0.0052587 0.068618 -0.01892 0.081121 0.051712 0.015951 -0.075887 0.016538 -0.19447 0.43014 -0.24048 -0.050037 0.15441 -0.24695 -0.054065 -0.075444 0.18056 -0.08972 -0.071408 -0.054641 0.1408 0.31674 -0.040415 0.17651 0.17929 0.19399 0.14769 -0.098995 -0.27318 -0.038407 0.22504 -0.053605 -0.14399 0.022842 0.054741 0.013016 -0.025323 -0.069524 0.15701 -0.03456 0.01505 0.24284 -0.011041 -0.010661 -0.051554 -0.11957 0.079415 -0.098008 0.20899 -0.29048 -0.15181 0.08691 0.095839 -0.15397 -0.41124 -0.03472 0.07419 0.36518 0.045234 0.17501 -0.41704 -0.027188 -0.11793 -0.16045 -0.18646 -0.34093 0.10924 0.1625 0.16551 0.13107 0.062204 0.15246 0.21235 0.16673 0.23951 -0.11749 0.1848 0.19756 -0.096292 0.061733 -0.12314 0.13135 -0.16718 -0.051799 0.12051 0.082023 -0.2108 0.16298 -0.11165 0.045135 0.18278 0.1554 0.35649 -0.17178 -0.0026075 
omnia -0.16235 0.03425 -0.01029 -0.16952 0.085455 0.0057486 0.074571 -0.02644 0.055255 0.029302 0.00062504 -0.070848 0.0031001 -0.1954 0.44336 -0.22875 -0.06494 0.15138 -0.24658 -0.067677 -0.0496 0.17455 -0.11022 -0.071908 -0.067624 0.13431 0.31081 -0.046986 0.17125 0.19133 0.16338 0.16528 -0.073896 -0.26244 -0.046321 0.22768 -0.045144 -0.16437 0.028321 0.035271 0.01308 -0.037779 -0.093255 0.15329 -0.029659 0.040467 0.23222 -0.022641 0.0029341 -0.06181 -0.087429 0.083141 -0.07285 0.19225 -0.28619 -0.14907 0.096117 0.10497 -0.15343 -0.40385 -0.018169 0.062645 0.3477 0.044487 0.1717 -0.39317 -0.0097475 -0.094223 -0.14744 -0.18099 -0.33387 0.12649 0.15519 0.15213 0.12702 0.033643 0.14406 0.22593 0.17993 0.22822 -0.13895 0.18085 0.20845 -0.083126 0.083426 -0.11751 0.12381 -0.18272 -0.031858 0.11095 0.08412 -0.22507 0.17437 -0.092997 0.02925 0.16672 0.17356 0.34284 -0.18668 -0.010717 
nisi -0.16126 0.0377 -0.0093845 -0.17209 0.082875 0.0084636 0.075091 -0.034173 0.060558 0.030443 0.0051018 -0.07687 0.0079701 -0.19987 0.43803 -0.2321 -0.064425 0.147 -0.24684 -0.06909 -0.052952 0.17583 -0.10372 -0.075952 -0.070439 0.13959 0.31323 -0.045459 0.17556 0.18629 0.16738 0.15816 -0.075914 -0.26124 -0.046492 0.23027 -0.052165 -0.1538 0.026234 0.030961 0.013318 -0.047489 -0.084606 0.14337 -0.028353 0.039608 0.22762 -0.028523 -0.0010486 -0.06462 -0.094717 0.086553 -0.073737 0.19211 -0.2879 -0.14791 0.094169 0.099695 -0.1539 -0.40834 -0.026456 0.062557 0.35404 0.050255 0.17323 -0.39257 -0.010926 -0.094072 -0.14847 -0.18197 -0.3392 0.11917 0.15115 0.15122 0.12668 0.03252 0.14466 0.2201 0.17363 0.22429 -0.14086 0.18202 0.20151 -0.095442 0.078766 -0.11493 0.12721 -0.18473 -0.032863 0.11599 0.092179 -0.22624 0.1751 -0.097722 0.034535 0.16777 0.16685 0.34462 -0.19014 -0.011392 
bonum -0.15792 0.030206 -0.0040654 -0.17386 0.087727 0.025621 0.061863 -0.040111 0.047843 0.023275 0.004812 -0.076872 -0.00098122 -0.19387 0.44472 -0.22666 -0.069281 0.15444 -0.23317 -0.050744 -0.032667 0.16688 -0.12749 -0.08339 -0.082236 0.13175 0.3036 -0.061831 0.17042 0.21047 0.16338 0.14548 -0.080356 -0.24782 -0.056273 0.21475 -0.038417 -0.1718 0.034464 0.04532 -0.0043958 -0.04663 -0.094516 0.16922 -0.032986 0.045155 0.2147 -0.020374 -0.0016924 -0.064991 -0.0723 0.10432 -0.065251 0.18566 -0.30609 -0.1466 0.099574 0.12482 -0.14682 -0.3954 -0.011222 0.069944 0.33926 0.028604 0.1866 -0.39352 -0.008254 -0.082922 -0.14066 -0.17733 -0.32989 0.13072 0.14872 0.15195 0.12651 0.016533 0.13863 0.24571 0.18467 0.23763 -0.14127 0.1778 0.21138 -0.050199 0.088013 -0.11654 0.13927 -0.1894 -0.014112 0.135 0.093788 -0.22731 0.16769 -0.10049 0.0070716 0.17827 0.1746 0.33801 -0.18592 -0.011907 
ideo -0.15966 0.030405 -0.0070854 -0.17068 0.088669 0.0064313 0.07806 -0.027843 0.059701 0.037575 0.0036739 -0.072869 0.0010091 -0.19371 0.44181 -0.23046 -0.062205 0.14759 -0.24782 -0.074245 -0.048927 0.17473 -0.10234 -0.072783 -0.070494 0.1359 0.31711 -0.042847 0.17167 0.19469 0.15859 0.17192 -0.077157 -0.26364 -0.046475 0.22816 -0.051552 -0.16027 0.03204 0.034138 0.01398 -0.043084 -0.087921 0.14268 -0.020377 0.03424 0.2291 -0.025086 0.0035299 -0.067352 -0.092444 0.083819 -0.076845 0.197 -0.28269 -0.14493 0.096829 0.10175 -0.15468 -0.40656 -0.020361 0.064643 0.35661 0.049286 0.1759 -0.38428 -0.015893 -0.099071 -0.1505 -0.18555 -0.33211 0.12524 0.15581 0.15874 0.13162 0.0366 0.14321 0.22716 0.18226 0.22536 -0.1395 0.18489 0.20767 -0.091251 0.08182 -0.1158 0.12325 -0.18265 -0.040461 0.11749 0.08881 -0.22457 0.17727 -0.090303 0.031542 0.16838 0.16938 0.34663 -0.18501 -0.0086482 
seu -0.16511 0.040033 -0.0051059 -0.17659 0.082312 0.011554 0.067707 -0.025925 0.059295 0.031521 0.0062119 -0.069914 0.0040986 -0.19713 0.43904 -0.2325 -0.059307 0.14276 -0.25359 -0.050376 -0.051389 0.17485 -0.1142 -0.076942 -0.074334 0.14132 0.31491 -0.053928 0.18376 0.19201 0.17518 0.15707 -0.082804 -0.26006 -0.052094 0.22727 -0.043205 -0.15847 0.0231 0.035707 0.0038027 -0.047937 -0.088181 0.15388 -0.029428 0.031083 0.22583 -0.024638 -0.0073381 -0.063515 -0.093262 0.096729 -0.077184 0.20255 -0.29446 -0.14523 0.093887 0.1059 -0.15448 -0.4163 -0.033647 0.068062 0.36013 0.038437 0.17643 -0.40536 -0.014638 -0.093198 -0.15317 -0.18591 -0.33996 0.12288 0.152 0.15537 0.1348 0.03415 0.15454 0.2314 0.1852 0.23228 -0.14231 0.18806 0.21196 -0.081443 0.079467 -0.11899 0.13888 -0.18227 -0.034475 0.11803 0.08863 -0.23101 0.18029 -0.10087 0.034549 0.18308 0.1675 0.34697 -0.18212 -0.0057178 
multa -0.1636 0.036233 -0.0035329 -0.17086 0.083779 0.0053415 0.073808 -0.022558 0.050949 0.037788 0.006739 -0.071145 -0.00054792 -0.19586 0.45338 -0.23985 -0.062735 0.15243 -0.25623 -0.067382 -0.056706 0.18382 -0.10465 -0.070353 -0.076923 0.14134 0.31681 -0.051083 0.16989 0.18698 0.16658 0.16207 -0.077222 -0.26797 -0.045244 0.2323 -0.044145 -0.15614 0.030972 0.025487 0.010097 -0.036964 -0.093712 0.15356 -0.021617 0.035971 0.23765 -0.029309 0.0028691 -0.060922 -0.092624 0.087152 -0.074804 0.19768 -0.28676 -0.1494 0.10255 0.10386 -0.15785 -0.4026 -0.024232 0.070536 0.35925 0.045309 0.17982 -0.39902 -0.015048 -0.10225 -0.15566 -0.17935 -0.34026 0.13282 0.16026 0.15809 0.13113 0.046865 0.1334 0.22447 0.18084 0.22975 -0.14464 0.18615 0.21484 -0.086754 0.083085 -0.11954 0.12608 -0.18566 -0.035482 0.10867 0.093574 -0.22519 0.17804 -0.092111 0.035011 0.1765 0.17114 0.35393 -0.18799 -0.0064295 
nature -0.14868 0.046902 -0.014122 -0.16385 0.059315 0.0077976 0.085062 -0.016407 0.061627 0.040845 -0.005109 -0.065063 0.015449 -0.19743 0.42491 -0.22668 -0.073133 0.14602 -0.25323 -0.07816 -0.068465 0.1835 -0.073174 -0.049904 -0.058147 0.12259 0.31439 -0.037421 0.16542 0.17492 0.15774 0.1647 -0.081442 -0.2801 -0.04005 0.2242 -0.068258 -0.15073 0.038852 0.030151 0.023434 -0.043558 -0.08659 0.12945 -0.023214 0.021906 0.23469 -0.028585 -0.0031508 -0.049726 -0.1064 0.075321 -0.081517 0.20057 -0.2673 -0.1591 0.088123 0.089429 -0.15212 -0.40059 -0.012179 0.064041 0.35402 0.055264 0.1668 -0.37632 -0.02272 -0.10903 -0.1572 -0.18118 -0.33132 0.1186 0.15994 0.14508 0.12443 0.049336 0.13991 0.20509 0.18014 0.21735 -0.11572 0.18373 0.18719 -0.11395 0.082152 -0.11482 0.11583 -0.17826 -0.049428 0.10569 0.089581 -0.20185 0.1708 -0.095126 0.048153 0.15479 0.15514 0.35742 -0.1777 0.0043765 
donec -0.174 0.041779 -0.014545 -0.16745 0.079152 0.0076632 0.075021 -0.024878 0.068246 0.04194 0.0048619 -0.075845 -8.0161e-05 -0.20969 0.45203 -0.25258 -0.063067 0.16519 -0.26107 -0.078111 -0.066448 0.18348 -0.099034 -0.067536 -0.067965 0.14288 0.32397 -0.039868 0.17738 0.19018 0.18558 0.16764 -0.082912 -0.27975 -0.047541 0.23474 -0.049917 -0.16564 0.033008 0.055167 0.010715 -0.040818 -0.088428 0.15326 -0.035144 0.032252 0.24673 -0.023648 0.0057925 -0.056469 -0.12033 0.070038 -0.089992 0.19845 -0.29218 -0.15902 0.090941 0.10102 -0.15712 -0.431 -0.02413 0.069754 0.3691 0.054152 0.18054 -0.41042 -0.022096 -0.10776 -0.16015 -0.19629 -0.35334 0.11905 0.16885 0.16396 0.13193 0.043949 0.15573 0.227 0.18144 0.24273 -0.14199 0.18027 0.21197 -0.10088 0.073422 -0.12533 0.14463 -0.17749 -0.039823 0.115 0.079348 -0.22641 0.16565 -0.095453 0.043553 0.18012 0.17931 0.3683 -0.18506 -0.010725 
bene -0.16583 0.053435 -0.012976 -0.16348 0.07207 0.014578 0.070104 -0.026775 0.068595 0.038332 -0.0094306 -0.089129 -0.00019891 -0.2023 0.43579 -0.24808 -0.046532 0.16136 -0.25883 -0.059545 -0.070333 0.18681 -0.088402 -0.063072 -0.062015 0.1329 0.31318 -0.036788 0.16905 0.17557 0.18849 0.14747 -0.077892 -0.2708 -0.050994 0.22137 -0.051156 -0.15515 0.036112 0.048212 0.0057619 -0.034779 -0.086693 0.15484 -0.029844 0.029316 0.23813 -0.022312 -0.0024324 -0.055267 -0.10906 0.082277 -0.084809 0.19475 -0.29002 -0.15018 0.078623 0.10164 -0.14342 -0.41479 -0.029889 0.073849 0.3638 0.047259 0.17862 -0.4048 -0.017811 -0.10508 -0.15827 -0.18709 -0.35067 0.11686 0.16695 0.15964 0.1288 0.0466 0.14869 0.21594 0.17303 0.24436 -0.13868 0.17734 0.1964 -0.092165 0.067281 -0.1153 0.14611 -0.17291 -0.041501 0.10471 0.07923 -0.22264 0.15675 -0.096961 0.050087 0.17377 0.16592 0.35694 -0.17484 -0.00029022 
operibus -0.15534 0.031155 -0.005496 -0.18459 0.095014 0.018933 0.080179 -0.047529 0.046483 0.029025 -0.0022381 -0.069258 -0.0023902 -0.18656 0.45904 -0.22223 -0.069052 0.14127 -0.24672 -0.067401 -0.052631 0.17765 -0.12743 -0.09135 -0.084209 0.13062 0.31674 -0.078514 0.18537 0.20773 0.15876 0.15715 -0.08238 -0.25554 -0.05639 0.22709 -0.037985 -0.17235 0.024963 0.025224 0.0071176 -0.052087 -0.09466 0.15988 -0.021433 0.05384 0.23117 -0.026452 -0.013188 -0.083049 -0.063368 0.10619 -0.059891 0.19905 -0.32007 -0.14217 0.11434 0.12486 -0.15582 -0.40747 -0.021951 0.062204 0.34917 0.03442 0.183 -0.39603 0.0076265 -0.0862 -0.1492 -0.16511 -0.34582 0.12797 0.14563 0.15895 0.12918 0.015747 0.14389 0.24122 0.18823 0.24341 -0.14305 0.20272 0.21467 -0.070048 0.086064 -0.11453 0.13342 -0.19306 -0.014976 0.1301 0.11918 -0.24131 0.18944 -0.10479 0.018947 0.15888 0.18059 0.33954 -0.19073 -0.021405 
rex -0.16009 0.024092 -0.0045828 -0.16546 0.098843 0.02019 0.069442 -0.03704 0.053217 0.036456 0.00074532 -0.063755 -0.0062761 -0.184 0.44527 -0.24244 -0.03776 0.14554 -0.2459 -0.054453 -0.047709 0.16924 -0.11307 -0.087149 -0.087226 0.1424 0.30171 -0.059916 0.17666 0.19221 0.16716 0.16063 -0.078759 -0.25393 -0.058677 0.21506 -0.033806 -0.17776 0.034284 0.03693 -0.0077641 -0.047264 -0.080476 0.15871 -0.018041 0.045818 0.22791 -0.033304 -0.011915 -0.074917 -0.081429 0.10158 -0.06621 0.19565 -0.29836 -0.13714 0.10138 0.11016 -0.14653 -0.39677 -0.036508 0.071541 0.34772 0.032581 0.17418 -0.39626 -0.012018 -0.09551 -0.13522 -0.17437 -0.32593 0.13622 0.15631 0.15819 0.1309 0.025518 0.13545 0.23781 0.18863 0.23914 -0.15477 0.20086 0.21734 -0.057237 0.073877 -0.11346 0.13513 -0.18067 -0.020363 0.11077 0.093632 -0.23174 0.18049 -0.093674 0.023353 0.17578 0.17012 0.35425 -0.17237 -0.016518 
quoniam -0.16275 0.013392 0.0025772 -0.16216 0.10571 0.0033342 0.074734 -0.029589 0.050792 0.030992 0.0024544 -0.05268 -0.013193 -0.18747 0.44428 -0.23131 -0.059529 0.15602 -0.23681 -0.071961 -0.039736 0.15575 -0.12345 -0.077485 -0.076114 0.14168 0.3085 -0.046219 0.18098 0.20011 0.16157 0.17115 -0.074733 -0.25738 -0.05385 0.21523 -0.040222 -0.16614 0.01795 0.034408 0.0024936 -0.045602 -0.09079 0.14835 -0.026282 0.029753 0.21579 -0.024024 0.0023823 -0.072701 -0.090886 0.097206 -0.065638 0.1782 -0.28288 -0.14593 0.10127 0.09791 -0.15087 -0.40202 -0.021151 0.061059 0.35123 0.036751 0.1703 -0.38491 -0.014352 -0.086121 -0.14184 -0.18285 -0.33194 0.12353 0.14022 0.14028 0.1316 0.025415 0.14843 0.23931 0.18709 0.22864 -0.14891 0.18629 0.21843 -0.074874 0.086382 -0.11784 0.12866 -0.19444 -0.03608 0.11929 0.082055 -0.23429 0.1765 -0.085429 0.021082 0.18024 0.18206 0.34944 -0.18589 -0.0089877 
sub -0.1688 0.025273 -0.015706 -0.17615 0.091271 0.0061874 0.081977 -0.035448 0.078886 0.046139 -0.0042486 -0.076805 0.0055496 -0.20851 0.44796 -0.24353 -0.049784 0.16376 -0.25684 -0.079223 -0.054647 0.17269 -0.096828 -0.075335 -0.074701 0.13391 0.32896 -0.046678 0.19631 0.1934 0.18212 0.18068 -0.091156 -0.28086 -0.060617 0.2154 -0.046695 -0.17884 0.050453 0.048808 -0.004569 -0.040545 -0.083279 0.1493 -0.020007 0.034926 0.23495 -0.038642 0.0015794 -0.062526 -0.11506 0.07551 -0.086775 0.19159 -0.29783 -0.16476 0.099273 0.095213 -0.15365 -0.42791 -0.038944 0.070101 0.36537 0.060045 0.16763 -0.4032 -0.019395 -0.11406 -0.14634 -0.2013 -0.3537 0.13346 0.1726 0.15949 0.14011 0.043367 0.15476 0.22751 0.17792 0.24468 -0.1605 0.19576 0.2152 -0.095857 0.067476 -0.12034 0.1308 -0.18786 -0.030494 0.11703 0.07492 -0.23001 0.16667 -0.084337 0.030194 0.17573 0.18428 0.37684 -0.1754 -0.012771 
eos -0.16364 0.038479 -0.0072523 -0.16615 0.082276 0.0048822 0.078163 -0.026594 0.057327 0.030479 0.0035559 -0.070534 -0.00053937 -0.19241 0.43831 -0.2378 -0.057689 0.14938 -0.24389 -0.069246 -0.058087 0.17351 -0.10579 -0.071092 -0.075385 0.13306 0.30892 -0.048998 0.17878 0.19321 0.16789 0.16417 -0.076678 -0.2616 -0.049393 0.21728 -0.04479 -0.15481 0.027069 0.036885 0.0058899 -0.039968 -0.085965 0.14203 -0.023103 0.039882 0.22887 -0.023634 0.0023587 -0.067592 -0.089344 0.083266 -0.07422 0.18952 -0.28803 -0.14441 0.095637 0.1086 -0.14878 -0.40475 -0.026439 0.068243 0.34852 0.047919 0.1699 -0.38327 -0.015832 -0.090582 -0.14446 -0.17332 -0.33774 0.1217 0.15491 0.15237 0.12631 0.03189 0.14196 0.22177 0.17305 0.23041 -0.1446 0.18391 0.20452 -0.085488 0.079878 -0.11297 0.13243 -0.1808 -0.033175 0.11786 0.08429 -0.22202 0.16598 -0.089281 0.02959 0.16892 0.17167 0.34447 -0.18377 -0.01623 
pro -0.15511 0.047815 0.0096519 -0.17117 0.093162 0.020775 0.059015 -0.014445 0.047827 0.033399 -0.00077574 -0.081057 -0.0016935 -0.1745 0.46254 -0.23794 -0.046028 0.1544 -0.25088 -0.050147 -0.050811 0.18989 -0.11432 -0.064215 -0.075498 0.14484 0.29984 -0.059826 0.17438 0.18627 0.16728 0.14417 -0.073986 -0.26386 -0.053039 0.24046 -0.030067 -0.16029 0.015947 0.031418 -0.0042039 -0.041329 -0.093046 0.16772 -0.013858 0.030656 0.23254 -0.024442 -0.0095658 -0.072803 -0.083011 0.10062 -0.091211 0.20539 -0.30389 -0.14937 0.097986 0.12029 -0.15297 -0.39804 -0.026735 0.079134 0.36052 0.028189 0.18759 -0.41252 -0.00612 -0.10032 -0.16289 -0.17143 -0.35659 0.14176 0.15956 0.16274 0.1325 0.044862 0.14875 0.22395 0.19827 0.24513 -0.13889 0.18498 0.2165 -0.062166 0.076399 -0.11483 0.1404 -0.17702 -0.022616 0.11516 0.093704 -0.23057 0.18616 -0.10543 0.038766 0.18138 0.16835 0.35478 -0.18132 -0.0046457 
De -0.14632 0.035145 -0.0071333 -0.15765 0.082301 0.0096946 0.067958 -0.023518 0.058478 0.034138 0.0067908 -0.067693 -0.0027592 -0.17991 0.40713 -0.22506 -0.050738 0.1444 -0.22905 -0.056206 -0.050138 0.15873 -0.098788 -0.068257 -0.065353 0.12794 0.28992 -0.03877 0.16499 0.17343 0.16385 0.14535 -0.073662 -0.24349 -0.048263 0.20698 -0.042422 -0.15041 0.033597 0.039976 0.0053343 -0.03747 -0.074403 0.14027 -0.025991 0.032315 0.21135 -0.020135 -0.0037031 -0.063832 -0.093735 0.076527 -0.066605 0.17832 -0.26458 -0.13874 0.086484 0.09401 -0.14246 -0.37347 -0.02948 0.065227 0.33332 0.040607 0.16003 -0.36699 -0.016238 -0.089111 -0.13686 -0.17279 -0.31016 0.10898 0.14446 0.14752 0.12665 0.044561 0.13601 0.20371 0.16139 0.21621 -0.1308 0.16656 0.18828 -0.077138 0.068517 -0.10569 0.1239 -0.16371 -0.033134 0.10923 0.078605 -0.21218 0.15782 -0.085211 0.035711 0.16203 0.15798 0.32512 -0.16485 -0.0070083 
post -0.16513 0.055315 -0.011312 -0.18613 0.056448 0.0049465 0.079081 -0.031539 0.072156 0.025434 -0.0051952 -0.086616 0.017088 -0.23857 0.45482 -0.25664 -0.073531 0.15244 -0.26751 -0.078729 -0.077585 0.19582 -0.080448 -0.061841 -0.061134 0.13403 0.34368 -0.04095 0.17505 0.19003 0.18789 0.15861 -0.077864 -0.28414 -0.039264 0.24054 -0.067282 -0.146 0.037274 0.025581 0.019862 -0.048572 -0.093357 0.14243 -0.039093 0.047033 0.25019 -0.027532 0.0068025 -0.045522 -0.1153 0.088805 -0.082972 0.21258 -0.32106 -0.14742 0.098523 0.095306 -0.16736 -0.45435 -0.022372 0.061857 0.38259 0.064371 0.18219 -0.41764 -0.016629 -0.10131 -0.16128 -0.19301 -0.36482 0.11402 0.1759 0.16451 0.1313 0.035184 0.15308 0.22759 0.17703 0.24542 -0.15548 0.18928 0.21137 -0.13595 0.084355 -0.12121 0.1446 -0.18766 -0.04705 0.11687 0.094716 -0.21747 0.17093 -0.097381 0.045053 0.17385 0.17565 0.36728 -0.20632 -0.00080984 
usque -0.16607 0.041679 -0.0085989 -0.17772 0.072124 0.0056641 0.089823 -0.027199 0.059834 0.037691 0.011929 -0.084462 0.012761 -0.22121 0.45329 -0.24429 -0.081894 0.15923 -0.25653 -0.068427 -0.054796 0.17735 -0.10965 -0.07681 -0.070162 0.14655 0.33845 -0.042437 0.19169 0.20065 0.18015 0.17975 -0.084778 -0.28149 -0.046915 0.23778 -0.05469 -0.15772 0.03765 0.039833 0.022314 -0.047542 -0.092 0.14438 -0.039508 0.029635 0.24896 -0.026195 0.01611 -0.058571 -0.10379 0.088789 -0.09042 0.2018 -0.30517 -0.1482 0.098532 0.10144 -0.16261 -0.44797 -0.022397 0.071912 0.3883 0.059459 0.18323 -0.41027 -0.017908 -0.10237 -0.15987 -0.18588 -0.35643 0.12968 0.1733 0.16259 0.13102 0.037783 0.16947 0.24319 0.19422 0.23544 -0.15641 0.19265 0.21695 -0.10869 0.080066 -0.12169 0.13202 -0.18517 -0.052294 0.11958 0.08916 -0.22905 0.17294 -0.10494 0.041589 0.18293 0.17045 0.36924 -0.2027 -0.014255 
Deus -0.15859 0.020442 -0.013855 -0.1835 0.093167 0.0075731 0.073964 -0.043681 0.06069 0.034654 0.011707 -0.06505 -0.007235 -0.18234 0.4355 -0.2174 -0.059747 0.14456 -0.24375 -0.068929 -0.045102 0.15729 -0.11954 -0.08416 -0.085204 0.13806 0.30688 -0.059542 0.18512 0.1996 0.16019 0.16701 -0.078204 -0.24779 -0.063043 0.22782 -0.041557 -0.1721 0.024482 0.024888 0.0051168 -0.051766 -0.082494 0.14441 -0.029143 0.049633 0.21962 -0.022226 -0.0010527 -0.077242 -0.083209 0.091394 -0.069318 0.18363 -0.28787 -0.14118 0.10854 0.11061 -0.14509 -0.40711 -0.024165 0.061742 0.3487 0.041629 0.17408 -0.39179 -0.0074466 -0.093676 -0.13501 -0.17543 -0.33091 0.11745 0.13706 0.14902 0.13195 0.029292 0.14195 0.23049 0.17592 0.22426 -0.14886 0.1947 0.20879 -0.077713 0.074995 -0.11785 0.12608 -0.19095 -0.023532 0.11543 0.093688 -0.23243 0.18411 -0.08654 0.031151 0.16667 0.16252 0.3444 -0.18544 -0.02056 
signa -0.16573 0.037658 -0.005545 -0.17043 0.073387 0.00037704 0.082104 -0.035367 0.068626 0.041306 0.0099375 -0.070402 0.0035468 -0.19789 0.42385 -0.2293 -0.062024 0.14958 -0.25082 -0.067525 -0.058992 0.17187 -0.10911 -0.076043 -0.068059 0.13882 0.30679 -0.046369 0.1793 0.19041 0.16672 0.14936 -0.080908 -0.25539 -0.039481 0.22262 -0.053176 -0.14473 0.02813 0.042683 0.017924 -0.042145 -0.081428 0.14473 -0.024024 0.027551 0.22548 -0.026435 -0.0035373 -0.053263 -0.09291 0.078997 -0.077876 0.19329 -0.2851 -0.13784 0.090422 0.095223 -0.15261 -0.39614 -0.028658 0.064727 0.33428 0.050627 0.17656 -0.38783 -0.010799 -0.097639 -0.15707 -0.17679 -0.32914 0.11235 0.15389 0.15776 0.12666 0.041316 0.14195 0.21758 0.17686 0.22409 -0.13861 0.18794 0.19717 -0.091525 0.075967 -0.11761 0.11917 -0.18089 -0.045392 0.11094 0.078573 -0.22184 0.16662 -0.098092 0.024986 0.16043 0.16091 0.33758 -0.17457 -0.010073 
planetarum -0.16433 0.039932 0.0067167 -0.15935 0.086947 0.013488 0.074164 -0.018801 0.054188 0.030541 0.0043689 -0.061898 0.0012803 -0.19553 0.43379 -0.23464 -0.047957 0.14815 -0.23932 -0.035454 -0.046039 0.16403 -0.13027 -0.080202 -0.071195 0.14112 0.29502 -0.036757 0.19206 0.201 0.16917 0.13251 -0.092756 -0.25154 -0.046733 0.2176 -0.038901 -0.14723 0.02467 0.047136 -0.009844 -0.040693 -0.089787 0.15618 -0.019266 0.025946 0.21323 -0.025164 -0.021762 -0.058714 -0.077322 0.10435 -0.08243 0.18532 -0.29316 -0.13339 0.094473 0.11837 -0.15479 -0.39141 -0.026856 0.083405 0.33986 0.020475 0.17324 -0.40368 -0.0096237 -0.086216 -0.15954 -0.17878 -0.33512 0.13125 0.14264 0.15417 0.13194 0.039478 0.15566 0.23022 0.16835 0.22446 -0.13777 0.18673 0.20666 -0.047838 0.088852 -0.11787 0.13829 -0.18407 -0.03218 0.13011 0.0789 -0.22921 0.16661 -0.11192 0.017643 0.18501 0.16448 0.34999 -0.17577 0.0050069 
oportet -0.15962 0.028975 0.0011777 -0.16739 0.088922 0.0034536 0.079776 -0.030556 0.05203 0.032631 0.0073971 -0.066254 -0.0025859 -0.19408 0.44218 -0.23353 -0.059685 0.14847 -0.24377 -0.068726 -0.045927 0.17098 -0.11157 -0.076053 -0.067404 0.14258 0.31121 -0.042508 0.17789 0.19323 0.16803 0.1593 -0.077431 -0.26137 -0.049142 0.22385 -0.045487 -0.15711 0.018971 0.03448 0.0054824 -0.044487 -0.086362 0.14955 -0.02855 0.032759 0.22588 -0.022943 -0.0013064 -0.066244 -0.088176 0.090655 -0.077 0.19028 -0.29239 -0.14302 0.097889 0.10132 -0.15424 -0.41286 -0.024024 0.061434 0.35439 0.048493 0.17598 -0.39063 -0.016637 -0.091639 -0.1523 -0.17881 -0.33565 0.12082 0.14767 0.15543 0.12947 0.032705 0.149 0.22884 0.17711 0.23399 -0.14531 0.17946 0.21403 -0.084891 0.080741 -0.11503 0.13282 -0.18441 -0.0354 0.12076 0.088173 -0.22822 0.17879 -0.095472 0.027774 0.17462 0.17228 0.34609 -0.18599 -0.0066923 
suo -0.1636 0.017671 -0.0025427 -0.16628 0.10222 0.010765 0.07767 -0.034644 0.056294 0.034711 0.004429 -0.0577 -0.0075004 -0.19974 0.44633 -0.22767 -0.060193 0.1499 -0.24968 -0.069398 -0.03981 0.15913 -0.11885 -0.081535 -0.069958 0.13885 0.31192 -0.048634 0.18924 0.19751 0.16371 0.17106 -0.085091 -0.26456 -0.05903 0.22131 -0.041849 -0.16236 0.030371 0.039717 0.00014132 -0.041404 -0.087038 0.14445 -0.026317 0.038085 0.22981 -0.026008 0.0091979 -0.070857 -0.091459 0.091734 -0.068102 0.18289 -0.28455 -0.15084 0.10125 0.098972 -0.15603 -0.4139 -0.027837 0.059816 0.35582 0.045066 0.17134 -0.38991 -0.018536 -0.095921 -0.13501 -0.18553 -0.34179 0.12956 0.15072 0.15202 0.13943 0.028277 0.14609 0.23446 0.17633 0.23011 -0.15767 0.1922 0.21442 -0.079104 0.082523 -0.11618 0.12658 -0.19241 -0.027244 0.12469 0.084634 -0.23109 0.16826 -0.080619 0.019649 0.1752 0.17686 0.35344 -0.18872 -0.014683 
esse -0.16159 0.025304 -0.0042785 -0.17025 0.090805 0.0079873 0.080816 -0.034171 0.056621 0.034812 0.0049223 -0.063918 -0.0068317 -0.19148 0.43941 -0.23814 -0.064143 0.14128 -0.24246 -0.074505 -0.052253 0.17216 -0.10728 -0.075359 -0.072913 0.13126 0.31125 -0.051662 0.16822 0.18869 0.16962 0.1722 -0.072181 -0.25647 -0.048897 0.22572 -0.047563 -0.1588 0.028062 0.028955 0.009452 -0.049787 -0.088777 0.14719 -0.031526 0.038203 0.23228 -0.025169 0.0049484 -0.067378 -0.094102 0.081912 -0.071691 0.19316 -0.29136 -0.14361 0.09651 0.099429 -0.1453 -0.40814 -0.027325 0.063394 0.35421 0.050043 0.17351 -0.38255 -0.01162 -0.090253 -0.14646 -0.1812 -0.33707 0.119 0.15265 0.15275 0.12756 0.031629 0.14086 0.22627 0.17753 0.22826 -0.14561 0.1848 0.20979 -0.091507 0.075901 -0.11234 0.12589 -0.18494 -0.037827 0.11339 0.090172 -0.22311 0.17693 -0.089282 0.02672 0.16682 0.17167 0.34129 -0.18496 -0.011707 
itaque -0.13918 0.040459 -0.015643 -0.15358 0.05613 0.0051041 0.075091 -0.027449 0.056618 0.029195 0.00092573 -0.075907 0.011485 -0.1921 0.40237 -0.21618 -0.064039 0.12864 -0.23195 -0.069338 -0.060244 0.16439 -0.089056 -0.060909 -0.054309 0.11811 0.29184 -0.039307 0.16456 0.16609 0.15387 0.15102 -0.069345 -0.2483 -0.041503 0.21273 -0.055502 -0.13288 0.028616 0.025159 0.020089 -0.042636 -0.081722 0.12009 -0.024543 0.031143 0.21454 -0.025162 0.0071331 -0.055168 -0.096462 0.078115 -0.071244 0.18015 -0.26888 -0.13694 0.087589 0.082136 -0.14146 -0.3863 -0.021424 0.053874 0.33278 0.055791 0.16036 -0.35737 -0.012421 -0.088301 -0.13516 -0.16426 -0.31662 0.10586 0.14831 0.13918 0.11471 0.03193 0.1396 0.20522 0.15904 0.20513 -0.13275 0.16434 0.1819 -0.10906 0.072511 -0.10788 0.11098 -0.165 -0.045061 0.10124 0.08853 -0.19984 0.15544 -0.090317 0.043269 0.14684 0.15394 0.3269 -0.17694 -0.0076099 
O -0.13856 0.035167 0.00087493 -0.16275 0.084076 0.009895 0.060256 -0.01231 0.061604 0.041457 0.00053082 -0.062219 -0.0022592 -0.17824 0.41355 -0.21786 -0.063981 0.12972 -0.23267 -0.064197 -0.053709 0.16274 -0.103 -0.065552 -0.070324 0.13208 0.2854 -0.045582 0.16477 0.17295 0.15076 0.15077 -0.076701 -0.25001 -0.054751 0.21595 -0.050001 -0.14917 0.020063 0.033165 0.0020176 -0.04055 -0.07915 0.13879 -0.024629 0.024083 0.20363 -0.031831 -0.0039535 -0.061485 -0.1006 0.07354 -0.064094 0.17451 -0.26646 -0.13832 0.083057 0.095643 -0.13266 -0.37896 -0.023475 0.059411 0.34137 0.043836 0.1655 -0.36539 -0.0080489 -0.079008 -0.1465 -0.16694 -0.31349 0.11316 0.13451 0.14027 0.1291 0.027436 0.13483 0.21536 0.16884 0.2126 -0.12889 0.16461 0.18132 -0.077242 0.079696 -0.10124 0.12343 -0.17046 -0.037276 0.11602 0.078438 -0.20471 0.16303 -0.08523 0.038625 0.15963 0.16474 0.32068 -0.1709 -0.012043 
sibi -0.1628 0.019531 -0.0032589 -0.1766 0.092586 0.0065139 0.078557 -0.041687 0.067237 0.036159 0.0069233 -0.063123 -0.0018534 -0.19541 0.45569 -0.23956 -0.04713 0.14689 -0.24737 -0.080201 -0.049935 0.16752 -0.11141 -0.086599 -0.086613 0.14147 0.31548 -0.065368 0.18491 0.19334 0.16417 0.17434 -0.080158 -0.26417 -0.05863 0.22756 -0.034495 -0.18181 0.035892 0.032758 0.0024656 -0.052775 -0.076017 0.15564 -0.020781 0.044807 0.2386 -0.033428 -0.0044025 -0.076824 -0.091858 0.091337 -0.075149 0.20264 -0.30127 -0.14681 0.10834 0.10723 -0.15713 -0.40864 -0.029668 0.067447 0.35237 0.050691 0.17589 -0.39699 -0.0084967 -0.099943 -0.14575 -0.18424 -0.34092 0.13061 0.16154 0.16121 0.13527 0.030274 0.14041 0.23941 0.18461 0.24307 -0.15569 0.20937 0.21826 -0.079697 0.077917 -0.11861 0.13456 -0.19064 -0.027376 0.11082 0.0952 -0.23334 0.19016 -0.089297 0.02486 0.16684 0.17689 0.36125 -0.17865 -0.01847 
