980 100
</s> -0.050133 0.01868 0.10686 0.036972 0.1052 0.10445 -0.44502 -0.074354 -0.32474 -0.16155 -0.44275 -0.24545 0.012994 0.1431 -0.26301 -0.077027 0.003644 0.074897 0.016708 -0.10775 0.34756 0.080412 0.051593 -0.26472 -0.21006 0.16054 0.032521 -0.16412 -0.20846 0.11318 0.043681 -0.54606 -0.023175 0.24549 -0.067097 0.15352 0.1738 -0.11338 -0.25127 0.19942 -0.35807 0.28865 -0.2511 0.0833 -0.024279 0.070383 -0.19978 -0.13689 -0.011808 0.10775 -0.23383 0.054974 -0.5013 0.031374 -0.17765 -0.039551 -0.066371 0.060636 -0.017922 0.04648 0.085608 -0.034297 0.26166 -0.12953 0.046056 -0.053294 -0.06514 0.31694 -0.015249 0.34525 0.12164 -0.023981 -0.051814 0.16518 0.085505 -0.025163 0.10962 0.18964 0.089289 -0.21386 0.035635 -0.17947 -0.075747 0.043527 -0.0095507 -0.20816 -0.0040943 0.024046 -0.080716 -0.21636 0.24465 0.077361 0.24663 -0.35572 0.33413 -0.29449 0.25561 -0.14335 -0.074822 0.26879 
daiin -0.0042977 -0.016713 0.086571 0.09775 0.11443 0.14856 -0.47163 -0.11227 -0.34803 -0.17981 -0.46762 -0.28687 0.032271 0.14746 -0.26019 -0.093556 0.032078 0.10526 -0.00604 -0.086285 0.32303 0.078825 0.031313 -0.24879 -0.25144 0.14558 0.015446 -0.16616 -0.22704 0.098726 0.054586 -0.52971 -0.006582 0.22329 -0.072699 0.15685 0.18147 -0.12632 -0.27737 0.19526 -0.37018 0.24145 -0.21844 0.14894 0.0057334 0.048579 -0.20084 -0.18428 -0.022054 0.081166 -0.24388 0.045688 -0.50826 0.0039791 -0.15745 -0.029254 -0.095676 0.057716 -0.017278 0.031698 0.10259 -0.028161 0.25755 -0.11925 0.049658 -0.10308 -0.024375 0.28587 -0.012675 0.36057 0.11249 0.022663 -0.057777 0.17932 0.10138 -0.019299 0.1566 0.1799 0.12987 -0.20705 0.023324 -0.18501 -0.055551 0.0444 -0.0073233 -0.2133 0.011145 0.011734 -0.088427 -0.21535 0.274 0.087104 0.23352 -0.42837 0.34656 -0.30304 0.27233 -0.16102 -0.091289 0.2811 
ol -0.035777 0.011184 0.10823 0.046141 0.090863 0.1038 -0.41598 -0.070535 -0.29061 -0.15915 -0.41142 -0.23513 0.013175 0.1192 -0.2445 -0.071877 -0.00015014 0.070516 0.0034654 -0.099217 0.30889 0.066549 0.04167 -0.23957 -0.20808 0.14444 0.04136 -0.15161 -0.20405 0.1051 0.041847 -0.5122 -0.018327 0.21545 -0.06896 0.13612 0.15734 -0.094297 -0.23233 0.18298 -0.3378 0.26377 -0.22959 0.073546 -0.030734 0.069767 -0.18648 -0.12612 -0.0059263 0.10445 -0.21478 0.046753 -0.46454 0.020515 -0.15894 -0.038484 -0.058985 0.050622 -0.019585 0.036982 0.076098 -0.036362 0.24188 -0.11992 0.043654 -0.048761 -0.052702 0.28418 -0.0010261 0.32738 0.11847 -0.0076141 -0.039219 0.14696 0.081408 -0.02233 0.11675 0.17684 0.089781 -0.19127 0.027499 -0.16816 -0.070965 0.044805 -0.012778 -0.19541 -0.0044646 0.031986 -0.068771 -0.20015 0.22295 0.06933 0.22873 -0.33422 0.31023 -0.27124 0.23973 -0.13025 -0.068051 0.25513 
chedy -0.17867 0.098797 0.15795 -0.19464 0.11696 -0.046075 -0.43693 0.013152 -0.29482 -0.077819 -0.43518 -0.14121 -0.046133 0.17477 -0.27696 -0.010412 -0.098501 0.0096419 0.070095 -0.1831 0.47758 0.076818 0.11679 -0.33035 -0.085627 0.20537 0.044481 -0.19639 -0.15097 0.14518 -0.0041913 -0.62242 -0.084215 0.36782 -0.0018021 0.18807 0.16513 -0.09496 -0.21705 0.19093 -0.31654 0.47229 -0.35513 -0.12377 -0.11911 0.11367 -0.19289 -0.014659 0.032966 0.18729 -0.22274 0.076199 -0.49812 0.13763 -0.24466 -0.059052 -0.0026126 0.081514 -0.018074 0.08979 0.061367 -0.062664 0.29415 -0.15828 0.053699 0.028972 -0.17227 0.426 -0.058485 0.30732 0.18642 -0.18694 -0.022822 0.11332 0.036261 -0.059201 -0.053988 0.24443 -0.017738 -0.26492 0.14076 -0.21392 -0.16557 0.041276 0.00024073 -0.22633 -0.028261 0.047147 -0.065274 -0.23061 0.2111 0.031921 0.31415 -0.1812 0.29409 -0.26186 0.25434 -0.097582 -0.055464 0.28874 
aiin -0.0096866 -0.016179 0.085333 0.088889 0.11711 0.14357 -0.48215 -0.11345 -0.35278 -0.17984 -0.4804 -0.2846 0.029583 0.15404 -0.26364 -0.089469 0.030266 0.10407 -0.0046366 -0.095729 0.33417 0.078025 0.036109 -0.26048 -0.25648 0.15236 0.012424 -0.17436 -0.22713 0.10189 0.047071 -0.53737 -0.012797 0.23516 -0.066579 0.16006 0.18289 -0.13273 -0.2879 0.1959 -0.37021 0.25178 -0.22082 0.13442 0.0047893 0.048216 -0.19736 -0.18506 -0.019854 0.085529 -0.24986 0.050242 -0.5144 0.010065 -0.16603 -0.025996 -0.096783 0.061671 -0.019354 0.035916 0.10337 -0.032484 0.25704 -0.12096 0.053303 -0.10593 -0.027655 0.29448 -0.014455 0.35917 0.11866 0.012295 -0.056717 0.1807 0.090026 -0.023794 0.148 0.18227 0.12547 -0.20835 0.030957 -0.19441 -0.065411 0.045086 -0.0038307 -0.21871 0.0054552 0.011512 -0.086898 -0.21513 0.2749 0.085348 0.24582 -0.43191 0.34859 -0.30278 0.28139 -0.159 -0.092949 0.288 
shedy -0.16642 0.094275 0.16606 -0.17818 0.11131 -0.037869 -0.43374 0.0059909 -0.2944 -0.081227 -0.42785 -0.1481 -0.04515 0.17289 -0.27647 -0.014997 -0.090706 0.014491 0.066733 -0.17364 0.46546 0.072216 0.11366 -0.33014 -0.082873 0.19956 0.042132 -0.18964 -0.14721 0.14922 -0.0030329 -0.61124 -0.083714 0.35841 -0.0066374 0.18267 0.16028 -0.095948 -0.21347 0.19699 -0.31728 0.4568 -0.34923 -0.11764 -0.11328 0.10719 -0.19517 -0.012253 0.030165 0.18315 -0.22477 0.073671 -0.49349 0.13141 -0.23632 -0.062342 -0.00072513 0.080745 -0.019115 0.089554 0.071632 -0.061238 0.28856 -0.15618 0.055071 0.032599 -0.16185 0.42075 -0.0503 0.30775 0.18432 -0.17362 -0.023445 0.11725 0.043571 -0.050492 -0.040581 0.23493 -0.012742 -0.26172 0.13628 -0.20345 -0.16154 0.041525 -0.0046438 -0.2216 -0.020816 0.048196 -0.064558 -0.22352 0.21346 0.037576 0.3098 -0.18219 0.29227 -0.25855 0.24796 -0.10156 -0.047006 0.28164 
chol 0.027142 -0.012104 0.093848 0.17116 0.097028 0.19144 -0.45638 -0.11967 -0.34081 -0.20474 -0.43257 -0.30542 0.053537 0.11518 -0.25666 -0.12158 0.05853 0.11869 -0.015213 -0.056988 0.28241 0.082265 0.016251 -0.23266 -0.27892 0.13559 0.036741 -0.14635 -0.24572 0.092472 0.082516 -0.51722 0.020743 0.17775 -0.10689 0.13864 0.17534 -0.11047 -0.26432 0.19619 -0.38814 0.19394 -0.19639 0.20289 0.019426 0.052958 -0.20777 -0.20604 -0.035124 0.078012 -0.23577 0.034849 -0.50144 -0.033055 -0.13075 -0.046961 -0.10706 0.03735 -0.01196 0.018646 0.096846 -0.021261 0.25072 -0.11374 0.043773 -0.10135 -0.014143 0.25508 0.010409 0.38008 0.096326 0.063772 -0.071328 0.19171 0.12937 -0.00080829 0.20744 0.17511 0.14916 -0.19767 -0.033044 -0.15808 -0.030822 0.041514 -0.01515 -0.21362 0.027399 0.022476 -0.093545 -0.21545 0.27318 0.094274 0.20428 -0.44641 0.35976 -0.31711 0.25635 -0.17223 -0.090666 0.25813 
or -0.020183 0.0044615 0.095813 0.093488 0.10708 0.13405 -0.43882 -0.095343 -0.32317 -0.183 -0.42414 -0.26263 0.026215 0.13399 -0.25529 -0.093789 0.024641 0.089798 -0.0020329 -0.086258 0.3085 0.07539 0.031012 -0.24305 -0.24062 0.15012 0.030459 -0.15628 -0.22167 0.095369 0.058384 -0.52254 -0.0035079 0.21693 -0.091848 0.13941 0.17365 -0.11162 -0.25672 0.20196 -0.36075 0.24519 -0.22153 0.12784 -0.0057511 0.067712 -0.19911 -0.16067 -0.016251 0.099135 -0.22979 0.044806 -0.48772 0.0085896 -0.15868 -0.039332 -0.081211 0.053618 -0.02038 0.034321 0.085968 -0.02982 0.25027 -0.13019 0.042474 -0.072893 -0.042886 0.29051 -0.0050598 0.34655 0.1057 0.016135 -0.056457 0.17569 0.096859 -0.013911 0.14293 0.17775 0.12281 -0.19095 0.0067677 -0.16973 -0.062036 0.047355 -0.0060688 -0.2034 0.0015049 0.029416 -0.08229 -0.21032 0.24982 0.090379 0.22202 -0.39216 0.3366 -0.29111 0.25958 -0.15704 -0.07284 0.25749 
ar -0.067798 0.024998 0.11386 -0.0051906 0.12306 0.079256 -0.46656 -0.064735 -0.33395 -0.16267 -0.46614 -0.236 -0.0030376 0.17112 -0.267 -0.066899 -0.012172 0.073312 0.033403 -0.12299 0.38047 0.069505 0.066522 -0.27739 -0.2062 0.16521 0.027866 -0.17583 -0.20257 0.11507 0.027818 -0.57003 -0.035886 0.2663 -0.056862 0.16355 0.17895 -0.11996 -0.26392 0.21499 -0.36194 0.32571 -0.26267 0.053179 -0.031018 0.070673 -0.19562 -0.12631 -0.002222 0.11824 -0.24592 0.060619 -0.51359 0.055757 -0.20113 -0.033913 -0.073315 0.066986 -0.027965 0.051069 0.096368 -0.02745 0.27424 -0.13728 0.057457 -0.056584 -0.07364 0.33842 -0.026725 0.34053 0.13898 -0.057246 -0.046591 0.15973 0.080794 -0.026711 0.081365 0.19281 0.086518 -0.22151 0.063606 -0.19494 -0.099574 0.042508 -0.0044484 -0.21494 -0.0087338 0.030348 -0.082257 -0.22117 0.23984 0.075792 0.26459 -0.34622 0.33279 -0.28604 0.25865 -0.14042 -0.070806 0.28266 
chey -0.083237 0.032759 0.11416 -0.0057752 0.10208 0.088229 -0.44318 -0.057229 -0.3136 -0.15219 -0.44658 -0.22274 9.8665e-06 0.14577 -0.26861 -0.06158 -0.020702 0.045718 0.010905 -0.12218 0.37224 0.076169 0.060642 -0.26944 -0.19888 0.17239 0.046671 -0.17644 -0.20689 0.1144 0.038186 -0.57153 -0.032165 0.26685 -0.067097 0.15503 0.17519 -0.10223 -0.24858 0.18747 -0.35413 0.32312 -0.2809 0.045474 -0.037562 0.082505 -0.20282 -0.12193 0.0077838 0.12042 -0.23598 0.045124 -0.50853 0.05104 -0.19939 -0.049874 -0.06119 0.057452 -0.0192 0.049893 0.064397 -0.046178 0.26858 -0.13524 0.038235 -0.039718 -0.097681 0.34401 -0.011622 0.3391 0.1295 -0.054954 -0.032342 0.16841 0.064234 -0.032701 0.082467 0.19874 0.071461 -0.21233 0.058158 -0.1987 -0.094431 0.044799 -0.0052073 -0.20582 -0.025871 0.027843 -0.073896 -0.22675 0.22765 0.069182 0.25807 -0.32657 0.32483 -0.29804 0.26792 -0.13515 -0.078229 0.27529 
dar -0.05829 0.025505 0.11142 0.014638 0.12006 0.090729 -0.46483 -0.073425 -0.33457 -0.16526 -0.45644 -0.24338 0.0028454 0.15878 -0.27043 -0.079805 -0.0081518 0.075224 0.027943 -0.11736 0.37631 0.078915 0.061249 -0.27665 -0.20647 0.16485 0.031776 -0.17185 -0.21076 0.11654 0.043607 -0.57173 -0.034048 0.2649 -0.055251 0.15931 0.17955 -0.11656 -0.26403 0.21107 -0.36539 0.31711 -0.26704 0.068307 -0.030025 0.075403 -0.20648 -0.13216 -0.010013 0.11582 -0.24782 0.063063 -0.51887 0.047259 -0.19505 -0.046301 -0.073899 0.071236 -0.022979 0.050094 0.10213 -0.030203 0.27741 -0.13981 0.051836 -0.051012 -0.069985 0.33938 -0.022598 0.35295 0.13246 -0.041681 -0.046355 0.16136 0.087017 -0.029645 0.097416 0.19861 0.088958 -0.22774 0.051809 -0.18935 -0.09199 0.044147 -0.011958 -0.22139 -0.0035375 0.032792 -0.08794 -0.22512 0.24614 0.078161 0.26499 -0.35834 0.34257 -0.29623 0.26025 -0.1496 -0.071844 0.27804 
qokeey -0.10436 0.048042 0.12644 -0.058784 0.099714 0.054332 -0.43908 -0.035967 -0.29834 -0.13752 -0.45433 -0.19276 -0.019157 0.15918 -0.27942 -0.04408 -0.038008 0.039034 0.022033 -0.13818 0.39524 0.072955 0.074227 -0.29252 -0.17077 0.18911 0.050064 -0.18089 -0.19212 0.1276 0.0229 -0.58198 -0.044619 0.29209 -0.050803 0.16085 0.17116 -0.10005 -0.23671 0.1847 -0.34637 0.36215 -0.30024 -0.020378 -0.057762 0.10039 -0.19515 -0.091857 0.020478 0.13654 -0.23032 0.061131 -0.50011 0.072358 -0.21247 -0.052265 -0.040034 0.069728 -0.024124 0.060506 0.065793 -0.053903 0.27616 -0.1406 0.043098 -0.018078 -0.12202 0.36708 -0.012803 0.33115 0.14516 -0.09284 -0.02803 0.14696 0.044085 -0.038967 0.032257 0.209 0.043326 -0.21847 0.085811 -0.19943 -0.10488 0.051564 -0.0057346 -0.20028 -0.029924 0.031633 -0.080031 -0.22089 0.21289 0.06085 0.2712 -0.28283 0.30145 -0.29152 0.2594 -0.12037 -0.066466 0.29029 
qokeedy -0.14484 0.073815 0.14561 -0.14262 0.10805 -0.0072516 -0.43223 -0.0078712 -0.29178 -0.10436 -0.44 -0.15653 -0.037627 0.16985 -0.28173 -0.022212 -0.07253 0.02333 0.047287 -0.16099 0.43856 0.074717 0.098402 -0.31537 -0.11671 0.20166 0.047348 -0.18689 -0.16314 0.13998 0.0058451 -0.60155 -0.069227 0.33559 -0.019774 0.17969 0.16218 -0.094316 -0.22101 0.18761 -0.32529 0.42574 -0.33023 -0.089354 -0.094316 0.11081 -0.19406 -0.036117 0.030826 0.16309 -0.22204 0.071168 -0.49247 0.11284 -0.22853 -0.058491 -0.010844 0.079082 -0.024765 0.077339 0.066524 -0.060559 0.28569 -0.15253 0.049937 0.01299 -0.15256 0.39966 -0.034242 0.31639 0.16967 -0.14697 -0.024163 0.12088 0.036276 -0.051058 -0.023627 0.22743 0.0021531 -0.24171 0.1193 -0.20487 -0.13784 0.045928 -0.0047682 -0.20991 -0.030169 0.039928 -0.07397 -0.22129 0.20756 0.043413 0.29518 -0.21462 0.29012 -0.27263 0.25122 -0.10368 -0.054255 0.2875 
shey -0.086922 0.038508 0.1293 -0.018096 0.095875 0.078634 -0.44151 -0.051527 -0.31428 -0.14846 -0.43626 -0.2158 -0.0095693 0.152 -0.27031 -0.059499 -0.020779 0.04813 0.019465 -0.12089 0.37901 0.071839 0.066125 -0.28235 -0.18075 0.17114 0.043378 -0.17148 -0.19999 0.12736 0.037848 -0.57531 -0.039938 0.27463 -0.061937 0.15004 0.17108 -0.10643 -0.24281 0.19763 -0.35327 0.33316 -0.29073 0.02265 -0.039836 0.082743 -0.20028 -0.10285 0.0071074 0.12971 -0.23811 0.052367 -0.50579 0.05343 -0.2007 -0.0567 -0.054792 0.06344 -0.022783 0.060104 0.073949 -0.04605 0.27164 -0.1369 0.040104 -0.02763 -0.096627 0.34765 -0.012085 0.33729 0.13818 -0.060654 -0.030785 0.16325 0.067206 -0.028067 0.076768 0.19633 0.065733 -0.2227 0.069059 -0.19257 -0.10086 0.0471 -0.0080844 -0.20705 -0.015635 0.030396 -0.073356 -0.22404 0.22861 0.069319 0.2667 -0.31237 0.32137 -0.29387 0.26265 -0.13477 -0.067697 0.27634 
qokain -0.093851 0.03118 0.11824 -0.04289 0.10549 0.049127 -0.4387 -0.046313 -0.29761 -0.13021 -0.43201 -0.19942 -0.011716 0.15561 -0.25854 -0.043786 -0.040723 0.053552 0.029224 -0.13137 0.37322 0.067479 0.074928 -0.27782 -0.17465 0.17002 0.031379 -0.18189 -0.18456 0.11968 0.0093433 -0.54788 -0.051211 0.28275 -0.03309 0.16296 0.15807 -0.099839 -0.24784 0.18252 -0.31996 0.33857 -0.27335 -0.0093035 -0.050697 0.078429 -0.1832 -0.096446 0.0061718 0.1247 -0.22435 0.057763 -0.4764 0.065412 -0.19446 -0.031607 -0.049443 0.069327 -0.019173 0.063497 0.065996 -0.041383 0.26278 -0.13169 0.051011 -0.032939 -0.10015 0.33171 -0.027453 0.31373 0.13733 -0.082752 -0.032426 0.13632 0.053155 -0.038428 0.044356 0.19786 0.045059 -0.21116 0.079281 -0.19162 -0.10573 0.037768 -0.0036094 -0.19708 -0.019625 0.026764 -0.064519 -0.20918 0.22116 0.064287 0.26446 -0.28133 0.30209 -0.27216 0.25311 -0.11985 -0.070372 0.27536 
qokedy -0.1375 0.073742 0.14756 -0.13676 0.10997 -0.0096441 -0.43142 -0.010448 -0.292 -0.10328 -0.43395 -0.15951 -0.033763 0.16775 -0.27858 -0.023755 -0.070665 0.027371 0.04982 -0.1592 0.43426 0.072758 0.10114 -0.31062 -0.11497 0.19518 0.045766 -0.18221 -0.15874 0.13959 0.0081597 -0.59542 -0.064451 0.33076 -0.019925 0.17747 0.15856 -0.09362 -0.21787 0.18826 -0.32215 0.42061 -0.32525 -0.082075 -0.095749 0.10813 -0.19436 -0.036939 0.02815 0.15755 -0.22221 0.071931 -0.48699 0.11251 -0.22088 -0.057968 -0.011408 0.079621 -0.02291 0.079338 0.069072 -0.058406 0.28292 -0.15169 0.055076 0.013369 -0.14683 0.39427 -0.035258 0.31492 0.16808 -0.14253 -0.028122 0.12139 0.045451 -0.04933 -0.016521 0.22641 0.0065831 -0.23902 0.1103 -0.19774 -0.13596 0.045319 -0.0071493 -0.21125 -0.023944 0.040812 -0.074646 -0.22185 0.20664 0.046107 0.29365 -0.21532 0.29413 -0.26888 0.24272 -0.10649 -0.053105 0.28288 
dy -0.11595 0.068724 0.14539 -0.092589 0.11687 0.011321 -0.44624 -0.029124 -0.31865 -0.11136 -0.43533 -0.18017 -0.022349 0.16336 -0.2751 -0.046472 -0.053529 0.041304 0.047056 -0.14967 0.43329 0.084137 0.095986 -0.31186 -0.12992 0.1905 0.037136 -0.17455 -0.16938 0.13958 0.027496 -0.6002 -0.056455 0.31308 -0.026626 0.18014 0.16403 -0.09859 -0.22056 0.20091 -0.34089 0.40057 -0.31887 -0.030758 -0.085928 0.10713 -0.20389 -0.049208 0.016499 0.15571 -0.22707 0.067053 -0.50263 0.09964 -0.2059 -0.063848 -0.020734 0.071314 -0.020907 0.07542 0.092304 -0.05643 0.2907 -0.14923 0.05726 0.0067778 -0.12687 0.39035 -0.037069 0.3303 0.16678 -0.1211 -0.034387 0.1396 0.071129 -0.037986 0.018751 0.22751 0.032975 -0.24403 0.10385 -0.196 -0.12747 0.041082 -0.010609 -0.21858 -0.0040446 0.041068 -0.079359 -0.22685 0.23177 0.05533 0.28718 -0.25008 0.32371 -0.28017 0.2502 -0.11604 -0.05068 0.2867 
qokaiin -0.053349 0.0099519 0.10298 0.013924 0.10849 0.087288 -0.44846 -0.073375 -0.31284 -0.14996 -0.44237 -0.23076 0.006463 0.15139 -0.25619 -0.059017 -0.0091825 0.073424 0.013498 -0.11678 0.35067 0.07025 0.056906 -0.26529 -0.20259 0.15649 0.021403 -0.17351 -0.19749 0.11108 0.024693 -0.5286 -0.03387 0.25437 -0.046376 0.15963 0.16398 -0.11227 -0.25812 0.18165 -0.33179 0.29092 -0.24227 0.050948 -0.027765 0.064953 -0.18662 -0.12888 -0.0048314 0.10301 -0.23113 0.053481 -0.48151 0.041619 -0.17662 -0.029235 -0.066736 0.066027 -0.017188 0.050556 0.082279 -0.036218 0.25581 -0.12431 0.053335 -0.062698 -0.066219 0.30782 -0.019618 0.32882 0.12683 -0.040839 -0.043345 0.14975 0.071559 -0.032442 0.086639 0.18759 0.078137 -0.20435 0.058219 -0.1867 -0.08597 0.03837 -0.0048228 -0.2025 -0.005961 0.018053 -0.074225 -0.20595 0.23918 0.071981 0.24965 -0.33843 0.3154 -0.27865 0.25737 -0.13271 -0.078169 0.27524 
al -0.059392 0.023998 0.10295 0.01857 0.12048 0.095824 -0.48134 -0.070832 -0.33407 -0.16755 -0.47548 -0.24546 0.0083001 0.16621 -0.2766 -0.074412 -0.0086684 0.069306 0.02294 -0.12165 0.37631 0.077241 0.065355 -0.28017 -0.22083 0.16854 0.037478 -0.18709 -0.21659 0.11492 0.03482 -0.58693 -0.025711 0.26863 -0.061914 0.16533 0.18191 -0.12236 -0.27074 0.21362 -0.36495 0.32256 -0.26838 0.068382 -0.031664 0.074248 -0.20397 -0.13485 -0.0089667 0.10917 -0.25659 0.06556 -0.52871 0.04436 -0.19986 -0.033485 -0.074475 0.064994 -0.02483 0.048534 0.090584 -0.035476 0.28364 -0.13599 0.049103 -0.053574 -0.070648 0.34078 -0.02327 0.35638 0.13259 -0.046112 -0.047195 0.16865 0.08176 -0.032319 0.10135 0.20043 0.094106 -0.22084 0.053557 -0.1953 -0.08268 0.043186 -0.004025 -0.21429 -0.013204 0.023633 -0.081819 -0.22338 0.24288 0.075955 0.2657 -0.36786 0.33954 -0.29815 0.26787 -0.13851 -0.06926 0.28366 
dal -0.052851 0.02143 0.11556 0.032436 0.12037 0.10784 -0.47915 -0.083528 -0.34468 -0.17169 -0.48136 -0.25916 0.011649 0.16017 -0.28611 -0.080454 -0.0024581 0.078624 0.021702 -0.11438 0.38368 0.083073 0.062129 -0.28291 -0.22479 0.16969 0.03624 -0.18188 -0.21708 0.12047 0.046551 -0.59235 -0.022464 0.27054 -0.064946 0.16756 0.17889 -0.11948 -0.27848 0.21491 -0.3801 0.32143 -0.27139 0.083058 -0.028151 0.075908 -0.21235 -0.14394 -0.0095986 0.11489 -0.26118 0.062857 -0.53823 0.040537 -0.19662 -0.040309 -0.075698 0.067634 -0.023149 0.047474 0.093264 -0.033113 0.28304 -0.14384 0.05458 -0.063319 -0.067498 0.3416 -0.015447 0.37044 0.1325 -0.034278 -0.056065 0.17401 0.092687 -0.024509 0.11262 0.20504 0.09558 -0.22829 0.046855 -0.19742 -0.083348 0.044096 -0.011099 -0.22545 -0.0049245 0.033156 -0.087206 -0.23757 0.26071 0.083649 0.27063 -0.38332 0.3555 -0.31106 0.26902 -0.15193 -0.077243 0.29482 
s -0.03735 0.0062732 0.1139 0.055369 0.10069 0.1187 -0.45011 -0.081411 -0.32606 -0.17562 -0.44822 -0.25154 0.018198 0.15421 -0.26251 -0.082101 0.010859 0.074169 0.014823 -0.10292 0.33919 0.080474 0.054311 -0.26933 -0.22669 0.15384 0.026452 -0.16846 -0.215 0.11007 0.045754 -0.551 -0.022678 0.24276 -0.071895 0.15552 0.18228 -0.11181 -0.25732 0.21197 -0.37542 0.28091 -0.25065 0.097599 -0.013749 0.071311 -0.20468 -0.14905 -0.0064984 0.10998 -0.239 0.052389 -0.51422 0.029849 -0.17548 -0.041214 -0.072792 0.059238 -0.024962 0.050202 0.089091 -0.032256 0.26462 -0.1333 0.037751 -0.062963 -0.064906 0.31149 -0.014941 0.34618 0.11471 -0.016615 -0.052104 0.18098 0.084569 -0.024216 0.12601 0.18765 0.10287 -0.22197 0.040193 -0.17945 -0.072454 0.042038 -0.004529 -0.21217 -0.0029405 0.033275 -0.084602 -0.22925 0.24953 0.087461 0.24928 -0.36744 0.34051 -0.30632 0.26216 -0.15374 -0.076643 0.26899 
chor 0.020586 -0.011848 0.094074 0.16366 0.10221 0.1904 -0.47172 -0.12418 -0.35371 -0.20479 -0.44442 -0.30891 0.052538 0.12025 -0.2645 -0.12092 0.052941 0.11411 -0.014152 -0.068345 0.29823 0.085405 0.020324 -0.238 -0.28585 0.14614 0.037922 -0.15588 -0.25126 0.092556 0.077909 -0.5401 0.019794 0.19084 -0.11094 0.14269 0.1828 -0.11721 -0.27834 0.20462 -0.39689 0.21084 -0.20632 0.19785 0.015489 0.054859 -0.21346 -0.20725 -0.03289 0.080435 -0.24671 0.034278 -0.51501 -0.026255 -0.14586 -0.045495 -0.10875 0.038903 -0.017041 0.022688 0.097309 -0.020079 0.25908 -0.12048 0.046778 -0.10523 -0.023088 0.26809 0.0074822 0.38779 0.095051 0.054318 -0.067854 0.19711 0.12806 -0.0043371 0.20098 0.18646 0.15501 -0.19893 -0.026272 -0.16491 -0.040652 0.045447 -0.010546 -0.21874 0.021833 0.019054 -0.094513 -0.22403 0.27806 0.10212 0.21792 -0.45179 0.37414 -0.32388 0.26588 -0.17541 -0.090942 0.2645 
okaiin -0.028407 -0.0069808 0.089454 0.05791 0.11028 0.11663 -0.45638 -0.094126 -0.32461 -0.16527 -0.45391 -0.25482 0.019448 0.14899 -0.25462 -0.075056 0.012229 0.089348 0.0015508 -0.1033 0.3305 0.073132 0.046333 -0.2533 -0.22987 0.14809 0.01208 -0.16919 -0.21285 0.10306 0.034138 -0.51562 -0.021782 0.23654 -0.056922 0.15455 0.16954 -0.12089 -0.26891 0.18342 -0.3427 0.25824 -0.22192 0.096619 -0.0099896 0.055081 -0.18503 -0.15482 -0.012471 0.089124 -0.23419 0.050141 -0.48499 0.023142 -0.1663 -0.020918 -0.083195 0.061638 -0.017116 0.038768 0.090958 -0.032854 0.252 -0.11844 0.05195 -0.086413 -0.041093 0.28933 -0.01351 0.3356 0.11571 -0.010386 -0.049553 0.16153 0.081929 -0.029205 0.11705 0.17754 0.10481 -0.19607 0.042601 -0.18587 -0.07503 0.040939 -0.0042006 -0.202 0.00021786 0.013643 -0.079558 -0.20362 0.24998 0.077938 0.23775 -0.38271 0.32398 -0.28353 0.2635 -0.14268 -0.083826 0.27696 
dain -0.055577 0.010796 0.10635 0.02617 0.10707 0.10344 -0.45881 -0.078189 -0.32882 -0.15626 -0.45146 -0.24653 0.0091187 0.15282 -0.26284 -0.071287 -0.0085511 0.078692 0.0092004 -0.10587 0.35506 0.076586 0.049927 -0.26504 -0.21556 0.1627 0.028671 -0.17752 -0.21001 0.11067 0.037179 -0.55539 -0.026699 0.25469 -0.058262 0.1576 0.17622 -0.1087 -0.26458 0.19452 -0.35248 0.29948 -0.25494 0.073286 -0.026337 0.067855 -0.19607 -0.14027 -0.01036 0.10688 -0.23545 0.054545 -0.50193 0.032476 -0.18335 -0.032431 -0.07489 0.062206 -0.022357 0.048424 0.086129 -0.035362 0.26691 -0.12988 0.046977 -0.064542 -0.065972 0.31638 -0.01983 0.34139 0.12393 -0.031032 -0.045579 0.16461 0.077527 -0.029739 0.10327 0.19568 0.08908 -0.21147 0.051502 -0.18913 -0.083382 0.043506 -0.0029208 -0.2048 -0.0075935 0.023374 -0.077327 -0.21304 0.24934 0.077756 0.25452 -0.35763 0.32948 -0.2922 0.26645 -0.14167 -0.076794 0.28442 
qokal -0.089558 0.036311 0.12286 -0.041552 0.11002 0.052337 -0.4407 -0.044413 -0.30076 -0.14084 -0.4366 -0.20437 -0.010866 0.1531 -0.26903 -0.048885 -0.033043 0.059336 0.032552 -0.13089 0.38222 0.068419 0.073837 -0.28555 -0.17088 0.1718 0.036724 -0.17611 -0.18582 0.12645 0.018484 -0.55941 -0.047379 0.28401 -0.036745 0.16642 0.16008 -0.10189 -0.24549 0.19264 -0.33064 0.34202 -0.27858 0.00052832 -0.057386 0.084023 -0.19451 -0.089895 0.003756 0.12771 -0.22971 0.06014 -0.48983 0.069514 -0.19383 -0.041238 -0.045331 0.068595 -0.017458 0.061667 0.073653 -0.041648 0.2675 -0.13716 0.052089 -0.026418 -0.098577 0.34201 -0.02584 0.32865 0.13795 -0.082621 -0.041557 0.13901 0.065816 -0.035671 0.048867 0.20231 0.048053 -0.21759 0.070342 -0.189 -0.10304 0.038278 -0.0087225 -0.20555 -0.015343 0.032522 -0.073176 -0.21215 0.2224 0.065536 0.26813 -0.28802 0.31276 -0.27735 0.25132 -0.12332 -0.065289 0.27638 
shol -0.011003 0.006835 0.10894 0.10207 0.097859 0.14052 -0.45474 -0.091593 -0.33378 -0.18503 -0.43715 -0.27698 0.02736 0.13199 -0.26319 -0.09808 0.032127 0.093855 0.0025892 -0.082501 0.32162 0.07405 0.035406 -0.25623 -0.23714 0.15132 0.037507 -0.15406 -0.22434 0.10659 0.065754 -0.54143 -0.0061614 0.21335 -0.088533 0.14213 0.17069 -0.11227 -0.25861 0.20177 -0.37973 0.24634 -0.2308 0.13387 -0.0099074 0.06674 -0.21015 -0.16219 -0.021192 0.1031 -0.23884 0.04178 -0.50624 0.0010021 -0.15622 -0.0484 -0.085673 0.047684 -0.013401 0.038949 0.095608 -0.03157 0.25733 -0.1263 0.046371 -0.072733 -0.043836 0.28846 0.0039356 0.36475 0.11737 0.016282 -0.061921 0.17969 0.11162 -0.010262 0.15749 0.18525 0.11976 -0.21084 0.0028774 -0.17172 -0.0583 0.047681 -0.013922 -0.21324 0.013138 0.03194 -0.092329 -0.21536 0.26342 0.084539 0.23222 -0.39515 0.34986 -0.30789 0.2587 -0.15862 -0.080247 0.26577 
okeey -0.080553 0.035758 0.1134 -0.012028 0.10265 0.087371 -0.44682 -0.055554 -0.31047 -0.15764 -0.46759 -0.21921 -0.0093496 0.15634 -0.27914 -0.063804 -0.015073 0.053387 0.006161 -0.12537 0.37248 0.077171 0.061351 -0.2788 -0.2034 0.18045 0.046873 -0.1763 -0.2104 0.11817 0.034471 -0.57388 -0.027549 0.26988 -0.069274 0.15284 0.18178 -0.10503 -0.24317 0.18905 -0.36415 0.33126 -0.28212 0.030567 -0.039187 0.093025 -0.19738 -0.12056 0.011722 0.1229 -0.23489 0.057071 -0.50658 0.054334 -0.20231 -0.044267 -0.05711 0.061465 -0.026007 0.046381 0.071064 -0.048408 0.27657 -0.13436 0.03533 -0.036525 -0.099702 0.3528 -0.004427 0.34051 0.13155 -0.062149 -0.03598 0.16515 0.051883 -0.036144 0.066453 0.19773 0.072851 -0.20634 0.070451 -0.20011 -0.087793 0.057998 -0.0063498 -0.19796 -0.025835 0.025477 -0.084393 -0.21952 0.22179 0.067459 0.25931 -0.33278 0.31017 -0.29966 0.26713 -0.12955 -0.071336 0.29038 
cheey -0.073893 0.032034 0.11078 0.0038174 0.10411 0.099314 -0.45823 -0.058887 -0.32325 -0.16069 -0.47114 -0.2323 -0.003918 0.15308 -0.27663 -0.066206 -0.014262 0.054667 0.0044155 -0.11919 0.37969 0.079634 0.056648 -0.27625 -0.21107 0.17612 0.047007 -0.17795 -0.22093 0.11506 0.037382 -0.58149 -0.029959 0.267 -0.071357 0.15692 0.18372 -0.11182 -0.25763 0.1937 -0.37097 0.32464 -0.28425 0.05337 -0.034709 0.087377 -0.20496 -0.13695 0.010885 0.12338 -0.23935 0.050355 -0.52283 0.047998 -0.20217 -0.046204 -0.071464 0.060816 -0.02074 0.045442 0.072936 -0.050633 0.27489 -0.136 0.042677 -0.046612 -0.09451 0.34534 -0.0074272 0.35182 0.13201 -0.052435 -0.041658 0.17139 0.061961 -0.036859 0.087265 0.20624 0.079161 -0.21359 0.059542 -0.20796 -0.090259 0.055296 -0.0042068 -0.21301 -0.022957 0.023262 -0.079135 -0.22644 0.2379 0.070592 0.26072 -0.35091 0.32866 -0.30652 0.27698 -0.1398 -0.082672 0.28835 
cheol -0.050052 0.02004 0.11361 0.058579 0.10868 0.13171 -0.47517 -0.078432 -0.35019 -0.18509 -0.48694 -0.27186 0.014726 0.14082 -0.28516 -0.086984 0.0052689 0.081166 -0.0038666 -0.1162 0.36417 0.085566 0.047703 -0.27418 -0.24556 0.17599 0.04735 -0.17694 -0.23891 0.11243 0.05348 -0.59631 -0.010416 0.25013 -0.084374 0.16039 0.19084 -0.11808 -0.27101 0.20958 -0.39548 0.30151 -0.26709 0.10391 -0.025174 0.083509 -0.21943 -0.16326 -0.0047349 0.12208 -0.24823 0.051246 -0.54513 0.02523 -0.18665 -0.05177 -0.082153 0.051183 -0.014205 0.037799 0.08364 -0.044922 0.28016 -0.13604 0.044277 -0.066442 -0.071404 0.33945 -0.00070437 0.3757 0.12859 -0.012427 -0.056306 0.18719 0.090292 -0.028907 0.13002 0.21554 0.10297 -0.21486 0.027265 -0.20345 -0.076252 0.061704 -0.0088735 -0.22408 -0.0082691 0.027762 -0.087711 -0.23166 0.25966 0.085412 0.26016 -0.40063 0.35677 -0.32429 0.28424 -0.15732 -0.084401 0.29447 
otedy -0.12328 0.068282 0.14179 -0.10206 0.11622 0.01339 -0.44622 -0.028152 -0.31579 -0.11848 -0.4501 -0.19157 -0.029501 0.17013 -0.28204 -0.041509 -0.057644 0.04381 0.046944 -0.15327 0.4316 0.081362 0.089241 -0.31355 -0.12941 0.1889 0.04158 -0.17988 -0.17741 0.13503 0.013357 -0.60583 -0.053682 0.32314 -0.024362 0.18146 0.17088 -0.10569 -0.23163 0.20008 -0.3412 0.40996 -0.31757 -0.036178 -0.082764 0.10131 -0.20273 -0.059764 0.016228 0.15251 -0.23005 0.07446 -0.50798 0.099029 -0.21681 -0.05574 -0.024297 0.076226 -0.023126 0.070092 0.085831 -0.051046 0.29012 -0.15361 0.052672 0.0014175 -0.13016 0.39804 -0.043694 0.32869 0.16737 -0.12093 -0.035705 0.13869 0.060167 -0.043606 0.01061 0.22031 0.025756 -0.24684 0.10206 -0.20319 -0.13067 0.045579 -0.0049834 -0.21959 -0.012155 0.039701 -0.080632 -0.22672 0.2298 0.054809 0.28989 -0.25824 0.30871 -0.27523 0.25383 -0.11636 -0.053558 0.28034 
chy -0.0065769 -0.0077012 0.10268 0.11869 0.10645 0.16025 -0.48633 -0.11123 -0.36301 -0.20131 -0.46185 -0.30347 0.044484 0.13992 -0.27043 -0.10977 0.039852 0.10563 -0.00088465 -0.082051 0.33219 0.090817 0.029706 -0.25635 -0.26921 0.15715 0.033892 -0.16438 -0.24525 0.10601 0.073465 -0.56815 0.00014232 0.22581 -0.089467 0.15955 0.18036 -0.11791 -0.27595 0.20915 -0.39907 0.24323 -0.24098 0.16437 0.0034753 0.060999 -0.22239 -0.18751 -0.02404 0.087312 -0.25489 0.036301 -0.53813 -0.0050856 -0.17011 -0.039606 -0.10242 0.049207 -0.015397 0.033667 0.1032 -0.033327 0.27196 -0.12811 0.052851 -0.097682 -0.038176 0.29793 -0.0095117 0.38781 0.11223 0.024848 -0.066936 0.19519 0.11855 -0.0098557 0.17645 0.19044 0.13536 -0.22072 -0.0036158 -0.18112 -0.05178 0.041122 -0.0098558 -0.22614 0.017535 0.024678 -0.094436 -0.23787 0.28031 0.092205 0.24078 -0.43452 0.37267 -0.32895 0.26939 -0.17611 -0.089644 0.27703 
otaiin -0.026552 -0.0024273 0.089962 0.062673 0.11158 0.12049 -0.46392 -0.094686 -0.33722 -0.16842 -0.46193 -0.26651 0.01852 0.15289 -0.25968 -0.082066 0.017925 0.0908 0.0033149 -0.10098 0.34084 0.078267 0.043098 -0.26183 -0.23021 0.15281 0.02013 -0.17138 -0.21821 0.10339 0.044087 -0.53675 -0.015912 0.23966 -0.060789 0.1586 0.1776 -0.1247 -0.27041 0.19213 -0.35444 0.26705 -0.23097 0.10726 -0.010017 0.054927 -0.19541 -0.16023 -0.015571 0.092515 -0.23998 0.05062 -0.50139 0.020684 -0.17117 -0.030078 -0.082837 0.060452 -0.018514 0.038032 0.097776 -0.032944 0.25955 -0.12317 0.051501 -0.082171 -0.044565 0.30494 -0.018277 0.34537 0.11927 -0.010809 -0.050467 0.17077 0.086986 -0.024812 0.12749 0.18325 0.10742 -0.20963 0.042786 -0.18811 -0.074073 0.043069 -0.0032804 -0.21122 0.0036591 0.01482 -0.084916 -0.20888 0.26109 0.082069 0.24299 -0.39311 0.33416 -0.29386 0.26829 -0.14613 -0.085776 0.27879 
qokar -0.091062 0.034889 0.11977 -0.044006 0.10666 0.047748 -0.43674 -0.046853 -0.30123 -0.13759 -0.42949 -0.20025 -0.0088493 0.15199 -0.26089 -0.045162 -0.036152 0.054178 0.034665 -0.13051 0.37838 0.068456 0.071407 -0.28007 -0.16895 0.16969 0.034454 -0.1751 -0.17972 0.12128 0.017631 -0.55027 -0.049556 0.27769 -0.034624 0.16483 0.16063 -0.1029 -0.24053 0.18905 -0.32593 0.34008 -0.2749 -0.0025565 -0.054491 0.083049 -0.18992 -0.093931 0.0063913 0.1267 -0.22397 0.059369 -0.48335 0.070608 -0.19465 -0.042187 -0.046611 0.071488 -0.019605 0.062315 0.074303 -0.039573 0.26262 -0.13661 0.052626 -0.028914 -0.10053 0.3378 -0.02732 0.31923 0.13882 -0.083299 -0.037814 0.13574 0.062277 -0.035147 0.049684 0.19831 0.049473 -0.21736 0.072391 -0.18632 -0.10415 0.042391 -0.0086824 -0.20177 -0.015965 0.030061 -0.069041 -0.21087 0.22168 0.065141 0.26469 -0.28118 0.30609 -0.27401 0.24679 -0.1216 -0.06493 0.27019 
chdy -0.088759 0.042823 0.12896 -0.043183 0.12327 0.049823 -0.4604 -0.05394 -0.33824 -0.14191 -0.44953 -0.21784 -0.0070635 0.15742 -0.26955 -0.057187 -0.029038 0.061329 0.042277 -0.1371 0.40818 0.085405 0.072115 -0.30424 -0.17443 0.18481 0.031837 -0.18535 -0.19156 0.1286 0.034766 -0.59201 -0.044274 0.29499 -0.03457 0.17652 0.16918 -0.10401 -0.25051 0.20698 -0.34971 0.35853 -0.30025 0.021948 -0.066139 0.088645 -0.2026 -0.089832 -0.00022619 0.14164 -0.2439 0.060538 -0.51512 0.074121 -0.20512 -0.054433 -0.050366 0.072916 -0.017818 0.06327 0.092044 -0.0471 0.28943 -0.15003 0.056612 -0.029943 -0.10724 0.37208 -0.037123 0.35083 0.15381 -0.087698 -0.043255 0.15346 0.084586 -0.031442 0.059289 0.21772 0.057154 -0.23587 0.077114 -0.19529 -0.11042 0.039415 -0.010588 -0.22632 0.0038062 0.043408 -0.086069 -0.23326 0.24613 0.063028 0.28074 -0.31157 0.33951 -0.2877 0.25455 -0.13381 -0.060362 0.28278 
qol -0.066285 0.029907 0.12704 0.0044611 0.098122 0.087092 -0.44431 -0.053366 -0.31516 -0.15388 -0.43051 -0.22706 0.00015529 0.13578 -0.26971 -0.060268 -0.013388 0.068617 0.023245 -0.11639 0.36386 0.073845 0.057005 -0.27403 -0.19101 0.17108 0.042166 -0.17089 -0.19956 0.11859 0.035668 -0.56371 -0.029604 0.25982 -0.057895 0.15808 0.16579 -0.10375 -0.24435 0.19619 -0.35286 0.31541 -0.26782 0.039787 -0.04709 0.082537 -0.2003 -0.11935 0.00035033 0.12664 -0.23065 0.053028 -0.5013 0.04716 -0.18161 -0.053391 -0.05158 0.065384 -0.018004 0.055264 0.078787 -0.042371 0.26473 -0.13916 0.045946 -0.035303 -0.085695 0.32858 -0.0094084 0.34527 0.13533 -0.048529 -0.046194 0.15767 0.08035 -0.026735 0.086888 0.20447 0.07191 -0.22268 0.042908 -0.18328 -0.089487 0.045247 -0.0072575 -0.21177 -0.0079137 0.03483 -0.075348 -0.21612 0.23445 0.068553 0.25585 -0.31942 0.32613 -0.29393 0.25129 -0.13323 -0.073516 0.27559 
qoky -0.078078 0.035595 0.12456 -0.022413 0.1059 0.070075 -0.45721 -0.053096 -0.31566 -0.14964 -0.44713 -0.21941 -0.0026195 0.1532 -0.27527 -0.057593 -0.021995 0.058299 0.032692 -0.12992 0.38596 0.072787 0.069033 -0.2917 -0.18122 0.18107 0.04268 -0.17667 -0.19511 0.12482 0.030479 -0.57641 -0.040251 0.28005 -0.049523 0.16929 0.16816 -0.10297 -0.24883 0.19998 -0.35317 0.33922 -0.28484 0.01902 -0.052194 0.088062 -0.20367 -0.10936 0.0014744 0.12779 -0.23515 0.06034 -0.50713 0.059121 -0.19821 -0.052651 -0.04904 0.068944 -0.022014 0.063151 0.077209 -0.044156 0.27295 -0.14025 0.051314 -0.034263 -0.099732 0.34627 -0.017442 0.34393 0.14189 -0.071368 -0.04412 0.14723 0.076229 -0.028868 0.067225 0.21111 0.057953 -0.22673 0.061809 -0.18991 -0.098514 0.042244 -0.0085498 -0.21586 -0.011273 0.035879 -0.081988 -0.22178 0.23398 0.069565 0.2723 -0.30735 0.32826 -0.29419 0.2569 -0.13346 -0.0719 0.2818 
sheey -0.072757 0.039148 0.12296 -0.0010412 0.10304 0.096795 -0.46 -0.056731 -0.32945 -0.1602 -0.46796 -0.23595 -0.006253 0.15743 -0.28049 -0.066395 -0.013457 0.054066 0.0087971 -0.1204 0.38789 0.075196 0.060891 -0.2887 -0.20228 0.17519 0.04531 -0.17727 -0.2175 0.1233 0.037489 -0.59107 -0.034449 0.27218 -0.069386 0.1546 0.18239 -0.11459 -0.25502 0.20483 -0.37278 0.33277 -0.2903 0.041475 -0.035864 0.087392 -0.20973 -0.126 0.0081503 0.13113 -0.24583 0.05633 -0.52633 0.046597 -0.20199 -0.05457 -0.066756 0.062645 -0.022128 0.050103 0.08144 -0.051161 0.27892 -0.14004 0.042047 -0.037942 -0.09306 0.3543 -0.0066751 0.35529 0.13989 -0.055821 -0.04248 0.17278 0.070192 -0.03269 0.087604 0.2055 0.077418 -0.22543 0.064441 -0.20387 -0.095628 0.055071 -0.010126 -0.21445 -0.015297 0.028742 -0.081275 -0.22876 0.24157 0.0719 0.26666 -0.34446 0.32938 -0.30663 0.27702 -0.14416 -0.07529 0.2896 
saiin -0.024564 -0.0049379 0.093458 0.067724 0.11273 0.12857 -0.47659 -0.09862 -0.3467 -0.17333 -0.46918 -0.27068 0.023328 0.1555 -0.26626 -0.083419 0.020305 0.095322 -0.0025995 -0.10294 0.34248 0.079692 0.043895 -0.26314 -0.24425 0.15428 0.01919 -0.17268 -0.22242 0.10537 0.04621 -0.54526 -0.016817 0.24119 -0.068776 0.15961 0.18336 -0.12646 -0.27899 0.19419 -0.36702 0.26581 -0.23482 0.11464 -0.0065899 0.056531 -0.19759 -0.171 -0.014966 0.093465 -0.24423 0.049376 -0.51253 0.021536 -0.17269 -0.029036 -0.087678 0.063113 -0.01939 0.039011 0.09621 -0.034166 0.26112 -0.12452 0.052673 -0.092217 -0.043117 0.30469 -0.014175 0.3556 0.12063 -0.0029864 -0.05605 0.17531 0.090614 -0.025692 0.13504 0.18539 0.11335 -0.21189 0.035838 -0.1946 -0.072449 0.043031 -0.0071082 -0.21506 0.0053671 0.018009 -0.084963 -0.21608 0.26624 0.080524 0.24685 -0.40615 0.34278 -0.30165 0.27591 -0.15158 -0.086419 0.28532 
okain -0.07306 0.015081 0.10664 -0.0030707 0.10914 0.078814 -0.45805 -0.06748 -0.3179 -0.14959 -0.45433 -0.22709 0.0005005 0.15934 -0.26363 -0.061644 -0.024491 0.0696 0.018817 -0.12071 0.36336 0.070976 0.067876 -0.27386 -0.20663 0.16638 0.02242 -0.18422 -0.2052 0.11466 0.017443 -0.55098 -0.040754 0.27304 -0.046458 0.16126 0.16876 -0.11085 -0.26493 0.18966 -0.33953 0.31524 -0.25949 0.033774 -0.034693 0.070714 -0.18646 -0.12404 -0.0011845 0.11594 -0.23389 0.054694 -0.49243 0.048484 -0.18808 -0.022624 -0.066192 0.06629 -0.020491 0.05347 0.075778 -0.039874 0.26868 -0.13121 0.04822 -0.054177 -0.079878 0.32472 -0.024385 0.32733 0.12776 -0.054409 -0.039238 0.15334 0.063249 -0.038338 0.074824 0.19356 0.073756 -0.20721 0.067133 -0.19662 -0.096591 0.040236 -0.0013461 -0.20071 -0.015546 0.02158 -0.069319 -0.21205 0.2376 0.071081 0.26243 -0.331 0.31896 -0.28343 0.26533 -0.13195 -0.078543 0.28391 
otal -0.056528 0.023185 0.10867 0.015621 0.11211 0.092897 -0.45775 -0.070535 -0.32505 -0.16113 -0.45704 -0.24379 0.0024155 0.15793 -0.27045 -0.073092 -0.0022512 0.073874 0.024035 -0.11652 0.36551 0.079567 0.060166 -0.27786 -0.20196 0.16722 0.030991 -0.17465 -0.20747 0.11328 0.036585 -0.56382 -0.025555 0.26264 -0.056068 0.16088 0.17699 -0.11077 -0.25816 0.20079 -0.35627 0.31212 -0.26463 0.063343 -0.036282 0.071285 -0.19859 -0.13007 -0.011357 0.10924 -0.2379 0.057994 -0.50938 0.042185 -0.18689 -0.039939 -0.062614 0.060261 -0.022567 0.046037 0.089087 -0.032762 0.27216 -0.13771 0.046293 -0.05261 -0.076811 0.33443 -0.018434 0.34099 0.1314 -0.046505 -0.045731 0.1662 0.080174 -0.032094 0.092093 0.19363 0.083704 -0.2182 0.056499 -0.18548 -0.087369 0.041625 -0.0040005 -0.21101 -0.005246 0.025533 -0.08395 -0.21381 0.24045 0.075685 0.25786 -0.3519 0.32978 -0.2936 0.25672 -0.13942 -0.068407 0.27857 
y -0.044887 0.019432 0.10906 0.0414 0.10819 0.106 -0.4547 -0.079576 -0.32864 -0.17123 -0.44795 -0.24817 0.0076597 0.15416 -0.27068 -0.075006 0.0035242 0.079625 0.012338 -0.10032 0.35571 0.087131 0.053516 -0.26712 -0.2209 0.16832 0.024691 -0.16329 -0.21393 0.11778 0.044101 -0.55349 -0.025304 0.24699 -0.072062 0.15206 0.17903 -0.11948 -0.26201 0.20738 -0.36412 0.28574 -0.24594 0.085561 -0.028425 0.069647 -0.20413 -0.13834 -0.015163 0.10695 -0.24174 0.044763 -0.50748 0.035786 -0.1833 -0.045694 -0.07165 0.059501 -0.01817 0.04944 0.095293 -0.031947 0.2648 -0.13894 0.045962 -0.058368 -0.067459 0.32173 -0.012081 0.35282 0.1234 -0.023067 -0.05363 0.17542 0.079672 -0.030095 0.11928 0.19731 0.096821 -0.20967 0.034047 -0.1855 -0.082553 0.047212 -0.0054335 -0.21048 0.00015139 0.021747 -0.086904 -0.22429 0.24467 0.074346 0.25236 -0.36402 0.34487 -0.29927 0.2584 -0.14355 -0.0727 0.27642 
otar -0.06174 0.025041 0.1066 0.007759 0.1166 0.084213 -0.45843 -0.070244 -0.32636 -0.15901 -0.45611 -0.23704 -0.0027362 0.15931 -0.26767 -0.071027 -0.0055855 0.068415 0.028507 -0.11672 0.37176 0.081241 0.060545 -0.27898 -0.19802 0.16347 0.030952 -0.17394 -0.2097 0.11457 0.036299 -0.56255 -0.031152 0.26536 -0.052219 0.16163 0.17726 -0.11557 -0.2609 0.20644 -0.35271 0.31868 -0.26284 0.058396 -0.034374 0.073824 -0.1979 -0.12524 -0.0062471 0.11606 -0.23961 0.059942 -0.5066 0.046835 -0.18998 -0.04008 -0.066918 0.065749 -0.022924 0.04983 0.096108 -0.032912 0.26963 -0.13974 0.053449 -0.05018 -0.06956 0.33847 -0.024887 0.33808 0.13205 -0.051094 -0.045708 0.16208 0.079647 -0.027728 0.088893 0.1941 0.081181 -0.22356 0.061919 -0.18573 -0.09438 0.04361 -0.006202 -0.21203 -0.0061993 0.029076 -0.083917 -0.21247 0.24262 0.076032 0.25884 -0.34688 0.33021 -0.28887 0.25414 -0.14002 -0.070587 0.27516 
oteey -0.069846 0.033038 0.11378 0.0087411 0.10766 0.10094 -0.46388 -0.065754 -0.3328 -0.16508 -0.47993 -0.24164 -0.0037045 0.16471 -0.28398 -0.072235 -0.0097189 0.06207 0.012316 -0.12229 0.38483 0.081283 0.05473 -0.28727 -0.20142 0.176 0.040252 -0.17606 -0.22369 0.11983 0.036644 -0.59233 -0.025412 0.26765 -0.063705 0.16118 0.18849 -0.12088 -0.25712 0.20256 -0.37674 0.33431 -0.28082 0.05745 -0.035445 0.082786 -0.20582 -0.12905 0.0021367 0.12126 -0.24762 0.061804 -0.528 0.046831 -0.20116 -0.044244 -0.063186 0.06176 -0.025223 0.044428 0.087265 -0.041811 0.27917 -0.13869 0.042779 -0.041236 -0.086022 0.36074 -0.016872 0.35162 0.13918 -0.047027 -0.042605 0.17578 0.071146 -0.030661 0.087472 0.20165 0.086749 -0.2216 0.062832 -0.19657 -0.093476 0.052028 -0.0051639 -0.21238 -0.017471 0.026285 -0.091309 -0.22528 0.24301 0.073998 0.2649 -0.35894 0.33114 -0.30101 0.27343 -0.13917 -0.068351 0.28661 
chckhy -0.042926 0.01596 0.10508 0.044733 0.10677 0.10902 -0.45883 -0.078883 -0.32774 -0.16735 -0.44325 -0.25007 0.015766 0.14548 -0.26611 -0.078349 0.0010727 0.079069 0.012688 -0.10492 0.35024 0.076538 0.050738 -0.26008 -0.22268 0.16114 0.030866 -0.16732 -0.21641 0.11181 0.04919 -0.55428 -0.018168 0.24589 -0.070308 0.15286 0.17179 -0.1118 -0.25893 0.19663 -0.36152 0.28635 -0.25371 0.087165 -0.022036 0.071797 -0.20139 -0.14421 -0.0054536 0.10685 -0.23987 0.050466 -0.50612 0.03072 -0.17752 -0.038474 -0.075638 0.057856 -0.017166 0.040399 0.086512 -0.038937 0.26503 -0.1325 0.047439 -0.064102 -0.068796 0.31228 -0.014419 0.35049 0.12063 -0.023381 -0.049524 0.16699 0.090219 -0.027233 0.11672 0.19546 0.096897 -0.21249 0.033117 -0.18719 -0.077222 0.042716 -0.011051 -0.21278 -0.0018894 0.024581 -0.080404 -0.22067 0.24851 0.080279 0.2485 -0.36442 0.33733 -0.2987 0.25942 -0.14503 -0.077924 0.27521 
okal -0.063576 0.019454 0.11316 0.013672 0.11755 0.093279 -0.47609 -0.074496 -0.33584 -0.16975 -0.47375 -0.24803 0.003715 0.15711 -0.28361 -0.074058 -0.007772 0.081047 0.021345 -0.12419 0.38051 0.077758 0.065175 -0.2856 -0.21711 0.17298 0.029523 -0.18065 -0.21741 0.12228 0.032801 -0.58189 -0.035212 0.27715 -0.053265 0.16504 0.17648 -0.11696 -0.27157 0.20734 -0.36614 0.32302 -0.27209 0.060566 -0.041848 0.078404 -0.20453 -0.127 -0.0050416 0.11859 -0.24853 0.05733 -0.52531 0.051102 -0.19049 -0.034116 -0.068359 0.06546 -0.02044 0.047979 0.088183 -0.037322 0.28216 -0.13866 0.050643 -0.054314 -0.07304 0.34107 -0.019801 0.356 0.13065 -0.046113 -0.05204 0.16385 0.083625 -0.032165 0.090923 0.20086 0.086489 -0.21765 0.053374 -0.19623 -0.093377 0.045412 -0.0077073 -0.21764 -0.0086391 0.025424 -0.081387 -0.22437 0.2482 0.079058 0.26673 -0.36049 0.34262 -0.29964 0.27325 -0.14226 -0.075648 0.29276 
sho -0.027674 0.013037 0.11016 0.084871 0.10064 0.13239 -0.4764 -0.090508 -0.34947 -0.18263 -0.45405 -0.28386 0.024045 0.14546 -0.27014 -0.099566 0.026719 0.09139 0.0075744 -0.095179 0.34531 0.084211 0.040996 -0.27621 -0.24135 0.15953 0.039627 -0.16748 -0.22644 0.1149 0.062804 -0.57079 -0.014949 0.23365 -0.085995 0.1539 0.17899 -0.12472 -0.26981 0.2172 -0.39141 0.27137 -0.25059 0.12242 -0.01627 0.072779 -0.22082 -0.16326 -0.018522 0.10822 -0.25458 0.047656 -0.53403 0.0097083 -0.17391 -0.051507 -0.086975 0.0561 -0.01753 0.045075 0.10059 -0.035431 0.27301 -0.13184 0.051825 -0.068566 -0.056068 0.31565 -0.0066561 0.37371 0.125 0.0019 -0.064181 0.18348 0.10618 -0.0158 0.15157 0.19564 0.11786 -0.2245 0.018383 -0.18373 -0.070308 0.05259 -0.0096961 -0.22946 0.013519 0.031661 -0.092069 -0.22858 0.27308 0.092057 0.24931 -0.39679 0.36298 -0.32038 0.26624 -0.16386 -0.079691 0.28122 
okar -0.066301 0.018247 0.10885 0.003812 0.11312 0.081807 -0.46796 -0.069151 -0.32976 -0.16326 -0.46143 -0.23485 0.0045949 0.15615 -0.27088 -0.068446 -0.014746 0.072804 0.025746 -0.12215 0.37217 0.074216 0.064949 -0.27583 -0.20917 0.16877 0.025831 -0.17722 -0.2075 0.11976 0.027837 -0.5644 -0.039658 0.27025 -0.052904 0.16516 0.17503 -0.11774 -0.26272 0.20179 -0.35524 0.31969 -0.26669 0.050799 -0.037783 0.075163 -0.19651 -0.1258 -0.0013114 0.11728 -0.23966 0.056416 -0.50986 0.053576 -0.18866 -0.03283 -0.064924 0.067784 -0.020057 0.050369 0.086104 -0.037333 0.27081 -0.13682 0.052713 -0.053233 -0.076347 0.33301 -0.021702 0.34241 0.13031 -0.051227 -0.048681 0.15741 0.078945 -0.033254 0.085973 0.19554 0.085668 -0.2142 0.056622 -0.19256 -0.095102 0.044415 -0.0063651 -0.20945 -0.0068778 0.024212 -0.075644 -0.21836 0.24368 0.077769 0.26085 -0.3424 0.33171 -0.28789 0.2625 -0.13895 -0.075771 0.2806 
lchedy -0.16337 0.088707 0.15867 -0.1647 0.11477 -0.026982 -0.4456 0.00397 -0.30113 -0.090699 -0.44099 -0.15729 -0.039289 0.17448 -0.28204 -0.019111 -0.088607 0.018049 0.062499 -0.17653 0.46604 0.076168 0.11046 -0.33 -0.10333 0.2027 0.044059 -0.19217 -0.15976 0.14649 0.0038574 -0.62364 -0.079697 0.35683 -0.010332 0.1851 0.16638 -0.09755 -0.22413 0.19688 -0.32984 0.45593 -0.35016 -0.10248 -0.11042 0.11249 -0.19995 -0.028515 0.029135 0.18072 -0.23031 0.076237 -0.5093 0.12704 -0.24133 -0.060899 -0.0088066 0.083627 -0.018079 0.087266 0.069041 -0.060317 0.2965 -0.15983 0.052092 0.021012 -0.15935 0.41844 -0.050063 0.3199 0.18015 -0.16786 -0.02326 0.12239 0.044665 -0.053624 -0.03162 0.23867 -0.0049348 -0.26502 0.12863 -0.21104 -0.15625 0.038966 -0.0039394 -0.22949 -0.022916 0.044632 -0.066639 -0.23123 0.21717 0.038215 0.31058 -0.2037 0.30611 -0.2737 0.25809 -0.10356 -0.055091 0.29204 
okedy -0.12547 0.069137 0.14209 -0.11225 0.11446 0.0055592 -0.44002 -0.020757 -0.30306 -0.11337 -0.44569 -0.17586 -0.026943 0.16549 -0.28159 -0.035418 -0.05946 0.038173 0.042284 -0.1528 0.42741 0.079369 0.098507 -0.30671 -0.13125 0.19276 0.04132 -0.17996 -0.16935 0.1375 0.013003 -0.59839 -0.058426 0.32353 -0.026737 0.17527 0.16831 -0.099402 -0.2229 0.19479 -0.33579 0.41046 -0.31885 -0.052808 -0.08751 0.10594 -0.19716 -0.049749 0.02237 0.15236 -0.22392 0.072171 -0.49407 0.10631 -0.21574 -0.054149 -0.021201 0.07615 -0.02314 0.071223 0.077999 -0.056011 0.28652 -0.15072 0.050229 0.0024319 -0.13577 0.39428 -0.034042 0.32315 0.16163 -0.12852 -0.032702 0.13283 0.052124 -0.048097 -0.00049062 0.22412 0.023766 -0.23621 0.10327 -0.20013 -0.13259 0.049105 -0.0088307 -0.21111 -0.019592 0.038729 -0.07855 -0.22266 0.21748 0.049531 0.28959 -0.24567 0.30232 -0.27237 0.24809 -0.11216 -0.055972 0.28327 
dol -0.029192 0.013535 0.11316 0.075536 0.1003 0.13222 -0.45544 -0.080191 -0.33214 -0.17953 -0.4463 -0.2675 0.019562 0.13761 -0.27079 -0.090871 0.015597 0.088073 0.0079018 -0.097667 0.33516 0.077529 0.041252 -0.25371 -0.22992 0.15478 0.040139 -0.15457 -0.22119 0.1099 0.053545 -0.55515 -0.0061736 0.22871 -0.079536 0.15107 0.1791 -0.11368 -0.26268 0.20527 -0.37681 0.27492 -0.24895 0.11392 -0.018036 0.072463 -0.20511 -0.15132 -0.012758 0.11053 -0.23831 0.0433 -0.5135 0.016134 -0.16907 -0.044772 -0.073017 0.05126 -0.017952 0.034674 0.088149 -0.036862 0.26714 -0.12785 0.043142 -0.061295 -0.05024 0.30667 0.0021738 0.36484 0.12138 -0.0021171 -0.05957 0.17531 0.10224 -0.017921 0.13821 0.1902 0.10892 -0.21333 0.019178 -0.18178 -0.065581 0.050544 -0.012114 -0.21765 0.010241 0.027279 -0.085261 -0.21639 0.25086 0.082924 0.24042 -0.38426 0.34826 -0.30409 0.25854 -0.15064 -0.079827 0.27237 
oty -0.041967 0.015525 0.1069 0.056073 0.10937 0.11547 -0.45755 -0.084429 -0.3353 -0.17051 -0.45254 -0.26455 0.015156 0.15062 -0.27127 -0.084347 0.012801 0.086497 0.012099 -0.10864 0.34989 0.080683 0.049683 -0.26793 -0.21685 0.1652 0.029872 -0.16921 -0.21966 0.11386 0.048856 -0.56546 -0.013283 0.24233 -0.068048 0.15844 0.1728 -0.12006 -0.25657 0.20427 -0.36653 0.28861 -0.25606 0.10076 -0.021167 0.065753 -0.20954 -0.14635 -0.015649 0.1069 -0.24036 0.054538 -0.51382 0.030624 -0.17881 -0.039882 -0.072339 0.057502 -0.02189 0.043738 0.096303 -0.037351 0.26912 -0.13436 0.044877 -0.059908 -0.061563 0.32596 -0.018002 0.35396 0.1249 -0.016634 -0.056306 0.17166 0.093576 -0.023701 0.12756 0.19128 0.10486 -0.21703 0.039832 -0.18524 -0.076677 0.044786 -0.014506 -0.21641 0.0017177 0.025293 -0.08744 -0.21919 0.25281 0.075706 0.24453 -0.37985 0.34114 -0.30179 0.26266 -0.14815 -0.068822 0.27244 
sheol -0.048116 0.025967 0.11394 0.046554 0.096605 0.11769 -0.44082 -0.071225 -0.32721 -0.1709 -0.44355 -0.25079 0.011336 0.1353 -0.26621 -0.078482 0.0034828 0.074228 0.0034423 -0.10805 0.34588 0.074869 0.048998 -0.26428 -0.21462 0.16295 0.042344 -0.15976 -0.21519 0.11096 0.05007 -0.55875 -0.01858 0.23874 -0.074675 0.1461 0.17665 -0.11082 -0.24827 0.20286 -0.36774 0.28598 -0.25451 0.084141 -0.02655 0.075595 -0.20582 -0.13954 -0.007038 0.11965 -0.23512 0.050167 -0.50604 0.025457 -0.17564 -0.053809 -0.072032 0.050335 -0.017573 0.03929 0.086777 -0.041188 0.26346 -0.12986 0.042093 -0.04975 -0.065424 0.32012 -0.0016894 0.35186 0.12604 -0.015453 -0.052388 0.17251 0.086582 -0.023843 0.12017 0.19669 0.09355 -0.20984 0.033643 -0.18321 -0.074566 0.057438 -0.010972 -0.21214 -0.0013534 0.028646 -0.082111 -0.21392 0.24103 0.077266 0.2455 -0.35984 0.33252 -0.29872 0.26132 -0.14526 -0.070367 0.27539 
cthy -0.015151 0.0049872 0.10742 0.09039 0.106 0.14107 -0.47041 -0.09408 -0.34364 -0.18365 -0.44764 -0.2791 0.027924 0.14309 -0.27307 -0.097665 0.024773 0.096028 0.0028074 -0.086389 0.3351 0.084948 0.040051 -0.26017 -0.24388 0.15544 0.034256 -0.16007 -0.23 0.103 0.06464 -0.55435 -0.002831 0.22815 -0.08444 0.15728 0.17422 -0.1164 -0.26444 0.2085 -0.38238 0.25927 -0.2414 0.13035 -0.0097204 0.069566 -0.21157 -0.1686 -0.021657 0.10199 -0.2481 0.042829 -0.52036 0.0078191 -0.1661 -0.042268 -0.087181 0.051282 -0.019253 0.040797 0.096275 -0.031714 0.26683 -0.12959 0.046724 -0.076221 -0.055359 0.29882 -0.0039194 0.3708 0.11645 0.0044344 -0.06452 0.1798 0.11049 -0.017113 0.15828 0.19284 0.1173 -0.21983 0.012318 -0.17712 -0.061592 0.041938 -0.015684 -0.22052 0.016091 0.022629 -0.092078 -0.22831 0.26599 0.088408 0.24143 -0.40213 0.35465 -0.31849 0.26168 -0.16344 -0.080505 0.27372 
qokey -0.098378 0.045326 0.13039 -0.046408 0.10571 0.059997 -0.45068 -0.038527 -0.30616 -0.14347 -0.45451 -0.20313 -0.013882 0.16076 -0.28055 -0.050415 -0.032894 0.045818 0.026556 -0.13705 0.39775 0.073523 0.070727 -0.29407 -0.17579 0.18613 0.047721 -0.17834 -0.19562 0.12942 0.0267 -0.59107 -0.0463 0.29219 -0.049425 0.16298 0.17261 -0.10306 -0.24165 0.1955 -0.35347 0.35985 -0.29946 -0.0068245 -0.056546 0.097084 -0.20047 -0.09745 0.016967 0.13536 -0.23519 0.06172 -0.50813 0.071318 -0.20736 -0.054705 -0.039501 0.069916 -0.023568 0.063931 0.07389 -0.048078 0.27946 -0.14406 0.047936 -0.019948 -0.11428 0.36507 -0.015015 0.33804 0.14365 -0.084329 -0.032841 0.15371 0.055155 -0.037204 0.044691 0.21223 0.04841 -0.22643 0.075414 -0.1964 -0.1023 0.052469 -0.0078505 -0.20886 -0.025227 0.030201 -0.080652 -0.22507 0.22235 0.065244 0.27415 -0.2943 0.31452 -0.2942 0.26068 -0.12732 -0.066581 0.2899 
dair -0.037571 0.012111 0.11263 0.055417 0.1197 0.12214 -0.48883 -0.092027 -0.35784 -0.18414 -0.48559 -0.27461 0.017654 0.1574 -0.28495 -0.09229 0.0074736 0.093336 0.012777 -0.10817 0.37558 0.085901 0.047017 -0.28228 -0.23656 0.17101 0.035078 -0.17694 -0.22823 0.12032 0.054305 -0.58952 -0.021017 0.25873 -0.076965 0.16283 0.18761 -0.12144 -0.276 0.21923 -0.39038 0.30534 -0.26852 0.10866 -0.021618 0.073367 -0.22119 -0.16097 -0.012547 0.11541 -0.25757 0.057652 -0.5482 0.031907 -0.18589 -0.038651 -0.086469 0.064281 -0.020564 0.047074 0.10303 -0.02906 0.28722 -0.14073 0.049789 -0.07054 -0.057758 0.33595 -0.014221 0.38103 0.13154 -0.015961 -0.062425 0.18458 0.099098 -0.025832 0.13164 0.20767 0.11034 -0.22851 0.035253 -0.19645 -0.079719 0.050929 -0.0097075 -0.22949 0.006975 0.025354 -0.093566 -0.23389 0.27299 0.088102 0.26173 -0.40501 0.36412 -0.31888 0.27613 -0.16106 -0.081404 0.29263 
okeedy -0.13464 0.070237 0.13836 -0.12254 0.10991 0.0058384 -0.43581 -0.016749 -0.29846 -0.11367 -0.44554 -0.16899 -0.034121 0.16842 -0.28208 -0.033047 -0.062715 0.030644 0.04005 -0.15508 0.4287 0.078441 0.094248 -0.30868 -0.13009 0.19711 0.042607 -0.1849 -0.17144 0.13627 0.011326 -0.59746 -0.061576 0.32519 -0.026343 0.17641 0.16728 -0.096281 -0.2222 0.19143 -0.33344 0.41549 -0.32015 -0.063934 -0.087072 0.10694 -0.19557 -0.046854 0.024419 0.15762 -0.22256 0.070559 -0.49316 0.10756 -0.22278 -0.052576 -0.017767 0.075221 -0.025928 0.069647 0.071137 -0.057625 0.28653 -0.14891 0.045187 0.0055038 -0.14168 0.39421 -0.032322 0.31978 0.16461 -0.13358 -0.027921 0.12925 0.039779 -0.050365 -0.0089107 0.22088 0.016568 -0.23654 0.1141 -0.20448 -0.13193 0.050193 -0.0034332 -0.20846 -0.027633 0.036438 -0.075654 -0.22041 0.21196 0.045742 0.28953 -0.23821 0.29377 -0.27267 0.25364 -0.10745 -0.054946 0.28555 
shy -0.031678 0.013082 0.11251 0.072173 0.1033 0.13512 -0.47655 -0.091554 -0.35282 -0.18738 -0.4552 -0.27615 0.025221 0.14634 -0.27754 -0.094026 0.021534 0.08875 0.016346 -0.099298 0.35135 0.076982 0.045597 -0.27218 -0.24016 0.16357 0.038945 -0.16629 -0.23118 0.11621 0.061535 -0.57231 -0.014854 0.24546 -0.080534 0.15946 0.17683 -0.11587 -0.2679 0.21619 -0.38932 0.27965 -0.261 0.11567 -0.016123 0.072916 -0.21792 -0.15371 -0.014976 0.10846 -0.25223 0.044869 -0.533 0.021179 -0.17877 -0.043787 -0.085466 0.058007 -0.018555 0.052598 0.099584 -0.035436 0.27226 -0.13472 0.052314 -0.067883 -0.059648 0.31755 -0.01211 0.37972 0.12641 -0.0017951 -0.060295 0.18064 0.10793 -0.016781 0.14596 0.19594 0.10956 -0.23403 0.026585 -0.18613 -0.071131 0.042257 -0.013625 -0.22574 0.014316 0.027829 -0.090096 -0.23121 0.26659 0.087239 0.25306 -0.39616 0.35784 -0.32492 0.26993 -0.16426 -0.078401 0.28369 
qokol -0.062698 0.02549 0.12208 0.014188 0.10247 0.088132 -0.44517 -0.060132 -0.31463 -0.15661 -0.43959 -0.23228 0.0042812 0.14607 -0.26985 -0.067994 -0.011995 0.068614 0.020742 -0.11409 0.36227 0.070656 0.06227 -0.27154 -0.1955 0.16853 0.042341 -0.16786 -0.20029 0.11811 0.040184 -0.55976 -0.02914 0.25803 -0.057807 0.1621 0.16597 -0.10451 -0.24912 0.19674 -0.35408 0.31159 -0.26263 0.04859 -0.042074 0.08248 -0.20216 -0.11812 -0.0046132 0.12026 -0.23465 0.053501 -0.50316 0.04458 -0.18249 -0.052005 -0.057529 0.059906 -0.018737 0.05377 0.08059 -0.037448 0.26549 -0.13579 0.049878 -0.039278 -0.082091 0.32554 -0.0089627 0.346 0.13531 -0.046737 -0.047471 0.15407 0.082792 -0.0276 0.090281 0.19961 0.07477 -0.22133 0.045055 -0.18205 -0.086035 0.044643 -0.010666 -0.21252 -0.0056469 0.032682 -0.083382 -0.21641 0.23763 0.072407 0.25523 -0.32843 0.33105 -0.2946 0.25394 -0.13774 -0.071715 0.2763 
oky -0.038892 0.017029 0.10752 0.052653 0.1087 0.12157 -0.47516 -0.084175 -0.34307 -0.17935 -0.46915 -0.26429 0.017415 0.15033 -0.27888 -0.089976 0.010551 0.086584 0.014385 -0.1061 0.35595 0.081156 0.050274 -0.27671 -0.23072 0.16997 0.036006 -0.17292 -0.22405 0.11448 0.048482 -0.57 -0.020954 0.25054 -0.073803 0.15982 0.18145 -0.11488 -0.2659 0.20714 -0.38079 0.29336 -0.25766 0.097286 -0.023289 0.078961 -0.20547 -0.14999 -0.013297 0.1083 -0.24896 0.054435 -0.52522 0.030195 -0.18203 -0.038699 -0.077571 0.057898 -0.021356 0.041313 0.094331 -0.040034 0.27373 -0.13658 0.045169 -0.065453 -0.062822 0.32478 -0.0078913 0.36439 0.12398 -0.019852 -0.056815 0.174 0.091761 -0.025051 0.12263 0.19864 0.10554 -0.21421 0.034142 -0.19055 -0.079562 0.047233 -0.010209 -0.21828 -8.4397e-05 0.026734 -0.091086 -0.22611 0.25553 0.083381 0.25507 -0.38487 0.34952 -0.30953 0.2662 -0.15205 -0.081653 0.28322 
cheor -0.046356 0.019034 0.10665 0.055527 0.1124 0.12631 -0.46415 -0.083188 -0.34266 -0.17992 -0.46864 -0.26373 0.014294 0.14019 -0.27544 -0.085089 0.0079299 0.076043 -0.00016374 -0.10847 0.35258 0.083151 0.044056 -0.26823 -0.2375 0.16952 0.041376 -0.17296 -0.22733 0.10988 0.051702 -0.57705 -0.013252 0.24576 -0.082974 0.15646 0.18338 -0.11492 -0.26553 0.20549 -0.38446 0.28807 -0.25605 0.10478 -0.022684 0.079927 -0.21146 -0.16134 -0.0056605 0.11395 -0.24377 0.04815 -0.52762 0.02726 -0.18186 -0.047014 -0.081182 0.051446 -0.017383 0.041375 0.081473 -0.039462 0.27148 -0.13147 0.04529 -0.064457 -0.071021 0.32382 -0.0061671 0.36213 0.12412 -0.014446 -0.051782 0.18149 0.088761 -0.027313 0.12535 0.20539 0.10445 -0.21345 0.030563 -0.19737 -0.072668 0.057278 -0.0050232 -0.216 -0.0076974 0.027353 -0.084543 -0.22567 0.25338 0.08511 0.2484 -0.38903 0.34544 -0.31282 0.27425 -0.15374 -0.083429 0.28325 
oteedy -0.12808 0.068877 0.14441 -0.10523 0.11897 0.018986 -0.46337 -0.029151 -0.32548 -0.12375 -0.4693 -0.19677 -0.030291 0.17745 -0.29194 -0.041259 -0.059103 0.040967 0.044889 -0.1568 0.44669 0.084147 0.09107 -0.32292 -0.13766 0.1967 0.042556 -0.19214 -0.1874 0.1405 0.014415 -0.63018 -0.057558 0.33309 -0.027095 0.18834 0.17602 -0.10894 -0.24134 0.20435 -0.35199 0.42386 -0.32725 -0.036944 -0.085035 0.1042 -0.20754 -0.061867 0.01996 0.15814 -0.24307 0.074819 -0.52972 0.099896 -0.22541 -0.052624 -0.02361 0.077959 -0.024206 0.070527 0.085817 -0.053591 0.29807 -0.15742 0.054574 -0.0011257 -0.13536 0.41274 -0.042012 0.33876 0.17024 -0.12379 -0.036458 0.14374 0.056741 -0.046377 0.009815 0.2307 0.02982 -0.25445 0.10922 -0.209 -0.13789 0.048199 -0.0027869 -0.22731 -0.020967 0.040381 -0.083023 -0.23247 0.23699 0.054518 0.30151 -0.27077 0.32179 -0.28528 0.26614 -0.11848 -0.056876 0.29473 
dam -0.044962 0.011386 0.11243 0.044036 0.11213 0.11581 -0.47841 -0.087427 -0.34691 -0.17589 -0.47505 -0.26114 0.012147 0.15132 -0.28168 -0.084121 0.0047394 0.08541 0.018727 -0.10956 0.37467 0.080342 0.052211 -0.2834 -0.23113 0.17502 0.034441 -0.18192 -0.22534 0.11936 0.047628 -0.58595 -0.028697 0.26189 -0.069349 0.16606 0.18313 -0.1184 -0.27714 0.21258 -0.38805 0.31107 -0.26548 0.089223 -0.026841 0.082481 -0.21982 -0.15314 -0.0099209 0.11447 -0.25743 0.058375 -0.53781 0.035086 -0.18778 -0.045196 -0.077382 0.071049 -0.023811 0.050342 0.094925 -0.039941 0.28393 -0.14183 0.050804 -0.065531 -0.06989 0.33916 -0.013821 0.37569 0.13144 -0.026072 -0.059712 0.17494 0.095129 -0.027566 0.12339 0.208 0.10281 -0.22824 0.042293 -0.1953 -0.081846 0.04522 -0.014829 -0.22617 0.0051075 0.031021 -0.090075 -0.23416 0.26613 0.085527 0.26678 -0.38496 0.36322 -0.31226 0.27392 -0.15643 -0.080423 0.28978 
shor -0.011943 0.007942 0.10085 0.09952 0.099721 0.13915 -0.45194 -0.09625 -0.33392 -0.1817 -0.43011 -0.27683 0.031174 0.132 -0.25884 -0.098743 0.030672 0.09273 0.0027784 -0.083189 0.32063 0.078902 0.03774 -0.25454 -0.24095 0.1543 0.035166 -0.15574 -0.22497 0.10293 0.062956 -0.54029 -0.0033526 0.21561 -0.087325 0.14352 0.17053 -0.11481 -0.26343 0.20616 -0.37965 0.24386 -0.22785 0.13652 -0.0072357 0.064901 -0.20702 -0.16432 -0.022027 0.099865 -0.23849 0.040836 -0.50727 0.0039278 -0.16039 -0.049073 -0.086596 0.047534 -0.018378 0.042934 0.096692 -0.025538 0.25432 -0.12945 0.045058 -0.072296 -0.047934 0.29136 0.0012679 0.3634 0.11267 0.012273 -0.059774 0.17873 0.107 -0.012072 0.15505 0.18655 0.12232 -0.2065 0.0063382 -0.17118 -0.062847 0.046683 -0.009461 -0.21625 0.01771 0.026734 -0.087817 -0.21662 0.25907 0.090617 0.23322 -0.39418 0.35165 -0.3057 0.26142 -0.15746 -0.078954 0.26252 
otain -0.064394 0.020175 0.10481 0.0058664 0.11191 0.084677 -0.45326 -0.068724 -0.32244 -0.15087 -0.44998 -0.23609 -3.7605e-05 0.15913 -0.26369 -0.066675 -0.015401 0.067868 0.020178 -0.11461 0.36426 0.077351 0.062807 -0.27246 -0.20266 0.16513 0.026278 -0.18102 -0.20769 0.11348 0.026253 -0.55528 -0.032344 0.26684 -0.051374 0.16239 0.17417 -0.11155 -0.26055 0.19165 -0.34238 0.31472 -0.25866 0.048466 -0.033314 0.069507 -0.19189 -0.12593 -0.0042747 0.11247 -0.23633 0.055503 -0.49719 0.044231 -0.18679 -0.030086 -0.067027 0.060461 -0.020691 0.050082 0.081852 -0.037544 0.26823 -0.12848 0.0465 -0.053898 -0.075469 0.32949 -0.024677 0.33049 0.12686 -0.051299 -0.042266 0.15758 0.069592 -0.032477 0.084475 0.19483 0.076316 -0.21188 0.063373 -0.19222 -0.093144 0.042941 -0.0010681 -0.20587 -0.012344 0.022223 -0.077392 -0.21134 0.2437 0.073479 0.2567 -0.33731 0.32264 -0.28563 0.26247 -0.13205 -0.073682 0.27741 
chody -0.028109 0.016157 0.10673 0.069649 0.10643 0.12509 -0.45088 -0.090687 -0.33724 -0.17188 -0.44122 -0.25772 0.025744 0.13873 -0.26126 -0.092752 0.016022 0.090443 0.0072414 -0.09295 0.34148 0.081525 0.045122 -0.26038 -0.2231 0.15363 0.035117 -0.15835 -0.21478 0.11076 0.059155 -0.54872 -0.0073481 0.226 -0.074337 0.15399 0.17432 -0.11095 -0.25201 0.19905 -0.367 0.27158 -0.24449 0.11874 -0.017707 0.067744 -0.20654 -0.15341 -0.017949 0.10098 -0.2389 0.04766 -0.50479 0.024795 -0.16263 -0.052577 -0.078582 0.052798 -0.017681 0.037526 0.094789 -0.035503 0.26339 -0.12927 0.048036 -0.068827 -0.058429 0.30753 -0.0055818 0.36027 0.11746 -0.0092201 -0.060674 0.17266 0.10458 -0.021762 0.13351 0.19608 0.10653 -0.20912 0.022503 -0.17705 -0.065123 0.04065 -0.013047 -0.21657 0.016348 0.028308 -0.092306 -0.22339 0.25844 0.08114 0.23453 -0.38082 0.34264 -0.29881 0.25474 -0.1526 -0.075492 0.26906 
qotedy -0.11799 0.06218 0.13973 -0.093571 0.10773 0.014278 -0.42397 -0.02425 -0.29738 -0.11214 -0.42132 -0.17668 -0.026956 0.15855 -0.26495 -0.035628 -0.054946 0.039138 0.045733 -0.14378 0.41069 0.078364 0.085976 -0.29714 -0.12306 0.17963 0.042041 -0.1718 -0.16592 0.12847 0.017064 -0.57242 -0.05373 0.30612 -0.025651 0.17254 0.15836 -0.098221 -0.22047 0.18928 -0.32265 0.38812 -0.30402 -0.038108 -0.081362 0.09643 -0.19506 -0.058 0.016397 0.14741 -0.21877 0.067007 -0.48287 0.091907 -0.20381 -0.057216 -0.022099 0.070975 -0.019339 0.07068 0.076839 -0.051462 0.2742 -0.14375 0.053095 0.0019246 -0.1261 0.37394 -0.03808 0.31612 0.15773 -0.11484 -0.034273 0.12963 0.057412 -0.041125 0.012222 0.21274 0.021859 -0.24069 0.093689 -0.19075 -0.12423 0.04055 -0.004415 -0.21206 -0.0097482 0.039293 -0.07663 -0.21667 0.21754 0.054035 0.27812 -0.23999 0.29875 -0.26671 0.2405 -0.11243 -0.055256 0.2683 
ain -0.076211 0.014923 0.11279 -0.00049508 0.11488 0.086322 -0.47823 -0.072969 -0.33855 -0.15364 -0.4721 -0.24398 -0.0032121 0.16714 -0.27556 -0.063446 -0.021395 0.068329 0.016397 -0.1222 0.37916 0.075639 0.067011 -0.28524 -0.21564 0.17493 0.026408 -0.1942 -0.21726 0.11889 0.022576 -0.5789 -0.038604 0.28269 -0.050667 0.16576 0.17997 -0.11726 -0.27672 0.20108 -0.35344 0.33401 -0.27576 0.043123 -0.036723 0.071286 -0.19574 -0.13426 -0.0024075 0.12053 -0.24904 0.057962 -0.5201 0.046689 -0.20043 -0.029794 -0.072419 0.065509 -0.023521 0.05786 0.078158 -0.040095 0.27875 -0.13211 0.047342 -0.057806 -0.082879 0.33817 -0.023653 0.34581 0.13491 -0.05639 -0.038698 0.161 0.06446 -0.035026 0.086011 0.20609 0.080578 -0.22222 0.069201 -0.20283 -0.099128 0.043447 -0.0027639 -0.21257 -0.018405 0.027171 -0.074506 -0.22262 0.25301 0.075464 0.27539 -0.3539 0.33515 -0.30104 0.28237 -0.1406 -0.077951 0.29667 
cheody -0.064028 0.031417 0.118 0.022369 0.11515 0.10431 -0.47869 -0.070465 -0.35291 -0.17366 -0.48745 -0.25542 0.0069846 0.1545 -0.28718 -0.075976 -0.0034132 0.071583 0.013452 -0.12059 0.39229 0.085602 0.061227 -0.28831 -0.21391 0.17851 0.042388 -0.17729 -0.21979 0.12365 0.049667 -0.60731 -0.021594 0.27232 -0.070009 0.16817 0.18946 -0.11821 -0.26145 0.21448 -0.38447 0.32658 -0.28515 0.079781 -0.035668 0.08856 -0.21855 -0.1447 -0.00068299 0.12632 -0.2502 0.060413 -0.54073 0.050086 -0.19287 -0.056654 -0.068276 0.060334 -0.020669 0.050134 0.098886 -0.049828 0.28773 -0.14229 0.048464 -0.054122 -0.087314 0.35758 -0.012484 0.37355 0.13633 -0.044252 -0.056112 0.17774 0.084778 -0.036586 0.10161 0.21768 0.091214 -0.22359 0.054104 -0.2067 -0.087638 0.056133 -0.011911 -0.22637 -0.0020895 0.029424 -0.087708 -0.23511 0.26004 0.080422 0.26415 -0.3778 0.35004 -0.31367 0.2794 -0.15011 -0.078124 0.29728 
am -0.054841 0.023142 0.1184 0.035819 0.1172 0.11086 -0.5049 -0.086365 -0.3656 -0.18224 -0.49326 -0.26683 0.0088865 0.16991 -0.29744 -0.082122 -7.1915e-05 0.082079 0.024963 -0.11981 0.39838 0.085864 0.064463 -0.29851 -0.23562 0.18145 0.039388 -0.19098 -0.23175 0.12086 0.046334 -0.62189 -0.033933 0.28543 -0.069062 0.17124 0.19119 -0.12257 -0.28212 0.21993 -0.40392 0.32884 -0.28275 0.082185 -0.03085 0.084215 -0.22908 -0.15274 -0.015357 0.11805 -0.26747 0.065109 -0.56221 0.042442 -0.20527 -0.045429 -0.080226 0.070713 -0.023408 0.055459 0.10609 -0.039982 0.30063 -0.15223 0.054446 -0.060751 -0.077755 0.35802 -0.014958 0.39315 0.14611 -0.039548 -0.052673 0.17514 0.093547 -0.034838 0.11893 0.21615 0.098373 -0.23893 0.052148 -0.2116 -0.089024 0.046912 -0.009556 -0.23779 0.0067429 0.025658 -0.093707 -0.24382 0.27719 0.086393 0.27902 -0.39303 0.3702 -0.33124 0.28198 -0.15946 -0.083506 0.30738 
qoty -0.062142 0.024464 0.11944 0.016139 0.10642 0.087843 -0.4427 -0.063396 -0.31823 -0.15023 -0.43117 -0.23367 0.005137 0.14325 -0.26517 -0.067877 -0.0070185 0.070079 0.025256 -0.11372 0.36456 0.07706 0.054975 -0.27384 -0.19027 0.16695 0.038748 -0.16854 -0.19944 0.11695 0.041295 -0.55839 -0.027097 0.25539 -0.058934 0.15723 0.16259 -0.10796 -0.24458 0.19887 -0.35116 0.30873 -0.26743 0.056803 -0.037965 0.077525 -0.20417 -0.12188 -0.0071892 0.1199 -0.23196 0.055499 -0.50218 0.043025 -0.18208 -0.049908 -0.059477 0.064115 -0.017399 0.052231 0.086674 -0.043483 0.26687 -0.13522 0.049247 -0.040821 -0.080579 0.32701 -0.017745 0.34564 0.13113 -0.043067 -0.049993 0.157 0.085035 -0.028503 0.09174 0.20185 0.077457 -0.22591 0.046776 -0.18101 -0.085535 0.041779 -0.0092663 -0.21845 0.00033361 0.029 -0.083215 -0.22082 0.23816 0.073604 0.25523 -0.32774 0.33235 -0.29218 0.25304 -0.13876 -0.070646 0.27068 
otol -0.028784 0.013166 0.10519 0.074171 0.10818 0.12974 -0.47126 -0.091727 -0.34435 -0.18363 -0.46404 -0.27483 0.017636 0.14454 -0.27823 -0.095998 0.016862 0.092375 0.0075323 -0.10118 0.34818 0.081399 0.043173 -0.26342 -0.23566 0.16355 0.036744 -0.16519 -0.23126 0.11426 0.058105 -0.57265 -0.0093583 0.23437 -0.07649 0.16171 0.18378 -0.11693 -0.26927 0.20984 -0.38574 0.28479 -0.25151 0.11514 -0.016528 0.075583 -0.21548 -0.15727 -0.015284 0.10409 -0.24621 0.049285 -0.52594 0.018899 -0.17279 -0.045804 -0.080945 0.055611 -0.021953 0.038867 0.098895 -0.034851 0.27353 -0.1329 0.049817 -0.070912 -0.052937 0.32114 -0.008923 0.371 0.12782 5.5222e-05 -0.058652 0.18061 0.10331 -0.022281 0.14093 0.1947 0.11435 -0.21668 0.022341 -0.1839 -0.071662 0.048471 -0.013279 -0.22168 0.0063699 0.025689 -0.094282 -0.22009 0.26082 0.085015 0.24743 -0.39807 0.35126 -0.31213 0.26281 -0.15166 -0.074669 0.27809 
r -0.051302 0.018295 0.10369 0.04381 0.11421 0.11316 -0.46473 -0.077955 -0.33021 -0.17692 -0.45427 -0.25397 0.019373 0.14629 -0.26697 -0.085211 0.0018895 0.070457 0.018571 -0.10659 0.35734 0.083877 0.048698 -0.27363 -0.21292 0.1663 0.032297 -0.17201 -0.21745 0.11578 0.038501 -0.5619 -0.02403 0.24909 -0.066358 0.16672 0.17724 -0.11883 -0.26378 0.2087 -0.3671 0.28945 -0.26008 0.087771 -0.030642 0.073992 -0.21197 -0.13727 -0.013653 0.10602 -0.24276 0.054394 -0.52037 0.033498 -0.18065 -0.04639 -0.071483 0.06671 -0.022587 0.045128 0.086094 -0.035708 0.26843 -0.1322 0.045617 -0.057395 -0.060627 0.32957 -0.01294 0.35012 0.12559 -0.025313 -0.046689 0.17658 0.082395 -0.033816 0.11949 0.19442 0.08812 -0.21079 0.045363 -0.18676 -0.078541 0.052 -0.0034975 -0.21737 -0.0037591 0.028079 -0.089195 -0.22525 0.24393 0.07841 0.25533 -0.36532 0.34346 -0.29384 0.26597 -0.14776 -0.075985 0.27612 
sar -0.065072 0.025711 0.11298 0.016188 0.11966 0.096893 -0.47228 -0.070124 -0.3358 -0.16717 -0.45987 -0.24477 0.0015688 0.16015 -0.27903 -0.075634 -0.0045693 0.070102 0.02012 -0.11914 0.37809 0.078029 0.055986 -0.27848 -0.21382 0.16652 0.035303 -0.17287 -0.21407 0.11362 0.039227 -0.57654 -0.029666 0.26484 -0.06369 0.16375 0.17995 -0.11921 -0.26524 0.20898 -0.37006 0.31869 -0.26526 0.066432 -0.032546 0.075111 -0.20723 -0.13637 -0.0055712 0.11945 -0.24825 0.063819 -0.52673 0.046035 -0.19179 -0.041658 -0.072988 0.063315 -0.026785 0.050641 0.098768 -0.034944 0.27693 -0.14188 0.054181 -0.056024 -0.07421 0.3405 -0.025082 0.35222 0.1324 -0.045825 -0.04958 0.16767 0.084123 -0.024356 0.10272 0.19882 0.088006 -0.22163 0.050946 -0.18984 -0.086826 0.046346 -0.0081325 -0.21839 -0.0031486 0.028186 -0.082933 -0.22253 0.24975 0.079679 0.2618 -0.36314 0.34578 -0.29881 0.26969 -0.14517 -0.067868 0.28103 
sheedy -0.13164 0.072983 0.14666 -0.11338 0.11443 0.011026 -0.45043 -0.019884 -0.31546 -0.11762 -0.44987 -0.18484 -0.030208 0.17036 -0.28296 -0.037388 -0.062497 0.035931 0.043671 -0.15563 0.44331 0.077133 0.094773 -0.31781 -0.13197 0.19538 0.042773 -0.18575 -0.17676 0.13917 0.014353 -0.61568 -0.065687 0.33242 -0.029426 0.17936 0.17245 -0.10315 -0.23455 0.19964 -0.34337 0.4172 -0.32656 -0.052775 -0.085713 0.10345 -0.20408 -0.054758 0.019945 0.16457 -0.236 0.06967 -0.51678 0.099546 -0.2231 -0.060636 -0.025201 0.074786 -0.022317 0.076642 0.07819 -0.05864 0.29163 -0.15442 0.050182 0.0043962 -0.13773 0.40177 -0.037548 0.33473 0.16951 -0.12969 -0.032064 0.13705 0.053442 -0.046887 0.0061492 0.22892 0.021576 -0.25302 0.112 -0.20982 -0.137 0.048815 -0.0057602 -0.22171 -0.017548 0.040964 -0.073542 -0.22923 0.22842 0.049304 0.297 -0.25031 0.31286 -0.28096 0.26179 -0.11733 -0.058216 0.28798 
okol -0.031577 0.0098801 0.10897 0.074558 0.10477 0.13235 -0.46041 -0.083987 -0.3339 -0.18021 -0.4586 -0.26909 0.020294 0.14291 -0.27248 -0.093673 0.012796 0.089226 0.0059377 -0.10017 0.34012 0.075512 0.048663 -0.25923 -0.23466 0.16296 0.037216 -0.16258 -0.22596 0.11381 0.056884 -0.55708 -0.011013 0.23184 -0.077257 0.15208 0.17841 -0.11162 -0.2627 0.20303 -0.37959 0.27238 -0.24449 0.11396 -0.019438 0.072846 -0.20466 -0.15199 -0.015245 0.10587 -0.24078 0.045479 -0.51647 0.019652 -0.17189 -0.04304 -0.078536 0.049871 -0.018103 0.036389 0.094501 -0.033271 0.26489 -0.13193 0.046543 -0.064243 -0.051971 0.30802 -0.002815 0.36518 0.11981 -0.0036911 -0.056346 0.17516 0.096433 -0.02302 0.13674 0.19231 0.11303 -0.20904 0.020738 -0.18054 -0.067745 0.047795 -0.013484 -0.2135 0.0028411 0.027079 -0.09075 -0.21978 0.25575 0.081485 0.24363 -0.39133 0.34812 -0.30663 0.26216 -0.15274 -0.079561 0.27921 
chcthy -0.036973 0.010936 0.10672 0.054796 0.10701 0.11646 -0.45813 -0.083373 -0.33215 -0.17181 -0.44619 -0.25581 0.01676 0.14482 -0.26866 -0.083763 0.010336 0.083897 0.012123 -0.10061 0.34794 0.079951 0.047831 -0.26004 -0.22523 0.16013 0.032237 -0.1652 -0.21837 0.105 0.0519 -0.55318 -0.01448 0.24421 -0.072445 0.15657 0.17212 -0.11307 -0.25992 0.19878 -0.36519 0.2808 -0.25074 0.097805 -0.020932 0.071942 -0.20304 -0.14863 -0.012531 0.10491 -0.23915 0.050025 -0.50774 0.028093 -0.17666 -0.040032 -0.0775 0.055244 -0.017621 0.042698 0.091601 -0.033775 0.26617 -0.13009 0.045616 -0.069255 -0.065098 0.31394 -0.011945 0.35408 0.12175 -0.017637 -0.055009 0.17158 0.095375 -0.022628 0.12423 0.19407 0.10071 -0.2129 0.030961 -0.18301 -0.074601 0.040879 -0.010484 -0.21343 0.0047167 0.02369 -0.085108 -0.22352 0.25488 0.081013 0.24785 -0.37274 0.34097 -0.30087 0.25793 -0.15013 -0.077169 0.27021 
qotaiin -0.039572 0.0080721 0.099666 0.039651 0.10912 0.10443 -0.45352 -0.081087 -0.32689 -0.15781 -0.44391 -0.24641 0.012752 0.14823 -0.25729 -0.072593 0.0066818 0.081155 0.010479 -0.10514 0.34735 0.07824 0.049208 -0.26358 -0.21037 0.15533 0.02502 -0.16799 -0.20713 0.10563 0.042367 -0.53583 -0.023668 0.24517 -0.057448 0.15693 0.17002 -0.11713 -0.25908 0.19042 -0.34542 0.27932 -0.24106 0.083801 -0.021964 0.060158 -0.19502 -0.14357 -0.01072 0.10219 -0.2341 0.052204 -0.49391 0.031757 -0.17365 -0.036615 -0.07334 0.061386 -0.016694 0.043738 0.092793 -0.036638 0.25862 -0.12598 0.051201 -0.067831 -0.057596 0.3077 -0.01758 0.34026 0.12338 -0.026101 -0.04925 0.16127 0.081843 -0.027083 0.10896 0.18751 0.093465 -0.21457 0.045879 -0.18483 -0.079147 0.040804 -0.0037102 -0.21228 0.0030816 0.018682 -0.082589 -0.2103 0.25031 0.077672 0.24586 -0.36319 0.32842 -0.28816 0.26062 -0.14138 -0.080914 0.27431 
sol -0.038395 0.017886 0.1115 0.059702 0.10075 0.12367 -0.45056 -0.078255 -0.32939 -0.16717 -0.44128 -0.25855 0.014013 0.13648 -0.26831 -0.082681 0.0079748 0.078941 0.0073285 -0.098386 0.33577 0.075533 0.04736 -0.25704 -0.22469 0.15737 0.040491 -0.1602 -0.21968 0.11378 0.048777 -0.5537 -0.013067 0.231 -0.0772 0.15101 0.17227 -0.10638 -0.25721 0.20164 -0.36771 0.28215 -0.24494 0.10015 -0.020222 0.073782 -0.20836 -0.14627 -0.013719 0.10875 -0.23773 0.045745 -0.50573 0.01918 -0.17262 -0.048923 -0.072274 0.053392 -0.013922 0.040437 0.089061 -0.036487 0.26271 -0.12765 0.046753 -0.055888 -0.055243 0.30786 -0.0013669 0.35477 0.12383 -0.0086838 -0.053655 0.17449 0.092433 -0.022788 0.12621 0.1913 0.10288 -0.21104 0.021682 -0.1767 -0.073079 0.05228 -0.011017 -0.20971 -0.001271 0.029791 -0.08472 -0.2163 0.24639 0.079554 0.24529 -0.37267 0.34103 -0.30177 0.25591 -0.14384 -0.073629 0.27305 
raiin -0.02369 -0.0041631 0.092154 0.067096 0.11326 0.12788 -0.47378 -0.10042 -0.34486 -0.17131 -0.46763 -0.26966 0.024579 0.15143 -0.26397 -0.08392 0.01982 0.093598 0.00090895 -0.10029 0.34275 0.076634 0.042958 -0.26539 -0.24107 0.1555 0.019608 -0.17362 -0.22226 0.10439 0.045793 -0.54264 -0.015995 0.242 -0.065391 0.15843 0.17945 -0.12696 -0.2764 0.19221 -0.36479 0.26504 -0.23414 0.11117 -0.0068188 0.056619 -0.1963 -0.16499 -0.014001 0.094575 -0.24263 0.051382 -0.51 0.018049 -0.17079 -0.02946 -0.087791 0.063555 -0.016919 0.042859 0.095635 -0.034208 0.26253 -0.12798 0.049749 -0.088472 -0.045109 0.30312 -0.014899 0.35735 0.12205 -0.0055063 -0.053161 0.17253 0.088187 -0.024525 0.13435 0.18872 0.11166 -0.21261 0.039015 -0.1916 -0.071717 0.043098 -0.0049318 -0.21732 0.0042673 0.015698 -0.084719 -0.21573 0.26514 0.083377 0.2455 -0.40086 0.34122 -0.30131 0.2704 -0.15239 -0.087386 0.2843 
qoteedy -0.11967 0.063181 0.13846 -0.09928 0.10771 0.013568 -0.42087 -0.022324 -0.29228 -0.10938 -0.41922 -0.17208 -0.028854 0.15764 -0.26299 -0.033994 -0.056665 0.036493 0.042757 -0.14253 0.40942 0.075814 0.084107 -0.29507 -0.12199 0.17996 0.042188 -0.17419 -0.16673 0.12791 0.014312 -0.57066 -0.056103 0.30582 -0.024274 0.17081 0.15575 -0.097194 -0.21687 0.18528 -0.31732 0.38819 -0.3023 -0.042212 -0.081213 0.096028 -0.19011 -0.053277 0.018352 0.14752 -0.21826 0.066474 -0.4802 0.093078 -0.20571 -0.054411 -0.019848 0.072426 -0.019831 0.068514 0.074224 -0.050814 0.27079 -0.14274 0.050325 0.0028725 -0.12589 0.37283 -0.035943 0.31117 0.15559 -0.11687 -0.03128 0.12743 0.050276 -0.042895 0.0056479 0.21469 0.020572 -0.23897 0.09779 -0.18796 -0.12721 0.041516 -0.0038946 -0.21042 -0.016563 0.037253 -0.074532 -0.21517 0.21444 0.048007 0.27647 -0.23477 0.2957 -0.26137 0.24126 -0.10958 -0.054094 0.26664 
air -0.04617 0.020382 0.11502 0.043236 0.12508 0.11253 -0.50302 -0.091005 -0.36591 -0.18624 -0.49974 -0.27071 0.0093703 0.16384 -0.29499 -0.089643 0.00036991 0.086638 0.020373 -0.11449 0.38973 0.085322 0.058232 -0.29334 -0.24264 0.17432 0.028619 -0.18478 -0.23517 0.12395 0.048715 -0.60964 -0.025395 0.27107 -0.075208 0.16694 0.19012 -0.12587 -0.28605 0.2231 -0.39301 0.3222 -0.27999 0.096188 -0.028006 0.079695 -0.22192 -0.15787 -0.010199 0.12258 -0.26277 0.063122 -0.56146 0.036235 -0.19991 -0.04146 -0.081049 0.067273 -0.019661 0.049245 0.10465 -0.034109 0.2928 -0.14602 0.050984 -0.067996 -0.067593 0.35295 -0.019459 0.38336 0.13847 -0.029775 -0.062409 0.1821 0.093947 -0.031306 0.12139 0.21617 0.10444 -0.23346 0.042525 -0.20398 -0.087259 0.052076 -0.0078351 -0.23447 0.00056642 0.030307 -0.091465 -0.23769 0.27846 0.088116 0.2757 -0.40423 0.37216 -0.32084 0.28278 -0.16024 -0.083845 0.30137 
dor -0.025548 0.0096512 0.1063 0.08397 0.10927 0.13624 -0.47091 -0.091431 -0.34619 -0.18407 -0.45593 -0.27566 0.02293 0.13988 -0.26974 -0.094659 0.020869 0.092035 0.0046327 -0.094585 0.346 0.077907 0.039209 -0.26564 -0.24607 0.16074 0.035317 -0.16751 -0.23306 0.10758 0.059324 -0.56878 -0.0096287 0.23413 -0.086945 0.15353 0.18313 -0.11768 -0.27019 0.21379 -0.38769 0.27118 -0.24443 0.12971 -0.011177 0.070092 -0.21147 -0.16667 -0.013876 0.10669 -0.24715 0.047379 -0.52712 0.018795 -0.1744 -0.047498 -0.080104 0.054024 -0.020146 0.040032 0.093914 -0.033505 0.27275 -0.13455 0.046746 -0.065093 -0.050883 0.31474 0.00069139 0.36994 0.12173 -2.9967e-05 -0.05819 0.18229 0.10559 -0.01818 0.14242 0.19422 0.11562 -0.21417 0.016655 -0.18469 -0.066293 0.052489 -0.01024 -0.22177 0.0065409 0.026812 -0.092031 -0.2276 0.26484 0.088253 0.2422 -0.40391 0.35958 -0.315 0.2681 -0.15876 -0.079514 0.27921 
o -0.044464 0.022443 0.11502 0.040027 0.1083 0.11436 -0.46299 -0.072173 -0.33326 -0.16959 -0.45509 -0.25114 0.01587 0.15285 -0.27652 -0.075454 0.0016034 0.080594 0.01974 -0.10924 0.35392 0.082648 0.049317 -0.26669 -0.21577 0.16699 0.035819 -0.16546 -0.22089 0.10759 0.044801 -0.56468 -0.018727 0.2422 -0.070964 0.14914 0.17692 -0.11323 -0.25663 0.20484 -0.36554 0.29625 -0.25714 0.090437 -0.024541 0.074048 -0.20326 -0.15115 -0.011972 0.11647 -0.23353 0.055361 -0.52342 0.033522 -0.17851 -0.046503 -0.078711 0.057116 -0.025503 0.040677 0.093887 -0.029579 0.2614 -0.13096 0.050166 -0.058403 -0.07169 0.32393 -0.013771 0.35772 0.12056 -0.027242 -0.043195 0.17035 0.086411 -0.022862 0.12215 0.19355 0.10596 -0.22216 0.040397 -0.19141 -0.077051 0.053583 -0.013308 -0.21328 0.0010437 0.025788 -0.085567 -0.22196 0.24259 0.086859 0.25164 -0.37029 0.34915 -0.30386 0.26377 -0.14574 -0.07987 0.2728 
char -0.042647 0.017005 0.099439 0.045084 0.10569 0.11333 -0.46004 -0.081542 -0.33068 -0.16927 -0.44913 -0.25572 0.015695 0.14521 -0.26323 -0.080609 0.0073723 0.079483 0.015781 -0.10534 0.34964 0.077129 0.050614 -0.26181 -0.2261 0.1626 0.03201 -0.16776 -0.21609 0.10596 0.046182 -0.55266 -0.019555 0.24404 -0.068197 0.15485 0.17497 -0.11324 -0.26503 0.19626 -0.36082 0.28355 -0.24935 0.094737 -0.021725 0.072628 -0.20097 -0.14677 -0.0076578 0.10356 -0.2386 0.04908 -0.50848 0.028332 -0.17902 -0.041539 -0.076757 0.058177 -0.017921 0.040901 0.08778 -0.033377 0.26301 -0.13338 0.046942 -0.067519 -0.063269 0.31147 -0.017419 0.34752 0.12462 -0.024687 -0.055095 0.16513 0.088615 -0.024726 0.11767 0.18845 0.10016 -0.21266 0.038974 -0.18346 -0.079714 0.03869 -0.0065796 -0.21524 -0.002533 0.026442 -0.083069 -0.21881 0.24684 0.084916 0.24771 -0.37 0.341 -0.29349 0.25866 -0.14826 -0.077226 0.27486 
qokchy -0.044531 0.017012 0.11544 0.03766 0.099831 0.10567 -0.44732 -0.074906 -0.32173 -0.16702 -0.43003 -0.24282 0.015345 0.13871 -0.26227 -0.077562 0.0046211 0.07978 0.015847 -0.1047 0.34535 0.073652 0.05004 -0.26533 -0.20922 0.16216 0.040815 -0.16133 -0.20766 0.11072 0.047903 -0.54588 -0.023314 0.24363 -0.063694 0.15624 0.16408 -0.10469 -0.25053 0.19693 -0.35624 0.28298 -0.25546 0.0801 -0.029781 0.076574 -0.2032 -0.13347 -0.010814 0.10957 -0.23529 0.048347 -0.49836 0.029918 -0.17297 -0.047351 -0.069779 0.060201 -0.016954 0.04927 0.085869 -0.035172 0.26007 -0.13085 0.051353 -0.055812 -0.069147 0.31147 -0.0068517 0.34967 0.12403 -0.024252 -0.053812 0.16009 0.089825 -0.016445 0.11594 0.19274 0.085762 -0.21828 0.030049 -0.17182 -0.071614 0.040697 -0.012858 -0.21124 0.0039825 0.030646 -0.084881 -0.22111 0.24376 0.075612 0.24983 -0.34321 0.33656 -0.30192 0.24688 -0.145 -0.073608 0.26873 
sain -0.064283 0.019134 0.10492 0.002367 0.10466 0.082661 -0.44014 -0.065986 -0.31237 -0.14293 -0.4305 -0.2259 0.0023023 0.14964 -0.25715 -0.062844 -0.014905 0.064033 0.01322 -0.11168 0.34895 0.071048 0.059569 -0.26164 -0.19873 0.1583 0.025904 -0.17167 -0.19747 0.1099 0.02862 -0.53649 -0.028575 0.25543 -0.051761 0.15515 0.16778 -0.10923 -0.25323 0.18794 -0.33366 0.30535 -0.25263 0.045716 -0.035203 0.065308 -0.18496 -0.12315 -0.0038897 0.1117 -0.22847 0.053781 -0.47967 0.042362 -0.17914 -0.030994 -0.064266 0.061613 -0.019796 0.053013 0.076878 -0.038781 0.25697 -0.12453 0.047555 -0.052001 -0.073488 0.31395 -0.021594 0.32237 0.12345 -0.045743 -0.04116 0.15311 0.065818 -0.031408 0.082949 0.18887 0.076319 -0.20824 0.056264 -0.18417 -0.091701 0.041645 -0.0052305 -0.19797 -0.012407 0.024771 -0.071286 -0.20824 0.23228 0.071501 0.24968 -0.32512 0.31415 -0.28236 0.25585 -0.12904 -0.071364 0.26933 
cho 0.017003 -0.012085 0.098409 0.15944 0.10771 0.20124 -0.50192 -0.1293 -0.3805 -0.21226 -0.48233 -0.32826 0.05605 0.12901 -0.27878 -0.12685 0.053969 0.12137 -0.012386 -0.071323 0.32228 0.095769 0.024533 -0.25612 -0.30055 0.1513 0.035795 -0.17011 -0.26325 0.10014 0.080249 -0.57467 0.014056 0.20381 -0.11123 0.15878 0.19473 -0.12337 -0.28674 0.21512 -0.41866 0.23037 -0.22283 0.20856 0.013289 0.060969 -0.23068 -0.21774 -0.031335 0.082068 -0.26387 0.04007 -0.54919 -0.023818 -0.15457 -0.048444 -0.11947 0.046589 -0.019488 0.022152 0.10216 -0.02355 0.28306 -0.128 0.052561 -0.11481 -0.029457 0.29085 -0.0015634 0.40926 0.10631 0.046667 -0.075865 0.21108 0.13419 -0.0073322 0.20777 0.19638 0.15753 -0.21481 -0.019595 -0.18363 -0.043243 0.048311 -0.013881 -0.23316 0.023724 0.02048 -0.10193 -0.24299 0.29732 0.10694 0.23386 -0.47543 0.39612 -0.34523 0.27887 -0.18772 -0.098205 0.28455 
okeol -0.039889 0.019883 0.11058 0.064588 0.10814 0.13696 -0.47346 -0.080624 -0.3434 -0.18905 -0.48425 -0.26965 0.01641 0.14642 -0.291 -0.093942 0.012431 0.08457 -0.0013225 -0.11215 0.35243 0.081131 0.047834 -0.27452 -0.24847 0.17476 0.041636 -0.17236 -0.23889 0.11322 0.057342 -0.58396 -0.011249 0.24227 -0.08434 0.1541 0.191 -0.11809 -0.26525 0.21622 -0.39846 0.29275 -0.25654 0.10524 -0.022049 0.086218 -0.21605 -0.16171 -0.0050506 0.11257 -0.24851 0.054215 -0.53662 0.021966 -0.17906 -0.049129 -0.075508 0.054988 -0.022434 0.032983 0.093838 -0.041709 0.28099 -0.1335 0.037488 -0.061506 -0.061537 0.33443 0.0052961 0.37211 0.12773 -0.0079367 -0.057091 0.18809 0.090044 -0.030007 0.12867 0.20185 0.1103 -0.21129 0.025357 -0.1945 -0.068606 0.063433 -0.016795 -0.21615 -0.0064722 0.023053 -0.094441 -0.22579 0.25522 0.085436 0.2525 -0.4048 0.34614 -0.31896 0.28104 -0.15447 -0.078175 0.2924 
cheky -0.060646 0.024723 0.11189 0.02354 0.11549 0.10806 -0.4758 -0.075241 -0.34157 -0.16959 -0.47469 -0.25148 0.011896 0.15347 -0.28074 -0.075616 -0.0029655 0.074322 0.011195 -0.11812 0.37635 0.083169 0.056384 -0.28066 -0.22448 0.17569 0.03733 -0.18167 -0.22127 0.11377 0.044649 -0.58743 -0.026499 0.26959 -0.064788 0.1666 0.18362 -0.11541 -0.26968 0.2051 -0.37822 0.31385 -0.27159 0.076852 -0.034296 0.077202 -0.21044 -0.14649 -0.0070542 0.11813 -0.24706 0.053014 -0.53243 0.040107 -0.19197 -0.042745 -0.076933 0.060329 -0.02067 0.046441 0.082664 -0.041444 0.27858 -0.14166 0.048529 -0.057202 -0.082492 0.34062 -0.015921 0.36523 0.13271 -0.040642 -0.050711 0.17433 0.084484 -0.031985 0.10052 0.21065 0.090009 -0.22614 0.048049 -0.20207 -0.08734 0.050156 -0.0067855 -0.22396 -0.0067714 0.024148 -0.085891 -0.22931 0.2542 0.076754 0.26781 -0.37127 0.34795 -0.30851 0.27758 -0.14784 -0.082532 0.28952 
cheo -0.061093 0.024736 0.10792 0.036792 0.11744 0.11782 -0.48146 -0.07545 -0.35141 -0.17919 -0.48919 -0.26442 0.010643 0.14878 -0.28677 -0.082047 -0.00046321 0.073513 0.0042235 -0.11874 0.37718 0.084797 0.052077 -0.28069 -0.23324 0.17768 0.04512 -0.18333 -0.23276 0.11875 0.045896 -0.60454 -0.017886 0.26458 -0.075287 0.16514 0.1893 -0.11891 -0.27335 0.20486 -0.39143 0.31477 -0.27467 0.090622 -0.02818 0.082807 -0.21686 -0.15564 -0.00061845 0.11985 -0.25237 0.053215 -0.546 0.035364 -0.19321 -0.048114 -0.077517 0.055717 -0.017082 0.044282 0.081165 -0.046164 0.28409 -0.13772 0.045526 -0.062598 -0.080405 0.34752 -0.01179 0.37102 0.13116 -0.033161 -0.053245 0.18359 0.080925 -0.032243 0.1093 0.21477 0.097106 -0.22115 0.044185 -0.20899 -0.082598 0.058119 -0.0035545 -0.22466 -0.010834 0.02497 -0.082958 -0.23464 0.25972 0.084457 0.26507 -0.38992 0.35074 -0.32161 0.28704 -0.15352 -0.08423 0.29535 
kaiin -0.019766 -0.011478 0.087498 0.070762 0.11328 0.12917 -0.46843 -0.1023 -0.3383 -0.1714 -0.46012 -0.26599 0.023436 0.15146 -0.25739 -0.081021 0.020087 0.093768 -0.0028947 -0.10216 0.3315 0.076962 0.041536 -0.25578 -0.2413 0.14638 0.013355 -0.17039 -0.22111 0.1021 0.038642 -0.5248 -0.018271 0.23546 -0.064936 0.15809 0.17331 -0.12579 -0.27677 0.18599 -0.35337 0.25436 -0.22191 0.11378 -0.0030037 0.051026 -0.19189 -0.16669 -0.016467 0.088861 -0.24012 0.047739 -0.49866 0.015581 -0.16869 -0.02586 -0.087912 0.061791 -0.018116 0.036974 0.097569 -0.032935 0.25686 -0.11894 0.051738 -0.094769 -0.037116 0.29165 -0.012222 0.34779 0.11768 -0.00018736 -0.05102 0.17308 0.087595 -0.0241 0.13223 0.18044 0.11207 -0.20231 0.03876 -0.18677 -0.072329 0.041469 -0.0032767 -0.20769 0.0031561 0.011893 -0.082768 -0.20846 0.26129 0.079296 0.24198 -0.40207 0.33787 -0.29408 0.27093 -0.15008 -0.086786 0.28353 
qotain -0.071675 0.027565 0.11457 -0.0089059 0.10812 0.073833 -0.44306 -0.057646 -0.31243 -0.14335 -0.43155 -0.21955 -0.0045693 0.1518 -0.25886 -0.058884 -0.020413 0.062251 0.024627 -0.11865 0.36681 0.077425 0.06489 -0.27131 -0.18475 0.16446 0.030943 -0.17626 -0.19739 0.11459 0.026994 -0.55036 -0.038156 0.26738 -0.049355 0.15934 0.1655 -0.10604 -0.24702 0.19021 -0.33358 0.32044 -0.26399 0.031655 -0.042514 0.072098 -0.19135 -0.11487 -0.00053471 0.1196 -0.23083 0.056876 -0.48984 0.052865 -0.18743 -0.038175 -0.058401 0.062268 -0.018886 0.05462 0.079001 -0.040833 0.26449 -0.12935 0.046435 -0.041511 -0.08513 0.32736 -0.023023 0.32745 0.13058 -0.059021 -0.040057 0.15012 0.066251 -0.034254 0.070679 0.19757 0.067275 -0.21873 0.06304 -0.18857 -0.096708 0.041425 -0.0018414 -0.20776 -0.010284 0.026408 -0.076439 -0.21206 0.23427 0.070366 0.25655 -0.31319 0.31787 -0.28115 0.25468 -0.12998 -0.071402 0.27228 
okey -0.070071 0.031185 0.11734 0.0085312 0.11106 0.10455 -0.46879 -0.06347 -0.33193 -0.16973 -0.48294 -0.2404 0.00011678 0.15933 -0.28996 -0.07483 -0.0077107 0.062717 0.0079691 -0.12287 0.38249 0.082037 0.057306 -0.28716 -0.21672 0.18217 0.042755 -0.17687 -0.22311 0.12241 0.040986 -0.59775 -0.028596 0.27209 -0.069634 0.15651 0.1882 -0.11395 -0.2598 0.2066 -0.38245 0.33133 -0.28383 0.056181 -0.034927 0.090508 -0.20735 -0.13345 0.0053278 0.12165 -0.24653 0.059176 -0.52845 0.049533 -0.1984 -0.04736 -0.061763 0.064226 -0.025987 0.046016 0.084354 -0.044808 0.28696 -0.14083 0.043589 -0.045603 -0.087307 0.35832 -0.0064385 0.35868 0.13168 -0.046791 -0.043441 0.18066 0.06855 -0.032739 0.085817 0.20594 0.085363 -0.21797 0.058574 -0.20182 -0.084915 0.059513 -0.0095983 -0.20959 -0.019893 0.023876 -0.088885 -0.23166 0.24084 0.075138 0.26674 -0.36317 0.33341 -0.31151 0.27429 -0.14474 -0.074139 0.29755 
qotchy -0.028418 0.007968 0.11067 0.069243 0.10069 0.11934 -0.44338 -0.082946 -0.32606 -0.16906 -0.41813 -0.25392 0.021131 0.13475 -0.25709 -0.088662 0.020014 0.086441 0.011583 -0.090335 0.33022 0.082057 0.039247 -0.25412 -0.21532 0.1507 0.036709 -0.1545 -0.21296 0.10468 0.057309 -0.53401 -0.013251 0.22458 -0.069899 0.15227 0.16211 -0.11108 -0.24436 0.19877 -0.3577 0.26206 -0.2434 0.10629 -0.017835 0.068542 -0.20733 -0.14599 -0.017582 0.1019 -0.23406 0.044172 -0.49554 0.015205 -0.16349 -0.04717 -0.074439 0.050018 -0.01641 0.043913 0.092177 -0.032425 0.25614 -0.12855 0.049824 -0.064402 -0.058716 0.29653 -0.0086476 0.35193 0.11682 -0.0040936 -0.058667 0.16812 0.10344 -0.014781 0.13314 0.18697 0.098582 -0.21801 0.018816 -0.16955 -0.067008 0.036428 -0.012479 -0.21321 0.015034 0.027193 -0.087086 -0.2163 0.24792 0.078664 0.23769 -0.35957 0.34091 -0.30093 0.24438 -0.15267 -0.076976 0.25927 
qotar -0.071841 0.031758 0.11777 -0.007449 0.11234 0.073454 -0.44469 -0.058405 -0.31603 -0.14832 -0.43578 -0.21859 -0.0036671 0.14973 -0.26222 -0.064433 -0.013944 0.061913 0.029911 -0.12113 0.37297 0.078949 0.062234 -0.27748 -0.18222 0.16419 0.036135 -0.16915 -0.19933 0.11503 0.03353 -0.55741 -0.037157 0.26703 -0.047785 0.15863 0.16607 -0.10997 -0.2489 0.2002 -0.34148 0.32587 -0.26926 0.03749 -0.046735 0.078182 -0.19719 -0.11255 -0.0032778 0.12345 -0.23381 0.059122 -0.49801 0.055373 -0.18951 -0.04676 -0.0564 0.065869 -0.019582 0.054853 0.088587 -0.03801 0.26572 -0.13754 0.052393 -0.037764 -0.081228 0.33542 -0.023192 0.3333 0.13694 -0.06164 -0.04493 0.15332 0.076828 -0.031096 0.07439 0.19815 0.06846 -0.22829 0.06082 -0.18483 -0.096915 0.042395 -0.0060994 -0.21343 -0.0040456 0.032097 -0.082236 -0.21546 0.23419 0.071385 0.26061 -0.31758 0.32493 -0.28473 0.24907 -0.13632 -0.067613 0.26954 
odaiin -0.015254 -0.0078137 0.092866 0.086488 0.11485 0.14107 -0.4789 -0.10743 -0.35478 -0.18147 -0.47517 -0.28649 0.03104 0.15225 -0.26794 -0.091553 0.025647 0.10286 -0.0017261 -0.092327 0.33659 0.079816 0.036816 -0.25837 -0.24907 0.15194 0.017938 -0.17041 -0.22924 0.10499 0.052623 -0.54699 -0.011777 0.23483 -0.075293 0.15941 0.18248 -0.12732 -0.27899 0.20161 -0.37541 0.25826 -0.22796 0.13725 -0.0032148 0.054795 -0.20538 -0.17807 -0.018922 0.089932 -0.24572 0.049486 -0.51851 0.01196 -0.16682 -0.032485 -0.092141 0.060716 -0.019747 0.035576 0.10355 -0.031504 0.26426 -0.12544 0.048867 -0.095868 -0.035629 0.29907 -0.012309 0.36594 0.12079 0.012922 -0.061045 0.182 0.099035 -0.021798 0.15123 0.18731 0.12658 -0.21313 0.027343 -0.19078 -0.064033 0.044716 -0.007858 -0.21995 0.0096692 0.017167 -0.089062 -0.22037 0.27533 0.086006 0.24199 -0.42359 0.34989 -0.30636 0.27563 -0.15955 -0.08975 0.28658 
cthol -0.0090759 0.0045213 0.10085 0.10503 0.09401 0.14497 -0.44572 -0.090904 -0.32339 -0.17875 -0.42617 -0.27142 0.028073 0.12938 -0.25902 -0.098379 0.028409 0.093792 0.0026969 -0.081933 0.31016 0.07732 0.031138 -0.24594 -0.24014 0.14402 0.034799 -0.14982 -0.21901 0.099034 0.063601 -0.52464 0.0012157 0.20554 -0.085015 0.14323 0.16868 -0.11057 -0.25249 0.19365 -0.36658 0.23703 -0.22163 0.13584 -0.0055061 0.065449 -0.20377 -0.16875 -0.022674 0.09739 -0.23293 0.041018 -0.49525 -0.00016305 -0.15402 -0.044142 -0.087286 0.046076 -0.01574 0.032326 0.091321 -0.028802 0.25166 -0.11871 0.04362 -0.071793 -0.039329 0.27639 0.0015927 0.35568 0.11087 0.019004 -0.058225 0.17542 0.10866 -0.010867 0.15948 0.17945 0.11867 -0.20514 -0.0013312 -0.16583 -0.054238 0.04132 -0.013976 -0.21044 0.013524 0.027737 -0.088127 -0.21116 0.25385 0.084761 0.224 -0.38996 0.34346 -0.30215 0.25088 -0.15611 -0.081098 0.2583 
shckhy -0.043475 0.020324 0.10696 0.039176 0.099297 0.099007 -0.43277 -0.072721 -0.31422 -0.15881 -0.42021 -0.23779 0.011747 0.13864 -0.25463 -0.074675 0.0007912 0.072031 0.012971 -0.10039 0.33542 0.071265 0.049184 -0.25216 -0.20717 0.15187 0.033088 -0.15822 -0.20288 0.11031 0.046065 -0.52833 -0.020134 0.23673 -0.065009 0.14314 0.16313 -0.10735 -0.24268 0.19177 -0.34576 0.27701 -0.2426 0.075649 -0.023021 0.070663 -0.1948 -0.13256 -0.0079695 0.10724 -0.2295 0.048262 -0.48364 0.02982 -0.16856 -0.040155 -0.069989 0.056798 -0.015547 0.043978 0.083998 -0.037027 0.25241 -0.12556 0.044887 -0.054033 -0.065069 0.29991 -0.013579 0.33408 0.11706 -0.022314 -0.047019 0.15976 0.087402 -0.024499 0.10853 0.18512 0.087953 -0.20497 0.035588 -0.17522 -0.074389 0.041915 -0.011157 -0.2044 0.00058468 0.024553 -0.078592 -0.20899 0.23689 0.076686 0.23731 -0.34138 0.31955 -0.28389 0.24559 -0.13716 -0.072194 0.26108 
cheedy -0.13102 0.068133 0.14032 -0.10861 0.1181 0.017814 -0.45563 -0.022082 -0.31551 -0.12047 -0.45742 -0.18471 -0.026563 0.16797 -0.28378 -0.038486 -0.061465 0.036416 0.039963 -0.15694 0.44179 0.080774 0.091945 -0.31173 -0.14235 0.197 0.04529 -0.19079 -0.18416 0.13495 0.015688 -0.6146 -0.059772 0.32983 -0.031864 0.18294 0.17456 -0.10325 -0.23955 0.19613 -0.34744 0.41443 -0.32591 -0.04477 -0.084028 0.10501 -0.20181 -0.067245 0.021377 0.1611 -0.23438 0.066803 -0.52002 0.10053 -0.22534 -0.054762 -0.030358 0.073727 -0.021446 0.072072 0.070686 -0.059299 0.29204 -0.15361 0.051468 -0.00559 -0.13812 0.39682 -0.035863 0.33575 0.16541 -0.12905 -0.032427 0.13873 0.049379 -0.051236 0.0085149 0.23162 0.02473 -0.24655 0.10662 -0.21619 -0.13307 0.04872 -0.0030215 -0.2234 -0.023952 0.037149 -0.072115 -0.22948 0.22862 0.050383 0.29589 -0.26062 0.31605 -0.28424 0.26403 -0.11767 -0.066044 0.29116 
qotal -0.066087 0.029216 0.11637 -0.0027838 0.10708 0.077771 -0.4414 -0.057518 -0.31063 -0.14749 -0.43214 -0.22115 0.00049572 0.14807 -0.26381 -0.064267 -0.012225 0.064368 0.030654 -0.11832 0.36355 0.07744 0.062003 -0.27437 -0.18137 0.16422 0.035174 -0.17025 -0.1941 0.11212 0.03533 -0.55659 -0.033501 0.26431 -0.048842 0.15747 0.16349 -0.10632 -0.24299 0.19614 -0.33952 0.3193 -0.2672 0.039225 -0.045637 0.073834 -0.19481 -0.11308 -0.0064651 0.11939 -0.23095 0.057788 -0.49263 0.052414 -0.18654 -0.045911 -0.053316 0.063577 -0.020348 0.05116 0.083107 -0.03929 0.26418 -0.1346 0.048019 -0.039164 -0.084448 0.32784 -0.019561 0.33211 0.13486 -0.056333 -0.044585 0.1529 0.076482 -0.032124 0.077392 0.19658 0.069364 -0.22398 0.05656 -0.18202 -0.091194 0.041666 -0.006862 -0.2117 -0.0055309 0.027254 -0.079878 -0.21384 0.23043 0.070693 0.25917 -0.31904 0.32093 -0.28502 0.24881 -0.13241 -0.068947 0.2714 
ykeey -0.067052 0.030007 0.11002 0.0088377 0.10127 0.096687 -0.45255 -0.063873 -0.3158 -0.15905 -0.45568 -0.22992 -0.0024298 0.14839 -0.26992 -0.066674 -0.0044091 0.06155 0.010818 -0.1143 0.36614 0.077827 0.054035 -0.2715 -0.20721 0.17217 0.040525 -0.16875 -0.20993 0.11732 0.040759 -0.56649 -0.024017 0.25708 -0.06751 0.15242 0.17778 -0.10721 -0.24926 0.18942 -0.36323 0.31187 -0.27042 0.055268 -0.033908 0.083005 -0.20344 -0.13209 0.0033867 0.11803 -0.23857 0.052763 -0.50531 0.04436 -0.19354 -0.045661 -0.065148 0.063434 -0.021973 0.045256 0.078391 -0.045222 0.27105 -0.13686 0.043431 -0.044523 -0.085446 0.33784 -0.0030128 0.34247 0.12856 -0.046524 -0.038676 0.16615 0.067259 -0.029824 0.087587 0.19601 0.078695 -0.20808 0.057069 -0.19536 -0.081196 0.049656 -0.0093331 -0.2034 -0.012084 0.026775 -0.081689 -0.22076 0.23173 0.075569 0.2549 -0.34331 0.32288 -0.2984 0.26464 -0.13778 -0.073043 0.28277 
sor -0.033378 0.011641 0.11122 0.070019 0.11062 0.12584 -0.46339 -0.090197 -0.33757 -0.17901 -0.44913 -0.26647 0.019466 0.1424 -0.26894 -0.087045 0.011163 0.086714 0.0034684 -0.09739 0.34164 0.083712 0.043906 -0.26285 -0.23835 0.1612 0.033952 -0.16405 -0.22913 0.10925 0.055244 -0.56442 -0.014053 0.2406 -0.084401 0.15158 0.18291 -0.11745 -0.27003 0.20851 -0.37991 0.27775 -0.24533 0.11114 -0.017161 0.07179 -0.20963 -0.15952 -0.014562 0.11077 -0.24215 0.047413 -0.52188 0.018676 -0.17893 -0.045107 -0.080564 0.054728 -0.022214 0.038918 0.095022 -0.028912 0.2655 -0.13491 0.045601 -0.068076 -0.056377 0.31421 -0.0026382 0.36462 0.12466 -0.0052429 -0.054845 0.17767 0.099672 -0.020355 0.13445 0.19205 0.11062 -0.21614 0.024152 -0.18551 -0.072666 0.050414 -0.012399 -0.21384 0.0060086 0.024254 -0.087112 -0.22293 0.25628 0.086501 0.24462 -0.3936 0.352 -0.30914 0.26897 -0.15344 -0.075702 0.27382 
oly -0.070132 0.027147 0.1365 0.02112 0.1283 0.11331 -0.54712 -0.086124 -0.3922 -0.1948 -0.54075 -0.29074 0.0098768 0.17513 -0.31968 -0.089227 -0.0058712 0.087918 0.022977 -0.13502 0.4306 0.090004 0.069697 -0.32755 -0.24578 0.19695 0.040367 -0.20103 -0.25191 0.14001 0.043612 -0.66878 -0.032301 0.30617 -0.077872 0.19064 0.20574 -0.13191 -0.30815 0.24386 -0.4275 0.37028 -0.31315 0.075997 -0.040028 0.088841 -0.24225 -0.15218 -0.0052122 0.13382 -0.28807 0.067678 -0.60897 0.050463 -0.22242 -0.052532 -0.08018 0.078219 -0.026235 0.057166 0.10146 -0.048575 0.32329 -0.16499 0.062172 -0.062937 -0.08644 0.38891 -0.015275 0.41538 0.1545 -0.046034 -0.055761 0.19476 0.099303 -0.033091 0.11835 0.23318 0.10437 -0.2574 0.057939 -0.22435 -0.099445 0.052897 -0.011288 -0.25177 -0.008448 0.032614 -0.099683 -0.26249 0.29479 0.0947 0.30919 -0.41517 0.39964 -0.35273 0.30875 -0.16843 -0.089923 0.32779 
qokchdy -0.080559 0.037771 0.12492 -0.030964 0.10844 0.055993 -0.43901 -0.049936 -0.31383 -0.14079 -0.42756 -0.2091 -0.005595 0.1485 -0.26163 -0.055292 -0.025874 0.061057 0.033251 -0.12648 0.37984 0.073516 0.068986 -0.28794 -0.16932 0.17296 0.036946 -0.16975 -0.1842 0.12426 0.032033 -0.55882 -0.044243 0.27564 -0.039207 0.16557 0.15997 -0.099767 -0.23755 0.19585 -0.33517 0.33413 -0.28153 0.020376 -0.058799 0.086666 -0.19635 -0.093043 0.00024845 0.13265 -0.23147 0.058501 -0.49245 0.063517 -0.19004 -0.050641 -0.047032 0.069765 -0.015951 0.062879 0.083688 -0.041757 0.2685 -0.14047 0.054453 -0.028607 -0.097916 0.34297 -0.02231 0.3342 0.14294 -0.074377 -0.042198 0.14525 0.077175 -0.026314 0.063561 0.2063 0.055403 -0.2234 0.064228 -0.17974 -0.098729 0.037618 -0.011927 -0.21262 0.00019834 0.040107 -0.080744 -0.21929 0.23061 0.063512 0.26614 -0.29445 0.32254 -0.28111 0.24205 -0.12777 -0.060991 0.27314 
otey -0.062424 0.028507 0.11501 0.022331 0.11617 0.10642 -0.47724 -0.071994 -0.34618 -0.17193 -0.48731 -0.25838 -0.0018247 0.16679 -0.28917 -0.078748 -0.0045316 0.073263 0.01334 -0.12543 0.38746 0.087169 0.05276 -0.29335 -0.21061 0.17642 0.037533 -0.17925 -0.22853 0.12128 0.039847 -0.60022 -0.023745 0.2724 -0.065209 0.16241 0.1892 -0.12098 -0.26468 0.21221 -0.38575 0.33255 -0.2805 0.070998 -0.034239 0.085831 -0.2127 -0.13699 -0.00041412 0.11855 -0.25618 0.061621 -0.53988 0.042782 -0.19617 -0.048834 -0.066621 0.061405 -0.026543 0.043521 0.094278 -0.038727 0.28486 -0.14373 0.05083 -0.048138 -0.081557 0.36173 -0.01818 0.36253 0.14054 -0.040756 -0.048225 0.18091 0.077891 -0.029038 0.099548 0.20354 0.094271 -0.225 0.05707 -0.20062 -0.091413 0.053209 -0.0060725 -0.21903 -0.010869 0.028678 -0.095185 -0.233 0.25548 0.080821 0.26822 -0.37853 0.34465 -0.31152 0.27706 -0.14808 -0.07044 0.29024 
sal -0.061036 0.021955 0.10877 0.020578 0.11321 0.10043 -0.4505 -0.070018 -0.31691 -0.16171 -0.44733 -0.2406 0.0086672 0.1533 -0.26907 -0.072854 -0.008174 0.070484 0.016248 -0.11565 0.35673 0.073916 0.053632 -0.26885 -0.2074 0.16169 0.033357 -0.16974 -0.20537 0.11088 0.037114 -0.55622 -0.026996 0.25344 -0.057935 0.15242 0.17481 -0.11382 -0.25333 0.19783 -0.35439 0.30322 -0.26002 0.069073 -0.035779 0.072132 -0.196 -0.12753 -0.010158 0.11548 -0.23826 0.055984 -0.50301 0.044498 -0.18042 -0.038964 -0.066984 0.060438 -0.019703 0.048111 0.086435 -0.037469 0.2654 -0.13602 0.046739 -0.055084 -0.070275 0.32497 -0.015317 0.34123 0.12908 -0.038108 -0.050619 0.1626 0.080075 -0.023868 0.099 0.1913 0.086184 -0.21205 0.044867 -0.18183 -0.085238 0.046922 -0.010029 -0.21235 -0.0024742 0.02721 -0.080227 -0.21454 0.23815 0.077306 0.25245 -0.35181 0.33667 -0.2876 0.26177 -0.1395 -0.06849 0.27558 
shody -0.05052 0.030704 0.1159 0.029448 0.10673 0.095681 -0.44911 -0.073383 -0.33162 -0.15808 -0.44105 -0.24093 0.010671 0.14894 -0.26536 -0.077293 0.0029073 0.076303 0.017728 -0.1086 0.36101 0.077918 0.055377 -0.27333 -0.19541 0.16239 0.035898 -0.15868 -0.20086 0.1169 0.046963 -0.5615 -0.024608 0.24911 -0.064698 0.15703 0.17013 -0.11303 -0.24767 0.20422 -0.36078 0.29916 -0.26321 0.078823 -0.032685 0.07753 -0.20549 -0.12519 -0.012383 0.11753 -0.23701 0.054352 -0.50313 0.041138 -0.17503 -0.055448 -0.064698 0.058073 -0.016777 0.051432 0.098647 -0.042998 0.26754 -0.13461 0.047341 -0.047424 -0.075844 0.32767 -0.009914 0.35149 0.1319 -0.0361 -0.053965 0.1668 0.092158 -0.027697 0.10569 0.19756 0.08705 -0.2185 0.04722 -0.18193 -0.082672 0.045047 -0.011247 -0.21838 0.007737 0.032441 -0.086853 -0.22016 0.24941 0.075176 0.24785 -0.34754 0.33523 -0.29435 0.25103 -0.14279 -0.066187 0.27321 
keedy -0.1466 0.078929 0.14798 -0.14674 0.10965 -0.013312 -0.42917 -0.008023 -0.29157 -0.098503 -0.42919 -0.15598 -0.041627 0.16846 -0.27511 -0.024099 -0.075633 0.022703 0.05169 -0.16046 0.43778 0.078168 0.098514 -0.31276 -0.10962 0.19665 0.041609 -0.18455 -0.15892 0.13979 0.0057018 -0.59702 -0.068295 0.33262 -0.015802 0.17861 0.15941 -0.09283 -0.21653 0.18633 -0.31973 0.43011 -0.32702 -0.08416 -0.095103 0.1063 -0.19307 -0.029997 0.027022 0.16476 -0.22096 0.0694 -0.4886 0.11775 -0.22563 -0.056909 -0.0072433 0.0764 -0.024966 0.074367 0.071381 -0.059438 0.28202 -0.15303 0.048879 0.016519 -0.15033 0.39836 -0.039405 0.3137 0.17081 -0.14892 -0.024608 0.11863 0.039876 -0.05047 -0.024554 0.22265 0.0029051 -0.24353 0.12153 -0.20428 -0.14075 0.042332 -0.0043184 -0.21022 -0.021982 0.043371 -0.070814 -0.22003 0.2069 0.041455 0.29427 -0.21215 0.29241 -0.26564 0.2457 -0.10046 -0.049079 0.28075 
kar -0.061745 0.02334 0.10835 0.0027573 0.11628 0.080531 -0.45852 -0.068492 -0.32458 -0.16259 -0.44968 -0.23314 0.0023063 0.1535 -0.26348 -0.06164 -0.010366 0.068986 0.024572 -0.1195 0.36732 0.074109 0.061245 -0.27173 -0.20147 0.16079 0.027501 -0.17268 -0.20248 0.11215 0.030545 -0.55284 -0.037566 0.26378 -0.054303 0.1638 0.17408 -0.1161 -0.25555 0.20305 -0.35196 0.31653 -0.26391 0.053592 -0.031691 0.073527 -0.19765 -0.12473 -0.0039194 0.11611 -0.23542 0.058374 -0.50475 0.053272 -0.19112 -0.037485 -0.06346 0.068938 -0.024353 0.050503 0.089517 -0.030998 0.26606 -0.13529 0.05039 -0.054756 -0.075967 0.32673 -0.021777 0.33544 0.13104 -0.050972 -0.04416 0.15611 0.080952 -0.031394 0.088153 0.1953 0.080467 -0.21263 0.05772 -0.18407 -0.094381 0.045524 -0.0080029 -0.20859 -0.005486 0.031056 -0.078832 -0.21472 0.23627 0.072285 0.26073 -0.33764 0.32965 -0.27957 0.25603 -0.1369 -0.070736 0.27604 
qokeol -0.066763 0.034055 0.12145 0.0077544 0.1036 0.093854 -0.45504 -0.057481 -0.32099 -0.16301 -0.46249 -0.23255 0.002387 0.14874 -0.28344 -0.069776 -0.011657 0.065738 0.015129 -0.12395 0.37216 0.076091 0.060582 -0.28238 -0.20703 0.1806 0.047525 -0.17563 -0.2112 0.12089 0.042115 -0.58105 -0.027168 0.26447 -0.064397 0.15866 0.17633 -0.10723 -0.25012 0.20472 -0.37079 0.32434 -0.27518 0.044257 -0.042994 0.093284 -0.20849 -0.12796 0.0056481 0.12725 -0.23924 0.0567 -0.5168 0.043242 -0.19001 -0.055816 -0.053651 0.060776 -0.020694 0.049531 0.08108 -0.046722 0.27587 -0.1376 0.043287 -0.038632 -0.087578 0.34532 -0.0025949 0.35249 0.13755 -0.045972 -0.045464 0.16551 0.075132 -0.034282 0.088062 0.20768 0.074216 -0.21844 0.048035 -0.19226 -0.084619 0.057175 -0.013904 -0.21427 -0.013879 0.029351 -0.087271 -0.22173 0.23759 0.075806 0.2614 -0.34094 0.32872 -0.30477 0.2673 -0.13939 -0.07214 0.28786 
olaiin -0.032252 -0.0008106 0.10042 0.057737 0.11423 0.12286 -0.48282 -0.096022 -0.34988 -0.17168 -0.47404 -0.26897 0.020071 0.15474 -0.26911 -0.081509 0.013509 0.091211 0.0043907 -0.10601 0.35301 0.077747 0.049273 -0.27054 -0.23952 0.1606 0.019863 -0.17638 -0.2224 0.10929 0.041471 -0.55825 -0.017942 0.25133 -0.065781 0.1625 0.18019 -0.12486 -0.27917 0.20125 -0.37018 0.28314 -0.24384 0.10337 -0.012721 0.062534 -0.20282 -0.16336 -0.012546 0.099459 -0.24857 0.052504 -0.51876 0.023242 -0.17837 -0.034044 -0.083729 0.066289 -0.017656 0.04242 0.097525 -0.036337 0.26704 -0.13154 0.0546 -0.083174 -0.048941 0.31566 -0.016126 0.36016 0.12525 -0.011205 -0.051019 0.17243 0.08836 -0.029935 0.12831 0.19087 0.1092 -0.21485 0.040561 -0.19436 -0.076369 0.044614 -0.0049735 -0.21877 0.0018091 0.017729 -0.085614 -0.22225 0.26697 0.082697 0.2553 -0.39816 0.34965 -0.30544 0.2754 -0.15205 -0.085895 0.29127 
