980 100
</s> 0.11571 0.19369 -0.26112 -0.18844 -0.28583 -0.26602 -0.15341 0.1518 0.076547 -0.019595 -0.29241 0.082607 0.17876 -0.1957 -0.27915 -0.16494 0.24837 -0.10466 0.064439 7.1973e-05 0.44355 0.10401 -0.14648 -0.084127 -0.37475 0.068454 0.17641 -0.085824 -0.093453 0.09231 0.32926 -0.049506 0.15246 -0.14108 -0.20015 0.28121 0.046451 -0.2414 -0.22256 0.064132 -0.10341 0.10626 -0.024778 0.16465 0.069614 -0.16506 -0.26751 -0.062037 0.12462 -0.052735 -0.075572 0.010249 -0.58127 0.091174 -0.33617 -0.076581 -0.14868 0.022159 -0.18193 0.059011 0.29459 0.15857 -0.079515 0.1058 -0.25415 0.079979 -0.3627 0.049762 0.2259 0.10045 0.27428 0.15471 0.16126 0.20493 -0.077483 -0.24596 0.21604 0.2372 -0.063047 0.0083961 0.2531 -0.34632 -0.46453 0.11039 -0.074653 -0.046496 0.23592 -0.075168 -0.032538 -0.017296 -0.066215 0.14169 -0.055601 -0.63163 0.076068 -0.08905 0.18481 0.25536 -0.09789 0.3138 
daiin 0.14452 0.17089 -0.27401 -0.15976 -0.29945 -0.21174 -0.13296 0.096066 0.065025 -0.0093176 -0.24317 0.063977 0.1865 -0.22036 -0.23972 -0.16226 0.25061 -0.079083 0.058842 0.025169 0.92958 0.12956 -0.1668 -0.069028 -0.35568 0.043658 0.11829 -0.071689 -0.093049 0.044002 0.30926 0.0021302 0.13459 -0.16793 -0.21396 0.26174 0.038551 -0.22724 -0.19826 0.055466 -0.13155 0.069808 0.0084099 0.20103 0.091339 -0.18755 -0.24016 -0.070751 0.13152 -0.071317 -0.06131 -0.029489 -0.5371 0.054433 -0.31971 -0.093638 -0.15178 0.0020009 -0.15761 0.04864 0.27887 0.15167 -0.080837 0.11437 -0.22116 0.059704 -0.33196 0.0065888 0.24614 0.11382 0.25224 0.20214 0.17285 0.2009 -0.04934 -0.20686 0.23821 0.19731 -0.034353 0.00038555 0.23134 -0.33685 -0.44448 0.10089 -0.022034 -0.043378 0.21004 -0.093079 -0.027161 -0.018605 -0.06916 0.13718 -0.061284 -0.60966 0.083756 -0.10466 0.17287 0.24869 -0.10057 0.29385 
ol 0.10822 0.17815 -0.21701 -0.16294 -0.26876 -0.2428 -0.14521 0.13418 0.091538 -0.02877 -0.27073 0.073469 0.17093 -0.17805 -0.25957 -0.15322 0.2391 -0.10895 0.040355 0.014651 0.82083 0.086163 -0.12857 -0.07886 -0.36445 0.079323 0.17347 -0.077917 -0.083258 0.084456 0.31912 -0.045347 0.13986 -0.13337 -0.19613 0.26603 0.044312 -0.22084 -0.21112 0.065263 -0.10647 0.096663 -0.015172 0.14427 0.060857 -0.14655 -0.25457 -0.046965 0.1145 -0.034775 -0.063928 0.0213 -0.54245 0.072008 -0.32599 -0.071244 -0.12421 0.018348 -0.16576 0.051735 0.27745 0.15801 -0.067353 0.10889 -0.23341 0.088494 -0.32011 0.042326 0.23245 0.099504 0.2611 0.14504 0.1601 0.1914 -0.060365 -0.24097 0.20936 0.22616 -0.053574 0.019415 0.23588 -0.32682 -0.44151 0.099319 -0.070851 -0.040596 0.22345 -0.061444 -0.013193 -0.0062343 -0.06423 0.13947 -0.04857 -0.58392 0.062879 -0.081683 0.18382 0.25299 -0.089302 0.30574 
chedy 0.031417 0.28876 -0.19336 -0.41907 -0.17302 -0.52912 -0.32996 0.39206 0.14827 -0.036449 -0.56575 0.14629 0.1062 -0.02903 -0.43213 -0.15146 0.17806 -0.18704 0.082712 -0.11587 -0.64962 -0.0041388 -0.0059864 -0.12744 -0.40281 0.1853 0.3821 -0.16641 -0.05215 0.26687 0.39457 -0.25747 0.19093 0.040106 -0.074178 0.34566 0.060279 -0.33023 -0.33322 0.038453 0.048956 0.2765 -0.24098 -0.032247 -0.025002 -0.10883 -0.36184 -0.061047 0.074819 0.020502 -0.12364 0.19645 -0.73384 0.23104 -0.39828 0.0042603 -0.13819 0.13021 -0.27844 0.084278 0.36936 0.16503 -0.013623 0.044215 -0.3578 0.11722 -0.46593 0.25016 0.080812 0.033085 0.37395 -0.1437 0.14509 0.19512 -0.21229 -0.33479 0.03755 0.44789 -0.13544 -0.0082243 0.40525 -0.39596 -0.54571 0.15301 -0.27095 -0.067662 0.35153 -0.03344 -0.014024 0.0095576 -0.039072 0.13305 -0.0013576 -0.75342 0.023035 -0.034495 0.26499 0.28917 -0.078877 0.47588 
aiin 0.13746 0.176 -0.26095 -0.16979 -0.27612 -0.22083 -0.14415 0.11006 0.076436 -0.012069 -0.25756 0.069016 0.16587 -0.19382 -0.23772 -0.15874 0.23606 -0.084748 0.051725 0.019777 1.227 0.11132 -0.14633 -0.064304 -0.34346 0.052943 0.12763 -0.075744 -0.083895 0.050932 0.29309 -0.0083086 0.13376 -0.1478 -0.19488 0.24568 0.032364 -0.22862 -0.20526 0.048494 -0.10881 0.073838 -0.0099313 0.16969 0.088192 -0.17614 -0.22863 -0.075048 0.12197 -0.071164 -0.067854 -0.003652 -0.51778 0.058009 -0.3129 -0.084154 -0.149 0.017017 -0.16162 0.048624 0.26671 0.14246 -0.067345 0.10323 -0.21962 0.060977 -0.32034 0.020407 0.22089 0.09979 0.24773 0.16297 0.16342 0.18685 -0.066838 -0.19909 0.21086 0.20308 -0.036799 0.0020317 0.23492 -0.32686 -0.43031 0.10524 -0.030907 -0.038461 0.19687 -0.089996 -0.018298 -0.013373 -0.066888 0.1281 -0.047073 -0.60027 0.076862 -0.092404 0.17459 0.24184 -0.096615 0.30037 
shedy 0.026139 0.30668 -0.17955 -0.44885 -0.16872 -0.57414 -0.35921 0.4257 0.16461 -0.048197 -0.60338 0.15481 0.095257 -0.0088666 -0.47263 -0.15469 0.17413 -0.20505 0.078467 -0.12994 -1.0616 -0.024075 0.009238 -0.13333 -0.41721 0.20791 0.41373 -0.17853 -0.049282 0.29918 0.4133 -0.28287 0.20126 0.061115 -0.0657 0.35608 0.061376 -0.35365 -0.35236 0.040311 0.067012 0.29356 -0.27326 -0.062207 -0.027429 -0.11041 -0.38256 -0.061402 0.067539 0.024135 -0.13561 0.23374 -0.77622 0.25205 -0.41804 0.012319 -0.13998 0.15444 -0.2969 0.089472 0.39419 0.17128 -0.0079404 0.035105 -0.37958 0.13058 -0.48618 0.2818 0.066889 0.030022 0.40147 -0.17967 0.14657 0.20478 -0.23274 -0.35377 0.02442 0.48452 -0.14014 -0.0017885 0.43865 -0.41303 -0.57447 0.16374 -0.30384 -0.068739 0.37677 -0.037472 -0.0065845 0.017958 -0.029899 0.1375 0.011258 -0.79386 0.016287 -0.026323 0.2819 0.30472 -0.070839 0.50991 
chol 0.17511 0.12572 -0.3118 -0.031559 -0.38758 -0.071548 -0.035023 -0.023018 0.020803 0.015862 -0.10206 0.034478 0.27001 -0.33542 -0.17061 -0.17075 0.31318 -0.037297 0.067303 0.085421 0.60472 0.19603 -0.24826 -0.087216 -0.37193 -0.016371 0.037752 -0.040741 -0.12742 -0.028045 0.3224 0.083831 0.12109 -0.27927 -0.30714 0.27709 0.058121 -0.18968 -0.14707 0.092695 -0.24145 0.0087736 0.13954 0.32416 0.12512 -0.21445 -0.23418 -0.061547 0.16719 -0.065606 -0.022565 -0.1642 -0.5089 -0.0086395 -0.31331 -0.15277 -0.15385 -0.094105 -0.10335 0.033687 0.27068 0.1694 -0.14373 0.16845 -0.17815 0.043124 -0.31676 -0.099805 0.36367 0.16193 0.21781 0.39903 0.18674 0.23641 0.034579 -0.19911 0.36809 0.10553 -0.018225 -0.0057726 0.13841 -0.32986 -0.44898 0.060674 0.059303 -0.043512 0.19173 -0.086925 -0.046551 -0.044167 -0.095448 0.1673 -0.12475 -0.54009 0.11737 -0.14639 0.15142 0.24382 -0.12416 0.20591 
or 0.13403 0.16776 -0.2574 -0.10842 -0.2796 -0.19443 -0.095017 0.082796 0.065305 -0.024037 -0.19279 0.06033 0.17564 -0.21447 -0.21775 -0.16548 0.2534 -0.080788 0.040429 0.036512 1.419 0.11946 -0.16866 -0.056007 -0.34774 0.043819 0.11537 -0.056424 -0.096005 0.025333 0.27415 0.013407 0.1359 -0.17102 -0.22182 0.23533 0.039162 -0.19781 -0.18508 0.066151 -0.13191 0.045256 0.034516 0.1978 0.08742 -0.14719 -0.21693 -0.049243 0.14014 -0.06648 -0.05618 -0.028066 -0.48289 0.056628 -0.30428 -0.09074 -0.13417 0.0082115 -0.14641 0.047773 0.24666 0.14428 -0.077182 0.11665 -0.21036 0.077362 -0.29778 -0.0010769 0.2445 0.096411 0.21981 0.2044 0.15416 0.18532 -0.039105 -0.2025 0.23098 0.16401 -0.028318 0.024009 0.20066 -0.30887 -0.39643 0.10166 -0.00716 -0.044907 0.18698 -0.082817 -0.03985 -0.01582 -0.070817 0.12954 -0.064394 -0.55817 0.068243 -0.082792 0.14904 0.22134 -0.089481 0.24985 
ar 0.11375 0.1929 -0.24332 -0.17644 -0.24316 -0.26669 -0.15173 0.15634 0.080623 -0.029288 -0.28482 0.080815 0.14518 -0.1671 -0.25285 -0.16491 0.22228 -0.10605 0.055636 0.0023756 1.2771 0.084041 -0.12162 -0.059396 -0.35205 0.070727 0.16918 -0.072672 -0.077885 0.075413 0.27659 -0.035494 0.14869 -0.12639 -0.18155 0.24751 0.035271 -0.22445 -0.21742 0.058785 -0.078411 0.087109 -0.023681 0.13799 0.066807 -0.14104 -0.23272 -0.059976 0.12274 -0.063995 -0.080482 0.030835 -0.51862 0.096586 -0.31494 -0.066828 -0.13857 0.043375 -0.1778 0.057337 0.2625 0.14543 -0.058531 0.10083 -0.23627 0.084242 -0.32306 0.050245 0.19387 0.075684 0.24864 0.11006 0.15116 0.17099 -0.075354 -0.2164 0.17325 0.21341 -0.053931 0.014003 0.24329 -0.32426 -0.41272 0.11475 -0.059583 -0.048493 0.20646 -0.074107 -0.036357 -0.0098076 -0.06732 0.12605 -0.038749 -0.59619 0.061222 -0.064283 0.16255 0.22533 -0.084778 0.29325 
chey 0.088004 0.20187 -0.2392 -0.23517 -0.26032 -0.29249 -0.18674 0.1959 0.091205 -0.015837 -0.33867 0.10158 0.16725 -0.15393 -0.29753 -0.15103 0.23167 -0.12144 0.056602 -0.013164 0.20811 0.075621 -0.11766 -0.087564 -0.37358 0.081549 0.22341 -0.11272 -0.08909 0.11756 0.341 -0.099125 0.15438 -0.10957 -0.17249 0.28382 0.051782 -0.24975 -0.24486 0.058215 -0.070779 0.15237 -0.075966 0.11452 0.051888 -0.1495 -0.28524 -0.071156 0.1159 -0.038586 -0.090265 0.032169 -0.58814 0.10743 -0.34317 -0.064157 -0.15842 0.03005 -0.20167 0.049247 0.29396 0.15643 -0.062532 0.085274 -0.26737 0.072841 -0.37998 0.083556 0.19576 0.078064 0.28556 0.09604 0.15908 0.20556 -0.10608 -0.25353 0.19102 0.26862 -0.074039 0.0041431 0.27434 -0.34898 -0.47765 0.11388 -0.12095 -0.029699 0.23129 -0.056351 -0.01715 -0.018432 -0.073339 0.14371 -0.04819 -0.62888 0.063003 -0.085728 0.20862 0.25055 -0.10086 0.33764 
dar 0.12787 0.19624 -0.26781 -0.18061 -0.28554 -0.26916 -0.1514 0.14543 0.073082 -0.024064 -0.28127 0.079646 0.1786 -0.20658 -0.27231 -0.1743 0.24733 -0.10411 0.067466 0.0034669 0.6854 0.11188 -0.14979 -0.075697 -0.37821 0.066127 0.16894 -0.076037 -0.092665 0.078509 0.32215 -0.031453 0.15023 -0.14659 -0.20322 0.27814 0.044273 -0.2367 -0.22072 0.063274 -0.10826 0.093532 -0.01344 0.17376 0.072557 -0.16419 -0.26411 -0.060111 0.1326 -0.060156 -0.074852 0.0054972 -0.57337 0.094914 -0.33983 -0.084943 -0.14788 0.028521 -0.18015 0.059108 0.29822 0.15925 -0.078169 0.11292 -0.24992 0.086843 -0.35674 0.044089 0.23271 0.099862 0.26934 0.15933 0.17073 0.20014 -0.066747 -0.2393 0.2137 0.22619 -0.055677 0.0072575 0.25383 -0.3534 -0.4586 0.11258 -0.06066 -0.058548 0.23765 -0.077811 -0.044277 -0.016051 -0.072158 0.14164 -0.053627 -0.63851 0.073517 -0.089005 0.17629 0.24774 -0.093451 0.30531 
qokeey 0.060385 0.23309 -0.20245 -0.30926 -0.21114 -0.39212 -0.24043 0.28206 0.12117 -0.04168 -0.43462 0.12969 0.1283 -0.086965 -0.35865 -0.13957 0.20408 -0.15048 0.055698 -0.052344 -0.0014024 0.023916 -0.068415 -0.093215 -0.37405 0.13159 0.30214 -0.13361 -0.070124 0.1849 0.35628 -0.17058 0.17331 -0.040472 -0.11685 0.29568 0.049465 -0.27819 -0.27912 0.047875 -0.0078059 0.20374 -0.15754 0.027267 0.025782 -0.11883 -0.31214 -0.07315 0.09276 -0.019536 -0.10558 0.12243 -0.63018 0.15963 -0.35661 -0.028226 -0.1493 0.084893 -0.23777 0.06204 0.31726 0.1547 -0.036526 0.056622 -0.30415 0.093794 -0.40249 0.16558 0.14275 0.054316 0.31549 -0.020946 0.14215 0.19447 -0.16358 -0.28566 0.10878 0.34165 -0.09968 0.015541 0.33077 -0.35228 -0.49236 0.13419 -0.19485 -0.033909 0.27169 -0.045223 -0.012004 -0.0012942 -0.059619 0.13099 -0.021947 -0.66951 0.035989 -0.059276 0.22417 0.26118 -0.084415 0.40525 
qokeedy 0.032485 0.2697 -0.17661 -0.395 -0.16463 -0.50197 -0.30857 0.37066 0.14284 -0.050324 -0.53661 0.14657 0.098204 -0.025106 -0.42019 -0.13873 0.17321 -0.17958 0.068187 -0.10127 -0.55034 -0.012189 -0.01115 -0.11243 -0.38323 0.18141 0.37137 -0.15692 -0.049933 0.25535 0.37787 -0.24488 0.18626 0.036076 -0.068227 0.3271 0.051648 -0.31275 -0.31745 0.038138 0.049521 0.26216 -0.23327 -0.039688 -0.014041 -0.098961 -0.34718 -0.060455 0.071519 0.010094 -0.1187 0.19608 -0.69554 0.21975 -0.37804 0.0056328 -0.13275 0.13004 -0.27175 0.078353 0.35315 0.15722 -0.011259 0.037086 -0.34346 0.11299 -0.43813 0.24271 0.084193 0.033505 0.35345 -0.13468 0.13589 0.1873 -0.20914 -0.32203 0.03483 0.42401 -0.12825 0.0063061 0.38759 -0.37334 -0.51969 0.14845 -0.26442 -0.054294 0.33009 -0.035676 -0.009049 0.012258 -0.039986 0.12548 0.00061489 -0.71992 0.017107 -0.034512 0.24986 0.27571 -0.071708 0.461 
shey 0.074775 0.23868 -0.22183 -0.29797 -0.24959 -0.38043 -0.24071 0.26676 0.12025 -0.034343 -0.41319 0.12247 0.14498 -0.11496 -0.36574 -0.15724 0.22505 -0.15125 0.056558 -0.04211 -0.35273 0.04255 -0.087337 -0.10028 -0.39957 0.12236 0.28518 -0.13385 -0.084274 0.17862 0.37782 -0.15332 0.17452 -0.066728 -0.15063 0.30257 0.054544 -0.29141 -0.28278 0.058809 -0.034128 0.19025 -0.13861 0.058112 0.042768 -0.14645 -0.31836 -0.069767 0.10264 -0.026901 -0.10912 0.10193 -0.66261 0.14702 -0.37873 -0.048164 -0.1629 0.073796 -0.23802 0.061895 0.33386 0.16823 -0.048334 0.070348 -0.31043 0.09563 -0.41899 0.13854 0.16616 0.068673 0.33433 0.022387 0.16107 0.21585 -0.14608 -0.28996 0.15745 0.33819 -0.087626 0.010041 0.3359 -0.38037 -0.52576 0.1352 -0.17913 -0.036841 0.27992 -0.059309 -0.0095944 -0.0067417 -0.060775 0.14777 -0.025337 -0.70351 0.05028 -0.070994 0.2386 0.27827 -0.090471 0.40295 
qokain 0.081112 0.22778 -0.21689 -0.28792 -0.22353 -0.37019 -0.24314 0.24734 0.11412 -0.033492 -0.40646 0.11276 0.13804 -0.10609 -0.34025 -0.14869 0.19786 -0.13559 0.059536 -0.042018 0.12905 0.042672 -0.070248 -0.092382 -0.36879 0.12348 0.25852 -0.12517 -0.067534 0.15897 0.33952 -0.13529 0.15826 -0.049724 -0.13128 0.29265 0.043888 -0.27737 -0.27048 0.049143 -0.029468 0.17365 -0.1294 0.050029 0.035596 -0.1366 -0.29986 -0.070058 0.095345 -0.026938 -0.093937 0.10043 -0.62158 0.13909 -0.35102 -0.031652 -0.13817 0.073512 -0.21703 0.065554 0.31057 0.15674 -0.036008 0.071343 -0.28446 0.092267 -0.3854 0.13482 0.15233 0.065355 0.30842 0.0075528 0.15064 0.19267 -0.13993 -0.26556 0.12363 0.3279 -0.085174 0.0065759 0.31582 -0.36066 -0.49038 0.12632 -0.15523 -0.041651 0.2717 -0.061967 -0.00026953 0.00093229 -0.054066 0.13293 -0.020655 -0.66269 0.048686 -0.067882 0.22547 0.26508 -0.088541 0.39151 
qokedy 0.034283 0.28158 -0.1811 -0.41351 -0.17029 -0.53037 -0.32405 0.3859 0.14603 -0.049893 -0.55914 0.14926 0.10316 -0.027132 -0.43946 -0.14438 0.17665 -0.18546 0.074964 -0.11165 -0.85479 -0.013229 -0.0064892 -0.12116 -0.39797 0.18944 0.38604 -0.16168 -0.051534 0.26908 0.39436 -0.25607 0.19484 0.041977 -0.070588 0.34391 0.055297 -0.32665 -0.32824 0.039493 0.05043 0.27433 -0.24129 -0.039906 -0.021609 -0.1018 -0.36388 -0.058982 0.072878 0.013654 -0.12103 0.20347 -0.72878 0.23335 -0.39134 0.0090885 -0.13241 0.136 -0.27912 0.084168 0.37222 0.16415 -0.012846 0.040083 -0.35477 0.12095 -0.45511 0.25546 0.085747 0.034385 0.36996 -0.14018 0.13972 0.19747 -0.21404 -0.33654 0.035606 0.44504 -0.13236 0.0057349 0.40124 -0.38844 -0.54155 0.15329 -0.27761 -0.061324 0.3548 -0.037559 -0.010363 0.012122 -0.040636 0.1319 0.001059 -0.74951 0.019465 -0.034838 0.25817 0.28606 -0.072498 0.47804 
dy 0.070748 0.29166 -0.24571 -0.39554 -0.24982 -0.52768 -0.31124 0.36014 0.13066 -0.040924 -0.53764 0.14343 0.15183 -0.10722 -0.45176 -0.17459 0.2322 -0.1834 0.097783 -0.10418 -1.7391 0.040732 -0.067959 -0.13653 -0.46111 0.17056 0.36053 -0.15537 -0.082181 0.24982 0.44658 -0.21965 0.21016 -0.018964 -0.12528 0.3937 0.060742 -0.34777 -0.33089 0.053578 -0.0049632 0.25904 -0.19448 0.059069 0.0010494 -0.14472 -0.38715 -0.052612 0.10796 0.0018868 -0.11595 0.14601 -0.80896 0.2286 -0.43262 -0.023147 -0.15491 0.10998 -0.28589 0.086701 0.42551 0.18418 -0.043764 0.075659 -0.37601 0.12537 -0.50407 0.22529 0.15049 0.072638 0.40046 -0.044232 0.18295 0.24506 -0.19012 -0.35567 0.12021 0.44126 -0.12862 0.001148 0.42189 -0.44412 -0.60282 0.15447 -0.25074 -0.074336 0.39567 -0.06603 -0.038049 -0.0012676 -0.050912 0.16002 -0.033987 -0.84097 0.047468 -0.06393 0.26423 0.32719 -0.082734 0.48186 
qokaiin 0.10051 0.20562 -0.22869 -0.24222 -0.23896 -0.31365 -0.20469 0.19431 0.0967 -0.0263 -0.34762 0.095059 0.14787 -0.13761 -0.30108 -0.14698 0.20874 -0.11494 0.056877 -0.023819 0.39173 0.067382 -0.096993 -0.083479 -0.35276 0.095243 0.20794 -0.10616 -0.073746 0.12031 0.32 -0.08827 0.14749 -0.083877 -0.15265 0.27456 0.04102 -0.25701 -0.24219 0.046491 -0.058281 0.13507 -0.082937 0.093659 0.051706 -0.1474 -0.27302 -0.069182 0.10411 -0.040381 -0.082137 0.058813 -0.57919 0.10983 -0.33201 -0.04959 -0.13854 0.051445 -0.19184 0.058173 0.2941 0.14966 -0.048378 0.082259 -0.25634 0.079509 -0.35645 0.093363 0.17597 0.078025 0.28242 0.065077 0.15156 0.18934 -0.10868 -0.24005 0.15309 0.28128 -0.065424 0.0043094 0.28261 -0.3424 -0.46322 0.11449 -0.11014 -0.041582 0.24645 -0.071537 -0.009066 -0.0036598 -0.056624 0.12924 -0.031897 -0.63134 0.058903 -0.075645 0.20336 0.25292 -0.090055 0.35295 
al 0.11949 0.19231 -0.26055 -0.16885 -0.27726 -0.25828 -0.1506 0.15042 0.090451 -0.028591 -0.28408 0.082456 0.17161 -0.19206 -0.26952 -0.16873 0.24143 -0.11323 0.051624 0.011324 1.1977 0.097649 -0.13693 -0.071431 -0.37834 0.072078 0.17666 -0.081186 -0.088057 0.077867 0.31542 -0.033497 0.15653 -0.14516 -0.19583 0.27053 0.037638 -0.2401 -0.2234 0.06791 -0.095255 0.093446 -0.012245 0.16684 0.077619 -0.16158 -0.25033 -0.060404 0.12328 -0.067395 -0.082523 0.022234 -0.5571 0.083238 -0.33781 -0.077978 -0.14553 0.028085 -0.17988 0.062016 0.27643 0.1537 -0.065952 0.11438 -0.25233 0.089156 -0.34212 0.044113 0.22406 0.099456 0.25807 0.14247 0.16594 0.1923 -0.06893 -0.23501 0.2095 0.22225 -0.062696 0.02091 0.25015 -0.34318 -0.44393 0.11623 -0.05377 -0.046065 0.21771 -0.075318 -0.02557 -0.014459 -0.075686 0.1429 -0.047068 -0.63175 0.068582 -0.082303 0.18302 0.25291 -0.088267 0.30664 
dal 0.1265 0.18406 -0.26287 -0.16496 -0.29613 -0.24657 -0.13703 0.13064 0.074071 -0.021254 -0.26883 0.075323 0.18834 -0.21524 -0.27127 -0.16462 0.25009 -0.10186 0.062335 0.012161 0.61552 0.11589 -0.1538 -0.078221 -0.37795 0.062684 0.16222 -0.076523 -0.090512 0.075461 0.33064 -0.024551 0.15017 -0.15468 -0.20486 0.28131 0.03854 -0.23473 -0.21498 0.067134 -0.11682 0.093072 -0.0014992 0.18809 0.078164 -0.17219 -0.25973 -0.058827 0.12905 -0.058857 -0.074096 -0.0050183 -0.56885 0.081201 -0.33674 -0.085786 -0.14518 0.014463 -0.17347 0.058463 0.28862 0.15851 -0.083655 0.11496 -0.24375 0.078739 -0.35079 0.032772 0.24503 0.10988 0.26294 0.17545 0.16885 0.20571 -0.056296 -0.23462 0.22795 0.21729 -0.059444 0.013631 0.2451 -0.34937 -0.45778 0.10623 -0.051627 -0.053886 0.23278 -0.07246 -0.033354 -0.022404 -0.071204 0.14775 -0.056753 -0.63007 0.07608 -0.096174 0.17796 0.25371 -0.092585 0.30259 
s 0.12873 0.18246 -0.26072 -0.16015 -0.30088 -0.24016 -0.13069 0.13461 0.081268 -0.025417 -0.26364 0.080668 0.18329 -0.20576 -0.26376 -0.17019 0.25918 -0.10538 0.055267 0.01365 0.80124 0.1073 -0.16108 -0.078994 -0.37671 0.053483 0.16 -0.081162 -0.098799 0.079404 0.32548 -0.029801 0.15027 -0.1646 -0.21762 0.2727 0.054619 -0.23199 -0.21571 0.073718 -0.11991 0.084498 -0.0092854 0.18056 0.086538 -0.17089 -0.25972 -0.064622 0.13246 -0.058174 -0.073523 -0.009044 -0.56854 0.078141 -0.33632 -0.093821 -0.15412 0.012267 -0.1765 0.06192 0.29225 0.16133 -0.088427 0.11348 -0.25429 0.079131 -0.36049 0.0312 0.24028 0.10193 0.26644 0.18401 0.16505 0.21459 -0.070196 -0.23974 0.23749 0.21692 -0.050181 0.010913 0.24871 -0.34321 -0.46084 0.10696 -0.055431 -0.046656 0.22434 -0.07265 -0.038899 -0.025971 -0.072403 0.1479 -0.059829 -0.62239 0.073486 -0.09156 0.18365 0.2516 -0.098599 0.30461 
chor 0.18647 0.12972 -0.33135 -0.025562 -0.39186 -0.071107 -0.03133 -0.029695 0.016101 0.017066 -0.091746 0.032714 0.27092 -0.34628 -0.16728 -0.17949 0.31742 -0.034989 0.066308 0.084382 0.80871 0.20404 -0.25884 -0.076698 -0.3747 -0.022164 0.032192 -0.039185 -0.13337 -0.043608 0.30893 0.092027 0.12605 -0.28823 -0.31466 0.26995 0.056181 -0.19159 -0.14806 0.091368 -0.24483 -0.0010429 0.14575 0.3359 0.13014 -0.21473 -0.22805 -0.063953 0.17818 -0.080541 -0.026629 -0.17219 -0.50266 -0.0064655 -0.31615 -0.15525 -0.15961 -0.091812 -0.10738 0.034132 0.26586 0.16666 -0.14307 0.16996 -0.17926 0.040894 -0.31825 -0.10784 0.364 0.1576 0.20953 0.40626 0.18882 0.2353 0.032973 -0.19192 0.37024 0.099744 -0.0079941 -0.0020188 0.13935 -0.33155 -0.44366 0.069171 0.074075 -0.045433 0.1855 -0.099347 -0.054753 -0.046968 -0.099232 0.16642 -0.12558 -0.54891 0.1202 -0.14412 0.14423 0.23946 -0.1251 0.1975 
okaiin 0.1204 0.18681 -0.24379 -0.18917 -0.25901 -0.25443 -0.16363 0.14126 0.08491 -0.024649 -0.28349 0.077671 0.15493 -0.16878 -0.25994 -0.15439 0.22596 -0.098134 0.047655 0.0046004 0.98243 0.093303 -0.12654 -0.065496 -0.34546 0.069545 0.15416 -0.082873 -0.083737 0.074103 0.29686 -0.033983 0.13884 -0.12035 -0.17594 0.25103 0.032436 -0.23456 -0.21846 0.046409 -0.087713 0.090782 -0.034365 0.14167 0.074083 -0.15892 -0.23617 -0.064681 0.11712 -0.062372 -0.074942 0.023688 -0.53097 0.076485 -0.31633 -0.067347 -0.14395 0.034526 -0.17022 0.052383 0.27326 0.14262 -0.054792 0.096641 -0.23103 0.070544 -0.32503 0.047096 0.2013 0.089337 0.25296 0.12311 0.15639 0.18242 -0.077773 -0.21376 0.18538 0.22835 -0.045437 0.0092121 0.25026 -0.32681 -0.4332 0.11075 -0.057517 -0.036336 0.21224 -0.085251 -0.017254 -0.0067487 -0.063096 0.12405 -0.040577 -0.60808 0.066522 -0.081993 0.17995 0.24213 -0.089266 0.31608 
dain 0.12196 0.19028 -0.25739 -0.20293 -0.28226 -0.26192 -0.17132 0.14864 0.080811 -0.018482 -0.29687 0.081023 0.17395 -0.18391 -0.27548 -0.15928 0.23532 -0.10072 0.056532 0.0069306 0.59331 0.10283 -0.14098 -0.07734 -0.36815 0.070752 0.16842 -0.091414 -0.086064 0.081778 0.32565 -0.047292 0.14455 -0.1338 -0.19136 0.27506 0.041211 -0.24362 -0.22482 0.057782 -0.099205 0.10767 -0.037004 0.15331 0.072757 -0.17273 -0.26461 -0.068702 0.12016 -0.059299 -0.073564 0.016717 -0.57268 0.082774 -0.33666 -0.074075 -0.15133 0.024348 -0.18394 0.055806 0.2923 0.15604 -0.065749 0.099962 -0.24588 0.071072 -0.35675 0.047895 0.2204 0.099811 0.27384 0.14112 0.16929 0.20358 -0.080494 -0.23173 0.20695 0.24235 -0.054533 0.0055154 0.26221 -0.35039 -0.46791 0.11204 -0.064898 -0.040975 0.23016 -0.080879 -0.018381 -0.010744 -0.066156 0.13999 -0.047048 -0.63316 0.072108 -0.094712 0.19268 0.25984 -0.094325 0.33113 
qokal 0.077946 0.21833 -0.2123 -0.26807 -0.22211 -0.35879 -0.22207 0.23848 0.10853 -0.038364 -0.38788 0.10767 0.14052 -0.1174 -0.33499 -0.14595 0.20025 -0.12994 0.059327 -0.040772 0.069315 0.043458 -0.074872 -0.094998 -0.36352 0.12004 0.25514 -0.11505 -0.068156 0.15909 0.33693 -0.12605 0.15877 -0.054648 -0.13277 0.29223 0.045943 -0.26696 -0.25926 0.054175 -0.0349 0.16489 -0.11215 0.063739 0.030554 -0.12888 -0.29694 -0.058934 0.09498 -0.021563 -0.08875 0.089579 -0.60993 0.13948 -0.34066 -0.034958 -0.12866 0.066683 -0.20619 0.066245 0.30568 0.15371 -0.044351 0.07709 -0.28063 0.096721 -0.37286 0.12985 0.15793 0.06938 0.2951 0.019422 0.14252 0.19078 -0.1254 -0.26508 0.12614 0.31296 -0.087769 0.011941 0.29914 -0.35033 -0.47447 0.1205 -0.14975 -0.04797 0.27154 -0.053938 -0.009526 0.0010291 -0.0549 0.13323 -0.024091 -0.64407 0.049176 -0.065096 0.2165 0.25579 -0.083225 0.37154 
shol 0.14926 0.16762 -0.28503 -0.11908 -0.35133 -0.18895 -0.10893 0.076452 0.059658 -0.0065413 -0.21393 0.060139 0.23274 -0.2683 -0.25057 -0.1714 0.2926 -0.081368 0.062748 0.041302 0.21196 0.14281 -0.19673 -0.096598 -0.39308 0.03984 0.12371 -0.071564 -0.1124 0.047102 0.35512 0.0047028 0.14277 -0.21359 -0.26474 0.29343 0.058632 -0.23394 -0.19818 0.086049 -0.18089 0.06477 0.049351 0.23906 0.099443 -0.19686 -0.27516 -0.061598 0.14643 -0.048721 -0.050621 -0.072571 -0.58452 0.046546 -0.34908 -0.11917 -0.15538 -0.036169 -0.14814 0.049137 0.30506 0.17617 -0.11857 0.14076 -0.22744 0.066489 -0.35806 -0.019546 0.31041 0.13698 0.27181 0.27886 0.18192 0.23945 -0.023005 -0.24066 0.3024 0.19466 -0.037855 0.0023998 0.21097 -0.36143 -0.4924 0.088501 -0.021647 -0.046893 0.23342 -0.078739 -0.038022 -0.02777 -0.07743 0.16529 -0.088783 -0.61464 0.098136 -0.12344 0.18929 0.26881 -0.11326 0.28489 
okeey 0.076281 0.21236 -0.21282 -0.2495 -0.22584 -0.32567 -0.19106 0.22626 0.10862 -0.043031 -0.36018 0.11159 0.12936 -0.1144 -0.3103 -0.14532 0.22161 -0.13424 0.040979 -0.021541 0.70198 0.048066 -0.10029 -0.070002 -0.3639 0.10148 0.24917 -0.10821 -0.080668 0.13405 0.32599 -0.11498 0.16552 -0.080141 -0.13948 0.26491 0.040741 -0.24487 -0.25024 0.048054 -0.035845 0.15958 -0.1057 0.076464 0.049542 -0.12632 -0.26864 -0.066454 0.10432 -0.04495 -0.10117 0.087284 -0.56736 0.12463 -0.33427 -0.045018 -0.15577 0.066421 -0.21603 0.054573 0.28765 0.1471 -0.040017 0.070161 -0.27729 0.086877 -0.36516 0.1176 0.16475 0.06413 0.27809 0.036268 0.14359 0.18478 -0.13219 -0.25716 0.14197 0.27862 -0.079791 0.025348 0.29507 -0.32868 -0.44737 0.13111 -0.14117 -0.024512 0.22725 -0.058517 -0.020609 -0.0050107 -0.06706 0.12291 -0.028947 -0.63687 0.040594 -0.063476 0.19458 0.24524 -0.08099 0.35901 
cheey 0.088321 0.19765 -0.23253 -0.22702 -0.25023 -0.28295 -0.1787 0.19739 0.094399 -0.019685 -0.33506 0.10301 0.15243 -0.14213 -0.2863 -0.14488 0.22671 -0.11953 0.05059 -0.0087883 0.56694 0.071439 -0.11761 -0.078391 -0.35884 0.079387 0.2195 -0.10675 -0.085827 0.11374 0.32469 -0.095791 0.15164 -0.11007 -0.16388 0.26939 0.048016 -0.2427 -0.23878 0.055856 -0.064291 0.14603 -0.078741 0.10496 0.053714 -0.14203 -0.27116 -0.07519 0.11502 -0.040383 -0.0876 0.040424 -0.56339 0.10438 -0.33109 -0.062976 -0.16058 0.034517 -0.20011 0.046861 0.28218 0.1478 -0.060734 0.080201 -0.25917 0.071503 -0.36788 0.081012 0.18906 0.073555 0.27416 0.085132 0.1492 0.19269 -0.10922 -0.2472 0.17769 0.25967 -0.074747 0.0086893 0.26988 -0.33428 -0.45615 0.11734 -0.11768 -0.027913 0.21586 -0.054225 -0.01938 -0.014385 -0.071687 0.13355 -0.045871 -0.61142 0.056805 -0.078137 0.19681 0.24179 -0.097264 0.33272 
cheol 0.11839 0.16567 -0.25029 -0.13946 -0.2969 -0.19827 -0.11035 0.10859 0.069089 -0.0091099 -0.2426 0.071309 0.19287 -0.21817 -0.23322 -0.15135 0.25452 -0.088032 0.048436 0.022692 1.0927 0.11756 -0.16137 -0.079037 -0.3601 0.047634 0.14693 -0.077347 -0.092284 0.058623 0.31938 -0.024635 0.14041 -0.17419 -0.21622 0.26461 0.052191 -0.21393 -0.19666 0.072834 -0.12924 0.085904 0.010078 0.1858 0.076845 -0.16238 -0.25444 -0.064584 0.12831 -0.041754 -0.057212 -0.035631 -0.52687 0.054571 -0.31783 -0.09663 -0.1495 -0.015982 -0.15417 0.043717 0.27108 0.15272 -0.093691 0.11809 -0.22473 0.064834 -0.33733 0.014364 0.25944 0.10292 0.24765 0.20268 0.15869 0.20632 -0.047579 -0.23091 0.24347 0.19791 -0.057909 0.013341 0.20941 -0.3265 -0.44354 0.098078 -0.04859 -0.033021 0.20232 -0.058434 -0.029027 -0.020946 -0.079015 0.14676 -0.072408 -0.57051 0.074568 -0.10101 0.17985 0.23605 -0.10185 0.27877 
otedy 0.050618 0.266 -0.19734 -0.35564 -0.18544 -0.47811 -0.27482 0.33121 0.1295 -0.049059 -0.49011 0.12201 0.10197 -0.062226 -0.39617 -0.15603 0.1907 -0.16929 0.072143 -0.087465 -0.30805 0.019613 -0.042661 -0.1069 -0.38728 0.15906 0.33237 -0.12995 -0.065869 0.22295 0.36091 -0.1985 0.19028 0.0074606 -0.089364 0.32219 0.047599 -0.2977 -0.30051 0.032145 0.024513 0.22592 -0.18472 0.022361 0.00060644 -0.11482 -0.32163 -0.048708 0.088899 -0.010563 -0.11615 0.17119 -0.68114 0.20413 -0.37389 -0.010632 -0.13345 0.12601 -0.25721 0.082716 0.35322 0.157 -0.019426 0.054086 -0.32959 0.11817 -0.42619 0.21483 0.097445 0.050593 0.33992 -0.084453 0.14741 0.1902 -0.18021 -0.30629 0.067298 0.38473 -0.1153 0.0076224 0.37412 -0.37059 -0.49952 0.14702 -0.21803 -0.065635 0.32758 -0.054736 -0.031915 0.0087645 -0.037721 0.12486 -0.0068793 -0.73078 0.024181 -0.033987 0.22482 0.27482 -0.064044 0.42397 
chy 0.15526 0.17974 -0.3261 -0.15302 -0.38003 -0.21399 -0.12463 0.093831 0.048533 0.0010377 -0.24183 0.068658 0.25909 -0.29241 -0.26378 -0.18218 0.31371 -0.080099 0.083626 0.035666 -0.31848 0.1633 -0.21949 -0.10262 -0.42306 0.031923 0.13689 -0.082245 -0.13053 0.046943 0.37865 -0.0050748 0.15366 -0.2165 -0.26881 0.32827 0.057491 -0.24965 -0.21619 0.084256 -0.18593 0.086587 0.041435 0.26841 0.10156 -0.21227 -0.29426 -0.070159 0.16422 -0.06505 -0.063475 -0.091811 -0.63659 0.061882 -0.37288 -0.11784 -0.17783 -0.038603 -0.17127 0.051126 0.33471 0.17919 -0.12562 0.14888 -0.251 0.058343 -0.40307 -0.015541 0.3154 0.14369 0.28228 0.29406 0.1981 0.25695 -0.03978 -0.25247 0.32156 0.20844 -0.050718 -0.0098429 0.23449 -0.39297 -0.52472 0.098176 -0.027616 -0.048215 0.25799 -0.09041 -0.045461 -0.041577 -0.092544 0.17348 -0.10437 -0.67251 0.10631 -0.13349 0.19424 0.2765 -0.12448 0.29972 
otaiin 0.12797 0.17967 -0.25329 -0.17045 -0.26875 -0.23782 -0.1444 0.12282 0.076134 -0.02002 -0.26159 0.066961 0.15889 -0.18487 -0.2448 -0.16036 0.2338 -0.09078 0.051339 0.013043 1.1051 0.10754 -0.1427 -0.065967 -0.34435 0.057681 0.14133 -0.074399 -0.089705 0.05984 0.2928 -0.018382 0.14007 -0.13605 -0.18513 0.24857 0.033652 -0.22421 -0.20603 0.0438 -0.098008 0.077329 -0.013728 0.16651 0.07918 -0.16723 -0.22754 -0.063875 0.12333 -0.069717 -0.071812 0.006229 -0.52099 0.068741 -0.31278 -0.077419 -0.14367 0.026348 -0.16436 0.05025 0.27041 0.14279 -0.061975 0.10092 -0.22314 0.07019 -0.32338 0.033998 0.20968 0.095417 0.24592 0.14696 0.1622 0.1855 -0.068679 -0.20489 0.20298 0.20754 -0.041012 0.0057535 0.24216 -0.32189 -0.42306 0.10534 -0.038183 -0.042895 0.20765 -0.088175 -0.027104 -0.0098535 -0.062018 0.12703 -0.045626 -0.60155 0.069692 -0.086535 0.16871 0.23981 -0.091261 0.29622 
qokar 0.079413 0.21984 -0.21473 -0.26894 -0.21953 -0.36215 -0.22398 0.23675 0.10381 -0.03679 -0.38695 0.10853 0.13945 -0.11633 -0.32864 -0.14647 0.19766 -0.13151 0.061934 -0.041808 0.13978 0.044632 -0.075559 -0.090462 -0.36166 0.11798 0.25237 -0.11449 -0.065952 0.15343 0.32792 -0.12479 0.15724 -0.056335 -0.13328 0.28808 0.047648 -0.26499 -0.25838 0.051548 -0.033361 0.16276 -0.11322 0.058767 0.0303 -0.12449 -0.29297 -0.064312 0.098533 -0.023422 -0.087818 0.088573 -0.60474 0.14252 -0.34015 -0.035717 -0.12931 0.071505 -0.20767 0.064966 0.30405 0.1532 -0.044884 0.074946 -0.2782 0.094864 -0.37315 0.12906 0.1549 0.062175 0.29586 0.016999 0.14323 0.18659 -0.12796 -0.26167 0.12487 0.30994 -0.082411 0.0072433 0.29846 -0.34825 -0.4698 0.12426 -0.14924 -0.04808 0.26701 -0.057584 -0.012076 0.00055271 -0.053646 0.13029 -0.023159 -0.63981 0.047557 -0.063111 0.21058 0.25093 -0.084603 0.36682 
chdy 0.11148 0.23824 -0.27947 -0.28242 -0.29748 -0.37851 -0.21843 0.23537 0.09261 -0.019894 -0.39786 0.10605 0.18992 -0.18735 -0.34973 -0.17624 0.26038 -0.13433 0.092507 -0.043244 -0.52047 0.095805 -0.13296 -0.12052 -0.43277 0.11066 0.24746 -0.11946 -0.096379 0.15072 0.3975 -0.11214 0.17934 -0.10452 -0.18401 0.34934 0.056004 -0.29295 -0.27792 0.063929 -0.079613 0.16806 -0.084682 0.15131 0.041315 -0.16991 -0.32776 -0.055189 0.12944 -0.024211 -0.090889 0.037661 -0.70821 0.15001 -0.39899 -0.066624 -0.15939 0.045788 -0.22492 0.069316 0.36956 0.17549 -0.072118 0.10804 -0.31314 0.096082 -0.44758 0.11531 0.21591 0.10013 0.33743 0.097304 0.18394 0.23764 -0.11854 -0.29921 0.1969 0.32466 -0.092753 -0.0029361 0.32689 -0.41154 -0.54866 0.1274 -0.14047 -0.066232 0.32575 -0.07132 -0.042854 -0.019098 -0.067119 0.15788 -0.059701 -0.75 0.071858 -0.086688 0.22574 0.29425 -0.098687 0.38959 
qol 0.092822 0.22843 -0.23487 -0.27503 -0.26971 -0.36319 -0.22993 0.23668 0.10673 -0.026207 -0.40464 0.11347 0.1803 -0.15736 -0.3565 -0.15606 0.23581 -0.13518 0.071889 -0.033449 -0.28323 0.062956 -0.09932 -0.1169 -0.40839 0.12368 0.26889 -0.1292 -0.07814 0.16489 0.38832 -0.13387 0.1715 -0.087069 -0.17433 0.33541 0.063981 -0.29065 -0.27177 0.070025 -0.068605 0.17837 -0.10008 0.089492 0.033856 -0.14981 -0.34043 -0.072208 0.10944 -0.0074375 -0.081737 0.068057 -0.68212 0.1401 -0.38125 -0.053976 -0.13671 0.048544 -0.21832 0.065076 0.34387 0.17968 -0.069192 0.09104 -0.30183 0.10046 -0.41425 0.12208 0.21333 0.088086 0.33363 0.068848 0.16462 0.23191 -0.12034 -0.30155 0.17507 0.33674 -0.088607 0.0034849 0.31242 -0.38899 -0.54353 0.11844 -0.15806 -0.053782 0.30424 -0.050058 -0.0076542 -0.0042744 -0.063404 0.1584 -0.045887 -0.69162 0.061595 -0.085574 0.23975 0.29223 -0.10533 0.39908 
qoky 0.081421 0.24582 -0.23482 -0.31494 -0.24633 -0.41191 -0.2562 0.27883 0.11653 -0.037353 -0.44289 0.12419 0.15955 -0.12496 -0.37921 -0.15635 0.22514 -0.14874 0.077099 -0.057771 -0.70699 0.042427 -0.08288 -0.11498 -0.40416 0.1373 0.29953 -0.13471 -0.078646 0.18645 0.38868 -0.1623 0.17923 -0.052323 -0.14249 0.33574 0.056287 -0.29882 -0.28953 0.058017 -0.035402 0.20296 -0.14114 0.062281 0.025 -0.13887 -0.34029 -0.071829 0.10298 -0.015177 -0.097531 0.10309 -0.69303 0.16676 -0.38441 -0.037942 -0.14588 0.074645 -0.24098 0.07036 0.35112 0.171 -0.053886 0.0775 -0.31933 0.10032 -0.43326 0.15651 0.17141 0.0723 0.33996 0.01261 0.15728 0.21742 -0.15014 -0.30399 0.13906 0.36376 -0.10073 0.0060777 0.34112 -0.3899 -0.53779 0.13196 -0.18877 -0.05372 0.31681 -0.055761 -0.016561 -0.0018793 -0.060278 0.14742 -0.032282 -0.71827 0.051149 -0.071682 0.23955 0.28635 -0.095045 0.41643 
saiin 0.13493 0.18886 -0.26929 -0.187 -0.29025 -0.24808 -0.15847 0.13221 0.079713 -0.01534 -0.27998 0.077725 0.17785 -0.19835 -0.26497 -0.16524 0.2487 -0.095106 0.053494 0.01221 0.86355 0.11105 -0.14849 -0.073934 -0.37007 0.060997 0.15242 -0.083037 -0.092459 0.069273 0.32164 -0.02634 0.14516 -0.14822 -0.20437 0.26956 0.041834 -0.24499 -0.22214 0.053857 -0.11081 0.088353 -0.020829 0.17012 0.084177 -0.17887 -0.25204 -0.07488 0.12841 -0.066078 -0.070928 0.00041377 -0.56364 0.074326 -0.33535 -0.083539 -0.15429 0.019776 -0.1747 0.05136 0.2897 0.15416 -0.072851 0.10753 -0.23973 0.066617 -0.35065 0.033591 0.22936 0.10391 0.26944 0.16355 0.168 0.2032 -0.071618 -0.22398 0.22015 0.22758 -0.044805 0.0041113 0.25377 -0.34889 -0.46342 0.10817 -0.052787 -0.041237 0.22479 -0.087389 -0.022035 -0.014028 -0.067819 0.13641 -0.052947 -0.63522 0.076877 -0.095902 0.18945 0.25844 -0.099176 0.32132 
okain 0.10038 0.20732 -0.22998 -0.2324 -0.24202 -0.30733 -0.20027 0.19317 0.10182 -0.033408 -0.33815 0.095269 0.14189 -0.13331 -0.29549 -0.15537 0.2126 -0.11914 0.047897 -0.011959 0.78672 0.066494 -0.098985 -0.071859 -0.35851 0.097603 0.20154 -0.10133 -0.076882 0.10969 0.31151 -0.080237 0.14923 -0.085955 -0.15377 0.26469 0.034133 -0.25216 -0.24547 0.048236 -0.056951 0.12653 -0.078877 0.09651 0.059166 -0.14616 -0.25889 -0.064298 0.10719 -0.050416 -0.08774 0.065857 -0.56635 0.10419 -0.33007 -0.047933 -0.14254 0.057668 -0.19398 0.059894 0.28603 0.14778 -0.038369 0.084205 -0.25766 0.084596 -0.34988 0.088569 0.17369 0.074992 0.27369 0.063767 0.15397 0.18362 -0.10895 -0.23726 0.15395 0.2713 -0.063117 0.014157 0.28117 -0.34246 -0.45311 0.12199 -0.099354 -0.034697 0.233 -0.077328 -0.0070885 -0.0010603 -0.060606 0.12555 -0.026352 -0.63414 0.05572 -0.072514 0.1994 0.25273 -0.086368 0.35187 
sheey 0.083426 0.2311 -0.2269 -0.27688 -0.24675 -0.35228 -0.2211 0.25091 0.11596 -0.034748 -0.39607 0.11717 0.14273 -0.11763 -0.34334 -0.15301 0.22601 -0.14562 0.050269 -0.031816 0.12781 0.047872 -0.097227 -0.090381 -0.38826 0.10955 0.26785 -0.12556 -0.084099 0.15874 0.35756 -0.13655 0.16956 -0.082194 -0.15234 0.28897 0.05196 -0.27725 -0.27069 0.05868 -0.038721 0.17592 -0.12253 0.06797 0.048843 -0.14461 -0.30366 -0.076041 0.10652 -0.032782 -0.10549 0.092052 -0.63047 0.13359 -0.36451 -0.053619 -0.16594 0.066643 -0.2298 0.055802 0.31819 0.1594 -0.052583 0.070783 -0.29796 0.090266 -0.4034 0.1242 0.17276 0.06994 0.31683 0.034276 0.15419 0.20669 -0.13836 -0.27988 0.159 0.31599 -0.085351 0.011224 0.3199 -0.36615 -0.50215 0.13386 -0.16317 -0.03277 0.25662 -0.056489 -0.014712 -0.0073102 -0.063441 0.13968 -0.030623 -0.67998 0.047351 -0.069104 0.22388 0.2666 -0.091973 0.38631 
otal 0.11171 0.18844 -0.23909 -0.1737 -0.25864 -0.26261 -0.14536 0.14853 0.083366 -0.032545 -0.27556 0.072665 0.15148 -0.17378 -0.26395 -0.16269 0.23209 -0.1063 0.051908 0.0039388 1.0167 0.094545 -0.1316 -0.070787 -0.35222 0.073326 0.17032 -0.074419 -0.089147 0.080186 0.29761 -0.036448 0.15147 -0.12234 -0.17501 0.25634 0.036245 -0.2202 -0.21357 0.049808 -0.084862 0.090596 -0.023492 0.15448 0.065902 -0.15222 -0.23341 -0.052979 0.11937 -0.06466 -0.077718 0.028008 -0.53429 0.087195 -0.31655 -0.070902 -0.13384 0.037221 -0.174 0.05801 0.27233 0.14618 -0.059362 0.099837 -0.24041 0.084694 -0.33304 0.054072 0.202 0.089831 0.25067 0.12224 0.15788 0.18563 -0.074796 -0.225 0.18703 0.21856 -0.056928 0.017091 0.25064 -0.32027 -0.41939 0.10993 -0.055931 -0.049473 0.22101 -0.076583 -0.03434 -0.0076826 -0.063521 0.12921 -0.040022 -0.60819 0.059562 -0.077254 0.16715 0.23647 -0.07971 0.29676 
y 0.13978 0.29751 -0.34894 -0.33967 -0.38653 -0.46213 -0.26623 0.28657 0.12436 -0.040217 -0.47625 0.13411 0.23793 -0.23556 -0.44926 -0.21665 0.32889 -0.16601 0.10329 -0.040192 -1.5554 0.11289 -0.17582 -0.13473 -0.54941 0.13146 0.3045 -0.14642 -0.13144 0.18531 0.5001 -0.1306 0.2203 -0.13729 -0.24056 0.42821 0.06537 -0.37034 -0.34852 0.085147 -0.10911 0.20493 -0.096209 0.19037 0.069445 -0.22123 -0.40592 -0.07992 0.15981 -0.052919 -0.11756 0.049598 -0.88062 0.17948 -0.49392 -0.083925 -0.20781 0.060263 -0.28444 0.079347 0.46288 0.22451 -0.094432 0.12427 -0.39203 0.12242 -0.55529 0.13236 0.27782 0.12627 0.41917 0.13825 0.22666 0.30648 -0.15482 -0.37498 0.27175 0.39918 -0.10836 0.012421 0.40346 -0.51071 -0.69232 0.16272 -0.17187 -0.063248 0.39575 -0.10675 -0.047141 -0.020772 -0.090756 0.20022 -0.073009 -0.94208 0.092023 -0.11781 0.2816 0.37174 -0.12234 0.47976 
otar 0.11363 0.19598 -0.24597 -0.18007 -0.25419 -0.27515 -0.15226 0.15443 0.082759 -0.03281 -0.28468 0.076921 0.14648 -0.17334 -0.26527 -0.16668 0.23305 -0.11174 0.054896 0.0022126 1.0939 0.096197 -0.13271 -0.067196 -0.35608 0.07205 0.17549 -0.075212 -0.093133 0.081 0.29349 -0.0388 0.15298 -0.11949 -0.17544 0.25487 0.036208 -0.22375 -0.22116 0.049345 -0.079568 0.091723 -0.027295 0.15009 0.066469 -0.14686 -0.2348 -0.054256 0.12604 -0.063824 -0.082458 0.03162 -0.53657 0.094982 -0.31941 -0.069413 -0.13993 0.046876 -0.17838 0.05908 0.27895 0.14557 -0.060056 0.097893 -0.24033 0.087938 -0.33237 0.058452 0.1963 0.084729 0.25356 0.11616 0.15785 0.18329 -0.080703 -0.22284 0.1834 0.22289 -0.055214 0.013536 0.25709 -0.32492 -0.4217 0.11548 -0.061191 -0.050895 0.22174 -0.079583 -0.040258 -0.0052359 -0.062134 0.12621 -0.038884 -0.618 0.059867 -0.072405 0.16427 0.23397 -0.082629 0.29979 
chckhy 0.12761 0.19331 -0.27756 -0.18644 -0.31426 -0.2607 -0.15666 0.14572 0.074837 -0.015243 -0.2859 0.084135 0.20295 -0.21978 -0.28375 -0.16906 0.26477 -0.10057 0.070119 0.0081614 0.067388 0.11397 -0.16343 -0.090166 -0.39498 0.062714 0.17408 -0.089624 -0.10591 0.08475 0.35454 -0.044127 0.15671 -0.15762 -0.21626 0.29868 0.049929 -0.24984 -0.22752 0.070218 -0.12414 0.10901 -0.015746 0.18722 0.077632 -0.17529 -0.28152 -0.065178 0.13793 -0.051454 -0.075937 -0.013757 -0.60706 0.087211 -0.35171 -0.085377 -0.15982 0.0062176 -0.18279 0.053346 0.313 0.16582 -0.09021 0.11527 -0.25912 0.072694 -0.38277 0.035148 0.25117 0.11188 0.28123 0.18765 0.1762 0.22407 -0.071005 -0.25275 0.24542 0.2405 -0.059891 0.0018138 0.25469 -0.36823 -0.49185 0.1083 -0.071739 -0.045165 0.24937 -0.080011 -0.030987 -0.024401 -0.077365 0.15596 -0.070985 -0.65414 0.081136 -0.10343 0.19611 0.26715 -0.10407 0.32075 
oteey 0.090925 0.20832 -0.23172 -0.22171 -0.2423 -0.30474 -0.17152 0.19892 0.096243 -0.039317 -0.33275 0.096355 0.13677 -0.14029 -0.29479 -0.15563 0.23008 -0.1266 0.047989 -0.011012 0.8517 0.069972 -0.12371 -0.069097 -0.35972 0.084266 0.22037 -0.091926 -0.091551 0.11391 0.31328 -0.086688 0.16524 -0.10377 -0.15327 0.26324 0.039409 -0.23989 -0.23872 0.043499 -0.052917 0.13503 -0.072071 0.11493 0.059055 -0.14426 -0.25462 -0.061712 0.1178 -0.057205 -0.099703 0.066433 -0.5612 0.11276 -0.33388 -0.057283 -0.15408 0.060646 -0.20731 0.056814 0.28571 0.14795 -0.053551 0.080567 -0.26555 0.088241 -0.35939 0.096607 0.17377 0.076522 0.27191 0.073806 0.15298 0.18729 -0.11114 -0.24474 0.16726 0.25673 -0.070109 0.022302 0.28537 -0.32544 -0.44173 0.1244 -0.10817 -0.03664 0.22304 -0.069044 -0.03655 -0.0071336 -0.064855 0.12315 -0.032178 -0.64017 0.048655 -0.063089 0.17851 0.24426 -0.078394 0.33046 
okal 0.10495 0.1957 -0.2341 -0.19355 -0.2539 -0.2819 -0.16432 0.16817 0.092984 -0.03829 -0.2983 0.08455 0.15095 -0.1633 -0.28293 -0.1584 0.2274 -0.11153 0.046798 -0.0033299 0.92317 0.079428 -0.11682 -0.070105 -0.3597 0.087761 0.18703 -0.082784 -0.083346 0.097068 0.30849 -0.054219 0.14936 -0.10643 -0.16495 0.26112 0.033282 -0.23566 -0.2294 0.055079 -0.07501 0.10587 -0.044477 0.13192 0.059453 -0.14386 -0.24766 -0.049298 0.11548 -0.052283 -0.082168 0.041259 -0.54983 0.096459 -0.32138 -0.06046 -0.13624 0.044808 -0.17941 0.059644 0.2792 0.14761 -0.05222 0.099618 -0.25146 0.09021 -0.33329 0.068183 0.19456 0.084994 0.25517 0.10113 0.15088 0.18274 -0.08339 -0.23327 0.17216 0.24158 -0.063568 0.023258 0.25751 -0.33042 -0.43397 0.11772 -0.077765 -0.042498 0.22786 -0.075795 -0.020388 -0.0044969 -0.065109 0.12894 -0.037178 -0.618 0.058482 -0.072782 0.18509 0.24375 -0.08212 0.32135 
sho 0.14758 0.17229 -0.29757 -0.12515 -0.35207 -0.19506 -0.1087 0.082786 0.057485 -0.0056865 -0.20978 0.058387 0.22628 -0.26583 -0.24815 -0.17607 0.29365 -0.078508 0.062273 0.035477 0.28806 0.14948 -0.20146 -0.093368 -0.39149 0.032345 0.12501 -0.073055 -0.11506 0.046721 0.34906 0.004675 0.14314 -0.21385 -0.25871 0.28774 0.057329 -0.23788 -0.19738 0.084615 -0.175 0.062214 0.042625 0.23907 0.10312 -0.19883 -0.27016 -0.067551 0.14987 -0.060072 -0.059986 -0.069808 -0.58405 0.050193 -0.34882 -0.11984 -0.16522 -0.027012 -0.15293 0.049528 0.30455 0.16978 -0.11704 0.1368 -0.22833 0.064618 -0.36343 -0.014055 0.29797 0.13107 0.26914 0.27581 0.17915 0.2356 -0.033155 -0.23573 0.30002 0.19155 -0.034029 0.0016454 0.21858 -0.36082 -0.48779 0.09678 -0.016797 -0.052181 0.23055 -0.086224 -0.044956 -0.032219 -0.077259 0.16475 -0.086303 -0.61827 0.097481 -0.12099 0.18209 0.26367 -0.10818 0.28557 
okar 0.105 0.19467 -0.23288 -0.19415 -0.24394 -0.2847 -0.16787 0.16903 0.087215 -0.037811 -0.297 0.086657 0.14561 -0.15606 -0.27144 -0.15765 0.21898 -0.11211 0.049636 -0.0047223 0.99465 0.076281 -0.11277 -0.062182 -0.35186 0.08483 0.18199 -0.080834 -0.079777 0.092978 0.29044 -0.053366 0.14492 -0.10361 -0.16474 0.25357 0.035284 -0.23121 -0.22634 0.052286 -0.070047 0.1016 -0.047444 0.12153 0.058865 -0.13626 -0.23971 -0.054021 0.11706 -0.053773 -0.081428 0.042179 -0.53409 0.09985 -0.31395 -0.057394 -0.13259 0.050975 -0.17762 0.057897 0.27199 0.14273 -0.052602 0.09474 -0.24377 0.0878 -0.32759 0.067773 0.18583 0.075971 0.25159 0.092313 0.14695 0.17454 -0.085208 -0.22658 0.16473 0.23589 -0.055408 0.018427 0.25304 -0.32336 -0.42028 0.11764 -0.076998 -0.041336 0.22104 -0.077496 -0.023801 -0.0033164 -0.06213 0.12335 -0.034464 -0.60278 0.056799 -0.065971 0.17414 0.23197 -0.083221 0.31056 
lchedy 0.037365 0.29463 -0.2017 -0.42152 -0.18668 -0.5382 -0.33485 0.39547 0.15189 -0.040768 -0.57176 0.14944 0.11381 -0.03558 -0.44701 -0.15784 0.18635 -0.19219 0.08011 -0.11472 -0.76277 -0.0028969 -0.013461 -0.12767 -0.41806 0.18703 0.38817 -0.1655 -0.056322 0.26867 0.40656 -0.2553 0.19588 0.033459 -0.081861 0.35481 0.058395 -0.33874 -0.33855 0.040902 0.043115 0.27561 -0.24197 -0.028598 -0.02018 -0.11525 -0.37211 -0.062654 0.079759 0.014036 -0.12766 0.20213 -0.75696 0.23308 -0.41088 0.00069776 -0.14245 0.13329 -0.28363 0.085323 0.38122 0.17076 -0.013409 0.045676 -0.36797 0.12202 -0.47549 0.2507 0.090193 0.04041 0.38308 -0.13595 0.15322 0.20426 -0.21276 -0.34238 0.049307 0.45448 -0.13567 -0.0047316 0.41516 -0.40957 -0.56355 0.15474 -0.2738 -0.069436 0.36186 -0.041833 -0.011186 0.011346 -0.040892 0.13758 -0.0017534 -0.77699 0.027519 -0.039963 0.27037 0.30361 -0.08019 0.48701 
okedy 0.040078 0.26935 -0.17967 -0.3766 -0.16909 -0.49497 -0.29388 0.35705 0.13983 -0.052554 -0.51339 0.13645 0.095392 -0.036356 -0.40847 -0.14624 0.18092 -0.17641 0.064212 -0.095822 -0.41556 -0.00093363 -0.017414 -0.10433 -0.38561 0.17502 0.3527 -0.14253 -0.055153 0.24173 0.36709 -0.22463 0.18724 0.027593 -0.074192 0.32001 0.048452 -0.30371 -0.30957 0.036415 0.040329 0.24711 -0.2132 -0.014423 -0.010808 -0.10031 -0.32912 -0.048304 0.076055 -0.0011142 -0.11745 0.19089 -0.68094 0.21581 -0.3715 0.0029433 -0.13275 0.13161 -0.26419 0.080878 0.35328 0.15525 -0.009638 0.045561 -0.3377 0.11761 -0.42605 0.2332 0.087178 0.0372 0.34144 -0.11922 0.13837 0.18498 -0.19646 -0.31567 0.042548 0.40696 -0.12062 0.012199 0.37879 -0.36735 -0.50371 0.15213 -0.24677 -0.055751 0.32768 -0.046089 -0.017991 0.012414 -0.040078 0.12214 -0.0001352 -0.72468 0.017878 -0.030052 0.23447 0.272 -0.065333 0.44511 
dol 0.12844 0.17817 -0.26247 -0.15005 -0.31853 -0.22017 -0.12995 0.11442 0.070128 -0.014684 -0.25016 0.069479 0.20929 -0.23033 -0.26336 -0.16266 0.26528 -0.092736 0.062907 0.022328 0.27797 0.1218 -0.17094 -0.088511 -0.38551 0.054146 0.15321 -0.074008 -0.095498 0.068606 0.34586 -0.022415 0.1486 -0.17654 -0.23134 0.29582 0.055493 -0.23614 -0.21093 0.078743 -0.14387 0.091182 0.013003 0.20285 0.081026 -0.17717 -0.27339 -0.056133 0.13605 -0.039204 -0.054913 -0.034938 -0.58102 0.065934 -0.34464 -0.09418 -0.14244 -0.012817 -0.1625 0.049767 0.29815 0.16765 -0.096889 0.12804 -0.23988 0.078269 -0.35282 0.015809 0.27863 0.12179 0.27256 0.21531 0.1722 0.22368 -0.042504 -0.24721 0.25991 0.21502 -0.053547 0.0080673 0.23103 -0.35717 -0.48055 0.096881 -0.051435 -0.048733 0.24335 -0.073923 -0.02933 -0.018541 -0.077946 0.15888 -0.076799 -0.61431 0.084174 -0.10764 0.1864 0.26709 -0.10447 0.29628 
oty 0.10869 0.208 -0.25421 -0.20735 -0.27093 -0.30722 -0.16462 0.17899 0.088291 -0.034168 -0.3114 0.080616 0.16226 -0.17658 -0.29919 -0.16895 0.24986 -0.11607 0.060927 -0.012066 0.2218 0.092793 -0.1378 -0.080437 -0.38315 0.084766 0.20096 -0.087192 -0.10137 0.10449 0.33327 -0.066487 0.16785 -0.1194 -0.17763 0.28456 0.037282 -0.24643 -0.23497 0.050613 -0.079061 0.11898 -0.046555 0.1572 0.064405 -0.16212 -0.26715 -0.055507 0.12732 -0.054431 -0.090162 0.038829 -0.59623 0.11337 -0.34658 -0.06743 -0.15014 0.04889 -0.1976 0.063217 0.30955 0.15509 -0.065655 0.097331 -0.26977 0.092809 -0.37366 0.079841 0.20227 0.096266 0.28046 0.11961 0.16312 0.2045 -0.094324 -0.25015 0.20063 0.25419 -0.06295 0.015432 0.2847 -0.351 -0.46322 0.12034 -0.09191 -0.054137 0.25571 -0.083439 -0.040918 -0.010518 -0.061606 0.13195 -0.048398 -0.66951 0.061572 -0.077073 0.18296 0.25823 -0.081955 0.32625 
sheol 0.10478 0.18839 -0.22927 -0.18124 -0.27674 -0.2549 -0.14757 0.15529 0.086811 -0.023863 -0.28797 0.0819 0.17269 -0.18064 -0.27593 -0.14884 0.23873 -0.1085 0.047209 -0.00085144 0.59687 0.086599 -0.13124 -0.085992 -0.36619 0.076224 0.18722 -0.089951 -0.084246 0.10047 0.33451 -0.065394 0.14753 -0.13543 -0.19128 0.2689 0.054216 -0.23596 -0.21808 0.071126 -0.096845 0.11024 -0.036733 0.13768 0.065435 -0.15533 -0.27207 -0.062642 0.11184 -0.031525 -0.071391 0.015937 -0.56324 0.082584 -0.33373 -0.080552 -0.14717 0.016527 -0.1764 0.049364 0.29185 0.15634 -0.079347 0.10069 -0.24797 0.08053 -0.35359 0.055211 0.22607 0.094289 0.27501 0.14046 0.15316 0.20756 -0.075979 -0.24964 0.21087 0.24128 -0.063604 0.015255 0.24734 -0.33713 -0.46185 0.10892 -0.090582 -0.039101 0.23026 -0.05768 -0.021946 -0.011747 -0.06712 0.14324 -0.053688 -0.60248 0.06441 -0.086231 0.19649 0.24877 -0.09075 0.31767 
cthy 0.15193 0.20391 -0.31726 -0.18418 -0.36465 -0.26083 -0.15316 0.13183 0.068828 -0.0096784 -0.28564 0.082498 0.23908 -0.26854 -0.30312 -0.18943 0.30562 -0.10092 0.077065 0.023859 -0.18981 0.14416 -0.19858 -0.10389 -0.43738 0.053263 0.16905 -0.09176 -0.12475 0.069542 0.38988 -0.027223 0.17072 -0.19606 -0.25852 0.3354 0.055505 -0.26975 -0.23545 0.084119 -0.16111 0.10409 0.0092941 0.23604 0.094695 -0.20218 -0.30549 -0.07455 0.15652 -0.060668 -0.072917 -0.047242 -0.66495 0.082992 -0.38705 -0.10727 -0.17702 -0.010582 -0.19191 0.058457 0.3457 0.18749 -0.11294 0.13846 -0.27586 0.074581 -0.42034 0.01386 0.30191 0.13435 0.30248 0.24751 0.19536 0.25486 -0.058727 -0.27387 0.30048 0.24562 -0.056813 -0.0033185 0.26821 -0.40421 -0.54193 0.11201 -0.059797 -0.052047 0.27538 -0.095265 -0.042338 -0.032936 -0.086356 0.17418 -0.090455 -0.71461 0.0966 -0.12587 0.2087 0.28972 -0.11944 0.33439 
qokey 0.064943 0.24172 -0.21184 -0.31898 -0.22194 -0.40938 -0.25257 0.29012 0.12183 -0.040353 -0.44497 0.13059 0.13776 -0.095477 -0.37275 -0.14746 0.21213 -0.15328 0.063204 -0.057519 -0.32726 0.028146 -0.072104 -0.10167 -0.38951 0.1364 0.30894 -0.135 -0.074075 0.1927 0.37249 -0.17616 0.17638 -0.040112 -0.12336 0.3126 0.053541 -0.2901 -0.28608 0.052965 -0.015043 0.20977 -0.15758 0.03577 0.023931 -0.12461 -0.32724 -0.071094 0.097846 -0.016528 -0.10459 0.12037 -0.66045 0.16854 -0.36891 -0.029134 -0.14591 0.084417 -0.24286 0.067616 0.33765 0.16522 -0.040222 0.0627 -0.3132 0.10022 -0.41663 0.16808 0.1512 0.05765 0.32769 -0.013094 0.14886 0.20768 -0.16366 -0.29812 0.11622 0.35605 -0.10243 0.01155 0.33886 -0.36865 -0.51293 0.13745 -0.20006 -0.041439 0.29373 -0.051465 -0.01213 -0.0013216 -0.059207 0.13852 -0.024744 -0.69569 0.03981 -0.062144 0.23351 0.27207 -0.086805 0.41602 
dair 0.13692 0.18108 -0.27063 -0.1604 -0.29926 -0.23654 -0.13264 0.11747 0.067062 -0.016946 -0.25106 0.07292 0.18945 -0.22057 -0.25545 -0.16775 0.25351 -0.088442 0.06313 0.017219 0.6693 0.12487 -0.16804 -0.076371 -0.36983 0.052609 0.14681 -0.072676 -0.0935 0.061351 0.32241 -0.013074 0.14413 -0.16554 -0.21584 0.27141 0.041883 -0.22676 -0.20465 0.066598 -0.12463 0.084239 0.0040132 0.19711 0.081526 -0.17623 -0.25587 -0.062417 0.13629 -0.061257 -0.065258 -0.019678 -0.55979 0.073886 -0.32898 -0.087251 -0.15086 0.0082094 -0.16787 0.053426 0.28935 0.16008 -0.084274 0.11563 -0.2373 0.073881 -0.34573 0.020259 0.24886 0.11104 0.26018 0.19326 0.16814 0.20745 -0.053762 -0.22874 0.23671 0.20971 -0.049145 0.010623 0.2358 -0.34487 -0.45442 0.10748 -0.040143 -0.051006 0.22724 -0.084968 -0.037667 -0.017348 -0.070669 0.14235 -0.064279 -0.61945 0.077659 -0.098367 0.17102 0.24941 -0.096352 0.29209 
okeedy 0.039046 0.259 -0.17859 -0.36055 -0.16706 -0.46642 -0.28051 0.34127 0.13647 -0.053435 -0.49288 0.13427 0.091946 -0.035056 -0.39131 -0.14218 0.17898 -0.17143 0.058173 -0.085453 -0.093862 0.00018716 -0.024273 -0.096788 -0.37365 0.16607 0.33901 -0.14047 -0.0546 0.22783 0.35515 -0.21362 0.18065 0.018643 -0.075061 0.30561 0.044193 -0.29018 -0.29939 0.036297 0.038189 0.23759 -0.20451 -0.013394 -0.0026647 -0.099957 -0.31694 -0.052364 0.074615 -0.0041784 -0.1165 0.18176 -0.65184 0.20225 -0.36095 -0.00064399 -0.13341 0.12385 -0.25857 0.074987 0.3341 0.14998 -0.00916 0.044055 -0.32704 0.11059 -0.41215 0.21801 0.089091 0.037204 0.32893 -0.11043 0.13561 0.17658 -0.19205 -0.30299 0.046023 0.38616 -0.11682 0.012045 0.36723 -0.35448 -0.48557 0.14814 -0.2324 -0.049605 0.30306 -0.044338 -0.015025 0.011228 -0.04212 0.11747 -0.00060165 -0.69778 0.017095 -0.031625 0.22854 0.26314 -0.065613 0.43117 
qokol 0.099897 0.20458 -0.23691 -0.22697 -0.27027 -0.31129 -0.18818 0.19152 0.092583 -0.025094 -0.3428 0.094889 0.17866 -0.1675 -0.31335 -0.15487 0.23442 -0.11773 0.065418 -0.015847 0.043572 0.075489 -0.11532 -0.098902 -0.3819 0.09724 0.22375 -0.10523 -0.080429 0.12866 0.35795 -0.093682 0.15765 -0.10747 -0.18002 0.30665 0.0559 -0.25923 -0.24409 0.067246 -0.084864 0.14372 -0.0634 0.11995 0.047254 -0.148 -0.30302 -0.061197 0.11164 -0.02314 -0.07407 0.035537 -0.61975 0.11414 -0.35329 -0.063571 -0.13756 0.030633 -0.1943 0.059715 0.31524 0.16861 -0.072393 0.097677 -0.2698 0.089716 -0.37933 0.085488 0.21708 0.091439 0.29842 0.10481 0.15774 0.21318 -0.097006 -0.27074 0.18798 0.28407 -0.075607 0.0056317 0.27665 -0.35873 -0.49473 0.10994 -0.12004 -0.049551 0.27075 -0.057274 -0.01857 -0.0091457 -0.064998 0.14803 -0.051264 -0.64291 0.065532 -0.086954 0.2123 0.26641 -0.096981 0.35358 
shy 0.12224 0.22315 -0.28471 -0.235 -0.32799 -0.32392 -0.19462 0.19309 0.089574 -0.024882 -0.34506 0.096854 0.21089 -0.21466 -0.3425 -0.1769 0.27999 -0.12235 0.07752 -0.012701 -0.79112 0.099056 -0.1557 -0.10997 -0.43334 0.088494 0.22442 -0.11014 -0.11448 0.12409 0.39899 -0.08348 0.17542 -0.1395 -0.21767 0.33508 0.059091 -0.28819 -0.25967 0.078081 -0.11546 0.14263 -0.052206 0.16894 0.074211 -0.18661 -0.32319 -0.067256 0.13487 -0.044362 -0.087325 0.013038 -0.6921 0.12 -0.39295 -0.081188 -0.17178 0.024911 -0.21275 0.066984 0.35908 0.18189 -0.095458 0.11541 -0.29557 0.087646 -0.4344 0.071101 0.24797 0.11695 0.32998 0.16274 0.18501 0.24972 -0.095687 -0.28944 0.2452 0.29553 -0.070606 -0.0023529 0.30663 -0.41136 -0.55363 0.12096 -0.11239 -0.05332 0.29973 -0.085047 -0.034882 -0.021635 -0.073439 0.16629 -0.066542 -0.72814 0.080161 -0.10628 0.22704 0.29436 -0.1056 0.37503 
oky 0.10619 0.22303 -0.25181 -0.2353 -0.27365 -0.32918 -0.1918 0.20683 0.098121 -0.038807 -0.34489 0.097539 0.16563 -0.16711 -0.32062 -0.16848 0.25099 -0.12615 0.061262 -0.015922 0.049461 0.077695 -0.12712 -0.087646 -0.39603 0.10058 0.22776 -0.099409 -0.095097 0.12071 0.3536 -0.08626 0.16766 -0.10324 -0.17401 0.30032 0.042146 -0.2603 -0.25527 0.055956 -0.074811 0.14119 -0.069326 0.13344 0.056503 -0.14981 -0.28122 -0.057507 0.12122 -0.048003 -0.093696 0.055424 -0.62198 0.12207 -0.3593 -0.058999 -0.15472 0.051678 -0.21005 0.06141 0.32239 0.1589 -0.060961 0.09697 -0.28619 0.093263 -0.38778 0.092839 0.2032 0.08992 0.29437 0.093995 0.16293 0.20724 -0.10922 -0.27031 0.18526 0.28538 -0.072293 0.018731 0.29521 -0.36509 -0.48599 0.12732 -0.11581 -0.046071 0.2689 -0.079203 -0.030771 -0.0080178 -0.067829 0.13879 -0.044999 -0.68569 0.058695 -0.078336 0.1996 0.26919 -0.091201 0.35737 
oteedy 0.054077 0.2599 -0.19874 -0.34069 -0.18711 -0.45387 -0.26491 0.31802 0.12827 -0.048228 -0.47338 0.1228 0.10271 -0.063819 -0.38135 -0.15192 0.19234 -0.16593 0.066434 -0.076484 0.015326 0.021836 -0.04924 -0.098792 -0.37933 0.15138 0.3199 -0.12928 -0.064935 0.21086 0.35231 -0.18981 0.18461 -0.0051774 -0.093151 0.31071 0.0433 -0.28888 -0.2934 0.032457 0.021759 0.21746 -0.1754 0.024886 0.0066938 -0.11682 -0.31037 -0.051806 0.091128 -0.01558 -0.11819 0.16106 -0.66169 0.1929 -0.36576 -0.01298 -0.13489 0.11722 -0.25307 0.077746 0.33961 0.15497 -0.023039 0.054618 -0.32015 0.11273 -0.41613 0.20169 0.10439 0.049192 0.3281 -0.072982 0.14583 0.18467 -0.17639 -0.29794 0.073037 0.37118 -0.11028 0.009115 0.364 -0.35989 -0.49063 0.14528 -0.2061 -0.060062 0.30478 -0.052562 -0.029492 0.0084544 -0.042497 0.12203 -0.007033 -0.71194 0.027207 -0.034591 0.21881 0.26998 -0.066424 0.41503 
cheor 0.13035 0.17279 -0.27156 -0.13965 -0.30569 -0.20169 -0.10875 0.1036 0.066064 -0.009926 -0.23855 0.072129 0.19709 -0.23216 -0.2365 -0.16274 0.26595 -0.088895 0.052046 0.0278 1.2151 0.12886 -0.17623 -0.075299 -0.3694 0.040583 0.14085 -0.076388 -0.099011 0.049952 0.3173 -0.015591 0.1445 -0.18528 -0.22831 0.26649 0.050187 -0.21741 -0.20082 0.072922 -0.13757 0.076294 0.018934 0.20356 0.084645 -0.16754 -0.25364 -0.06955 0.14116 -0.056874 -0.062199 -0.043081 -0.53461 0.058623 -0.32527 -0.10072 -0.15735 -0.013743 -0.16037 0.046741 0.27369 0.15525 -0.095523 0.12298 -0.22955 0.067348 -0.34702 0.0049945 0.26438 0.10323 0.24784 0.2166 0.16542 0.2096 -0.048498 -0.22906 0.25372 0.19292 -0.050515 0.010553 0.21681 -0.33587 -0.44682 0.106 -0.035175 -0.036894 0.20176 -0.068428 -0.036384 -0.024197 -0.082724 0.14623 -0.077459 -0.59212 0.076689 -0.10148 0.17474 0.23867 -0.1056 0.27889 
dam 0.13289 0.18294 -0.27305 -0.16746 -0.30718 -0.24738 -0.13904 0.12708 0.069503 -0.019838 -0.26865 0.077268 0.19058 -0.22388 -0.27065 -0.17018 0.25847 -0.096324 0.069649 0.010209 0.459 0.11859 -0.16409 -0.083755 -0.38341 0.060588 0.15635 -0.080143 -0.097097 0.072626 0.32999 -0.023061 0.14628 -0.16163 -0.21511 0.28508 0.043048 -0.23763 -0.21413 0.066149 -0.12657 0.092312 -0.0015421 0.19322 0.074967 -0.17473 -0.26797 -0.063131 0.1355 -0.059704 -0.071682 -0.011898 -0.57981 0.081732 -0.33782 -0.089557 -0.15034 0.012284 -0.17952 0.058935 0.29968 0.15787 -0.087125 0.11699 -0.24812 0.076012 -0.36221 0.029767 0.25265 0.11197 0.27088 0.18438 0.16877 0.21085 -0.058026 -0.24045 0.23791 0.22316 -0.052118 0.0085689 0.24669 -0.35555 -0.46717 0.1076 -0.053528 -0.054876 0.2432 -0.078863 -0.039579 -0.020334 -0.072003 0.1468 -0.064801 -0.63652 0.081239 -0.10039 0.17813 0.25388 -0.098658 0.30074 
shor 0.15305 0.16448 -0.29343 -0.10587 -0.3407 -0.17678 -0.095299 0.063369 0.052872 -0.004834 -0.18796 0.055217 0.22588 -0.26885 -0.23197 -0.1723 0.28415 -0.072225 0.060129 0.042411 0.39825 0.14845 -0.19837 -0.083818 -0.37809 0.031077 0.10848 -0.065502 -0.11416 0.029044 0.32597 0.016763 0.14037 -0.21433 -0.25872 0.27436 0.053581 -0.22324 -0.18783 0.083629 -0.17984 0.048032 0.056889 0.24295 0.10283 -0.18928 -0.25454 -0.062207 0.15008 -0.061281 -0.049395 -0.078736 -0.55267 0.045532 -0.33336 -0.11954 -0.15348 -0.03383 -0.14441 0.048711 0.28782 0.16736 -0.11529 0.13539 -0.21841 0.064397 -0.34313 -0.026263 0.29832 0.12811 0.25168 0.27732 0.17515 0.2265 -0.024126 -0.22239 0.29508 0.17597 -0.028413 0.0051694 0.20066 -0.34599 -0.46468 0.090531 -0.0043858 -0.049116 0.22045 -0.087956 -0.042552 -0.029544 -0.080461 0.15737 -0.087543 -0.59226 0.095611 -0.11635 0.1738 0.25226 -0.10905 0.26156 
otain 0.10882 0.19218 -0.23354 -0.19969 -0.24409 -0.27276 -0.16884 0.16073 0.087439 -0.027687 -0.29574 0.078101 0.14252 -0.15057 -0.26733 -0.15651 0.21542 -0.10746 0.05044 0.00087622 0.92043 0.08457 -0.1154 -0.067974 -0.34529 0.077103 0.17481 -0.08716 -0.084073 0.088041 0.29398 -0.05459 0.14502 -0.10435 -0.16206 0.25224 0.033839 -0.22969 -0.22204 0.042957 -0.069317 0.10503 -0.047827 0.12531 0.063987 -0.15129 -0.23766 -0.06048 0.11293 -0.060113 -0.082866 0.042857 -0.53362 0.089336 -0.31425 -0.058957 -0.14027 0.042969 -0.17972 0.055081 0.27132 0.14272 -0.047193 0.08953 -0.23853 0.077423 -0.33232 0.065343 0.18244 0.082503 0.25534 0.095105 0.15394 0.17988 -0.090693 -0.21784 0.17126 0.23691 -0.05516 0.011847 0.25933 -0.32321 -0.42592 0.11245 -0.071024 -0.041004 0.2168 -0.078136 -0.020763 -0.005523 -0.05665 0.12436 -0.033413 -0.60458 0.059482 -0.075011 0.17766 0.24117 -0.08318 0.31468 
chody 0.14005 0.17945 -0.29111 -0.1513 -0.33355 -0.22449 -0.11602 0.10376 0.05315 -0.0072945 -0.2433 0.07165 0.21863 -0.25477 -0.25222 -0.1723 0.27985 -0.081269 0.076585 0.018684 0.046033 0.14216 -0.19092 -0.093393 -0.38863 0.038572 0.14142 -0.074966 -0.11299 0.061929 0.34628 -0.013254 0.15134 -0.19225 -0.23477 0.30154 0.055488 -0.23574 -0.20424 0.072871 -0.1497 0.087338 0.02346 0.23689 0.084614 -0.18977 -0.26903 -0.059538 0.14743 -0.054951 -0.061703 -0.060372 -0.58919 0.077265 -0.34177 -0.10825 -0.15937 -0.017247 -0.16447 0.050775 0.31367 0.16425 -0.10831 0.13036 -0.24265 0.065291 -0.37206 0.011087 0.28081 0.12629 0.26507 0.24174 0.18005 0.22948 -0.046711 -0.2422 0.272 0.20754 -0.053865 2.7874e-05 0.23288 -0.35672 -0.47723 0.093442 -0.03875 -0.053608 0.2511 -0.08184 -0.054869 -0.031912 -0.077486 0.15428 -0.092766 -0.63716 0.087305 -0.10917 0.17641 0.25556 -0.10474 0.28728 
qotedy 0.048641 0.26392 -0.19791 -0.36534 -0.18906 -0.48101 -0.287 0.33634 0.12785 -0.042835 -0.50461 0.13058 0.11316 -0.063955 -0.40418 -0.14868 0.18616 -0.16814 0.078514 -0.093181 -0.76709 0.017347 -0.03621 -0.11723 -0.38844 0.16209 0.34174 -0.1418 -0.062249 0.23288 0.37553 -0.21043 0.18686 0.010097 -0.091861 0.33443 0.054302 -0.30752 -0.30344 0.038642 0.022113 0.23899 -0.19455 0.01075 -0.0065554 -0.11489 -0.34174 -0.057156 0.086185 0.0018422 -0.11052 0.16424 -0.69979 0.20725 -0.37653 -0.0090822 -0.12967 0.11575 -0.25693 0.080438 0.3583 0.16007 -0.02588 0.053437 -0.33095 0.11469 -0.43619 0.21848 0.10416 0.050872 0.3489 -0.083426 0.14612 0.19993 -0.18489 -0.3142 0.069352 0.3998 -0.11797 -0.0011512 0.37547 -0.37876 -0.52065 0.14119 -0.23093 -0.066307 0.33873 -0.046563 -0.023908 0.0069382 -0.040118 0.13312 -0.0098091 -0.72688 0.029891 -0.041918 0.23754 0.27916 -0.073524 0.43448 
ain 0.11655 0.20862 -0.25493 -0.23365 -0.26644 -0.29829 -0.19993 0.18183 0.10115 -0.023125 -0.33941 0.092322 0.15632 -0.15682 -0.29601 -0.16501 0.22979 -0.1187 0.052962 -0.00097617 0.94917 0.083728 -0.11679 -0.076338 -0.37636 0.087944 0.19479 -0.10447 -0.083065 0.099812 0.32636 -0.067273 0.15378 -0.11268 -0.17707 0.27473 0.036356 -0.26457 -0.24878 0.054878 -0.071226 0.12551 -0.069315 0.12017 0.069433 -0.16854 -0.26959 -0.077448 0.11599 -0.061093 -0.089788 0.051537 -0.58984 0.096173 -0.34942 -0.063952 -0.15681 0.044631 -0.20165 0.06009 0.29276 0.15749 -0.049237 0.094265 -0.26458 0.079957 -0.36949 0.071087 0.19984 0.088807 0.28692 0.09395 0.16983 0.19514 -0.10735 -0.23805 0.18365 0.27027 -0.061334 0.0067922 0.28633 -0.35918 -0.48011 0.12418 -0.088751 -0.036684 0.2313 -0.08011 -0.00728 -0.0072845 -0.065923 0.13865 -0.033792 -0.66326 0.067167 -0.086251 0.2091 0.26759 -0.094948 0.36117 
cheody 0.10841 0.19155 -0.24944 -0.19441 -0.27801 -0.27308 -0.14463 0.16391 0.077028 -0.021838 -0.30166 0.086542 0.17184 -0.19042 -0.27258 -0.15326 0.24578 -0.10592 0.062867 -0.0071742 0.55685 0.10026 -0.14399 -0.082882 -0.36743 0.066828 0.18858 -0.089109 -0.091151 0.099219 0.33208 -0.064117 0.15576 -0.13577 -0.18597 0.2806 0.051131 -0.2351 -0.22061 0.064334 -0.089694 0.11772 -0.037844 0.16265 0.061508 -0.15454 -0.26756 -0.062818 0.1256 -0.042034 -0.075191 0.0049241 -0.56784 0.099309 -0.32996 -0.078954 -0.15353 0.020679 -0.18457 0.054487 0.30369 0.15028 -0.080009 0.10214 -0.25602 0.074506 -0.3682 0.062635 0.22129 0.094546 0.26791 0.14059 0.15808 0.20631 -0.085152 -0.24883 0.20425 0.23819 -0.07099 0.013104 0.25757 -0.33989 -0.45577 0.11192 -0.089538 -0.042911 0.23845 -0.06322 -0.041337 -0.018872 -0.069737 0.13855 -0.065497 -0.62805 0.062865 -0.083183 0.184 0.24134 -0.091384 0.31176 
am 0.12571 0.20396 -0.2727 -0.18374 -0.29242 -0.27579 -0.15791 0.154 0.083925 -0.027078 -0.29721 0.087649 0.17491 -0.19997 -0.28449 -0.17765 0.25385 -0.11222 0.066984 0.0039337 0.85152 0.10276 -0.14377 -0.079891 -0.38986 0.071308 0.1811 -0.086471 -0.092931 0.082096 0.32622 -0.042718 0.15672 -0.14503 -0.2046 0.27988 0.040037 -0.24791 -0.22759 0.06369 -0.10436 0.099028 -0.023898 0.17225 0.072255 -0.16934 -0.26871 -0.066518 0.12819 -0.06726 -0.082457 0.020489 -0.58823 0.093533 -0.34844 -0.081015 -0.15545 0.027698 -0.1933 0.063525 0.30508 0.16122 -0.073514 0.11067 -0.26386 0.086793 -0.36648 0.047231 0.23618 0.10267 0.28039 0.14574 0.16957 0.19944 -0.078357 -0.24946 0.21706 0.23995 -0.062275 0.014172 0.26182 -0.36198 -0.46795 0.12008 -0.066295 -0.051639 0.24435 -0.083055 -0.036052 -0.015084 -0.07192 0.14391 -0.058469 -0.65603 0.07073 -0.091621 0.18143 0.25575 -0.099089 0.32029 
qoty 0.091641 0.22569 -0.24394 -0.27214 -0.25557 -0.36892 -0.21837 0.23558 0.099273 -0.027549 -0.39166 0.1055 0.16558 -0.15236 -0.34743 -0.15937 0.23034 -0.13185 0.077628 -0.041751 -0.58705 0.067075 -0.10651 -0.10665 -0.39425 0.11218 0.25996 -0.1197 -0.087393 0.15696 0.36811 -0.12611 0.17349 -0.081268 -0.15935 0.31753 0.051882 -0.27982 -0.26343 0.057514 -0.055599 0.17089 -0.10254 0.10203 0.038569 -0.14922 -0.31822 -0.067302 0.11296 -0.023844 -0.090655 0.069162 -0.66226 0.14593 -0.36706 -0.050932 -0.14484 0.060663 -0.21895 0.06495 0.33777 0.16364 -0.062834 0.083951 -0.29613 0.097043 -0.41191 0.12438 0.18606 0.085568 0.31803 0.063743 0.15997 0.21972 -0.12727 -0.28402 0.16529 0.32193 -0.084177 0.00090727 0.31655 -0.37497 -0.51317 0.12305 -0.14923 -0.060529 0.29883 -0.064548 -0.026723 -0.010403 -0.060318 0.1457 -0.040963 -0.69239 0.060496 -0.076088 0.21843 0.27467 -0.093364 0.37775 
otol 0.13111 0.18737 -0.26984 -0.15388 -0.30788 -0.24152 -0.12913 0.11888 0.074719 -0.025076 -0.25697 0.070218 0.19256 -0.22549 -0.26668 -0.17477 0.26921 -0.098804 0.056279 0.022591 0.83926 0.12122 -0.17085 -0.077568 -0.38766 0.060388 0.15702 -0.069851 -0.10437 0.068779 0.33369 -0.01844 0.1553 -0.16992 -0.22058 0.28591 0.046684 -0.22991 -0.21544 0.066249 -0.12996 0.084347 0.010101 0.20132 0.084841 -0.17229 -0.2602 -0.054752 0.14094 -0.060811 -0.069173 -0.013872 -0.57467 0.072832 -0.34249 -0.093967 -0.14949 0.010605 -0.17176 0.057005 0.29961 0.16516 -0.087992 0.1238 -0.24187 0.081906 -0.35269 0.025761 0.25817 0.11771 0.2675 0.20134 0.17382 0.21585 -0.054454 -0.24359 0.24762 0.21477 -0.049441 0.015373 0.24265 -0.34894 -0.46403 0.10568 -0.04545 -0.050669 0.23696 -0.084196 -0.04104 -0.014053 -0.073975 0.14855 -0.065426 -0.63619 0.074381 -0.096211 0.17479 0.26422 -0.094234 0.29871 
r 0.12526 0.19314 -0.26849 -0.16573 -0.28038 -0.25108 -0.14482 0.13703 0.079589 -0.024942 -0.27136 0.079683 0.18602 -0.20381 -0.26186 -0.16837 0.24233 -0.10451 0.060591 0.013975 0.80063 0.11045 -0.15295 -0.073422 -0.36796 0.063874 0.16402 -0.080792 -0.092766 0.0727 0.30952 -0.032487 0.14796 -0.14981 -0.20585 0.27509 0.046844 -0.23297 -0.21599 0.066099 -0.11015 0.08472 -0.01266 0.16874 0.069642 -0.15624 -0.26285 -0.057543 0.13095 -0.06311 -0.068271 0.00092858 -0.56028 0.086194 -0.32921 -0.086007 -0.14577 0.02302 -0.17575 0.052188 0.27888 0.15261 -0.075807 0.11232 -0.24697 0.083328 -0.34099 0.040675 0.23224 0.093953 0.25884 0.15989 0.16294 0.20193 -0.071948 -0.2387 0.22188 0.2145 -0.056512 0.016583 0.24944 -0.34366 -0.44492 0.11356 -0.057809 -0.048235 0.22038 -0.079842 -0.040845 -0.017154 -0.077161 0.14037 -0.05563 -0.61535 0.072382 -0.084437 0.17541 0.24614 -0.098997 0.29613 
sar 0.11543 0.20261 -0.25803 -0.18781 -0.27317 -0.27547 -0.16072 0.16188 0.084577 -0.026957 -0.29325 0.086551 0.1661 -0.18758 -0.28218 -0.17069 0.24338 -0.11471 0.056688 0.00071605 0.74435 0.095219 -0.14144 -0.073887 -0.37752 0.073483 0.18422 -0.080559 -0.091823 0.086749 0.31867 -0.047787 0.15703 -0.13475 -0.19779 0.2746 0.045407 -0.2423 -0.23063 0.062605 -0.093768 0.10294 -0.028031 0.15093 0.068864 -0.15695 -0.26318 -0.064596 0.12937 -0.056673 -0.080916 0.02315 -0.57555 0.098891 -0.33714 -0.07738 -0.14683 0.031883 -0.18579 0.059406 0.29588 0.15756 -0.071596 0.1058 -0.25327 0.085956 -0.35757 0.054366 0.21333 0.091686 0.27324 0.13342 0.16181 0.1996 -0.078182 -0.23876 0.20349 0.2388 -0.059119 0.013146 0.25796 -0.34777 -0.45467 0.11531 -0.073804 -0.05052 0.23595 -0.07627 -0.035024 -0.010953 -0.067817 0.14086 -0.049454 -0.63814 0.071118 -0.080268 0.18715 0.24925 -0.088382 0.3148 
sheedy 0.046002 0.27289 -0.19242 -0.37803 -0.18632 -0.4856 -0.30073 0.35564 0.14189 -0.046137 -0.5169 0.13668 0.10681 -0.044554 -0.41371 -0.14998 0.1868 -0.17682 0.066611 -0.093611 -0.5234 0.0032658 -0.02688 -0.11329 -0.39593 0.17084 0.35148 -0.15157 -0.057813 0.24262 0.38232 -0.22671 0.18531 0.013182 -0.091278 0.32623 0.055547 -0.31521 -0.31538 0.042604 0.030972 0.24617 -0.21174 -0.01201 -0.0017743 -0.11632 -0.34268 -0.061643 0.078004 0.0045738 -0.12114 0.18025 -0.70647 0.2066 -0.385 -0.01041 -0.14248 0.11993 -0.26725 0.078451 0.3581 0.16124 -0.021242 0.046066 -0.34243 0.11358 -0.44395 0.22196 0.098462 0.04466 0.35784 -0.10349 0.14606 0.1963 -0.19506 -0.32035 0.064288 0.41306 -0.11963 0.0015908 0.38679 -0.38616 -0.53061 0.15042 -0.24576 -0.056289 0.32753 -0.042519 -0.011173 0.0084479 -0.041311 0.1314 -0.0049441 -0.73351 0.02618 -0.037912 0.25114 0.28401 -0.075277 0.45227 
okol 0.12655 0.18191 -0.2573 -0.15101 -0.30292 -0.2307 -0.12846 0.12105 0.077494 -0.023478 -0.25416 0.070714 0.19317 -0.21509 -0.25954 -0.16722 0.26199 -0.097466 0.052844 0.022535 0.83238 0.11171 -0.1594 -0.07732 -0.37886 0.064758 0.15665 -0.072003 -0.096356 0.069865 0.33427 -0.022492 0.14883 -0.1641 -0.21786 0.27838 0.048675 -0.22693 -0.21259 0.070754 -0.13113 0.083473 0.0067857 0.19176 0.078387 -0.16467 -0.2577 -0.051566 0.13067 -0.050634 -0.063117 -0.017034 -0.56201 0.068693 -0.33793 -0.088665 -0.14442 0.0017702 -0.16536 0.050769 0.29347 0.16284 -0.08594 0.1214 -0.23919 0.082994 -0.34128 0.021879 0.25724 0.11227 0.26016 0.19261 0.16656 0.20905 -0.053894 -0.24359 0.24051 0.21462 -0.049941 0.017804 0.23289 -0.34078 -0.45725 0.10277 -0.051079 -0.043478 0.22962 -0.075989 -0.031075 -0.015957 -0.073948 0.14471 -0.065442 -0.61569 0.075908 -0.095599 0.18024 0.25554 -0.097805 0.30218 
chcthy 0.13205 0.18617 -0.28267 -0.1756 -0.32132 -0.24626 -0.14485 0.12922 0.06757 -0.010762 -0.27236 0.078995 0.20828 -0.23167 -0.27652 -0.16971 0.27086 -0.094597 0.070713 0.013946 0.019403 0.12379 -0.17061 -0.091903 -0.39173 0.054771 0.16075 -0.085452 -0.10835 0.070466 0.34983 -0.033501 0.15385 -0.16579 -0.22509 0.30035 0.049698 -0.24553 -0.21946 0.070931 -0.13403 0.10075 -0.0022691 0.20161 0.080245 -0.17889 -0.27578 -0.065918 0.13854 -0.053555 -0.067713 -0.029146 -0.60001 0.082669 -0.35113 -0.091707 -0.15808 -0.0031216 -0.17615 0.053994 0.31198 0.16812 -0.095152 0.12193 -0.25282 0.067819 -0.37874 0.025229 0.26113 0.11525 0.27545 0.20566 0.17579 0.22716 -0.061028 -0.24809 0.25564 0.23003 -0.055989 -0.00019285 0.24774 -0.36564 -0.48866 0.10185 -0.059418 -0.047186 0.24864 -0.082839 -0.034962 -0.027508 -0.074915 0.15484 -0.074859 -0.64558 0.085118 -0.10692 0.19105 0.26285 -0.106 0.3064 
qotaiin 0.11617 0.19816 -0.24899 -0.21417 -0.26259 -0.28617 -0.17989 0.16551 0.084422 -0.020346 -0.31554 0.085125 0.16217 -0.17086 -0.2837 -0.15749 0.22774 -0.10502 0.061326 -0.0082736 0.54133 0.092833 -0.12375 -0.083073 -0.3594 0.078699 0.185 -0.094091 -0.085414 0.096712 0.32235 -0.061105 0.14849 -0.11308 -0.17609 0.27473 0.042479 -0.24832 -0.22834 0.049514 -0.081823 0.11355 -0.051557 0.13646 0.061906 -0.16186 -0.2653 -0.068816 0.11737 -0.050224 -0.076265 0.030137 -0.57517 0.097119 -0.33309 -0.066949 -0.14256 0.036294 -0.18363 0.054648 0.29552 0.15126 -0.061113 0.092667 -0.24901 0.077489 -0.3561 0.067325 0.20157 0.090702 0.27532 0.11161 0.16094 0.19812 -0.092889 -0.23376 0.18538 0.25389 -0.056291 -0.00016105 0.26953 -0.3432 -0.4612 0.11011 -0.080043 -0.049249 0.24164 -0.077325 -0.021937 -0.0099609 -0.061509 0.13558 -0.043031 -0.63324 0.067934 -0.084911 0.19233 0.2537 -0.094986 0.33237 
sol 0.1195 0.18752 -0.25108 -0.17007 -0.30286 -0.24252 -0.14384 0.13523 0.079431 -0.014906 -0.27347 0.078179 0.19416 -0.21123 -0.27541 -0.15969 0.25259 -0.10519 0.056704 0.014473 0.32798 0.10496 -0.15111 -0.089048 -0.3847 0.069163 0.17335 -0.083664 -0.093325 0.088559 0.3439 -0.044752 0.14873 -0.15671 -0.21798 0.29115 0.054542 -0.23834 -0.2194 0.075837 -0.12403 0.1057 -0.0085366 0.17334 0.075258 -0.16707 -0.28033 -0.0598 0.12458 -0.037951 -0.064196 -0.010246 -0.58478 0.075927 -0.34744 -0.091309 -0.1405 0.0017833 -0.16959 0.053069 0.30033 0.16797 -0.088582 0.1189 -0.24495 0.082252 -0.35674 0.035035 0.25804 0.11107 0.27894 0.18228 0.16647 0.22129 -0.058512 -0.25411 0.23762 0.23447 -0.057321 0.0098664 0.24063 -0.35254 -0.482 0.10304 -0.069557 -0.044328 0.2398 -0.065688 -0.024412 -0.015516 -0.072372 0.15465 -0.062926 -0.6203 0.078277 -0.09867 0.19511 0.26829 -0.10068 0.31319 
raiin 0.13484 0.19095 -0.2713 -0.19109 -0.28898 -0.25209 -0.16104 0.13256 0.080309 -0.016207 -0.28685 0.079306 0.17917 -0.19835 -0.26716 -0.16593 0.24826 -0.096934 0.057322 0.012151 0.8984 0.10938 -0.14931 -0.076429 -0.37027 0.063947 0.1552 -0.085629 -0.091423 0.069394 0.32239 -0.028543 0.14658 -0.14554 -0.20129 0.27017 0.039325 -0.24724 -0.22261 0.0508 -0.10889 0.090652 -0.023396 0.16893 0.083194 -0.17952 -0.25543 -0.073013 0.12804 -0.066386 -0.071122 0.0043293 -0.5672 0.073093 -0.33571 -0.082222 -0.15665 0.021696 -0.1759 0.054389 0.28986 0.15474 -0.069129 0.10428 -0.24369 0.069302 -0.35265 0.036828 0.22891 0.10474 0.27131 0.15773 0.17052 0.20259 -0.076133 -0.22448 0.22043 0.23115 -0.047114 0.0016976 0.25824 -0.3499 -0.46445 0.10949 -0.052903 -0.043733 0.22492 -0.089014 -0.021849 -0.013755 -0.068726 0.13984 -0.053484 -0.63876 0.076672 -0.097818 0.18574 0.2599 -0.10128 0.32416 
air 0.13287 0.1935 -0.26649 -0.171 -0.28161 -0.25626 -0.14606 0.13559 0.080248 -0.021515 -0.26954 0.081798 0.17215 -0.20345 -0.26233 -0.16941 0.24738 -0.099232 0.061613 0.014033 0.98488 0.1087 -0.14995 -0.071814 -0.37235 0.059534 0.15791 -0.076359 -0.092193 0.068403 0.31542 -0.025822 0.15073 -0.15322 -0.20426 0.26365 0.038399 -0.23208 -0.2186 0.063321 -0.10473 0.088848 -0.013487 0.17599 0.078017 -0.16536 -0.25071 -0.065168 0.1318 -0.065553 -0.072165 0.0042004 -0.5579 0.079662 -0.33403 -0.081045 -0.14877 0.024077 -0.17546 0.054177 0.2859 0.15598 -0.074059 0.11033 -0.24603 0.08 -0.34514 0.035593 0.23031 0.099728 0.25996 0.16131 0.16456 0.19576 -0.069838 -0.23104 0.21773 0.22026 -0.054868 0.014995 0.2435 -0.3439 -0.44788 0.11394 -0.052732 -0.048845 0.22124 -0.08141 -0.032779 -0.014361 -0.068188 0.13751 -0.053902 -0.62631 0.074288 -0.084492 0.17451 0.24842 -0.095266 0.30297 
qoteedy 0.050766 0.25838 -0.19614 -0.35206 -0.18667 -0.45966 -0.27733 0.32516 0.12666 -0.042811 -0.48811 0.12882 0.11031 -0.063527 -0.38933 -0.14662 0.18519 -0.16386 0.071814 -0.083484 -0.45191 0.017579 -0.041022 -0.10862 -0.37996 0.15526 0.33057 -0.13934 -0.061799 0.22179 0.36323 -0.20246 0.18194 0.0019833 -0.09262 0.32073 0.049037 -0.29756 -0.29502 0.037017 0.022324 0.23011 -0.18658 0.012312 -0.00047035 -0.11483 -0.32772 -0.058212 0.086098 -0.0033637 -0.11136 0.15888 -0.67654 0.19769 -0.36794 -0.011492 -0.13065 0.11173 -0.25216 0.075826 0.34401 0.15661 -0.026559 0.05213 -0.32304 0.1102 -0.42291 0.20686 0.10617 0.048757 0.33592 -0.077326 0.14409 0.19197 -0.18162 -0.30532 0.069997 0.3871 -0.11396 0.00019113 0.36539 -0.36544 -0.50714 0.14064 -0.22003 -0.061747 0.31688 -0.046389 -0.021318 0.0062169 -0.042069 0.12672 -0.0093997 -0.70688 0.030263 -0.039826 0.22973 0.2712 -0.073637 0.42291 
dor 0.14809 0.17922 -0.29381 -0.13156 -0.3288 -0.21005 -0.11457 0.094765 0.060965 -0.012012 -0.22432 0.066748 0.21434 -0.25641 -0.24743 -0.17346 0.2779 -0.084013 0.062721 0.033277 0.6465 0.13797 -0.19348 -0.080398 -0.39132 0.039294 0.1314 -0.07098 -0.108 0.041141 0.33089 0.00082642 0.14791 -0.19906 -0.24882 0.28479 0.051606 -0.23051 -0.20356 0.079592 -0.15878 0.065426 0.037081 0.23233 0.095323 -0.18195 -0.26233 -0.063193 0.15424 -0.061399 -0.055878 -0.053242 -0.56866 0.065562 -0.34364 -0.10588 -0.15146 -0.013674 -0.16138 0.051297 0.29227 0.1649 -0.10111 0.13295 -0.23618 0.078519 -0.35157 -0.0025712 0.28859 0.11842 0.2614 0.2435 0.17819 0.22237 -0.037729 -0.23502 0.27454 0.19305 -0.042468 0.011382 0.22368 -0.35801 -0.46939 0.1052 -0.023717 -0.052006 0.22843 -0.088343 -0.045775 -0.026222 -0.081877 0.1544 -0.085047 -0.62303 0.088043 -0.10997 0.17306 0.25878 -0.10596 0.28093 
char 0.13475 0.16973 -0.27301 -0.13159 -0.30448 -0.19428 -0.11552 0.095928 0.056713 -0.0063557 -0.22213 0.064022 0.19324 -0.23036 -0.2262 -0.16306 0.25551 -0.081611 0.06222 0.027016 0.87535 0.12709 -0.16937 -0.072133 -0.35701 0.041267 0.12337 -0.066105 -0.099892 0.040191 0.29883 -0.00025416 0.13647 -0.17674 -0.22139 0.2608 0.044342 -0.21257 -0.19567 0.064897 -0.13594 0.064588 0.025951 0.20658 0.083424 -0.16644 -0.23742 -0.063725 0.1414 -0.063149 -0.059353 -0.045513 -0.52358 0.057879 -0.31383 -0.098459 -0.1447 -0.011302 -0.14924 0.046088 0.26792 0.15119 -0.093016 0.12123 -0.21805 0.064498 -0.32997 -0.0043005 0.25252 0.10662 0.23944 0.2117 0.16159 0.1962 -0.040937 -0.21099 0.24646 0.1787 -0.041289 0.0016555 0.2092 -0.32729 -0.43139 0.092829 -0.02076 -0.04555 0.20174 -0.076736 -0.037181 -0.025595 -0.079278 0.14405 -0.071546 -0.57549 0.084504 -0.09714 0.163 0.2324 -0.10107 0.26566 
o 0.11018 0.16813 -0.22737 -0.13323 -0.24542 -0.21011 -0.1046 0.11418 0.073207 -0.038212 -0.2088 0.058984 0.14276 -0.16878 -0.21929 -0.15079 0.23605 -0.084815 0.030871 0.02441 1.5958 0.09905 -0.13738 -0.052619 -0.3199 0.050443 0.13486 -0.053025 -0.086128 0.046008 0.26441 -0.0078609 0.13331 -0.13765 -0.17514 0.21505 0.027408 -0.18086 -0.18201 0.041978 -0.090491 0.058989 -0.00027168 0.1627 0.072647 -0.14156 -0.19535 -0.043558 0.11416 -0.065777 -0.071388 0.0087714 -0.45923 0.062875 -0.28231 -0.075578 -0.13954 0.031415 -0.15105 0.047238 0.23541 0.13051 -0.05939 0.09866 -0.21045 0.072903 -0.28541 0.02725 0.20213 0.083623 0.20986 0.14568 0.14699 0.15902 -0.054632 -0.19262 0.18791 0.16982 -0.036859 0.024929 0.21535 -0.28318 -0.35903 0.10474 -0.029015 -0.044712 0.17778 -0.079251 -0.046214 -0.0084911 -0.060877 0.11789 -0.039411 -0.538 0.054786 -0.068713 0.13855 0.21676 -0.070335 0.2531 
qokchy 0.11109 0.20044 -0.25916 -0.22107 -0.29248 -0.29588 -0.17803 0.17225 0.076942 -0.019155 -0.31958 0.090027 0.19652 -0.19515 -0.3044 -0.15744 0.25135 -0.10339 0.074231 -0.013384 -0.37669 0.094509 -0.13973 -0.10413 -0.38564 0.08068 0.20769 -0.10047 -0.096128 0.10957 0.35796 -0.077362 0.15368 -0.12551 -0.19392 0.31039 0.054235 -0.2585 -0.2369 0.067724 -0.1047 0.133 -0.049079 0.15384 0.056987 -0.16128 -0.29884 -0.06321 0.12357 -0.0331 -0.07479 0.0054744 -0.62547 0.10863 -0.35333 -0.072089 -0.15103 0.019295 -0.18998 0.056586 0.32182 0.16644 -0.084697 0.10584 -0.26563 0.078088 -0.38883 0.067856 0.23203 0.10138 0.29282 0.14648 0.16558 0.22269 -0.089496 -0.25821 0.21616 0.27061 -0.069959 -0.002195 0.27056 -0.3647 -0.49589 0.10808 -0.10051 -0.051275 0.27241 -0.068335 -0.029635 -0.020176 -0.069333 0.14928 -0.060325 -0.64755 0.076387 -0.098616 0.20178 0.26647 -0.10059 0.3386 
sain 0.11125 0.19831 -0.24338 -0.21636 -0.26159 -0.28076 -0.18292 0.16983 0.091269 -0.021374 -0.31317 0.087755 0.15852 -0.15909 -0.2851 -0.15739 0.22509 -0.11216 0.050812 -0.0022494 0.58146 0.082328 -0.11848 -0.07672 -0.36311 0.080768 0.18515 -0.095729 -0.082522 0.097684 0.32101 -0.066776 0.15048 -0.11248 -0.17629 0.27021 0.042224 -0.25108 -0.23602 0.056782 -0.078201 0.12015 -0.058155 0.12215 0.06405 -0.16175 -0.26278 -0.069575 0.11251 -0.052057 -0.081477 0.038581 -0.5688 0.093007 -0.33189 -0.064291 -0.14638 0.03658 -0.18658 0.05749 0.28811 0.1518 -0.055829 0.093231 -0.25024 0.076028 -0.35458 0.065904 0.19613 0.089166 0.27624 0.10519 0.15896 0.19629 -0.095706 -0.23438 0.18384 0.25675 -0.057416 0.0056344 0.26726 -0.3437 -0.46383 0.11346 -0.087704 -0.037846 0.23041 -0.07449 -0.012679 -0.0098934 -0.062364 0.13574 -0.039275 -0.62717 0.066429 -0.08651 0.19836 0.25681 -0.090496 0.33706 
cho 0.1938 0.12906 -0.35222 -0.027027 -0.42104 -0.05817 -0.022188 -0.03764 0.0092867 0.023389 -0.089281 0.030345 0.28851 -0.3716 -0.16363 -0.18547 0.33859 -0.029824 0.072737 0.094999 0.8957 0.22535 -0.27925 -0.083234 -0.38949 -0.036687 0.022261 -0.038954 -0.14191 -0.048669 0.32789 0.10417 0.12471 -0.31281 -0.32984 0.28602 0.059175 -0.19394 -0.1444 0.094021 -0.26189 -0.0020332 0.16089 0.36634 0.13968 -0.23373 -0.23718 -0.068253 0.18933 -0.087559 -0.029706 -0.19265 -0.52296 -0.013796 -0.3269 -0.16873 -0.17642 -0.10215 -0.10924 0.033955 0.27815 0.17328 -0.15431 0.17856 -0.18141 0.034358 -0.33788 -0.11935 0.38546 0.17065 0.21719 0.44019 0.199 0.24894 0.039456 -0.19796 0.39766 0.091734 -0.011783 -0.0066949 0.14246 -0.34798 -0.46387 0.069108 0.083867 -0.046219 0.18909 -0.10192 -0.06171 -0.05646 -0.1061 0.17776 -0.13578 -0.56759 0.1306 -0.15737 0.14683 0.24877 -0.1307 0.20208 
okeol 0.1171 0.18285 -0.24336 -0.15613 -0.28514 -0.23275 -0.12164 0.13164 0.081567 -0.030124 -0.25911 0.079549 0.17772 -0.19947 -0.25901 -0.15872 0.25743 -0.10292 0.043034 0.018153 1.2747 0.10084 -0.1526 -0.07125 -0.37089 0.065538 0.16715 -0.076457 -0.093589 0.07218 0.3247 -0.032946 0.15089 -0.15768 -0.20197 0.26379 0.045212 -0.21977 -0.20901 0.071873 -0.11299 0.09231 -0.0055138 0.17061 0.078341 -0.15168 -0.25373 -0.05783 0.12563 -0.053264 -0.06993 -4.3217e-05 -0.53773 0.069163 -0.32554 -0.084897 -0.148 0.012875 -0.17205 0.049404 0.28482 0.15529 -0.078377 0.11374 -0.244 0.082525 -0.33545 0.037059 0.24758 0.097676 0.25369 0.17242 0.15626 0.20369 -0.063861 -0.24423 0.22142 0.20951 -0.057807 0.027463 0.23202 -0.32684 -0.44069 0.11077 -0.065591 -0.032376 0.21386 -0.069997 -0.031319 -0.013879 -0.075481 0.13818 -0.061758 -0.60551 0.061266 -0.08867 0.18049 0.24322 -0.090143 0.30186 
kaiin 0.13167 0.18379 -0.25937 -0.18386 -0.27647 -0.24009 -0.15972 0.12596 0.078243 -0.016038 -0.27375 0.075413 0.17009 -0.18829 -0.25519 -0.15785 0.23467 -0.093265 0.051821 0.0096053 0.84808 0.10577 -0.14058 -0.069731 -0.35257 0.058753 0.14303 -0.08336 -0.088115 0.06388 0.30368 -0.023614 0.1372 -0.13788 -0.19266 0.25758 0.034111 -0.23819 -0.21547 0.046728 -0.1037 0.08471 -0.020556 0.15981 0.0823 -0.17407 -0.24251 -0.069975 0.12232 -0.064969 -0.070597 0.0034564 -0.54233 0.067324 -0.3237 -0.078624 -0.14851 0.022821 -0.16728 0.050347 0.27843 0.14765 -0.063324 0.10335 -0.22937 0.064795 -0.3332 0.033744 0.21993 0.099876 0.25809 0.15202 0.16547 0.19442 -0.069906 -0.2104 0.20871 0.22306 -0.043621 0.0017696 0.24774 -0.33601 -0.44796 0.10654 -0.045604 -0.037272 0.21375 -0.090122 -0.016926 -0.010576 -0.066897 0.13031 -0.047692 -0.6145 0.076825 -0.093503 0.18317 0.24918 -0.095506 0.31437 
cheky 0.11357 0.20252 -0.26481 -0.20774 -0.28909 -0.27819 -0.16948 0.17107 0.084362 -0.016305 -0.31444 0.092162 0.1879 -0.19326 -0.2899 -0.16353 0.25478 -0.10897 0.062354 -0.002925 0.30458 0.10084 -0.14396 -0.091421 -0.3912 0.074938 0.19504 -0.099143 -0.09617 0.097688 0.34877 -0.065657 0.15761 -0.13612 -0.19463 0.29751 0.050878 -0.25161 -0.23823 0.064729 -0.10111 0.1242 -0.037773 0.15973 0.062895 -0.16834 -0.28091 -0.068983 0.12697 -0.046419 -0.079604 0.0078938 -0.60136 0.096814 -0.34896 -0.078372 -0.16018 0.019465 -0.19322 0.054325 0.30524 0.162 -0.079295 0.10582 -0.26477 0.076703 -0.38583 0.057538 0.22959 0.098897 0.2852 0.14223 0.16808 0.21363 -0.085036 -0.25686 0.21411 0.25668 -0.070016 0.0044473 0.26511 -0.36166 -0.48492 0.11563 -0.090099 -0.044924 0.24823 -0.069973 -0.030249 -0.018132 -0.074976 0.14796 -0.059678 -0.6513 0.070399 -0.090703 0.20249 0.26164 -0.10161 0.33035 
cheo 0.1195 0.1671 -0.2618 -0.14323 -0.29076 -0.19854 -0.10975 0.11136 0.066135 -0.010276 -0.24082 0.072202 0.18604 -0.21612 -0.22923 -0.15319 0.25648 -0.085876 0.049227 0.023146 1.3274 0.12117 -0.16608 -0.072828 -0.35341 0.038049 0.14411 -0.075904 -0.095397 0.056299 0.30848 -0.023846 0.13906 -0.17375 -0.21004 0.2566 0.049195 -0.21044 -0.19724 0.066639 -0.12445 0.082804 0.0077438 0.18892 0.080316 -0.16429 -0.24531 -0.068642 0.13273 -0.053536 -0.065214 -0.03623 -0.51597 0.055682 -0.31143 -0.096549 -0.15684 -0.011285 -0.15776 0.044647 0.26483 0.14682 -0.091234 0.11383 -0.22533 0.060011 -0.33874 0.014634 0.24785 0.098734 0.24039 0.19735 0.15721 0.20191 -0.054246 -0.22309 0.23637 0.18867 -0.05438 0.011754 0.21423 -0.32271 -0.43259 0.10292 -0.042323 -0.032452 0.19137 -0.064475 -0.034542 -0.025343 -0.079855 0.14108 -0.071085 -0.57171 0.072669 -0.098354 0.17428 0.22918 -0.098346 0.27442 
qotain 0.097419 0.20929 -0.22852 -0.24358 -0.23872 -0.32046 -0.20462 0.20318 0.095421 -0.027585 -0.35083 0.096046 0.14624 -0.13834 -0.30542 -0.15239 0.20992 -0.11939 0.061331 -0.023596 0.28287 0.070041 -0.097076 -0.085902 -0.35904 0.096831 0.21889 -0.10813 -0.079368 0.12615 0.32453 -0.097656 0.15263 -0.081835 -0.15329 0.27936 0.043401 -0.25546 -0.24167 0.049193 -0.053213 0.14214 -0.085463 0.094557 0.045784 -0.1467 -0.27714 -0.067733 0.10649 -0.038561 -0.085628 0.065032 -0.58953 0.11843 -0.33508 -0.049099 -0.13768 0.052116 -0.19844 0.058882 0.29754 0.15133 -0.048882 0.081771 -0.26432 0.084648 -0.36585 0.098131 0.17497 0.077722 0.28571 0.062344 0.15394 0.1942 -0.11534 -0.24753 0.15322 0.284 -0.069274 0.0028347 0.28615 -0.34509 -0.46665 0.11644 -0.11385 -0.047896 0.25256 -0.065537 -0.015546 -0.0055132 -0.056578 0.13373 -0.032719 -0.63504 0.057955 -0.074414 0.20203 0.25435 -0.088736 0.35081 
qotar 0.099111 0.21823 -0.2397 -0.24 -0.24709 -0.3353 -0.20035 0.20854 0.093749 -0.030771 -0.35838 0.099773 0.1542 -0.15541 -0.31545 -0.16248 0.22448 -0.12628 0.067535 -0.027779 0.26591 0.075503 -0.10877 -0.090966 -0.37423 0.098056 0.23026 -0.10301 -0.085773 0.1298 0.33295 -0.095237 0.16265 -0.089405 -0.16139 0.29024 0.047347 -0.25998 -0.24958 0.054332 -0.058578 0.14162 -0.077995 0.10842 0.043894 -0.14272 -0.28604 -0.064012 0.11522 -0.037595 -0.08642 0.060138 -0.60979 0.12926 -0.34585 -0.055022 -0.13707 0.056693 -0.20268 0.062255 0.31173 0.15644 -0.059177 0.088298 -0.27209 0.094444 -0.37581 0.10114 0.18504 0.078849 0.2944 0.07163 0.15635 0.20196 -0.11124 -0.25948 0.16176 0.28615 -0.074996 0.0019572 0.29278 -0.35589 -0.47536 0.12035 -0.11732 -0.056305 0.26759 -0.064955 -0.030031 -0.0063533 -0.06046 0.1376 -0.035847 -0.65668 0.05955 -0.072609 0.19969 0.25392 -0.089199 0.34937 
okey 0.084771 0.22147 -0.22773 -0.2549 -0.24328 -0.33687 -0.1966 0.23014 0.10718 -0.040748 -0.3649 0.11107 0.14138 -0.12997 -0.324 -0.15583 0.23373 -0.13831 0.046113 -0.021518 0.42154 0.057834 -0.10928 -0.077616 -0.38254 0.10567 0.25169 -0.10659 -0.089536 0.13709 0.34328 -0.11482 0.16871 -0.085697 -0.14916 0.28183 0.043409 -0.25741 -0.25837 0.053641 -0.046689 0.162 -0.098742 0.093809 0.051005 -0.13468 -0.2809 -0.061462 0.11205 -0.04572 -0.09996 0.081494 -0.59663 0.13113 -0.34756 -0.049358 -0.15526 0.066318 -0.22006 0.058978 0.31047 0.15711 -0.045632 0.079204 -0.28561 0.091996 -0.37828 0.11731 0.17828 0.069731 0.2896 0.054058 0.15302 0.20017 -0.12943 -0.26942 0.15392 0.28883 -0.07996 0.02439 0.30316 -0.34647 -0.46891 0.1343 -0.14082 -0.029982 0.24825 -0.068731 -0.022823 -0.0073704 -0.068474 0.13148 -0.033855 -0.66935 0.044026 -0.068014 0.20104 0.25624 -0.084006 0.36805 
qotchy 0.11974 0.19288 -0.27083 -0.20009 -0.30106 -0.27937 -0.16383 0.15369 0.0674 -0.015276 -0.29879 0.083509 0.20319 -0.21421 -0.29496 -0.1649 0.25999 -0.099416 0.07627 -0.0052917 -0.42306 0.11134 -0.15536 -0.10173 -0.3894 0.067018 0.18917 -0.094121 -0.10464 0.096364 0.35401 -0.060197 0.15462 -0.14249 -0.20554 0.30898 0.054431 -0.25499 -0.22611 0.068765 -0.11498 0.11992 -0.028356 0.17688 0.065105 -0.17148 -0.2947 -0.064589 0.13294 -0.040798 -0.072264 -0.011212 -0.62138 0.099707 -0.35191 -0.08085 -0.14825 0.0096749 -0.18568 0.056248 0.32093 0.16702 -0.091053 0.10986 -0.25992 0.076656 -0.38761 0.052036 0.24212 0.10855 0.28739 0.17386 0.17142 0.22913 -0.077099 -0.25467 0.23342 0.25388 -0.063577 -0.0047801 0.26413 -0.36753 -0.4967 0.10274 -0.082345 -0.055662 0.27181 -0.0749 -0.035893 -0.021583 -0.071489 0.15106 -0.066489 -0.64883 0.081566 -0.10172 0.19343 0.26366 -0.10357 0.32103 
cthol 0.15128 0.14981 -0.28716 -0.09018 -0.34717 -0.14614 -0.081774 0.045001 0.045023 0.0020672 -0.17212 0.051811 0.23131 -0.27815 -0.21631 -0.16754 0.28475 -0.064673 0.063948 0.051797 0.43427 0.15617 -0.20726 -0.086107 -0.37173 0.017265 0.090293 -0.057743 -0.10951 0.015657 0.32507 0.030901 0.13403 -0.22364 -0.26355 0.27797 0.052253 -0.20998 -0.17298 0.081565 -0.18703 0.044912 0.073953 0.25648 0.10306 -0.19092 -0.2489 -0.062639 0.14873 -0.056293 -0.040968 -0.096612 -0.53474 0.029966 -0.32471 -0.12314 -0.15064 -0.049496 -0.1315 0.041566 0.27953 0.16528 -0.11832 0.14291 -0.20566 0.057351 -0.32847 -0.044139 0.31098 0.13539 0.23831 0.30216 0.17653 0.22475 -0.005098 -0.2162 0.30935 0.1566 -0.030363 -0.0016317 0.1812 -0.3344 -0.45416 0.078144 0.0046231 -0.045292 0.20842 -0.079609 -0.038675 -0.032893 -0.083004 0.15812 -0.097298 -0.571 0.10065 -0.12485 0.16652 0.247 -0.11273 0.24623 
shckhy 0.11241 0.20332 -0.25202 -0.2084 -0.28873 -0.2934 -0.17464 0.17466 0.084933 -0.02393 -0.31252 0.088898 0.18126 -0.1878 -0.30262 -0.16385 0.24659 -0.11298 0.064424 -0.0069934 -0.14085 0.088914 -0.13852 -0.091114 -0.38775 0.078592 0.20141 -0.098276 -0.096921 0.10998 0.35171 -0.069818 0.15942 -0.12656 -0.19198 0.29137 0.050124 -0.25678 -0.23529 0.066509 -0.09804 0.12532 -0.046922 0.14633 0.06728 -0.16132 -0.2861 -0.065228 0.1222 -0.041512 -0.082882 0.021736 -0.6107 0.1023 -0.34968 -0.071552 -0.155 0.029096 -0.19191 0.057933 0.31467 0.16408 -0.078444 0.10176 -0.26685 0.081527 -0.38066 0.063194 0.22105 0.099517 0.29002 0.1393 0.1667 0.2178 -0.088502 -0.25803 0.21362 0.26308 -0.065395 0.0064526 0.27208 -0.36389 -0.48862 0.11304 -0.098902 -0.046087 0.25717 -0.075925 -0.026936 -0.016689 -0.067612 0.14904 -0.055552 -0.65495 0.069258 -0.089884 0.20109 0.26514 -0.095713 0.33603 
odaiin 0.13719 0.172 -0.26292 -0.15523 -0.28832 -0.21608 -0.12733 0.10093 0.065101 -0.016602 -0.24093 0.063267 0.17621 -0.2088 -0.23504 -0.16072 0.2444 -0.081173 0.054073 0.023688 1.1398 0.12077 -0.15994 -0.062896 -0.34808 0.046268 0.12052 -0.068224 -0.092344 0.04787 0.297 -0.00031926 0.13281 -0.15922 -0.20599 0.24915 0.034853 -0.21953 -0.19629 0.053097 -0.11857 0.067471 0.0063323 0.19093 0.085569 -0.17662 -0.22886 -0.065131 0.12901 -0.072186 -0.063382 -0.019117 -0.51968 0.058588 -0.31109 -0.088109 -0.14771 0.01136 -0.15728 0.049269 0.27138 0.14518 -0.075606 0.11004 -0.22149 0.063488 -0.32316 0.011836 0.23488 0.10752 0.24507 0.18659 0.165 0.19294 -0.05369 -0.20393 0.22452 0.19207 -0.034951 0.0059541 0.22823 -0.32529 -0.42572 0.10117 -0.023686 -0.044047 0.20448 -0.088888 -0.031593 -0.015418 -0.064417 0.12863 -0.056259 -0.59761 0.075642 -0.094795 0.16439 0.23885 -0.095376 0.28725 
qotal 0.10004 0.21382 -0.23918 -0.23745 -0.25475 -0.32903 -0.19795 0.20629 0.095414 -0.029976 -0.35527 0.097531 0.16076 -0.15816 -0.31955 -0.16208 0.22589 -0.12451 0.068257 -0.025696 0.20563 0.075849 -0.10902 -0.09418 -0.37626 0.099617 0.2286 -0.10539 -0.084332 0.12949 0.34139 -0.096873 0.16346 -0.092386 -0.16324 0.29567 0.048031 -0.26096 -0.24643 0.057487 -0.063549 0.14304 -0.075815 0.11396 0.046012 -0.14974 -0.28793 -0.06356 0.11207 -0.036624 -0.084954 0.057924 -0.6143 0.12469 -0.34893 -0.057579 -0.1353 0.05131 -0.20237 0.062154 0.31067 0.15869 -0.061142 0.091337 -0.27562 0.093361 -0.38 0.09733 0.19136 0.083491 0.29592 0.079326 0.15822 0.20554 -0.1087 -0.26396 0.16806 0.28657 -0.075802 0.0049442 0.29017 -0.35603 -0.48007 0.11836 -0.11599 -0.056635 0.2689 -0.065216 -0.024639 -0.008446 -0.062122 0.14281 -0.037088 -0.65942 0.060184 -0.077853 0.20414 0.26125 -0.090734 0.3527 
cheedy 0.053882 0.25132 -0.20299 -0.34239 -0.19516 -0.43467 -0.27018 0.3163 0.12661 -0.035449 -0.47463 0.12826 0.11955 -0.068434 -0.37487 -0.14734 0.1939 -0.15887 0.068059 -0.075364 -0.15054 0.024411 -0.047032 -0.10589 -0.38197 0.14729 0.31735 -0.14028 -0.062108 0.20897 0.36422 -0.19429 0.17567 -0.013565 -0.10512 0.31666 0.052694 -0.29366 -0.29453 0.043365 0.0079963 0.2247 -0.17675 0.019627 0.0039137 -0.11841 -0.32253 -0.063601 0.087281 -0.0026097 -0.10915 0.13932 -0.66513 0.18525 -0.36675 -0.019526 -0.14161 0.094611 -0.24835 0.071877 0.33517 0.15498 -0.029798 0.055997 -0.31785 0.099029 -0.42301 0.18717 0.1194 0.049413 0.33052 -0.060774 0.14689 0.19033 -0.1728 -0.30082 0.08538 0.37297 -0.11303 -0.0010812 0.35277 -0.37014 -0.50446 0.14 -0.21135 -0.05343 0.29963 -0.042352 -0.015235 0.0033623 -0.04966 0.13038 -0.017132 -0.69426 0.033789 -0.046602 0.233 0.26896 -0.082705 0.41692 
ykeey 0.090788 0.19918 -0.2334 -0.22154 -0.25355 -0.28922 -0.17389 0.19011 0.093254 -0.030035 -0.32086 0.099604 0.15166 -0.15094 -0.28925 -0.14575 0.22978 -0.11828 0.052898 -0.010624 0.30295 0.069211 -0.12395 -0.074567 -0.36409 0.082764 0.21244 -0.098656 -0.086153 0.11273 0.32673 -0.08842 0.15446 -0.1077 -0.16219 0.26922 0.043085 -0.23888 -0.23507 0.052765 -0.067994 0.1379 -0.069794 0.11608 0.057693 -0.1431 -0.26752 -0.068695 0.11244 -0.046214 -0.089923 0.045621 -0.56456 0.10745 -0.3306 -0.060672 -0.15547 0.0436 -0.19724 0.048893 0.28769 0.14754 -0.056667 0.080057 -0.25782 0.079318 -0.36063 0.08522 0.19315 0.076564 0.27322 0.089127 0.15217 0.19512 -0.10786 -0.24619 0.17945 0.25487 -0.073744 0.018378 0.27119 -0.33273 -0.45096 0.11649 -0.11442 -0.028939 0.22782 -0.063028 -0.023056 -0.013803 -0.069841 0.13439 -0.043396 -0.6221 0.055915 -0.076782 0.18898 0.24357 -0.085836 0.33077 
sor 0.13618 0.17948 -0.26997 -0.14372 -0.30557 -0.22323 -0.11982 0.10804 0.070443 -0.015221 -0.23483 0.072838 0.19578 -0.23021 -0.25067 -0.1659 0.25675 -0.089746 0.054096 0.024966 0.63491 0.12398 -0.17153 -0.074608 -0.37678 0.049914 0.14306 -0.072331 -0.10165 0.05593 0.31892 -0.016203 0.14457 -0.1727 -0.22961 0.27043 0.052619 -0.22938 -0.2069 0.073587 -0.13752 0.075025 0.015336 0.19718 0.085686 -0.16747 -0.25709 -0.063489 0.13934 -0.05606 -0.059844 -0.032395 -0.55522 0.069121 -0.3361 -0.097337 -0.14592 -0.0023857 -0.1652 0.049253 0.28454 0.16303 -0.09325 0.12144 -0.23518 0.074532 -0.34488 0.012625 0.26193 0.10854 0.25907 0.20908 0.16595 0.21146 -0.04802 -0.23191 0.24872 0.20189 -0.04456 0.010186 0.22719 -0.34632 -0.45562 0.10479 -0.03948 -0.046504 0.22359 -0.082214 -0.037296 -0.020608 -0.076417 0.14683 -0.071147 -0.60871 0.079941 -0.097544 0.17762 0.25066 -0.10058 0.28216 
oly 0.10435 0.23704 -0.25649 -0.26304 -0.28615 -0.36124 -0.21448 0.2254 0.1094 -0.038903 -0.38354 0.10634 0.17401 -0.16731 -0.34683 -0.17866 0.2582 -0.14189 0.064401 -0.022476 -0.10459 0.075208 -0.12099 -0.09795 -0.42475 0.11155 0.24957 -0.10833 -0.096222 0.14197 0.37722 -0.10116 0.17917 -0.10565 -0.18532 0.32675 0.049252 -0.28358 -0.27517 0.064726 -0.07466 0.16008 -0.080877 0.12806 0.053245 -0.16281 -0.31222 -0.058744 0.12808 -0.042535 -0.099046 0.070051 -0.67585 0.13501 -0.3881 -0.062527 -0.15771 0.060993 -0.22541 0.066271 0.34385 0.17597 -0.061276 0.098276 -0.30257 0.10452 -0.41455 0.10473 0.21619 0.093689 0.32377 0.087146 0.17822 0.22516 -0.11884 -0.29289 0.19344 0.31274 -0.079467 0.016493 0.32213 -0.39298 -0.5245 0.1337 -0.13521 -0.049128 0.28909 -0.079912 -0.027849 -0.0044296 -0.067019 0.15569 -0.043259 -0.72654 0.061464 -0.082307 0.22125 0.2933 -0.099085 0.38698 
qokchdy 0.0923 0.22587 -0.24107 -0.27676 -0.25754 -0.36963 -0.21879 0.2355 0.095233 -0.026819 -0.38753 0.10461 0.16623 -0.14974 -0.34036 -0.15604 0.22781 -0.12745 0.07822 -0.046369 -0.45999 0.067428 -0.10264 -0.1129 -0.39083 0.11336 0.25329 -0.11499 -0.080807 0.15711 0.36673 -0.12364 0.16406 -0.076449 -0.15647 0.32078 0.052962 -0.27683 -0.26166 0.057699 -0.05735 0.16851 -0.10301 0.10565 0.030994 -0.14427 -0.31295 -0.055954 0.11002 -0.015623 -0.087001 0.060671 -0.65804 0.14707 -0.36565 -0.049079 -0.14222 0.055721 -0.21245 0.065906 0.3389 0.1637 -0.061061 0.08876 -0.29251 0.094028 -0.40929 0.1234 0.18697 0.082337 0.31678 0.059849 0.16161 0.21552 -0.12254 -0.27851 0.1607 0.32069 -0.087765 0.0014156 0.31036 -0.37379 -0.50681 0.11947 -0.14901 -0.059483 0.30387 -0.059456 -0.029659 -0.010798 -0.058261 0.14292 -0.042829 -0.68438 0.060761 -0.075646 0.21476 0.2733 -0.088994 0.37724 
otey 0.093715 0.20938 -0.23775 -0.22119 -0.24677 -0.3128 -0.17132 0.19641 0.091775 -0.037777 -0.3277 0.09057 0.13989 -0.15035 -0.29921 -0.15956 0.2346 -0.12394 0.052894 -0.016209 0.56839 0.078873 -0.12946 -0.075643 -0.36774 0.085087 0.2173 -0.090239 -0.09649 0.11396 0.31871 -0.079814 0.16649 -0.1018 -0.15731 0.26961 0.038669 -0.23921 -0.23732 0.044341 -0.058911 0.13297 -0.064569 0.12563 0.057589 -0.14449 -0.25807 -0.056081 0.12241 -0.057624 -0.098718 0.061118 -0.57365 0.1146 -0.33524 -0.059861 -0.15056 0.059278 -0.20562 0.058476 0.29587 0.15184 -0.05577 0.084517 -0.26373 0.090663 -0.36345 0.09447 0.1785 0.080608 0.27733 0.083839 0.15621 0.19322 -0.10883 -0.24782 0.17416 0.25688 -0.06815 0.022409 0.28759 -0.33342 -0.44759 0.12519 -0.10383 -0.040845 0.23804 -0.073539 -0.040262 -0.0075663 -0.062143 0.12836 -0.035353 -0.65411 0.051518 -0.067289 0.1791 0.2489 -0.076694 0.32834 
shody 0.11427 0.20066 -0.25724 -0.20389 -0.29008 -0.29267 -0.16091 0.16573 0.076219 -0.021576 -0.30605 0.085228 0.18258 -0.19435 -0.29594 -0.16251 0.25184 -0.10641 0.069723 -0.013735 -0.26439 0.1004 -0.14532 -0.094691 -0.38255 0.074912 0.19235 -0.090338 -0.096904 0.10931 0.34881 -0.067909 0.15736 -0.13447 -0.19517 0.29881 0.05336 -0.255 -0.22824 0.06697 -0.10077 0.11991 -0.038711 0.16741 0.064665 -0.16683 -0.28295 -0.055351 0.12357 -0.038381 -0.076116 0.0073807 -0.60942 0.10974 -0.34821 -0.08159 -0.15069 0.022367 -0.18549 0.059211 0.32491 0.16013 -0.08417 0.10561 -0.26461 0.081129 -0.38101 0.067909 0.22917 0.10419 0.28969 0.14821 0.16781 0.22135 -0.084282 -0.25932 0.21416 0.25645 -0.065767 0.0048952 0.27268 -0.35857 -0.48283 0.10799 -0.091341 -0.056068 0.26769 -0.073249 -0.043111 -0.019026 -0.062629 0.14495 -0.064525 -0.65447 0.070542 -0.089342 0.18999 0.26038 -0.089163 0.32718 
sal 0.10846 0.18628 -0.24344 -0.17236 -0.26983 -0.25005 -0.14774 0.14856 0.085538 -0.025472 -0.28031 0.078835 0.16938 -0.18273 -0.2704 -0.15829 0.23401 -0.10676 0.051321 0.0027788 0.61164 0.090734 -0.13677 -0.078306 -0.36254 0.07246 0.1745 -0.07933 -0.086484 0.08555 0.31754 -0.045029 0.14791 -0.13468 -0.1862 0.2666 0.046018 -0.23512 -0.21779 0.063234 -0.09678 0.10003 -0.024135 0.15408 0.066309 -0.15648 -0.25129 -0.058433 0.11693 -0.05041 -0.07371 0.014857 -0.55293 0.086888 -0.32208 -0.074827 -0.13926 0.022399 -0.17092 0.059066 0.28015 0.14912 -0.072166 0.10426 -0.24519 0.078629 -0.34312 0.047559 0.21713 0.096402 0.26316 0.13858 0.15509 0.19721 -0.070165 -0.23164 0.20284 0.22632 -0.060024 0.014912 0.24397 -0.33195 -0.44661 0.10824 -0.069794 -0.046914 0.22727 -0.068098 -0.026895 -0.011226 -0.066604 0.14091 -0.049959 -0.60789 0.070691 -0.081849 0.18664 0.24497 -0.087856 0.30491 
keedy 0.036093 0.27652 -0.18544 -0.3945 -0.17392 -0.50374 -0.30932 0.37039 0.14331 -0.048903 -0.53491 0.14294 0.099065 -0.032641 -0.42159 -0.14703 0.1805 -0.18248 0.070252 -0.1014 -0.62668 -0.0032057 -0.019861 -0.11173 -0.39558 0.17846 0.3658 -0.15567 -0.055384 0.25209 0.38224 -0.24055 0.19063 0.027051 -0.074746 0.3318 0.049317 -0.31539 -0.32074 0.036398 0.044725 0.26347 -0.22499 -0.02216 -0.0087657 -0.10814 -0.34589 -0.056601 0.076585 0.0041188 -0.12295 0.19343 -0.70882 0.22227 -0.38535 0.0017901 -0.13682 0.12883 -0.27623 0.077798 0.36058 0.16036 -0.013505 0.042062 -0.34776 0.11562 -0.44611 0.23915 0.088796 0.040219 0.3577 -0.1261 0.14428 0.19028 -0.20628 -0.32526 0.045722 0.42119 -0.12808 0.0038736 0.39349 -0.38353 -0.52575 0.151 -0.2587 -0.057169 0.33598 -0.041601 -0.012649 0.010522 -0.042847 0.12839 -0.0012489 -0.74046 0.021166 -0.035942 0.24642 0.28366 -0.069263 0.46034 
olaiin 0.12748 0.18668 -0.25499 -0.1842 -0.278 -0.24835 -0.15761 0.13396 0.081498 -0.019815 -0.27904 0.076601 0.16752 -0.18649 -0.25836 -0.16155 0.24067 -0.098493 0.052364 0.011693 0.95408 0.10265 -0.13944 -0.069757 -0.36132 0.066366 0.1528 -0.080711 -0.087144 0.070493 0.30974 -0.030076 0.14502 -0.13752 -0.19452 0.26219 0.036581 -0.23563 -0.21777 0.053112 -0.10298 0.090723 -0.022983 0.16105 0.077869 -0.16739 -0.24622 -0.067758 0.12366 -0.064079 -0.072824 0.011898 -0.5478 0.072754 -0.32829 -0.079586 -0.14764 0.026769 -0.17159 0.052121 0.28201 0.15108 -0.066735 0.10136 -0.23549 0.072461 -0.33765 0.039465 0.22021 0.09949 0.26181 0.14735 0.16636 0.19277 -0.074045 -0.22278 0.20708 0.22447 -0.046145 0.0083288 0.24958 -0.33652 -0.44575 0.11008 -0.053739 -0.041336 0.21782 -0.086131 -0.02208 -0.011253 -0.065502 0.13272 -0.046562 -0.61776 0.07345 -0.089904 0.18173 0.25181 -0.094676 0.31651 
qokeol 0.096755 0.20648 -0.22902 -0.22716 -0.26094 -0.31098 -0.17913 0.19781 0.097444 -0.030788 -0.34507 0.1017 0.16851 -0.15972 -0.31059 -0.15108 0.23595 -0.12182 0.057053 -0.016816 0.51292 0.070442 -0.11489 -0.091732 -0.37861 0.098367 0.23098 -0.10637 -0.080043 0.12895 0.35247 -0.097823 0.16178 -0.10774 -0.17078 0.29174 0.052325 -0.25296 -0.24143 0.067801 -0.074106 0.14545 -0.071126 0.10961 0.050722 -0.14048 -0.29678 -0.067135 0.111 -0.027073 -0.079742 0.045717 -0.59972 0.11013 -0.34709 -0.062709 -0.14197 0.036845 -0.19913 0.057771 0.31063 0.16121 -0.068879 0.093706 -0.27403 0.089407 -0.37443 0.094234 0.21389 0.082604 0.29129 0.096841 0.15287 0.20997 -0.10416 -0.27303 0.18005 0.27814 -0.080302 0.017519 0.27628 -0.34895 -0.4817 0.1176 -0.12765 -0.041182 0.25636 -0.055252 -0.021392 -0.0084967 -0.067025 0.1436 -0.049398 -0.6404 0.054793 -0.081605 0.21013 0.25781 -0.092593 0.35382 
kar 0.11635 0.19799 -0.25129 -0.18933 -0.26226 -0.27817 -0.16781 0.15932 0.08092 -0.029076 -0.29615 0.086382 0.16464 -0.1803 -0.27589 -0.16062 0.23123 -0.10993 0.05497 -0.0028612 0.7237 0.087699 -0.12766 -0.071628 -0.36562 0.074791 0.17605 -0.08558 -0.085285 0.083736 0.3017 -0.043977 0.14758 -0.12426 -0.18403 0.2686 0.041211 -0.2389 -0.22778 0.05837 -0.087025 0.099933 -0.033236 0.13811 0.068064 -0.15156 -0.2558 -0.060106 0.12592 -0.055599 -0.077259 0.024744 -0.55931 0.098539 -0.32761 -0.066706 -0.13828 0.041202 -0.17868 0.057093 0.28231 0.15397 -0.065011 0.1047 -0.247 0.083477 -0.34369 0.055308 0.20933 0.084102 0.26405 0.1218 0.15993 0.18864 -0.077337 -0.23341 0.19176 0.23729 -0.057781 0.012605 0.25529 -0.3416 -0.44498 0.11544 -0.070508 -0.045379 0.22799 -0.077523 -0.02707 -0.0075975 -0.069346 0.13263 -0.041439 -0.62038 0.067275 -0.077125 0.17893 0.24286 -0.089623 0.31135 
sheor 0.1149 0.19032 -0.24447 -0.17431 -0.27839 -0.2525 -0.14219 0.1472 0.081724 -0.021586 -0.27747 0.081965 0.17403 -0.1893 -0.27211 -0.15701 0.24553 -0.10463 0.047472 0.0058798 0.70192 0.093816 -0.14353 -0.079726 -0.36635 0.067075 0.17753 -0.088031 -0.089382 0.088591 0.32545 -0.055713 0.14866 -0.14466 -0.19851 0.26463 0.050968 -0.2342 -0.21606 0.069836 -0.1021 0.097881 -0.026852 0.15184 0.070791 -0.1573 -0.26381 -0.065596 0.12183 -0.045324 -0.073326 0.0062388 -0.55777 0.082392 -0.333 -0.082555 -0.15189 0.017923 -0.17716 0.051377 0.289 0.15596 -0.080221 0.10396 -0.24752 0.080129 -0.35398 0.046451 0.22601 0.093833 0.2686 0.15034 0.15623 0.20598 -0.076335 -0.24029 0.21579 0.23144 -0.056105 0.014085 0.24813 -0.34069 -0.45535 0.11375 -0.077825 -0.041413 0.22414 -0.067256 -0.029485 -0.017177 -0.067242 0.14056 -0.055075 -0.60897 0.064765 -0.086688 0.18939 0.24372 -0.091598 0.30845 
