980 100
</s> -0.090157 -0.084078 0.15844 0.11967 0.009479 0.019532 -0.38641 -0.2031 -0.25848 -0.19274 -0.25535 -0.1546 0.065221 0.075753 -0.093198 -0.16021 -0.065174 -0.0048682 0.16698 -0.097038 0.27107 0.044341 0.029672 -0.25697 -0.29388 0.2223 0.083057 -0.14863 -0.19908 0.16121 0.10751 -0.53256 0.073651 0.26883 -0.14061 0.2382 0.094241 -0.016747 -0.24311 0.1609 -0.3664 0.24468 -0.2175 0.1203 -0.04667 0.090488 -0.28034 -0.040767 -0.029581 0.099443 -0.21162 0.064473 -0.43666 -0.080472 -0.19673 -0.073409 -0.055046 0.10572 -0.037875 0.15191 -0.0023314 -0.0016409 0.2993 -0.13962 0.029979 -0.073797 -0.077153 0.26703 0.19749 0.32417 0.13506 0.012602 -0.067308 0.27309 0.13164 -0.01373 0.26786 0.18671 0.096941 -0.19577 0.027515 -0.07654 -0.10986 -0.027884 -0.10472 -0.19569 0.11699 0.136 -0.15741 -0.30277 0.28015 0.11241 0.28639 -0.18859 0.57535 -0.24735 0.16743 -0.22279 -0.082039 0.19471 
daiin -0.055326 -0.09327 0.14257 0.18391 0.0091962 0.062129 -0.45952 -0.2425 -0.27821 -0.20462 -0.23593 -0.18703 0.077101 0.069735 -0.083842 -0.17321 -0.051264 0.0087978 0.13588 -0.057551 0.24547 0.056809 0.006465 -0.24125 -0.31633 0.20449 0.063974 -0.13312 -0.2044 0.12536 0.099727 -0.49289 0.096795 0.23185 -0.15032 0.24397 0.11343 -0.024111 -0.24922 0.15231 -0.38986 0.20532 -0.18037 0.1826 -0.017591 0.066702 -0.28285 -0.071607 -0.044449 0.078435 -0.21011 0.053269 -0.42763 -0.11898 -0.16114 -0.10844 -0.085667 0.099824 -0.039266 0.13765 0.014773 -0.0063854 0.29208 -0.14016 0.028793 -0.10723 -0.041598 0.23317 0.20258 0.33924 0.095351 0.059041 -0.066415 0.29299 0.13626 -0.013157 0.2954 0.17803 0.12429 -0.1868 0.0032485 -0.071764 -0.1018 -0.022667 -0.093472 -0.18529 0.13835 0.10809 -0.15334 -0.31581 0.30736 0.12211 0.27683 -0.22956 0.59287 -0.24548 0.16525 -0.2412 -0.08364 0.18418 
ol -0.08005 -0.093112 0.16875 0.13896 0.0031946 0.028953 -0.39102 -0.2064 -0.24067 -0.19493 -0.23749 -0.16167 0.066411 0.061926 -0.09054 -0.16162 -0.068854 -0.0063202 0.14851 -0.087651 0.25282 0.030441 0.02296 -0.24429 -0.30251 0.21383 0.088597 -0.14206 -0.20049 0.15503 0.10851 -0.51567 0.079512 0.24606 -0.14854 0.22847 0.091614 -0.0016765 -0.23159 0.15701 -0.36806 0.2286 -0.20189 0.11335 -0.048637 0.088929 -0.27808 -0.042617 -0.026425 0.10248 -0.19766 0.057741 -0.41483 -0.097436 -0.18304 -0.083148 -0.048575 0.095352 -0.040919 0.14344 -0.0057469 -0.011394 0.29189 -0.13854 0.032562 -0.070443 -0.063434 0.24641 0.20176 0.32183 0.12291 0.036275 -0.054517 0.26131 0.13016 -0.010292 0.27684 0.17693 0.10257 -0.18007 0.016025 -0.073286 -0.10879 -0.029222 -0.10529 -0.18721 0.11106 0.14545 -0.1441 -0.30085 0.27334 0.11555 0.27598 -0.18428 0.55895 -0.23273 0.16951 -0.2179 -0.077309 0.19455 
chedy -0.18594 -0.052799 0.18729 -0.11601 0.041569 -0.12528 -0.2686 -0.10794 -0.2315 -0.14485 -0.35774 -0.079164 0.025693 0.11655 -0.11492 -0.12134 -0.1099 -0.017382 0.24294 -0.21742 0.37883 0.0016616 0.080589 -0.30275 -0.22736 0.26428 0.11622 -0.21921 -0.17454 0.23246 0.10311 -0.64914 0.0095061 0.39963 -0.07047 0.254 0.053794 -0.016498 -0.24007 0.15954 -0.30958 0.3725 -0.32869 -0.052332 -0.12994 0.12102 -0.26599 0.052389 0.032702 0.16118 -0.2137 0.086313 -0.46853 0.037773 -0.30429 0.017565 0.01405 0.14533 -0.032254 0.1822 -0.020484 0.0031599 0.33226 -0.12229 0.035578 -0.023199 -0.15835 0.37557 0.16844 0.28062 0.2643 -0.13408 -0.065201 0.21161 0.11415 -0.010062 0.16647 0.23896 0.035457 -0.25898 0.15563 -0.10804 -0.14508 -0.037846 -0.10808 -0.2482 0.085069 0.19558 -0.17748 -0.25385 0.2193 0.049297 0.32474 -0.097018 0.51661 -0.23539 0.19574 -0.17565 -0.093723 0.24367 
aiin -0.059332 -0.089536 0.14105 0.17142 0.009132 0.05863 -0.46024 -0.23795 -0.27421 -0.20325 -0.24306 -0.18179 0.073208 0.072661 -0.083793 -0.16814 -0.048261 0.0088705 0.13503 -0.063316 0.24515 0.051937 0.0058966 -0.24485 -0.31217 0.20319 0.063783 -0.13662 -0.20087 0.12628 0.092639 -0.48645 0.090128 0.23358 -0.1435 0.23949 0.10953 -0.031162 -0.25172 0.14721 -0.38374 0.20859 -0.17862 0.1705 -0.014533 0.062289 -0.27452 -0.070695 -0.039237 0.081553 -0.21032 0.05501 -0.42457 -0.11446 -0.16811 -0.104 -0.086281 0.10058 -0.040677 0.13512 0.016986 -0.0096763 0.28379 -0.13743 0.02961 -0.10696 -0.042008 0.23652 0.19948 0.33089 0.099854 0.050167 -0.065364 0.28886 0.12443 -0.011953 0.28753 0.17386 0.11958 -0.18679 0.013629 -0.076872 -0.10783 -0.021451 -0.090057 -0.18361 0.13195 0.10779 -0.15083 -0.30608 0.29978 0.11681 0.27779 -0.23075 0.58164 -0.24189 0.17042 -0.23824 -0.083623 0.18555 
shedy -0.18288 -0.054822 0.19786 -0.10591 0.036549 -0.1202 -0.2896 -0.12117 -0.23731 -0.14931 -0.35511 -0.087501 0.026141 0.11956 -0.12199 -0.12498 -0.10903 -0.015204 0.24407 -0.21372 0.38153 -0.0020351 0.078889 -0.31068 -0.22819 0.26928 0.1167 -0.21851 -0.17506 0.23979 0.10477 -0.65684 0.0062822 0.40286 -0.075814 0.25549 0.051369 -0.018135 -0.23966 0.16651 -0.32073 0.3689 -0.33378 -0.053318 -0.12741 0.11772 -0.27925 0.05434 0.029077 0.1636 -0.22063 0.086025 -0.47734 0.031738 -0.30905 0.0099302 0.014957 0.14891 -0.033638 0.18657 -0.012504 0.0011954 0.33551 -0.13025 0.038646 -0.018086 -0.15652 0.37912 0.17645 0.29269 0.26408 -0.1263 -0.066639 0.21864 0.12255 -0.0051111 0.17739 0.24088 0.040705 -0.26372 0.15749 -0.10577 -0.14782 -0.037831 -0.11545 -0.25201 0.095918 0.19752 -0.17305 -0.2554 0.2307 0.05725 0.33264 -0.099086 0.52895 -0.23965 0.19836 -0.18239 -0.089599 0.2444 
chol -0.02456 -0.10078 0.1513 0.28192 -0.0037065 0.10775 -0.45348 -0.2609 -0.27256 -0.2145 -0.16372 -0.20607 0.093544 0.038331 -0.073363 -0.19273 -0.040395 0.006135 0.11659 -0.014665 0.20635 0.06311 -0.00097427 -0.22652 -0.33997 0.19368 0.064661 -0.10244 -0.21332 0.10825 0.12022 -0.45878 0.12968 0.18191 -0.19006 0.23747 0.1198 -0.0023112 -0.23621 0.1587 -0.40126 0.152 -0.14144 0.22806 -0.0037056 0.074415 -0.2892 -0.095841 -0.068881 0.072455 -0.19443 0.042769 -0.39047 -0.15859 -0.10993 -0.14964 -0.093134 0.070684 -0.033705 0.12839 -0.00011747 -0.010506 0.28462 -0.14333 0.028874 -0.10639 -0.027643 0.18602 0.21359 0.34926 0.04818 0.11155 -0.069069 0.30912 0.15113 -0.010725 0.32669 0.16036 0.13553 -0.15674 -0.068962 -0.047827 -0.081112 -0.031805 -0.09696 -0.17564 0.14988 0.11052 -0.14831 -0.34479 0.31619 0.14529 0.25284 -0.22947 0.60338 -0.24261 0.14856 -0.24616 -0.076534 0.15515 
or -0.071383 -0.091312 0.15478 0.18171 0.013695 0.047209 -0.41748 -0.2294 -0.26389 -0.21375 -0.22112 -0.17424 0.075152 0.076418 -0.090493 -0.17566 -0.055524 -0.00092897 0.14579 -0.069445 0.2464 0.045157 0.015453 -0.24855 -0.31914 0.21365 0.077089 -0.1341 -0.20999 0.13231 0.11088 -0.50998 0.096165 0.24579 -0.16902 0.23593 0.10497 -0.016483 -0.2456 0.16944 -0.38244 0.21643 -0.18964 0.1584 -0.027975 0.091418 -0.28914 -0.061184 -0.036914 0.095222 -0.20946 0.056031 -0.42178 -0.10612 -0.17632 -0.099043 -0.072684 0.098529 -0.043149 0.14185 -0.0015133 -0.0078823 0.29857 -0.15413 0.027245 -0.089733 -0.059922 0.24882 0.20413 0.33012 0.10146 0.050367 -0.071555 0.29192 0.13585 -0.010552 0.2873 0.17569 0.12326 -0.17563 -0.0026168 -0.071408 -0.10609 -0.025034 -0.096917 -0.18684 0.12427 0.13457 -0.15599 -0.32423 0.29321 0.1311 0.27554 -0.21141 0.58867 -0.24508 0.17155 -0.24058 -0.073537 0.18401 
ar -0.089208 -0.080253 0.15557 0.097995 0.021664 0.010277 -0.38967 -0.1979 -0.26275 -0.20056 -0.27179 -0.15209 0.054396 0.09767 -0.089351 -0.15588 -0.06407 -0.0017767 0.17504 -0.096177 0.27757 0.030689 0.034911 -0.25026 -0.29651 0.2131 0.082902 -0.14947 -0.19709 0.15292 0.095802 -0.53035 0.069724 0.26719 -0.1377 0.23621 0.093013 -0.023992 -0.25027 0.16762 -0.36657 0.25118 -0.21474 0.11548 -0.040685 0.083746 -0.27378 -0.039222 -0.016948 0.096449 -0.22107 0.062276 -0.43565 -0.070002 -0.21251 -0.064806 -0.06782 0.10611 -0.045893 0.14637 0.012076 0.0082265 0.30099 -0.13875 0.034438 -0.084887 -0.072966 0.27198 0.19309 0.31339 0.14423 -0.00070047 -0.064472 0.26846 0.12783 -0.008055 0.25635 0.17845 0.10408 -0.19743 0.048131 -0.081936 -0.11945 -0.029769 -0.099011 -0.19327 0.11645 0.13595 -0.16127 -0.29716 0.27062 0.10868 0.28685 -0.18994 0.56622 -0.24261 0.16402 -0.22436 -0.080184 0.19976 
chey -0.11011 -0.082941 0.16147 0.092405 0.010482 0.014321 -0.37167 -0.18539 -0.24082 -0.18845 -0.26601 -0.14392 0.060272 0.078743 -0.097066 -0.15159 -0.073456 -0.020105 0.15733 -0.1045 0.27286 0.033302 0.032574 -0.24891 -0.28868 0.22095 0.094877 -0.1595 -0.19981 0.16141 0.10268 -0.5288 0.070852 0.26892 -0.14078 0.23066 0.085973 -0.011798 -0.24287 0.15087 -0.34912 0.2596 -0.2267 0.09443 -0.048531 0.093705 -0.274 -0.04071 -0.0084106 0.099202 -0.21412 0.052136 -0.42957 -0.075418 -0.21233 -0.066604 -0.057912 0.10021 -0.03674 0.14455 -0.013767 -0.0058344 0.29074 -0.13623 0.025608 -0.072667 -0.087933 0.27681 0.19299 0.30659 0.1397 0.001533 -0.051414 0.26712 0.11399 -0.010178 0.2537 0.17837 0.089808 -0.18515 0.038515 -0.086835 -0.11682 -0.026277 -0.10012 -0.18154 0.088313 0.14162 -0.15304 -0.29503 0.25779 0.11054 0.27898 -0.17899 0.54316 -0.24168 0.17848 -0.21951 -0.084414 0.19873 
dar -0.088052 -0.081907 0.15691 0.11268 0.018012 0.013763 -0.38834 -0.20731 -0.26286 -0.19891 -0.25828 -0.155 0.0588 0.085029 -0.09017 -0.16866 -0.068359 -0.0054006 0.1734 -0.09621 0.28034 0.04132 0.032619 -0.25584 -0.29802 0.21939 0.086227 -0.14819 -0.20378 0.1579 0.10985 -0.53951 0.071984 0.27403 -0.13508 0.23777 0.096483 -0.016691 -0.24996 0.16543 -0.37231 0.24984 -0.22179 0.12052 -0.044141 0.091573 -0.2859 -0.041411 -0.025179 0.098688 -0.21963 0.06785 -0.4417 -0.075674 -0.20789 -0.080214 -0.062637 0.11488 -0.041505 0.15074 0.013211 0.0034255 0.30895 -0.14442 0.030332 -0.075884 -0.074775 0.27673 0.19851 0.32529 0.13824 0.0097031 -0.063481 0.27314 0.13189 -0.013733 0.26579 0.18787 0.10267 -0.20326 0.036668 -0.07779 -0.11539 -0.028285 -0.10628 -0.20156 0.12135 0.14113 -0.16603 -0.30644 0.27678 0.11197 0.29366 -0.1927 0.58067 -0.24798 0.16612 -0.2309 -0.079591 0.19568 
qokeey -0.13519 -0.078452 0.17576 0.022571 0.014057 -0.024757 -0.31594 -0.15805 -0.22387 -0.18024 -0.30313 -0.11596 0.045838 0.090863 -0.11174 -0.13536 -0.080385 -0.016814 0.18432 -0.14436 0.30004 0.018387 0.044055 -0.27037 -0.26838 0.24266 0.11057 -0.17629 -0.19171 0.19495 0.10274 -0.56642 0.051725 0.31092 -0.11761 0.22971 0.06734 -0.01481 -0.23543 0.15402 -0.3373 0.29219 -0.26294 0.027175 -0.072663 0.10763 -0.27416 -0.016384 0.010583 0.12144 -0.21444 0.066519 -0.44152 -0.042383 -0.24824 -0.042005 -0.032846 0.12207 -0.037426 0.15964 -0.015912 -0.0050236 0.29992 -0.1337 0.031239 -0.052958 -0.11552 0.30946 0.19509 0.30396 0.18219 -0.04236 -0.059973 0.24515 0.10961 -0.0054133 0.21491 0.19904 0.068148 -0.20315 0.074518 -0.091817 -0.11961 -0.019915 -0.1039 -0.19953 0.085319 0.16279 -0.16426 -0.27577 0.23748 0.095607 0.29253 -0.14958 0.52387 -0.24273 0.18192 -0.20297 -0.080009 0.22657 
qokeedy -0.16447 -0.067225 0.18756 -0.067135 0.029349 -0.087485 -0.28068 -0.12845 -0.22805 -0.1624 -0.33859 -0.090749 0.03225 0.10813 -0.12124 -0.12438 -0.097914 -0.014839 0.22048 -0.18948 0.34768 0.0074024 0.065701 -0.29201 -0.24275 0.26222 0.11597 -0.2018 -0.1793 0.22547 0.10464 -0.62089 0.024378 0.36978 -0.086676 0.24765 0.052369 -0.014581 -0.23466 0.15913 -0.3203 0.34129 -0.30634 -0.030246 -0.10898 0.11719 -0.27357 0.032122 0.027427 0.14496 -0.2134 0.077779 -0.45957 0.010637 -0.28564 -0.0052509 0.0029405 0.13975 -0.0374 0.17498 -0.015697 -0.00092836 0.32202 -0.12917 0.035422 -0.032493 -0.14419 0.35117 0.18375 0.29374 0.23483 -0.097622 -0.064643 0.22196 0.11389 -0.0070585 0.1825 0.22316 0.045041 -0.23664 0.12332 -0.10187 -0.13339 -0.030003 -0.10847 -0.23027 0.086915 0.18414 -0.17289 -0.26078 0.22418 0.069603 0.31508 -0.11273 0.51829 -0.24052 0.18978 -0.18471 -0.084696 0.23931 
shey -0.11883 -0.079875 0.17495 0.074682 0.0069598 0.00065233 -0.37703 -0.18735 -0.24681 -0.18977 -0.26955 -0.1405 0.052309 0.088345 -0.10611 -0.1519 -0.074454 -0.013374 0.17438 -0.11402 0.2934 0.025984 0.037242 -0.2666 -0.28102 0.23266 0.099411 -0.16339 -0.19999 0.18237 0.11067 -0.55982 0.060564 0.2921 -0.13555 0.22976 0.078249 -0.015589 -0.24292 0.16075 -0.35655 0.272 -0.24894 0.070579 -0.054506 0.096643 -0.28331 -0.022419 -0.010599 0.1132 -0.2208 0.060401 -0.44378 -0.071191 -0.23053 -0.065384 -0.049784 0.11138 -0.04006 0.15745 -0.0072393 -0.0041059 0.30389 -0.14344 0.02786 -0.060274 -0.093752 0.2877 0.19835 0.31718 0.1588 -0.008959 -0.055341 0.26537 0.12416 -0.0053788 0.2545 0.18996 0.090223 -0.20354 0.05846 -0.088048 -0.12294 -0.025559 -0.10791 -0.19762 0.10507 0.1499 -0.15335 -0.29306 0.26427 0.1081 0.2973 -0.17294 0.55511 -0.24736 0.18289 -0.21847 -0.081733 0.20908 
qokain -0.12409 -0.077989 0.16992 0.047092 0.017371 -0.015587 -0.36824 -0.17579 -0.24162 -0.18189 -0.28944 -0.13538 0.048803 0.089924 -0.10502 -0.14155 -0.081874 -0.0078389 0.17811 -0.12834 0.2966 0.022884 0.043046 -0.26647 -0.27315 0.23094 0.095824 -0.17428 -0.19276 0.17884 0.093083 -0.55437 0.047601 0.30217 -0.11068 0.2371 0.075453 -0.016801 -0.24613 0.15369 -0.34242 0.27948 -0.2472 0.054863 -0.06316 0.091495 -0.27085 -0.016875 -0.0049134 0.11421 -0.21108 0.063037 -0.43766 -0.05288 -0.23032 -0.047266 -0.042409 0.11571 -0.036815 0.15816 -0.0087221 -0.0050546 0.30174 -0.1303 0.036395 -0.060579 -0.097829 0.29317 0.18653 0.30615 0.16923 -0.028344 -0.059548 0.24912 0.11516 -0.0088057 0.23394 0.19738 0.074316 -0.20731 0.072787 -0.091024 -0.12294 -0.02949 -0.10335 -0.19571 0.10176 0.15031 -0.15353 -0.28052 0.25408 0.095067 0.29565 -0.1627 0.5399 -0.23888 0.18246 -0.21224 -0.084972 0.21524 
qokedy -0.16113 -0.064647 0.18809 -0.070578 0.031742 -0.095423 -0.27764 -0.1274 -0.2282 -0.15835 -0.33388 -0.091207 0.031054 0.10723 -0.1184 -0.12342 -0.098822 -0.012769 0.22237 -0.19177 0.34794 0.0053416 0.069748 -0.29097 -0.23679 0.25749 0.1133 -0.19712 -0.17517 0.22506 0.10482 -0.61774 0.024625 0.36906 -0.082841 0.2463 0.050465 -0.013536 -0.2305 0.15886 -0.31578 0.33937 -0.3047 -0.030963 -0.11512 0.11615 -0.27096 0.037238 0.024571 0.1432 -0.21075 0.078367 -0.45374 0.015646 -0.27992 -0.0026403 0.0073898 0.14006 -0.035018 0.17643 -0.014409 -0.0013471 0.32067 -0.12822 0.039385 -0.026358 -0.14229 0.35035 0.17905 0.28818 0.23552 -0.098391 -0.06614 0.21778 0.11831 -0.0072349 0.18189 0.22373 0.044902 -0.23578 0.12201 -0.096496 -0.13145 -0.031323 -0.11046 -0.2314 0.091934 0.18309 -0.17125 -0.25943 0.21965 0.068422 0.31455 -0.10784 0.51557 -0.23549 0.18232 -0.18179 -0.08278 0.23449 
dy -0.13015 -0.064293 0.1793 -0.0060646 0.032454 -0.073413 -0.30754 -0.15839 -0.25253 -0.16271 -0.30124 -0.10728 0.040553 0.097771 -0.10147 -0.14556 -0.087193 -0.0090118 0.20941 -0.16657 0.33486 0.023303 0.060492 -0.28557 -0.25604 0.25 0.095526 -0.17722 -0.18084 0.20605 0.11505 -0.60081 0.04264 0.33841 -0.095929 0.25569 0.06458 -0.010911 -0.22792 0.16474 -0.33599 0.30651 -0.28359 0.029671 -0.10134 0.11715 -0.27642 0.028968 0.005354 0.13328 -0.20809 0.071283 -0.44893 -0.0074208 -0.24711 -0.027537 -0.00038554 0.12858 -0.034812 0.17119 0.0021967 -0.0034691 0.32839 -0.13001 0.037364 -0.033263 -0.11915 0.33097 0.18292 0.29846 0.20932 -0.068937 -0.064617 0.2438 0.13377 -0.0050943 0.21207 0.21891 0.069047 -0.22757 0.10351 -0.086431 -0.12204 -0.036849 -0.10868 -0.22636 0.11599 0.16727 -0.17168 -0.27821 0.24604 0.078354 0.30686 -0.12723 0.55082 -0.24195 0.17615 -0.18497 -0.076034 0.22017 
qokaiin -0.093015 -0.082051 0.15665 0.099822 0.014964 0.014521 -0.40855 -0.20031 -0.2527 -0.19035 -0.26441 -0.15362 0.059174 0.080945 -0.094774 -0.14855 -0.066409 -0.0011958 0.15719 -0.10319 0.27328 0.036079 0.025649 -0.25482 -0.28417 0.21413 0.079292 -0.15437 -0.19361 0.15535 0.09304 -0.5171 0.066108 0.26774 -0.12334 0.23668 0.088652 -0.02362 -0.24316 0.14687 -0.35344 0.2413 -0.21297 0.10394 -0.043601 0.079205 -0.27044 -0.037201 -0.020098 0.097339 -0.20798 0.057872 -0.42575 -0.076924 -0.19918 -0.071627 -0.058493 0.10841 -0.036029 0.14627 0.003265 -0.0068597 0.29181 -0.13214 0.035296 -0.07857 -0.072547 0.26541 0.18982 0.31387 0.13703 0.0056053 -0.063079 0.26209 0.12303 -0.010333 0.25251 0.18689 0.093848 -0.19488 0.046151 -0.081867 -0.11418 -0.027625 -0.096531 -0.18993 0.11802 0.12852 -0.1522 -0.28764 0.27158 0.10326 0.28277 -0.18986 0.55271 -0.23582 0.1732 -0.21828 -0.082573 0.19958 
al -0.090713 -0.081523 0.15155 0.11528 0.018163 0.017002 -0.40471 -0.20671 -0.25619 -0.2011 -0.27233 -0.15571 0.063564 0.092137 -0.095575 -0.16246 -0.068832 -0.0098767 0.16653 -0.096733 0.27683 0.038609 0.034116 -0.25688 -0.30653 0.21981 0.092508 -0.16464 -0.2049 0.15311 0.10021 -0.54501 0.078614 0.27383 -0.14055 0.24221 0.095287 -0.023805 -0.25555 0.16818 -0.36568 0.25708 -0.21887 0.12205 -0.045005 0.085896 -0.28325 -0.042568 -0.024065 0.092184 -0.23107 0.067626 -0.44832 -0.082939 -0.21238 -0.068332 -0.06882 0.10859 -0.043303 0.14646 0.0014759 0.00029769 0.30972 -0.14175 0.027378 -0.078396 -0.07149 0.27467 0.19654 0.32846 0.13687 0.0059676 -0.065713 0.27894 0.1264 -0.014102 0.27183 0.18979 0.10643 -0.19936 0.037723 -0.083343 -0.10901 -0.027966 -0.098113 -0.19398 0.11239 0.13471 -0.15981 -0.30433 0.27467 0.11271 0.29395 -0.20539 0.57896 -0.25007 0.17479 -0.22847 -0.075952 0.2017 
dal -0.088094 -0.085389 0.16325 0.12695 0.014866 0.022002 -0.39855 -0.21965 -0.26445 -0.19954 -0.26771 -0.16332 0.066274 0.081028 -0.099616 -0.1681 -0.068827 -0.0074364 0.16971 -0.093742 0.28491 0.044621 0.032532 -0.26064 -0.30963 0.22606 0.090742 -0.15837 -0.20311 0.16016 0.1115 -0.55166 0.083191 0.2792 -0.14165 0.24859 0.090555 -0.017111 -0.25966 0.1689 -0.37889 0.25771 -0.22401 0.13054 -0.04553 0.091253 -0.29202 -0.0459 -0.027148 0.10057 -0.23209 0.067098 -0.45353 -0.085057 -0.20753 -0.078179 -0.065214 0.11374 -0.041768 0.15141 -0.00042178 0.00024058 0.31215 -0.15006 0.032367 -0.084698 -0.073734 0.27559 0.20721 0.33845 0.13604 0.015041 -0.073346 0.2858 0.1367 -0.010226 0.2787 0.19649 0.10452 -0.20407 0.02944 -0.081589 -0.11153 -0.029925 -0.10694 -0.20487 0.12269 0.14568 -0.16389 -0.32067 0.29031 0.11916 0.30157 -0.20537 0.59795 -0.25511 0.1716 -0.23719 -0.082002 0.20747 
s -0.07754 -0.096646 0.16819 0.14876 0.0037368 0.035175 -0.41123 -0.21871 -0.26006 -0.209 -0.24993 -0.16459 0.071201 0.08505 -0.088287 -0.16852 -0.059384 -0.009801 0.16425 -0.086417 0.25957 0.045568 0.030453 -0.26187 -0.31372 0.21554 0.077436 -0.14828 -0.20547 0.15308 0.10637 -0.53138 0.0829 0.26218 -0.15103 0.24487 0.10477 -0.013926 -0.24632 0.17536 -0.38853 0.23336 -0.21244 0.13888 -0.034361 0.089842 -0.29111 -0.053173 -0.025768 0.10063 -0.21654 0.059968 -0.4437 -0.092102 -0.19138 -0.087629 -0.062352 0.1052 -0.045078 0.15529 3.4104e-05 -0.0025511 0.30363 -0.14776 0.020695 -0.083638 -0.073491 0.26058 0.20283 0.32615 0.11781 0.028084 -0.067634 0.29633 0.13004 -0.014082 0.28473 0.18234 0.11199 -0.2011 0.025453 -0.070763 -0.10819 -0.029837 -0.098987 -0.196 0.12301 0.14251 -0.16102 -0.32522 0.28866 0.12711 0.29125 -0.19581 0.58903 -0.25649 0.17221 -0.23808 -0.080196 0.18985 
chor -0.028977 -0.10299 0.14964 0.28278 -0.00219 0.10744 -0.46677 -0.26969 -0.28449 -0.22049 -0.17392 -0.21244 0.098272 0.042915 -0.076807 -0.19894 -0.040584 0.0021317 0.12105 -0.025135 0.21927 0.066309 -0.00028408 -0.23326 -0.34975 0.2027 0.069617 -0.10961 -0.22105 0.10756 0.11879 -0.48114 0.13261 0.19457 -0.19661 0.24428 0.12315 -0.011807 -0.24719 0.16506 -0.4115 0.16391 -0.14999 0.23287 -0.0059377 0.076501 -0.29719 -0.096953 -0.067839 0.072312 -0.208 0.042825 -0.40647 -0.15684 -0.12627 -0.14748 -0.098097 0.07406 -0.037677 0.13223 7.1934e-05 -0.0087136 0.29452 -0.14955 0.028251 -0.11475 -0.033433 0.19843 0.21912 0.35648 0.05042 0.1045 -0.071556 0.31993 0.15422 -0.011184 0.33073 0.17077 0.14551 -0.16157 -0.061897 -0.052315 -0.089435 -0.029778 -0.095104 -0.18119 0.15216 0.10993 -0.15411 -0.35628 0.32245 0.15108 0.26552 -0.23801 0.62424 -0.25051 0.15556 -0.25436 -0.077895 0.15834 
okaiin -0.072602 -0.086325 0.14683 0.14594 0.010557 0.041987 -0.43612 -0.22255 -0.26353 -0.20115 -0.25114 -0.17072 0.067497 0.076659 -0.08915 -0.16087 -0.055544 0.0037038 0.14108 -0.077806 0.25395 0.047129 0.015849 -0.24489 -0.30142 0.2042 0.067176 -0.14176 -0.20254 0.13641 0.091672 -0.49214 0.079678 0.24446 -0.13658 0.23569 0.10026 -0.02875 -0.24809 0.14732 -0.36854 0.21772 -0.18996 0.14562 -0.026455 0.07101 -0.27068 -0.055291 -0.031333 0.08457 -0.20888 0.055091 -0.42208 -0.10047 -0.17971 -0.088122 -0.077465 0.10251 -0.037611 0.13628 0.012003 -0.0090061 0.28817 -0.1346 0.031995 -0.095077 -0.052198 0.2462 0.1962 0.32202 0.11062 0.033655 -0.063489 0.27654 0.1269 -0.01329 0.27257 0.17645 0.11088 -0.18534 0.02587 -0.077241 -0.11358 -0.023429 -0.092543 -0.18009 0.12585 0.11476 -0.152 -0.29664 0.28525 0.11149 0.27568 -0.21601 0.56751 -0.23848 0.17014 -0.23092 -0.080536 0.19231 
dain -0.092904 -0.08849 0.15826 0.1184 0.0081208 0.029831 -0.40296 -0.20926 -0.2603 -0.19568 -0.26089 -0.16274 0.062858 0.080713 -0.095503 -0.1593 -0.070091 -0.0020661 0.15225 -0.086808 0.2715 0.040455 0.02258 -0.25202 -0.29881 0.22148 0.084622 -0.15794 -0.20117 0.15195 0.099544 -0.53185 0.074539 0.26624 -0.13623 0.23762 0.097769 -0.013825 -0.25091 0.15756 -0.36782 0.24718 -0.21577 0.12044 -0.042562 0.083392 -0.27979 -0.044905 -0.027218 0.094816 -0.21209 0.063322 -0.43694 -0.089553 -0.19958 -0.077369 -0.068282 0.10731 -0.043312 0.15044 0.002412 -0.0055023 0.30054 -0.13761 0.029544 -0.08439 -0.070298 0.26376 0.19826 0.32567 0.12989 0.017733 -0.060986 0.2763 0.12283 -0.014096 0.26988 0.18966 0.099191 -0.19424 0.035843 -0.081138 -0.11324 -0.023076 -0.096898 -0.18616 0.11248 0.13376 -0.15412 -0.29708 0.28099 0.11177 0.29168 -0.19669 0.5682 -0.24357 0.17471 -0.22886 -0.080537 0.20596 
qokal -0.11996 -0.078719 0.16989 0.047674 0.021757 -0.019329 -0.35602 -0.17567 -0.24131 -0.1863 -0.28703 -0.13577 0.04906 0.08779 -0.10706 -0.144 -0.078196 -0.0035686 0.18238 -0.1305 0.3 0.022412 0.042568 -0.27157 -0.27344 0.23261 0.09787 -0.16914 -0.19168 0.1845 0.10174 -0.56002 0.053096 0.30569 -0.11296 0.24204 0.073994 -0.016134 -0.24294 0.16036 -0.34287 0.27761 -0.24901 0.061342 -0.071332 0.096811 -0.27935 -0.010344 -0.0076816 0.11643 -0.21316 0.063507 -0.4412 -0.046681 -0.22652 -0.048895 -0.036566 0.11549 -0.034021 0.15783 -0.0077092 -0.0036037 0.30604 -0.13441 0.035306 -0.056428 -0.097548 0.29607 0.18749 0.31197 0.16894 -0.029988 -0.068839 0.25123 0.12515 -0.0081311 0.23353 0.19947 0.07619 -0.20799 0.064494 -0.088021 -0.1176 -0.032061 -0.10678 -0.20515 0.10813 0.15483 -0.1607 -0.28259 0.2546 0.096807 0.29755 -0.16159 0.54916 -0.24081 0.18013 -0.20981 -0.081166 0.21484 
shol -0.056317 -0.099746 0.16507 0.20847 0.000223 0.061145 -0.45862 -0.23915 -0.27221 -0.2117 -0.21491 -0.18982 0.078312 0.060379 -0.090425 -0.18035 -0.050747 -0.0013366 0.14668 -0.057724 0.24944 0.044392 0.015029 -0.25312 -0.32487 0.21941 0.079496 -0.12955 -0.21088 0.14096 0.12225 -0.51888 0.10193 0.23206 -0.17191 0.24039 0.1042 -0.0059334 -0.24809 0.16581 -0.40226 0.20179 -0.18886 0.17218 -0.030396 0.087788 -0.30171 -0.065235 -0.050249 0.096732 -0.21087 0.049417 -0.42502 -0.12494 -0.16121 -0.1167 -0.07522 0.090101 -0.036042 0.14849 -0.001143 -0.0095154 0.30034 -0.14941 0.033865 -0.092917 -0.054775 0.2293 0.21923 0.34795 0.098955 0.065346 -0.070579 0.30129 0.15 -0.0092169 0.30632 0.18249 0.12466 -0.18484 -0.020878 -0.065551 -0.098496 -0.028854 -0.10696 -0.19275 0.13869 0.13654 -0.16056 -0.33085 0.31083 0.13181 0.28318 -0.21142 0.60785 -0.2539 0.16789 -0.24123 -0.082605 0.18316 
okeey -0.11332 -0.08229 0.16668 0.077009 0.010988 0.0080004 -0.34257 -0.18405 -0.23503 -0.19718 -0.28786 -0.13647 0.052852 0.088723 -0.10567 -0.15222 -0.070252 -0.013952 0.1648 -0.11563 0.27559 0.030674 0.033905 -0.25861 -0.2942 0.23125 0.10308 -0.16445 -0.20483 0.17341 0.10076 -0.54217 0.071429 0.28215 -0.14004 0.22809 0.084361 -0.014326 -0.24141 0.15863 -0.35895 0.27241 -0.23749 0.076743 -0.051831 0.10138 -0.28007 -0.04067 -0.0030772 0.10483 -0.21981 0.063503 -0.44115 -0.070867 -0.22727 -0.058582 -0.056738 0.1125 -0.041643 0.14782 -0.010217 -0.0028445 0.3004 -0.13753 0.023668 -0.068508 -0.094734 0.29098 0.20303 0.31594 0.15066 -0.010531 -0.060265 0.26729 0.11177 -0.010043 0.24204 0.18506 0.089002 -0.18894 0.05088 -0.087705 -0.11495 -0.013209 -0.10178 -0.18539 0.090106 0.14725 -0.16341 -0.28894 0.25392 0.10912 0.28713 -0.18279 0.54346 -0.2498 0.18021 -0.21951 -0.076673 0.21879 
cheey -0.1085 -0.086007 0.16372 0.09946 0.0090284 0.019087 -0.37976 -0.18901 -0.24761 -0.20002 -0.28395 -0.14735 0.058072 0.084549 -0.099398 -0.15676 -0.072082 -0.017893 0.16151 -0.10676 0.28245 0.036789 0.029252 -0.25796 -0.30062 0.23023 0.099258 -0.16386 -0.21211 0.16587 0.10195 -0.54787 0.074169 0.27755 -0.14809 0.23917 0.092643 -0.017327 -0.25381 0.16032 -0.36996 0.26902 -0.23596 0.098568 -0.047684 0.10046 -0.28434 -0.050882 -0.0041741 0.1052 -0.21841 0.061816 -0.44881 -0.079914 -0.22061 -0.068972 -0.068354 0.10898 -0.041428 0.14931 -0.010078 -0.0056883 0.30011 -0.13963 0.028855 -0.078391 -0.091294 0.28285 0.20565 0.32256 0.14426 0.00020431 -0.062039 0.27705 0.11591 -0.01471 0.26006 0.19031 0.093804 -0.19164 0.042012 -0.093391 -0.11848 -0.017722 -0.1012 -0.19151 0.091457 0.14554 -0.16188 -0.30347 0.27109 0.11257 0.28978 -0.19154 0.56385 -0.25197 0.18436 -0.23028 -0.087104 0.21224 
cheol -0.090031 -0.093911 0.16934 0.15464 0.0047272 0.039792 -0.40165 -0.21278 -0.26251 -0.20993 -0.25912 -0.16929 0.068897 0.067473 -0.092212 -0.17043 -0.067684 -0.0091452 0.15269 -0.093803 0.26547 0.043292 0.025547 -0.2576 -0.32292 0.2298 0.091122 -0.15088 -0.21307 0.15551 0.1128 -0.5426 0.096064 0.25631 -0.16096 0.24713 0.1009 -0.0092629 -0.2542 0.1695 -0.39036 0.2429 -0.21253 0.13744 -0.041779 0.10045 -0.29668 -0.062281 -0.023626 0.1068 -0.21396 0.059402 -0.44104 -0.10214 -0.18844 -0.092723 -0.068273 0.096866 -0.03647 0.14956 -0.0090958 -0.01091 0.30418 -0.14366 0.029636 -0.084626 -0.074046 0.26774 0.21791 0.3339 0.12381 0.034317 -0.068571 0.29157 0.13439 -0.016069 0.28585 0.19358 0.10332 -0.18071 0.0070223 -0.078847 -0.11063 -0.01931 -0.10444 -0.19231 0.11217 0.14592 -0.16405 -0.3196 0.2901 0.13057 0.28803 -0.20245 0.59155 -0.25692 0.17876 -0.24124 -0.082442 0.20729 
otedy -0.13798 -0.063228 0.17819 -0.024395 0.033689 -0.074017 -0.30079 -0.15469 -0.24574 -0.17103 -0.3206 -0.11347 0.036084 0.10625 -0.10894 -0.1383 -0.091717 -0.0050616 0.21379 -0.16754 0.33376 0.019566 0.057317 -0.28724 -0.25035 0.24644 0.1045 -0.1831 -0.18659 0.20433 0.10096 -0.6059 0.042656 0.35009 -0.093561 0.25346 0.069888 -0.017663 -0.23954 0.16298 -0.33414 0.32205 -0.28424 0.021824 -0.09876 0.11204 -0.27843 0.020206 0.011149 0.12946 -0.21412 0.081554 -0.4573 -0.0060086 -0.26141 -0.017755 -0.0076135 0.13656 -0.038784 0.16877 -0.0015615 0.0045306 0.32541 -0.1351 0.032543 -0.039753 -0.12482 0.34005 0.17608 0.3003 0.21608 -0.07437 -0.068557 0.23781 0.12627 -0.010188 0.205 0.21384 0.06348 -0.23519 0.10479 -0.092798 -0.13029 -0.032066 -0.10659 -0.23014 0.10905 0.17007 -0.17546 -0.27387 0.24515 0.078561 0.30761 -0.13404 0.53755 -0.23805 0.17809 -0.19341 -0.078477 0.21794 
chy -0.052561 -0.10599 0.15574 0.22919 0.00039798 0.075582 -0.44564 -0.25342 -0.28586 -0.21898 -0.20628 -0.20235 0.09169 0.058559 -0.079135 -0.1887 -0.04843 -0.00013301 0.13974 -0.04498 0.24397 0.063001 0.0069463 -0.24457 -0.33801 0.21592 0.073021 -0.1256 -0.21801 0.13087 0.12024 -0.51142 0.11228 0.23199 -0.17254 0.25434 0.11123 -0.0080947 -0.25215 0.16565 -0.40515 0.18989 -0.18386 0.19885 -0.019751 0.080642 -0.29892 -0.077084 -0.055231 0.076091 -0.21743 0.044985 -0.43169 -0.1323 -0.15579 -0.12081 -0.090608 0.089905 -0.03708 0.14483 0.0054665 -0.012558 0.30227 -0.14663 0.032599 -0.10679 -0.049017 0.22655 0.20983 0.35381 0.083186 0.072297 -0.071922 0.31499 0.14606 -0.012802 0.31777 0.17638 0.1285 -0.18183 -0.033493 -0.066588 -0.092655 -0.033154 -0.097694 -0.19203 0.14597 0.12258 -0.15889 -0.35321 0.31628 0.13708 0.2835 -0.22604 0.61903 -0.25567 0.16102 -0.25449 -0.081124 0.1742 
otaiin -0.068305 -0.087907 0.14376 0.15478 0.012335 0.04137 -0.43475 -0.22872 -0.27202 -0.20371 -0.25198 -0.17755 0.068974 0.0795 -0.08631 -0.16831 -0.053178 0.0058336 0.14677 -0.07482 0.25808 0.05027 0.013559 -0.25143 -0.30869 0.20919 0.071187 -0.14381 -0.20556 0.13504 0.098733 -0.50656 0.088169 0.24815 -0.13957 0.24344 0.10583 -0.028912 -0.25203 0.14971 -0.37648 0.22112 -0.19222 0.15694 -0.027408 0.070948 -0.27904 -0.058095 -0.03505 0.083921 -0.2138 0.055805 -0.43254 -0.10353 -0.18304 -0.092792 -0.077121 0.10478 -0.039008 0.13804 0.013452 -0.0047316 0.29557 -0.14044 0.030286 -0.096692 -0.054677 0.25325 0.19716 0.32872 0.11149 0.03304 -0.064279 0.28642 0.12948 -0.012143 0.28402 0.17799 0.11549 -0.19355 0.024722 -0.077425 -0.11283 -0.026662 -0.092857 -0.18956 0.13183 0.11574 -0.15719 -0.30486 0.29643 0.11755 0.28217 -0.22 0.5842 -0.24612 0.16968 -0.23337 -0.084562 0.18931 
qokar -0.1176 -0.079049 0.16511 0.046457 0.017883 -0.020446 -0.35081 -0.1737 -0.24105 -0.18232 -0.27848 -0.13159 0.050385 0.085698 -0.10074 -0.13808 -0.077575 -0.0078123 0.18109 -0.12694 0.2928 0.022688 0.040451 -0.26285 -0.26912 0.22596 0.094002 -0.16411 -0.18504 0.17693 0.098378 -0.5449 0.049381 0.2941 -0.11071 0.23605 0.075288 -0.017447 -0.23664 0.15611 -0.33818 0.27056 -0.24258 0.058061 -0.066886 0.095715 -0.27045 -0.017073 -0.0055815 0.114 -0.20616 0.060949 -0.43121 -0.04536 -0.22462 -0.050588 -0.036094 0.11507 -0.035536 0.15584 -0.0053713 -0.0020868 0.29638 -0.13238 0.035877 -0.058803 -0.098066 0.2894 0.18412 0.29993 0.16756 -0.029194 -0.063738 0.24424 0.12053 -0.0068089 0.23167 0.19193 0.077771 -0.20537 0.064445 -0.084639 -0.11736 -0.027107 -0.10408 -0.19864 0.10381 0.14931 -0.15434 -0.27887 0.25086 0.095024 0.29094 -0.15524 0.53527 -0.23671 0.17259 -0.20445 -0.08044 0.20643 
chdy -0.11288 -0.081737 0.17562 0.061773 0.027423 -0.028587 -0.36692 -0.19637 -0.28118 -0.19158 -0.29015 -0.1469 0.054906 0.088196 -0.093748 -0.161 -0.079411 -0.0070928 0.20209 -0.13843 0.32008 0.036247 0.042077 -0.29024 -0.30005 0.25134 0.089574 -0.177 -0.20187 0.18785 0.11937 -0.59732 0.067198 0.32217 -0.11966 0.26702 0.084412 -0.009664 -0.25717 0.17443 -0.37125 0.28429 -0.26562 0.090094 -0.08185 0.10492 -0.2902 -0.0051944 -0.016752 0.12681 -0.22635 0.066948 -0.46587 -0.046559 -0.2345 -0.061259 -0.036694 0.12578 -0.034544 0.16853 -0.0018833 -0.0068077 0.3416 -0.14531 0.035964 -0.06682 -0.10763 0.31868 0.19607 0.33439 0.17998 -0.032526 -0.069916 0.27764 0.14214 -0.010238 0.25558 0.21274 0.088823 -0.22279 0.067857 -0.087129 -0.12133 -0.038367 -0.11183 -0.22864 0.13306 0.16488 -0.18005 -0.32137 0.28091 0.096997 0.31929 -0.17444 0.60242 -0.25569 0.17767 -0.21873 -0.083192 0.21595 
qol -0.11056 -0.091628 0.18413 0.094599 0.010843 0.0055682 -0.38624 -0.19255 -0.25837 -0.19448 -0.26926 -0.1503 0.058786 0.071979 -0.10483 -0.15547 -0.075701 -0.0039918 0.182 -0.11927 0.2972 0.028971 0.034624 -0.27382 -0.2988 0.24338 0.09838 -0.16774 -0.20171 0.18078 0.1133 -0.57471 0.074135 0.29493 -0.13732 0.25089 0.085405 -0.010254 -0.24747 0.16638 -0.37192 0.26745 -0.24215 0.083691 -0.066817 0.10244 -0.29234 -0.032657 -0.016079 0.12118 -0.2143 0.063464 -0.44939 -0.069935 -0.21575 -0.074377 -0.038457 0.11651 -0.038026 0.16283 -0.011387 -0.0097327 0.31408 -0.14752 0.035182 -0.064903 -0.093224 0.28822 0.20922 0.33082 0.15845 -0.0030567 -0.069344 0.27562 0.13765 -0.00795 0.26095 0.20493 0.092988 -0.20976 0.037084 -0.083417 -0.11734 -0.031705 -0.10805 -0.20949 0.11513 0.16164 -0.16128 -0.30647 0.27641 0.11006 0.30121 -0.17349 0.58048 -0.25033 0.18013 -0.21906 -0.089122 0.21465 
qoky -0.11576 -0.083925 0.17455 0.062805 0.015976 -0.012922 -0.3755 -0.18307 -0.24887 -0.19078 -0.28402 -0.14045 0.055914 0.084757 -0.10552 -0.15021 -0.075431 -0.010948 0.19175 -0.1325 0.30405 0.02436 0.040512 -0.28017 -0.28233 0.245 0.1018 -0.16957 -0.19611 0.1848 0.11045 -0.57519 0.061458 0.30648 -0.1245 0.24856 0.077085 -0.011812 -0.2433 0.16488 -0.35944 0.27716 -0.25453 0.065988 -0.071656 0.10424 -0.28737 -0.022201 -0.011526 0.11917 -0.21487 0.066332 -0.44848 -0.056112 -0.23233 -0.061014 -0.035023 0.11868 -0.039175 0.16575 -0.0115 -0.0058978 0.31086 -0.13967 0.035504 -0.06181 -0.10355 0.29724 0.19976 0.31938 0.16982 -0.024738 -0.069708 0.25851 0.13267 -0.0049538 0.24494 0.20664 0.080219 -0.21228 0.056857 -0.085681 -0.11706 -0.031599 -0.10732 -0.21361 0.11248 0.16265 -0.16689 -0.29663 0.26259 0.10295 0.3055 -0.16164 0.56681 -0.24726 0.17945 -0.21469 -0.085811 0.21391 
saiin -0.073964 -0.093556 0.15426 0.15958 0.011151 0.045538 -0.46696 -0.23682 -0.28481 -0.21086 -0.26017 -0.18174 0.07531 0.080795 -0.092567 -0.17437 -0.056776 0.0051485 0.14941 -0.080414 0.26881 0.051234 0.01768 -0.26248 -0.32625 0.21995 0.075297 -0.14839 -0.21403 0.14523 0.10372 -0.53036 0.08989 0.25882 -0.1517 0.25393 0.11151 -0.02909 -0.26437 0.15837 -0.39945 0.22952 -0.20465 0.15934 -0.029073 0.0765 -0.29083 -0.064186 -0.035351 0.091944 -0.22048 0.059536 -0.452 -0.10608 -0.18979 -0.097446 -0.080941 0.11026 -0.042593 0.14605 0.010754 -0.0090695 0.30656 -0.14602 0.032129 -0.10507 -0.059103 0.2619 0.21004 0.34572 0.11822 0.039344 -0.071661 0.29879 0.13699 -0.013388 0.2964 0.18819 0.119 -0.19981 0.021749 -0.082135 -0.11596 -0.027341 -0.1023 -0.19724 0.13804 0.12536 -0.16228 -0.32181 0.30887 0.11867 0.295 -0.22722 0.60856 -0.25674 0.18048 -0.2444 -0.086181 0.2012 
okain -0.10569 -0.083375 0.16156 0.091337 0.011351 0.012 -0.39581 -0.19867 -0.25548 -0.19526 -0.28048 -0.15241 0.056584 0.089238 -0.10076 -0.15519 -0.074129 -0.0043034 0.16408 -0.10414 0.28068 0.032221 0.034889 -0.25929 -0.29319 0.22402 0.08422 -0.16639 -0.20454 0.16115 0.091522 -0.53743 0.061527 0.28178 -0.12694 0.23749 0.08833 -0.021841 -0.25464 0.15638 -0.36034 0.26019 -0.22614 0.095064 -0.045931 0.085325 -0.27468 -0.0351 -0.016174 0.10296 -0.2154 0.059498 -0.43997 -0.076664 -0.21181 -0.061821 -0.061694 0.11064 -0.038697 0.15015 4.2354e-05 -0.0074715 0.30388 -0.13503 0.031857 -0.075327 -0.079747 0.27958 0.1932 0.31634 0.14305 -0.001262 -0.060202 0.26743 0.1182 -0.013425 0.25646 0.18819 0.093517 -0.19792 0.054442 -0.089071 -0.12297 -0.026629 -0.099098 -0.18618 0.10843 0.13738 -0.15343 -0.29146 0.26858 0.10389 0.29422 -0.18964 0.56029 -0.24419 0.18167 -0.22663 -0.083943 0.21154 
sheey -0.11242 -0.082536 0.17389 0.091006 0.0091306 0.012072 -0.3974 -0.19702 -0.25894 -0.20544 -0.29065 -0.15156 0.057511 0.092885 -0.10834 -0.16013 -0.07505 -0.01623 0.17476 -0.11584 0.3028 0.030501 0.034364 -0.27552 -0.30349 0.23989 0.10292 -0.17022 -0.21418 0.18069 0.10721 -0.57875 0.06834 0.29654 -0.147 0.24186 0.089847 -0.018296 -0.25706 0.17152 -0.37987 0.28092 -0.25129 0.086068 -0.051862 0.10188 -0.29951 -0.040237 -0.0091112 0.11612 -0.23088 0.068428 -0.46513 -0.081116 -0.23603 -0.071554 -0.062811 0.11751 -0.043581 0.15903 -0.0051549 -0.0057418 0.3136 -0.14876 0.028196 -0.070742 -0.094639 0.29686 0.2133 0.33694 0.15981 -0.0067633 -0.06612 0.28316 0.12841 -0.012442 0.2674 0.20106 0.096323 -0.21106 0.05477 -0.096066 -0.12426 -0.019886 -0.11113 -0.20398 0.10634 0.1561 -0.16499 -0.30958 0.28144 0.113 0.30691 -0.19138 0.58048 -0.25959 0.19099 -0.2357 -0.087203 0.22039 
otal -0.083161 -0.079001 0.1504 0.11048 0.016436 0.015749 -0.37877 -0.20319 -0.25182 -0.19468 -0.25846 -0.15619 0.057516 0.085795 -0.092211 -0.15822 -0.059273 -0.00093391 0.16391 -0.09223 0.2666 0.040249 0.029003 -0.2537 -0.287 0.21554 0.081389 -0.15021 -0.19691 0.1487 0.099343 -0.51928 0.076736 0.26474 -0.1312 0.23512 0.093789 -0.017032 -0.24321 0.1552 -0.3562 0.24204 -0.21287 0.11907 -0.047406 0.082438 -0.27292 -0.04083 -0.026624 0.088849 -0.21059 0.06034 -0.43008 -0.079735 -0.19772 -0.071693 -0.056519 0.10355 -0.039196 0.14034 0.0033631 0.0034246 0.29557 -0.14088 0.025078 -0.078827 -0.075657 0.26684 0.19172 0.31235 0.13459 0.0059372 -0.063161 0.27137 0.12399 -0.015881 0.25737 0.17904 0.10041 -0.1949 0.038946 -0.075065 -0.11172 -0.029155 -0.094321 -0.19162 0.1182 0.13007 -0.15817 -0.28947 0.26909 0.10951 0.28232 -0.1931 0.55841 -0.24341 0.16314 -0.22216 -0.074263 0.19311 
y -0.080751 -0.081752 0.15407 0.12751 0.010471 0.021403 -0.38392 -0.20505 -0.24989 -0.19698 -0.24018 -0.15338 0.05731 0.082757 -0.093709 -0.15403 -0.062028 -0.0039724 0.15509 -0.080477 0.26346 0.048231 0.027691 -0.24628 -0.29549 0.21964 0.072974 -0.138 -0.19684 0.15503 0.10188 -0.51086 0.07375 0.25568 -0.14466 0.22749 0.094595 -0.021211 -0.24125 0.16213 -0.35817 0.22472 -0.19891 0.12157 -0.04561 0.085002 -0.27566 -0.040579 -0.032483 0.092561 -0.20953 0.048941 -0.41797 -0.081152 -0.19316 -0.081238 -0.058662 0.10148 -0.035832 0.14832 0.0064757 -0.0005771 0.28913 -0.14409 0.026503 -0.074795 -0.07271 0.25686 0.19623 0.31684 0.12336 0.020537 -0.066438 0.27576 0.11901 -0.01798 0.26796 0.1824 0.10193 -0.1807 0.02037 -0.074729 -0.11017 -0.023482 -0.095535 -0.18493 0.11778 0.12505 -0.15675 -0.30309 0.26766 0.107 0.27946 -0.18531 0.56452 -0.2397 0.16158 -0.21683 -0.075125 0.18926 
otar -0.083975 -0.079433 0.14943 0.11253 0.018292 0.013961 -0.38494 -0.20664 -0.25817 -0.19781 -0.26326 -0.15494 0.055648 0.085578 -0.091162 -0.15921 -0.058655 -0.0056879 0.16887 -0.091106 0.272 0.043886 0.027852 -0.25574 -0.29292 0.21398 0.083993 -0.15042 -0.20567 0.15115 0.10226 -0.5261 0.075036 0.26849 -0.1319 0.23606 0.094717 -0.020604 -0.25007 0.16092 -0.36185 0.24595 -0.21396 0.12127 -0.043679 0.087334 -0.27663 -0.040829 -0.022584 0.094853 -0.21581 0.060421 -0.43354 -0.079103 -0.20185 -0.072606 -0.062777 0.10893 -0.039458 0.14479 0.011753 0.0031264 0.29792 -0.14395 0.030392 -0.079755 -0.069174 0.27235 0.19276 0.31618 0.1358 0.005635 -0.064196 0.27407 0.12622 -0.010278 0.26268 0.1801 0.10201 -0.19969 0.042878 -0.075928 -0.11695 -0.02777 -0.098573 -0.1935 0.11913 0.13286 -0.16133 -0.29268 0.2746 0.10987 0.2854 -0.19499 0.56748 -0.24565 0.16161 -0.22521 -0.078046 0.19318 
chckhy -0.086155 -0.087279 0.1608 0.13509 0.009908 0.026684 -0.39938 -0.21269 -0.26263 -0.20145 -0.25146 -0.16449 0.067273 0.078331 -0.095169 -0.16638 -0.067514 -0.0045141 0.16457 -0.091903 0.27603 0.040963 0.027356 -0.25691 -0.30924 0.2256 0.08389 -0.15031 -0.20816 0.15927 0.11333 -0.53904 0.083771 0.26929 -0.14675 0.24387 0.094032 -0.013856 -0.25041 0.16305 -0.37587 0.24048 -0.21891 0.12712 -0.043263 0.090871 -0.28681 -0.045701 -0.024808 0.098955 -0.22003 0.060671 -0.44088 -0.087475 -0.1949 -0.08218 -0.065704 0.10558 -0.036405 0.14853 -0.0017107 -0.0092129 0.30615 -0.14411 0.030599 -0.083225 -0.078047 0.26456 0.20112 0.33279 0.1287 0.01951 -0.065622 0.284 0.13501 -0.013653 0.27773 0.19194 0.10479 -0.19666 0.022678 -0.080407 -0.1095 -0.030225 -0.10573 -0.19825 0.12109 0.13786 -0.15934 -0.31612 0.28537 0.1199 0.29241 -0.1972 0.58569 -0.25135 0.1737 -0.23021 -0.081578 0.19981 
oteey -0.092407 -0.080484 0.15741 0.10786 0.011675 0.020152 -0.36928 -0.20268 -0.25178 -0.20396 -0.27782 -0.1515 0.058986 0.09193 -0.097815 -0.15977 -0.065509 -0.0076705 0.16508 -0.099467 0.27659 0.038027 0.024582 -0.25709 -0.29253 0.22216 0.091627 -0.15332 -0.21083 0.15884 0.098285 -0.54341 0.080067 0.26914 -0.14033 0.23613 0.096397 -0.023805 -0.24877 0.16114 -0.36992 0.26117 -0.22396 0.1125 -0.046589 0.092129 -0.28337 -0.044556 -0.013514 0.096239 -0.22335 0.065233 -0.44417 -0.082014 -0.2163 -0.065444 -0.061181 0.1108 -0.045768 0.14593 0.00085393 0.0040617 0.29953 -0.14265 0.024045 -0.074923 -0.080315 0.2831 0.19734 0.32197 0.14296 0.0061533 -0.063908 0.27797 0.12425 -0.012538 0.26181 0.18536 0.10401 -0.19411 0.039466 -0.079124 -0.11848 -0.022008 -0.099201 -0.1948 0.10662 0.13828 -0.16716 -0.29925 0.27206 0.11291 0.28776 -0.19646 0.5643 -0.24658 0.17147 -0.22687 -0.073756 0.19919 
okal -0.093532 -0.083979 0.15984 0.10944 0.014577 0.01543 -0.3875 -0.20809 -0.25864 -0.202 -0.26864 -0.15979 0.059247 0.082567 -0.10163 -0.16262 -0.065815 0.00021511 0.16579 -0.10141 0.27919 0.0376 0.032868 -0.26081 -0.30017 0.22361 0.085054 -0.15466 -0.20631 0.16188 0.10181 -0.53818 0.070404 0.279 -0.13112 0.24008 0.088203 -0.020311 -0.25201 0.16418 -0.36545 0.25239 -0.22441 0.11575 -0.054181 0.089549 -0.28314 -0.032495 -0.021436 0.10089 -0.21979 0.058046 -0.44205 -0.077299 -0.20141 -0.070017 -0.060558 0.10804 -0.037368 0.14479 0.0020953 -0.0033099 0.30842 -0.14063 0.028903 -0.074806 -0.073037 0.27556 0.19713 0.32479 0.1353 0.0075195 -0.070083 0.27332 0.13121 -0.011532 0.26186 0.18726 0.099475 -0.19518 0.037537 -0.079866 -0.11608 -0.027012 -0.10222 -0.19532 0.11922 0.13539 -0.15949 -0.30047 0.27433 0.11104 0.29035 -0.19513 0.57526 -0.24761 0.17773 -0.22798 -0.079047 0.20734 
sho -0.071689 -0.095541 0.16096 0.18367 -0.0001351 0.047438 -0.45359 -0.23444 -0.277 -0.21114 -0.23367 -0.18839 0.075355 0.071715 -0.089742 -0.18151 -0.053019 -0.001915 0.15712 -0.074801 0.26415 0.050014 0.016781 -0.26538 -0.32732 0.22461 0.086653 -0.14246 -0.2117 0.15038 0.12077 -0.54204 0.092555 0.25082 -0.166 0.24683 0.10256 -0.017334 -0.25608 0.17462 -0.40307 0.22126 -0.20677 0.16039 -0.036767 0.092989 -0.30741 -0.063239 -0.042695 0.098422 -0.22505 0.055532 -0.44684 -0.11524 -0.18334 -0.10686 -0.076241 0.10256 -0.039696 0.15366 0.0018864 -0.0080058 0.31 -0.1492 0.0358 -0.088619 -0.065532 0.25225 0.21645 0.34864 0.11517 0.04821 -0.074718 0.30168 0.14426 -0.012174 0.3047 0.19026 0.12311 -0.1977 3.4912e-05 -0.073842 -0.10771 -0.022805 -0.10564 -0.20656 0.1411 0.13988 -0.16414 -0.33251 0.31102 0.13252 0.29529 -0.20945 0.61602 -0.26169 0.1699 -0.24555 -0.083451 0.19484 
okar -0.094177 -0.089316 0.16051 0.11174 0.011586 0.013571 -0.40174 -0.20968 -0.26921 -0.20863 -0.27338 -0.1591 0.063282 0.086026 -0.097965 -0.16432 -0.069014 -0.0047416 0.17282 -0.10022 0.2813 0.036611 0.033204 -0.26042 -0.30935 0.22553 0.084329 -0.15525 -0.20916 0.16396 0.10057 -0.54446 0.068489 0.27862 -0.13962 0.24655 0.094857 -0.024383 -0.25672 0.16893 -0.37696 0.25402 -0.22691 0.11717 -0.048137 0.090928 -0.28629 -0.041458 -0.020143 0.10213 -0.22245 0.058218 -0.44925 -0.079268 -0.20699 -0.072697 -0.060049 0.11165 -0.039286 0.15023 0.0042983 -0.0039092 0.30831 -0.14396 0.032981 -0.079911 -0.076739 0.27953 0.2028 0.3282 0.13918 0.0079994 -0.069012 0.27824 0.1335 -0.011969 0.27123 0.18694 0.10732 -0.1993 0.039224 -0.080729 -0.12015 -0.026872 -0.10298 -0.19528 0.12189 0.13689 -0.1602 -0.30792 0.28211 0.11517 0.29537 -0.19519 0.58661 -0.2509 0.17481 -0.23359 -0.083615 0.20462 
lchedy -0.17833 -0.059815 0.19174 -0.086998 0.037007 -0.11052 -0.29407 -0.12315 -0.23796 -0.15461 -0.35261 -0.091233 0.032268 0.11604 -0.11903 -0.13049 -0.10829 -0.015866 0.23771 -0.20802 0.37369 0.0047481 0.075902 -0.30649 -0.24299 0.26736 0.11635 -0.21352 -0.18175 0.23219 0.10802 -0.65197 0.015911 0.39392 -0.080719 0.25628 0.056619 -0.016485 -0.24383 0.16266 -0.32712 0.36515 -0.32639 -0.036245 -0.12391 0.12231 -0.27906 0.043893 0.026277 0.15806 -0.22155 0.086811 -0.47949 0.022969 -0.30244 0.0044646 0.0071703 0.14628 -0.033124 0.18291 -0.015473 0.0011476 0.33852 -0.13174 0.034411 -0.029603 -0.15144 0.37196 0.17826 0.29667 0.25392 -0.11759 -0.065708 0.22512 0.12155 -0.0073722 0.18475 0.23686 0.044025 -0.25996 0.1433 -0.10665 -0.14496 -0.039968 -0.11468 -0.24945 0.095143 0.19165 -0.17671 -0.26349 0.23168 0.058073 0.32762 -0.1094 0.53847 -0.24633 0.19799 -0.18412 -0.091601 0.24417 
okedy -0.14537 -0.062233 0.17879 -0.045227 0.031258 -0.082723 -0.27863 -0.13554 -0.22999 -0.16159 -0.32053 -0.097223 0.033974 0.10339 -0.11271 -0.12953 -0.092617 -0.0088905 0.20947 -0.17366 0.32999 0.013787 0.067191 -0.27867 -0.24226 0.24682 0.1041 -0.18666 -0.17697 0.21171 0.099016 -0.59472 0.029936 0.34996 -0.087924 0.24135 0.059887 -0.014678 -0.2286 0.1597 -0.31973 0.3248 -0.28683 -0.0059781 -0.10395 0.11155 -0.26659 0.029877 0.016407 0.13155 -0.20621 0.077229 -0.44318 0.0060857 -0.26329 -0.0075346 -0.0028944 0.13406 -0.035763 0.16583 -0.0065346 0.00058992 0.31575 -0.1274 0.032477 -0.033225 -0.12971 0.33873 0.17653 0.28711 0.21572 -0.08452 -0.064204 0.22353 0.11756 -0.0093851 0.18755 0.21374 0.054346 -0.2259 0.11033 -0.091532 -0.13025 -0.027737 -0.10795 -0.21882 0.094274 0.17127 -0.16861 -0.25816 0.22395 0.071529 0.30491 -0.12092 0.514 -0.23173 0.17569 -0.18438 -0.079487 0.22281 
dol -0.076259 -0.089705 0.16841 0.16065 0.0043828 0.04124 -0.40439 -0.21386 -0.25934 -0.20205 -0.23318 -0.17019 0.069954 0.069188 -0.093552 -0.17177 -0.063104 -0.0023281 0.15645 -0.081174 0.25701 0.040011 0.020947 -0.24657 -0.30833 0.21782 0.085379 -0.13448 -0.20195 0.15122 0.11052 -0.52436 0.096027 0.24878 -0.15339 0.24065 0.10008 -0.010562 -0.24604 0.16568 -0.38017 0.22915 -0.20818 0.14024 -0.039788 0.091479 -0.28598 -0.049077 -0.03279 0.10283 -0.20788 0.051547 -0.4276 -0.10165 -0.18085 -0.092783 -0.057669 0.096867 -0.038421 0.14395 -0.0063495 -0.0096577 0.30195 -0.14204 0.029238 -0.077557 -0.062682 0.24983 0.21249 0.3347 0.11719 0.036902 -0.070897 0.28382 0.1414 -0.0096075 0.28202 0.18135 0.10856 -0.1873 0.0058878 -0.073005 -0.10312 -0.024647 -0.10465 -0.19582 0.13001 0.13711 -0.15562 -0.31154 0.28595 0.12388 0.28145 -0.1954 0.58566 -0.24492 0.16513 -0.22749 -0.080894 0.19 
oty -0.077636 -0.088587 0.15795 0.15281 0.014562 0.031824 -0.40359 -0.22542 -0.27004 -0.20642 -0.24939 -0.17485 0.069984 0.083225 -0.094254 -0.17253 -0.057263 0.0038318 0.16281 -0.088412 0.26786 0.045636 0.024588 -0.25931 -0.30955 0.22516 0.080589 -0.14682 -0.21172 0.15236 0.11035 -0.5437 0.093166 0.25968 -0.1489 0.24576 0.097123 -0.020292 -0.24777 0.16633 -0.38099 0.23652 -0.21423 0.14857 -0.03916 0.084373 -0.29663 -0.052712 -0.03598 0.095332 -0.22014 0.061862 -0.4453 -0.091976 -0.19432 -0.084205 -0.065276 0.10577 -0.041514 0.15043 0.0061815 -0.0032655 0.30895 -0.15025 0.025339 -0.083269 -0.06951 0.2692 0.20196 0.33675 0.1266 0.029898 -0.072386 0.28881 0.13913 -0.013167 0.29189 0.18593 0.11668 -0.19705 0.02261 -0.076303 -0.11137 -0.028536 -0.10842 -0.2027 0.13169 0.13296 -0.16407 -0.31773 0.29419 0.11738 0.28667 -0.21064 0.59628 -0.25536 0.16963 -0.2349 -0.073848 0.19082 
sheol -0.089115 -0.083422 0.16587 0.1316 0.002253 0.029008 -0.38624 -0.20259 -0.25152 -0.19891 -0.2437 -0.15896 0.063434 0.070531 -0.093816 -0.15799 -0.065526 -0.0069865 0.15681 -0.095826 0.26436 0.033066 0.028853 -0.25404 -0.29734 0.22322 0.087791 -0.14338 -0.19767 0.15787 0.11092 -0.53097 0.079077 0.25667 -0.14557 0.23117 0.090771 -0.0096508 -0.23833 0.16614 -0.37052 0.23398 -0.21435 0.11371 -0.045375 0.093591 -0.28789 -0.046673 -0.025774 0.10911 -0.20871 0.058866 -0.42434 -0.091252 -0.19254 -0.085908 -0.058284 0.098831 -0.038108 0.14667 -0.0021066 -0.0084029 0.29454 -0.14212 0.029565 -0.06842 -0.073766 0.25907 0.20592 0.3231 0.1299 0.024888 -0.067642 0.27345 0.1327 -0.012005 0.27079 0.18685 0.099208 -0.18541 0.021153 -0.074086 -0.10598 -0.019473 -0.10407 -0.19472 0.11713 0.14385 -0.15386 -0.29881 0.27521 0.11876 0.28134 -0.18336 0.5654 -0.24455 0.17152 -0.22409 -0.076879 0.20162 
cthy -0.065334 -0.096031 0.16251 0.18692 0.0071454 0.052041 -0.45443 -0.2363 -0.27728 -0.21151 -0.22986 -0.18454 0.07869 0.070887 -0.094211 -0.18101 -0.057678 -0.0018141 0.153 -0.067352 0.26352 0.0538 0.019135 -0.25819 -0.32428 0.22287 0.080776 -0.13747 -0.2155 0.14129 0.11886 -0.53231 0.10487 0.25304 -0.16456 0.25496 0.10276 -0.012894 -0.2507 0.16934 -0.39707 0.21787 -0.20281 0.16424 -0.035744 0.092043 -0.29772 -0.06401 -0.046159 0.093205 -0.22032 0.053493 -0.44241 -0.11288 -0.17549 -0.10269 -0.07432 0.099854 -0.040686 0.15156 0.00043073 -0.0070083 0.30859 -0.15005 0.030031 -0.090699 -0.068663 0.24553 0.21521 0.3485 0.10901 0.0458 -0.075694 0.30118 0.14758 -0.015594 0.30786 0.18941 0.12015 -0.19795 -0.0043282 -0.071763 -0.10258 -0.03205 -0.10791 -0.20204 0.14461 0.12803 -0.16351 -0.33699 0.3069 0.13072 0.29235 -0.21253 0.61052 -0.25906 0.16686 -0.24438 -0.081528 0.18711 
qokey -0.13241 -0.081514 0.18216 0.034804 0.017677 -0.025189 -0.34198 -0.16737 -0.23787 -0.1868 -0.302 -0.12594 0.049301 0.094432 -0.11142 -0.14529 -0.081346 -0.01399 0.19328 -0.14514 0.31039 0.020564 0.042921 -0.2794 -0.27855 0.24743 0.1091 -0.17473 -0.19764 0.19858 0.10882 -0.58759 0.052913 0.31898 -0.11986 0.24039 0.071802 -0.01425 -0.24105 0.16434 -0.352 0.29528 -0.26779 0.039515 -0.075025 0.10929 -0.28492 -0.014485 0.0058734 0.124 -0.21906 0.066963 -0.453 -0.043349 -0.24555 -0.048034 -0.028275 0.12297 -0.039025 0.16743 -0.010363 -0.0019657 0.31359 -0.14051 0.035528 -0.053024 -0.11366 0.314 0.19998 0.3132 0.18247 -0.03628 -0.063381 0.25716 0.12061 -0.0072488 0.22871 0.20489 0.073055 -0.2142 0.069789 -0.089262 -0.12007 -0.023339 -0.1096 -0.21004 0.097191 0.1631 -0.16807 -0.28916 0.25086 0.10022 0.30311 -0.1547 0.55052 -0.24817 0.18263 -0.21011 -0.081701 0.22639 
dair -0.074458 -0.086936 0.15593 0.14225 0.012415 0.02899 -0.40028 -0.21725 -0.26279 -0.19977 -0.24632 -0.16467 0.066567 0.075063 -0.090802 -0.1694 -0.063746 0.0011444 0.15744 -0.081008 0.26807 0.046508 0.020285 -0.25179 -0.30225 0.21886 0.08358 -0.14171 -0.19912 0.15066 0.10808 -0.52134 0.084034 0.2569 -0.1477 0.23707 0.096526 -0.013343 -0.24296 0.16531 -0.37218 0.235 -0.21041 0.13922 -0.041003 0.086617 -0.28702 -0.050461 -0.030592 0.097536 -0.21374 0.060101 -0.43473 -0.091638 -0.18604 -0.082756 -0.068428 0.10408 -0.038561 0.14796 0.0074343 0.003144 0.30192 -0.14355 0.028334 -0.082281 -0.06299 0.25729 0.20209 0.33077 0.1242 0.02786 -0.071329 0.28236 0.13363 -0.014498 0.27475 0.18781 0.1068 -0.19081 0.016009 -0.073054 -0.10905 -0.022666 -0.099367 -0.19467 0.12926 0.12948 -0.1597 -0.30717 0.28843 0.11884 0.2832 -0.19951 0.57931 -0.24545 0.1619 -0.23008 -0.077627 0.18996 
okeedy -0.14959 -0.063465 0.17564 -0.045839 0.027531 -0.074501 -0.27932 -0.13431 -0.22689 -0.16497 -0.3225 -0.095737 0.032387 0.10551 -0.11561 -0.12936 -0.091541 -0.012416 0.20564 -0.17162 0.32692 0.013822 0.061834 -0.27674 -0.24568 0.24828 0.10615 -0.19187 -0.17975 0.20959 0.099591 -0.59115 0.030541 0.3468 -0.091136 0.23987 0.058497 -0.01312 -0.22914 0.15759 -0.3192 0.32688 -0.28495 -0.0069028 -0.097582 0.11039 -0.2673 0.024229 0.018965 0.13285 -0.20813 0.075775 -0.44424 0.0024689 -0.26788 -0.0075239 -0.0059679 0.13213 -0.038631 0.16275 -0.010385 0.0013099 0.31403 -0.12502 0.029045 -0.037286 -0.13088 0.33398 0.17948 0.28867 0.21596 -0.083322 -0.061849 0.22363 0.11072 -0.0094887 0.1867 0.20866 0.052939 -0.22476 0.11297 -0.095985 -0.12918 -0.025228 -0.10237 -0.21652 0.086113 0.1702 -0.1672 -0.2568 0.2228 0.071353 0.30337 -0.1237 0.51015 -0.23428 0.182 -0.18547 -0.079683 0.22709 
qokol -0.098717 -0.087276 0.17058 0.10563 0.010441 0.0090642 -0.37514 -0.19099 -0.24635 -0.18933 -0.25349 -0.15053 0.060446 0.075702 -0.098243 -0.15593 -0.070755 -0.0055525 0.16974 -0.10563 0.27526 0.026722 0.035085 -0.2576 -0.28781 0.22692 0.092441 -0.15193 -0.19215 0.16763 0.11173 -0.53738 0.073135 0.27312 -0.13333 0.24151 0.081882 -0.008311 -0.23685 0.15913 -0.35684 0.24696 -0.22266 0.09447 -0.059101 0.097877 -0.28058 -0.029263 -0.021694 0.11009 -0.20555 0.056637 -0.42744 -0.071537 -0.20132 -0.075494 -0.043288 0.10521 -0.03587 0.15441 -0.0094666 -0.0036004 0.29811 -0.13917 0.036062 -0.064855 -0.083843 0.2667 0.19977 0.31735 0.14453 0.0032579 -0.067769 0.26205 0.13197 -0.008898 0.25462 0.18858 0.089277 -0.19727 0.030263 -0.074981 -0.10763 -0.029221 -0.1055 -0.19939 0.11512 0.15026 -0.15833 -0.29614 0.26778 0.1097 0.28439 -0.17147 0.55897 -0.24177 0.17007 -0.21519 -0.080136 0.20108 
shy -0.073486 -0.09352 0.16095 0.17305 0.0040102 0.048356 -0.43576 -0.23009 -0.27252 -0.20943 -0.22939 -0.1778 0.076975 0.068779 -0.092738 -0.17265 -0.054254 -0.00268 0.16039 -0.075233 0.26439 0.04145 0.021203 -0.25669 -0.3167 0.22384 0.085587 -0.13764 -0.21207 0.14829 0.11663 -0.52972 0.092416 0.25866 -0.15702 0.24675 0.097345 -0.01135 -0.24725 0.16932 -0.39073 0.21945 -0.2084 0.14994 -0.036484 0.087556 -0.29548 -0.050239 -0.041781 0.092723 -0.21728 0.052096 -0.43531 -0.10159 -0.18039 -0.096666 -0.07205 0.10012 -0.039177 0.15752 0.0016799 -0.0098654 0.30157 -0.14664 0.0335 -0.083856 -0.069189 0.24868 0.20604 0.34542 0.11626 0.043021 -0.071371 0.29302 0.14707 -0.011263 0.29459 0.18601 0.11378 -0.20107 0.0090853 -0.075927 -0.10315 -0.033362 -0.10333 -0.2012 0.14078 0.13082 -0.16023 -0.32657 0.29682 0.12395 0.28954 -0.20342 0.59715 -0.25753 0.16856 -0.23983 -0.079872 0.19109 
oky -0.079967 -0.085797 0.16011 0.14083 0.0078167 0.032637 -0.40422 -0.21632 -0.26589 -0.20752 -0.25519 -0.16861 0.068535 0.078484 -0.096479 -0.17333 -0.06086 -0.0027608 0.16595 -0.08715 0.2669 0.042083 0.025141 -0.26322 -0.31063 0.2259 0.087057 -0.14989 -0.2091 0.15426 0.10821 -0.53458 0.08329 0.26411 -0.14923 0.24398 0.095702 -0.014325 -0.24842 0.16626 -0.38177 0.23869 -0.21486 0.13371 -0.043241 0.095661 -0.28604 -0.049553 -0.032935 0.096275 -0.22132 0.060129 -0.44147 -0.093299 -0.19624 -0.081629 -0.065585 0.10382 -0.039853 0.14604 0.0035241 -0.0098427 0.30512 -0.14717 0.02635 -0.082012 -0.071896 0.26503 0.207 0.33307 0.1242 0.023292 -0.070345 0.28398 0.13425 -0.01206 0.27938 0.1876 0.10968 -0.19177 0.020594 -0.077008 -0.11183 -0.027262 -0.10295 -0.19688 0.12548 0.13675 -0.16402 -0.31472 0.28398 0.12015 0.29093 -0.20159 0.58822 -0.25278 0.16979 -0.23358 -0.082028 0.19685 
oteedy -0.13779 -0.064892 0.17902 -0.014232 0.030823 -0.064766 -0.31597 -0.16032 -0.24929 -0.17725 -0.32431 -0.11564 0.03884 0.10897 -0.11063 -0.14028 -0.091098 -0.0074951 0.21362 -0.16399 0.33639 0.022341 0.054593 -0.28806 -0.25917 0.25062 0.10515 -0.18961 -0.19226 0.20396 0.10253 -0.61454 0.044372 0.34931 -0.099017 0.25664 0.070466 -0.018121 -0.24551 0.16333 -0.34195 0.32586 -0.28328 0.02853 -0.09659 0.11113 -0.28147 0.015642 0.012304 0.13014 -0.223 0.079536 -0.46956 -0.01169 -0.26351 -0.017221 -0.011024 0.13569 -0.041499 0.16835 -0.0015519 0.0062882 0.32669 -0.13663 0.033201 -0.045532 -0.12383 0.34176 0.18454 0.30658 0.21304 -0.069949 -0.068965 0.24569 0.12472 -0.012118 0.21243 0.21691 0.068733 -0.23691 0.10452 -0.093272 -0.13457 -0.030972 -0.10534 -0.23255 0.10516 0.17184 -0.17854 -0.27871 0.24995 0.081366 0.31441 -0.14261 0.55295 -0.24264 0.18187 -0.19881 -0.080527 0.22321 
cheor -0.087721 -0.092461 0.16505 0.15346 0.01116 0.041377 -0.40841 -0.22035 -0.26971 -0.21346 -0.26069 -0.1713 0.06958 0.071987 -0.093797 -0.17258 -0.064317 -0.011571 0.15554 -0.089104 0.26796 0.048184 0.023158 -0.26166 -0.32286 0.2272 0.08861 -0.15154 -0.21455 0.15445 0.11231 -0.54725 0.094223 0.26165 -0.16368 0.2503 0.1009 -0.012537 -0.25676 0.17119 -0.39454 0.24246 -0.21139 0.14607 -0.040217 0.099755 -0.29786 -0.065167 -0.023802 0.10135 -0.22111 0.060263 -0.44618 -0.099428 -0.19204 -0.090497 -0.072415 0.098393 -0.039192 0.15194 -0.0074232 -0.0068989 0.30766 -0.14553 0.029562 -0.08649 -0.076374 0.26658 0.21426 0.33529 0.12326 0.032393 -0.068595 0.29552 0.1358 -0.016118 0.28765 0.1926 0.11093 -0.19015 0.013271 -0.081654 -0.1107 -0.017959 -0.10028 -0.19434 0.11482 0.14386 -0.16433 -0.32534 0.29358 0.12942 0.2886 -0.2076 0.59581 -0.25845 0.1756 -0.24273 -0.083625 0.20516 
dam -0.085781 -0.098137 0.16735 0.14261 0.008794 0.028631 -0.41434 -0.22813 -0.27595 -0.211 -0.26717 -0.16806 0.068246 0.078368 -0.098682 -0.17581 -0.06692 -0.0027633 0.1755 -0.092593 0.28847 0.04155 0.026356 -0.27223 -0.32393 0.23806 0.088577 -0.16176 -0.21592 0.16432 0.11302 -0.56306 0.081712 0.28119 -0.15286 0.25631 0.09972 -0.016088 -0.2653 0.17367 -0.39998 0.25678 -0.22477 0.13467 -0.048112 0.10161 -0.30655 -0.052652 -0.029855 0.1029 -0.23199 0.066985 -0.46433 -0.09207 -0.20492 -0.086859 -0.066041 0.11901 -0.044709 0.15998 0.0010798 -0.0070757 0.32348 -0.15212 0.031445 -0.087757 -0.078961 0.28182 0.21589 0.35306 0.13704 0.020282 -0.076395 0.29513 0.14267 -0.01422 0.29315 0.20263 0.113 -0.20756 0.027405 -0.080993 -0.11543 -0.030196 -0.11264 -0.21 0.13415 0.14656 -0.17042 -0.32936 0.302 0.12523 0.30852 -0.20638 0.62188 -0.26038 0.179 -0.2441 -0.086078 0.20656 
shor -0.055278 -0.092163 0.14913 0.19966 0.0018824 0.059071 -0.43851 -0.23368 -0.26327 -0.20494 -0.20382 -0.18444 0.080257 0.060323 -0.084299 -0.17588 -0.046977 -0.0013959 0.14093 -0.056775 0.24095 0.049942 0.015625 -0.24383 -0.31548 0.21248 0.076383 -0.12531 -0.20594 0.13018 0.114 -0.50029 0.099846 0.22626 -0.16414 0.233 0.10019 -0.012829 -0.24141 0.16356 -0.38902 0.19293 -0.18042 0.1713 -0.02568 0.083434 -0.2885 -0.065479 -0.048637 0.088714 -0.20645 0.047931 -0.41501 -0.11695 -0.16064 -0.11265 -0.075805 0.086792 -0.038625 0.1443 0.0029204 -0.0045238 0.28748 -0.14791 0.028124 -0.089717 -0.055768 0.22638 0.20985 0.3341 0.093575 0.058013 -0.068886 0.29086 0.13981 -0.010357 0.29473 0.17711 0.123 -0.17682 -0.015485 -0.064934 -0.099158 -0.026339 -0.098514 -0.1879 0.14081 0.12452 -0.15217 -0.32106 0.29462 0.13026 0.27422 -0.207 0.58752 -0.24478 0.16395 -0.23284 -0.078185 0.17313 
otain -0.091829 -0.081392 0.15368 0.10594 0.015795 0.017106 -0.38915 -0.20344 -0.25629 -0.19552 -0.26732 -0.15869 0.057571 0.087993 -0.095856 -0.15857 -0.068213 -0.0042363 0.1627 -0.092085 0.27432 0.039348 0.030838 -0.25498 -0.29415 0.21899 0.082543 -0.16087 -0.20449 0.15461 0.094744 -0.53063 0.071157 0.27236 -0.12977 0.23836 0.093387 -0.019855 -0.25176 0.15203 -0.3591 0.25255 -0.21565 0.11082 -0.044141 0.082455 -0.2744 -0.039358 -0.02063 0.094569 -0.21694 0.061335 -0.43693 -0.081439 -0.20519 -0.067389 -0.064799 0.1056 -0.040011 0.14586 0.0016346 -0.0022279 0.29989 -0.13476 0.028048 -0.080286 -0.073347 0.27298 0.19272 0.31779 0.13553 0.003815 -0.061572 0.27014 0.12047 -0.012591 0.26258 0.18524 0.096929 -0.1959 0.045887 -0.084652 -0.11809 -0.02661 -0.096838 -0.19002 0.11198 0.13258 -0.15707 -0.29279 0.27696 0.10887 0.28881 -0.19277 0.56424 -0.24298 0.17336 -0.22343 -0.081436 0.19956 
chody -0.067033 -0.087401 0.15903 0.16908 0.010007 0.040007 -0.39397 -0.22852 -0.27149 -0.20228 -0.23006 -0.16877 0.074007 0.068663 -0.081031 -0.17623 -0.05881 0.0024918 0.15489 -0.075455 0.26032 0.04852 0.019913 -0.25158 -0.31048 0.21384 0.078895 -0.1345 -0.20343 0.14871 0.11412 -0.52074 0.097401 0.24244 -0.15195 0.24779 0.10103 -0.011727 -0.24118 0.16453 -0.37736 0.21752 -0.20253 0.1574 -0.038856 0.086849 -0.28832 -0.054309 -0.04001 0.089739 -0.2139 0.055 -0.42387 -0.09447 -0.17073 -0.10079 -0.065496 0.099183 -0.03676 0.14523 0.001996 -0.0066514 0.30203 -0.14363 0.031183 -0.086837 -0.06449 0.24975 0.20865 0.33434 0.11056 0.037454 -0.071267 0.28828 0.14254 -0.014866 0.28333 0.18573 0.11131 -0.18412 0.0025003 -0.06752 -0.098996 -0.034575 -0.10137 -0.19829 0.14062 0.13217 -0.16474 -0.32559 0.29389 0.12188 0.27719 -0.20063 0.58699 -0.2443 0.16099 -0.23005 -0.076508 0.18276 
qotedy -0.13896 -0.067029 0.17826 -0.018014 0.030943 -0.067542 -0.30143 -0.1494 -0.23841 -0.16626 -0.3097 -0.10813 0.036191 0.098378 -0.10498 -0.13203 -0.090073 -0.0076194 0.20745 -0.16493 0.32851 0.020853 0.056455 -0.28088 -0.24614 0.24369 0.10337 -0.18064 -0.18023 0.20152 0.10402 -0.59025 0.040695 0.34121 -0.093522 0.24969 0.064872 -0.015834 -0.23334 0.15796 -0.32561 0.31232 -0.27982 0.018242 -0.098353 0.11032 -0.27255 0.017273 0.011428 0.13032 -0.20667 0.076007 -0.44521 -0.0084563 -0.25209 -0.022744 -0.0055746 0.12996 -0.034873 0.1669 -0.0075354 -0.00080005 0.3161 -0.12957 0.037651 -0.038818 -0.12361 0.32824 0.17572 0.29516 0.20821 -0.069835 -0.067405 0.23259 0.12271 -0.0094306 0.20132 0.21201 0.059909 -0.23282 0.098629 -0.090499 -0.12586 -0.034219 -0.10397 -0.2253 0.10582 0.16984 -0.17067 -0.26947 0.23751 0.079249 0.30425 -0.1277 0.52899 -0.23368 0.17498 -0.188 -0.08174 0.21542 
ain -0.11194 -0.093489 0.17282 0.104 0.01212 0.018692 -0.42772 -0.21657 -0.27556 -0.20734 -0.29422 -0.16978 0.058389 0.094748 -0.10753 -0.16535 -0.077235 -0.0083831 0.1707 -0.10448 0.29667 0.036488 0.034913 -0.27677 -0.31507 0.23934 0.092386 -0.17975 -0.21958 0.17013 0.098393 -0.57333 0.070139 0.29775 -0.13861 0.25174 0.098227 -0.022802 -0.27353 0.16777 -0.38486 0.28122 -0.24181 0.10914 -0.049668 0.087158 -0.29287 -0.043987 -0.018889 0.1086 -0.23476 0.0675 -0.47356 -0.08701 -0.22834 -0.072897 -0.071738 0.11518 -0.046377 0.16301 -0.0040606 -0.0060403 0.32161 -0.14086 0.030188 -0.084442 -0.084606 0.29175 0.21179 0.34424 0.15058 0.00085646 -0.060902 0.28654 0.12209 -0.011644 0.28266 0.20379 0.10209 -0.21428 0.055575 -0.09234 -0.12836 -0.027039 -0.10795 -0.20013 0.11119 0.15074 -0.16405 -0.31431 0.29377 0.11446 0.31672 -0.20871 0.60145 -0.26382 0.1963 -0.24479 -0.088327 0.22426 
cheody -0.091691 -0.084216 0.16498 0.11905 0.012645 0.015948 -0.36927 -0.20278 -0.26342 -0.20394 -0.27029 -0.15494 0.061562 0.078825 -0.09106 -0.16006 -0.06651 -0.0080906 0.16754 -0.10231 0.27804 0.04128 0.030153 -0.2603 -0.29882 0.22652 0.089848 -0.15135 -0.20205 0.16515 0.10947 -0.54853 0.084725 0.27172 -0.14395 0.24826 0.0935 -0.013065 -0.24607 0.17276 -0.37015 0.24963 -0.22692 0.12383 -0.050214 0.10228 -0.29008 -0.047721 -0.016299 0.10449 -0.21746 0.063656 -0.43639 -0.075343 -0.19756 -0.077753 -0.055448 0.10695 -0.039361 0.1543 0.0043607 -0.0072262 0.30579 -0.14272 0.029806 -0.07724 -0.082541 0.27831 0.20723 0.32826 0.13674 0.0087495 -0.07229 0.28021 0.13068 -0.017521 0.26492 0.1935 0.09978 -0.18812 0.032288 -0.079588 -0.11006 -0.022883 -0.10404 -0.19873 0.11808 0.14417 -0.16548 -0.31118 0.27924 0.11883 0.28333 -0.1916 0.57512 -0.2487 0.17133 -0.22693 -0.078858 0.20433 
am -0.095836 -0.090286 0.17194 0.13265 0.010136 0.018049 -0.42795 -0.22842 -0.28611 -0.21933 -0.28073 -0.16702 0.067887 0.094283 -0.10583 -0.17634 -0.070825 -0.0068517 0.1894 -0.10296 0.30194 0.040757 0.036302 -0.28139 -0.32829 0.24233 0.09708 -0.17 -0.22072 0.16787 0.11378 -0.5905 0.077945 0.30185 -0.15234 0.25943 0.099938 -0.017236 -0.26741 0.17655 -0.40828 0.26682 -0.23731 0.12905 -0.051482 0.1011 -0.31376 -0.047651 -0.033782 0.10251 -0.23955 0.073204 -0.48098 -0.08672 -0.22468 -0.079804 -0.067388 0.11942 -0.044306 0.16519 0.0090589 -0.0017835 0.33554 -0.15821 0.032291 -0.083771 -0.084402 0.29563 0.22331 0.3631 0.15503 0.0071173 -0.070217 0.29371 0.14184 -0.018125 0.29434 0.20553 0.10853 -0.21607 0.040823 -0.091926 -0.11947 -0.031227 -0.11121 -0.21715 0.13901 0.14611 -0.17829 -0.33335 0.30702 0.12482 0.31576 -0.20763 0.62679 -0.27451 0.18157 -0.24692 -0.090215 0.21887 
qoty -0.098636 -0.087452 0.16632 0.10253 0.018555 0.0056318 -0.37514 -0.19665 -0.25507 -0.18779 -0.25872 -0.15167 0.060829 0.07617 -0.096461 -0.15636 -0.067124 -0.0029111 0.17577 -0.10987 0.28631 0.035495 0.029637 -0.26426 -0.28857 0.23042 0.090876 -0.15676 -0.19682 0.16719 0.11027 -0.54984 0.07535 0.27923 -0.13288 0.2423 0.082353 -0.014782 -0.23931 0.16273 -0.36043 0.25097 -0.23252 0.10231 -0.055816 0.095849 -0.2843 -0.032749 -0.022137 0.1092 -0.21028 0.063485 -0.43876 -0.07037 -0.20693 -0.07234 -0.047094 0.1133 -0.035437 0.15307 -0.002977 -0.0081157 0.30535 -0.14088 0.034341 -0.067764 -0.08656 0.27532 0.19625 0.32251 0.1473 0.0022262 -0.070477 0.26904 0.13351 -0.011983 0.25682 0.19685 0.095627 -0.2077 0.037826 -0.077721 -0.10874 -0.030966 -0.10321 -0.20914 0.12184 0.14573 -0.16263 -0.30472 0.26967 0.10914 0.29414 -0.17487 0.57186 -0.24379 0.16962 -0.21665 -0.082146 0.19827 
otol -0.07167 -0.09414 0.16204 0.16978 0.010459 0.04211 -0.42691 -0.23474 -0.27426 -0.21399 -0.24596 -0.17896 0.070752 0.074559 -0.095732 -0.17984 -0.061607 0.0023627 0.16135 -0.079366 0.26534 0.046276 0.020571 -0.25605 -0.32351 0.22603 0.083021 -0.14026 -0.21591 0.1538 0.11594 -0.54319 0.097768 0.25443 -0.15794 0.25378 0.10636 -0.011895 -0.25712 0.16979 -0.39714 0.23458 -0.20806 0.15431 -0.036225 0.094799 -0.30261 -0.055962 -0.036721 0.093494 -0.21911 0.057178 -0.44541 -0.1052 -0.18486 -0.097451 -0.069444 0.10366 -0.043121 0.15126 0.0034706 -0.0046148 0.31172 -0.15079 0.032358 -0.091174 -0.064929 0.26158 0.2126 0.34775 0.12249 0.043758 -0.071302 0.2977 0.14491 -0.015103 0.29748 0.18682 0.12068 -0.19384 0.0049179 -0.072197 -0.11023 -0.029772 -0.10762 -0.20241 0.13683 0.13537 -0.16787 -0.32435 0.30161 0.12916 0.29114 -0.21197 0.60715 -0.25813 0.16534 -0.23775 -0.077957 0.19185 
r -0.088965 -0.086352 0.15263 0.13219 0.017285 0.028291 -0.39853 -0.20935 -0.25683 -0.20742 -0.25285 -0.1618 0.071846 0.077066 -0.089489 -0.16875 -0.065159 -0.012664 0.1661 -0.089851 0.27069 0.045762 0.023439 -0.25865 -0.29589 0.2219 0.081951 -0.15017 -0.20404 0.15666 0.099115 -0.52952 0.077719 0.26399 -0.14184 0.24884 0.095061 -0.020985 -0.25008 0.16739 -0.36999 0.23322 -0.21731 0.12829 -0.048993 0.090496 -0.28969 -0.040277 -0.031003 0.093888 -0.21622 0.061107 -0.44146 -0.08613 -0.1959 -0.084249 -0.060245 0.11134 -0.041076 0.14734 -0.0034833 -0.0034676 0.29948 -0.14035 0.026808 -0.078257 -0.06807 0.27049 0.20063 0.32089 0.12928 0.018323 -0.061728 0.28479 0.12509 -0.020405 0.27647 0.18412 0.095239 -0.18748 0.032761 -0.076867 -0.10847 -0.020351 -0.096133 -0.19753 0.11796 0.13771 -0.16428 -0.31071 0.27297 0.11406 0.2893 -0.19269 0.57717 -0.23887 0.1716 -0.22841 -0.079877 0.19306 
sar -0.095476 -0.082455 0.16098 0.11695 0.018591 0.019158 -0.40797 -0.20679 -0.26369 -0.20371 -0.26224 -0.15767 0.059385 0.087692 -0.099879 -0.16514 -0.065702 -0.010225 0.17023 -0.097407 0.28459 0.039018 0.027196 -0.26022 -0.3054 0.22248 0.089124 -0.15045 -0.20846 0.1559 0.10606 -0.54606 0.07717 0.2756 -0.14484 0.24362 0.094909 -0.02012 -0.25553 0.16616 -0.37844 0.25501 -0.22076 0.12007 -0.047439 0.091196 -0.28985 -0.044823 -0.023061 0.1029 -0.22369 0.068913 -0.45203 -0.080351 -0.20687 -0.075467 -0.065399 0.10809 -0.045411 0.15227 0.010412 0.0005414 0.30979 -0.14799 0.03375 -0.082458 -0.076736 0.27859 0.19777 0.32796 0.13911 0.0063104 -0.068301 0.28138 0.13272 -0.0079675 0.27464 0.18865 0.10247 -0.199 0.035225 -0.077008 -0.11329 -0.027196 -0.10443 -0.20061 0.12339 0.13925 -0.16319 -0.30725 0.28329 0.11682 0.29324 -0.19962 0.58989 -0.25149 0.17595 -0.23114 -0.075931 0.20013 
sheedy -0.148 -0.063829 0.1806 -0.028795 0.029327 -0.070386 -0.31926 -0.14604 -0.24268 -0.17046 -0.31906 -0.10934 0.03735 0.1057 -0.11254 -0.13573 -0.092889 -0.010023 0.21054 -0.1713 0.34153 0.013688 0.060541 -0.28668 -0.25205 0.25253 0.10599 -0.19078 -0.18397 0.20925 0.10424 -0.61132 0.031052 0.35458 -0.099148 0.24797 0.065725 -0.01529 -0.2405 0.1614 -0.33467 0.32588 -0.28906 0.0056882 -0.096867 0.11009 -0.27707 0.020222 0.011999 0.14046 -0.21692 0.078041 -0.46261 -0.008892 -0.26707 -0.01984 -0.011696 0.13188 -0.038018 0.17267 -0.0077257 -0.00076402 0.32132 -0.13417 0.03255 -0.039279 -0.12839 0.337 0.183 0.30342 0.21565 -0.077014 -0.065094 0.23557 0.12203 -0.0098538 0.20412 0.21854 0.060426 -0.23748 0.11375 -0.10121 -0.13358 -0.029419 -0.10813 -0.22808 0.10084 0.17627 -0.16596 -0.27095 0.24168 0.073905 0.31324 -0.13046 0.53723 -0.23965 0.1875 -0.19362 -0.086252 0.22654 
okol -0.072009 -0.09284 0.16371 0.17377 0.0048605 0.048192 -0.41026 -0.22179 -0.26277 -0.20723 -0.23626 -0.17701 0.072499 0.070684 -0.091934 -0.17828 -0.061989 -0.00078031 0.15306 -0.076199 0.25488 0.040032 0.025035 -0.24904 -0.31744 0.22147 0.082551 -0.13621 -0.20962 0.14986 0.11572 -0.51984 0.095754 0.24321 -0.15737 0.24118 0.10129 -0.0087624 -0.24619 0.16533 -0.38731 0.21762 -0.19763 0.15323 -0.037594 0.090866 -0.28779 -0.053604 -0.039292 0.094943 -0.20988 0.050687 -0.42939 -0.10643 -0.17867 -0.097378 -0.066383 0.093655 -0.038286 0.1422 0.0022187 -0.0063982 0.29968 -0.14752 0.031257 -0.08294 -0.059377 0.24584 0.21031 0.33874 0.10957 0.044361 -0.069417 0.28839 0.13946 -0.013988 0.29053 0.18052 0.11588 -0.18207 -0.0011587 -0.06719 -0.1037 -0.027628 -0.10508 -0.1907 0.12792 0.13505 -0.1608 -0.31852 0.29306 0.12521 0.28115 -0.20734 0.59092 -0.24924 0.16499 -0.23612 -0.078975 0.19279 
chcthy -0.079478 -0.092187 0.16052 0.15018 0.0097529 0.033592 -0.41091 -0.22023 -0.2668 -0.2037 -0.24624 -0.16843 0.068058 0.074454 -0.09524 -0.16956 -0.061439 -0.0031463 0.15983 -0.084795 0.27192 0.044732 0.023987 -0.25448 -0.31022 0.22288 0.082459 -0.1461 -0.20875 0.14819 0.11251 -0.5346 0.090423 0.26528 -0.15137 0.24742 0.096091 -0.013575 -0.24988 0.16184 -0.37933 0.23391 -0.21256 0.13894 -0.042758 0.090654 -0.28659 -0.051078 -0.033721 0.094715 -0.21511 0.059491 -0.43697 -0.092016 -0.19009 -0.087502 -0.066501 0.10253 -0.037709 0.14959 0.00063846 -0.0047717 0.30547 -0.14299 0.028492 -0.087335 -0.07368 0.26149 0.20531 0.33406 0.12323 0.027127 -0.068852 0.28883 0.13748 -0.014645 0.28288 0.18993 0.10804 -0.19451 0.017057 -0.077412 -0.10848 -0.032351 -0.1036 -0.19777 0.12904 0.13193 -0.16032 -0.32112 0.29229 0.12043 0.29193 -0.20019 0.58907 -0.24934 0.16904 -0.23276 -0.081055 0.19064 
qotaiin -0.081953 -0.085323 0.15326 0.12775 0.015118 0.025933 -0.41744 -0.21353 -0.26621 -0.1971 -0.25649 -0.16342 0.0647 0.077966 -0.090617 -0.16077 -0.060069 0.0022543 0.15698 -0.090751 0.27082 0.046147 0.021557 -0.25711 -0.29814 0.2173 0.077924 -0.14949 -0.20113 0.14681 0.10302 -0.5227 0.078815 0.26283 -0.13481 0.243 0.096863 -0.024531 -0.24774 0.15269 -0.36835 0.23345 -0.20919 0.13213 -0.04047 0.07845 -0.27896 -0.046178 -0.027797 0.095267 -0.21126 0.059181 -0.43508 -0.087234 -0.19397 -0.084593 -0.064559 0.10797 -0.036759 0.14342 0.0079941 -0.0065471 0.29855 -0.14019 0.032556 -0.086145 -0.067388 0.26188 0.19743 0.32516 0.12743 0.017014 -0.066795 0.2775 0.12799 -0.012105 0.27004 0.1852 0.10625 -0.20141 0.032759 -0.078994 -0.11257 -0.0291 -0.094692 -0.19757 0.12743 0.1273 -0.15883 -0.3021 0.28494 0.11277 0.28741 -0.20298 0.5772 -0.24393 0.17114 -0.22594 -0.085195 0.19503 
sol -0.083699 -0.088696 0.16893 0.14926 0.00613 0.036939 -0.40608 -0.21461 -0.26301 -0.19759 -0.24005 -0.16788 0.066644 0.070324 -0.095771 -0.16806 -0.068034 -0.007427 0.15937 -0.084493 0.26283 0.038265 0.027356 -0.25347 -0.31099 0.2226 0.087834 -0.14234 -0.20684 0.15909 0.10988 -0.53487 0.089424 0.25547 -0.15496 0.24386 0.096154 -0.0048107 -0.2476 0.16639 -0.38025 0.23855 -0.20884 0.13224 -0.041431 0.093184 -0.29547 -0.048436 -0.033988 0.10164 -0.21254 0.055499 -0.43195 -0.099363 -0.18907 -0.094338 -0.058739 0.10097 -0.035647 0.15012 -0.0027278 -0.0084255 0.30429 -0.14377 0.033008 -0.075616 -0.066162 0.25673 0.21154 0.33338 0.12466 0.032844 -0.067556 0.28706 0.13733 -0.013585 0.28023 0.18549 0.10863 -0.19033 0.0091753 -0.070216 -0.11018 -0.024423 -0.10606 -0.19364 0.1205 0.14302 -0.15892 -0.31471 0.28622 0.12194 0.2893 -0.19574 0.58718 -0.24922 0.16766 -0.22616 -0.078195 0.19684 
raiin -0.073226 -0.092386 0.15183 0.15832 0.010879 0.046796 -0.46037 -0.23729 -0.28187 -0.2089 -0.25921 -0.17967 0.075258 0.077827 -0.091353 -0.1731 -0.055856 0.0037264 0.1508 -0.07757 0.26773 0.049325 0.014684 -0.2615 -0.32128 0.21949 0.0746 -0.14876 -0.21125 0.14168 0.10248 -0.52488 0.089874 0.25747 -0.1491 0.24894 0.10806 -0.029088 -0.2598 0.15383 -0.39424 0.22789 -0.20211 0.15749 -0.027177 0.075165 -0.28789 -0.060501 -0.034402 0.090609 -0.21831 0.059281 -0.44767 -0.1089 -0.18762 -0.09633 -0.081018 0.10915 -0.040082 0.14884 0.0096506 -0.0080867 0.30479 -0.147 0.029221 -0.10091 -0.059221 0.25826 0.20784 0.34532 0.11776 0.037765 -0.067857 0.29481 0.13306 -0.011628 0.29475 0.18884 0.1175 -0.20036 0.023801 -0.081304 -0.11394 -0.025875 -0.097637 -0.19796 0.13404 0.12229 -0.16055 -0.31772 0.30475 0.12158 0.29106 -0.22331 0.60167 -0.25571 0.17369 -0.24301 -0.08679 0.19886 
air -0.085927 -0.087906 0.16928 0.13649 0.018157 0.018774 -0.42264 -0.22765 -0.27622 -0.21351 -0.26995 -0.16666 0.062372 0.083021 -0.10099 -0.17495 -0.068777 -0.0028713 0.17909 -0.093128 0.28824 0.041868 0.030862 -0.27213 -0.32278 0.23171 0.084493 -0.15464 -0.21696 0.16434 0.11328 -0.56472 0.084916 0.28101 -0.15299 0.25016 0.097917 -0.016574 -0.26435 0.17511 -0.39181 0.2576 -0.23376 0.13526 -0.049226 0.097044 -0.30097 -0.047262 -0.027738 0.10581 -0.22855 0.066346 -0.46689 -0.092507 -0.2139 -0.081926 -0.065063 0.11305 -0.03952 0.15781 0.0093358 0.0020139 0.32089 -0.15191 0.029617 -0.082984 -0.073173 0.28518 0.21321 0.34734 0.14098 0.016513 -0.074177 0.29329 0.13693 -0.016278 0.28696 0.20044 0.1091 -0.20641 0.025852 -0.082042 -0.11818 -0.027792 -0.10794 -0.21087 0.13284 0.14695 -0.17076 -0.32507 0.30533 0.12256 0.30676 -0.20723 0.61694 -0.25872 0.17629 -0.24054 -0.083832 0.20604 
qoteedy -0.13777 -0.066062 0.17751 -0.01553 0.029353 -0.062448 -0.30795 -0.15046 -0.23867 -0.16858 -0.31153 -0.10864 0.037191 0.099517 -0.10564 -0.1342 -0.08976 -0.0075536 0.20565 -0.16128 0.32904 0.021377 0.053676 -0.2795 -0.2507 0.24438 0.10441 -0.18468 -0.18376 0.20015 0.10267 -0.5932 0.041035 0.33987 -0.09587 0.24902 0.063729 -0.016459 -0.23438 0.15632 -0.32678 0.31426 -0.27781 0.021371 -0.095108 0.10883 -0.27166 0.015251 0.011688 0.12994 -0.2102 0.075902 -0.45035 -0.010347 -0.25473 -0.021564 -0.0080122 0.1307 -0.03648 0.16422 -0.0070706 0.0015385 0.3148 -0.13036 0.034902 -0.042014 -0.12134 0.32735 0.1797 0.29651 0.20585 -0.068564 -0.066225 0.235 0.11946 -0.011719 0.20211 0.21429 0.061748 -0.23367 0.099678 -0.089351 -0.12921 -0.031839 -0.1027 -0.22627 0.10111 0.16836 -0.16988 -0.27079 0.23937 0.077173 0.30579 -0.13109 0.53363 -0.23379 0.17638 -0.19138 -0.08242 0.21621 
dor -0.074105 -0.093642 0.16204 0.17329 0.010292 0.042795 -0.42327 -0.22758 -0.27231 -0.21069 -0.2372 -0.17602 0.073222 0.070422 -0.089069 -0.17709 -0.059442 -0.0033357 0.15752 -0.076532 0.26708 0.043062 0.019365 -0.25963 -0.32535 0.22278 0.082822 -0.14273 -0.21562 0.14559 0.1151 -0.53929 0.094444 0.25488 -0.16409 0.24597 0.10343 -0.01459 -0.25202 0.17322 -0.39546 0.22689 -0.20457 0.15943 -0.034577 0.092192 -0.2961 -0.06016 -0.03383 0.099809 -0.21784 0.056626 -0.44302 -0.10096 -0.1868 -0.099359 -0.066318 0.1008 -0.041508 0.14911 -0.0012685 -0.006938 0.3111 -0.15183 0.029378 -0.080778 -0.064258 0.25856 0.21839 0.34032 0.11778 0.038736 -0.071069 0.29614 0.14469 -0.011599 0.2913 0.18569 0.11649 -0.19065 0.0044303 -0.074872 -0.10596 -0.021814 -0.10421 -0.19965 0.13288 0.13764 -0.16593 -0.33007 0.30004 0.12707 0.28726 -0.20969 0.6072 -0.25613 0.16943 -0.2385 -0.079625 0.19421 
char -0.077461 -0.08423 0.15211 0.14705 0.0053773 0.040568 -0.41601 -0.21525 -0.26446 -0.2014 -0.24557 -0.17087 0.067908 0.073363 -0.088924 -0.16688 -0.059277 -0.005013 0.15947 -0.081146 0.26145 0.044603 0.023452 -0.24709 -0.30937 0.21815 0.08045 -0.14185 -0.20744 0.14398 0.10454 -0.52053 0.086136 0.25302 -0.14936 0.23875 0.098708 -0.016473 -0.25155 0.15849 -0.37471 0.22802 -0.20461 0.14451 -0.036718 0.088769 -0.28084 -0.056884 -0.025884 0.091011 -0.21313 0.055627 -0.43242 -0.097279 -0.18731 -0.091014 -0.07056 0.098732 -0.03658 0.14225 0.001672 -0.0030494 0.29463 -0.14355 0.02863 -0.088473 -0.068162 0.25164 0.19967 0.32645 0.12084 0.025205 -0.06933 0.28039 0.12948 -0.012956 0.28055 0.17734 0.11045 -0.1918 0.020052 -0.076089 -0.11109 -0.030972 -0.098071 -0.1923 0.12085 0.13137 -0.15722 -0.31554 0.28307 0.12279 0.28183 -0.20133 0.58278 -0.24502 0.16575 -0.23449 -0.081836 0.19255 
o -0.074731 -0.076992 0.14456 0.12327 0.010809 0.024457 -0.36959 -0.194 -0.23652 -0.1948 -0.23033 -0.14969 0.065423 0.077141 -0.091411 -0.15264 -0.058519 -0.00032666 0.14909 -0.078813 0.25135 0.038097 0.026047 -0.24098 -0.28157 0.20466 0.083194 -0.13313 -0.18579 0.13466 0.10529 -0.49014 0.083835 0.23815 -0.13831 0.21591 0.087139 -0.0087657 -0.22966 0.14539 -0.33738 0.22117 -0.19823 0.12022 -0.041917 0.078098 -0.26371 -0.042631 -0.033378 0.093128 -0.19492 0.053123 -0.40835 -0.08188 -0.17731 -0.085308 -0.065807 0.095978 -0.044954 0.13242 -0.0025148 -0.0023675 0.27944 -0.12808 0.022144 -0.075948 -0.068656 0.24488 0.18798 0.30079 0.11497 0.018734 -0.053872 0.25448 0.12482 -0.0092419 0.25486 0.17088 0.097982 -0.17848 0.024889 -0.070179 -0.096866 -0.022618 -0.099909 -0.18731 0.11228 0.12971 -0.15576 -0.27813 0.25797 0.11695 0.26908 -0.18467 0.53895 -0.23014 0.15784 -0.20474 -0.073722 0.17612 
qokchy -0.083371 -0.089779 0.16215 0.1322 0.0097148 0.025492 -0.38548 -0.20828 -0.25779 -0.19656 -0.23572 -0.16105 0.068051 0.069115 -0.090422 -0.16034 -0.060248 -0.0013798 0.16109 -0.090898 0.26561 0.036912 0.024724 -0.25667 -0.29594 0.22339 0.087878 -0.14079 -0.19838 0.15278 0.11065 -0.52537 0.080347 0.26248 -0.14086 0.24145 0.087907 -0.011286 -0.23931 0.16002 -0.36498 0.22598 -0.21711 0.12476 -0.05064 0.092417 -0.28298 -0.040762 -0.033201 0.099834 -0.20823 0.055482 -0.42483 -0.084777 -0.18605 -0.085576 -0.057726 0.10433 -0.034919 0.15069 -0.0037072 -0.0067442 0.29597 -0.13976 0.03487 -0.076606 -0.075269 0.2563 0.20192 0.32341 0.12679 0.022931 -0.071197 0.27471 0.13321 -0.0048444 0.27232 0.18641 0.098458 -0.19344 0.01473 -0.068664 -0.098504 -0.030043 -0.10132 -0.19809 0.12635 0.14031 -0.15867 -0.3121 0.27632 0.11276 0.28684 -0.1807 0.57279 -0.24695 0.16096 -0.21983 -0.078843 0.18915 
sain -0.098818 -0.084237 0.16025 0.10036 0.012568 0.01571 -0.40121 -0.20206 -0.25816 -0.19326 -0.26799 -0.15689 0.060265 0.085368 -0.10014 -0.15825 -0.070352 -0.0079404 0.16015 -0.098641 0.27809 0.034806 0.032842 -0.25851 -0.29718 0.22305 0.084668 -0.16178 -0.20314 0.15933 0.099292 -0.54011 0.073149 0.27618 -0.13395 0.24082 0.093612 -0.021623 -0.25601 0.16091 -0.36586 0.25995 -0.22383 0.10479 -0.050268 0.083296 -0.27859 -0.03957 -0.021225 0.10277 -0.21745 0.064517 -0.44012 -0.080965 -0.20718 -0.069241 -0.062999 0.10983 -0.040846 0.15381 -0.000347 -0.0075784 0.30261 -0.13525 0.031779 -0.078646 -0.077148 0.27432 0.19659 0.32282 0.13998 0.0058576 -0.062238 0.27273 0.11994 -0.012956 0.26476 0.19029 0.097362 -0.20108 0.043857 -0.083338 -0.12088 -0.025782 -0.10318 -0.19117 0.10975 0.14009 -0.15613 -0.29958 0.27497 0.11007 0.29349 -0.1906 0.56848 -0.25008 0.17917 -0.22482 -0.081262 0.20618 
cho -0.03844 -0.10896 0.16176 0.28074 -0.0031419 0.10955 -0.48771 -0.28426 -0.30964 -0.23383 -0.20702 -0.22472 0.10173 0.048749 -0.080447 -0.21087 -0.049213 0.0034756 0.13782 -0.030878 0.24383 0.074799 0.0028729 -0.25412 -0.37555 0.21681 0.073262 -0.12665 -0.23605 0.12412 0.12623 -0.52714 0.13399 0.21613 -0.20372 0.26914 0.13261 -0.010139 -0.26364 0.17741 -0.43937 0.19045 -0.16964 0.24441 -0.012348 0.086252 -0.32289 -0.099694 -0.06457 0.076786 -0.22893 0.051721 -0.44572 -0.16042 -0.14206 -0.15242 -0.10839 0.089983 -0.043184 0.14427 -0.00093454 -0.0065344 0.32598 -0.15982 0.033674 -0.12195 -0.044202 0.22567 0.23043 0.38361 0.067359 0.096296 -0.078464 0.34476 0.16202 -0.015784 0.3505 0.18408 0.14797 -0.17968 -0.053401 -0.065298 -0.098585 -0.029826 -0.10576 -0.19885 0.16217 0.12198 -0.17045 -0.38439 0.34639 0.16079 0.29131 -0.25195 0.67413 -0.27262 0.16546 -0.27597 -0.085185 0.17792 
okeol -0.084531 -0.091137 0.16972 0.15156 0.0059324 0.040705 -0.39095 -0.21538 -0.26018 -0.21204 -0.25571 -0.1659 0.069453 0.076622 -0.10207 -0.17553 -0.064824 -0.0058223 0.15968 -0.093015 0.25915 0.037592 0.028523 -0.26139 -0.32378 0.23002 0.088427 -0.14789 -0.21408 0.15831 0.11384 -0.5372 0.092713 0.25603 -0.15689 0.24096 0.097909 -0.011194 -0.24752 0.17791 -0.39342 0.23879 -0.20855 0.13108 -0.039739 0.10154 -0.29927 -0.058927 -0.026439 0.10033 -0.21842 0.058967 -0.4399 -0.10392 -0.1895 -0.090724 -0.062363 0.10437 -0.042194 0.14592 0.0010617 -0.00959 0.30825 -0.14624 0.02399 -0.077683 -0.069107 0.26754 0.21953 0.33561 0.12469 0.034589 -0.071039 0.29116 0.13776 -0.016173 0.28076 0.18419 0.10852 -0.18365 0.0069226 -0.073175 -0.10633 -0.018244 -0.11079 -0.19077 0.11857 0.14037 -0.16554 -0.31646 0.28709 0.12927 0.2861 -0.2053 0.5855 -0.25612 0.17864 -0.2381 -0.074998 0.20691 
kaiin -0.06597 -0.0872 0.1433 0.15521 0.0099551 0.049862 -0.452 -0.22936 -0.26871 -0.20076 -0.24335 -0.17416 0.070415 0.07413 -0.084436 -0.16255 -0.051993 0.0029137 0.1366 -0.07225 0.25109 0.050456 0.010736 -0.24381 -0.30476 0.2003 0.066174 -0.13877 -0.20255 0.13054 0.091694 -0.48715 0.082571 0.23914 -0.14079 0.23743 0.10285 -0.029006 -0.24838 0.14145 -0.37176 0.21049 -0.18407 0.15638 -0.021824 0.066327 -0.27198 -0.060122 -0.036199 0.083424 -0.2081 0.052651 -0.42163 -0.107 -0.17614 -0.097077 -0.080152 0.10207 -0.038876 0.13521 0.014847 -0.0095992 0.28786 -0.13411 0.030627 -0.099989 -0.048705 0.24037 0.19765 0.32576 0.10561 0.041591 -0.061614 0.28346 0.12689 -0.010096 0.27906 0.17605 0.11212 -0.18733 0.02316 -0.075193 -0.11186 -0.024526 -0.090341 -0.17924 0.13004 0.10918 -0.15099 -0.29905 0.29075 0.11202 0.27534 -0.22003 0.57415 -0.23895 0.16974 -0.23177 -0.08176 0.19006 
cheky -0.095283 -0.086905 0.16446 0.12337 0.014802 0.023914 -0.40139 -0.20934 -0.26476 -0.20542 -0.27133 -0.1602 0.068347 0.081138 -0.097873 -0.1655 -0.067466 -0.0068405 0.16431 -0.10058 0.28002 0.041334 0.029525 -0.26501 -0.31216 0.23132 0.089038 -0.16002 -0.20951 0.15957 0.10944 -0.55144 0.081483 0.2775 -0.14435 0.25149 0.096475 -0.016282 -0.25753 0.16562 -0.38002 0.25389 -0.22381 0.12231 -0.050309 0.09311 -0.28979 -0.050404 -0.023997 0.10249 -0.21976 0.060711 -0.45003 -0.086653 -0.20332 -0.077693 -0.06674 0.10757 -0.041269 0.15194 -0.0065235 -0.0068099 0.30888 -0.14483 0.030095 -0.081012 -0.084422 0.27672 0.20686 0.33419 0.13886 0.0091545 -0.066848 0.28478 0.13218 -0.015786 0.26921 0.19547 0.10139 -0.1998 0.030982 -0.084832 -0.11555 -0.024444 -0.10327 -0.20293 0.11748 0.14187 -0.1665 -0.31423 0.28442 0.11631 0.29882 -0.19869 0.58706 -0.25203 0.18191 -0.2345 -0.085517 0.20685 
cheo -0.097283 -0.092473 0.16473 0.13993 0.013611 0.032903 -0.41102 -0.21452 -0.27188 -0.21628 -0.27947 -0.16834 0.066806 0.077362 -0.096713 -0.17101 -0.067806 -0.011622 0.16274 -0.099555 0.27957 0.046072 0.026567 -0.2667 -0.3234 0.23262 0.094377 -0.1597 -0.2187 0.16396 0.10922 -0.565 0.090432 0.27492 -0.15858 0.25555 0.1024 -0.01515 -0.26594 0.17172 -0.39687 0.2591 -0.2244 0.13692 -0.043144 0.10065 -0.30166 -0.061053 -0.017157 0.10588 -0.22697 0.064164 -0.45917 -0.096 -0.20092 -0.086789 -0.07065 0.10305 -0.039125 0.15594 -0.0084555 -0.0077836 0.31429 -0.14582 0.028371 -0.088245 -0.080545 0.28442 0.21478 0.34073 0.13426 0.01888 -0.070217 0.29972 0.13127 -0.018489 0.28252 0.19761 0.10752 -0.19359 0.0249 -0.08667 -0.11759 -0.018774 -0.10286 -0.19875 0.11059 0.14444 -0.16822 -0.32673 0.29505 0.12824 0.29866 -0.20834 0.60285 -0.26521 0.1853 -0.24618 -0.084885 0.2146 
qotain -0.1006 -0.078551 0.16027 0.082482 0.017284 0.0042564 -0.369 -0.18578 -0.24581 -0.18649 -0.2639 -0.14325 0.052056 0.082091 -0.09543 -0.14849 -0.070395 -0.0049484 0.16728 -0.10712 0.27923 0.035688 0.034785 -0.25383 -0.27808 0.22032 0.086374 -0.16181 -0.19558 0.16136 0.097259 -0.53221 0.061913 0.27798 -0.123 0.23334 0.082567 -0.016974 -0.23904 0.15173 -0.34376 0.25552 -0.22475 0.087343 -0.054783 0.086102 -0.26818 -0.029807 -0.014146 0.10316 -0.20883 0.063214 -0.42948 -0.064688 -0.20999 -0.061389 -0.050628 0.10745 -0.037039 0.14738 -0.0027641 -0.0044877 0.29466 -0.13089 0.029851 -0.068378 -0.083172 0.2721 0.1893 0.30818 0.1466 -0.0071338 -0.061386 0.2576 0.11694 -0.012749 0.24404 0.188 0.08866 -0.20158 0.050472 -0.083995 -0.11543 -0.027887 -0.095681 -0.19459 0.10789 0.14087 -0.15568 -0.28428 0.26058 0.10274 0.28624 -0.17372 0.54676 -0.23582 0.17039 -0.21215 -0.081929 0.19932 
qotar -0.10142 -0.078316 0.16386 0.085113 0.021362 -0.001096 -0.37253 -0.19076 -0.25368 -0.19137 -0.2708 -0.14178 0.054219 0.081011 -0.095898 -0.15398 -0.066039 -0.0071607 0.17766 -0.1132 0.28874 0.037543 0.032948 -0.26367 -0.2838 0.22452 0.091185 -0.15739 -0.20065 0.1658 0.1052 -0.54645 0.066597 0.28593 -0.12439 0.23872 0.08352 -0.019003 -0.24576 0.1608 -0.35366 0.26071 -0.23287 0.092771 -0.059454 0.095599 -0.27714 -0.028195 -0.016046 0.10802 -0.21294 0.064024 -0.4398 -0.062337 -0.21418 -0.065347 -0.045889 0.11334 -0.036766 0.15058 0.0031676 -0.0017304 0.30264 -0.13998 0.035309 -0.067999 -0.084206 0.28148 0.19333 0.31446 0.15543 -0.010275 -0.067898 0.2664 0.12783 -0.011061 0.24937 0.19173 0.090245 -0.21204 0.051436 -0.082245 -0.11592 -0.030335 -0.1014 -0.20283 0.11746 0.14726 -0.16446 -0.29323 0.26524 0.10411 0.29466 -0.17549 0.56466 -0.24254 0.16803 -0.21795 -0.080611 0.20011 
okey -0.1039 -0.08553 0.16934 0.097695 0.012477 0.016413 -0.36756 -0.19678 -0.25203 -0.20212 -0.28209 -0.14838 0.058441 0.089985 -0.10537 -0.1633 -0.071525 -0.012244 0.16879 -0.10818 0.28125 0.036714 0.031501 -0.26625 -0.30441 0.23502 0.098756 -0.15857 -0.21354 0.17285 0.10707 -0.55817 0.07346 0.28361 -0.14194 0.23708 0.089515 -0.015778 -0.24784 0.16955 -0.37309 0.26998 -0.23599 0.096002 -0.051408 0.10184 -0.29022 -0.039566 -0.011858 0.10452 -0.22234 0.06202 -0.44726 -0.075556 -0.21718 -0.06843 -0.054552 0.1132 -0.042688 0.15117 -0.0018973 -0.00208 0.31118 -0.14609 0.028617 -0.072719 -0.08769 0.29328 0.20819 0.3249 0.14545 0.0029756 -0.06349 0.28191 0.12334 -0.012196 0.25627 0.18775 0.097753 -0.19556 0.042098 -0.082157 -0.11485 -0.018247 -0.10725 -0.19079 0.10333 0.14381 -0.16594 -0.3059 0.26775 0.11585 0.29439 -0.19116 0.56863 -0.25551 0.176 -0.22929 -0.078068 0.21475 
qotchy -0.070112 -0.093917 0.15741 0.15977 0.011352 0.036725 -0.39599 -0.21496 -0.26102 -0.19505 -0.21795 -0.165 0.070255 0.064353 -0.085431 -0.16695 -0.053221 0.00065328 0.15114 -0.075629 0.25364 0.047756 0.017975 -0.24472 -0.29916 0.21182 0.078191 -0.13191 -0.19876 0.14073 0.1109 -0.50846 0.08886 0.24416 -0.14437 0.23858 0.092208 -0.013276 -0.23161 0.15887 -0.36423 0.21035 -0.20112 0.14251 -0.039752 0.088105 -0.28203 -0.049502 -0.037679 0.092088 -0.20349 0.052497 -0.41452 -0.096132 -0.17135 -0.093112 -0.058584 0.095483 -0.03658 0.14442 0.00028098 -0.0054687 0.29126 -0.141 0.032355 -0.081638 -0.067049 0.239 0.19823 0.32116 0.11227 0.037335 -0.069992 0.27898 0.13778 -0.010018 0.27557 0.17948 0.10608 -0.18946 0.0029988 -0.067906 -0.097716 -0.032697 -0.097627 -0.1938 0.13514 0.13035 -0.15435 -0.3113 0.27931 0.11408 0.27848 -0.18678 0.57293 -0.241 0.15361 -0.2225 -0.07921 0.17539 
cthol -0.057065 -0.094023 0.15617 0.20207 0.0017042 0.062577 -0.44069 -0.23047 -0.26215 -0.20388 -0.20881 -0.18246 0.076183 0.059938 -0.088235 -0.1781 -0.053238 -0.00056471 0.14359 -0.059691 0.24061 0.050111 0.01255 -0.24373 -0.31757 0.20887 0.07501 -0.12525 -0.20249 0.1321 0.11469 -0.49965 0.10624 0.22619 -0.16437 0.23907 0.10389 -0.0089316 -0.23861 0.15869 -0.3833 0.19762 -0.1807 0.16876 -0.028493 0.085893 -0.29024 -0.06904 -0.04799 0.091185 -0.20445 0.04979 -0.41604 -0.11929 -0.1589 -0.11258 -0.07533 0.089174 -0.036633 0.13918 -0.00023794 -0.0084924 0.29208 -0.14307 0.029546 -0.088452 -0.051311 0.22394 0.20836 0.33478 0.093759 0.062249 -0.068064 0.29206 0.14393 -0.010058 0.29998 0.17447 0.12031 -0.18072 -0.021828 -0.062256 -0.096398 -0.03057 -0.10283 -0.19035 0.13562 0.12896 -0.15392 -0.32293 0.29711 0.13054 0.27176 -0.20556 0.59063 -0.24501 0.1596 -0.23445 -0.078994 0.17475 
shckhy -0.083612 -0.079638 0.15712 0.12162 0.0085654 0.01936 -0.37559 -0.19928 -0.24891 -0.18956 -0.23998 -0.15504 0.060559 0.075132 -0.092004 -0.15627 -0.063856 -0.0053074 0.1585 -0.089158 0.26409 0.034423 0.026539 -0.24669 -0.28791 0.21287 0.084473 -0.14416 -0.19455 0.15427 0.10603 -0.51226 0.075179 0.25998 -0.13512 0.22737 0.086091 -0.014242 -0.23386 0.15567 -0.35612 0.23138 -0.21021 0.11028 -0.042586 0.089225 -0.27486 -0.04186 -0.024597 0.09904 -0.20889 0.057511 -0.4178 -0.081866 -0.18806 -0.075294 -0.060123 0.10307 -0.035294 0.14527 -0.00060413 -0.0065867 0.28888 -0.13586 0.029642 -0.071861 -0.073874 0.25186 0.19027 0.31413 0.12644 0.016838 -0.062578 0.26661 0.12954 -0.011433 0.26013 0.1818 0.095908 -0.18842 0.027171 -0.076278 -0.1042 -0.028373 -0.1011 -0.19067 0.11648 0.13198 -0.15119 -0.29372 0.26899 0.11159 0.27824 -0.18204 0.55005 -0.23728 0.16378 -0.21673 -0.078239 0.18895 
odaiin -0.062638 -0.090678 0.14559 0.17297 0.0085094 0.053066 -0.45292 -0.23821 -0.28051 -0.20723 -0.24366 -0.18396 0.077008 0.075397 -0.086703 -0.1721 -0.055442 0.0070239 0.14323 -0.064474 0.25105 0.053391 0.010872 -0.24541 -0.31721 0.20817 0.066593 -0.13805 -0.20693 0.13323 0.10175 -0.50535 0.090668 0.24174 -0.15136 0.24391 0.10885 -0.023749 -0.25208 0.15697 -0.38727 0.2144 -0.186 0.17287 -0.025951 0.071942 -0.28584 -0.066438 -0.040473 0.081816 -0.21141 0.056636 -0.43346 -0.11101 -0.17022 -0.10111 -0.080945 0.1037 -0.041743 0.14114 0.013701 -0.0069869 0.29596 -0.14218 0.027342 -0.10329 -0.050862 0.24131 0.20484 0.33945 0.10608 0.050231 -0.069153 0.29367 0.13529 -0.014614 0.29478 0.18082 0.12286 -0.18975 0.0087277 -0.074924 -0.10587 -0.02494 -0.095968 -0.19069 0.13739 0.11626 -0.1574 -0.31615 0.30605 0.12059 0.28129 -0.22472 0.59333 -0.24792 0.16695 -0.23911 -0.084996 0.1889 
qotal -0.10013 -0.080417 0.16393 0.085224 0.019194 0.0010437 -0.37148 -0.19053 -0.25111 -0.18925 -0.26908 -0.14458 0.056745 0.081917 -0.099199 -0.15546 -0.06861 -0.00479 0.17875 -0.11386 0.28507 0.035837 0.035092 -0.26375 -0.2823 0.22691 0.089148 -0.16108 -0.19632 0.16375 0.1051 -0.54972 0.068174 0.28706 -0.12509 0.24071 0.083479 -0.017154 -0.24236 0.16096 -0.35272 0.26069 -0.23394 0.092724 -0.060061 0.09132 -0.276 -0.028094 -0.018588 0.10764 -0.21257 0.06446 -0.43891 -0.063539 -0.21413 -0.065918 -0.043158 0.11258 -0.037316 0.1484 -0.0032115 -0.0021698 0.30162 -0.13847 0.031745 -0.067667 -0.088017 0.27807 0.19311 0.31389 0.15574 -0.007945 -0.068293 0.26549 0.12653 -0.014097 0.24903 0.19278 0.092121 -0.21037 0.046732 -0.080886 -0.11335 -0.030543 -0.10107 -0.20448 0.11544 0.14421 -0.16196 -0.29384 0.26396 0.10636 0.2955 -0.17813 0.56302 -0.24421 0.17018 -0.21529 -0.082022 0.20348 
cheedy -0.14779 -0.070436 0.18172 -0.014596 0.031215 -0.060932 -0.32832 -0.1518 -0.24843 -0.1784 -0.32698 -0.11364 0.042808 0.10397 -0.11101 -0.14201 -0.093426 -0.011727 0.20887 -0.16926 0.34137 0.020363 0.057616 -0.28746 -0.26723 0.25551 0.1085 -0.19612 -0.19435 0.20669 0.10683 -0.61586 0.041821 0.35273 -0.10714 0.25802 0.072007 -0.016008 -0.25059 0.16346 -0.3474 0.33003 -0.28813 0.020001 -0.095898 0.11365 -0.28053 0.0075831 0.012949 0.13752 -0.21984 0.076619 -0.47172 -0.013243 -0.26569 -0.021883 -0.01957 0.13067 -0.039356 0.17196 -0.012923 -0.0021083 0.32735 -0.13563 0.034477 -0.052105 -0.12773 0.33864 0.19106 0.30965 0.21071 -0.072494 -0.064705 0.24682 0.12044 -0.01339 0.21505 0.21965 0.063969 -0.23412 0.10469 -0.10456 -0.13436 -0.029191 -0.107 -0.22879 0.09511 0.1756 -0.17138 -0.28224 0.24954 0.080552 0.31781 -0.14198 0.55447 -0.24641 0.19047 -0.20395 -0.091498 0.2309 
ykeey -0.10306 -0.080849 0.15891 0.099185 0.0076675 0.017185 -0.36761 -0.19254 -0.24024 -0.19316 -0.26458 -0.14423 0.056731 0.078292 -0.09527 -0.15306 -0.063828 -0.011877 0.16052 -0.10131 0.2714 0.035937 0.026805 -0.25129 -0.29359 0.22507 0.092003 -0.15291 -0.20067 0.16393 0.1046 -0.5309 0.075694 0.26795 -0.13968 0.2297 0.087299 -0.013772 -0.24098 0.15374 -0.35909 0.25323 -0.22516 0.098984 -0.049345 0.094861 -0.28067 -0.046179 -0.012781 0.10256 -0.21643 0.059504 -0.43163 -0.078896 -0.21231 -0.071252 -0.061339 0.11034 -0.039364 0.14581 -0.0070179 -0.0062256 0.29605 -0.14164 0.029298 -0.071725 -0.084399 0.2751 0.20253 0.31454 0.13814 0.0027687 -0.058064 0.26971 0.11679 -0.009599 0.2529 0.18317 0.09007 -0.18575 0.037961 -0.085148 -0.10949 -0.020055 -0.10184 -0.18611 0.1034 0.14164 -0.15694 -0.29535 0.26245 0.11369 0.28378 -0.18548 0.55139 -0.24411 0.17433 -0.221 -0.076583 0.20485 
sor -0.079025 -0.093042 0.16687 0.16194 0.01213 0.036677 -0.41611 -0.22836 -0.26805 -0.20972 -0.23906 -0.17177 0.072149 0.074825 -0.091677 -0.17219 -0.065039 -0.004355 0.15649 -0.080145 0.26562 0.04953 0.023147 -0.25782 -0.32123 0.22376 0.082715 -0.141 -0.21526 0.15016 0.11401 -0.54038 0.090525 0.26318 -0.16283 0.24506 0.10477 -0.01723 -0.25555 0.1701 -0.39169 0.23268 -0.20757 0.14655 -0.038467 0.092958 -0.29772 -0.057656 -0.034667 0.10143 -0.2174 0.056717 -0.44481 -0.10197 -0.19414 -0.095187 -0.068767 0.10123 -0.043437 0.14849 0.0026399 -0.0016673 0.30669 -0.15171 0.028124 -0.086941 -0.068241 0.26166 0.21516 0.34048 0.12292 0.036571 -0.069589 0.2935 0.14221 -0.012773 0.28896 0.18537 0.11462 -0.19532 0.011605 -0.077333 -0.11078 -0.025025 -0.10732 -0.19514 0.13245 0.13465 -0.1631 -0.32699 0.29413 0.12609 0.28991 -0.20906 0.60256 -0.2558 0.17392 -0.2365 -0.078103 0.19155 
oly -0.11242 -0.095434 0.18794 0.11785 0.014272 0.012132 -0.44218 -0.23211 -0.2959 -0.22726 -0.30581 -0.17874 0.070132 0.093086 -0.1097 -0.18623 -0.077761 -0.0056007 0.19486 -0.11568 0.31829 0.038834 0.037599 -0.29981 -0.33755 0.2568 0.10027 -0.17458 -0.23366 0.1877 0.11728 -0.61773 0.082854 0.31544 -0.16125 0.27718 0.10255 -0.016818 -0.2835 0.19071 -0.41812 0.29414 -0.25774 0.12096 -0.060324 0.10357 -0.32518 -0.038421 -0.021911 0.11627 -0.24919 0.072864 -0.50484 -0.086984 -0.23948 -0.083326 -0.06421 0.12724 -0.047024 0.17101 -0.0032252 -0.0067455 0.35045 -0.166 0.038069 -0.084119 -0.090605 0.31214 0.23072 0.36955 0.16166 0.0053112 -0.07385 0.31046 0.14767 -0.01204 0.30145 0.21492 0.11185 -0.22564 0.046906 -0.092657 -0.12809 -0.032309 -0.11969 -0.22345 0.12929 0.16234 -0.18532 -0.34512 0.31702 0.13133 0.33568 -0.21104 0.65324 -0.28238 0.19752 -0.2567 -0.095355 0.22728 
qokchdy -0.10927 -0.079844 0.16948 0.061862 0.02157 -0.021861 -0.35407 -0.18329 -0.25827 -0.18426 -0.27208 -0.1399 0.053294 0.083624 -0.095657 -0.14933 -0.074944 -0.0042815 0.18643 -0.12823 0.29902 0.027267 0.040782 -0.27719 -0.27989 0.23653 0.091943 -0.16132 -0.19045 0.18088 0.11119 -0.56316 0.059429 0.3028 -0.11728 0.24897 0.077057 -0.012023 -0.2393 0.16344 -0.35013 0.26743 -0.2521 0.079728 -0.075733 0.10101 -0.28013 -0.010578 -0.015273 0.1213 -0.21292 0.064186 -0.44194 -0.048897 -0.22076 -0.058242 -0.034103 0.11905 -0.031673 0.16194 -0.0042061 -0.0048429 0.31386 -0.13931 0.037095 -0.061237 -0.099837 0.29495 0.19333 0.31515 0.16812 -0.024127 -0.068431 0.2615 0.13313 -0.0043752 0.24384 0.20256 0.083633 -0.20949 0.057451 -0.078373 -0.1127 -0.035278 -0.10711 -0.21388 0.1233 0.15897 -0.16699 -0.29973 0.26286 0.096042 0.30118 -0.16049 0.56609 -0.24414 0.16844 -0.20634 -0.079618 0.20758 
otey -0.086913 -0.08194 0.15667 0.11587 0.017291 0.017414 -0.37177 -0.20477 -0.25679 -0.2027 -0.26932 -0.15719 0.057459 0.09046 -0.0967 -0.16168 -0.064709 -0.0025167 0.16563 -0.10054 0.27352 0.04388 0.022045 -0.25965 -0.29375 0.22162 0.088072 -0.15004 -0.21031 0.15762 0.10045 -0.53866 0.081928 0.27013 -0.13872 0.23525 0.094742 -0.018215 -0.24477 0.16361 -0.36891 0.25489 -0.21939 0.11737 -0.048894 0.097438 -0.28492 -0.042758 -0.016668 0.093275 -0.22329 0.063695 -0.44129 -0.082467 -0.204 -0.071513 -0.058007 0.10785 -0.045131 0.14448 0.0036857 0.004219 0.30091 -0.14582 0.029465 -0.075012 -0.078099 0.27889 0.19642 0.32115 0.1417 0.010569 -0.065939 0.27765 0.12533 -0.013498 0.26446 0.1821 0.10681 -0.1918 0.034887 -0.076977 -0.11527 -0.021164 -0.099752 -0.19469 0.11638 0.13743 -0.16799 -0.30155 0.27704 0.11729 0.28504 -0.19905 0.56867 -0.24789 0.16686 -0.22677 -0.071563 0.19448 
shody -0.082277 -0.079491 0.15896 0.11723 0.013528 0.011916 -0.37466 -0.20396 -0.25696 -0.18982 -0.24647 -0.15097 0.061748 0.080259 -0.089673 -0.1583 -0.060706 -0.00091086 0.16301 -0.097672 0.26921 0.037119 0.028025 -0.2521 -0.2846 0.21722 0.083222 -0.13998 -0.19126 0.15786 0.10617 -0.52867 0.074903 0.26196 -0.13567 0.23737 0.086647 -0.014965 -0.23485 0.1626 -0.35788 0.2321 -0.21805 0.11853 -0.049084 0.09163 -0.28018 -0.032353 -0.030084 0.10138 -0.21017 0.059019 -0.41908 -0.072654 -0.19061 -0.079701 -0.050206 0.10372 -0.035198 0.15002 0.0066919 -0.0065306 0.29681 -0.1387 0.030772 -0.070029 -0.076398 0.26388 0.1996 0.31746 0.13508 0.010448 -0.067428 0.27041 0.13309 -0.01419 0.25761 0.18658 0.097875 -0.19108 0.033017 -0.072775 -0.10406 -0.029007 -0.10057 -0.20066 0.12729 0.13841 -0.15835 -0.29939 0.27284 0.10771 0.27837 -0.17994 0.55946 -0.23967 0.15964 -0.21347 -0.072201 0.19051 
sal -0.095306 -0.082512 0.15895 0.11648 0.017969 0.02329 -0.39164 -0.20562 -0.25362 -0.19794 -0.26495 -0.15856 0.064292 0.085619 -0.095958 -0.16165 -0.067091 -0.0058659 0.16462 -0.099812 0.27518 0.036249 0.026251 -0.25987 -0.29801 0.2227 0.086541 -0.1532 -0.20073 0.154 0.10495 -0.53886 0.075314 0.27017 -0.13517 0.23932 0.095327 -0.020111 -0.24929 0.16166 -0.36968 0.25086 -0.2224 0.11951 -0.053028 0.088773 -0.27933 -0.039791 -0.026998 0.10175 -0.2179 0.062894 -0.43914 -0.079068 -0.19754 -0.071105 -0.063319 0.10821 -0.038042 0.15066 0.00041913 -0.0074857 0.30265 -0.14502 0.028817 -0.082335 -0.077674 0.27067 0.20054 0.32443 0.1401 0.009342 -0.071018 0.27687 0.12897 -0.0085116 0.26835 0.1854 0.10049 -0.19818 0.032199 -0.075338 -0.11596 -0.025204 -0.10417 -0.19938 0.11853 0.13875 -0.16181 -0.29993 0.27711 0.11439 0.28953 -0.19484 0.58097 -0.24547 0.17694 -0.22792 -0.079929 0.20217 
keedy -0.16145 -0.060468 0.18443 -0.067129 0.031619 -0.090396 -0.28231 -0.13048 -0.23051 -0.15882 -0.33151 -0.092371 0.027975 0.10901 -0.11603 -0.12826 -0.099466 -0.01392 0.21977 -0.18633 0.34587 0.012623 0.064707 -0.2869 -0.24187 0.25696 0.10862 -0.20127 -0.17819 0.2203 0.10257 -0.61569 0.025123 0.36587 -0.084336 0.24745 0.054816 -0.013199 -0.23405 0.15589 -0.31729 0.34374 -0.30106 -0.019773 -0.10709 0.11284 -0.26937 0.036647 0.02308 0.14225 -0.2128 0.078088 -0.4586 0.01516 -0.28175 -0.0020567 0.0047405 0.13669 -0.039071 0.16871 -0.010759 0.00060854 0.32102 -0.12786 0.032697 -0.031995 -0.14043 0.34778 0.1777 0.29248 0.23261 -0.097936 -0.062228 0.2211 0.11408 -0.0080924 0.18265 0.21789 0.048404 -0.23903 0.12594 -0.10271 -0.13409 -0.033201 -0.10671 -0.22928 0.092973 0.18189 -0.17012 -0.25938 0.22364 0.066059 0.31472 -0.11647 0.52108 -0.23726 0.18529 -0.18124 -0.082293 0.23214 
olaiin -0.08096 -0.094012 0.15949 0.14932 0.010725 0.038667 -0.45738 -0.23532 -0.28531 -0.21217 -0.26913 -0.17888 0.071931 0.082434 -0.092679 -0.1739 -0.061448 0.0025559 0.15982 -0.08621 0.27684 0.047737 0.020944 -0.26564 -0.32491 0.22586 0.076711 -0.15339 -0.21395 0.15109 0.10323 -0.54466 0.089217 0.27049 -0.15053 0.25512 0.10679 -0.025784 -0.26488 0.16466 -0.39934 0.24462 -0.2129 0.15126 -0.03367 0.082202 -0.29562 -0.058237 -0.031805 0.095028 -0.22598 0.061556 -0.45782 -0.1043 -0.20011 -0.095105 -0.075864 0.113 -0.041013 0.1513 0.0097529 -0.0073563 0.31149 -0.15031 0.032957 -0.098034 -0.063823 0.27162 0.21019 0.34879 0.12576 0.030892 -0.066905 0.29554 0.13474 -0.016027 0.29423 0.19135 0.11641 -0.20385 0.027653 -0.08263 -0.1177 -0.025647 -0.1013 -0.20223 0.13355 0.12957 -0.16588 -0.3243 0.30653 0.12107 0.3017 -0.2208 0.61507 -0.25989 0.18128 -0.24506 -0.087458 0.20769 
qokeol -0.10877 -0.087362 0.17882 0.091293 0.010825 0.0038626 -0.36514 -0.19035 -0.24879 -0.19739 -0.27922 -0.14451 0.060372 0.082344 -0.10719 -0.15847 -0.074161 -0.0086964 0.18044 -0.12312 0.28772 0.027213 0.038296 -0.27335 -0.2996 0.24241 0.10111 -0.16453 -0.20117 0.18139 0.11437 -0.56575 0.074464 0.29012 -0.13614 0.24255 0.081322 -0.010223 -0.24361 0.17243 -0.37249 0.26705 -0.24023 0.079831 -0.061775 0.10831 -0.29445 -0.03686 -0.010625 0.11854 -0.21752 0.062758 -0.44563 -0.074562 -0.21755 -0.071455 -0.039846 0.11336 -0.038679 0.15995 -0.0080471 -0.009601 0.31024 -0.14256 0.030867 -0.063145 -0.092739 0.29087 0.21272 0.32485 0.15777 -0.0020396 -0.068958 0.2715 0.13275 -0.012237 0.25673 0.19805 0.08724 -0.19995 0.038064 -0.081001 -0.11155 -0.022516 -0.11181 -0.20637 0.11008 0.15722 -0.16789 -0.30277 0.27025 0.11631 0.29532 -0.17516 0.56936 -0.25304 0.18279 -0.22305 -0.080284 0.2188 
kar -0.089254 -0.08274 0.15643 0.10677 0.016453 0.011984 -0.39522 -0.20406 -0.26256 -0.20133 -0.2625 -0.15224 0.059717 0.082442 -0.094244 -0.15196 -0.0627 -0.007397 0.16629 -0.096821 0.27568 0.034809 0.031003 -0.25541 -0.2976 0.21527 0.082367 -0.1521 -0.20177 0.15297 0.098234 -0.52451 0.065123 0.27022 -0.13457 0.24174 0.094767 -0.021385 -0.24861 0.16273 -0.36467 0.24814 -0.22102 0.11239 -0.043786 0.088225 -0.28003 -0.041223 -0.020654 0.10057 -0.21464 0.060034 -0.43685 -0.071515 -0.2043 -0.069054 -0.057073 0.11152 -0.041087 0.14602 0.0067475 0.00089809 0.29962 -0.138 0.031315 -0.080783 -0.075064 0.26772 0.19789 0.31388 0.1383 0.0061638 -0.061944 0.26994 0.12858 -0.013135 0.26364 0.18381 0.10131 -0.19286 0.043531 -0.077665 -0.11667 -0.026651 -0.10145 -0.18981 0.11753 0.13692 -0.15756 -0.29793 0.27199 0.10839 0.29014 -0.18923 0.57025 -0.24078 0.16602 -0.22283 -0.080168 0.19791 
sheor -0.087035 -0.083566 0.16402 0.13583 0.0095773 0.029195 -0.39926 -0.21195 -0.26177 -0.20207 -0.25028 -0.16154 0.066847 0.076753 -0.096265 -0.16383 -0.061857 -0.0068059 0.15897 -0.090618 0.27093 0.035912 0.025789 -0.26073 -0.30167 0.2239 0.087619 -0.14786 -0.20289 0.15801 0.11237 -0.54408 0.079416 0.26428 -0.15037 0.23804 0.091888 -0.013723 -0.24358 0.16945 -0.37862 0.23666 -0.21584 0.12406 -0.045331 0.093487 -0.29097 -0.049587 -0.025764 0.10519 -0.21732 0.05834 -0.43666 -0.092761 -0.19889 -0.084198 -0.063681 0.10153 -0.039695 0.15181 0.0014035 -0.0034763 0.30092 -0.1445 0.028773 -0.072523 -0.076299 0.26462 0.20564 0.33145 0.13078 0.021768 -0.068199 0.28107 0.13357 -0.0095668 0.27523 0.19004 0.10617 -0.19461 0.027171 -0.081578 -0.10889 -0.018844 -0.10436 -0.19915 0.12119 0.14173 -0.15805 -0.3121 0.28546 0.1209 0.28936 -0.19182 0.57712 -0.25221 0.17457 -0.23149 -0.078016 0.20009 
